{
  "name": "PV3",
  "type": "F1+H1+F2",
  "t_step": 0.01,
  "normfacs": {
    "G": {
      "scale": 1000.0,
      "offset": 809.2813110351562
    },
    "Ud": {
      "scale": 0.40000003576278687,
      "offset": 0.9999997615814209
    },
    "Uq": {
      "scale": 1.0,
      "offset": -3.3840739238621964e-11
    },
    "Id": {
      "scale": 4.686577320098877,
      "offset": 2.4104905128479004
    },
    "Iq": {
      "scale": 4.055089473724365,
      "offset": -0.05657494440674782
    },
    "GIrms": {
      "scale": 5902.79296875,
      "offset": 2748.572021484375
    },
    "Ctrl": {
      "scale": 1.0,
      "offset": 0.8992015719413757
    },
    "Vdc": {
      "scale": 635.2540283203125,
      "offset": 495.7726135253906
    },
    "Idc": {
      "scale": 4.1067023277282715,
      "offset": 1.8830465078353882
    },
    "Vd": {
      "scale": 342.86944580078125,
      "offset": 230.29591369628906
    },
    "Vq": {
      "scale": 296.395751953125,
      "offset": -5.334640026092529
    }
  },
  "model_folder": "./ucfB_t_2nd_Ctrl/",
  "model_root": "ucfB_t_2nd_Ctrl",
  "data_path": "d:/data/ucf3/ucf4.hdf5",
  "lr": 0.001,
  "eps": 1e-08,
  "h5grp_prefix": "ucf",
  "num_iter": 500,
  "continue_iterations": false,
  "print_freq": 1,
  "batch_size": 405,
  "n_validation_pct": 15,
  "n_validation_seed": 99,
  "n_skip": 0,
  "n_trunc": 0,
  "n_dec": 1,
  "n_loss_skip": 50,
  "n_pad": 100,
  "gtype": "stable2ndx",
  "na": 2,
  "nb": 3,
  "nk": 0,
  "activation": "tanh",
  "nh1": 80,
  "nh2": 60,
  "COL_T": [
    "t"
  ],
  "COL_Y": [
    "Vdc",
    "Idc",
    "Vd",
    "Vq"
  ],
  "COL_U": [
    "G",
    "Ud",
    "Uq",
    "Id",
    "Iq",
    "GIrms",
    "Ctrl"
  ],
  "clamps": null,
  "sensitivity": {
    "limit": 70.0,
    "weight": 0.003,
    "delta": 0.01,
    "inputs": [
      "Id",
      "Iq"
    ],
    "outputs": [
      "Vd",
      "Vq"
    ],
    "GIrms": {
      "G": "G",
      "Id": "Id",
      "Iq": "Iq",
      "k": 1.2247449
    },
    "sets": {
      "G": [
        300.0,
        800.0
      ],
      "Ud": [
        0.9,
        1.1
      ],
      "Uq": [
        -0.4,
        0.4
      ],
      "Id": [
        2.3,
        4.6
      ],
      "Iq": [
        -2.0,
        2.0
      ],
      "Ctrl": [
        0.0,
        1.0
      ]
    }
  },
  "H1": {
    "n_in": 4,
    "n_out": 4,
    "n_b": 3,
    "n_a": 2,
    "n_k": 0,
    "b_0_0": [
      -0.026842987164855003,
      -0.038538917899131775,
      -0.10310464352369308
    ],
    "a_0_0": [
      -0.2062464952468872,
      -0.035993099212646484
    ],
    "alpha1_0_0": -0.1034911498427391,
    "alpha2_0_0": -0.3127484917640686,
    "b_0_1": [
      0.06025707349181175,
      0.0771503746509552,
      0.12216424942016602
    ],
    "a_0_1": [
      -0.00078285310883075,
      -0.2746961712837219
    ],
    "alpha1_0_1": -0.00039142658351920545,
    "alpha2_0_1": -0.564952552318573,
    "b_0_2": [
      0.055204011499881744,
      0.08858596533536911,
      0.06884536147117615
    ],
    "a_0_2": [
      0.07142600417137146,
      -0.029442667961120605
    ],
    "alpha1_0_2": 0.035728197544813156,
    "alpha2_0_2": -0.1353437304496765,
    "b_0_3": [
      -0.023414097726345062,
      0.0018884434830397367,
      -0.033181264996528625
    ],
    "a_0_3": [
      -0.06982845067977905,
      0.009282827377319336
    ],
    "alpha1_0_3": -0.034928422421216965,
    "alpha2_0_3": -0.053129781037569046,
    "b_1_0": [
      -0.21240609884262085,
      -0.03543778881430626,
      -0.044131748378276825
    ],
    "a_1_0": [
      -0.5831934213638306,
      0.21990156173706055
    ],
    "alpha1_1_0": -0.3003104627132416,
    "alpha2_1_0": -0.2031088024377823,
    "b_1_1": [
      0.09201890975236893,
      -0.04737471416592598,
      -0.08888619393110275
    ],
    "a_1_1": [
      0.05136653408408165,
      -0.10269838571548462
    ],
    "alpha1_1_1": 0.025688916444778442,
    "alpha2_1_1": -0.26507270336151123,
    "b_1_2": [
      -0.24480251967906952,
      -0.18102891743183136,
      -0.1903276890516281
    ],
    "a_1_2": [
      0.00014873960753902793,
      -0.4634959101676941
    ],
    "alpha1_1_2": 7.436980376951396e-05,
    "alpha2_1_2": -1.003786325454712,
    "b_1_3": [
      -0.15953360497951508,
      -0.12197573482990265,
      -0.06934419274330139
    ],
    "a_1_3": [
      0.07017943263053894,
      -0.0624614953994751
    ],
    "alpha1_1_3": 0.03510412946343422,
    "alpha2_1_3": -0.20289061963558197,
    "b_2_0": [
      -0.2575642168521881,
      -0.22422567009925842,
      -0.2409052699804306
    ],
    "a_2_0": [
      -0.7213201522827148,
      0.20890986919403076
    ],
    "alpha1_2_0": -0.37764444947242737,
    "alpha2_2_0": -0.48393768072128296,
    "b_2_1": [
      0.08660208433866501,
      0.08696426451206207,
      0.12741030752658844
    ],
    "a_2_1": [
      -0.5085029602050781,
      0.10219550132751465
    ],
    "alpha1_2_1": -0.2599529027938843,
    "alpha2_2_1": -0.4135909676551819,
    "b_2_2": [
      -0.13757039606571198,
      -0.11893676221370697,
      -0.13409730792045593
    ],
    "a_2_2": [
      -0.04728452116250992,
      -0.14090627431869507
    ],
    "alpha1_2_2": -0.02364666573703289,
    "alpha2_2_2": -0.34031298756599426,
    "b_2_3": [
      -0.11269386857748032,
      -0.05893191322684288,
      -0.09818107634782791
    ],
    "a_2_3": [
      0.3093257248401642,
      0.07015979290008545
    ],
    "alpha1_2_3": 0.1559140831232071,
    "alpha2_2_3": -0.20059756934642792,
    "b_3_0": [
      -0.04431843385100365,
      -0.09620597958564758,
      -0.1692492961883545
    ],
    "a_3_0": [
      -0.6293707489967346,
      0.2429490089416504
    ],
    "alpha1_3_0": -0.3257372975349426,
    "alpha2_3_0": -0.21012264490127563,
    "b_3_1": [
      0.009768346324563026,
      -0.0247846320271492,
      0.0770302265882492
    ],
    "a_3_1": [
      -0.31830596923828125,
      0.1676572561264038
    ],
    "alpha1_3_1": -0.16051754355430603,
    "alpha2_3_1": 0.0202285535633564,
    "b_3_2": [
      -0.044891711324453354,
      -0.07854193449020386,
      -0.07908617705106735
    ],
    "a_3_2": [
      -0.1206667572259903,
      0.005427122116088867
    ],
    "alpha1_3_2": -0.06040674448013306,
    "alpha2_3_2": -0.11699672788381577,
    "b_3_3": [
      -0.05590043589472771,
      -0.0911073312163353,
      -0.1484634429216385
    ],
    "a_3_3": [
      -0.526607871055603,
      0.13341093063354492
    ],
    "alpha1_3_3": -0.26965516805648804,
    "alpha2_3_3": -0.3563604950904846
  },
  "H1s": {
    "n_in": 4,
    "n_out": 4,
    "n_a": 3,
    "n_b": 3,
    "b_0_0": [
      -0.026842987164855003,
      -9.222489222884175,
      -1684.8654858768014
    ],
    "a_0_0": [
      1.0,
      179.37535047531128,
      7577.604055404663
    ],
    "b_0_1": [
      0.06025707349181175,
      19.766452163457878,
      2595.71697562933
    ],
    "a_0_1": [
      1.0,
      199.92171468911695,
      7245.209756074474
    ],
    "b_0_2": [
      0.055204011499881744,
      19.89939883351326,
      2126.353383064271
    ],
    "a_0_2": [
      1.0,
      207.14260041713715,
      10419.833362102509
    ],
    "b_0_3": [
      -0.023414097726345062,
      -4.493975196965032,
      -547.0691923985007
    ],
    "a_0_3": [
      1.0,
      193.0171549320221,
      9394.543766975403
    ],
    "b_1_0": [
      -0.21240609884262085,
      -46.02499864995479,
      -2919.7563603520384
    ],
    "a_1_0": [
      1.0,
      141.68065786361694,
      6367.081403732301
    ],
    "b_1_1": [
      0.09201890975236893,
      13.666310533881187,
      -442.41998344659953
    ],
    "a_1_1": [
      1.0,
      205.13665340840816,
      9486.681483685968
    ],
    "b_1_2": [
      -0.24480251967906952,
      -67.06339567899704,
      -6161.591261625287
    ],
    "a_1_2": [
      1.0,
      200.0148739607539,
      5366.52829439845
    ],
    "b_1_3": [
      -0.15953360497951508,
      -44.10429447889328,
      -3508.5353255271907
    ],
    "a_1_3": [
      1.0,
      207.0179432630539,
      10077.179372310638
    ],
    "b_2_0": [
      -0.2575642168521881,
      -73.93541038036348,
      -7226.951569318772
    ],
    "a_2_0": [
      1.0,
      127.86798477172854,
      4875.897169113161
    ],
    "b_2_1": [
      0.08660208433866501,
      26.016843318939205,
      3009.7665637731543
    ],
    "a_2_1": [
      1.0,
      149.1497039794922,
      5936.925411224365
    ],
    "b_2_2": [
      -0.13757039606571198,
      -39.40775543451309,
      -3906.0446619987497
    ],
    "a_2_2": [
      1.0,
      195.271547883749,
      8118.092045187949
    ],
    "b_2_3": [
      -0.11269386857748032,
      -28.431965038180355,
      -2698.0685815215065
    ],
    "a_2_3": [
      1.0,
      230.93257248401642,
      13794.855177402496
    ],
    "b_3_0": [
      -0.04431843385100365,
      -18.484284728765488,
      -3097.737096250057
    ],
    "a_3_0": [
      1.0,
      137.06292510032654,
      6135.782599449158
    ],
    "b_3_1": [
      0.009768346324563026,
      -0.5247939378022717,
      620.1394088566092
    ],
    "a_3_1": [
      1.0,
      168.16940307617188,
      8493.512868881226
    ],
    "b_3_2": [
      -0.044891711324453354,
      -16.832535713911057,
      -2025.1982286572452
    ],
    "a_3_2": [
      1.0,
      187.93332427740097,
      8847.603648900986
    ],
    "b_3_3": [
      -0.05590043589472771,
      -20.29082030057907,
      -2954.7121003270145
    ],
    "a_3_3": [
      1.0,
      147.33921289443967,
      6068.030595779416
    ]
  },
  "Q1s": {
    "n_in": 4,
    "n_out": 4,
    "n_a": 2,
    "n_b": 3,
    "A_0_0": [
      [
        -179.37535047531128,
        -7577.604055404663
      ],
      [
        1.0,
        0.0
      ]
    ],
    "B_0_0": [
      1.0,
      0.0
    ],
    "C_0_0": [
      -4.407518992384026,
      -1481.4599574772208
    ],
    "D_0_0": -0.026842987164855003,
    "A_0_1": [
      [
        -199.92171468911695,
        -7245.209756074474
      ],
      [
        1.0,
        0.0
      ]
    ],
    "B_0_1": [
      1.0,
      0.0
    ],
    "C_0_1": [
      7.719754708826736,
      2159.141838893959
    ],
    "D_0_1": 0.06025707349181175,
    "A_0_2": [
      [
        -207.14260041713715,
        -10419.833362102509
      ],
      [
        1.0,
        0.0
      ]
    ],
    "B_0_2": [
      1.0,
      0.0
    ],
    "C_0_2": [
      8.464296337970211,
      1551.1367823159126
    ],
    "D_0_2": 0.055204011499881744,
    "A_0_3": [
      [
        -193.0171549320221,
        -9394.543766975403
      ],
      [
        1.0,
        0.0
      ]
    ],
    "B_0_3": [
      1.0,
      0.0
    ],
    "C_0_3": [
      0.025347331474419477,
      -327.10442654411275
    ],
    "D_0_3": -0.023414097726345062,
    "A_1_0": [
      [
        -141.68065786361694,
        -6367.081403732301
      ],
      [
        1.0,
        0.0
      ]
    ],
    "B_1_0": [
      1.0,
      0.0
    ],
    "C_1_0": [
      -15.931162831687821,
      -1567.3494383718623
    ],
    "D_1_0": -0.21240609884262085,
    "A_1_1": [
      [
        -205.13665340840816,
        -9486.681483685968
      ],
      [
        1.0,
        0.0
      ]
    ],
    "B_1_1": [
      1.0,
      0.0
    ],
    "C_1_1": [
      -5.210140663010108,
      -1315.374070743368
    ],
    "D_1_1": 0.09201890975236893,
    "A_1_2": [
      [
        -200.0148739607539,
        -5366.52829439845
      ],
      [
        1.0,
        0.0
      ]
    ],
    "B_1_2": [
      1.0,
      0.0
    ],
    "C_1_2": [
      -18.09925056011297,
      -4847.851613227527
    ],
    "D_1_2": -0.24480251967906952,
    "A_1_3": [
      [
        -207.0179432630539,
        -10077.179372310638
      ],
      [
        1.0,
        0.0
      ]
    ],
    "B_1_3": [
      1.0,
      0.0
    ],
    "C_1_3": [
      -11.077975694693578,
      -1900.8865722372677
    ],
    "D_1_3": -0.15953360497951508,
    "A_2_0": [
      [
        -127.86798477172854,
        -4875.897169113161
      ],
      [
        1.0,
        0.0
      ]
    ],
    "B_2_0": [
      1.0,
      0.0
    ],
    "C_2_0": [
      -41.0011930221657,
      -5971.09493350434
    ],
    "D_2_0": -0.2575642168521881,
    "A_2_1": [
      [
        -149.1497039794922,
        -5936.925411224365
      ],
      [
        1.0,
        0.0
      ]
    ],
    "B_2_1": [
      1.0,
      0.0
    ],
    "C_2_1": [
      13.100168075820303,
      2495.6164485979384
    ],
    "D_2_1": 0.08660208433866501,
    "A_2_2": [
      [
        -195.271547883749,
        -8118.092045187949
      ],
      [
        1.0,
        0.0
      ]
    ],
    "B_2_2": [
      1.0,
      0.0
    ],
    "C_2_2": [
      -12.544171251781101,
      -2789.2355240443376
    ],
    "D_2_2": -0.13757039606571198,
    "A_2_3": [
      [
        -230.93257248401642,
        -13794.855177402496
      ],
      [
        1.0,
        0.0
      ]
    ],
    "B_2_3": [
      1.0,
      0.0
    ],
    "C_2_3": [
      -2.4072800644071606,
      -1143.4729851139357
    ],
    "D_2_3": -0.11269386857748032,
    "A_3_0": [
      [
        -137.06292510032654,
        -6135.782599449158
      ],
      [
        1.0,
        0.0
      ]
    ],
    "B_3_0": [
      1.0,
      0.0
    ],
    "C_3_0": [
      -12.4098705492816,
      -2825.8088209922307
    ],
    "D_3_0": -0.04431843385100365,
    "A_3_1": [
      [
        -168.16940307617188,
        -8493.512868881226
      ],
      [
        1.0,
        0.0
      ]
    ],
    "B_3_1": [
      1.0,
      0.0
    ],
    "C_3_1": [
      -2.1675309082453533,
      537.1718336412445
    ],
    "D_3_1": 0.009768346324563026,
    "A_3_2": [
      [
        -187.93332427740097,
        -8847.603648900986
      ],
      [
        1.0,
        0.0
      ]
    ],
    "B_3_2": [
      1.0,
      0.0
    ],
    "C_3_2": [
      -8.395887172205091,
      -1628.0141597376019
    ],
    "D_3_2": -0.044891711324453354,
    "A_3_3": [
      [
        -147.33921289443967,
        -6068.030595779416
      ],
      [
        1.0,
        0.0
      ]
    ],
    "B_3_3": [
      1.0,
      0.0
    ],
    "C_3_3": [
      -12.054494075393809,
      -2615.506545000401
    ],
    "D_3_3": -0.05590043589472771
  },
  "F1": {
    "n_in": 7,
    "n_hid": 80,
    "n_out": 4,
    "activation": "tanh",
    "net.0.weight": [
      [
        -0.01565328799188137,
        -0.031246960163116455,
        -0.4636409282684326,
        -0.21828067302703857,
        -0.14234231412410736,
        0.1740618795156479,
        -0.297938734292984
      ],
      [
        0.29837095737457275,
        -0.20694561302661896,
        0.23066098988056183,
        -0.06432073563337326,
        -0.07909943163394928,
        -0.2993403375148773,
        -0.06627392023801804
      ],
      [
        -0.5348423719406128,
        -0.3795662522315979,
        0.2917197346687317,
        0.21624210476875305,
        -0.18508364260196686,
        -0.08542200922966003,
        0.31503474712371826
      ],
      [
        0.24024637043476105,
        -0.07021906971931458,
        0.5776853561401367,
        -0.07896050065755844,
        0.00721635390073061,
        0.28086167573928833,
        -0.32729730010032654
      ],
      [
        -0.1539032906293869,
        0.025084108114242554,
        -0.3801105320453644,
        0.27321869134902954,
        -0.13487806916236877,
        -0.19206999242305756,
        -0.5284585952758789
      ],
      [
        -0.8477792739868164,
        -0.4409202039241791,
        0.22003082931041718,
        0.21470704674720764,
        0.0819772407412529,
        0.13159030675888062,
        -0.4578809142112732
      ],
      [
        -0.012091578915715218,
        -0.5514960289001465,
        -0.9137349724769592,
        -0.1484065055847168,
        0.12446193397045135,
        0.2382420152425766,
        -0.33038145303726196
      ],
      [
        0.32429593801498413,
        0.23865914344787598,
        0.8349049091339111,
        0.04240085557103157,
        0.031028063967823982,
        0.16118288040161133,
        -0.27783215045928955
      ],
      [
        -0.10161511600017548,
        -0.05747298523783684,
        -0.7169521450996399,
        -0.130388081073761,
        0.05872392654418945,
        0.13144651055335999,
        -0.36870741844177246
      ],
      [
        0.21747234463691711,
        0.13536331057548523,
        -0.2883317172527313,
        -0.011770780198276043,
        0.05974739417433739,
        0.2126930207014084,
        0.9187904596328735
      ],
      [
        -0.3191899061203003,
        -0.1417876034975052,
        0.1606387346982956,
        0.2019069939851761,
        0.23120835423469543,
        0.24397319555282593,
        0.07469961047172546
      ],
      [
        -0.4307762384414673,
        0.24897602200508118,
        -0.3286421597003937,
        -0.30016303062438965,
        0.1885797530412674,
        0.2517310082912445,
        -0.20004217326641083
      ],
      [
        -0.0395820289850235,
        -0.10002274811267853,
        0.20170344412326813,
        -0.128300741314888,
        0.1007990911602974,
        -0.1585453301668167,
        0.2651813328266144
      ],
      [
        0.481184184551239,
        0.2810363471508026,
        0.016051586717367172,
        -0.36271339654922485,
        -0.3105549216270447,
        0.06210031732916832,
        0.08129186183214188
      ],
      [
        -0.3060731291770935,
        -0.08669047802686691,
        0.10123568028211594,
        0.16572831571102142,
        -0.0976860448718071,
        -0.13540592789649963,
        -0.7374408841133118
      ],
      [
        -0.21425652503967285,
        0.06605122238397598,
        -1.1334197521209717,
        0.026933729648590088,
        0.02602478861808777,
        -0.12872566282749176,
        0.21634212136268616
      ],
      [
        -0.5595211386680603,
        -0.06820306926965714,
        0.5973590016365051,
        -0.21644361317157745,
        -0.07224014401435852,
        0.1104089617729187,
        -0.48343873023986816
      ],
      [
        0.04807496815919876,
        0.09062330424785614,
        0.20276625454425812,
        -0.13053663074970245,
        0.12054281681776047,
        -0.2668360769748688,
        -0.21680070459842682
      ],
      [
        0.07714453339576721,
        0.03470771387219429,
        -0.3531251847743988,
        -0.23771314322948456,
        -0.10067737847566605,
        0.08518709242343903,
        -0.6516557931900024
      ],
      [
        -0.22172707319259644,
        0.21036913990974426,
        -0.10684207826852798,
        -0.019766541197896004,
        -0.023164212703704834,
        0.07113317400217056,
        1.0879216194152832
      ],
      [
        0.20538489520549774,
        0.3389626145362854,
        0.18535259366035461,
        -0.028317449614405632,
        -0.23288097977638245,
        -0.1356717199087143,
        0.26057425141334534
      ],
      [
        -0.017654621973633766,
        -0.5591353178024292,
        -0.557851254940033,
        -0.23425807058811188,
        -0.19548259675502777,
        -0.01589704491198063,
        0.26465854048728943
      ],
      [
        0.11427280306816101,
        -0.8704714775085449,
        0.19783112406730652,
        -0.24503055214881897,
        -0.03542289510369301,
        -0.1356005221605301,
        0.019392864778637886
      ],
      [
        -0.14256052672863007,
        -0.11015111953020096,
        -1.2234838008880615,
        0.015375930815935135,
        -0.0066325608640909195,
        -0.15536987781524658,
        -0.2544158697128296
      ],
      [
        -0.09683902561664581,
        -0.4553409218788147,
        0.3155246078968048,
        -0.116976797580719,
        0.2622506618499756,
        0.12253124266862869,
        -0.30402934551239014
      ],
      [
        0.5533520579338074,
        -1.1418930292129517,
        -0.18976812064647675,
        0.12921833992004395,
        -0.14260700345039368,
        -0.0726764053106308,
        0.2847634553909302
      ],
      [
        0.4280514717102051,
        -0.06462285667657852,
        0.32535770535469055,
        0.1157698705792427,
        -0.05400008335709572,
        -0.11811871081590652,
        -0.9751591682434082
      ],
      [
        0.08048208802938461,
        0.13738024234771729,
        0.26290443539619446,
        -0.16504548490047455,
        0.030120987445116043,
        -0.20514215528964996,
        0.05268220230937004
      ],
      [
        0.05562114343047142,
        0.06967117637395859,
        -0.4970194399356842,
        -0.042307913303375244,
        -0.01435079239308834,
        0.15877202153205872,
        -0.7373161911964417
      ],
      [
        -0.6052443981170654,
        -0.09051782637834549,
        0.45356297492980957,
        -0.10985765606164932,
        0.264232873916626,
        0.11330031603574753,
        -0.04397530108690262
      ],
      [
        0.23349566757678986,
        -0.3129253387451172,
        0.01619195193052292,
        -0.04646328464150429,
        -0.011561396531760693,
        0.09530691802501678,
        -1.1132925748825073
      ],
      [
        0.01729459874331951,
        0.30649110674858093,
        -0.5311530828475952,
        -0.0838731899857521,
        0.33336949348449707,
        0.05310777202248573,
        0.06711432337760925
      ],
      [
        -0.19560158252716064,
        -0.013512424193322659,
        -0.5610256195068359,
        -0.07330301403999329,
        -0.0813111886382103,
        -0.02341385930776596,
        -0.6211327314376831
      ],
      [
        0.3678348660469055,
        -0.027337249368429184,
        0.10050105303525925,
        0.1424153596162796,
        -0.134520024061203,
        0.06987500935792923,
        -0.4548424482345581
      ],
      [
        0.13883744180202484,
        0.14757615327835083,
        -0.13320015370845795,
        0.13944946229457855,
        -0.03698940575122833,
        -0.22126837074756622,
        0.8940785527229309
      ],
      [
        -0.16127267479896545,
        0.2792254388332367,
        -1.2627133131027222,
        0.05228522792458534,
        -0.02213761955499649,
        -0.1478792428970337,
        -0.08348763734102249
      ],
      [
        0.20060287415981293,
        -0.032000474631786346,
        0.11364821344614029,
        -0.14877721667289734,
        -0.3876500725746155,
        0.1443263441324234,
        -0.20837093889713287
      ],
      [
        -0.17587736248970032,
        -0.24857380986213684,
        0.32761120796203613,
        0.13258618116378784,
        0.18494851887226105,
        0.07733087241649628,
        -0.09828542172908783
      ],
      [
        -0.08719364553689957,
        0.25012725591659546,
        1.1667014360427856,
        0.04266316443681717,
        -0.062098775058984756,
        -0.16531553864479065,
        -0.5577734708786011
      ],
      [
        -0.02998439595103264,
        0.10939950495958328,
        -0.10135386884212494,
        0.3207935690879822,
        -0.2840040624141693,
        0.036573149263858795,
        0.03804793953895569
      ],
      [
        0.43300577998161316,
        -0.6160367131233215,
        -0.4254414737224579,
        0.14569514989852905,
        0.06718917936086655,
        0.18627946078777313,
        0.3037550747394562
      ],
      [
        -0.19996288418769836,
        -0.06530018150806427,
        -0.11429561674594879,
        -0.16968275606632233,
        0.06528650969266891,
        0.20091749727725983,
        -0.678510308265686
      ],
      [
        0.046665217727422714,
        -0.18170635402202606,
        0.5051693916320801,
        -0.1781831979751587,
        0.11242049187421799,
        0.014797884970903397,
        -0.1520969569683075
      ],
      [
        -0.08518417179584503,
        -0.21235084533691406,
        -0.33459213376045227,
        0.06852806359529495,
        -0.24646541476249695,
        0.023243434727191925,
        -0.0054791648872196674
      ],
      [
        0.084747813642025,
        0.08346475660800934,
        -0.7436103224754333,
        0.02184344083070755,
        0.07192903757095337,
        -0.07028110325336456,
        0.5240905284881592
      ],
      [
        0.027917735278606415,
        -0.32519349455833435,
        0.6831585168838501,
        0.10671908408403397,
        0.04673072695732117,
        0.02668756991624832,
        0.4942731261253357
      ],
      [
        -0.41868531703948975,
        -0.049822721630334854,
        0.3280867338180542,
        0.4003581404685974,
        0.2814148962497711,
        0.16777265071868896,
        -0.2278074473142624
      ],
      [
        -0.11230293661355972,
        0.12695051729679108,
        -0.2601906657218933,
        0.32231199741363525,
        0.17786967754364014,
        -0.2622591257095337,
        -0.17347145080566406
      ],
      [
        0.254556268453598,
        0.2303290069103241,
        0.2888416051864624,
        0.22122560441493988,
        -0.014999744482338428,
        -0.12469130754470825,
        0.6123754382133484
      ],
      [
        0.09299813956022263,
        -0.169413223862648,
        0.388914555311203,
        0.17707590758800507,
        0.1650785505771637,
        -0.19022348523139954,
        0.5156320333480835
      ],
      [
        0.3093787729740143,
        -0.010994352400302887,
        -0.3864034116268158,
        0.10588756203651428,
        0.05896376073360443,
        0.12609665095806122,
        -0.3030189573764801
      ],
      [
        0.05703918635845184,
        -0.2132411152124405,
        -0.00887800008058548,
        -0.17313212156295776,
        -0.3064565360546112,
        -0.1592540144920349,
        0.13101297616958618
      ],
      [
        -0.14658355712890625,
        0.050306133925914764,
        0.41551658511161804,
        -0.2231057584285736,
        -0.13835614919662476,
        0.00833270512521267,
        -0.5246198773384094
      ],
      [
        0.08225975930690765,
        -0.5564585328102112,
        -0.23010072112083435,
        -0.30694815516471863,
        -0.14576050639152527,
        0.31975117325782776,
        0.6485213041305542
      ],
      [
        0.05241111293435097,
        0.10804204642772675,
        0.2573995888233185,
        -0.10627663880586624,
        0.11181362718343735,
        0.3258652687072754,
        0.6267085075378418
      ],
      [
        0.02665187604725361,
        1.9558579921722412,
        0.8578323125839233,
        -0.05908941850066185,
        0.010279159992933273,
        -0.024224812164902687,
        -0.6422774791717529
      ],
      [
        -0.17682340741157532,
        -0.27030283212661743,
        -0.605389416217804,
        0.20790347456932068,
        0.12789703905582428,
        -0.14000053703784943,
        -0.4369887113571167
      ],
      [
        0.1975616067647934,
        0.20651106536388397,
        0.16131940484046936,
        -0.1679307222366333,
        0.24759608507156372,
        0.15912990272045135,
        -0.5543043613433838
      ],
      [
        0.4550974369049072,
        0.10400859266519547,
        -0.5496129989624023,
        0.1474914699792862,
        -0.13930359482765198,
        -0.11679386347532272,
        0.6242596507072449
      ],
      [
        -0.28705763816833496,
        0.23968002200126648,
        0.4663460850715637,
        -0.09476136416196823,
        -0.05344456061720848,
        0.05411945655941963,
        1.0252407789230347
      ],
      [
        -0.11469349265098572,
        0.2840665876865387,
        -0.30468446016311646,
        0.1776658147573471,
        0.13313880562782288,
        -0.2689685821533203,
        0.2689906060695648
      ],
      [
        -0.5817149877548218,
        -0.4956290125846863,
        0.8139933347702026,
        -0.2493257075548172,
        0.03659539669752121,
        0.3516519367694855,
        -0.8049976229667664
      ],
      [
        -0.3524349331855774,
        0.4840988218784332,
        -0.1204165518283844,
        -0.17714792490005493,
        0.10060857981443405,
        -0.2749687731266022,
        -0.7618072628974915
      ],
      [
        0.23636063933372498,
        0.3043018877506256,
        -0.07586836069822311,
        -1.4815475940704346,
        0.02300087921321392,
        -3.440664529800415,
        0.18639355897903442
      ],
      [
        -0.002705225721001625,
        -0.276256263256073,
        -0.09512471407651901,
        0.17329104244709015,
        0.3350425362586975,
        0.25992774963378906,
        -0.341387540102005
      ],
      [
        0.36275777220726013,
        -0.00894139613956213,
        0.10127834975719452,
        -0.30130091309547424,
        -0.131788432598114,
        -0.3969564437866211,
        -0.09666577726602554
      ],
      [
        -0.001489531947299838,
        -0.6692118048667908,
        0.6541048288345337,
        0.13356603682041168,
        0.02566690556704998,
        -0.2866422235965729,
        -0.8876479864120483
      ],
      [
        0.45558810234069824,
        0.029201891273260117,
        0.6781772971153259,
        0.12396740168333054,
        -0.03270938992500305,
        0.06147540733218193,
        -0.5974974632263184
      ],
      [
        -0.2525048553943634,
        0.27803829312324524,
        -0.2972792983055115,
        0.1679462045431137,
        -0.1669095903635025,
        -0.20560966432094574,
        -0.6869514584541321
      ],
      [
        0.09818052500486374,
        -0.39000561833381653,
        0.7469117045402527,
        0.1328210085630417,
        0.11951316893100739,
        -0.03637246415019035,
        0.13826340436935425
      ],
      [
        -0.5067985653877258,
        0.17617399990558624,
        0.47700420022010803,
        -0.18023422360420227,
        0.1644119769334793,
        0.004761347081512213,
        -0.6129029393196106
      ],
      [
        -0.5150781273841858,
        0.39886659383773804,
        0.6832036972045898,
        -0.25181421637535095,
        0.15142489969730377,
        0.2237531989812851,
        -0.03768085315823555
      ],
      [
        0.4232514500617981,
        -0.29095369577407837,
        -0.08594339340925217,
        0.1362762451171875,
        -0.07859965413808823,
        0.0838918536901474,
        -0.4640849530696869
      ],
      [
        0.07073604315519333,
        0.440363347530365,
        -1.0937427282333374,
        0.10854468494653702,
        0.06161659583449364,
        -0.17713047564029694,
        -0.4299345910549164
      ],
      [
        0.5235987901687622,
        -0.16589030623435974,
        0.18118654191493988,
        -0.10652199387550354,
        0.13741129636764526,
        -0.30490005016326904,
        -0.20989112555980682
      ],
      [
        -0.14804252982139587,
        0.7149074673652649,
        -0.1215779259800911,
        -0.06906705349683762,
        -0.10529128462076187,
        0.3510630130767822,
        0.9082926511764526
      ],
      [
        0.08588138967752457,
        -0.8086119294166565,
        -1.3334109783172607,
        0.05044446140527725,
        -0.03193701058626175,
        -0.1290462762117386,
        -0.36664924025535583
      ],
      [
        -0.21080976724624634,
        -0.022618984803557396,
        0.5644654035568237,
        -0.08074236661195755,
        -0.0809701681137085,
        0.13560733199119568,
        0.6549049615859985
      ],
      [
        -0.12058514356613159,
        -0.2621579170227051,
        -0.2772974371910095,
        0.2896110713481903,
        -0.15691740810871124,
        -0.48245009779930115,
        0.5623099207878113
      ],
      [
        -0.31556397676467896,
        -0.05172322690486908,
        1.05408775806427,
        -0.11339153349399567,
        -0.0500338152050972,
        0.19258075952529907,
        -0.3480446934700012
      ]
    ],
    "net.0.bias": [
      -0.4237681031227112,
      -0.2608155608177185,
      -0.027368443086743355,
      0.3912305235862732,
      0.020528817549347878,
      0.37049639225006104,
      -0.3647058308124542,
      -0.08790506422519684,
      0.29322800040245056,
      0.06334694474935532,
      0.3770541548728943,
      0.24557365477085114,
      -0.10507873445749283,
      -0.33267563581466675,
      0.015036694705486298,
      0.21576449275016785,
      -0.07271456718444824,
      -0.317125141620636,
      0.1737595796585083,
      0.17433233559131622,
      0.23692992329597473,
      -0.3554658889770508,
      -0.3604995310306549,
      0.24180978536605835,
      -0.32748374342918396,
      -0.39312994480133057,
      -0.02149522304534912,
      0.28126659989356995,
      0.1337241232395172,
      0.3151431977748871,
      -0.17070196568965912,
      -0.5038135647773743,
      -0.26436159014701843,
      0.3786807954311371,
      0.3554578423500061,
      0.30604612827301025,
      -0.43032920360565186,
      0.2740583121776581,
      0.3827674090862274,
      0.43476852774620056,
      -0.5094023942947388,
      -0.30592161417007446,
      -0.3116209805011749,
      0.39660677313804626,
      -0.1375894993543625,
      -0.2300877869129181,
      0.3054670989513397,
      -0.19753257930278778,
      -0.13436615467071533,
      -0.01818363554775715,
      -0.12189187109470367,
      -0.313541442155838,
      0.28853169083595276,
      -0.1078798845410347,
      -0.05820009112358093,
      0.5798841118812561,
      0.22727583348751068,
      -0.024060623720288277,
      0.2497156858444214,
      0.14451107382774353,
      -0.0424780435860157,
      0.18132615089416504,
      0.09819193184375763,
      -0.8562323451042175,
      0.046406421810388565,
      -0.3765939474105835,
      0.2980378270149231,
      -0.11196707934141159,
      -0.10885820537805557,
      -0.2723952531814575,
      0.3499285578727722,
      0.2924661636352539,
      0.07029849290847778,
      0.28799936175346375,
      0.27560538053512573,
      -0.20810391008853912,
      -0.18388649821281433,
      -0.3133409917354584,
      -0.23737472295761108,
      0.08118604123592377
    ],
    "net.2.weight": [
      [
        -0.07537692040205002,
        0.048857104033231735,
        0.046716369688510895,
        -0.042113903909921646,
        -0.11661763489246368,
        0.052138153463602066,
        -0.09450948238372803,
        0.1118786558508873,
        -0.21451662480831146,
        0.04938073083758354,
        0.02956637367606163,
        -0.08041635900735855,
        0.15652520954608917,
        -0.046561241149902344,
        -0.16371893882751465,
        -0.18472836911678314,
        0.024866221472620964,
        0.08584494888782501,
        -0.16355861723423004,
        0.200038343667984,
        0.004502727650105953,
        0.005825815722346306,
        0.15241965651512146,
        -0.28428903222084045,
        0.004255395382642746,
        0.10222510248422623,
        -0.1163293793797493,
        0.1171441301703453,
        -0.2836722433567047,
        0.07349103689193726,
        -0.4233154356479645,
        -0.07497043907642365,
        -0.0806695967912674,
        0.019569432362914085,
        0.03346171975135803,
        -0.17493222653865814,
        -0.04722084850072861,
        -0.042706601321697235,
        0.0020070993341505527,
        -0.01881742663681507,
        0.06788481026887894,
        -0.06680916994810104,
        0.016230136156082153,
        0.01176313403993845,
        0.09808813780546188,
        0.25331413745880127,
        -0.03284343332052231,
        -0.07435097545385361,
        0.18857397139072418,
        0.13768404722213745,
        -0.04015074670314789,
        -0.05500837787985802,
        0.042109258472919464,
        0.1834162324666977,
        0.06816801428794861,
        -0.2509302496910095,
        -0.0059264847077429295,
        -0.0745537132024765,
        0.05228782445192337,
        0.20621295273303986,
        -0.030406318604946136,
        -0.026860961690545082,
        -0.12484898418188095,
        0.015914229676127434,
        -0.08004780858755112,
        6.916935672052205e-05,
        -0.09136807173490524,
        0.08159054815769196,
        -0.10214173793792725,
        0.12499041855335236,
        -0.022993778809905052,
        -0.018237825483083725,
        -0.10636603832244873,
        -0.25547876954078674,
        0.14406462013721466,
        0.009601610712707043,
        -0.06497447937726974,
        0.23355597257614136,
        0.0667978823184967,
        0.08215159922838211
      ],
      [
        0.11888041347265244,
        -0.0692347064614296,
        0.015158562920987606,
        -0.08725083619356155,
        -0.0012969381641596556,
        0.028261903673410416,
        0.1865929514169693,
        -0.11269088089466095,
        0.11528205126523972,
        -0.14716751873493195,
        -0.025203119963407516,
        0.07428538054227829,
        -0.051827091723680496,
        0.010972193442285061,
        0.002455304143950343,
        0.17804381251335144,
        -0.008391221985220909,
        -0.03985504060983658,
        0.1052403524518013,
        -0.29407811164855957,
        -0.11683066189289093,
        0.018267715349793434,
        0.08964023739099503,
        0.16767723858356476,
        0.07635217905044556,
        0.1264568269252777,
        0.14779043197631836,
        -0.06989619880914688,
        0.12887652218341827,
        -0.057273752987384796,
        0.3464071750640869,
        0.05409693717956543,
        0.16255436837673187,
        0.06747600436210632,
        -0.0525192990899086,
        0.18179145455360413,
        0.01585708186030388,
        0.07934404909610748,
        -0.060649361461400986,
        -0.08081192523241043,
        0.051757924258708954,
        0.06040973588824272,
        -0.0786891058087349,
        0.06112271547317505,
        0.0454975888133049,
        -0.16414183378219604,
        -0.037887658923864365,
        0.10004440695047379,
        -0.16525399684906006,
        -0.09425712376832962,
        0.07948475331068039,
        -0.0717349424958229,
        0.08501370251178741,
        0.016656354069709778,
        -0.0200240146368742,
        -0.21108876168727875,
        0.16785767674446106,
        -0.09944074600934982,
        0.06007470563054085,
        -0.329513818025589,
        -0.0622883215546608,
        0.05517898127436638,
        0.05132642015814781,
        0.015837574377655983,
        -0.04671214148402214,
        -0.029181236401200294,
        0.09406153112649918,
        -0.08748967945575714,
        0.07301066815853119,
        -0.012409373186528683,
        -0.0028689063619822264,
        -0.002147155813872814,
        0.10507240146398544,
        0.08403998613357544,
        -0.06005491316318512,
        -0.10694168508052826,
        0.11736230552196503,
        -0.18212665617465973,
        0.024439897388219833,
        -0.0570816770195961
      ],
      [
        0.10431074351072311,
        -0.09383148699998856,
        0.0687325969338417,
        -0.0700606256723404,
        -0.03952954709529877,
        0.0973164513707161,
        0.1526561677455902,
        -0.040619540959596634,
        0.024783160537481308,
        0.13800813257694244,
        0.0008977428078651428,
        -0.021766297519207,
        0.041325319558382034,
        -0.07939700782299042,
        -0.0306224562227726,
        0.032346971333026886,
        -0.03543420135974884,
        0.024678193032741547,
        -0.08493731915950775,
        0.2136642336845398,
        0.12434563785791397,
        -0.04895894229412079,
        -0.0003298295196145773,
        -0.1342061460018158,
        -0.06730765104293823,
        -0.05749480426311493,
        -0.17354854941368103,
        -0.03201024979352951,
        0.10721667855978012,
        0.0018122370820492506,
        -0.0956142395734787,
        -0.023415282368659973,
        0.018549278378486633,
        -0.03210129961371422,
        -0.11731331050395966,
        -0.07859189808368683,
        0.021691488102078438,
        -0.0535319522023201,
        -0.2679194509983063,
        0.06970912963151932,
        -0.04530078545212746,
        0.12855355441570282,
        -0.022072333842515945,
        0.07905331254005432,
        0.14320045709609985,
        0.06134667992591858,
        0.0939820185303688,
        0.048453062772750854,
        0.03903837874531746,
        -0.004861789755523205,
        -0.01123252883553505,
        0.034243132919073105,
        -0.05896676331758499,
        0.03094501607120037,
        0.13428929448127747,
        -0.0498470664024353,
        -0.0439436212182045,
        -0.016790196299552917,
        0.1118091568350792,
        0.003386089578270912,
        0.020437391474843025,
        0.1459752768278122,
        -0.05921754240989685,
        -0.24538683891296387,
        0.117434561252594,
        -0.09746408462524414,
        -0.3323649764060974,
        -0.093979611992836,
        -0.04315684735774994,
        0.05190397426486015,
        -0.005361586343497038,
        0.003464262932538986,
        -0.08761944621801376,
        -0.031973663717508316,
        -0.034680187702178955,
        0.1819779872894287,
        0.0980556532740593,
        0.21925495564937592,
        -0.12996946275234222,
        -0.025192297995090485
      ],
      [
        -0.004164725076407194,
        -0.0902663916349411,
        -0.14842191338539124,
        -0.03414716199040413,
        0.01041648630052805,
        -0.04129214957356453,
        0.1528761237859726,
        -0.25956112146377563,
        0.1044778823852539,
        0.20555368065834045,
        -0.05957386642694473,
        0.10273522883653641,
        0.08295585215091705,
        0.04505739361047745,
        -0.19145047664642334,
        0.3727276027202606,
        -0.1668662130832672,
        0.027644002810120583,
        0.014911751262843609,
        0.2457892894744873,
        0.10323338210582733,
        0.15674348175525665,
        0.0760895162820816,
        0.33130013942718506,
        -0.020747598260641098,
        0.03329974785447121,
        -0.2962188124656677,
        -0.03805979713797569,
        -0.013898693025112152,
        -0.10704733431339264,
        -0.2794189155101776,
        0.0536663681268692,
        0.02758290246129036,
        -0.04871455952525139,
        0.1354093998670578,
        0.2933964431285858,
        -0.09985357522964478,
        -0.13171136379241943,
        -0.23757793009281158,
        0.022255832329392433,
        0.08578283339738846,
        -0.12474559992551804,
        -0.1367749720811844,
        0.08122313767671585,
        0.33597642183303833,
        -0.11126825213432312,
        0.019336186349391937,
        -0.02075609751045704,
        0.09331298619508743,
        0.01803492195904255,
        0.06914117187261581,
        -0.10532330721616745,
        -0.12748873233795166,
        0.1392647922039032,
        0.07152692973613739,
        -0.17228293418884277,
        0.0917629525065422,
        -0.10672557353973389,
        0.18089158833026886,
        -0.002822353970259428,
        0.04599912464618683,
        -0.25035804510116577,
        -0.049308568239212036,
        0.12939181923866272,
        -0.10829027742147446,
        0.006476745009422302,
        -0.3242861032485962,
        -0.29106593132019043,
        -0.007464004680514336,
        -0.10632222145795822,
        -0.13170699775218964,
        -0.1011616662144661,
        -0.13706181943416595,
        0.16349577903747559,
        0.07680616527795792,
        0.07282963395118713,
        0.19021737575531006,
        -0.11491461098194122,
        0.08453892916440964,
        -0.20052620768547058
      ]
    ],
    "net.2.bias": [
      -0.16853319108486176,
      0.027561964467167854,
      -0.036538973450660706,
      -0.028723610565066338
    ]
  },
  "F2": {
    "n_in": 4,
    "n_hid": 60,
    "n_out": 4,
    "activation": "tanh",
    "net.0.weight": [
      [
        0.26139339804649353,
        0.09401596337556839,
        0.22235077619552612,
        0.4336965084075928
      ],
      [
        -0.4226156175136566,
        0.30326738953590393,
        -0.22821323573589325,
        -0.33467939496040344
      ],
      [
        0.22771351039409637,
        0.3743591010570526,
        -0.5623875260353088,
        -0.04619023576378822
      ],
      [
        0.5384503602981567,
        0.22086042165756226,
        0.6281930804252625,
        -0.3857077658176422
      ],
      [
        -0.3673688769340515,
        0.25444912910461426,
        0.1944401115179062,
        0.5154790282249451
      ],
      [
        -0.2159833014011383,
        -0.1911008208990097,
        -0.07786267250776291,
        -0.5832639932632446
      ],
      [
        0.23064061999320984,
        0.4587695598602295,
        0.007955487817525864,
        0.017673010006546974
      ],
      [
        0.17093761265277863,
        -0.16806408762931824,
        0.4507083296775818,
        -0.3082827031612396
      ],
      [
        -0.5329378247261047,
        -0.23944245278835297,
        0.2177506536245346,
        0.12603090703487396
      ],
      [
        0.061758123338222504,
        -0.47723588347435,
        0.17072515189647675,
        -0.05934624373912811
      ],
      [
        0.21692118048667908,
        0.3978385925292969,
        -0.012685955502092838,
        -0.09232442826032639
      ],
      [
        0.0929061695933342,
        -0.37657487392425537,
        -0.1278306394815445,
        0.2936195433139801
      ],
      [
        -0.2665393650531769,
        0.21901920437812805,
        -0.3860134780406952,
        -0.23418043553829193
      ],
      [
        0.11529617011547089,
        -0.3193295896053314,
        -0.06227884069085121,
        0.0008271664846688509
      ],
      [
        -0.0069924816489219666,
        -0.12402950972318649,
        0.4469047784805298,
        0.5083478093147278
      ],
      [
        -0.4990200400352478,
        0.24382001161575317,
        -0.8872227668762207,
        -0.09775978326797485
      ],
      [
        0.16179506480693817,
        0.033752378076314926,
        -0.23899342119693756,
        -0.4539828300476074
      ],
      [
        -0.20052893459796906,
        0.02417794056236744,
        -0.36971694231033325,
        -0.5870407223701477
      ],
      [
        0.051741935312747955,
        -0.16837601363658905,
        -0.3623393476009369,
        -0.4107649624347687
      ],
      [
        -0.04247992858290672,
        -0.37030717730522156,
        -0.48314347863197327,
        0.08333639800548553
      ],
      [
        -0.51433926820755,
        -0.3316037356853485,
        -0.3441287875175476,
        -0.3224530816078186
      ],
      [
        0.03197496756911278,
        -0.5275142192840576,
        -0.6318196654319763,
        0.3828057050704956
      ],
      [
        0.05544177070260048,
        0.2789870798587799,
        -0.3203299939632416,
        -0.23582419753074646
      ],
      [
        0.06907740235328674,
        0.08092968910932541,
        0.7922037839889526,
        -0.8757487535476685
      ],
      [
        -0.006091505289077759,
        0.2058020681142807,
        -0.19564014673233032,
        -0.32657259702682495
      ],
      [
        0.23958376049995422,
        -0.7181613445281982,
        0.31419771909713745,
        -0.3040691316127777
      ],
      [
        0.2568890452384949,
        -0.37386056780815125,
        0.5069640278816223,
        -0.5312068462371826
      ],
      [
        -0.3332967758178711,
        -0.022313930094242096,
        0.8206852078437805,
        -0.6082825064659119
      ],
      [
        -0.16442030668258667,
        0.43280816078186035,
        -0.03261125832796097,
        0.2076999396085739
      ],
      [
        -0.2781529128551483,
        -0.16427628695964813,
        -0.058061469346284866,
        0.3080747127532959
      ],
      [
        0.29039081931114197,
        -0.23510105907917023,
        0.21911190450191498,
        -0.09332319349050522
      ],
      [
        -0.3726499378681183,
        -0.33337873220443726,
        -0.4371947646141052,
        0.753028154373169
      ],
      [
        -0.39367496967315674,
        -0.4192860722541809,
        -0.0782884955406189,
        -0.06013686582446098
      ],
      [
        0.16653375327587128,
        0.10986685752868652,
        -0.19330936670303345,
        -0.44844502210617065
      ],
      [
        -0.03963392227888107,
        -0.10423518717288971,
        0.5317294597625732,
        -0.3207811713218689
      ],
      [
        -0.4849516451358795,
        -0.6213936805725098,
        -0.017627863213419914,
        0.30203643441200256
      ],
      [
        0.44424203038215637,
        -0.47129151225090027,
        -0.09016073495149612,
        0.4198145270347595
      ],
      [
        0.4012626111507416,
        0.5442303419113159,
        0.06599102169275284,
        -0.4224874675273895
      ],
      [
        0.35153332352638245,
        0.018969476222991943,
        0.37202516198158264,
        0.024542251601815224
      ],
      [
        0.3519023656845093,
        0.6371996402740479,
        0.5363548994064331,
        -0.5111317038536072
      ],
      [
        -0.2411295771598816,
        -0.24239887297153473,
        -0.24140426516532898,
        0.4286300539970398
      ],
      [
        -0.15729685127735138,
        -0.6279768943786621,
        -0.27147433161735535,
        -0.3559226989746094
      ],
      [
        0.15882360935211182,
        -0.35577869415283203,
        -0.6640661358833313,
        -0.6657928824424744
      ],
      [
        0.17391842603683472,
        0.30383020639419556,
        -0.2565419673919678,
        0.14045824110507965
      ],
      [
        0.40235084295272827,
        0.21088765561580658,
        -0.008757236413657665,
        -0.12915091216564178
      ],
      [
        -0.02547258324921131,
        0.13914570212364197,
        -0.3011638820171356,
        0.25240445137023926
      ],
      [
        0.22265364229679108,
        -0.3256981670856476,
        0.5838239192962646,
        0.5240508317947388
      ],
      [
        -0.3924940526485443,
        -0.6247701048851013,
        0.13964375853538513,
        -0.7401211261749268
      ],
      [
        0.1640324890613556,
        0.09516143053770065,
        0.15367354452610016,
        -0.4190252721309662
      ],
      [
        -0.3600931763648987,
        0.26647326350212097,
        0.2523726224899292,
        -0.4112003445625305
      ],
      [
        -0.38319942355155945,
        -1.0099304914474487,
        -0.4326476454734802,
        -0.21298867464065552
      ],
      [
        0.49532976746559143,
        0.08406560868024826,
        0.26317551732063293,
        0.37086769938468933
      ],
      [
        0.5795424580574036,
        -0.8161068558692932,
        0.7215074896812439,
        0.31043633818626404
      ],
      [
        0.4628821611404419,
        -0.3146945834159851,
        0.6721774935722351,
        0.5349740386009216
      ],
      [
        -0.46593937277793884,
        0.1671995222568512,
        0.4537501931190491,
        -0.17883825302124023
      ],
      [
        0.17080166935920715,
        0.319606751203537,
        0.004800532944500446,
        0.5749088525772095
      ],
      [
        0.49194031953811646,
        0.3697061836719513,
        0.22399459779262543,
        0.26966753602027893
      ],
      [
        -0.5642035007476807,
        -0.39650991559028625,
        0.017011580988764763,
        -0.13872690498828888
      ],
      [
        0.5157451033592224,
        0.3146437406539917,
        0.3819887936115265,
        0.1426577866077423
      ],
      [
        -0.24081887304782867,
        -0.050560399889945984,
        -0.1497150957584381,
        0.30051302909851074
      ]
    ],
    "net.0.bias": [
      0.30026331543922424,
      -0.30428555607795715,
      -0.07438857853412628,
      0.5336387753486633,
      -0.163372203707695,
      -0.38287249207496643,
      0.3370046317577362,
      0.45922642946243286,
      -0.17083324491977692,
      0.04331754520535469,
      -0.357974112033844,
      -0.4192161560058594,
      0.14375796914100647,
      -0.28446462750434875,
      0.19371721148490906,
      -0.4282715320587158,
      -0.1104903444647789,
      -0.14370551705360413,
      0.32087939977645874,
      0.36636948585510254,
      0.4161895215511322,
      0.2752179503440857,
      -0.21047601103782654,
      -0.252755343914032,
      -0.47671768069267273,
      0.0553959496319294,
      0.535129964351654,
      -0.18259146809577942,
      -0.08864995837211609,
      -0.36063352227211,
      -0.01849391870200634,
      0.31416332721710205,
      -0.4504919946193695,
      -0.3324478268623352,
      0.6407771706581116,
      0.011375540867447853,
      -0.03135613724589348,
      0.11030011624097824,
      -0.10319879651069641,
      -0.36161690950393677,
      -0.46816596388816833,
      0.40779733657836914,
      0.1889573037624359,
      -0.1371178776025772,
      -0.11587508767843246,
      -0.2652219831943512,
      -0.20070359110832214,
      -0.5333926677703857,
      0.27968263626098633,
      0.22146399319171906,
      -0.4776281714439392,
      -0.30551621317863464,
      0.05914987996220589,
      -0.3055000305175781,
      0.1471128612756729,
      0.09220369160175323,
      -0.268543004989624,
      0.09316865354776382,
      -0.003580891527235508,
      0.3591061532497406
    ],
    "net.2.weight": [
      [
        -0.12755894660949707,
        -0.009715639986097813,
        0.1574047952890396,
        -0.005608228966593742,
        -0.0051645380444824696,
        0.2078072428703308,
        0.09571130573749542,
        0.02198616974055767,
        0.1639418601989746,
        0.1501835435628891,
        -0.08471512049436569,
        -0.11692573130130768,
        -0.04537629708647728,
        -0.1480129063129425,
        -0.061815038323402405,
        -0.03561749681830406,
        0.09483462572097778,
        0.12936878204345703,
        -0.1089094802737236,
        0.13360878825187683,
        -0.14894330501556396,
        0.24527576565742493,
        0.06948213279247284,
        -0.3613598346710205,
        -0.02144862897694111,
        0.35290977358818054,
        -0.14809806644916534,
        -0.4752262830734253,
        -0.19342951476573944,
        0.05293557792901993,
        0.09826143085956573,
        0.23217076063156128,
        -0.0542849637567997,
        0.14575918018817902,
        -0.07843687385320663,
        0.02505744807422161,
        -0.2100459784269333,
        0.07698813825845718,
        -0.0036801211535930634,
        -0.2455272376537323,
        0.04346108064055443,
        0.17176629602909088,
        0.08995853364467621,
        0.021283533424139023,
        -0.057124312967061996,
        0.20368072390556335,
        0.3789002001285553,
        0.07193457335233688,
        -0.029365403577685356,
        0.3486717641353607,
        -0.4284646511077881,
        0.10126786679029465,
        0.42562398314476013,
        0.37212371826171875,
        0.13527138531208038,
        -0.02118152379989624,
        0.09693528711795807,
        -0.11655325442552567,
        -0.020604314282536507,
        0.015783226117491722
      ],
      [
        0.1229567676782608,
        -0.1311582773923874,
        -0.018259640783071518,
        -0.06772589683532715,
        0.16891582310199738,
        -0.08069763332605362,
        -0.13132095336914062,
        0.02985426038503647,
        -0.09564712643623352,
        0.14377236366271973,
        0.03619372844696045,
        0.13506819307804108,
        0.07954253256320953,
        -0.026504913344979286,
        0.1175837516784668,
        -0.11822430789470673,
        -0.31316888332366943,
        -0.3598284423351288,
        -0.05670876055955887,
        -0.0008395221084356308,
        -0.038811568170785904,
        0.050244227051734924,
        -0.0026786199305206537,
        0.14360806345939636,
        -0.1670672595500946,
        -0.15478667616844177,
        -0.05421857908368111,
        0.1314571350812912,
        -0.014875243417918682,
        -0.05908747389912605,
        -0.12889817357063293,
        -0.020757930353283882,
        0.0808168351650238,
        -0.24538493156433105,
        -0.11808130890130997,
        0.4649423658847809,
        0.1621098518371582,
        -0.4504457712173462,
        -0.09946317225694656,
        -0.13618159294128418,
        0.07808332145214081,
        0.024672605097293854,
        -0.19929596781730652,
        0.02815266326069832,
        -0.12286002188920975,
        -0.16208751499652863,
        0.1717437505722046,
        0.16536761820316315,
        0.1907651424407959,
        -0.09360792487859726,
        0.4001469314098358,
        -0.12354700267314911,
        -0.14296522736549377,
        -0.08574938029050827,
        -0.10647188127040863,
        0.1621110588312149,
        -0.13525590300559998,
        0.11949785053730011,
        -0.14232102036476135,
        -0.058538395911455154
      ],
      [
        0.030151652172207832,
        -0.14563007652759552,
        -0.0953986793756485,
        -0.08320458978414536,
        0.13009925186634064,
        -0.0382055826485157,
        -0.027513831853866577,
        0.0041831121779978275,
        0.17483209073543549,
        0.13544510304927826,
        -0.10043861716985703,
        -0.12085210531949997,
        -0.10728361457586288,
        -0.05348102003335953,
        0.2424245923757553,
        0.02432679384946823,
        0.0184123944491148,
        0.02306186594069004,
        -0.06544838845729828,
        -0.05039168894290924,
        0.1306009292602539,
        0.10009876638650894,
        -0.007399775553494692,
        -0.05458047613501549,
        0.029623473063111305,
        0.02607874572277069,
        0.023902690038084984,
        0.05522961542010307,
        0.0456843338906765,
        0.08528826385736465,
        -0.07241830974817276,
        0.10373041033744812,
        0.054854102432727814,
        -0.1545463651418686,
        0.08387108147144318,
        0.12362921237945557,
        0.06910266727209091,
        -0.1753024011850357,
        0.008090300485491753,
        -0.13606081902980804,
        0.04218722879886627,
        0.07587436586618423,
        -0.0805063247680664,
        -0.08240866661071777,
        -0.20560236275196075,
        0.10944275557994843,
        0.10623932629823685,
        0.02110666036605835,
        -0.16643819212913513,
        -0.07169388234615326,
        -0.042609941214323044,
        -0.10950939357280731,
        0.023377088829874992,
        0.04050323739647865,
        0.02905081957578659,
        -0.07024621218442917,
        -0.009053399786353111,
        0.17126978933811188,
        -0.08999394625425339,
        0.051228754222393036
      ],
      [
        0.028563229367136955,
        0.1258857101202011,
        -0.049850549548864365,
        -0.031084666028618813,
        0.003788219066336751,
        -0.04191902279853821,
        0.07707561552524567,
        -0.0019341582665219903,
        0.08195309340953827,
        0.029558274894952774,
        0.0037580900825560093,
        -0.04263138771057129,
        -0.05447172001004219,
        0.06314907222986221,
        -0.004426146391779184,
        -0.03141340985894203,
        0.16520152986049652,
        -0.0765887051820755,
        0.02516879327595234,
        0.08510254323482513,
        -0.04112045094370842,
        0.07832704484462738,
        0.03893623128533363,
        0.008181048557162285,
        -0.03222553804516792,
        0.021949008107185364,
        0.014910025522112846,
        0.0719425156712532,
        0.15547119081020355,
        0.05049958825111389,
        -0.026099132373929024,
        0.008040797896683216,
        -0.0396234355866909,
        -0.061251841485500336,
        -0.11199664324522018,
        -0.13863061368465424,
        0.02841503731906414,
        0.013082871213555336,
        -0.039203450083732605,
        -0.10586090385913849,
        0.09449820965528488,
        -0.1372929811477661,
        -0.002053446602076292,
        -0.01869628019630909,
        -0.01912485621869564,
        0.06892327964305878,
        -0.07859770953655243,
        -0.103274405002594,
        0.060885604470968246,
        -0.08986274152994156,
        0.02325783483684063,
        -0.016740839928388596,
        0.07646466046571732,
        -0.03448791801929474,
        -0.03604579344391823,
        0.0740804672241211,
        0.003732984187081456,
        -0.04006802290678024,
        -0.08846046775579453,
        0.04249323531985283
      ]
    ],
    "net.2.bias": [
      -0.008940857835114002,
      0.04821239039301872,
      -0.15658383071422577,
      0.04909960553050041
    ]
  }
}