{
  "name": "PV3",
  "type": "F1+H1+F2",
  "t_step": 0.01,
  "normfacs": {
    "G": {
      "scale": 1000.0,
      "offset": 809.2813110351562
    },
    "Ud": {
      "scale": 0.40000003576278687,
      "offset": 0.9999997615814209
    },
    "Uq": {
      "scale": 1.0,
      "offset": -3.3840739238621964e-11
    },
    "Id": {
      "scale": 4.686577320098877,
      "offset": 2.4104905128479004
    },
    "Iq": {
      "scale": 4.055089473724365,
      "offset": -0.05657494440674782
    },
    "GIrms": {
      "scale": 5902.79296875,
      "offset": 2748.572021484375
    },
    "Ctrl": {
      "scale": 1.0,
      "offset": 0.8992015719413757
    },
    "Vdc": {
      "scale": 635.2540283203125,
      "offset": 495.7726135253906
    },
    "Idc": {
      "scale": 4.1067023277282715,
      "offset": 1.8830465078353882
    },
    "Vd": {
      "scale": 342.86944580078125,
      "offset": 230.29591369628906
    },
    "Vq": {
      "scale": 296.395751953125,
      "offset": -5.334640026092529
    }
  },
  "model_folder": "./ucfB_t_2nd_Ctrl/",
  "model_root": "ucfB_t_2nd_Ctrl",
  "data_path": "d:/data/ucf3/ucf4.hdf5",
  "lr": 0.001,
  "eps": 1e-08,
  "h5grp_prefix": "ucf",
  "num_iter": 1000,
  "continue_iterations": false,
  "print_freq": 20,
  "batch_size": 405,
  "n_validation_pct": 15,
  "n_validation_seed": 99,
  "n_skip": 0,
  "n_trunc": 0,
  "n_dec": 1,
  "n_loss_skip": 50,
  "n_pad": 100,
  "gtype": "stable2ndx",
  "na": 2,
  "nb": 3,
  "nk": 0,
  "activation": "tanh",
  "nh1": 80,
  "nh2": 60,
  "COL_T": [
    "t"
  ],
  "COL_Y": [
    "Vdc",
    "Idc",
    "Vd",
    "Vq"
  ],
  "COL_U": [
    "G",
    "Ud",
    "Uq",
    "Id",
    "Iq",
    "GIrms",
    "Ctrl"
  ],
  "clamps": null,
  "sensitivity": {
    "limit": 70.0,
    "weight": 0.0035,
    "delta": 0.01,
    "inputs": [
      "Id",
      "Iq"
    ],
    "outputs": [
      "Vd",
      "Vq"
    ],
    "GIrms": {
      "G": "G",
      "Id": "Id",
      "Iq": "Iq",
      "k": 1.2247449
    },
    "sets": {
      "G": [
        300.0,
        800.0,
        1000.0
      ],
      "Ud": [
        0.9,
        1.1
      ],
      "Uq": [
        -0.4,
        0.4
      ],
      "Id": [
        2.3,
        4.6
      ],
      "Iq": [
        -2.0,
        2.0
      ],
      "Ctrl": [
        0.0,
        1.0
      ]
    }
  },
  "H1": {
    "n_in": 4,
    "n_out": 4,
    "n_b": 3,
    "n_a": 2,
    "n_k": 0,
    "b_0_0": [
      -0.06702780723571777,
      -0.11772758513689041,
      -0.11721440404653549
    ],
    "a_0_0": [
      -0.0032402020879089832,
      -0.2230149507522583
    ],
    "alpha1_0_0": -0.0016201024409383535,
    "alpha2_0_0": -0.45783233642578125,
    "b_0_1": [
      0.0047892918810248375,
      0.11341377347707748,
      0.1040477529168129
    ],
    "a_0_1": [
      -0.09661699831485748,
      -0.036329567432403564
    ],
    "alpha1_0_1": -0.048346132040023804,
    "alpha2_0_1": -0.17833982408046722,
    "b_0_2": [
      -0.0039041240233927965,
      0.029250754043459892,
      0.05652422085404396
    ],
    "a_0_2": [
      -0.023751113563776016,
      -0.15621018409729004
    ],
    "alpha1_0_2": -0.011876115575432777,
    "alpha2_0_2": -0.3435514271259308,
    "b_0_3": [
      -0.03493236377835274,
      -0.007168188225477934,
      -0.004576211329549551
    ],
    "a_0_3": [
      0.00034975900780409575,
      0.07462656497955322
    ],
    "alpha1_0_3": 0.00017487950390204787,
    "alpha2_0_3": 0.14920566976070404,
    "b_1_0": [
      0.01082879863679409,
      0.07803744077682495,
      0.09310469031333923
    ],
    "a_1_0": [
      -0.0008013868355192244,
      -0.06919801235198975
    ],
    "alpha1_1_0": -0.00040069344686344266,
    "alpha2_1_0": -0.13947881758213043,
    "b_1_1": [
      -0.06069384142756462,
      -0.16722527146339417,
      -0.16446906328201294
    ],
    "a_1_1": [
      -0.001774290227331221,
      -0.1749693751335144
    ],
    "alpha1_1_1": -0.0008871453464962542,
    "alpha2_1_1": -0.35572993755340576,
    "b_1_2": [
      -0.12015155702829361,
      -0.109659343957901,
      -0.10023733228445053
    ],
    "a_1_2": [
      0.06644952297210693,
      -0.23900175094604492
    ],
    "alpha1_1_2": 0.033236995339393616,
    "alpha2_1_2": -0.5787989497184753,
    "b_1_3": [
      0.0670570507645607,
      0.0626201406121254,
      0.05797294154763222
    ],
    "a_1_3": [
      0.032200105488300323,
      -0.06979066133499146
    ],
    "alpha1_1_3": 0.016101444140076637,
    "alpha2_1_3": -0.1750379204750061,
    "b_2_0": [
      -0.0008446188876405358,
      0.03903772309422493,
      -0.03186917304992676
    ],
    "a_2_0": [
      0.5074385404586792,
      0.4025672674179077
    ],
    "alpha1_2_0": 0.25938400626182556,
    "alpha2_2_0": 0.4043257534503937,
    "b_2_1": [
      0.22843413054943085,
      0.03873629868030548,
      0.0651615634560585
    ],
    "a_2_1": [
      -0.41526639461517334,
      -0.013008713722229004
    ],
    "alpha1_2_1": -0.21069663763046265,
    "alpha2_2_1": -0.5720222592353821,
    "b_2_2": [
      -0.4076729118824005,
      -0.21990031003952026,
      -0.14126989245414734
    ],
    "a_2_2": [
      -0.00030122767202556133,
      -0.6879187822341919
    ],
    "alpha1_2_2": -0.00015061383601278067,
    "alpha2_2_2": -1.6889537572860718,
    "b_2_3": [
      0.12101385742425919,
      0.1670864224433899,
      0.16110338270664215
    ],
    "a_2_3": [
      0.2417384386062622,
      0.020447373390197754
    ],
    "alpha1_2_3": 0.12146304547786713,
    "alpha2_2_3": -0.22945861518383026,
    "b_3_0": [
      0.0367940329015255,
      0.06550396978855133,
      -0.05042335391044617
    ],
    "a_3_0": [
      -0.3898034393787384,
      0.3328680992126465
    ],
    "alpha1_3_0": -0.197427436709404,
    "alpha2_3_0": 0.34614694118499756,
    "b_3_1": [
      0.12093774974346161,
      -0.1366787850856781,
      -0.19783616065979004
    ],
    "a_3_1": [
      -0.6519578099250793,
      0.31696224212646484
    ],
    "alpha1_3_1": -0.33832240104675293,
    "alpha2_3_1": -0.02675635740160942,
    "b_3_2": [
      -0.040269043296575546,
      0.04859061911702156,
      0.19969244301319122
    ],
    "a_3_2": [
      -0.5394648313522339,
      0.14170992374420166
    ],
    "alpha1_3_2": -0.2765752077102661,
    "alpha2_3_2": -0.3542777895927429,
    "b_3_3": [
      -0.08567061275243759,
      -0.060543693602085114,
      -0.03383483737707138
    ],
    "a_3_3": [
      -0.3042280077934265,
      0.15009379386901855
    ],
    "alpha1_3_3": -0.15330380201339722,
    "alpha2_3_3": -0.004765013698488474
  },
  "H1s": {
    "n_in": 4,
    "n_out": 4,
    "n_a": 3,
    "n_b": 3,
    "b_0_0": [
      -0.06702780723571777,
      -25.178319960832596,
      -3019.6979641914368
    ],
    "a_0_0": [
      1.0,
      199.6759797912091,
      7737.448471598326
    ],
    "b_0_1": [
      0.0047892918810248375,
      12.299235723912714,
      2222.5081827491513
    ],
    "a_0_1": [
      1.0,
      190.33830016851425,
      8670.53434252739
    ],
    "b_0_2": [
      -0.0039041240233927965,
      2.14425059966743,
      818.7085087411111
    ],
    "a_0_2": [
      1.0,
      197.6248886436224,
      8200.38702338934
    ],
    "b_0_3": [
      -0.03493236377835274,
      -7.703291578218341,
      -466.7676333338022
    ],
    "a_0_3": [
      1.0,
      200.0349759007804,
      10749.763239873573
    ],
    "b_1_0": [
      0.01082879863679409,
      9.969503805041313,
      1819.7092972695832
    ],
    "a_1_0": [
      1.0,
      199.91986131644808,
      9300.00600812491
    ],
    "b_1_1": [
      -0.06069384142756462,
      -28.86129543185234,
      -3923.881761729715
    ],
    "a_1_1": [
      1.0,
      199.82257097726688,
      8232.563346391544
    ],
    "b_1_2": [
      -0.12015155702829361,
      -34.99624580144882,
      -3300.4823327064523
    ],
    "a_1_2": [
      1.0,
      206.6449522972107,
      8274.47772026062
    ],
    "b_1_3": [
      0.0670570507645607,
      19.673424214124683,
      1876.5013292431827
    ],
    "a_1_3": [
      1.0,
      203.22001054883003,
      9624.094441533089
    ],
    "b_2_0": [
      -0.0008446188876405358,
      3.734848531894386,
      63.23931156657618
    ],
    "a_2_0": [
      1.0,
      250.74385404586786,
      19100.058078765862
    ],
    "b_2_1": [
      0.22843413054943085,
      49.56045597791672,
      3323.3199268579488
    ],
    "a_2_1": [
      1.0,
      158.47336053848267,
      5717.248916625977
    ],
    "b_2_2": [
      -0.4076729118824005,
      -103.52461338043216,
      -7688.431143760685
    ],
    "a_2_2": [
      1.0,
      199.9698772327975,
      3117.7999009378304
    ],
    "b_2_3": [
      0.12101385742425919,
      40.91141372919084,
      4492.036625742914
    ],
    "a_2_3": [
      1.0,
      224.17384386062628,
      12621.858119964607
    ],
    "b_3_0": [
      0.0367940329015255,
      13.90920355916024,
      518.7464877963065
    ],
    "a_3_0": [
      1.0,
      161.01965606212616,
      9430.64659833908
    ],
    "b_3_1": [
      0.12093774974346161,
      10.519671440124513,
      -2135.7719600200658
    ],
    "a_3_1": [
      1.0,
      134.80421900749207,
      6650.044322013855
    ],
    "b_3_2": [
      -0.040269043296575546,
      -3.1947467476129483,
      2080.140188336363
    ],
    "a_3_2": [
      1.0,
      146.0535168647766,
      6022.450923919678
    ],
    "b_3_3": [
      -0.08567061275243759,
      -23.188491910696023,
      -1800.49143731594
    ],
    "a_3_3": [
      1.0,
      169.5771992206573,
      8458.657860755917
    ]
  },
  "Q1s": {
    "n_in": 4,
    "n_out": 4,
    "n_a": 2,
    "n_b": 3,
    "A_0_0": [
      [
        -199.6759797912091,
        -7737.448471598326
      ],
      [
        1.0,
        0.0
      ]
    ],
    "B_0_0": [
      1.0,
      0.0
    ],
    "C_0_0": [
      -11.794476877784355,
      -2501.073759540845
    ],
    "D_0_0": -0.06702780723571777,
    "A_0_1": [
      [
        -190.33830016851425,
        -8670.53434252739
      ],
      [
        1.0,
        0.0
      ]
    ],
    "B_0_1": [
      1.0,
      0.0
    ],
    "C_0_1": [
      11.38765004826758,
      2180.982463018338
    ],
    "D_0_1": 0.0047892918810248375,
    "A_0_2": [
      [
        -197.6248886436224,
        -8200.38702338934
      ],
      [
        1.0,
        0.0
      ]
    ],
    "B_0_2": [
      1.0,
      0.0
    ],
    "C_0_2": [
      2.9158026750413226,
      850.723836720244
    ],
    "D_0_2": -0.0039041240233927965,
    "A_0_3": [
      [
        -200.0349759007804,
        -10749.763239873573
      ],
      [
        1.0,
        0.0
      ]
    ],
    "B_0_3": [
      1.0,
      0.0
    ],
    "C_0_3": [
      -0.7155970316582563,
      -91.25299330737482
    ],
    "D_0_3": -0.03493236377835274,
    "A_1_0": [
      [
        -199.91986131644808,
        -9300.00600812491
      ],
      [
        1.0,
        0.0
      ]
    ],
    "B_1_0": [
      1.0,
      0.0
    ],
    "C_1_0": [
      7.804611883349697,
      1719.0014048866233
    ],
    "D_1_0": 0.01082879863679409,
    "A_1_1": [
      [
        -199.82257097726688,
        -8232.563346391544
      ],
      [
        1.0,
        0.0
      ]
    ],
    "B_1_1": [
      1.0,
      0.0
    ],
    "C_1_1": [
      -16.73329599530983,
      -3424.215867441446
    ],
    "D_1_1": -0.06069384142756462,
    "A_1_2": [
      [
        -206.6449522972107,
        -8274.47772026062
      ],
      [
        1.0,
        0.0
      ]
    ],
    "B_1_2": [
      1.0,
      0.0
    ],
    "C_1_2": [
      -10.167533030901499,
      -2306.2909510212135
    ],
    "D_1_2": -0.12015155702829361,
    "A_1_3": [
      [
        -203.22001054883003,
        -9624.094441533089
      ],
      [
        1.0,
        0.0
      ]
    ],
    "B_1_3": [
      1.0,
      0.0
    ],
    "C_1_3": [
      6.046089650377226,
      1231.137939714372
    ],
    "D_1_3": 0.0670570507645607,
    "A_2_0": [
      [
        -250.74385404586786,
        -19100.058078765862
      ],
      [
        1.0,
        0.0
      ]
    ],
    "B_2_0": [
      1.0,
      0.0
    ],
    "C_2_0": [
      3.9466315269813075,
      79.37158137493303
    ],
    "D_2_0": -0.0008446188876405358,
    "A_2_1": [
      [
        -158.47336053848267,
        -5717.248916625977
      ],
      [
        1.0,
        0.0
      ]
    ],
    "B_2_1": [
      1.0,
      0.0
    ],
    "C_2_1": [
      13.359731648061945,
      2017.3051414538184
    ],
    "D_2_1": 0.22843413054943085,
    "A_2_2": [
      [
        -199.9698772327975,
        -3117.7999009378304
      ],
      [
        1.0,
        0.0
      ]
    ],
    "B_2_2": [
      1.0,
      0.0
    ],
    "C_2_2": [
      -22.00231124017145,
      -6417.388579478699
    ],
    "D_2_2": -0.4076729118824005,
    "A_2_3": [
      [
        -224.17384386062628,
        -12621.858119964607
      ],
      [
        1.0,
        0.0
      ]
    ],
    "B_2_3": [
      1.0,
      0.0
    ],
    "C_2_3": [
      13.783272149992872,
      2964.616886784289
    ],
    "D_2_3": 0.12101385742425919,
    "A_3_0": [
      [
        -161.01965606212616,
        -9430.64659833908
      ],
      [
        1.0,
        0.0
      ]
    ],
    "B_3_0": [
      1.0,
      0.0
    ],
    "C_3_0": [
      7.984641036218051,
      171.75496657435883
    ],
    "D_3_0": 0.0367940329015255,
    "A_3_1": [
      [
        -134.80421900749207,
        -6650.044322013855
      ],
      [
        1.0,
        0.0
      ]
    ],
    "B_3_1": [
      1.0,
      0.0
    ],
    "C_3_1": [
      -5.783247462566353,
      -2940.013356018705
    ],
    "D_3_1": 0.12093774974346161,
    "A_3_2": [
      [
        -146.0535168647766,
        -6022.450923919678
      ],
      [
        1.0,
        0.0
      ]
    ],
    "B_3_2": [
      1.0,
      0.0
    ],
    "C_3_2": [
      2.686688646631868,
      2322.658525343186
    ],
    "D_3_2": -0.040269043296575546,
    "A_3_3": [
      [
        -169.5771992206573,
        -8458.657860755917
      ],
      [
        1.0,
        0.0
      ]
    ],
    "B_3_3": [
      1.0,
      0.0
    ],
    "C_3_3": [
      -8.66070934462013,
      -1075.8330353217575
    ],
    "D_3_3": -0.08567061275243759
  },
  "F1": {
    "n_in": 7,
    "n_hid": 80,
    "n_out": 4,
    "activation": "tanh",
    "net.0.weight": [
      [
        0.18738451600074768,
        -0.034160397946834564,
        -0.5641346573829651,
        -0.23292899131774902,
        -0.06782373040914536,
        0.10766785591840744,
        -0.08595434576272964
      ],
      [
        0.2213156819343567,
        0.00532201211899519,
        -0.04606632515788078,
        -0.21192994713783264,
        -0.09281844645738602,
        -0.4590466022491455,
        -0.45865771174430847
      ],
      [
        -0.6232198476791382,
        -0.3071793019771576,
        0.3279803991317749,
        0.18097391724586487,
        -0.09333627671003342,
        -0.1504840850830078,
        0.3142504394054413
      ],
      [
        0.32238778471946716,
        -0.2576725482940674,
        0.5167580842971802,
        -0.0368369035422802,
        0.048297785222530365,
        0.2767558693885803,
        -0.3866214156150818
      ],
      [
        -0.26640090346336365,
        -0.6662707924842834,
        -0.8977543115615845,
        0.20308917760849,
        -0.11079799383878708,
        -0.17486298084259033,
        -0.47786012291908264
      ],
      [
        -0.36059555411338806,
        -0.9245371222496033,
        0.2854655683040619,
        0.12417204678058624,
        0.08537470549345016,
        0.027987182140350342,
        -0.3898162245750427
      ],
      [
        -0.26376256346702576,
        -0.5335668921470642,
        -0.842364490032196,
        -0.1238589957356453,
        0.07337053120136261,
        0.20493130385875702,
        -0.3367213010787964
      ],
      [
        0.20202885568141937,
        0.0415843203663826,
        0.94622403383255,
        0.005371963605284691,
        0.021079421043395996,
        0.09980592131614685,
        -0.08133061230182648
      ],
      [
        -0.18791373074054718,
        0.6852819323539734,
        -1.3493905067443848,
        -0.11058925837278366,
        0.04333842173218727,
        0.12757958471775055,
        -0.2251150906085968
      ],
      [
        0.24646225571632385,
        -0.14664852619171143,
        -0.18885661661624908,
        0.05207819119095802,
        0.05374031141400337,
        0.258620023727417,
        0.6285078525543213
      ],
      [
        0.18534813821315765,
        -0.3801356554031372,
        -0.04307585209608078,
        0.34152737259864807,
        0.24736331403255463,
        0.3413431942462921,
        0.001860051299445331
      ],
      [
        -0.41186782717704773,
        0.15832388401031494,
        -0.33070045709609985,
        -0.2670448124408722,
        0.12084823846817017,
        0.23864901065826416,
        -0.4566422402858734
      ],
      [
        0.11520370841026306,
        0.056309062987565994,
        0.5151402950286865,
        -0.04714569076895714,
        0.07388371974229813,
        -0.08918914198875427,
        0.3851962387561798
      ],
      [
        0.3819216191768646,
        0.339708536863327,
        0.039925187826156616,
        -0.4022836983203888,
        -0.26464739441871643,
        0.15110141038894653,
        0.034306373447179794
      ],
      [
        -0.5557960271835327,
        -1.0324934720993042,
        0.39764082431793213,
        0.07028134912252426,
        -0.045730169862508774,
        -0.20197175443172455,
        -0.5282889008522034
      ],
      [
        -0.05354943871498108,
        0.40090084075927734,
        -1.5790685415267944,
        0.048424940556287766,
        0.02122938074171543,
        -0.08099157363176346,
        -0.2720842659473419
      ],
      [
        -1.099697470664978,
        1.3091342449188232,
        0.3292574882507324,
        -0.41327065229415894,
        -0.06407476216554642,
        -0.38720476627349854,
        0.614406168460846
      ],
      [
        0.07497573643922806,
        -0.02097661793231964,
        0.25220486521720886,
        -0.07463684678077698,
        0.11072107404470444,
        -0.23743551969528198,
        -0.047076188027858734
      ],
      [
        -0.15916089713573456,
        -0.2608182430267334,
        -0.4058462381362915,
        -0.1929125189781189,
        -0.05643467605113983,
        0.08585046231746674,
        -0.4169588088989258
      ],
      [
        -0.0009794104844331741,
        -0.028535380959510803,
        0.13051526248455048,
        0.02091444842517376,
        -0.020507246255874634,
        0.08964217454195023,
        1.0702126026153564
      ],
      [
        0.6605539917945862,
        0.7089182734489441,
        0.1658722162246704,
        0.042031511664390564,
        -0.08223225921392441,
        -0.06779342889785767,
        0.5882999897003174
      ],
      [
        0.1455455720424652,
        -0.5473479628562927,
        -0.5815460085868835,
        -0.1719190776348114,
        -0.12846112251281738,
        0.08090799301862717,
        0.3152520954608917
      ],
      [
        0.20044203102588654,
        -0.522054135799408,
        0.2751719057559967,
        -0.17903238534927368,
        -0.07815413177013397,
        -0.047393832355737686,
        0.0184739101678133
      ],
      [
        -0.32537606358528137,
        -0.23132136464118958,
        -1.601691722869873,
        0.016350675374269485,
        -0.0023330627009272575,
        -0.08069667220115662,
        -0.13253173232078552
      ],
      [
        -0.09841776639223099,
        -0.5752036571502686,
        0.39604422450065613,
        -0.12607526779174805,
        0.1570519208908081,
        0.09732665866613388,
        -0.6464840769767761
      ],
      [
        -0.02721281349658966,
        -0.2831548750400543,
        0.12042192369699478,
        0.24428439140319824,
        -0.25030362606048584,
        -0.006884020287543535,
        -0.0006444495520554483
      ],
      [
        0.4151717722415924,
        -0.2839418947696686,
        0.001010180334560573,
        0.02991480752825737,
        -0.04074016958475113,
        -0.1500975340604782,
        -0.8305202722549438
      ],
      [
        0.22485198080539703,
        0.4212714433670044,
        0.38725370168685913,
        -0.17823171615600586,
        0.02193116955459118,
        -0.19031652808189392,
        0.02355600893497467
      ],
      [
        0.1744479089975357,
        -0.12810510396957397,
        -1.221550464630127,
        -0.0422232560813427,
        -4.960704245604575e-06,
        0.12704335153102875,
        -0.6980261206626892
      ],
      [
        -0.2815244793891907,
        -0.27952125668525696,
        0.7131603360176086,
        -0.1398973912000656,
        0.12803857028484344,
        0.1098204106092453,
        -0.15304166078567505
      ],
      [
        0.26820552349090576,
        -0.22401213645935059,
        -1.0357471704483032,
        -0.04902193695306778,
        -0.0004334340337663889,
        0.05580907315015793,
        -0.889194130897522
      ],
      [
        -0.3891927897930145,
        0.514488697052002,
        -0.6848300695419312,
        -0.01840437948703766,
        0.18878307938575745,
        0.08995215594768524,
        -0.07667593657970428
      ],
      [
        -0.6647069454193115,
        0.1665550172328949,
        -0.5647196173667908,
        -0.04476211220026016,
        -0.025445839390158653,
        -0.01258773822337389,
        -0.7431727051734924
      ],
      [
        0.14576356112957,
        -0.0769183337688446,
        0.30691125988960266,
        0.0842706635594368,
        -0.09017918258905411,
        0.030617238953709602,
        -0.4637948274612427
      ],
      [
        -0.08538666367530823,
        0.3100792467594147,
        -0.04071012884378433,
        0.28794750571250916,
        -0.039335865527391434,
        0.05331749841570854,
        0.3399930000305176
      ],
      [
        0.03976263478398323,
        0.5163912177085876,
        -2.0643832683563232,
        0.06630337238311768,
        -0.014045392163097858,
        -0.0916970893740654,
        -0.367082804441452
      ],
      [
        0.5251291990280151,
        0.25482288002967834,
        0.14461176097393036,
        -0.13213248550891876,
        -0.1744529753923416,
        0.1268622875213623,
        -0.1887487918138504
      ],
      [
        -0.0006305333808995783,
        -0.12247873842716217,
        0.8295274376869202,
        -0.0009674228494986892,
        0.10613592714071274,
        -0.01758347451686859,
        -0.22202633321285248
      ],
      [
        0.1699189692735672,
        -0.533463716506958,
        1.0381264686584473,
        0.037046875804662704,
        -0.04233672097325325,
        -0.13967961072921753,
        -0.4348253607749939
      ],
      [
        0.13091444969177246,
        -0.4052061140537262,
        -0.13992567360401154,
        0.43301111459732056,
        -0.22218072414398193,
        0.11261589825153351,
        0.155533105134964
      ],
      [
        -0.4055067002773285,
        -0.2671591639518738,
        -0.2603098154067993,
        0.20830313861370087,
        0.15223366022109985,
        0.23381179571151733,
        0.24440431594848633
      ],
      [
        0.04660667106509209,
        0.517338752746582,
        -0.29488518834114075,
        -0.18695570528507233,
        0.03856396675109863,
        0.08458414673805237,
        0.07969169318675995
      ],
      [
        -0.166630357503891,
        0.010775967501103878,
        0.1756134331226349,
        -0.31222298741340637,
        0.1335332691669464,
        -0.14262992143630981,
        -0.2195061594247818
      ],
      [
        0.012435220181941986,
        -0.4240803122520447,
        -0.24504344165325165,
        0.12441480159759521,
        -0.1726636290550232,
        0.09354668855667114,
        -0.10533471405506134
      ],
      [
        0.17034655809402466,
        0.14303633570671082,
        -1.1916654109954834,
        0.08947880566120148,
        0.05612584203481674,
        0.008096926845610142,
        0.10489741712808609
      ],
      [
        0.057547200471162796,
        -0.2801659405231476,
        0.8517438173294067,
        0.07958132028579712,
        0.013033614493906498,
        0.007839501835405827,
        0.4382786452770233
      ],
      [
        0.22416335344314575,
        -0.6996461749076843,
        0.09940553456544876,
        0.5921865105628967,
        0.25927668809890747,
        0.4073614180088043,
        -0.1534789800643921
      ],
      [
        -0.11077908426523209,
        0.1734844148159027,
        -0.3498537242412567,
        0.30646461248397827,
        0.10669242590665817,
        -0.24265405535697937,
        0.22780576348304749
      ],
      [
        0.3177327513694763,
        0.5662089586257935,
        0.8172203898429871,
        0.19074726104736328,
        -0.000555484090000391,
        -0.09092596918344498,
        0.2382933795452118
      ],
      [
        0.2012884020805359,
        -0.6097221374511719,
        0.8550153374671936,
        0.1444452404975891,
        0.07323210686445236,
        -0.1736680418252945,
        0.22038933634757996
      ],
      [
        -0.4010368883609772,
        -0.14678288996219635,
        -0.2980300486087799,
        0.11303761601448059,
        0.03853755444288254,
        0.1262921243906021,
        -0.32979628443717957
      ],
      [
        0.20547060668468475,
        0.029083000496029854,
        -0.11192000657320023,
        -0.17832551896572113,
        -0.25405365228652954,
        -0.2365744262933731,
        0.22560550272464752
      ],
      [
        0.1859893947839737,
        0.44613346457481384,
        1.304023265838623,
        -0.34555092453956604,
        -0.14083470404148102,
        -0.049529753625392914,
        -0.2525717616081238
      ],
      [
        -0.0542132593691349,
        -0.7004383206367493,
        -0.13668109476566315,
        -0.14683416485786438,
        -0.011432955041527748,
        0.28156381845474243,
        0.38035547733306885
      ],
      [
        1.7491648197174072,
        -0.011395216919481754,
        0.30417510867118835,
        0.1097961962223053,
        0.19111454486846924,
        1.070321798324585,
        -0.4043045938014984
      ],
      [
        0.05660618469119072,
        0.1302340030670166,
        0.6034726500511169,
        -0.1120036393404007,
        0.06642888486385345,
        0.0008539189002476633,
        -0.13524329662322998
      ],
      [
        -0.33318856358528137,
        -0.2620709538459778,
        -0.6355136632919312,
        0.19391441345214844,
        0.0941043421626091,
        -0.0744793489575386,
        -0.32407623529434204
      ],
      [
        0.34119245409965515,
        -0.05943528562784195,
        -0.2209511697292328,
        -0.3125374913215637,
        0.3603307604789734,
        0.027203824371099472,
        -0.5850611925125122
      ],
      [
        0.39788562059402466,
        0.197517991065979,
        -0.349140465259552,
        0.2397671341896057,
        -0.15047648549079895,
        0.0417923778295517,
        0.22121605277061462
      ],
      [
        0.004441270139068365,
        0.20253793895244598,
        0.6100213527679443,
        -0.05644471198320389,
        -0.01620703749358654,
        0.056402940303087234,
        1.2871954441070557
      ],
      [
        0.04511536285281181,
        0.5956130027770996,
        -0.36097750067710876,
        0.16145671904087067,
        0.04122244566679001,
        -0.211826890707016,
        0.4857301115989685
      ],
      [
        0.10489984601736069,
        0.5017616152763367,
        1.2774099111557007,
        -0.2260342687368393,
        0.03199070692062378,
        0.2379249930381775,
        -0.33976125717163086
      ],
      [
        -0.02729414589703083,
        0.1317785084247589,
        0.571083664894104,
        -0.2713930904865265,
        0.05066872760653496,
        -0.29306256771087646,
        -0.39475542306900024
      ],
      [
        -0.6745072603225708,
        0.3379562497138977,
        0.056789856404066086,
        -0.5627281665802002,
        0.2518940269947052,
        -0.5043007135391235,
        0.31312811374664307
      ],
      [
        0.16177238523960114,
        -0.06412869691848755,
        0.1566968709230423,
        0.1651342511177063,
        0.3053460419178009,
        0.17921733856201172,
        -0.09519953280687332
      ],
      [
        -0.29145047068595886,
        0.7956167459487915,
        -0.4641493856906891,
        -0.832388699054718,
        0.03956181928515434,
        -1.3630441427230835,
        0.49377116560935974
      ],
      [
        0.6681579947471619,
        -0.6133062839508057,
        1.1972719430923462,
        -0.12513922154903412,
        -0.056113407015800476,
        -0.43870070576667786,
        -0.6521812081336975
      ],
      [
        0.20075398683547974,
        -0.23931458592414856,
        0.9069410562515259,
        0.049718040972948074,
        -0.02089809440076351,
        -0.01603499986231327,
        -0.2856947183609009
      ],
      [
        -0.24474558234214783,
        0.3037104308605194,
        -0.5691407322883606,
        0.11870641261339188,
        -0.08508259803056717,
        -0.18497708439826965,
        -0.6010531187057495
      ],
      [
        0.47662827372550964,
        -0.9655479192733765,
        1.0466160774230957,
        0.12372156232595444,
        0.050623420625925064,
        -0.06558657437562943,
        -0.36777493357658386
      ],
      [
        0.04948431998491287,
        1.1402090787887573,
        2.072200298309326,
        -0.3286679983139038,
        0.17089298367500305,
        -0.11533313989639282,
        -0.29291635751724243
      ],
      [
        -0.6199007630348206,
        1.3878170251846313,
        1.4949144124984741,
        -0.28400829434394836,
        0.09749447554349899,
        0.05399346351623535,
        0.2295052707195282
      ],
      [
        -0.05859847366809845,
        -0.9307126402854919,
        -0.09512542933225632,
        0.022473065182566643,
        -0.03832785040140152,
        -0.009477649815380573,
        -0.7201622128486633
      ],
      [
        0.24394264817237854,
        1.46144700050354,
        -0.9331143498420715,
        0.050954777747392654,
        0.006065241992473602,
        -0.10343144834041595,
        0.810478687286377
      ],
      [
        0.1282370388507843,
        0.01672191731631756,
        0.4811905324459076,
        -0.0524076372385025,
        0.08336356282234192,
        -0.21013399958610535,
        -0.20643672347068787
      ],
      [
        -0.5588682889938354,
        0.05861266329884529,
        -0.29476770758628845,
        -0.010313845239579678,
        -0.07404464483261108,
        0.3077254295349121,
        0.7296847701072693
      ],
      [
        0.12313143163919449,
        -1.546036720275879,
        -1.804831862449646,
        0.05470772087574005,
        -0.020457878708839417,
        -0.11686545610427856,
        0.01985999196767807
      ],
      [
        -0.17595621943473816,
        0.3656289279460907,
        1.0764656066894531,
        -0.02983362041413784,
        -0.0288243368268013,
        0.11899741739034653,
        0.5874913930892944
      ],
      [
        -0.26435232162475586,
        -0.20012949407100677,
        -1.0854953527450562,
        0.4448506236076355,
        -0.1267261803150177,
        -0.22653764486312866,
        0.31455960869789124
      ],
      [
        -1.9292367696762085,
        0.06842495501041412,
        0.8255624175071716,
        -0.05104924738407135,
        -0.0019322787411510944,
        0.1031307801604271,
        -1.9414421319961548
      ]
    ],
    "net.0.bias": [
      -0.5122672319412231,
      -0.19024093449115753,
      -0.01159406267106533,
      0.49880948662757874,
      -0.044514067471027374,
      0.25121167302131653,
      -0.3708972632884979,
      0.03683774918317795,
      0.42399296164512634,
      0.444077730178833,
      0.4188568890094757,
      0.19778890907764435,
      -0.07174039632081985,
      -0.42292970418930054,
      -0.5223909020423889,
      0.3385615646839142,
      -0.3141191005706787,
      -0.395906001329422,
      0.24898114800453186,
      0.5596194863319397,
      0.46227145195007324,
      -0.627091646194458,
      -0.5324989557266235,
      0.19137607514858246,
      -0.29087379574775696,
      -0.3475992977619171,
      -0.03401205316185951,
      0.24460576474666595,
      0.24061134457588196,
      0.43337804079055786,
      0.040497664362192154,
      -0.6092490553855896,
      -0.614419162273407,
      0.461747407913208,
      0.14610964059829712,
      0.5444483757019043,
      -0.07847724854946136,
      0.4778583347797394,
      0.3311389982700348,
      0.41850486397743225,
      -0.24319307506084442,
      -0.1726485639810562,
      -0.3119787871837616,
      0.36386215686798096,
      -0.41866496205329895,
      -0.04135840758681297,
      0.38958972692489624,
      -0.17221036553382874,
      -0.2402733564376831,
      -0.24649924039840698,
      -0.29384633898735046,
      -0.25199219584465027,
      0.299128919839859,
      -0.339465856552124,
      0.8238507509231567,
      0.46368083357810974,
      0.1815231293439865,
      0.16299548745155334,
      0.2685825228691101,
      0.557763934135437,
      0.022728079929947853,
      0.584148645401001,
      -0.13614049553871155,
      -0.5428151488304138,
      0.14716215431690216,
      -0.5508221983909607,
      0.6746572256088257,
      0.021982518956065178,
      -0.35174864530563354,
      -0.15455062687397003,
      0.3572380840778351,
      0.21957112848758698,
      -0.17353834211826324,
      0.36533936858177185,
      0.15341779589653015,
      -0.02094488963484764,
      -0.8731395602226257,
      -0.30832424759864807,
      -0.5184366106987,
      0.29407021403312683
    ],
    "net.2.weight": [
      [
        -0.05705062299966812,
        0.013501199893653393,
        0.06430979818105698,
        0.033386219292879105,
        -0.15604345500469208,
        0.10232578217983246,
        -0.12520138919353485,
        0.15709318220615387,
        -0.38462188839912415,
        -0.038056861609220505,
        0.042223356664180756,
        -0.04237678274512291,
        0.13625338673591614,
        -0.04074817895889282,
        0.005085483659058809,
        -0.49986061453819275,
        0.010355312377214432,
        0.0937335193157196,
        -0.07063007354736328,
        -0.0034690839238464832,
        -0.039690449833869934,
        -0.028720872476696968,
        0.1352202594280243,
        -0.3746921122074127,
        0.08909305930137634,
        0.08426787704229355,
        -0.01819322071969509,
        0.07909180223941803,
        -0.30020084977149963,
        0.11255870759487152,
        -0.2669178247451782,
        -0.07734718918800354,
        -0.09597188979387283,
        0.051619287580251694,
        0.0056925383396446705,
        -0.533019483089447,
        0.0023011635057628155,
        0.05030352249741554,
        0.3718215227127075,
        -0.03675389289855957,
        0.058883409947156906,
        -0.05086413398385048,
        -0.009723201394081116,
        0.02381720207631588,
        -0.13876090943813324,
        0.16866235435009003,
        -0.026617830619215965,
        -0.07281032204627991,
        0.06286294013261795,
        0.18030303716659546,
        -0.017814770340919495,
        -0.04152729734778404,
        0.02965298295021057,
        0.10317904502153397,
        0.03674330189824104,
        -0.05197928473353386,
        0.016029812395572662,
        -0.028871756047010422,
        0.008096964098513126,
        0.1434394270181656,
        -0.13137252628803253,
        0.08011342585086823,
        -0.07283098250627518,
        0.007632313296198845,
        -0.08847346901893616,
        -0.05026435852050781,
        -0.03065522573888302,
        0.20903363823890686,
        -0.1226799264550209,
        0.23285125195980072,
        0.006488680373877287,
        0.0018445844762027264,
        0.05334847420454025,
        -0.3004811108112335,
        0.10337280482053757,
        -0.031188858672976494,
        -0.451473206281662,
        0.16221731901168823,
        0.042677078396081924,
        0.18030104041099548
      ],
      [
        0.13299864530563354,
        -0.06929109245538712,
        -0.001018719980493188,
        -0.08496405929327011,
        0.013400433585047722,
        0.02767050266265869,
        0.17802023887634277,
        -0.1304856836795807,
        0.1861879825592041,
        -0.16178728640079498,
        -0.016956530511379242,
        0.0783713310956955,
        -0.07491278648376465,
        -0.008261872455477715,
        0.0596405565738678,
        0.3758833408355713,
        0.012435884214937687,
        -0.02642315812408924,
        0.0978727713227272,
        -0.34467047452926636,
        -0.17979595065116882,
        0.014783202670514584,
        0.06586243212223053,
        0.23864734172821045,
        0.07458866387605667,
        0.09584997594356537,
        0.1705295443534851,
        -0.07265680283308029,
        0.37377020716667175,
        -0.039471112191677094,
        0.44985586404800415,
        0.04573535919189453,
        0.30105897784233093,
        0.04272676259279251,
        -0.002279255772009492,
        0.5108041167259216,
        -0.004779507406055927,
        0.04529894143342972,
        -0.08677837252616882,
        -0.07761768251657486,
        0.045187752693891525,
        0.05106678605079651,
        -0.05101001635193825,
        0.054465364664793015,
        0.07305911928415298,
        -0.20244339108467102,
        -0.02525543048977852,
        0.12074507027864456,
        -0.19205525517463684,
        -0.11874128878116608,
        0.08980248868465424,
        -0.07380092889070511,
        0.101789690554142,
        0.01860380545258522,
        0.0007472974830307066,
        -0.13052508234977722,
        0.15752536058425903,
        -0.08894762396812439,
        0.03375186771154404,
        -0.5185463428497314,
        -0.058568429201841354,
        0.06791703402996063,
        0.038128286600112915,
        0.023360542953014374,
        -0.02815050445497036,
        -0.01934872195124626,
        0.026346955448389053,
        -0.10297276079654694,
        0.12321767956018448,
        0.000558299187105149,
        0.027947673574090004,
        0.03597363829612732,
        0.11805742979049683,
        -0.10026390105485916,
        -0.050059787929058075,
        -0.08442132920026779,
        0.06670121103525162,
        -0.3194821774959564,
        -0.039643000811338425,
        -0.3489671051502228
      ],
      [
        0.04768224060535431,
        -0.15645457804203033,
        0.040129657834768295,
        -0.002267267554998398,
        -0.022541135549545288,
        0.06548754125833511,
        0.15571850538253784,
        -0.06052813678979874,
        -0.026181038469076157,
        0.20856551826000214,
        0.09185709804296494,
        -0.01767682656645775,
        0.054188322275877,
        -0.12165926396846771,
        -0.3175378739833832,
        0.0051294718869030476,
        -0.1880740225315094,
        -0.003601663513109088,
        -0.14594432711601257,
        0.24399755895137787,
        0.15938684344291687,
        0.00999053567647934,
        -0.007786160334944725,
        -0.2071283608675003,
        -0.12622061371803284,
        0.020503230392932892,
        -0.3163136839866638,
        -0.10502967238426208,
        0.007558909710496664,
        -0.08924665302038193,
        -0.11029063910245895,
        0.037297770380973816,
        -0.11332841217517853,
        -0.01057908684015274,
        -0.01843971200287342,
        -0.10058026760816574,
        -0.0420992411673069,
        -0.15569916367530823,
        -0.3743078112602234,
        0.13432787358760834,
        0.029703721404075623,
        0.027368107810616493,
        -0.1042565181851387,
        0.0799383744597435,
        0.45521309971809387,
        0.0549156554043293,
        0.1423444002866745,
        0.15506213903427124,
        0.2078818678855896,
        0.03748450428247452,
        0.017713749781250954,
        -0.024429360404610634,
        -0.16411134600639343,
        0.06244320049881935,
        0.2404649704694748,
        -0.18568895757198334,
        0.08155892044305801,
        -0.1317783147096634,
        0.18764905631542206,
        -0.013882538303732872,
        0.04458495229482651,
        -0.07529959082603455,
        -0.11399940401315689,
        -0.13738985359668732,
        0.09258557856082916,
        -0.20713932812213898,
        -0.34298771619796753,
        -0.14882509410381317,
        -0.08375030010938644,
        0.08627531677484512,
        -0.12999173998832703,
        -0.11900211870670319,
        -0.2076171636581421,
        0.07737913727760315,
        -0.10873879492282867,
        0.13845378160476685,
        0.33816593885421753,
        0.20444384217262268,
        0.08912752568721771,
        0.4552226662635803
      ],
      [
        -0.0477861650288105,
        -0.20916748046875,
        -0.04918626695871353,
        0.14940309524536133,
        0.13162602484226227,
        0.10393556207418442,
        0.216151624917984,
        -0.11163731664419174,
        -0.009340604767203331,
        0.18671271204948425,
        0.07164511829614639,
        0.04979749768972397,
        -0.051639895886182785,
        -0.022023994475603104,
        0.012613596394658089,
        0.11288345605134964,
        -0.233425110578537,
        -0.08806490153074265,
        0.0015306224813684821,
        0.030260184779763222,
        0.03710451349616051,
        0.079551100730896,
        0.013701141811907291,
        0.3058615028858185,
        0.03185185417532921,
        0.012625711038708687,
        -0.18541984260082245,
        -0.13016673922538757,
        0.302274614572525,
        -0.0825105533003807,
        0.3524481952190399,
        0.13210463523864746,
        0.017735756933689117,
        0.00928211584687233,
        0.16757532954216003,
        -0.12250161916017532,
        -0.09124882519245148,
        -0.10738079249858856,
        -0.11515503376722336,
        0.13922367990016937,
        0.10784289240837097,
        -0.16872955858707428,
        -0.17108884453773499,
        0.11072506010532379,
        0.27399522066116333,
        -0.05114512890577316,
        0.16154129803180695,
        0.034565459936857224,
        0.030551021918654442,
        0.061590954661369324,
        0.16954100131988525,
        -0.1433572769165039,
        -0.2029113918542862,
        0.11012772470712662,
        0.24209100008010864,
        -0.04162612184882164,
        0.1547522246837616,
        -0.14613120257854462,
        0.1203608438372612,
        -0.2719082534313202,
        0.06257901340723038,
        -0.14577439427375793,
        -0.12285587936639786,
        -0.13907897472381592,
        0.04328332841396332,
        -0.2011597454547882,
        -0.3364831209182739,
        -0.13241954147815704,
        0.020754912868142128,
        0.067301906645298,
        -0.15642081201076508,
        -0.17344683408737183,
        0.032293785363435745,
        -0.29890140891075134,
        -0.046603426337242126,
        0.13318395614624023,
        0.3229663372039795,
        -0.15311916172504425,
        0.10954300314188004,
        0.036448244005441666
      ]
    ],
    "net.2.bias": [
      -0.18328315019607544,
      -0.0993158370256424,
      -0.03140131011605263,
      -0.15382727980613708
    ]
  },
  "F2": {
    "n_in": 4,
    "n_hid": 60,
    "n_out": 4,
    "activation": "tanh",
    "net.0.weight": [
      [
        0.19091403484344482,
        0.12526465952396393,
        0.6418116688728333,
        0.37734392285346985
      ],
      [
        -0.3700103461742401,
        0.2476436048746109,
        -0.11310341954231262,
        -0.49563515186309814
      ],
      [
        0.2533864974975586,
        0.2757108211517334,
        -0.5956298112869263,
        -0.09293275326490402
      ],
      [
        0.5662346482276917,
        0.22188816964626312,
        0.31844812631607056,
        -0.09317181259393692
      ],
      [
        -0.2737230658531189,
        0.32207027077674866,
        0.15173770487308502,
        0.5060040354728699
      ],
      [
        -0.26330116391181946,
        -0.22170758247375488,
        -0.03430893272161484,
        -0.4236924350261688
      ],
      [
        0.13408468663692474,
        0.39266979694366455,
        0.19427941739559174,
        -0.05501261726021767
      ],
      [
        0.23938477039337158,
        -0.20250634849071503,
        0.38145911693573,
        -0.28319138288497925
      ],
      [
        -0.4955742657184601,
        -0.16725166141986847,
        0.39446741342544556,
        -0.08437918871641159
      ],
      [
        0.09857462346553802,
        -0.44597673416137695,
        0.0904330238699913,
        0.07088524103164673
      ],
      [
        0.05879863351583481,
        0.3300667703151703,
        0.25948694348335266,
        0.0288079846650362
      ],
      [
        0.021920552477240562,
        -0.38428860902786255,
        -0.1457241177558899,
        0.23015570640563965
      ],
      [
        -0.1713661402463913,
        0.22877554595470428,
        -0.43381398916244507,
        0.20118464529514313
      ],
      [
        0.061128169298172,
        -0.4207534193992615,
        0.15995115041732788,
        0.06289255619049072
      ],
      [
        0.14806874096393585,
        -0.1991502195596695,
        0.502471923828125,
        1.1770007610321045
      ],
      [
        -0.21936719119548798,
        0.09027931839227676,
        -1.219011664390564,
        0.12253948301076889
      ],
      [
        0.1170000359416008,
        0.030417123809456825,
        -0.48648759722709656,
        -0.5962976217269897
      ],
      [
        -0.15552084147930145,
        0.19636774063110352,
        -0.538245439529419,
        -0.7172035574913025
      ],
      [
        0.25763025879859924,
        -0.1773841381072998,
        -0.3925679922103882,
        -0.5081790089607239
      ],
      [
        -0.05663996562361717,
        -0.4561927616596222,
        -0.35454100370407104,
        0.278579980134964
      ],
      [
        -0.35048648715019226,
        -0.031610503792762756,
        -0.3141297399997711,
        -0.34293070435523987
      ],
      [
        0.1730206459760666,
        -0.41189074516296387,
        -0.6819632649421692,
        0.2542523443698883
      ],
      [
        0.01693069376051426,
        0.3562565743923187,
        -0.3111993670463562,
        -0.23973585665225983
      ],
      [
        -0.13528642058372498,
        0.05714825168251991,
        0.649235725402832,
        -0.9686244130134583
      ],
      [
        0.04257272928953171,
        0.23466646671295166,
        -0.19165824353694916,
        -0.1552300900220871
      ],
      [
        0.042152345180511475,
        -0.3464204967021942,
        0.26242437958717346,
        -0.4927249848842621
      ],
      [
        0.13594098389148712,
        -0.48989322781562805,
        0.21753312647342682,
        -0.4584985375404358
      ],
      [
        -0.5459693074226379,
        -0.056083183735609055,
        0.37272319197654724,
        -0.4843471348285675
      ],
      [
        -0.2318609207868576,
        0.3472800850868225,
        -0.24471963942050934,
        -0.04175621271133423
      ],
      [
        -0.3516145348548889,
        -0.11306741833686829,
        -0.04043067246675491,
        0.5593546032905579
      ],
      [
        0.3486805856227875,
        -0.3561192750930786,
        0.07999572902917862,
        0.021284013986587524
      ],
      [
        -0.029173485934734344,
        -0.3775656819343567,
        -0.5642810463905334,
        0.21559672057628632
      ],
      [
        -0.25729048252105713,
        -0.3844985365867615,
        -0.20754925906658173,
        -0.020309394225478172
      ],
      [
        0.19454513490200043,
        0.015110081061720848,
        -0.273319274187088,
        -0.4245324432849884
      ],
      [
        -0.009592228569090366,
        -0.22744305431842804,
        0.2586047649383545,
        -0.3607656955718994
      ],
      [
        -0.4011288583278656,
        -0.5070071220397949,
        -0.2295941561460495,
        0.36760011315345764
      ],
      [
        0.34472590684890747,
        -0.3243280351161957,
        -0.20279066264629364,
        0.23540550470352173
      ],
      [
        0.21824027597904205,
        0.45219025015830994,
        0.042436521500349045,
        -0.3644469678401947
      ],
      [
        0.4103144407272339,
        -0.12639757990837097,
        0.37453925609588623,
        -0.3126288950443268
      ],
      [
        0.21298623085021973,
        0.5144059658050537,
        0.5184922218322754,
        -0.3993024528026581
      ],
      [
        -0.3457532227039337,
        -0.14851108193397522,
        -0.06492441892623901,
        0.5202687978744507
      ],
      [
        -0.04464252293109894,
        -0.4032251536846161,
        -0.5447377562522888,
        -0.3744066655635834
      ],
      [
        0.27960145473480225,
        -0.22286581993103027,
        -0.3487250506877899,
        -0.4191892743110657
      ],
      [
        0.21709300577640533,
        0.24205291271209717,
        -0.46411725878715515,
        0.01829330064356327
      ],
      [
        0.43070873618125916,
        0.3093334436416626,
        0.035007916390895844,
        -0.25800415873527527
      ],
      [
        -0.036095716059207916,
        0.22138863801956177,
        -0.31304991245269775,
        0.02557159960269928
      ],
      [
        0.17179405689239502,
        -0.3594571352005005,
        1.552306890487671,
        1.0276601314544678
      ],
      [
        0.034442175179719925,
        -0.3843801021575928,
        0.5799940228462219,
        -0.2304844707250595
      ],
      [
        0.2220204621553421,
        0.11020960658788681,
        0.5124945044517517,
        -0.7468155026435852
      ],
      [
        -0.33751362562179565,
        0.13629654049873352,
        0.32104095816612244,
        -0.4346166253089905
      ],
      [
        -0.5524395704269409,
        -0.6475557684898376,
        -0.4986222982406616,
        -0.4098539650440216
      ],
      [
        0.3827306032180786,
        -0.05348744988441467,
        0.36983898282051086,
        0.4586108922958374
      ],
      [
        0.3665810227394104,
        -0.5075544714927673,
        0.25395455956459045,
        -0.03404836356639862
      ],
      [
        0.2769450545310974,
        -0.3347390592098236,
        0.5973617434501648,
        0.42430976033210754
      ],
      [
        -0.15176154673099518,
        0.04986731708049774,
        1.6423324346542358,
        -0.21706435084342957
      ],
      [
        0.06957119703292847,
        0.18181298673152924,
        0.22436101734638214,
        0.36268654465675354
      ],
      [
        0.5729299187660217,
        0.43117955327033997,
        0.11131157726049423,
        0.34663328528404236
      ],
      [
        -0.37294870615005493,
        -0.3101312518119812,
        0.04845867305994034,
        -0.16966764628887177
      ],
      [
        0.5711984038352966,
        0.317258358001709,
        0.23215824365615845,
        0.35571157932281494
      ],
      [
        -0.4476929306983948,
        0.03399824723601341,
        0.17338153719902039,
        0.37112584710121155
      ]
    ],
    "net.0.bias": [
      0.19774597883224487,
      0.07724803686141968,
      -0.1349315345287323,
      0.4239419996738434,
      -0.06285381317138672,
      -0.40388309955596924,
      0.37120914459228516,
      0.6594945192337036,
      -0.1983194202184677,
      -0.014134363271296024,
      -0.39976826310157776,
      -0.3383673131465912,
      0.1828044205904007,
      -0.40680480003356934,
      0.7067588567733765,
      -0.41182026267051697,
      0.4658648371696472,
      0.6405215263366699,
      0.25352728366851807,
      0.5133997797966003,
      0.5414232015609741,
      0.22999238967895508,
      -0.24919027090072632,
      -0.41123515367507935,
      -0.3777388632297516,
      -0.024804554879665375,
      0.7698303461074829,
      -0.4787587523460388,
      -0.039205074310302734,
      -0.3733796179294586,
      0.35753142833709717,
      0.0874275490641594,
      -0.49947410821914673,
      -0.5386027693748474,
      0.5616344809532166,
      0.08349760621786118,
      -0.2093789279460907,
      0.03978947922587395,
      -0.05131572112441063,
      -0.21412771940231323,
      -0.5307449102401733,
      0.4078390598297119,
      -0.4151611328125,
      -0.1432977318763733,
      -0.12040483206510544,
      -0.5492296814918518,
      0.05084884539246559,
      -0.5418683886528015,
      0.489337295293808,
      0.31348082423210144,
      -0.2754512429237366,
      -0.40223392844200134,
      0.03629177436232567,
      -0.15664677321910858,
      -0.1080106794834137,
      -0.052708301693201065,
      -0.1945984959602356,
      0.14211343228816986,
      0.14300285279750824,
      0.6053299307823181
    ],
    "net.2.weight": [
      [
        0.2570892572402954,
        0.010684358887374401,
        0.04483668506145477,
        0.27999642491340637,
        -0.03182714059948921,
        0.11031926423311234,
        -0.20049379765987396,
        0.1424662321805954,
        0.3339270055294037,
        0.23096323013305664,
        -0.11028639227151871,
        0.3149813413619995,
        0.018888231366872787,
        0.3701494038105011,
        0.0967440977692604,
        -0.020362060517072678,
        -0.18285928666591644,
        0.3569122850894928,
        -0.09321843087673187,
        0.2768954038619995,
        0.12058912962675095,
        0.05924587696790695,
        0.09070621430873871,
        -0.14084698259830475,
        -0.0605723075568676,
        0.14960967004299164,
        -0.06996045261621475,
        0.3654085695743561,
        -0.07690069079399109,
        -0.08883222937583923,
        -0.1466558277606964,
        -0.021306542679667473,
        0.14627671241760254,
        0.08189509063959122,
        -0.02268248423933983,
        0.026575254276394844,
        -0.1279209852218628,
        -0.343278706073761,
        -0.2249116152524948,
        -0.07647691667079926,
        -0.06936913728713989,
        0.4829563498497009,
        0.22603316605091095,
        -0.08720585703849792,
        -0.7213466167449951,
        0.10103292018175125,
        -0.5214081406593323,
        0.4497506320476532,
        0.15574628114700317,
        0.025107458233833313,
        -0.40274837613105774,
        -0.1523686647415161,
        -0.10770369321107864,
        -0.3670593202114105,
        0.31546786427497864,
        0.1756850779056549,
        -0.309136301279068,
        0.18578237295150757,
        0.07187354564666748,
        0.22138720750808716
      ],
      [
        -0.043725624680519104,
        -0.007930673658847809,
        -0.3395586311817169,
        -0.35628199577331543,
        0.09229002147912979,
        0.09663018584251404,
        -0.2920692563056946,
        -0.029666366055607796,
        0.27051469683647156,
        0.43200862407684326,
        -0.027779193595051765,
        0.17851704359054565,
        0.028235167264938354,
        -0.03323501721024513,
        -0.0015443473821505904,
        -0.027847472578287125,
        -0.043300431221723557,
        0.019385164603590965,
        -0.03888703137636185,
        0.06399855762720108,
        -0.07544568181037903,
        0.019366057589650154,
        -0.2837851643562317,
        0.05122126638889313,
        -0.28066903352737427,
        0.06930277496576309,
        0.09329921007156372,
        0.21472448110580444,
        -0.23938584327697754,
        0.14431947469711304,
        0.12518565356731415,
        0.11709737032651901,
        0.2649945914745331,
        -0.3278898000717163,
        0.009779923595488071,
        0.5011310577392578,
        -0.1869906187057495,
        -0.4843282699584961,
        -0.24266749620437622,
        -0.32052189111709595,
        0.12078321725130081,
        0.19184862077236176,
        0.017310844734311104,
        -0.40373048186302185,
        -0.5215391516685486,
        -0.2519279420375824,
        0.06229625269770622,
        0.08386430144309998,
        0.05791502073407173,
        0.15151813626289368,
        0.3993854224681854,
        -0.17441444098949432,
        0.17288750410079956,
        -0.03212384134531021,
        -0.018542926758527756,
        -0.22593896090984344,
        -0.3193027973175049,
        0.8651478290557861,
        -0.5452738404273987,
        0.0784137099981308
      ],
      [
        0.042085837572813034,
        -0.2326572835445404,
        0.06915032863616943,
        0.01951180398464203,
        0.1074765995144844,
        -0.06810362637042999,
        -0.003240997437387705,
        0.05419563129544258,
        0.13980194926261902,
        0.10802123695611954,
        -0.04373673349618912,
        -0.09857667982578278,
        -0.0693415105342865,
        -0.031174609437584877,
        0.4701070487499237,
        0.11069869250059128,
        0.2752486765384674,
        0.2273666262626648,
        0.030786070972681046,
        -0.09546700865030289,
        0.12515480816364288,
        0.1036614179611206,
        0.04667012020945549,
        0.10905065387487411,
        0.08900182694196701,
        0.05287250876426697,
        0.1393095850944519,
        0.17868566513061523,
        0.0482749305665493,
        -0.08504395931959152,
        -0.21266667544841766,
        0.039208199828863144,
        -0.007744849193841219,
        0.05595077574253082,
        0.14041055738925934,
        -0.01652350276708603,
        -0.036713358014822006,
        -0.11159638315439224,
        0.016482790932059288,
        -0.016922177746891975,
        -0.014226462692022324,
        -0.009060824289917946,
        0.04888928681612015,
        0.03957207128405571,
        -0.040094297379255295,
        0.06321796029806137,
        -0.02413853444159031,
        0.006376028060913086,
        -0.14628304541110992,
        -0.10231849551200867,
        -0.0457318052649498,
        -0.12710526585578918,
        -0.11150479316711426,
        -0.00307392212562263,
        0.05349372327327728,
        -0.06804061681032181,
        0.09607593715190887,
        0.04561028257012367,
        0.0014238170115277171,
        -0.14910602569580078
      ],
      [
        0.0513015054166317,
        0.07810059189796448,
        -0.06347209960222244,
        -0.07926703244447708,
        -0.03229055926203728,
        -0.015900246798992157,
        0.10627838224172592,
        -0.06875118613243103,
        0.09225073456764221,
        0.029629334807395935,
        0.00857720710337162,
        -0.09220708161592484,
        -0.06549598276615143,
        0.06688259541988373,
        0.09604473412036896,
        0.05944528430700302,
        0.0810878798365593,
        -0.09640150517225266,
        0.0527096763253212,
        0.08848005533218384,
        -0.034426912665367126,
        0.01815456710755825,
        0.09326216578483582,
        0.023423653095960617,
        0.0372525192797184,
        0.10245253890752792,
        0.20705574750900269,
        -0.006604231894016266,
        0.1473466008901596,
        0.08885211497545242,
        0.022219104692339897,
        0.017824413254857063,
        -0.059066250920295715,
        -0.1348613053560257,
        -0.16998189687728882,
        -0.13067732751369476,
        0.012064801529049873,
        0.023286104202270508,
        -0.033954501152038574,
        -0.07815714180469513,
        0.12054182589054108,
        -0.08743437379598618,
        0.034422922879457474,
        -0.041702765971422195,
        -0.04582839831709862,
        0.20969069004058838,
        0.05417988821864128,
        -0.016723554581403732,
        0.03915848210453987,
        -0.058222755789756775,
        -0.05295901373028755,
        -0.02543564699590206,
        -0.01025888416916132,
        -0.022862376645207405,
        -0.018099689856171608,
        0.05802219733595848,
        0.007211955729871988,
        -0.012526926584541798,
        -0.10682190209627151,
        0.022455113008618355
      ]
    ],
    "net.2.bias": [
      -0.1429627239704132,
      0.10432115197181702,
      -0.372344046831131,
      0.020154133439064026
    ]
  }
}