{
  "name": "PV3",
  "type": "F1+H1+F2",
  "t_step": 0.01,
  "normfacs": {
    "G": {
      "scale": 1000.0,
      "offset": 809.2813110351562
    },
    "Ud": {
      "scale": 0.40000003576278687,
      "offset": 0.9999997615814209
    },
    "Uq": {
      "scale": 1.0,
      "offset": -3.3840739238621964e-11
    },
    "Id": {
      "scale": 4.686577320098877,
      "offset": 2.4104905128479004
    },
    "Iq": {
      "scale": 4.055089473724365,
      "offset": -0.05657494440674782
    },
    "GIrms": {
      "scale": 5902.79296875,
      "offset": 2748.572021484375
    },
    "Ctrl": {
      "scale": 1.0,
      "offset": 0.8992015719413757
    },
    "Vdc": {
      "scale": 635.2540283203125,
      "offset": 495.7726135253906
    },
    "Idc": {
      "scale": 4.1067023277282715,
      "offset": 1.8830465078353882
    },
    "Vd": {
      "scale": 342.86944580078125,
      "offset": 230.29591369628906
    },
    "Vq": {
      "scale": 296.395751953125,
      "offset": -5.334640026092529
    }
  },
  "model_folder": "./ucfB_t_2nd_Ctrl/",
  "model_root": "ucfB_t_2nd_Ctrl",
  "data_path": "d:/data/ucf3/ucf4.hdf5",
  "lr": 0.001,
  "eps": 1e-08,
  "h5grp_prefix": "ucf",
  "num_iter": 500,
  "continue_iterations": false,
  "print_freq": 1,
  "batch_size": 405,
  "n_validation_pct": 15,
  "n_validation_seed": 99,
  "n_skip": 0,
  "n_trunc": 0,
  "n_dec": 1,
  "n_loss_skip": 50,
  "n_pad": 100,
  "gtype": "stable2ndx",
  "na": 2,
  "nb": 3,
  "nk": 0,
  "activation": "tanh",
  "nh1": 80,
  "nh2": 60,
  "COL_T": [
    "t"
  ],
  "COL_Y": [
    "Vdc",
    "Idc",
    "Vd",
    "Vq"
  ],
  "COL_U": [
    "G",
    "Ud",
    "Uq",
    "Id",
    "Iq",
    "GIrms",
    "Ctrl"
  ],
  "clamps": null,
  "sensitivity": {
    "limit": 70.0,
    "weight": 0.002,
    "delta": 0.01,
    "inputs": [
      "Id",
      "Iq"
    ],
    "outputs": [
      "Vd",
      "Vq"
    ],
    "GIrms": {
      "G": "G",
      "Id": "Id",
      "Iq": "Iq",
      "k": 1.2247449
    },
    "sets": {
      "G": [
        300.0,
        800.0
      ],
      "Ud": [
        0.9,
        1.1
      ],
      "Uq": [
        -0.4,
        0.4
      ],
      "Id": [
        2.3,
        4.6
      ],
      "Iq": [
        -2.0,
        2.0
      ],
      "Ctrl": [
        0.0,
        1.0
      ]
    }
  },
  "H1": {
    "n_in": 4,
    "n_out": 4,
    "n_b": 3,
    "n_a": 2,
    "n_k": 0,
    "b_0_0": [
      -0.13041312992572784,
      -0.06296951323747635,
      -0.06265957653522491
    ],
    "a_0_0": [
      -0.4575507342815399,
      0.16061222553253174
    ],
    "alpha1_0_0": -0.2328968197107315,
    "alpha2_0_0": -0.17722854018211365,
    "b_0_1": [
      0.23856596648693085,
      0.19379596412181854,
      0.2015693485736847
    ],
    "a_0_1": [
      0.0009494522237218916,
      -0.3714635372161865
    ],
    "alpha1_0_1": 0.0004747261409647763,
    "alpha2_0_1": -0.7817513346672058,
    "b_0_2": [
      0.008815944194793701,
      0.06815632432699203,
      0.06604456901550293
    ],
    "a_0_2": [
      0.012180030345916748,
      -0.0922660231590271
    ],
    "alpha1_0_2": 0.006090090144425631,
    "alpha2_0_2": -0.198567196726799,
    "b_0_3": [
      -0.08018394559621811,
      0.09101728349924088,
      0.08260490000247955
    ],
    "a_0_3": [
      -0.29895442724227905,
      0.03564178943634033
    ],
    "alpha1_0_3": -0.15060566365718842,
    "alpha2_0_3": -0.26929914951324463,
    "b_1_0": [
      -0.18667910993099213,
      -0.036457404494285583,
      -0.05998161807656288
    ],
    "a_1_0": [
      -0.7226047515869141,
      0.3185462951660156
    ],
    "alpha1_1_0": -0.37838298082351685,
    "alpha2_1_0": -0.13408565521240234,
    "b_1_1": [
      -0.027279142290353775,
      -0.14056432247161865,
      -0.1216069683432579
    ],
    "a_1_1": [
      0.16966959834098816,
      0.005549788475036621
    ],
    "alpha1_1_1": 0.08503919839859009,
    "alpha2_1_1": -0.17370475828647614,
    "b_1_2": [
      -0.3157624304294586,
      -0.22576873004436493,
      -0.2265854775905609
    ],
    "a_1_2": [
      -0.0002204295597039163,
      -0.57292240858078
    ],
    "alpha1_1_2": -0.00011021477985195816,
    "alpha2_1_2": -1.3042411804199219,
    "b_1_3": [
      -0.25837141275405884,
      -0.08562400192022324,
      -0.010700118727982044
    ],
    "a_1_3": [
      0.100624218583107,
      -0.07581865787506104
    ],
    "alpha1_1_3": 0.05035462602972984,
    "alpha2_1_3": -0.2672041654586792,
    "b_2_0": [
      -0.17709855735301971,
      -0.15216752886772156,
      -0.25879690051078796
    ],
    "a_2_0": [
      -0.2654035687446594,
      -0.09832018613815308
    ],
    "alpha1_2_0": -0.13348907232284546,
    "alpha2_2_0": -0.5459043979644775,
    "b_2_1": [
      -0.020979126915335655,
      -0.031368330121040344,
      0.023624686524271965
    ],
    "a_2_1": [
      -0.24988816678524017,
      0.10842251777648926
    ],
    "alpha1_2_1": -0.1256004124879837,
    "alpha2_2_1": -0.03776562958955765,
    "b_2_2": [
      -0.011621518060564995,
      -0.016978329047560692,
      -0.0423433743417263
    ],
    "a_2_2": [
      0.43944039940834045,
      0.19765162467956543
    ],
    "alpha1_2_2": 0.22336210310459137,
    "alpha2_2_2": -0.056581053882837296,
    "b_2_3": [
      -0.07435695827007294,
      -0.0682348906993866,
      -0.23098382353782654
    ],
    "a_2_3": [
      -0.1810842752456665,
      -0.24412989616394043
    ],
    "alpha1_2_3": -0.0907907783985138,
    "alpha2_2_3": -0.7721940875053406,
    "b_3_0": [
      0.16283491253852844,
      0.22713680565357208,
      0.21134595572948456
    ],
    "a_3_0": [
      -0.8609960079193115,
      0.30984318256378174
    ],
    "alpha1_3_0": -0.4605078399181366,
    "alpha2_3_0": -0.4302365183830261,
    "b_3_1": [
      -0.0994146466255188,
      -0.12855717539787292,
      -0.11486562341451645
    ],
    "a_3_1": [
      -0.4751252830028534,
      0.2009892463684082
    ],
    "alpha1_3_1": -0.24218939244747162,
    "alpha2_3_1": -0.09601172804832458,
    "b_3_2": [
      0.038501348346471786,
      0.029356222599744797,
      0.05412471666932106
    ],
    "a_3_2": [
      0.14745087921619415,
      0.08114123344421387
    ],
    "alpha1_3_2": 0.07385945320129395,
    "alpha2_3_2": 0.01601243019104004,
    "b_3_3": [
      -0.1397801786661148,
      -0.10800546407699585,
      -0.102528877556324
    ],
    "a_3_3": [
      -0.4697898328304291,
      0.15329551696777344
    ],
    "alpha1_3_3": -0.23936399817466736,
    "alpha2_3_3": -0.21411678194999695
  },
  "H1s": {
    "n_in": 4,
    "n_out": 4,
    "n_a": 3,
    "n_b": 3,
    "b_0_0": [
      -0.13041312992572784,
      -32.3795773088932,
      -2560.422196984291
    ],
    "a_0_0": [
      1.0,
      154.244926571846,
      7030.614912509918
    ],
    "b_0_1": [
      0.23856596648693085,
      67.09278970956802,
      6339.312791824344
    ],
    "a_0_1": [
      1.0,
      200.0949452223722,
      6294.859150075353
    ],
    "b_0_2": [
      0.008815944194793701,
      8.578821271657944,
      1430.1683753728864
    ],
    "a_0_2": [
      1.0,
      201.21800303459167,
      9199.140071868898
    ],
    "b_0_3": [
      -0.08018394559621811,
      -6.935060769319531,
      934.3823790550236
    ],
    "a_0_3": [
      1.0,
      170.1045572757721,
      7366.873621940613
    ],
    "b_1_0": [
      -0.18667910993099213,
      -40.98156243562698,
      -2831.1813250184055
    ],
    "a_1_0": [
      1.0,
      127.73952484130858,
      5959.415435791014
    ],
    "b_1_1": [
      -0.027279142290353775,
      -19.51226070523262,
      -2894.5043310523033
    ],
    "a_1_1": [
      1.0,
      216.96695983409882,
      11752.193868160248
    ],
    "b_1_2": [
      -0.3157624304294586,
      -85.72935909032822,
      -7681.166380643845
    ],
    "a_1_2": [
      1.0,
      199.9779570440296,
      4268.5716185951605
    ],
    "b_1_3": [
      -0.25837141275405884,
      -60.23668274283409,
      -3546.9553340226416
    ],
    "a_1_3": [
      1.0,
      210.0624218583107,
      10248.05560708046
    ],
    "b_2_0": [
      -0.17709855735301971,
      -50.63646435737611,
      -5880.629867315288
    ],
    "a_2_0": [
      1.0,
      173.45964312553406,
      6362.762451171874
    ],
    "b_2_1": [
      -0.020979126915335655,
      -7.332658395171166,
      -287.22770512104034
    ],
    "a_2_1": [
      1.0,
      175.01118332147598,
      8585.34350991249
    ],
    "b_2_2": [
      -0.011621518060564995,
      -4.022136516869069,
      -709.4322144985188
    ],
    "a_2_2": [
      1.0,
      243.94403994083405,
      16370.920240879059
    ],
    "b_2_3": [
      -0.07435695827007294,
      -21.694880723953244,
      -3735.7567250728634
    ],
    "a_2_3": [
      1.0,
      181.89157247543335,
      5747.858285903931
    ],
    "b_3_0": [
      0.16283491253852844,
      55.2806630730629,
      6013.176739215852
    ],
    "a_3_0": [
      1.0,
      113.90039920806883,
      4488.4717464447
    ],
    "b_3_1": [
      -0.0994146466255188,
      -32.73864686489105,
      -3428.37445437908
    ],
    "a_3_1": [
      1.0,
      152.48747169971466,
      7258.639633655547
    ],
    "b_3_2": [
      0.038501348346471786,
      10.635891929268837,
      1219.8228761553778
    ],
    "a_3_2": [
      1.0,
      214.74508792161944,
      12285.921126604082
    ],
    "b_3_3": [
      -0.1397801786661148,
      -38.756582140922546,
      -3503.1452029943475
    ],
    "a_3_3": [
      1.0,
      153.0210167169571,
      6835.0568413734445
    ]
  },
  "Q1s": {
    "n_in": 4,
    "n_out": 4,
    "n_a": 2,
    "n_b": 3,
    "A_0_0": [
      [
        -154.244926571846,
        -7030.614912509918
      ],
      [
        1.0,
        0.0
      ]
    ],
    "B_0_0": [
      1.0,
      0.0
    ],
    "C_0_0": [
      -12.264013659494694,
      -1643.5377009413755
    ],
    "D_0_0": -0.13041312992572784,
    "A_0_1": [
      [
        -200.0949452223722,
        -6294.859150075353
      ],
      [
        1.0,
        0.0
      ]
    ],
    "B_0_1": [
      1.0,
      0.0
    ],
    "C_0_1": [
      19.356945713443316,
      4837.573634787517
    ],
    "D_0_1": 0.23856596648693085,
    "A_0_2": [
      [
        -201.21800303459167,
        -9199.140071868898
      ],
      [
        1.0,
        0.0
      ]
    ],
    "B_0_2": [
      1.0,
      0.0
    ],
    "C_0_2": [
      6.804894585917154,
      1349.0692698591997
    ],
    "D_0_2": 0.008815944194793701,
    "A_0_3": [
      [
        -170.1045572757721,
        -7366.873621940613
      ],
      [
        1.0,
        0.0
      ]
    ],
    "B_0_3": [
      1.0,
      0.0
    ],
    "C_0_3": [
      6.704593796949746,
      1525.087372770924
    ],
    "D_0_3": -0.08018394559621811,
    "A_1_0": [
      [
        -127.73952484130858,
        -5959.415435791014
      ],
      [
        1.0,
        0.0
      ]
    ],
    "B_1_0": [
      1.0,
      0.0
    ],
    "C_1_0": [
      -17.135261635243634,
      -1718.6829557559233
    ],
    "D_1_0": -0.18667910993099213,
    "A_1_1": [
      [
        -216.96695983409882,
        -11752.193868160248
      ],
      [
        1.0,
        0.0
      ]
    ],
    "B_1_1": [
      1.0,
      0.0
    ],
    "C_1_1": [
      -13.593588135612766,
      -2573.9145622989367
    ],
    "D_1_1": -0.027279142290353775,
    "A_1_2": [
      [
        -199.9779570440296,
        -4268.5716185951605
      ],
      [
        1.0,
        0.0
      ]
    ],
    "B_1_2": [
      1.0,
      0.0
    ],
    "C_1_2": [
      -22.583833341787553,
      -6333.311831894029
    ],
    "D_1_2": -0.3157624304294586,
    "A_1_3": [
      [
        -210.0624218583107,
        -10248.05560708046
      ],
      [
        1.0,
        0.0
      ]
    ],
    "B_1_3": [
      1.0,
      0.0
    ],
    "C_1_3": [
      -5.96255804076327,
      -899.150728839109
    ],
    "D_1_3": -0.25837141275405884,
    "A_2_0": [
      [
        -173.45964312553406,
        -6362.762451171874
      ],
      [
        1.0,
        0.0
      ]
    ],
    "B_2_0": [
      1.0,
      0.0
    ],
    "C_2_0": [
      -19.917011800874388,
      -4753.793816432785
    ],
    "D_2_0": -0.17709855735301971,
    "A_2_1": [
      [
        -175.01118332147598,
        -8585.34350991249
      ],
      [
        1.0,
        0.0
      ]
    ],
    "B_2_1": [
      1.0,
      0.0
    ],
    "C_2_1": [
      -3.661076568666847,
      -107.11469401483293
    ],
    "D_2_1": -0.020979126915335655,
    "A_2_2": [
      [
        -243.94403994083405,
        -16370.920240879059
      ],
      [
        1.0,
        0.0
      ]
    ],
    "B_2_2": [
      1.0,
      0.0
    ],
    "C_2_2": [
      -1.1871364509294775,
      -519.1772692510738
    ],
    "D_2_2": -0.011621518060564995,
    "A_2_3": [
      [
        -181.89157247543335,
        -5747.858285903931
      ],
      [
        1.0,
        0.0
      ]
    ],
    "B_2_3": [
      1.0,
      0.0
    ],
    "C_2_3": [
      -8.169976659719499,
      -3308.363466365612
    ],
    "D_2_3": -0.07435695827007294,
    "A_3_0": [
      [
        -113.90039920806883,
        -4488.4717464447
      ],
      [
        1.0,
        0.0
      ]
    ],
    "B_3_0": [
      1.0,
      0.0
    ],
    "C_3_0": [
      36.73370152991353,
      5282.296834951873
    ],
    "D_3_0": 0.16283491253852844,
    "A_3_1": [
      [
        -152.48747169971466,
        -7258.639633655547
      ],
      [
        1.0,
        0.0
      ]
    ],
    "B_3_1": [
      1.0,
      0.0
    ],
    "C_3_1": [
      -17.57915875104512,
      -2706.7593602172283
    ],
    "D_3_1": -0.0994146466255188,
    "A_3_2": [
      [
        -214.74508792161944,
        -12285.921126604082
      ],
      [
        1.0,
        0.0
      ]
    ],
    "B_3_2": [
      1.0,
      0.0
    ],
    "C_3_2": [
      2.367916493504856,
      746.7983471027169
    ],
    "D_3_2": 0.038501348346471786,
    "A_3_3": [
      [
        -153.0210167169571,
        -6835.0568413734445
      ],
      [
        1.0,
        0.0
      ]
    ],
    "B_3_3": [
      1.0,
      0.0
    ],
    "C_3_3": [
      -17.367277084555745,
      -2547.739736514117
    ],
    "D_3_3": -0.1397801786661148
  },
  "F1": {
    "n_in": 7,
    "n_hid": 80,
    "n_out": 4,
    "activation": "tanh",
    "net.0.weight": [
      [
        0.017739344388246536,
        0.02939099818468094,
        -0.47755664587020874,
        -0.2574348747730255,
        -0.14538107812404633,
        0.15582022070884705,
        -0.36238905787467957
      ],
      [
        -0.1304301917552948,
        -0.0768604725599289,
        0.3206360340118408,
        -0.04748585447669029,
        -0.06603475660085678,
        -0.25345176458358765,
        -0.5880315899848938
      ],
      [
        -0.2043091505765915,
        -0.12845055758953094,
        0.31763094663619995,
        0.1957518309354782,
        -0.18446707725524902,
        -0.11971664428710938,
        0.032083142548799515
      ],
      [
        0.22262081503868103,
        0.12884941697120667,
        0.3231596350669861,
        -0.031068913638591766,
        0.026184123009443283,
        0.3470306694507599,
        -0.4760206341743469
      ],
      [
        -0.1892123818397522,
        -0.0840667188167572,
        -0.18092703819274902,
        0.3021088242530823,
        -0.1799137443304062,
        -0.13014720380306244,
        -0.5478792786598206
      ],
      [
        -0.40407657623291016,
        -0.31370809674263,
        0.5700086951255798,
        0.0919422134757042,
        0.1257432997226715,
        -0.08034031838178635,
        -0.2103944718837738
      ],
      [
        0.0067093586549162865,
        -0.32742804288864136,
        -0.8823428750038147,
        -0.17113640904426575,
        0.14294907450675964,
        0.2348555624485016,
        -0.293938547372818
      ],
      [
        0.14053967595100403,
        0.12546224892139435,
        0.805178165435791,
        0.035716235637664795,
        0.020841753110289574,
        0.1659405529499054,
        -0.3144397735595703
      ],
      [
        -0.08794478327035904,
        -0.1500561386346817,
        -0.6448957920074463,
        -0.12469612807035446,
        0.06674635410308838,
        0.1393253356218338,
        -0.5472603440284729
      ],
      [
        0.1512274295091629,
        0.30285486578941345,
        -0.28949064016342163,
        -0.010914890095591545,
        0.07461486011743546,
        0.2103699892759323,
        0.8591026663780212
      ],
      [
        -0.3512379229068756,
        -0.07606685906648636,
        0.1577901840209961,
        0.19035187363624573,
        0.23460248112678528,
        0.2809043228626251,
        0.14829979836940765
      ],
      [
        -0.3056192696094513,
        0.23798654973506927,
        -0.47050970792770386,
        -0.28917819261550903,
        0.2029501050710678,
        0.2575071156024933,
        -0.343650221824646
      ],
      [
        -0.02479545585811138,
        0.015687718987464905,
        0.15268611907958984,
        -0.14101122319698334,
        0.12126892060041428,
        -0.18541528284549713,
        0.4214940071105957
      ],
      [
        0.27682819962501526,
        0.4056869149208069,
        -0.012999026104807854,
        -0.30641624331474304,
        -0.18556877970695496,
        0.1571740359067917,
        0.18300865590572357
      ],
      [
        -0.28543609380722046,
        -0.10990285873413086,
        0.08151406794786453,
        0.19242547452449799,
        -0.1431656926870346,
        -0.10749192535877228,
        -0.948321521282196
      ],
      [
        -0.09038138389587402,
        -0.02730201929807663,
        -0.9711273908615112,
        0.030681585893034935,
        0.03498535603284836,
        -0.14297428727149963,
        0.36023664474487305
      ],
      [
        -0.43087586760520935,
        0.00451026763767004,
        0.42868614196777344,
        -0.2560223340988159,
        -0.09543425589799881,
        0.0770467221736908,
        -0.4774925112724304
      ],
      [
        0.09630932658910751,
        0.1948135495185852,
        0.2131526917219162,
        -0.10868403315544128,
        0.11001166701316833,
        -0.26290643215179443,
        0.0355953611433506
      ],
      [
        0.01788327284157276,
        0.1609000265598297,
        -0.3417731523513794,
        -0.2354034185409546,
        -0.0965585932135582,
        0.09026691317558289,
        -0.7200877070426941
      ],
      [
        -0.15972861647605896,
        0.3242170512676239,
        -0.12098602205514908,
        -0.01240259688347578,
        -0.02371096983551979,
        0.06471320241689682,
        1.0890147686004639
      ],
      [
        0.19653677940368652,
        0.1652618944644928,
        0.3524090051651001,
        -0.036871012300252914,
        -0.2671707272529602,
        -0.162833109498024,
        0.39186206459999084
      ],
      [
        -0.06717952340841293,
        -0.4514073133468628,
        -0.46734461188316345,
        -0.207129567861557,
        -0.22821982204914093,
        -0.00024744338588789105,
        0.41441667079925537
      ],
      [
        0.1157119944691658,
        -0.4922308027744293,
        0.2820598781108856,
        -0.26355937123298645,
        -0.06645993888378143,
        -0.19819504022598267,
        0.2401995211839676
      ],
      [
        -0.09837061911821365,
        -0.1950155645608902,
        -1.1605491638183594,
        0.021874910220503807,
        -0.0038773398846387863,
        -0.13066139817237854,
        -0.2952338755130768
      ],
      [
        0.050292715430259705,
        -0.4447183609008789,
        0.36597368121147156,
        -0.13574053347110748,
        0.27892616391181946,
        0.0181862972676754,
        -0.20238108932971954
      ],
      [
        0.780639111995697,
        -0.4151814877986908,
        0.07152115553617477,
        0.2102767527103424,
        -0.2137039303779602,
        -0.10876227170228958,
        0.1848534792661667
      ],
      [
        0.4462341368198395,
        -0.1581888198852539,
        0.29411789774894714,
        0.1126757264137268,
        -0.07492921501398087,
        -0.11632432043552399,
        -0.9758620858192444
      ],
      [
        -0.03296023979783058,
        0.19477811455726624,
        0.45440050959587097,
        -0.17224684357643127,
        0.035182561725378036,
        -0.20764310657978058,
        0.15121471881866455
      ],
      [
        -0.10517624020576477,
        -0.052925240248441696,
        -0.5164968967437744,
        -0.02931082993745804,
        -0.016940487548708916,
        0.16614212095737457,
        -0.8556249141693115
      ],
      [
        -0.5968273878097534,
        0.13476526737213135,
        0.606922447681427,
        -0.13547243177890778,
        0.2519618570804596,
        0.080207459628582,
        0.08905716985464096
      ],
      [
        0.14190872013568878,
        -0.2275388389825821,
        -0.39722588658332825,
        -0.039380498230457306,
        -0.01862805336713791,
        0.09711618721485138,
        -1.248935580253601
      ],
      [
        0.08205092698335648,
        0.6062424778938293,
        -0.6964271068572998,
        -0.05342782661318779,
        0.2764708995819092,
        0.13076430559158325,
        -0.3430638909339905
      ],
      [
        -0.2504497766494751,
        -0.08457570523023605,
        -0.6683483719825745,
        -0.08301994949579239,
        -0.07147452980279922,
        -0.04889698699116707,
        -0.248559832572937
      ],
      [
        0.4205690920352936,
        -0.20647169649600983,
        0.3358217775821686,
        0.05101814121007919,
        -0.08767400681972504,
        -0.08915069699287415,
        -0.5124099254608154
      ],
      [
        -0.1567751169204712,
        0.31154924631118774,
        -0.08478929847478867,
        0.20878717303276062,
        -0.08828966319561005,
        -0.1384427547454834,
        0.7988247275352478
      ],
      [
        -0.030787846073508263,
        0.305115669965744,
        -0.9881728887557983,
        0.04944540187716484,
        -0.021640660241246223,
        -0.15848226845264435,
        0.025120288133621216
      ],
      [
        0.2267056256532669,
        -0.043248701840639114,
        0.16309741139411926,
        -0.16602395474910736,
        -0.4028688967227936,
        0.17164115607738495,
        -0.31979647278785706
      ],
      [
        -0.1675899773836136,
        -0.2519887387752533,
        0.24532043933868408,
        0.12469591945409775,
        0.19685770571231842,
        0.08583303540945053,
        -0.22835025191307068
      ],
      [
        0.010520380921661854,
        0.4348072409629822,
        1.3858217000961304,
        0.04786711558699608,
        -0.051692791283130646,
        -0.18744339048862457,
        -0.5834127068519592
      ],
      [
        -0.13628225028514862,
        0.03679147735238075,
        -0.20392487943172455,
        0.39033427834510803,
        -0.22994937002658844,
        0.12396858632564545,
        0.18561169505119324
      ],
      [
        1.1338709592819214,
        -0.3658427298069,
        0.3267492949962616,
        0.6905480027198792,
        0.30918654799461365,
        0.8151417970657349,
        0.09805735945701599
      ],
      [
        0.03487509861588478,
        -0.259605348110199,
        -0.11925330013036728,
        -0.1854112297296524,
        0.0780259445309639,
        0.18056528270244598,
        -0.6730723977088928
      ],
      [
        -0.2680433690547943,
        -0.27969107031822205,
        0.6394558548927307,
        -0.1626022905111313,
        0.07365124672651291,
        0.0394866019487381,
        -0.6301097869873047
      ],
      [
        -0.1245136484503746,
        0.006659846752882004,
        -0.3015585243701935,
        0.045227352529764175,
        -0.25783073902130127,
        -0.02487274631857872,
        0.3436531126499176
      ],
      [
        0.02733553946018219,
        0.11850427091121674,
        -0.516754150390625,
        -0.004694965668022633,
        0.09213334321975708,
        -0.10304150730371475,
        0.6402668952941895
      ],
      [
        0.09901424497365952,
        -0.38231125473976135,
        0.7000043392181396,
        0.09301180392503738,
        0.03459353372454643,
        0.01690053567290306,
        0.4921302795410156
      ],
      [
        -0.2758427858352661,
        -0.029984990134835243,
        0.4188986122608185,
        0.4183858633041382,
        0.22264422476291656,
        0.16774052381515503,
        -0.02565959468483925
      ],
      [
        -0.1874285638332367,
        -0.21685585379600525,
        -0.2588721811771393,
        0.33440297842025757,
        0.19003140926361084,
        -0.2385251373052597,
        -0.23395487666130066
      ],
      [
        0.26182377338409424,
        0.09757840633392334,
        0.4486142694950104,
        0.2222389280796051,
        -0.019741294905543327,
        -0.1192149966955185,
        0.7623241543769836
      ],
      [
        0.2275804877281189,
        -0.182083860039711,
        0.3667370676994324,
        0.16932901740074158,
        0.1688375174999237,
        -0.20030321180820465,
        0.5168741941452026
      ],
      [
        0.5563417673110962,
        0.36489272117614746,
        -0.4082801342010498,
        0.10377342253923416,
        0.07237011939287186,
        0.11935218423604965,
        0.075282022356987
      ],
      [
        0.27061986923217773,
        -0.19876797497272491,
        0.022744258865714073,
        -0.16103018820285797,
        -0.36598077416419983,
        -0.11006106436252594,
        0.042665302753448486
      ],
      [
        0.05009819194674492,
        0.1188649833202362,
        0.43937626481056213,
        -0.24754256010055542,
        -0.1576053351163864,
        0.008984409272670746,
        -0.5298176407814026
      ],
      [
        0.17257484793663025,
        -0.2931722402572632,
        -0.22562851011753082,
        -0.31921491026878357,
        -0.14600324630737305,
        0.28853216767311096,
        0.7694692611694336
      ],
      [
        0.09263797104358673,
        0.31373700499534607,
        0.32758989930152893,
        -0.12055300921201706,
        0.14353612065315247,
        0.300678014755249,
        0.6030145287513733
      ],
      [
        0.16660238802433014,
        1.214618444442749,
        -0.04369077831506729,
        -0.1081487387418747,
        0.10750900208950043,
        0.012553527019917965,
        -0.09759335964918137
      ],
      [
        -0.04701806977391243,
        -0.25977107882499695,
        -0.49563470482826233,
        0.18256832659244537,
        0.13087326288223267,
        -0.17039503157138824,
        -0.16209542751312256
      ],
      [
        0.21713703870773315,
        0.39828598499298096,
        0.07701011002063751,
        -0.12927447259426117,
        0.2525767982006073,
        0.19716371595859528,
        -0.5541592240333557
      ],
      [
        0.2854537069797516,
        0.2671498954296112,
        -0.3273846209049225,
        0.13968481123447418,
        -0.14545167982578278,
        -0.13669420778751373,
        0.8369451761245728
      ],
      [
        -0.4012429118156433,
        0.07169406861066818,
        0.445268839597702,
        -0.09218482673168182,
        -0.059979747980833054,
        0.04585333913564682,
        0.8822085857391357
      ],
      [
        -0.07923992723226547,
        0.1833997517824173,
        -0.3533613383769989,
        0.19470006227493286,
        0.12324702739715576,
        -0.2481323480606079,
        0.22549767792224884
      ],
      [
        -0.4794115722179413,
        -0.4906441271305084,
        0.6669867634773254,
        -0.26730263233184814,
        0.057908885180950165,
        0.315798282623291,
        -0.6813867092132568
      ],
      [
        -0.2836827337741852,
        0.31504905223846436,
        -0.19915351271629333,
        -0.19820377230644226,
        0.12188424170017242,
        -0.28508901596069336,
        -0.8180058598518372
      ],
      [
        -0.543618381023407,
        0.4876207709312439,
        0.17943592369556427,
        -1.2361007928848267,
        0.08054860681295395,
        -2.1865103244781494,
        1.0225154161453247
      ],
      [
        0.13114818930625916,
        -0.9706043004989624,
        0.16809098422527313,
        0.23000727593898773,
        0.2982698380947113,
        0.3887020945549011,
        -0.4066959023475647
      ],
      [
        0.22993314266204834,
        0.04266461730003357,
        0.16196371614933014,
        -0.30226728320121765,
        -0.13139915466308594,
        -0.5532910823822021,
        -0.22181126475334167
      ],
      [
        0.14561158418655396,
        -0.779283881187439,
        0.4131110906600952,
        0.15089362859725952,
        0.030124971643090248,
        -0.27261123061180115,
        -0.9167043566703796
      ],
      [
        0.33761224150657654,
        -0.036083247512578964,
        0.7268673181533813,
        0.10080745071172714,
        -0.02142353355884552,
        0.0700376033782959,
        -0.7306859493255615
      ],
      [
        -0.25035786628723145,
        0.18935900926589966,
        -0.19626906514167786,
        0.188065767288208,
        -0.21325333416461945,
        -0.16533349454402924,
        -0.6513557434082031
      ],
      [
        0.14969877898693085,
        -0.22253820300102234,
        0.6320469379425049,
        0.1345004439353943,
        0.12979663908481598,
        -0.05105050280690193,
        0.23205819725990295
      ],
      [
        -0.36042359471321106,
        0.3012731373310089,
        0.33191296458244324,
        -0.1897333711385727,
        0.1883954405784607,
        0.0021888234186917543,
        -0.5662239193916321
      ],
      [
        -0.41834691166877747,
        0.41799333691596985,
        0.636085033416748,
        -0.27073341608047485,
        0.15913410484790802,
        0.20145556330680847,
        0.08357080072164536
      ],
      [
        0.3967594802379608,
        -0.30344364047050476,
        -0.16760016977787018,
        0.14566142857074738,
        -0.10265132784843445,
        0.09440915286540985,
        -0.5947228074073792
      ],
      [
        0.10095226019620895,
        0.026290250942111015,
        -0.9618789553642273,
        0.11297581344842911,
        0.05809814855456352,
        -0.17086873948574066,
        -0.555924117565155
      ],
      [
        0.4503195583820343,
        -0.2309204787015915,
        0.2828220725059509,
        -0.11776666343212128,
        0.14011330902576447,
        -0.30420610308647156,
        0.04020462557673454
      ],
      [
        -0.2603377103805542,
        0.8756630420684814,
        -0.0859939381480217,
        -0.05710631608963013,
        -0.11092378944158554,
        0.358433336019516,
        0.8415676951408386
      ],
      [
        0.07259844243526459,
        -0.49467936158180237,
        -1.004748821258545,
        0.05533987283706665,
        -0.05277615040540695,
        -0.12376135587692261,
        -0.5829344987869263
      ],
      [
        -0.2173408716917038,
        -0.3503626585006714,
        0.6516693234443665,
        -0.07797014713287354,
        -0.08510161936283112,
        0.11129061877727509,
        0.627656877040863
      ],
      [
        -0.3262772262096405,
        -0.2259877622127533,
        -0.28013327717781067,
        0.267008513212204,
        -0.18126095831394196,
        -0.48173797130584717,
        0.5052114129066467
      ],
      [
        -0.12693439424037933,
        -0.1499948799610138,
        0.8451538681983948,
        -0.1186099648475647,
        -0.051642853766679764,
        0.23003019392490387,
        -0.4978252053260803
      ]
    ],
    "net.0.bias": [
      -0.41406068205833435,
      -0.1645525097846985,
      -0.08799993991851807,
      0.3248814642429352,
      0.0026208849158138037,
      0.28481563925743103,
      -0.3682252764701843,
      -0.032479990273714066,
      0.27142333984375,
      0.1530946046113968,
      0.2998940348625183,
      0.10245144367218018,
      -0.1212291345000267,
      -0.11667416244745255,
      0.014637675136327744,
      0.1433088332414627,
      -0.183566614985466,
      -0.3456462621688843,
      0.13429231941699982,
      0.23270300030708313,
      0.11233273148536682,
      -0.29272618889808655,
      -0.3046060800552368,
      0.2197708785533905,
      -0.07146849483251572,
      -0.2915342450141907,
      0.01580282300710678,
      0.31321483850479126,
      0.20162804424762726,
      0.2783519923686981,
      -0.07484500855207443,
      -0.41264161467552185,
      -0.25340038537979126,
      0.46403825283050537,
      0.24515242874622345,
      0.21478940546512604,
      -0.49481505155563354,
      0.3186807334423065,
      0.4322957694530487,
      0.42929285764694214,
      -0.6811097264289856,
      -0.27500948309898376,
      -0.10920456796884537,
      0.38932859897613525,
      -0.2321624755859375,
      -0.22371287643909454,
      0.30366745591163635,
      -0.19858403503894806,
      -0.11856858432292938,
      -0.031611859798431396,
      -0.19916951656341553,
      -0.37038758397102356,
      0.23723256587982178,
      -0.05871296301484108,
      -0.02117898315191269,
      0.43411019444465637,
      0.22639200091362,
      0.0631396695971489,
      0.36062684655189514,
      0.08958490192890167,
      -0.2004851996898651,
      0.2636953890323639,
      0.03639340400695801,
      -0.7003275156021118,
      0.22516757249832153,
      -0.40582916140556335,
      0.3325022757053375,
      0.04015953466296196,
      -0.1753605157136917,
      -0.20603428781032562,
      0.3682974576950073,
      0.28720712661743164,
      0.18007127940654755,
      0.17957986891269684,
      0.2554083466529846,
      -0.16017819941043854,
      0.011899701319634914,
      -0.3502402603626251,
      -0.26775118708610535,
      0.22003895044326782
    ],
    "net.2.weight": [
      [
        -0.07641343772411346,
        0.04339580610394478,
        0.04601643979549408,
        -0.056427713483572006,
        -0.1259659081697464,
        0.07007938623428345,
        -0.10587617009878159,
        0.10655732452869415,
        -0.2279980629682541,
        0.019105862826108932,
        -0.002395136281847954,
        -0.09720955044031143,
        0.17308367788791656,
        -0.03917444497346878,
        -0.175111323595047,
        -0.16050608456134796,
        0.04886625334620476,
        0.11601097881793976,
        -0.16926388442516327,
        0.14250978827476501,
        0.047141771763563156,
        0.013733766973018646,
        0.15388375520706177,
        -0.3331588804721832,
        0.01653331331908703,
        0.0887228325009346,
        -0.07470091432332993,
        0.12790513038635254,
        -0.3314240872859955,
        0.09207850694656372,
        -0.47621601819992065,
        -0.0693599283695221,
        -0.04384993016719818,
        0.01948816329240799,
        0.04307689890265465,
        -0.09618093073368073,
        -0.0427272692322731,
        -0.047657765448093414,
        0.08863246440887451,
        -0.05777650699019432,
        0.06574895232915878,
        -0.05373302847146988,
        0.008661393076181412,
        0.003871259745210409,
        0.09524685889482498,
        0.2409818470478058,
        -0.0434565395116806,
        -0.08772142976522446,
        0.20725485682487488,
        0.15868568420410156,
        -0.03404512256383896,
        -0.03552871569991112,
        0.039776381105184555,
        0.14750298857688904,
        0.07741925120353699,
        -0.13265933096408844,
        0.006824266165494919,
        -0.08833963423967361,
        0.06190169230103493,
        0.18325598537921906,
        -0.01663239113986492,
        0.01899280771613121,
        -0.12380339205265045,
        0.07310766726732254,
        -0.08322826772928238,
        0.03545592352747917,
        -0.03755728527903557,
        0.08573523163795471,
        -0.10984986275434494,
        0.13483385741710663,
        -0.010128913447260857,
        -0.005966124590486288,
        -0.13932329416275024,
        -0.21764923632144928,
        0.15516330301761627,
        -0.0239761620759964,
        -0.12720337510108948,
        0.23064850270748138,
        0.07678704708814621,
        0.0641157254576683
      ],
      [
        0.1264822632074356,
        -0.028631066903471947,
        -0.006496020592749119,
        -0.14098243415355682,
        -0.01698238216340542,
        0.03001394309103489,
        0.15353573858737946,
        -0.17506283521652222,
        0.15140199661254883,
        -0.15413795411586761,
        -0.05387081578373909,
        0.08733631670475006,
        -0.022046634927392006,
        -0.010793616995215416,
        -0.031168071553111076,
        0.22234448790550232,
        -0.01149730570614338,
        0.003886614693328738,
        0.10571039468050003,
        -0.24029436707496643,
        -0.11891951411962509,
        0.04442049190402031,
        0.12320949882268906,
        0.2519765794277191,
        0.07911612838506699,
        0.12138811498880386,
        0.1389019638299942,
        -0.06824726611375809,
        0.06956856697797775,
        -0.06532863527536392,
        0.18367399275302887,
        0.024160563945770264,
        0.16559794545173645,
        0.05641825124621391,
        -0.029533319175243378,
        0.17481781542301178,
        -0.015680450946092606,
        0.05804659426212311,
        -0.10245697945356369,
        -0.10339248925447464,
        0.11322633922100067,
        0.06297068297863007,
        -0.07214966416358948,
        0.06635770946741104,
        0.10100764036178589,
        -0.17462122440338135,
        -0.07740208506584167,
        0.1025099903345108,
        -0.16865409910678864,
        -0.04922189190983772,
        0.07459116727113724,
        -0.06270775943994522,
        0.1094728335738182,
        0.02814088575541973,
        -0.05846654623746872,
        -0.1557370275259018,
        0.1616874635219574,
        -0.09201651811599731,
        0.06759335100650787,
        -0.2639627754688263,
        -0.0516536608338356,
        -0.004126935265958309,
        0.10258106887340546,
        0.13513152301311493,
        -0.11128856986761093,
        0.016256697475910187,
        0.13017578423023224,
        -0.14913508296012878,
        0.051085181534290314,
        -0.012051377445459366,
        -0.007023910526186228,
        -0.024476831778883934,
        0.07844559848308563,
        0.1550557166337967,
        -0.03078317642211914,
        -0.18807657063007355,
        0.1821146011352539,
        -0.20944760739803314,
        0.03742392361164093,
        -0.11506722122430801
      ],
      [
        0.12405072152614594,
        -0.1059020608663559,
        0.08985133469104767,
        -0.032700926065444946,
        0.00946031790226698,
        0.03189922124147415,
        0.2046961635351181,
        -0.0022736277896910906,
        0.01687944307923317,
        0.10721393674612045,
        0.011775673367083073,
        -0.02120046503841877,
        0.018577251583337784,
        -0.04726653918623924,
        0.10235115885734558,
        -0.00046955508878454566,
        -0.018748821690678596,
        0.0023747216910123825,
        -0.05080603435635567,
        0.12615768611431122,
        0.11435040086507797,
        -0.03450319543480873,
        -0.008921230211853981,
        -0.11315712332725525,
        -0.06869162619113922,
        -0.060294196009635925,
        -0.14278154075145721,
        -0.07714934647083282,
        0.10077410191297531,
        -0.0354408398270607,
        0.1376069188117981,
        0.0321502611041069,
        0.037675321102142334,
        -0.11928888410329819,
        -0.11960133910179138,
        -0.0849955752491951,
        0.056891344487667084,
        -0.04694768041372299,
        -0.31134921312332153,
        0.1046593189239502,
        -0.1743089109659195,
        0.15464696288108826,
        -0.002696348587051034,
        0.05148717761039734,
        0.06369328498840332,
        0.05890210345387459,
        0.10668332874774933,
        0.047710031270980835,
        -0.035276271402835846,
        -0.03402698412537575,
        0.006043191999197006,
        0.039343107491731644,
        -0.06446400284767151,
        -0.02855393849313259,
        0.09058521687984467,
        -0.077767513692379,
        -0.08007800579071045,
        -0.017329705879092216,
        0.06387486308813095,
        0.0013973552267998457,
        0.029901184141635895,
        0.16127577424049377,
        -0.03312525525689125,
        -0.3020240068435669,
        0.17929360270500183,
        -0.14969031512737274,
        -0.21204450726509094,
        -0.07867152988910675,
        0.003000659868121147,
        0.03538981080055237,
        0.0043547083623707294,
        -0.025076977908611298,
        -0.09583910554647446,
        -0.0017397033516317606,
        -0.07986968755722046,
        0.1822204887866974,
        0.059299323707818985,
        0.24189765751361847,
        -0.11489710956811905,
        -0.0234974455088377
      ],
      [
        -0.03797059878706932,
        -0.11150652915239334,
        -0.08813805878162384,
        0.015277666971087456,
        0.003056570887565613,
        -0.050069306045770645,
        0.07485365122556686,
        -0.16544374823570251,
        -0.010337138548493385,
        0.23097001016139984,
        -0.05802465230226517,
        0.05811850354075432,
        0.11432904005050659,
        0.08446385711431503,
        -0.1679917424917221,
        0.2388281673192978,
        -0.15146534144878387,
        0.022455673664808273,
        -0.036782488226890564,
        0.3183509409427643,
        0.1394389569759369,
        0.13066086173057556,
        0.10498815774917603,
        0.15436948835849762,
        0.023937717080116272,
        -0.014441507868468761,
        -0.2663724422454834,
        -0.03148249164223671,
        -0.09466315060853958,
        -0.08967574685811996,
        -0.22732262313365936,
        0.04725001007318497,
        0.01653127186000347,
        -0.022115249186754227,
        0.11935151368379593,
        0.11398794502019882,
        -0.11806204915046692,
        -0.12245861440896988,
        -0.27169954776763916,
        0.013637546449899673,
        0.03040475770831108,
        -0.09734030067920685,
        -0.16625425219535828,
        0.0958295539021492,
        0.24476593732833862,
        -0.0648050382733345,
        0.04050450399518013,
        -0.07034776359796524,
        0.14692826569080353,
        0.0632762685418129,
        0.06904519349336624,
        -0.08749761432409286,
        -0.1188957542181015,
        0.13237285614013672,
        0.12758316099643707,
        0.06137803569436073,
        0.0413549579679966,
        -0.09612208604812622,
        0.180939719080925,
        0.03670224919915199,
        0.04558468237519264,
        -0.19000138342380524,
        -0.07441181689500809,
        0.048183001577854156,
        -0.06078542023897171,
        0.01285166759043932,
        -0.3682970404624939,
        -0.2673242688179016,
        -0.02647676132619381,
        -0.04711541533470154,
        -0.12589818239212036,
        -0.05013753101229668,
        -0.13528312742710114,
        0.03754280135035515,
        0.09304346144199371,
        0.12402285635471344,
        0.03524090722203255,
        -0.03706818073987961,
        0.04330655559897423,
        -0.16719657182693481
      ]
    ],
    "net.2.bias": [
      -0.11937737464904785,
      0.09567412734031677,
      -0.06694892793893814,
      -0.06837357580661774
    ]
  },
  "F2": {
    "n_in": 4,
    "n_hid": 60,
    "n_out": 4,
    "activation": "tanh",
    "net.0.weight": [
      [
        0.25202205777168274,
        0.21052555739879608,
        0.4258260428905487,
        0.27165865898132324
      ],
      [
        -0.43169698119163513,
        0.3503202795982361,
        -0.04731128364801407,
        -0.19433651864528656
      ],
      [
        0.30788955092430115,
        0.5361070036888123,
        -0.43702420592308044,
        -0.01692623645067215
      ],
      [
        0.4298512935638428,
        0.09930356591939926,
        0.3336702287197113,
        -0.389682799577713
      ],
      [
        -0.7253610491752625,
        0.19157932698726654,
        0.27862218022346497,
        0.8419327735900879
      ],
      [
        -0.11743443459272385,
        -0.39886996150016785,
        -0.07597163319587708,
        -0.30210965871810913
      ],
      [
        0.200543612241745,
        0.5847590565681458,
        0.1536421924829483,
        0.11482072621583939
      ],
      [
        0.36700403690338135,
        -0.46828243136405945,
        0.983654797077179,
        -0.6124239563941956
      ],
      [
        -0.4406445026397705,
        -0.2336786836385727,
        0.30798056721687317,
        -0.01648271456360817
      ],
      [
        0.13018956780433655,
        -0.39945757389068604,
        0.06887117028236389,
        -0.08328060060739517
      ],
      [
        0.015499052591621876,
        0.2774835228919983,
        0.16279079020023346,
        0.05578441545367241
      ],
      [
        0.03294510021805763,
        -0.4174473285675049,
        -0.11980138719081879,
        0.18033906817436218
      ],
      [
        -0.3216765224933624,
        0.2678752839565277,
        -0.10819071531295776,
        -0.11368107795715332
      ],
      [
        0.056108057498931885,
        -0.4935351312160492,
        -0.10388262569904327,
        0.027643969282507896
      ],
      [
        -0.017908979207277298,
        -0.11584220081567764,
        0.5664323568344116,
        0.6809178590774536
      ],
      [
        -0.525240421295166,
        0.1564987748861313,
        -0.45241984724998474,
        -0.33663126826286316
      ],
      [
        0.20965291559696198,
        -0.044225018471479416,
        -0.18600648641586304,
        -0.5182515978813171
      ],
      [
        -0.3451203405857086,
        -0.050385601818561554,
        -0.46608564257621765,
        -0.455382764339447
      ],
      [
        0.1563504934310913,
        -0.3161158561706543,
        -0.625177264213562,
        -0.4873119592666626
      ],
      [
        -0.046728841960430145,
        -0.3719470798969269,
        -0.30590301752090454,
        0.16977761685848236
      ],
      [
        -0.6135342717170715,
        -0.41327908635139465,
        -0.43055468797683716,
        -0.4533839523792267
      ],
      [
        0.053015198558568954,
        -0.48791757225990295,
        -0.4602402150630951,
        0.400759756565094
      ],
      [
        0.13826097548007965,
        0.4526286721229553,
        -0.10381879657506943,
        -0.4047296941280365
      ],
      [
        0.18987809121608734,
        0.07384397089481354,
        0.7687714099884033,
        -0.5975421071052551
      ],
      [
        0.1253311038017273,
        0.3975984454154968,
        -0.21464653313159943,
        -0.1963755488395691
      ],
      [
        0.15939068794250488,
        -0.6749727129936218,
        0.9484676122665405,
        -0.466521292924881
      ],
      [
        0.2751891016960144,
        -0.31017744541168213,
        0.12728099524974823,
        -0.5054441690444946
      ],
      [
        -0.4067404270172119,
        -0.014397122897207737,
        0.6022945046424866,
        -0.537516713142395
      ],
      [
        -0.17787738144397736,
        0.40771451592445374,
        -0.08724720776081085,
        0.14118148386478424
      ],
      [
        -0.3031612038612366,
        -0.14881928265094757,
        -0.16627047955989838,
        0.1599813848733902
      ],
      [
        0.32253873348236084,
        -0.2927616834640503,
        0.17402498424053192,
        -0.09955696761608124
      ],
      [
        -0.368475079536438,
        -0.5057493448257446,
        -0.33394020795822144,
        0.5003747344017029
      ],
      [
        -0.48233267664909363,
        -0.6011788845062256,
        -0.26713818311691284,
        -0.12727764248847961
      ],
      [
        0.15580125153064728,
        0.04453088715672493,
        -0.10705999284982681,
        -0.31760498881340027
      ],
      [
        -0.038805145770311356,
        -0.09905906766653061,
        0.34013351798057556,
        -0.4278223514556885
      ],
      [
        -0.3407202363014221,
        -0.5195955634117126,
        -0.040477052330970764,
        0.23572483658790588
      ],
      [
        0.4951916038990021,
        -0.4229598045349121,
        -0.09433698654174805,
        0.27700725197792053
      ],
      [
        0.46811383962631226,
        0.5497879981994629,
        0.011266774497926235,
        -0.8045700192451477
      ],
      [
        0.4788786768913269,
        -0.061415184289216995,
        0.29509225487709045,
        0.036829542368650436
      ],
      [
        0.32387423515319824,
        0.5726258754730225,
        0.49447473883628845,
        -0.3193875551223755
      ],
      [
        -0.040101438760757446,
        -0.17319485545158386,
        -0.11952074617147446,
        0.3465390205383301
      ],
      [
        -0.17698928713798523,
        -0.45972758531570435,
        -0.1820276975631714,
        -0.2350444793701172
      ],
      [
        -0.0008521224954165518,
        -0.7641248106956482,
        -0.47870996594429016,
        -0.778873860836029
      ],
      [
        0.2017243504524231,
        0.24827943742275238,
        -0.439191609621048,
        0.20329850912094116
      ],
      [
        0.4908454120159149,
        0.25625601410865784,
        -0.08149753510951996,
        0.0808039978146553
      ],
      [
        0.03221539780497551,
        0.15514202415943146,
        -0.3106116056442261,
        0.0587751567363739
      ],
      [
        0.10992295295000076,
        -0.3505978286266327,
        0.36521172523498535,
        0.4275174140930176
      ],
      [
        -0.2914563715457916,
        -0.37772127985954285,
        0.24808044731616974,
        -0.8670971989631653
      ],
      [
        0.11905093491077423,
        0.07244059443473816,
        0.3306330442428589,
        -0.4198721945285797
      ],
      [
        -0.4094349443912506,
        0.18688292801380157,
        0.17130497097969055,
        -0.482574999332428
      ],
      [
        -0.37931081652641296,
        -0.6209377646446228,
        -0.2715155780315399,
        -0.5115683078765869
      ],
      [
        0.5813766121864319,
        0.026310870423913002,
        0.29586684703826904,
        0.40131935477256775
      ],
      [
        0.4884525537490845,
        -0.1880674511194229,
        0.4522187411785126,
        0.1620764434337616
      ],
      [
        0.48567309975624084,
        -0.47198763489723206,
        0.3408353328704834,
        0.27784407138824463
      ],
      [
        -0.43035072088241577,
        0.11219340562820435,
        0.818688690662384,
        -0.09666668623685837
      ],
      [
        0.15093888342380524,
        0.3720511198043823,
        0.0744922086596489,
        0.6125321984291077
      ],
      [
        0.5459876656532288,
        0.36180350184440613,
        -0.1763126105070114,
        0.22969473898410797
      ],
      [
        -0.5597395896911621,
        -0.38259977102279663,
        -0.22934341430664062,
        -0.3081147074699402
      ],
      [
        0.5505030751228333,
        0.31271252036094666,
        0.2533823549747467,
        0.3074684739112854
      ],
      [
        -0.4716401994228363,
        -0.16982246935367584,
        -0.029692446812987328,
        0.4139879643917084
      ]
    ],
    "net.0.bias": [
      0.2923668324947357,
      -0.21972699463367462,
      0.18455113470554352,
      0.4298141300678253,
      -0.012297877110540867,
      -0.4586985409259796,
      0.3445090651512146,
      0.32542142271995544,
      -0.22439832985401154,
      -0.07525501400232315,
      -0.4006471633911133,
      -0.39938899874687195,
      0.20907430350780487,
      -0.29442790150642395,
      0.30042219161987305,
      -0.35024625062942505,
      -0.12623891234397888,
      -0.02821294404566288,
      0.24387864768505096,
      0.3520090878009796,
      0.4688695967197418,
      0.191385880112648,
      -0.21902135014533997,
      -0.2612150311470032,
      -0.3919280171394348,
      0.1408705860376358,
      0.8608942031860352,
      -0.10493873059749603,
      0.015605272725224495,
      -0.35705482959747314,
      0.03567574545741081,
      0.2849745452404022,
      -0.4819285571575165,
      -0.3117624521255493,
      0.4473915100097656,
      0.12006507813930511,
      -0.042638666927814484,
      -0.0028197765350341797,
      -0.06225115805864334,
      -0.45551708340644836,
      -0.47362059354782104,
      0.383400022983551,
      -0.24334004521369934,
      -0.1352999210357666,
      -0.15600454807281494,
      -0.2614300549030304,
      -0.11208388209342957,
      -0.28099122643470764,
      0.326160728931427,
      0.18056176602840424,
      -0.26354941725730896,
      -0.1253482550382614,
      0.1455785632133484,
      -0.21878153085708618,
      -0.029416967183351517,
      0.003588469000533223,
      -0.34714916348457336,
      0.11100202798843384,
      0.004013343248516321,
      0.34336405992507935
    ],
    "net.2.weight": [
      [
        -0.05552070587873459,
        0.052020683884620667,
        0.4882586598396301,
        8.211562089854851e-05,
        0.1181463897228241,
        0.0325828492641449,
        0.1438114047050476,
        0.17719142138957977,
        -0.13298317790031433,
        0.11430909484624863,
        -0.051175739616155624,
        0.1257023811340332,
        -0.0651160329580307,
        -0.05708009749650955,
        0.08227764815092087,
        0.068589948117733,
        -0.22260107100009918,
        -0.007319823373109102,
        -0.12768873572349548,
        0.05057274177670479,
        -0.025535058230161667,
        0.1458926498889923,
        -0.13958027958869934,
        0.06560315191745758,
        -0.12872160971164703,
        0.19505073130130768,
        0.005250081419944763,
        0.22752942144870758,
        -0.28437715768814087,
        -0.028623973950743675,
        0.09658589214086533,
        0.06913210451602936,
        -0.21242329478263855,
        0.10336697846651077,
        0.0013367198407649994,
        0.060530636459589005,
        0.29495567083358765,
        -0.1839168518781662,
        0.002505686366930604,
        -0.08554290235042572,
        0.13635139167308807,
        0.12975509464740753,
        0.13055051863193512,
        -0.05227407068014145,
        -0.20468789339065552,
        0.21531783044338226,
        0.05795406177639961,
        0.21747855842113495,
        0.0556943416595459,
        0.05676387622952461,
        -0.09298238158226013,
        -0.07077718526124954,
        -0.018045686185359955,
        -0.09154032915830612,
        -0.08676734566688538,
        0.03918560966849327,
        -0.2393367439508438,
        -0.08509623259305954,
        -0.027899593114852905,
        0.16609153151512146
      ],
      [
        0.08320273458957672,
        -0.030572598800063133,
        -0.3945743441581726,
        0.011857850477099419,
        -0.12353000789880753,
        0.038741111755371094,
        -0.1343560665845871,
        -0.06208868324756622,
        0.24103637039661407,
        0.2326444536447525,
        0.02953188680112362,
        0.029606644064188004,
        0.03795357793569565,
        -0.03758929297327995,
        -0.23360766470432281,
        -0.09578858315944672,
        0.019145525991916656,
        -0.15007877349853516,
        0.06256797164678574,
        -0.011959994211792946,
        -0.05614486336708069,
        -0.06144576519727707,
        0.11759994179010391,
        -0.09354836493730545,
        -0.09460155665874481,
        -0.23200653493404388,
        0.00012832574429921806,
        0.12767870724201202,
        0.016611624509096146,
        -0.03186267241835594,
        -0.07367216795682907,
        -0.1059112474322319,
        0.16387368738651276,
        -0.08459114283323288,
        -0.10566987842321396,
        0.12564685940742493,
        -0.022511351853609085,
        0.10514321178197861,
        -0.05201246216893196,
        -0.0921606495976448,
        0.019563693553209305,
        0.08482412248849869,
        -0.14429977536201477,
        -0.09787233173847198,
        -0.09139754623174667,
        -0.20132549107074738,
        0.0685848817229271,
        -0.12512962520122528,
        0.1445428431034088,
        0.008477610535919666,
        0.14698177576065063,
        -0.17989180982112885,
        0.08853919804096222,
        -0.016624635085463524,
        0.40784600377082825,
        0.12203137576580048,
        0.0017751151463016868,
        0.14686471223831177,
        -0.20337790250778198,
        -0.18682727217674255
      ],
      [
        0.034523170441389084,
        -0.0508439764380455,
        0.07713494449853897,
        -0.04296227544546127,
        0.2139391452074051,
        -0.07367045432329178,
        0.08374646306037903,
        0.20158889889717102,
        0.02643503248691559,
        0.08642847836017609,
        -0.06377486139535904,
        -0.1385853886604309,
        -0.04647228866815567,
        -0.13263902068138123,
        0.15769131481647491,
        0.015119274146854877,
        0.058524370193481445,
        0.09373381733894348,
        -0.04957045987248421,
        -0.03976690024137497,
        0.23843272030353546,
        0.06178703531622887,
        0.04978599771857262,
        0.10957769304513931,
        0.07104296237230301,
        0.14168623089790344,
        -0.06080227345228195,
        0.0679117813706398,
        0.032618578523397446,
        -0.07039439678192139,
        -0.06414403766393661,
        0.08667688816785812,
        -0.10855213552713394,
        -0.10202237963676453,
        0.04484695568680763,
        0.03002334013581276,
        0.06406872719526291,
        -0.19854144752025604,
        0.01769804209470749,
        -0.10417238622903824,
        0.022756164893507957,
        0.03731914237141609,
        0.03873654454946518,
        0.026362422853708267,
        0.016749689355492592,
        0.09610196948051453,
        0.013895322568714619,
        0.09846439957618713,
        -0.08859170973300934,
        -0.10614711046218872,
        0.027031714096665382,
        -0.1408531665802002,
        0.008502026088535786,
        -0.057657286524772644,
        0.05984211340546608,
        -0.2704237997531891,
        0.0832684338092804,
        0.11672529578208923,
        -0.09564147144556046,
        -0.014882899820804596
      ],
      [
        0.027385739609599113,
        0.022093461826443672,
        -0.06169109791517258,
        -0.04308619350194931,
        0.012944864109158516,
        -0.059294577687978745,
        0.08996349573135376,
        0.002728923223912716,
        0.08826318383216858,
        0.014156867749989033,
        0.018130376935005188,
        -0.04609872028231621,
        -0.07526630908250809,
        0.03850170969963074,
        0.025115827098488808,
        0.03868287429213524,
        0.15881840884685516,
        -0.14317773282527924,
        0.05568075180053711,
        0.08720932900905609,
        -0.04067317396402359,
        0.06865721195936203,
        0.026700856164097786,
        0.058736830949783325,
        -0.04218713939189911,
        0.05362986400723457,
        -0.0019816153217107058,
        0.06606502085924149,
        0.10123523324728012,
        0.06267883628606796,
        0.02990621142089367,
        0.0017256467835977674,
        -0.05540458485484123,
        -0.06791198253631592,
        -0.10076947510242462,
        -0.1176849976181984,
        0.030395612120628357,
        -0.021579116582870483,
        -0.07469518482685089,
        -0.10090457648038864,
        0.0752817764878273,
        -0.12759971618652344,
        -0.0400129035115242,
        -0.06363553553819656,
        -0.021443814039230347,
        0.08138924092054367,
        -0.09084653109312057,
        -0.026780501008033752,
        0.0486837700009346,
        -0.13098052144050598,
        -0.067851223051548,
        -0.07317941635847092,
        -0.0034727142192423344,
        -0.04658777639269829,
        -0.007460121531039476,
        -0.02329384535551071,
        0.03527092561125755,
        -0.003324799006804824,
        -0.06582674384117126,
        0.019949190318584442
      ]
    ],
    "net.2.bias": [
      -0.047853734344244,
      0.041909534484148026,
      -0.21249905228614807,
      0.013292362913489342
    ]
  }
}