{
  "name": "PV3",
  "type": "F1+H1+F2",
  "t_step": 0.01,
  "normfacs": {
    "G": {
      "scale": 999.9949951171875,
      "offset": 811.58056640625
    },
    "Ud": {
      "scale": 0.40000206232070923,
      "offset": 1.0109467506408691
    },
    "Uq": {
      "scale": 1.0,
      "offset": -0.0055442554876208305
    },
    "Vd": {
      "scale": 337.08233642578125,
      "offset": 219.3183135986328
    },
    "Vq": {
      "scale": 289.7115173339844,
      "offset": -6.3284478187561035
    },
    "GVrms": {
      "scale": 414899.65625,
      "offset": 253630.828125
    },
    "Ctrl": {
      "scale": 1.0,
      "offset": 0.748129665851593
    },
    "Vdc": {
      "scale": 628.1762084960938,
      "offset": 461.7552185058594
    },
    "Idc": {
      "scale": 4.834264755249023,
      "offset": 1.9915666580200195
    },
    "Id": {
      "scale": 5.7833781242370605,
      "offset": 2.6809873580932617
    },
    "Iq": {
      "scale": 4.977410316467285,
      "offset": -0.08024879544973373
    }
  },
  "model_folder": "./ucf6/",
  "model_root": "ucf6",
  "data_path": "d:/data/ucf3/ucf3.hdf5",
  "lr": 0.001,
  "eps": 1e-08,
  "h5grp_prefix": "ucf",
  "num_iter": 2000,
  "continue_iterations": false,
  "print_freq": 10,
  "batch_size": 50,
  "n_validation_pct": 15,
  "n_validation_seed": 99,
  "n_skip": 0,
  "n_trunc": 0,
  "n_dec": 1,
  "n_loss_skip": 30,
  "n_pad": 100,
  "gtype": "stable2nd",
  "na": 2,
  "nb": 3,
  "nk": 0,
  "activation": "tanh",
  "nh1": 80,
  "nh2": 60,
  "COL_T": [
    "t"
  ],
  "COL_Y": [
    "Vdc",
    "Idc",
    "Id",
    "Iq"
  ],
  "COL_U": [
    "G",
    "Ud",
    "Uq",
    "Vd",
    "Vq",
    "GVrms",
    "Ctrl"
  ],
  "H1": {
    "n_in": 4,
    "n_out": 4,
    "n_b": 3,
    "n_a": 2,
    "n_k": 0,
    "b_0_0": [
      -0.057308077812194824,
      -0.19404232501983643,
      -0.33336755633354187
    ],
    "rho_0_0": -1.2560091018676758,
    "psi_0_0": -0.5062533617019653,
    "b_0_1": [
      0.22376026213169098,
      0.11054791510105133,
      -0.0626029521226883
    ],
    "rho_0_1": -0.15633302927017212,
    "psi_0_1": -0.30098894238471985,
    "b_0_2": [
      -0.07473687082529068,
      -0.06566037237644196,
      0.011335259303450584
    ],
    "rho_0_2": 0.14546917378902435,
    "psi_0_2": -0.16370081901550293,
    "b_0_3": [
      -0.3538246750831604,
      -0.22126927971839905,
      -0.010630202479660511
    ],
    "rho_0_3": 0.04458090662956238,
    "psi_0_3": -0.211783304810524,
    "b_1_0": [
      -0.34021157026290894,
      -0.2605186700820923,
      -0.2142288088798523
    ],
    "rho_1_0": 0.026531992480158806,
    "psi_1_0": -0.31186193227767944,
    "b_1_1": [
      -0.6278600692749023,
      -0.4320089519023895,
      -0.07889824360609055
    ],
    "rho_1_1": 0.28698620200157166,
    "psi_1_1": -0.47014886140823364,
    "b_1_2": [
      -0.3879436254501343,
      -0.428749680519104,
      -0.5304291248321533
    ],
    "rho_1_2": -0.8567943572998047,
    "psi_1_2": -0.6742995977401733,
    "b_1_3": [
      -0.05484098941087723,
      -0.1820482611656189,
      -0.3803800940513611
    ],
    "rho_1_3": -1.0704102516174316,
    "psi_1_3": -0.7121178507804871,
    "b_2_0": [
      0.13802406191825867,
      0.015777111053466797,
      -0.11053098738193512
    ],
    "rho_2_0": -1.6152541637420654,
    "psi_2_0": -0.006525238044559956,
    "b_2_1": [
      0.20560890436172485,
      0.1259373426437378,
      0.10389544069766998
    ],
    "rho_2_1": -1.2490206956863403,
    "psi_2_1": -0.39838430285453796,
    "b_2_2": [
      -0.1347731202840805,
      -0.11599115282297134,
      -0.005955137312412262
    ],
    "rho_2_2": 0.1874508261680603,
    "psi_2_2": -0.14224660396575928,
    "b_2_3": [
      -0.435267835855484,
      -0.23594710230827332,
      0.03792910277843475
    ],
    "rho_2_3": 0.1939678192138672,
    "psi_2_3": -0.3516732156276703,
    "b_3_0": [
      -0.002448329469189048,
      0.10802850127220154,
      0.21599499881267548
    ],
    "rho_3_0": -1.3331409692764282,
    "psi_3_0": -0.41767239570617676,
    "b_3_1": [
      -0.6285759806632996,
      -0.5223932862281799,
      -0.4721393287181854
    ],
    "rho_3_1": -0.6820998787879944,
    "psi_3_1": -0.8062777519226074,
    "b_3_2": [
      0.2846258878707886,
      0.24350611865520477,
      0.23353654146194458
    ],
    "rho_3_2": -0.1362413913011551,
    "psi_3_2": -0.26795870065689087,
    "b_3_3": [
      -0.24064967036247253,
      -0.3717138469219208,
      -0.5783706903457642
    ],
    "rho_3_3": -0.8033943772315979,
    "psi_3_3": -0.8776119351387024
  },
  "H1s": null,
  "Q1s": null,
  "F1": {
    "n_in": 7,
    "n_hid": 80,
    "n_out": 4,
    "activation": "tanh",
    "net.0.weight": [
      [
        -0.015476618893444538,
        0.4155080020427704,
        -0.4958328306674957,
        -0.25100162625312805,
        0.6326289176940918,
        0.03935420885682106,
        0.01957300864160061
      ],
      [
        0.17907266318798065,
        -0.17032144963741302,
        0.7912782430648804,
        -0.1603342443704605,
        0.323571115732193,
        -0.15108467638492584,
        -0.12555047869682312
      ],
      [
        -0.10661569237709045,
        -0.17393341660499573,
        0.49292340874671936,
        0.2767786681652069,
        -0.8253989219665527,
        -0.10418606549501419,
        0.14726394414901733
      ],
      [
        0.1522825062274933,
        -0.07646674662828445,
        0.32256630063056946,
        -0.2028121054172516,
        -0.863167941570282,
        0.200242817401886,
        -0.4257395565509796
      ],
      [
        -0.21743354201316833,
        -0.12986911833286285,
        -0.2791409492492676,
        0.18151375651359558,
        -1.5436642169952393,
        -0.2955840826034546,
        -0.36747580766677856
      ],
      [
        -0.3261796236038208,
        -0.403490275144577,
        0.4470588266849518,
        0.268372505903244,
        -0.5012452602386475,
        0.09181219339370728,
        -0.2538837492465973
      ],
      [
        0.11810039728879929,
        -0.4295148253440857,
        -0.7850399017333984,
        -0.009705674834549427,
        0.6133372783660889,
        0.3444247245788574,
        -0.15263333916664124
      ],
      [
        -0.03963140398263931,
        0.2734100818634033,
        1.240485668182373,
        0.14201787114143372,
        -0.09090716391801834,
        0.28177979588508606,
        -0.21534383296966553
      ],
      [
        0.07585526257753372,
        -0.14846856892108917,
        -0.7724740505218506,
        -0.14723548293113708,
        0.5784709453582764,
        0.151378333568573,
        -0.25116559863090515
      ],
      [
        0.004003644455224276,
        0.25252625346183777,
        0.1238180473446846,
        -0.006889434065669775,
        -0.6540696024894714,
        0.23764453828334808,
        0.29513365030288696
      ],
      [
        -0.5037600994110107,
        -0.1494693160057068,
        0.5189425349235535,
        0.47100961208343506,
        -0.0542670339345932,
        0.4114833474159241,
        -0.02225927636027336
      ],
      [
        -0.35639482736587524,
        0.20051319897174835,
        -0.682701587677002,
        -0.353841096162796,
        0.7968965172767639,
        0.23215040564537048,
        -0.3754025399684906
      ],
      [
        0.14092563092708588,
        0.02352927066385746,
        -0.22748354077339172,
        0.01045831385999918,
        0.9455353021621704,
        -0.15060430765151978,
        0.2410074919462204
      ],
      [
        0.34447935223579407,
        0.574569821357727,
        -0.16660848259925842,
        -0.8920326232910156,
        -0.08244152367115021,
        0.07848253101110458,
        0.15835446119308472
      ],
      [
        -0.3020998537540436,
        -0.27555862069129944,
        0.6715756058692932,
        0.07719045877456665,
        -0.5656436085700989,
        -0.0784635916352272,
        -0.3689998984336853
      ],
      [
        0.0032435497269034386,
        -0.17411860823631287,
        -1.2463933229446411,
        0.044956743717193604,
        0.09487554430961609,
        -0.16375476121902466,
        0.1983298361301422
      ],
      [
        -0.49313679337501526,
        0.28266599774360657,
        0.18086883425712585,
        -0.5461466312408447,
        0.5097790360450745,
        0.2128152847290039,
        0.34826311469078064
      ],
      [
        0.0965292751789093,
        0.027788687497377396,
        0.7984378933906555,
        -0.02730664238333702,
        0.09114747494459152,
        -0.19102422893047333,
        -0.1553768813610077
      ],
      [
        0.23646484315395355,
        -0.5315766930580139,
        -0.6077092289924622,
        -0.7530228495597839,
        -0.5306001901626587,
        -0.11323379725217819,
        -0.351738840341568
      ],
      [
        -0.08680367469787598,
        0.31066182255744934,
        0.29708170890808105,
        0.04341541603207588,
        -0.6013261675834656,
        0.1544777899980545,
        0.20724977552890778
      ],
      [
        0.4315132796764374,
        0.08045490831136703,
        0.616396427154541,
        -0.1198975220322609,
        -0.997043251991272,
        -0.1320524960756302,
        0.2385334074497223
      ],
      [
        0.21101264655590057,
        -0.2720086872577667,
        -0.7717543840408325,
        -0.4537101686000824,
        -0.31243839859962463,
        -0.10375364124774933,
        0.2897568345069885
      ],
      [
        0.41544535756111145,
        -1.4945036172866821,
        -0.3094850778579712,
        -0.23889990150928497,
        -0.05272744223475456,
        -0.2680473327636719,
        -0.045749109238386154
      ],
      [
        -0.09791575372219086,
        -0.3484651446342468,
        -1.123532772064209,
        -0.15156900882720947,
        0.04385301098227501,
        -0.269015908241272,
        0.11821137368679047
      ],
      [
        -0.3073156774044037,
        0.27253803610801697,
        -0.19248247146606445,
        -0.12026133388280869,
        0.7701314687728882,
        0.1264176219701767,
        -0.2634119391441345
      ],
      [
        0.25259339809417725,
        0.9282441735267639,
        -0.1380392163991928,
        0.6888878345489502,
        -0.8427332639694214,
        -0.20058204233646393,
        -0.23922303318977356
      ],
      [
        0.22552239894866943,
        0.16873425245285034,
        -0.05043622478842735,
        0.23489393293857574,
        0.49528199434280396,
        -0.11455906182527542,
        -0.2978701889514923
      ],
      [
        0.3437780439853668,
        0.17747777700424194,
        0.7182492613792419,
        -0.6758358478546143,
        -0.24339990317821503,
        -0.22244830429553986,
        -0.10379056632518768
      ],
      [
        -0.3299272358417511,
        0.09390310943126678,
        -0.5948944091796875,
        -0.07073643058538437,
        0.43346646428108215,
        0.08492769300937653,
        -0.3435855507850647
      ],
      [
        -0.2541193962097168,
        -0.07297089695930481,
        0.524657130241394,
        0.10109900683164597,
        1.7499703168869019,
        0.21216236054897308,
        0.3195340931415558
      ],
      [
        0.11592511087656021,
        -0.2814059257507324,
        -0.3449096977710724,
        -0.2817871868610382,
        -0.6626096367835999,
        0.13953913748264313,
        -0.26967114210128784
      ],
      [
        -0.27945196628570557,
        0.5798000693321228,
        -0.6812462210655212,
        0.22562609612941742,
        0.8093110918998718,
        0.0955984890460968,
        0.09664709120988846
      ],
      [
        -0.27743789553642273,
        0.573216438293457,
        -0.6143802404403687,
        -0.040228161960840225,
        0.5648242831230164,
        -0.08272295445203781,
        0.043912965804338455
      ],
      [
        0.168320432305336,
        -0.029105154797434807,
        0.43492692708969116,
        0.10616230219602585,
        -1.1056228876113892,
        0.05525925010442734,
        -0.41263100504875183
      ],
      [
        -0.19827121496200562,
        0.250459223985672,
        0.3282841444015503,
        0.24306698143482208,
        -0.8502722978591919,
        0.010130742564797401,
        0.15298931300640106
      ],
      [
        -0.002368361223489046,
        0.3839980363845825,
        0.09005039930343628,
        -0.7632147073745728,
        -0.32643961906433105,
        -0.5078710913658142,
        0.05108052119612694
      ],
      [
        0.1983601599931717,
        -0.16269339621067047,
        -0.1943267285823822,
        0.4251730442047119,
        0.3862229287624359,
        0.499783456325531,
        -0.007039203308522701
      ],
      [
        -0.4143452048301697,
        -0.1471986025571823,
        0.1911194920539856,
        0.2585284411907196,
        1.1626089811325073,
        -0.02336418814957142,
        -0.1338430941104889
      ],
      [
        -0.11908623576164246,
        0.19151221215724945,
        0.7261360287666321,
        -0.2654944062232971,
        -0.6384832859039307,
        -0.4459419250488281,
        -0.38995128870010376
      ],
      [
        0.03388972580432892,
        -0.5387925505638123,
        0.13224270939826965,
        0.40743353962898254,
        -0.8080127835273743,
        0.028385434299707413,
        0.04383518919348717
      ],
      [
        -0.11022528260946274,
        0.16033440828323364,
        -0.5050253868103027,
        0.6846307516098022,
        -0.22416631877422333,
        0.3004438579082489,
        -0.1579020470380783
      ],
      [
        0.10629289597272873,
        -0.043273769319057465,
        -0.30941930413246155,
        -0.1500462293624878,
        0.77773517370224,
        0.14989767968654633,
        0.023052873089909554
      ],
      [
        -0.2898813486099243,
        -0.23380200564861298,
        1.020196557044983,
        -0.31909632682800293,
        0.529664158821106,
        0.04480518773198128,
        -0.08721363544464111
      ],
      [
        0.3647674322128296,
        0.006405526306480169,
        -1.3929698467254639,
        0.3084350824356079,
        -0.7343766093254089,
        0.03540646657347679,
        0.08110123127698898
      ],
      [
        0.15639105439186096,
        0.15040278434753418,
        -0.7469882369041443,
        0.19210277497768402,
        0.3911884129047394,
        -0.1443197876214981,
        0.19062550365924835
      ],
      [
        0.24513691663742065,
        -0.2732648551464081,
        0.6285317540168762,
        0.26210272312164307,
        -0.07840768247842789,
        0.15595386922359467,
        0.06764885038137436
      ],
      [
        -0.33530688285827637,
        -0.08404675871133804,
        0.3837583661079407,
        0.4765622019767761,
        -0.3914375901222229,
        0.16470736265182495,
        0.1335289031267166
      ],
      [
        -0.1275848001241684,
        -0.7623527646064758,
        -0.6365536451339722,
        0.6773777604103088,
        0.050063181668519974,
        -0.36011743545532227,
        0.08808928728103638
      ],
      [
        0.2833978235721588,
        0.41743841767311096,
        0.6477959752082825,
        0.26643380522727966,
        -0.6529070734977722,
        -0.11424911767244339,
        0.3034302890300751
      ],
      [
        0.24246330559253693,
        -0.3342488706111908,
        0.8287521004676819,
        0.20281030237674713,
        -0.2241596132516861,
        -0.11924352496862411,
        0.09588071703910828
      ],
      [
        0.30622804164886475,
        0.9635580778121948,
        -0.11754732578992844,
        0.5090970396995544,
        -0.7180591821670532,
        0.0008110113558359444,
        -0.15754136443138123
      ],
      [
        0.26767873764038086,
        -0.7383106350898743,
        -0.0866720899939537,
        -0.09102319180965424,
        0.3560355305671692,
        0.4629807472229004,
        0.44600629806518555
      ],
      [
        0.1216455027461052,
        0.9988071918487549,
        0.3356741666793823,
        -0.7654940485954285,
        0.45304545760154724,
        -0.1671995222568512,
        -0.17936737835407257
      ],
      [
        0.1984606236219406,
        0.3433855175971985,
        -0.5425953269004822,
        -0.3826774060726166,
        -0.933843195438385,
        0.19481052458286285,
        0.20645497739315033
      ],
      [
        0.30548813939094543,
        1.088365912437439,
        0.12535803020000458,
        -0.07048972696065903,
        -0.9033828377723694,
        0.1640407294034958,
        -0.038475874811410904
      ],
      [
        0.5208643078804016,
        -0.154875710606575,
        0.17503942549228668,
        -1.0088253021240234,
        0.3737086057662964,
        -0.25598135590553284,
        -0.18909664452075958
      ],
      [
        -0.2958700358867645,
        -0.07364290207624435,
        -0.5891379714012146,
        0.49311116337776184,
        0.35470107197761536,
        -0.27126190066337585,
        -0.2720089256763458
      ],
      [
        0.23551462590694427,
        0.2990911900997162,
        -0.31872469186782837,
        -0.2104419767856598,
        1.0093930959701538,
        0.09034888446331024,
        -0.27343615889549255
      ],
      [
        0.6917759776115417,
        0.24048824608325958,
        -0.8171613812446594,
        0.31602880358695984,
        -0.6845571994781494,
        -0.11604716628789902,
        0.22860613465309143
      ],
      [
        -0.05816436931490898,
        -0.2834126651287079,
        0.5366062521934509,
        -0.47359761595726013,
        -0.20079609751701355,
        0.014105582609772682,
        0.3326992690563202
      ],
      [
        0.10372834652662277,
        -0.3127862811088562,
        0.2554371953010559,
        0.25714313983917236,
        -0.5491052269935608,
        -0.2379431277513504,
        -0.045608554035425186
      ],
      [
        -0.19838495552539825,
        -0.10593551397323608,
        0.3087471127510071,
        -0.0852152481675148,
        1.3651612997055054,
        0.43078041076660156,
        0.13640828430652618
      ],
      [
        -0.0991266593337059,
        -0.23891209065914154,
        -0.25666558742523193,
        -0.35946863889694214,
        0.5970491170883179,
        -0.323268860578537,
        -0.30456316471099854
      ],
      [
        -0.18051816523075104,
        0.16472643613815308,
        -0.23651957511901855,
        -0.4364074170589447,
        0.8451104164123535,
        -0.12986159324645996,
        0.2627047896385193
      ],
      [
        0.056596070528030396,
        -0.4639112055301666,
        1.1560863256454468,
        0.30401062965393066,
        0.2606463134288788,
        0.26174619793891907,
        -0.2899499237537384
      ],
      [
        0.4660901427268982,
        -0.08238846063613892,
        -0.14353510737419128,
        -0.704533576965332,
        0.1444658488035202,
        -0.460823655128479,
        -0.04555170610547066
      ],
      [
        0.11557990312576294,
        -0.526991605758667,
        0.6798606514930725,
        0.039944715797901154,
        0.08760260790586472,
        -0.18428370356559753,
        -0.33100277185440063
      ],
      [
        -0.22394508123397827,
        0.1606958508491516,
        1.6083015203475952,
        0.18777455389499664,
        0.05596999078989029,
        -0.03538689389824867,
        -0.4197131395339966
      ],
      [
        -0.27814140915870667,
        0.6262983083724976,
        -0.7981747984886169,
        0.24757957458496094,
        0.049733638763427734,
        -0.23741471767425537,
        -0.26564058661460876
      ],
      [
        0.09445963054895401,
        -0.09638462960720062,
        0.8250924348831177,
        0.47200992703437805,
        0.4416385591030121,
        0.12912653386592865,
        -0.10333090275526047
      ],
      [
        -0.08555898815393448,
        0.12811505794525146,
        -0.24291861057281494,
        -0.23954585194587708,
        0.9683650732040405,
        -0.003908636048436165,
        -0.2734277546405792
      ],
      [
        -0.2624211311340332,
        0.3400730788707733,
        -0.1119673103094101,
        -0.43523305654525757,
        0.8504221439361572,
        0.1674431711435318,
        0.2854558527469635
      ],
      [
        0.25958892703056335,
        -0.07167912274599075,
        -0.23828428983688354,
        0.2319616675376892,
        0.29404741525650024,
        0.09300213307142258,
        -0.14832255244255066
      ],
      [
        0.2293693870306015,
        -0.0018211888382211328,
        -0.5495837926864624,
        0.22546859085559845,
        0.618027925491333,
        -0.1937514692544937,
        0.03549410402774811
      ],
      [
        0.29035472869873047,
        -0.03266797587275505,
        0.5558348894119263,
        -0.34151050448417664,
        -0.3190036118030548,
        -0.27544498443603516,
        -0.20046640932559967
      ],
      [
        -0.23211093246936798,
        0.5411579012870789,
        0.13636015355587006,
        -0.007740313187241554,
        -0.8862119913101196,
        0.40241605043411255,
        0.35149115324020386
      ],
      [
        -0.14357368648052216,
        -0.3141763210296631,
        0.05926639959216118,
        0.06980915367603302,
        -0.8732732534408569,
        -0.06773196905851364,
        -0.10142413526773453
      ],
      [
        0.1252557635307312,
        -0.2510444223880768,
        0.3389676809310913,
        0.06151029095053673,
        -0.7190184593200684,
        0.21120266616344452,
        0.35203972458839417
      ],
      [
        -0.320102334022522,
        -0.07179542630910873,
        0.2897792160511017,
        0.2887056767940521,
        -0.9746427536010742,
        -0.41514718532562256,
        0.38225212693214417
      ],
      [
        -0.28280460834503174,
        -0.010093577206134796,
        0.4232562482357025,
        -0.13160789012908936,
        -0.5023313760757446,
        0.2676043212413788,
        -0.01647738181054592
      ]
    ],
    "net.0.bias": [
      -0.33379361033439636,
      -0.0763796791434288,
      -0.11494503915309906,
      0.16858652234077454,
      -0.22758179903030396,
      0.2955367863178253,
      -0.08056742697954178,
      -0.037910040467977524,
      0.25988635420799255,
      0.2008996605873108,
      0.2850978672504425,
      0.1799994558095932,
      -0.11267708241939545,
      -0.14456869661808014,
      -0.004826211836189032,
      0.25759294629096985,
      0.08292616903781891,
      -0.306438148021698,
      0.12733344733715057,
      0.35089659690856934,
      -0.09962375462055206,
      -0.22742237150669098,
      -0.35617342591285706,
      0.07986143231391907,
      -0.032252293080091476,
      -0.2777811586856842,
      0.05905678868293762,
      0.1697930246591568,
      0.2294471263885498,
      0.2987024486064911,
      -0.005004596430808306,
      -0.310922771692276,
      -0.34558653831481934,
      0.26227936148643494,
      0.14637215435504913,
      0.08903391659259796,
      -0.19577372074127197,
      0.3264322280883789,
      0.31598296761512756,
      0.3178706765174866,
      -0.2955241799354553,
      -0.12328971177339554,
      -0.19697241485118866,
      0.3266170620918274,
      -0.1446167379617691,
      -0.11476680636405945,
      0.14421649277210236,
      -0.18385808169841766,
      -0.1506931483745575,
      -0.03146812319755554,
      -0.14319075644016266,
      -0.17636163532733917,
      0.3137318193912506,
      -0.15570764243602753,
      0.015334625728428364,
      0.3734130561351776,
      0.12734122574329376,
      0.07505009323358536,
      0.31252166628837585,
      0.07860143482685089,
      -0.1234063059091568,
      0.3127758800983429,
      0.08419057726860046,
      -0.31823140382766724,
      -0.08462207764387131,
      -0.1325971484184265,
      0.30740267038345337,
      -0.07884752750396729,
      -0.30806005001068115,
      -0.0523633174598217,
      0.2192247360944748,
      0.10825589299201965,
      0.0884418860077858,
      0.027354586869478226,
      0.13993097841739655,
      -0.07622694224119186,
      -0.10636205226182938,
      -0.3141946494579315,
      -0.28383681178092957,
      0.11176655441522598
    ],
    "net.2.weight": [
      [
        -0.11079106479883194,
        0.06821271032094955,
        0.18983882665634155,
        -0.05931738391518593,
        -0.06861252337694168,
        0.17172735929489136,
        -0.36338114738464355,
        0.6223613619804382,
        -0.21587136387825012,
        0.01294427365064621,
        0.14798660576343536,
        -0.2431449443101883,
        0.06549148261547089,
        -0.16769880056381226,
        -0.07920501381158829,
        -0.18979261815547943,
        0.17088443040847778,
        0.0869077518582344,
        -0.36075007915496826,
        0.0618983693420887,
        0.05997059494256973,
        -0.1610202193260193,
        -0.03826407343149185,
        -0.5099517703056335,
        0.01591326668858528,
        0.275129109621048,
        0.13834896683692932,
        0.020483454689383507,
        -0.07635211944580078,
        0.12304573506116867,
        -0.3745686709880829,
        -0.00771583616733551,
        -0.039379268884658813,
        0.08064860105514526,
        0.1514042615890503,
        -0.10251746326684952,
        0.04543624073266983,
        0.08149939775466919,
        0.0951884463429451,
        -0.010011309757828712,
        0.16726261377334595,
        -0.14419673383235931,
        0.009450527839362621,
        -0.061719972640275955,
        0.017218543216586113,
        0.18581359088420868,
        0.09340998530387878,
        -0.05461873859167099,
        0.3445415496826172,
        0.16038821637630463,
        0.22357337176799774,
        -0.1846727728843689,
        0.1398768424987793,
        -0.09713053703308105,
        0.03663583844900131,
        -0.2686663866043091,
        0.10538487136363983,
        -0.08850345760583878,
        0.03399299085140228,
        -0.0677717849612236,
        -0.058517005294561386,
        0.013551157899200916,
        -0.18451303243637085,
        -0.006416277028620243,
        0.19676662981510162,
        -0.12372048944234848,
        -0.011113856919109821,
        0.37229588627815247,
        -0.05589325353503227,
        0.3794497847557068,
        0.000753530883230269,
        -0.08855150640010834,
        -0.014668356627225876,
        -0.2175990641117096,
        -0.03492878004908562,
        0.11672571301460266,
        -0.10813985019922256,
        0.03423755243420601,
        0.18284258246421814,
        0.10231668502092361
      ],
      [
        0.17039473354816437,
        -0.045704495161771774,
        -0.24067404866218567,
        -0.2004563957452774,
        -0.17434176802635193,
        -0.10030678659677505,
        0.3360629975795746,
        -0.29011237621307373,
        0.15693159401416779,
        -0.09072207659482956,
        -0.07503575086593628,
        0.31334325671195984,
        0.22082214057445526,
        0.05306657776236534,
        -0.1950473189353943,
        0.19182702898979187,
        0.012965943664312363,
        -0.05497961491346359,
        0.025312751531600952,
        -0.11736687272787094,
        -0.6180849075317383,
        0.06401032954454422,
        0.19243764877319336,
        0.10947772860527039,
        0.11517539620399475,
        0.06176081672310829,
        0.12291210144758224,
        -0.22582535445690155,
        0.03606950864195824,
        0.10562874376773834,
        -0.06571043282747269,
        0.17501869797706604,
        0.16035588085651398,
        -0.04660925641655922,
        -0.09042111039161682,
        0.0033818066585808992,
        0.0019419664749875665,
        0.07519593089818954,
        -0.19309473037719727,
        -0.1339264065027237,
        0.05229595676064491,
        0.1975935846567154,
        -0.08528459817171097,
        0.12751172482967377,
        0.24735449254512787,
        -0.09169670939445496,
        -0.08444549888372421,
        0.0821974128484726,
        -0.14471697807312012,
        -0.19787324965000153,
        0.061069220304489136,
        -0.051096610724925995,
        0.018599756062030792,
        0.019405940547585487,
        -0.004558535758405924,
        -0.01813785918056965,
        0.2155216932296753,
        0.236533984541893,
        0.07993534952402115,
        -0.3104027211666107,
        -0.1216764971613884,
        0.16796651482582092,
        0.041475772857666016,
        0.06337160617113113,
        -0.21570777893066406,
        0.013917527161538601,
        -0.0806601420044899,
        -0.3382492959499359,
        0.06920945644378662,
        -0.03208765760064125,
        0.057154055684804916,
        0.19016601145267487,
        0.06469974666833878,
        0.3745301365852356,
        -0.17633648216724396,
        -0.13793757557868958,
        -0.08750744163990021,
        -0.12474488466978073,
        -0.13673561811447144,
        -0.10472951084375381
      ],
      [
        -0.08264587819576263,
        -0.0614454559981823,
        0.48199450969696045,
        -0.041015807539224625,
        0.10274399816989899,
        0.24379804730415344,
        0.5462149977684021,
        -0.04484034702181816,
        0.013137533329427242,
        0.08472251147031784,
        0.1587255448102951,
        -0.2672373056411743,
        -0.1529061645269394,
        -0.6114065647125244,
        -0.032196830958127975,
        0.08856523036956787,
        -0.372302383184433,
        0.0064198630861938,
        -0.12439407408237457,
        0.07587511092424393,
        -0.12902602553367615,
        -0.0988488420844078,
        0.16400974988937378,
        -0.04918331652879715,
        -0.2059871107339859,
        0.36889100074768066,
        0.07700497657060623,
        -0.8713878393173218,
        0.07001318782567978,
        0.015265888534486294,
        0.029822194948792458,
        0.10727090388536453,
        -0.06634257733821869,
        0.08203291147947311,
        0.06794431060552597,
        -0.6620271801948547,
        0.20888753235340118,
        0.008764054626226425,
        -0.5073046684265137,
        0.2034987062215805,
        0.5697990655899048,
        -0.10794854909181595,
        -0.05798713490366936,
        0.12132222205400467,
        0.45961278676986694,
        0.06971022486686707,
        0.3035731613636017,
        0.82915860414505,
        -0.007279322948306799,
        0.025039421394467354,
        0.4108412563800812,
        0.010102011263370514,
        -0.4744686782360077,
        -0.12234538793563843,
        0.026111744344234467,
        -0.7754299640655518,
        0.496724396944046,
        -0.42034462094306946,
        0.15228530764579773,
        -1.143263816833496,
        0.2841137945652008,
        -0.023194676265120506,
        -0.2016824334859848,
        -0.19545835256576538,
        0.3183998465538025,
        -0.26757654547691345,
        -0.14538051187992096,
        -0.01042003184556961,
        0.11807847768068314,
        0.18316955864429474,
        -0.27517932653427124,
        -0.7276141047477722,
        0.2227935492992401,
        0.5621469020843506,
        -0.7070713639259338,
        0.13889317214488983,
        0.20886677503585815,
        0.21011808514595032,
        0.21934938430786133,
        -0.052066899836063385
      ],
      [
        -0.032285865396261215,
        -0.22638115286827087,
        0.1490761637687683,
        0.32852524518966675,
        0.30280759930610657,
        0.014733563177287579,
        -0.24467046558856964,
        -0.22741343080997467,
        -0.07723251730203629,
        0.11923553049564362,
        -0.15567053854465485,
        -0.20708371698856354,
        -0.3441965579986572,
        0.22723282873630524,
        0.005978063680231571,
        0.04113345220685005,
        -0.2880403697490692,
        -0.037971336394548416,
        0.38403263688087463,
        0.04213336482644081,
        1.2274589538574219,
        0.23291777074337006,
        0.023334501311182976,
        0.13678309321403503,
        -0.07630611211061478,
        0.3679734766483307,
        -0.2106146514415741,
        0.18792296946048737,
        -0.06096072122454643,
        -0.49232217669487,
        0.22536316514015198,
        -0.12739033997058868,
        0.010783908888697624,
        0.2005428671836853,
        0.18705429136753082,
        0.4417452812194824,
        -0.2577163279056549,
        -0.3027380704879761,
        0.3553904592990875,
        0.0691317543387413,
        0.053589221090078354,
        -0.2903529405593872,
        -0.2252054661512375,
        0.14483186602592468,
        0.07021519541740417,
        -0.30774828791618347,
        -0.04413982480764389,
        -0.06958776712417603,
        0.2657572627067566,
        -0.21069224178791046,
        0.5517338514328003,
        -0.3409476578235626,
        -0.05473010614514351,
        0.42532551288604736,
        0.30394646525382996,
        0.051701512187719345,
        -0.06149987131357193,
        -0.5371947884559631,
        0.19408302009105682,
        -0.09638652950525284,
        0.05856284499168396,
        -0.39173033833503723,
        -0.04717973247170448,
        -0.0727916732430458,
        -0.2428327202796936,
        -0.003455823753029108,
        -0.18897908926010132,
        -0.042223889380693436,
        0.05741722136735916,
        -0.3942726254463196,
        -0.34919920563697815,
        -0.5121307373046875,
        -0.09182102233171463,
        -0.334397554397583,
        0.3509995937347412,
        0.30472129583358765,
        0.16053500771522522,
        0.005611679516732693,
        0.26812708377838135,
        -0.013937028124928474
      ]
    ],
    "net.2.bias": [
      -0.08320939540863037,
      0.005011182744055986,
      0.10853135585784912,
      -0.13645918667316437
    ]
  },
  "F2": {
    "n_in": 4,
    "n_hid": 60,
    "n_out": 4,
    "activation": "tanh",
    "net.0.weight": [
      [
        0.49604055285453796,
        0.28616735339164734,
        0.851431131362915,
        0.23117856681346893
      ],
      [
        -0.6469423174858093,
        0.47269779443740845,
        -0.11907152086496353,
        -0.13808153569698334
      ],
      [
        0.10753033310174942,
        0.3172169327735901,
        -0.8575454354286194,
        0.07545866072177887
      ],
      [
        0.495206356048584,
        -0.0018305775010958314,
        0.46638724207878113,
        -0.4276904761791229
      ],
      [
        -0.3189537823200226,
        0.6702569723129272,
        0.095804363489151,
        1.021153211593628
      ],
      [
        0.024686936289072037,
        -0.6908830404281616,
        0.32712671160697937,
        -0.6251945495605469
      ],
      [
        -0.03535658121109009,
        0.19176189601421356,
        0.0407528392970562,
        -0.1101250946521759
      ],
      [
        0.5568098425865173,
        -0.11226431280374527,
        0.6461820006370544,
        -0.8429429531097412
      ],
      [
        -0.34933435916900635,
        0.05396442860364914,
        0.1307568997144699,
        0.03295919671654701
      ],
      [
        0.48533621430397034,
        -0.22920192778110504,
        0.09607479721307755,
        -0.1884821355342865
      ],
      [
        0.0081354770809412,
        0.08392421901226044,
        0.17407886683940887,
        -0.044523224234580994
      ],
      [
        0.1673559695482254,
        -0.421025812625885,
        0.25641319155693054,
        0.17031435668468475
      ],
      [
        -0.28450194001197815,
        0.36573436856269836,
        -0.26727190613746643,
        -0.11051624268293381
      ],
      [
        0.18586285412311554,
        -0.5020231008529663,
        0.1259421706199646,
        -0.26308783888816833
      ],
      [
        0.10429556667804718,
        -0.3077843189239502,
        0.40350842475891113,
        0.28442370891571045
      ],
      [
        -0.8435015678405762,
        -0.4174751043319702,
        -3.009756088256836,
        -0.43110939860343933
      ],
      [
        -0.005356551147997379,
        -0.17714063823223114,
        -0.5184923410415649,
        -0.44299206137657166
      ],
      [
        -0.47512274980545044,
        -0.039852604269981384,
        -0.895418107509613,
        -0.36328834295272827
      ],
      [
        0.025756187736988068,
        -0.2156953513622284,
        -0.6713194251060486,
        0.018328076228499413
      ],
      [
        0.29002845287323,
        -0.18146772682666779,
        -0.17148801684379578,
        -0.12864531576633453
      ],
      [
        -0.5452237725257874,
        -0.00028769247001037,
        -0.37510550022125244,
        0.05185126140713692
      ],
      [
        0.12645433843135834,
        -0.3905393183231354,
        -0.7354674935340881,
        0.5796555280685425
      ],
      [
        -0.1964457482099533,
        0.4905163049697876,
        -0.5612214207649231,
        -0.15283486247062683
      ],
      [
        -0.33586838841438293,
        -0.3264633119106293,
        0.22309225797653198,
        -0.7567272186279297
      ],
      [
        -0.00010944554378511384,
        0.42667490243911743,
        -0.4010196328163147,
        -0.3156049847602844
      ],
      [
        0.43836551904678345,
        -0.7485018968582153,
        0.42657047510147095,
        -0.916354238986969
      ],
      [
        0.9977462887763977,
        -0.055020805448293686,
        1.051355004310608,
        -0.874457597732544
      ],
      [
        -0.18352064490318298,
        -0.02559089846909046,
        0.7595809698104858,
        -0.43630409240722656
      ],
      [
        -0.39035269618034363,
        0.6426496505737305,
        -0.3077071011066437,
        0.39684247970581055
      ],
      [
        -0.4118596911430359,
        -0.27436363697052,
        -0.012037483043968678,
        0.30481427907943726
      ],
      [
        0.4702105224132538,
        -0.3923749625682831,
        0.6565681099891663,
        -0.11152752488851547
      ],
      [
        -0.26817163825035095,
        -0.4014035165309906,
        -0.6002002954483032,
        0.5932965278625488
      ],
      [
        0.06807739287614822,
        -0.5673868656158447,
        -0.9905305504798889,
        -0.4744502305984497
      ],
      [
        0.32387208938598633,
        0.08952560275793076,
        0.25250548124313354,
        -0.2227586805820465
      ],
      [
        0.4536821246147156,
        -0.08862990885972977,
        0.729199230670929,
        -0.44450223445892334
      ],
      [
        -0.23645702004432678,
        -0.41232913732528687,
        -0.3042352795600891,
        0.5112138986587524
      ],
      [
        0.531790018081665,
        -0.5472977757453918,
        0.06494270265102386,
        0.4439775049686432
      ],
      [
        0.27314600348472595,
        0.35032209753990173,
        0.33006012439727783,
        -0.4830363988876343
      ],
      [
        0.5865079164505005,
        -0.16576069593429565,
        0.7241433262825012,
        -0.2364077866077423
      ],
      [
        0.6208788156509399,
        0.5974308848381042,
        0.5647608637809753,
        -0.45999041199684143
      ],
      [
        -0.16926884651184082,
        -0.26981109380722046,
        -0.11900210380554199,
        0.29798486828804016
      ],
      [
        0.019671395421028137,
        -0.1798185408115387,
        -0.010378650389611721,
        -0.1009705513715744
      ],
      [
        0.25577297806739807,
        -0.2983483672142029,
        -0.9013456702232361,
        -0.35955724120140076
      ],
      [
        -0.024797508493065834,
        0.18333272635936737,
        -0.7755810618400574,
        0.25630930066108704
      ],
      [
        0.35890451073646545,
        -0.03580981865525246,
        0.05083492398262024,
        -0.1618374139070511
      ],
      [
        -0.046621173620224,
        0.40889155864715576,
        -0.6051163077354431,
        0.06760377436876297
      ],
      [
        0.11818674206733704,
        -0.5173404216766357,
        0.15814252197742462,
        0.713513195514679
      ],
      [
        -0.2684946060180664,
        -0.04755917936563492,
        -0.014497476629912853,
        -0.16047430038452148
      ],
      [
        0.3918277621269226,
        -0.04619477689266205,
        0.7140317559242249,
        -0.22987763583660126
      ],
      [
        -0.2405865341424942,
        0.15882983803749084,
        0.5781681537628174,
        -0.48715153336524963
      ],
      [
        -0.5382658839225769,
        -0.3734376132488251,
        -0.8047603368759155,
        -0.2697604298591614
      ],
      [
        0.7121038436889648,
        0.08183147013187408,
        0.5404478311538696,
        0.3497518301010132
      ],
      [
        0.3592180907726288,
        -0.5838094353675842,
        0.611121654510498,
        0.23610404133796692
      ],
      [
        0.4637920558452606,
        -0.720852255821228,
        0.5860322713851929,
        0.3453435003757477
      ],
      [
        -0.3204224109649658,
        -0.05480281636118889,
        0.8419780731201172,
        -0.34519216418266296
      ],
      [
        0.45905378460884094,
        0.3257448971271515,
        0.3762359023094177,
        0.4915618896484375
      ],
      [
        0.31768858432769775,
        0.2832019627094269,
        -0.6806614398956299,
        0.2904920279979706
      ],
      [
        -2.103889226913452,
        -0.4661691188812256,
        -0.045432593673467636,
        -0.3176945149898529
      ],
      [
        0.9208653569221497,
        0.3089219033718109,
        0.5485339164733887,
        0.33172357082366943
      ],
      [
        -0.2210150957107544,
        -0.03963350132107735,
        0.2902643382549286,
        0.23400741815567017
      ]
    ],
    "net.0.bias": [
      0.3158586919307709,
      -0.5266897678375244,
      -0.039849065244197845,
      0.5021985769271851,
      -0.08644650131464005,
      -0.19462788105010986,
      0.39378318190574646,
      0.35539352893829346,
      -0.05411582812666893,
      -0.045043520629405975,
      -0.4051739275455475,
      -0.4658742845058441,
      0.3673156797885895,
      -0.24180495738983154,
      0.6909977793693542,
      -0.7166326642036438,
      -0.07326959818601608,
      0.008910288102924824,
      0.3023429811000824,
      0.4482942223548889,
      0.3949662744998932,
      0.2710030972957611,
      -0.2385426163673401,
      -0.3917441964149475,
      -0.44119569659233093,
      -0.03298119828104973,
      0.4361262917518616,
      -0.10384915769100189,
      -0.046889085322618484,
      -0.5216596722602844,
      0.007716185878962278,
      0.521944522857666,
      -0.29079464077949524,
      -0.39640772342681885,
      0.5398390889167786,
      0.3035425841808319,
      -0.009152737446129322,
      0.041536152362823486,
      -0.1300804615020752,
      -0.03645776957273483,
      -0.5960615873336792,
      0.28624996542930603,
      -0.060720086097717285,
      -0.025741789489984512,
      -0.23011429607868195,
      -0.4312853217124939,
      -0.19871379435062408,
      -0.5629296898841858,
      0.3435770869255066,
      0.3124912679195404,
      -0.3388596773147583,
      -0.145112544298172,
      0.1667708307504654,
      -0.11511911451816559,
      0.08997740596532822,
      0.19117029011249542,
      -0.37298524379730225,
      0.34194058179855347,
      0.1377183496952057,
      0.4836929142475128
    ],
    "net.2.weight": [
      [
        0.02825945056974888,
        -0.13521024584770203,
        -0.114397332072258,
        -0.158670574426651,
        -0.022871950641274452,
        0.04858135059475899,
        0.03150408715009689,
        -0.06163759157061577,
        0.008411613292992115,
        0.15237833559513092,
        -0.07735118269920349,
        0.06750154495239258,
        -0.037197813391685486,
        -0.06349923461675644,
        -0.10851380228996277,
        0.00676189037039876,
        0.12909945845603943,
        0.22891482710838318,
        -0.1276218593120575,
        0.2053310126066208,
        -0.030802058055996895,
        -0.029399199411273003,
        -0.0019164739642292261,
        -0.0748046487569809,
        0.18189352750778198,
        0.021938689053058624,
        -0.025257481262087822,
        -0.02870510332286358,
        -0.08580233156681061,
        -0.15173843502998352,
        0.09344672411680222,
        -0.025884311646223068,
        -0.08767450600862503,
        -0.027852749451994896,
        -0.01578405313193798,
        -0.08272886276245117,
        0.11524467915296555,
        0.01410650834441185,
        -0.197784885764122,
        0.01482770498842001,
        -0.05537114292383194,
        0.01562700793147087,
        -0.1388626992702484,
        -0.01748746633529663,
        -0.24447691440582275,
        0.0030166630167514086,
        0.007905516773462296,
        0.1423995941877365,
        0.1958089917898178,
        0.006899189203977585,
        -0.020511087030172348,
        -0.039199329912662506,
        0.03964034095406532,
        -0.03131195902824402,
        -0.14518941938877106,
        0.05285320430994034,
        0.02072061039507389,
        -0.02828725427389145,
        0.010251838713884354,
        0.08981465548276901
      ],
      [
        -0.06488298624753952,
        -0.054691627621650696,
        0.15616945922374725,
        -0.26654723286628723,
        0.2355663925409317,
        -0.09793183207511902,
        0.07724688202142715,
        -0.08315647393465042,
        -0.024932656437158585,
        0.09903806447982788,
        0.04174972325563431,
        -0.13304704427719116,
        0.3237917423248291,
        -0.13761138916015625,
        -0.11941780149936676,
        0.15288293361663818,
        -0.017614087089896202,
        0.11225771903991699,
        -0.07865380495786667,
        0.03210223466157913,
        -0.14406804740428925,
        0.19004452228546143,
        0.10015697777271271,
        -0.04802606254816055,
        0.07313435524702072,
        -0.4423137605190277,
        -0.14911511540412903,
        -0.06477081775665283,
        0.1621168851852417,
        -0.162626713514328,
        -0.11008405685424805,
        0.07371624559164047,
        0.029930125921964645,
        -0.21295760571956635,
        -0.38246357440948486,
        0.30388084053993225,
        -0.36408719420433044,
        -0.12410474568605423,
        -0.2368445247411728,
        -0.09379399567842484,
        -0.11569518595933914,
        0.08109433203935623,
        0.001175602781586349,
        0.02847837284207344,
        -0.06638841331005096,
        -0.12016484141349792,
        0.12832455337047577,
        0.11995629221200943,
        0.036574240773916245,
        -0.13836614787578583,
        0.1438770294189453,
        -0.20949721336364746,
        -0.18300224840641022,
        -0.46251440048217773,
        -0.24117915332317352,
        0.012928892858326435,
        -0.1794377863407135,
        0.2112310379743576,
        -0.1897522360086441,
        -0.07226573675870895
      ],
      [
        -0.064607635140419,
        -0.08188004046678543,
        0.09855997562408447,
        -0.21746662259101868,
        0.290935218334198,
        -0.030521025881171227,
        0.06599325686693192,
        -0.10125266760587692,
        0.031237725168466568,
        0.010783633217215538,
        -0.12209481745958328,
        -0.20260535180568695,
        0.14119283854961395,
        -0.06870058178901672,
        0.0694606825709343,
        0.15371757745742798,
        0.05997611582279205,
        0.19950319826602936,
        -0.017201177775859833,
        0.016046471893787384,
        0.12291724234819412,
        0.273531436920166,
        0.15885908901691437,
        -0.11632724106311798,
        0.16585920751094818,
        -0.32529348134994507,
        -0.21483638882637024,
        -0.046219442039728165,
        0.2596476376056671,
        -0.18214881420135498,
        -0.21760791540145874,
        0.24512425065040588,
        -0.005100929643958807,
        -0.13011936843395233,
        -0.13403896987438202,
        0.1514064073562622,
        -0.16846387088298798,
        -0.21510373055934906,
        -0.19560402631759644,
        -0.11490360647439957,
        -0.1021624282002449,
        0.004607653245329857,
        -0.046693187206983566,
        0.03859264776110649,
        -0.08439107239246368,
        0.15637987852096558,
        -0.004093983676284552,
        0.011752378195524216,
        -0.15159225463867188,
        -0.20067404210567474,
        0.04136199504137039,
        -0.1477019488811493,
        -0.23552191257476807,
        -0.5469899773597717,
        -0.17743843793869019,
        -0.06151089444756508,
        0.01603826880455017,
        0.22722071409225464,
        -0.1486818790435791,
        -0.05254347622394562
      ],
      [
        0.03156161308288574,
        0.4602929651737213,
        -0.024837998673319817,
        0.06825828552246094,
        0.026933301240205765,
        -0.07036297023296356,
        0.06904198974370956,
        -0.006663176696747541,
        0.017534838989377022,
        0.03867240995168686,
        0.04823263734579086,
        0.005552058573812246,
        -0.12251413613557816,
        0.0968402549624443,
        0.31199902296066284,
        0.016390914097428322,
        0.16587768495082855,
        -0.13666073977947235,
        0.00956166535615921,
        0.021365810185670853,
        -0.09574181586503983,
        0.08063989132642746,
        0.21919482946395874,
        -0.0403117798268795,
        -0.2204521894454956,
        0.06284510344266891,
        0.21733920276165009,
        0.20207582414150238,
        0.08246257901191711,
        0.11394132673740387,
        -0.008012636564671993,
        0.07179252803325653,
        -0.022675758227705956,
        -0.1342753916978836,
        -0.036665622144937515,
        -0.12076466530561447,
        0.1928417682647705,
        -0.05121483653783798,
        -0.31101372838020325,
        -0.017495742067694664,
        0.14471662044525146,
        -0.09242942929267883,
        0.044739123433828354,
        -0.03991112858057022,
        0.046710528433322906,
        0.19709964096546173,
        -0.15691548585891724,
        -0.1044619157910347,
        0.16857556998729706,
        -0.008699493482708931,
        -0.021870072931051254,
        -0.011696107685565948,
        0.11170433461666107,
        0.11213759332895279,
        0.041716624051332474,
        -0.0045581720769405365,
        0.05088498443365097,
        -0.013730309903621674,
        -0.06114163249731064,
        0.10439063608646393
      ]
    ],
    "net.2.bias": [
      0.09362180531024933,
      0.10211512446403503,
      -0.04893968999385834,
      -0.10893722623586655
    ]
  }
}