{
  "name": "PV3",
  "type": "F1+H1+F2",
  "t_step": 0.01,
  "normfacs": {
    "G": {
      "scale": 1000.0,
      "offset": 809.2813110351562
    },
    "Ud": {
      "scale": 0.40000003576278687,
      "offset": 0.9999997615814209
    },
    "Uq": {
      "scale": 1.0,
      "offset": -3.3840739238621964e-11
    },
    "Vd": {
      "scale": 342.86944580078125,
      "offset": 230.29591369628906
    },
    "Vq": {
      "scale": 296.395751953125,
      "offset": -5.334640026092529
    },
    "GVrms": {
      "scale": 422296.6875,
      "offset": 262281.46875
    },
    "Ctrl": {
      "scale": 1.0,
      "offset": 0.8992015719413757
    },
    "Vdc": {
      "scale": 635.2540283203125,
      "offset": 495.7726135253906
    },
    "Idc": {
      "scale": 4.1067023277282715,
      "offset": 1.8830465078353882
    },
    "Id": {
      "scale": 4.686577320098877,
      "offset": 2.4104905128479004
    },
    "Iq": {
      "scale": 4.055089473724365,
      "offset": -0.05657494440674782
    }
  },
  "model_folder": "./ucfB_n_2nd_Ctrl/",
  "model_root": "ucfB_n_2nd_Ctrl",
  "data_path": "d:/data/ucf3/ucf4.hdf5",
  "lr": 0.001,
  "eps": 1e-08,
  "h5grp_prefix": "ucf",
  "num_iter": 200,
  "continue_iterations": false,
  "print_freq": 1,
  "batch_size": 405,
  "n_validation_pct": 15,
  "n_validation_seed": 99,
  "n_skip": 0,
  "n_trunc": 0,
  "n_dec": 1,
  "n_loss_skip": 50,
  "n_pad": 100,
  "gtype": "stable2ndx",
  "na": 2,
  "nb": 3,
  "nk": 0,
  "activation": "tanh",
  "nh1": 80,
  "nh2": 60,
  "COL_T": [
    "t"
  ],
  "COL_Y": [
    "Vdc",
    "Idc",
    "Id",
    "Iq"
  ],
  "COL_U": [
    "G",
    "Ud",
    "Uq",
    "Vd",
    "Vq",
    "GVrms",
    "Ctrl"
  ],
  "clamps": null,
  "sensitivity": {
    "limit": 0.01,
    "weight": 0.001,
    "delta": 0.01,
    "inputs": [
      "Vd",
      "Vq"
    ],
    "outputs": [
      "Id",
      "Iq"
    ],
    "GVrms": {
      "G": "G",
      "Vd": "Vd",
      "Vq": "Vq",
      "k": 1.2247449
    },
    "sets": {
      "G": [
        300.0,
        800.0
      ],
      "Ud": [
        0.9,
        1.1
      ],
      "Uq": [
        -0.4,
        0.4
      ],
      "Vd": [
        170.0,
        340.0
      ],
      "Vq": [
        -135.0,
        135.0
      ],
      "Ctrl": [
        0.0,
        1.0
      ]
    }
  },
  "H1": {
    "n_in": 4,
    "n_out": 4,
    "n_b": 3,
    "n_a": 2,
    "n_k": 0,
    "b_0_0": [
      -0.09606657922267914,
      -0.03807041421532631,
      -0.03366294503211975
    ],
    "a_0_0": [
      -0.00497154938057065,
      -0.042391180992126465
    ],
    "alpha1_0_0": -0.0024857798125594854,
    "alpha2_0_0": -0.09003835916519165,
    "b_0_1": [
      0.10816863179206848,
      -0.03428276628255844,
      -0.036108240485191345
    ],
    "a_0_1": [
      0.14667735993862152,
      0.07834172248840332
    ],
    "alpha1_0_1": 0.0734705924987793,
    "alpha2_0_1": 0.010798106901347637,
    "b_0_2": [
      -0.091520756483078,
      0.07236038148403168,
      0.07186495512723923
    ],
    "a_0_2": [
      0.051291946321725845,
      -0.056060194969177246
    ],
    "alpha1_0_2": 0.0256515983492136,
    "alpha2_0_2": -0.168108269572258,
    "b_0_3": [
      -0.1478910744190216,
      -0.01361225638538599,
      -0.003128908108919859
    ],
    "a_0_3": [
      -0.11608874052762985,
      0.09389722347259521
    ],
    "alpha1_0_3": -0.05810968950390816,
    "alpha2_0_3": 0.07616101950407028,
    "b_1_0": [
      -0.026715178042650223,
      0.03590396046638489,
      0.05579395592212677
    ],
    "a_1_0": [
      -0.09621487557888031,
      -0.03597050905227661
    ],
    "alpha1_1_0": -0.04814460128545761,
    "alpha2_1_0": -0.17711575329303741,
    "b_1_1": [
      0.1528092324733734,
      -0.012232203036546707,
      -0.034681107848882675
    ],
    "a_1_1": [
      0.2702000141143799,
      0.07329452037811279
    ],
    "alpha1_1_1": 0.1359310746192932,
    "alpha2_1_1": -0.14316323399543762,
    "b_1_2": [
      -0.239644855260849,
      -0.16206517815589905,
      -0.1409054398536682
    ],
    "a_1_2": [
      -0.12332159280776978,
      -0.0193178653717041
    ],
    "alpha1_1_2": -0.06173912063241005,
    "alpha2_1_2": -0.1730305552482605,
    "b_1_3": [
      -0.14361362159252167,
      -0.028488777577877045,
      0.0007043580408208072
    ],
    "a_1_3": [
      0.11023913323879242,
      0.017102360725402832
    ],
    "alpha1_1_3": 0.05517548695206642,
    "alpha2_1_3": -0.08051321655511856,
    "b_2_0": [
      -0.11501023173332214,
      -0.05412646383047104,
      -0.0667024627327919
    ],
    "a_2_0": [
      -0.07761556655168533,
      0.028188228607177734
    ],
    "alpha1_2_0": -0.038827285170555115,
    "alpha2_2_0": -0.022097483277320862,
    "b_2_1": [
      0.10751783102750778,
      0.026236027479171753,
      0.018278710544109344
    ],
    "a_2_1": [
      -0.21999606490135193,
      0.10107707977294922
    ],
    "alpha1_2_1": -0.11044492572546005,
    "alpha2_2_1": -0.020047826692461967,
    "b_2_2": [
      -0.1347656399011612,
      0.0600738599896431,
      0.05455974489450455
    ],
    "a_2_2": [
      0.24193905293941498,
      0.01745474338531494
    ],
    "alpha1_2_2": 0.1215648353099823,
    "alpha2_2_2": -0.2366182804107666,
    "b_2_3": [
      -0.22441133856773376,
      -0.08064299821853638,
      -0.08299694210290909
    ],
    "a_2_3": [
      -0.17613014578819275,
      0.018585562705993652
    ],
    "alpha1_2_3": -0.08829379826784134,
    "alpha2_2_3": -0.15267419815063477,
    "b_3_0": [
      0.20265334844589233,
      0.11976239830255508,
      0.039829690009355545
    ],
    "a_3_0": [
      -0.49825987219810486,
      0.2141258716583252
    ],
    "alpha1_3_0": -0.25448495149612427,
    "alpha2_3_0": -0.09330349415540695,
    "b_3_1": [
      -0.12170432507991791,
      -0.003278331598266959,
      0.01644563116133213
    ],
    "a_3_1": [
      -0.13970941305160522,
      0.10561740398406982
    ],
    "alpha1_3_1": -0.06996866315603256,
    "alpha2_3_1": 0.07693502306938171,
    "b_3_2": [
      0.15203581750392914,
      0.051260240375995636,
      0.12054324150085449
    ],
    "a_3_2": [
      -0.0032770009711384773,
      -0.13800394535064697
    ],
    "alpha1_3_2": -0.0016385019989684224,
    "alpha2_3_2": -0.2815893292427063,
    "b_3_3": [
      -0.10672196745872498,
      -0.10562767833471298,
      -0.04947894439101219
    ],
    "a_3_3": [
      -0.42478975653648376,
      0.17528271675109863
    ],
    "alpha1_3_3": -0.21567803621292114,
    "alpha2_3_3": -0.09431052953004837
  },
  "H1s": {
    "n_in": 4,
    "n_out": 4,
    "n_a": 3,
    "n_b": 3,
    "b_0_0": [
      -0.09606657922267914,
      -23.02035726606846,
      -1677.999384701252
    ],
    "a_0_0": [
      1.0,
      199.50284506194293,
      9526.372696273029
    ],
    "b_0_1": [
      0.10816863179206848,
      18.205449730157856,
      377.7762502431867
    ],
    "a_0_1": [
      1.0,
      214.66773599386215,
      12250.190824270248
    ],
    "b_0_2": [
      -0.091520756483078,
      -11.068113148212433,
      527.0458012819286
    ],
    "a_0_2": [
      1.0,
      205.12919463217258,
      9952.317513525488
    ],
    "b_0_3": [
      -0.1478910744190216,
      -30.93944052234292,
      -1646.3223891332746
    ],
    "a_0_3": [
      1.0,
      188.39112594723701,
      9778.084829449654
    ],
    "b_1_0": [
      -0.026715178042650223,
      -1.752639561891554,
      649.827383458613
    ],
    "a_1_0": [
      1.0,
      190.37851244211197,
      8678.14615368843
    ],
    "b_1_1": [
      0.1528092324733734,
      29.338626191020012,
      1058.9592158794403
    ],
    "a_1_1": [
      1.0,
      227.020001411438,
      13434.945344924927
    ],
    "b_1_2": [
      -0.239644855260849,
      -64.1354888677597,
      -5426.154732704162
    ],
    "a_1_2": [
      1.0,
      187.66784071922302,
      8573.605418205261
    ],
    "b_1_3": [
      -0.14361362159252167,
      -31.571602076292038,
      -1713.980411295779
    ],
    "a_1_3": [
      1.0,
      211.02391332387924,
      11273.414939641953
    ],
    "b_2_0": [
      -0.11501023173332214,
      -28.414692729711533,
      -2358.3915829658513
    ],
    "a_2_0": [
      1.0,
      192.23844334483147,
      9505.726620554924
    ],
    "b_2_1": [
      0.10751783102750778,
      24.12716895341874,
      1520.3256905078892
    ],
    "a_2_1": [
      1.0,
      178.00039350986484,
      8810.810148715977
    ],
    "b_2_2": [
      -0.1347656399011612,
      -20.945741981267926,
      -201.32035017013482
    ],
    "a_2_2": [
      1.0,
      224.1939052939415,
      12593.9379632473
    ],
    "b_2_3": [
      -0.22441133856773376,
      -52.9465675354004,
      -3880.512788891793
    ],
    "a_2_3": [
      1.0,
      182.38698542118073,
      8424.554169178009
    ],
    "b_3_0": [
      0.20265334844589233,
      52.506909519433975,
      3622.4543675780296
    ],
    "a_3_0": [
      1.0,
      150.1740127801895,
      7158.659994602203
    ],
    "b_3_1": [
      -0.12170432507991791,
      -24.66869817581027,
      -1085.3702551685267
    ],
    "a_3_1": [
      1.0,
      186.02905869483942,
      9659.07990932464
    ],
    "b_3_2": [
      0.15203581750392914,
      35.533187538385384,
      3238.3929938077963
    ],
    "a_3_2": [
      1.0,
      199.67229990288615,
      8587.190536782147
    ],
    "b_3_3": [
      -0.10672196745872498,
      -31.907161325216297,
      -2618.2859018445015
    ],
    "a_3_3": [
      1.0,
      157.52102434635162,
      7504.929602146148
    ]
  },
  "Q1s": {
    "n_in": 4,
    "n_out": 4,
    "n_a": 2,
    "n_b": 3,
    "A_0_0": [
      [
        -199.50284506194293,
        -9526.372696273029
      ],
      [
        1.0,
        0.0
      ]
    ],
    "B_0_0": [
      1.0,
      0.0
    ],
    "C_0_0": [
      -3.8548013957754357,
      -762.8333473699715
    ],
    "D_0_0": -0.09606657922267914,
    "A_0_1": [
      [
        -214.66773599386215,
        -12250.190824270248
      ],
      [
        1.0,
        0.0
      ]
    ],
    "B_0_1": [
      1.0,
      0.0
    ],
    "C_0_1": [
      -5.014865562199187,
      -947.3101304098777
    ],
    "D_0_1": 0.10816863179206848,
    "A_0_2": [
      [
        -205.12919463217258,
        -9952.317513525488
      ],
      [
        1.0,
        0.0
      ]
    ],
    "B_0_2": [
      1.0,
      0.0
    ],
    "C_0_2": [
      7.705465921288546,
      1437.889428879567
    ],
    "D_0_2": -0.091520756483078,
    "A_0_3": [
      [
        -188.39112594723701,
        -9778.084829449654
      ],
      [
        1.0,
        0.0
      ]
    ],
    "B_0_3": [
      1.0,
      0.0
    ],
    "C_0_3": [
      -3.0780744949968195,
      -200.2309179456297
    ],
    "D_0_3": -0.1478910744190216,
    "A_1_0": [
      [
        -190.37851244211197,
        -8678.14615368843
      ],
      [
        1.0,
        0.0
      ]
    ],
    "B_1_0": [
      1.0,
      0.0
    ],
    "C_1_0": [
      3.3333562934943677,
      881.6656030345396
    ],
    "D_1_0": -0.026715178042650223,
    "A_1_1": [
      [
        -227.020001411438,
        -13434.945344924927
      ],
      [
        1.0,
        0.0
      ]
    ],
    "B_1_1": [
      1.0,
      0.0
    ],
    "C_1_1": [
      -5.352125980765976,
      -994.0244706002586
    ],
    "D_1_1": 0.1528092324733734,
    "A_1_2": [
      [
        -187.66784071922302,
        -8573.605418205261
      ],
      [
        1.0,
        0.0
      ]
    ],
    "B_1_2": [
      1.0,
      0.0
    ],
    "C_1_2": [
      -19.16185634148544,
      -3371.534303194731
    ],
    "D_1_2": -0.239644855260849,
    "A_1_3": [
      [
        -211.02391332387924,
        -11273.414939641953
      ],
      [
        1.0,
        0.0
      ]
    ],
    "B_1_3": [
      1.0,
      0.0
    ],
    "C_1_3": [
      -1.2656936412233541,
      -94.96446409855912
    ],
    "D_1_3": -0.14361362159252167,
    "A_2_0": [
      [
        -192.23844334483147,
        -9505.726620554924
      ],
      [
        1.0,
        0.0
      ]
    ],
    "B_2_0": [
      1.0,
      0.0
    ],
    "C_2_0": [
      -6.3053048125693465,
      -1265.1357615422203
    ],
    "D_2_0": -0.11501023173332214,
    "A_2_1": [
      [
        -178.00039350986484,
        -8810.810148715977
      ],
      [
        1.0,
        0.0
      ]
    ],
    "B_2_1": [
      1.0,
      0.0
    ],
    "C_2_1": [
      4.988952721195197,
      573.0064937227942
    ],
    "D_2_1": 0.10751783102750778,
    "A_2_2": [
      [
        -224.1939052939415,
        -12593.9379632473
      ],
      [
        1.0,
        0.0
      ]
    ],
    "B_2_2": [
      1.0,
      0.0
    ],
    "C_2_2": [
      9.267893127610431,
      1495.909758322414
    ],
    "D_2_2": -0.1347656399011612,
    "A_2_3": [
      [
        -182.38698542118073,
        -8424.554169178009
      ],
      [
        1.0,
        0.0
      ]
    ],
    "B_2_3": [
      1.0,
      0.0
    ],
    "C_2_3": [
      -12.016859999699484,
      -1989.947310950174
    ],
    "D_2_3": -0.22441133856773376,
    "A_3_0": [
      [
        -150.1740127801895,
        -7158.659994602203
      ],
      [
        1.0,
        0.0
      ]
    ],
    "B_3_0": [
      1.0,
      0.0
    ],
    "C_3_0": [
      22.07364297997234,
      2171.72794928624
    ],
    "D_3_0": 0.20265334844589233,
    "A_3_1": [
      [
        -186.02905869483942,
        -9659.07990932464
      ],
      [
        1.0,
        0.0
      ]
    ],
    "B_3_1": [
      1.0,
      0.0
    ],
    "C_3_1": [
      -2.0281571421024047,
      90.18154608882332
    ],
    "D_3_1": -0.12170432507991791,
    "A_3_2": [
      [
        -199.67229990288615,
        -8587.190536782147
      ],
      [
        1.0,
        0.0
      ]
    ],
    "B_3_2": [
      1.0,
      0.0
    ],
    "C_3_2": [
      5.175846189760378,
      1932.8324604861184
    ],
    "D_3_2": 0.15203581750392914,
    "A_3_3": [
      [
        -157.52102434635162,
        -7504.929602146148
      ],
      [
        1.0,
        0.0
      ]
    ],
    "B_3_3": [
      1.0,
      0.0
    ],
    "C_3_3": [
      -15.096207690859934,
      -1817.3450490642385
    ],
    "D_3_3": -0.10672196745872498
  },
  "F1": {
    "n_in": 7,
    "n_hid": 80,
    "n_out": 4,
    "activation": "tanh",
    "net.0.weight": [
      [
        -0.08829200267791748,
        0.23164862394332886,
        -0.15062712132930756,
        -0.41506755352020264,
        -0.03342529013752937,
        -0.0031314759980887175,
        -0.06008355692028999
      ],
      [
        0.23247569799423218,
        0.07365013659000397,
        0.09263501316308975,
        -0.3403736650943756,
        0.1165609359741211,
        -0.5445179343223572,
        -0.23041945695877075
      ],
      [
        -0.12593282759189606,
        0.26172640919685364,
        0.21365304291248322,
        0.3075532019138336,
        -0.19328783452510834,
        -0.12640562653541565,
        0.12208426743745804
      ],
      [
        0.3751317262649536,
        -0.20404572784900665,
        0.25429782271385193,
        0.09592202305793762,
        -0.0822310596704483,
        0.46494677662849426,
        -0.31015685200691223
      ],
      [
        -0.08837255835533142,
        -0.2241707146167755,
        -0.1611863374710083,
        0.3246026933193207,
        -0.5765334963798523,
        -0.07735596597194672,
        -0.23918971419334412
      ],
      [
        -0.44305622577667236,
        -0.06801823526620865,
        0.2721126973628998,
        0.16068020462989807,
        0.1587691307067871,
        -0.004147966857999563,
        -0.3733663260936737
      ],
      [
        -0.06743557751178741,
        -0.3470717966556549,
        -0.3342587649822235,
        -0.35668909549713135,
        0.045658111572265625,
        0.058727193623781204,
        -0.3508777618408203
      ],
      [
        0.11057855933904648,
        0.2781151831150055,
        0.5144162774085999,
        0.3794652223587036,
        0.24399258196353912,
        0.4334486424922943,
        -0.05228065326809883
      ],
      [
        0.06333664804697037,
        -0.34018152952194214,
        -0.38945499062538147,
        -0.3117932677268982,
        0.08031325042247772,
        0.07022277265787125,
        -0.27800729870796204
      ],
      [
        0.16097015142440796,
        0.11808182299137115,
        -0.02765129879117012,
        0.13655368983745575,
        0.01469142735004425,
        0.33320724964141846,
        0.37546926736831665
      ],
      [
        -0.181954026222229,
        -0.04749367758631706,
        -0.0004465478996280581,
        0.5804213881492615,
        0.49915167689323425,
        0.5344240069389343,
        0.13436704874038696
      ],
      [
        -0.3448266386985779,
        0.11359712481498718,
        -0.3055539131164551,
        -0.4747174084186554,
        0.1887386292219162,
        0.17438147962093353,
        -0.43718352913856506
      ],
      [
        0.12663251161575317,
        -0.19137658178806305,
        -0.10298742353916168,
        -0.11653061956167221,
        0.37453722953796387,
        -0.18696880340576172,
        0.2078501135110855
      ],
      [
        0.1544237583875656,
        -0.06525832414627075,
        0.2042851448059082,
        -0.5922483801841736,
        -0.5456807017326355,
        0.11410119384527206,
        0.13082611560821533
      ],
      [
        -0.2700114846229553,
        -0.16089457273483276,
        0.28061380982398987,
        0.20842309296131134,
        -0.2583011984825134,
        -0.13287721574306488,
        -0.3599945604801178
      ],
      [
        -0.1710774004459381,
        -0.2316000908613205,
        -0.5844468474388123,
        -0.24759313464164734,
        -0.21215859055519104,
        -0.3253476321697235,
        -0.010403684340417385
      ],
      [
        -0.24444763362407684,
        0.22910232841968536,
        0.27949100732803345,
        -0.4634226858615875,
        0.06850909441709518,
        -0.06980955600738525,
        0.08196752518415451
      ],
      [
        0.1451548933982849,
        0.22674137353897095,
        0.02993353269994259,
        -0.12248361855745316,
        0.3699500262737274,
        -0.29811710119247437,
        -0.152601420879364
      ],
      [
        -0.07038825005292892,
        -0.1770516037940979,
        -0.21804088354110718,
        -0.39190298318862915,
        -0.18595749139785767,
        0.034910667687654495,
        -0.24836678802967072
      ],
      [
        0.10457416623830795,
        0.17013967037200928,
        -0.0202612467110157,
        0.15220732986927032,
        -0.001081116613931954,
        0.1872280389070511,
        0.32100167870521545
      ],
      [
        0.3336201012134552,
        0.31280791759490967,
        0.35866862535476685,
        0.0014882201794534922,
        -0.4101897180080414,
        -0.15640194714069366,
        0.22613346576690674
      ],
      [
        0.05732050538063049,
        -0.643725574016571,
        -0.691137433052063,
        -0.673812747001648,
        -0.9089156985282898,
        -0.08171181380748749,
        -0.10349900275468826
      ],
      [
        0.3270595073699951,
        -1.5342698097229004,
        0.25326287746429443,
        -0.023923344910144806,
        0.01211005263030529,
        -0.05097869411110878,
        0.1264234334230423
      ],
      [
        -0.14341667294502258,
        -0.3453230559825897,
        -0.38426533341407776,
        -0.1853232979774475,
        -0.14629602432250977,
        -0.270252525806427,
        0.06546558439731598
      ],
      [
        -0.25607767701148987,
        -0.26695576310157776,
        0.3234008550643921,
        -0.19023752212524414,
        0.4517999291419983,
        0.14161714911460876,
        -0.3890082538127899
      ],
      [
        0.1382330060005188,
        0.15698868036270142,
        -0.09765444695949554,
        0.2724936008453369,
        -0.29341211915016174,
        -0.008927259594202042,
        -0.20701245963573456
      ],
      [
        0.2557353973388672,
        0.21353432536125183,
        0.17203237116336823,
        0.029722295701503754,
        -0.01695168949663639,
        -0.11647452414035797,
        -0.32594168186187744
      ],
      [
        0.127620130777359,
        0.7009466290473938,
        0.6225404739379883,
        -0.374948650598526,
        0.49490177631378174,
        -0.4011572003364563,
        -0.29705554246902466
      ],
      [
        -0.26131197810173035,
        0.21699799597263336,
        -0.30357447266578674,
        -0.11234518885612488,
        -0.0990605428814888,
        0.17816901206970215,
        -0.332978218793869
      ],
      [
        -0.2894999086856842,
        -0.1225680261850357,
        0.10825630277395248,
        -0.05667491629719734,
        0.5408635139465332,
        0.13912458717823029,
        0.10800269991159439
      ],
      [
        0.015342671424150467,
        -0.03655011206865311,
        -0.03587016090750694,
        -0.15490293502807617,
        -0.2955491542816162,
        0.029527710750699043,
        -0.31552064418792725
      ],
      [
        -0.08246272057294846,
        0.03911321982741356,
        0.00952515471726656,
        0.11400935053825378,
        0.6424574255943298,
        0.27357757091522217,
        0.18047618865966797
      ],
      [
        -0.44130340218544006,
        0.0506860576570034,
        -0.14622412621974945,
        -0.2766791880130768,
        -0.1110212504863739,
        -0.18882177770137787,
        -0.061513714492321014
      ],
      [
        0.22751303017139435,
        -0.014877292327582836,
        0.38202065229415894,
        0.2588662803173065,
        -0.4511444866657257,
        0.21190716326236725,
        -0.43550926446914673
      ],
      [
        -0.09724553674459457,
        -0.015153281390666962,
        0.14954693615436554,
        0.40896710753440857,
        -0.21003295481204987,
        0.11089811474084854,
        0.22463195025920868
      ],
      [
        -0.6467922329902649,
        0.5000373721122742,
        -0.00028237837250344455,
        -0.3846191465854645,
        0.06868036836385727,
        -0.5930273532867432,
        -0.163918599486351
      ],
      [
        0.34301140904426575,
        -0.0018897613044828176,
        -0.08763586729764938,
        -0.1088324710726738,
        -0.1855199784040451,
        0.20206347107887268,
        -0.12389223277568817
      ],
      [
        -0.3118688762187958,
        -0.21937094628810883,
        0.2958497405052185,
        0.13506373763084412,
        0.5122746229171753,
        0.04203321412205696,
        -0.10855476558208466
      ],
      [
        -0.4667816460132599,
        0.29003146290779114,
        0.49926236271858215,
        -0.27832403779029846,
        -0.14568836987018585,
        -0.6227004528045654,
        -0.6605714559555054
      ],
      [
        0.09570155292749405,
        0.04685838147997856,
        -0.29754969477653503,
        0.5982199907302856,
        -0.38860583305358887,
        0.09940702468156815,
        0.10969329625368118
      ],
      [
        -0.07348578423261642,
        -0.25504302978515625,
        -0.2592397630214691,
        0.26826146245002747,
        0.04002067446708679,
        0.24235276877880096,
        -0.16189248859882355
      ],
      [
        0.056994955986738205,
        -0.04220817610621452,
        -0.06702080368995667,
        -0.33000433444976807,
        0.19201618432998657,
        0.04076944291591644,
        -0.03672884404659271
      ],
      [
        -0.019621793180704117,
        -0.15748293697834015,
        0.14661350846290588,
        -0.37081682682037354,
        0.31378576159477234,
        -0.19605505466461182,
        -0.09465247392654419
      ],
      [
        -0.19234293699264526,
        -0.03890978544950485,
        0.08458001911640167,
        0.04462325945496559,
        -0.5904350280761719,
        -0.05850296840071678,
        -0.1652417927980423
      ],
      [
        0.15847277641296387,
        -0.007617953699082136,
        -0.3128083646297455,
        0.015551128424704075,
        0.1743411421775818,
        -0.059286586940288544,
        0.19101384282112122
      ],
      [
        0.2765974998474121,
        -0.20562785863876343,
        0.12542541325092316,
        0.2727787494659424,
        0.2359420657157898,
        0.10524385422468185,
        0.11349935829639435
      ],
      [
        -0.21149873733520508,
        0.0835048258304596,
        0.1603987067937851,
        0.47170379757881165,
        0.09417856484651566,
        0.1660703718662262,
        0.2105148434638977
      ],
      [
        -0.19828078150749207,
        -0.2098010927438736,
        -0.3901658356189728,
        0.3183744251728058,
        0.22938194870948792,
        -0.3162206709384918,
        0.09879780560731888
      ],
      [
        0.21606184542179108,
        0.398508757352829,
        0.4112350344657898,
        0.35973629355430603,
        -0.08459105342626572,
        -0.09218589216470718,
        0.2742551267147064
      ],
      [
        0.23845845460891724,
        -0.34040123224258423,
        0.43710246682167053,
        0.29491275548934937,
        0.30879998207092285,
        -0.1811690330505371,
        0.13747841119766235
      ],
      [
        -0.1253008097410202,
        0.41051214933395386,
        -0.017142361029982567,
        0.20337678492069244,
        0.037712760269641876,
        0.21145975589752197,
        -0.12061508744955063
      ],
      [
        0.17653653025627136,
        -0.23676438629627228,
        0.09494682401418686,
        -0.4184000790119171,
        -0.28330639004707336,
        -0.5175938010215759,
        0.3880822956562042
      ],
      [
        0.19504143297672272,
        0.7616927027702332,
        0.36514371633529663,
        -0.4033157527446747,
        -0.14441925287246704,
        -0.09750159829854965,
        -0.3369157314300537
      ],
      [
        0.16909021139144897,
        -0.3251062333583832,
        -0.129027858376503,
        -0.35470497608184814,
        -0.2551749348640442,
        0.2944263517856598,
        0.20183894038200378
      ],
      [
        0.292286217212677,
        0.22196510434150696,
        0.33873727917671204,
        -0.020681431517004967,
        0.10703886300325394,
        0.403789222240448,
        0.10154850780963898
      ],
      [
        0.31849536299705505,
        0.0403427816927433,
        0.08263512700796127,
        -0.2491355985403061,
        -0.07037783414125443,
        0.061400722712278366,
        -0.09259277582168579
      ],
      [
        -0.9229115843772888,
        -0.028525669127702713,
        0.006148988846689463,
        -0.16689902544021606,
        0.3105136454105377,
        -0.5710312724113464,
        -0.9150515794754028
      ],
      [
        0.27149689197540283,
        0.2127804458141327,
        -0.0043178219348192215,
        -0.3002326488494873,
        0.5246995687484741,
        0.08875412493944168,
        -0.2506060302257538
      ],
      [
        0.3524811565876007,
        0.19494107365608215,
        0.01439182460308075,
        0.3119286596775055,
        -0.2583714425563812,
        -0.02535187639296055,
        0.2520485520362854
      ],
      [
        -0.03920716419816017,
        -0.6089970469474792,
        -0.1683795154094696,
        0.0741797536611557,
        -0.002906420035287738,
        0.03527999669313431,
        0.38450920581817627
      ],
      [
        0.19850902259349823,
        -0.4870206117630005,
        -0.10717182606458664,
        0.36741903424263,
        0.20759907364845276,
        -0.23757314682006836,
        0.0900857076048851
      ],
      [
        -0.28542691469192505,
        -0.13660216331481934,
        0.24903656542301178,
        -0.32767829298973083,
        0.4441938102245331,
        0.21871021389961243,
        -0.009541647508740425
      ],
      [
        -0.10470353066921234,
        -0.17849309742450714,
        -0.06115778908133507,
        -0.3387582004070282,
        0.12253232300281525,
        -0.3539283275604248,
        -0.25783562660217285
      ],
      [
        0.015534305945038795,
        -0.8637823462486267,
        0.6032817959785461,
        -0.3958764374256134,
        0.8732903599739075,
        -0.0032179239206016064,
        0.14590725302696228
      ],
      [
        0.10027297586202621,
        -0.9808954000473022,
        0.6805800199508667,
        0.6332770586013794,
        0.7423912286758423,
        0.3641718924045563,
        0.09802982956171036
      ],
      [
        0.21441376209259033,
        0.0318872295320034,
        0.17823447287082672,
        -0.6562195420265198,
        -0.03176134452223778,
        -0.6610865592956543,
        -0.11386416852474213
      ],
      [
        0.11279118061065674,
        -0.4008162319660187,
        0.17943675816059113,
        0.1351659595966339,
        0.28413087129592896,
        -0.3332141041755676,
        -0.2768988311290741
      ],
      [
        -0.005550474394112825,
        0.1689419150352478,
        0.44364818930625916,
        0.3717801570892334,
        0.12389446049928665,
        0.2471536546945572,
        -0.24597355723381042
      ],
      [
        -0.3886646330356598,
        0.030580192804336548,
        -0.0989401564002037,
        0.060465626418590546,
        -0.42012467980384827,
        -0.2605271339416504,
        -0.36444443464279175
      ],
      [
        0.2634679675102234,
        -0.06652063131332397,
        0.3268974721431732,
        0.372701495885849,
        0.3429504632949829,
        0.09970513731241226,
        -0.053952399641275406
      ],
      [
        0.032090481370687485,
        0.021420152857899666,
        0.19053536653518677,
        -0.26566505432128906,
        0.43891361355781555,
        -0.033484429121017456,
        -0.2127130776643753
      ],
      [
        -0.29608920216560364,
        0.5646042823791504,
        0.5381640791893005,
        -0.4176073968410492,
        0.5674768090248108,
        0.09980069845914841,
        0.19930541515350342
      ],
      [
        0.2670266330242157,
        -0.30623048543930054,
        0.08154856413602829,
        0.07746166735887527,
        -0.16576281189918518,
        0.043954990804195404,
        -0.16509254276752472
      ],
      [
        0.17976146936416626,
        0.07811295241117477,
        -0.2727864980697632,
        0.007689875550568104,
        0.04304537922143936,
        -0.23342381417751312,
        -0.030271388590335846
      ],
      [
        0.255268394947052,
        -0.2188997119665146,
        0.12886841595172882,
        -0.043001286685466766,
        0.34735310077667236,
        -0.2316267490386963,
        -0.1557384431362152
      ],
      [
        -0.25512921810150146,
        0.4023691713809967,
        -0.05773983895778656,
        0.05935874581336975,
        -0.2579464018344879,
        0.4133058488368988,
        0.33639970421791077
      ],
      [
        -0.33840566873550415,
        -0.43245524168014526,
        -0.3487626016139984,
        -0.1460264027118683,
        -0.2182260900735855,
        -0.3958684206008911,
        -0.26415184140205383
      ],
      [
        0.1166999414563179,
        -0.6635919809341431,
        0.11038751155138016,
        0.0705971047282219,
        -0.08925994485616684,
        0.15332898497581482,
        0.4387953281402588
      ],
      [
        -0.281554639339447,
        0.5582608580589294,
        -0.49546876549720764,
        0.5610833168029785,
        -0.7565245032310486,
        -0.16785410046577454,
        0.3035901188850403
      ],
      [
        -0.1599482148885727,
        -0.01974867284297943,
        0.0635867789387703,
        0.05778026208281517,
        0.002860776148736477,
        0.3496459424495697,
        0.08565352857112885
      ]
    ],
    "net.0.bias": [
      -0.33133432269096375,
      -0.280952513217926,
      -0.10545099526643753,
      0.27851369976997375,
      -0.22968031466007233,
      0.2908152639865875,
      -0.0458199679851532,
      -0.13522039353847504,
      0.30547890067100525,
      0.32632964849472046,
      0.22843332588672638,
      0.21525298058986664,
      -0.14763633906841278,
      -0.16581696271896362,
      -0.06520196795463562,
      0.32572221755981445,
      -0.16027459502220154,
      -0.3476759195327759,
      0.1288137584924698,
      0.4158880114555359,
      -0.0480012446641922,
      -0.6868122816085815,
      -0.5291159152984619,
      0.12499271333217621,
      -0.1444992870092392,
      -0.17571793496608734,
      0.045261409133672714,
      0.1993493139743805,
      0.3365005552768707,
      0.22092927992343903,
      -0.02175058051943779,
      -0.29179880023002625,
      -0.37613722681999207,
      0.37048521637916565,
      0.18976426124572754,
      0.31165850162506104,
      -0.305303692817688,
      0.41891318559646606,
      0.4214590787887573,
      0.31159546971321106,
      -0.24077977240085602,
      -0.16092775762081146,
      -0.1534840166568756,
      0.30430325865745544,
      -0.18505488336086273,
      -0.1769334077835083,
      0.18539193272590637,
      -0.192056342959404,
      -0.1788051724433899,
      -0.178822860121727,
      -0.05068592354655266,
      -0.2768876850605011,
      0.35889944434165955,
      -0.15250594913959503,
      0.18129850924015045,
      0.32876524329185486,
      0.2681916356086731,
      0.055914103984832764,
      0.41892072558403015,
      0.15339650213718414,
      -0.29285141825675964,
      0.37140652537345886,
      0.0010239352704957128,
      -0.5468483567237854,
      -0.30876418948173523,
      -0.3479747474193573,
      0.3454839587211609,
      -0.10034491866827011,
      -0.26002445816993713,
      -0.07688333839178085,
      0.22570131719112396,
      0.17503045499324799,
      0.09837781637907028,
      0.03744831308722496,
      0.14109277725219727,
      -0.11695736646652222,
      -0.07578646391630173,
      -0.42791450023651123,
      -0.43850550055503845,
      0.16004113852977753
    ],
    "net.2.weight": [
      [
        -0.09078139066696167,
        -0.0377560555934906,
        0.07402782887220383,
        0.04360870271921158,
        -0.06584575027227402,
        0.16226361691951752,
        -0.062144361436367035,
        0.20748327672481537,
        -0.1537286341190338,
        0.00887813325971365,
        0.14779716730117798,
        -0.05967001989483833,
        0.12962757050991058,
        -0.20424619317054749,
        -0.07872248440980911,
        -0.14390891790390015,
        -0.03846350684762001,
        0.08627500385046005,
        -0.12890155613422394,
        0.05411247909069061,
        -0.04224846884608269,
        0.026060117408633232,
        0.10184942185878754,
        -0.17035046219825745,
        0.10495661944150925,
        0.09237180650234222,
        -0.05990789830684662,
        0.014726576395332813,
        -0.10411614179611206,
        0.0880267471075058,
        -0.16852311789989471,
        0.06390079855918884,
        -0.05047253891825676,
        0.027773244306445122,
        0.07102037966251373,
        0.09129621833562851,
        -0.059902843087911606,
        0.011882749386131763,
        0.22016465663909912,
        -0.013949548825621605,
        0.10737074166536331,
        -0.06960999965667725,
        0.01949029602110386,
        -0.05356522649526596,
        0.014103553257882595,
        0.13608922064304352,
        0.042578503489494324,
        3.985052171628922e-05,
        0.11082623153924942,
        0.14983470737934113,
        0.12416958808898926,
        -0.15271180868148804,
        0.03268876299262047,
        0.06830678880214691,
        0.06311798840761185,
        -0.12448614835739136,
        0.30830350518226624,
        -0.01764773391187191,
        0.016331754624843597,
        0.03540774807333946,
        0.04176446422934532,
        0.05497158318758011,
        -0.11053334921598434,
        0.14277851581573486,
        0.15261180698871613,
        -0.11560692638158798,
        -0.012151466682553291,
        0.2028854489326477,
        -0.06882284581661224,
        0.17930689454078674,
        0.007297116331756115,
        -0.04730047658085823,
        -0.05752492696046829,
        -0.12028425931930542,
        0.07391200214624405,
        -0.013040076941251755,
        -0.04310297220945358,
        0.023319102823734283,
        0.1873648762702942,
        0.10207907855510712
      ],
      [
        0.12354598939418793,
        0.01702054776251316,
        -0.13233166933059692,
        -0.11966626346111298,
        -0.05365564301609993,
        0.04496895521879196,
        0.1858064830303192,
        -0.15405398607254028,
        0.15302611887454987,
        -0.14591781795024872,
        -0.10650964081287384,
        0.1085289791226387,
        0.08391682803630829,
        0.07473160326480865,
        -0.008610310964286327,
        0.14248715341091156,
        0.07013086974620819,
        -0.002168810460716486,
        0.08987224102020264,
        -0.15341855585575104,
        -0.1371854990720749,
        -0.027332819998264313,
        0.11986305564641953,
        0.03059338591992855,
        0.14208562672138214,
        0.016863379627466202,
        0.09801509976387024,
        0.05654198303818703,
        -0.013387173414230347,
        0.019356930628418922,
        0.001291843131184578,
        -0.012902901507914066,
        0.1488627791404724,
        0.041015539318323135,
        -0.07593222707509995,
        -0.0035257006529718637,
        -0.044205937534570694,
        0.11517834663391113,
        -0.1099054366350174,
        -0.1729220300912857,
        -0.0038986820727586746,
        0.1447036862373352,
        -0.023672446608543396,
        0.07289551943540573,
        0.07748938351869583,
        -0.10739175975322723,
        -0.09627009183168411,
        0.07410726696252823,
        -0.13808423280715942,
        -0.06915272772312164,
        -0.08054538071155548,
        -0.024316055700182915,
        0.09765531867742538,
        0.045360028743743896,
        0.005907163489609957,
        -0.06868398934602737,
        -0.0262332484126091,
        -0.014986276626586914,
        0.030627282336354256,
        -0.16249988973140717,
        -0.05597706884145737,
        0.1206076517701149,
        0.06647660583257675,
        0.02880057506263256,
        -0.17809784412384033,
        0.08521007746458054,
        0.07308915257453918,
        -0.16369476914405823,
        0.054672971367836,
        -0.02873547188937664,
        0.06069990247488022,
        0.11932722479104996,
        0.05219750106334686,
        -0.04395484924316406,
        0.09260818362236023,
        -0.14038944244384766,
        0.004278304520994425,
        -0.06823214143514633,
        -0.1793978065252304,
        -0.07474632561206818
      ],
      [
        0.0498548187315464,
        -0.06100648641586304,
        0.24214240908622742,
        -0.04777974635362625,
        -0.009779217652976513,
        0.148518905043602,
        0.06965718418359756,
        -0.09379575401544571,
        -0.041345782577991486,
        0.046195656061172485,
        -0.020359400659799576,
        -0.06285644322633743,
        -0.12091274559497833,
        -0.1630316972732544,
        -0.02894679270684719,
        0.11509370803833008,
        -0.0672403946518898,
        0.06249632313847542,
        -0.024829380214214325,
        0.07191380858421326,
        0.18964789807796478,
        -0.13434897363185883,
        0.28811630606651306,
        -0.04940054193139076,
        -0.09228898584842682,
        0.10769675672054291,
        0.17188803851604462,
        -0.2790883183479309,
        0.019635982811450958,
        -0.00924331322312355,
        0.049130216240882874,
        -0.08060955256223679,
        -0.018543506041169167,
        0.019562583416700363,
        -0.05222925543785095,
        -0.0536944717168808,
        0.002342160791158676,
        -0.007605868391692638,
        -0.03983458876609802,
        0.13320469856262207,
        0.0494375117123127,
        -0.01909478008747101,
        -0.03529888018965721,
        0.13299591839313507,
        0.02963612973690033,
        0.00719879986718297,
        0.08506835252046585,
        0.09935789555311203,
        0.01543122436851263,
        0.06748784333467484,
        0.2258210927248001,
        0.023597510531544685,
        -0.2580503225326538,
        -0.07699400186538696,
        0.09639135748147964,
        -0.08507713675498962,
        0.22040295600891113,
        -0.027203697711229324,
        0.11929338425397873,
        -0.3015478551387787,
        0.195470929145813,
        0.08267111331224442,
        0.0046668825671076775,
        -0.20049138367176056,
        0.3352053463459015,
        -0.08695991337299347,
        -0.04627358913421631,
        -0.00893784873187542,
        -0.0329999178647995,
        0.044043198227882385,
        -0.04304269328713417,
        -0.2000645399093628,
        -0.1506253331899643,
        0.10937709361314774,
        -0.07738349586725235,
        0.06379372626543045,
        0.06481456756591797,
        0.19968895614147186,
        -0.05961098521947861,
        -0.03980522230267525
      ],
      [
        -0.05246889963746071,
        -0.19250153005123138,
        0.07633773237466812,
        0.16821755468845367,
        0.16119720041751862,
        0.02000315487384796,
        0.026268407702445984,
        -0.021823782473802567,
        -0.06617358326911926,
        0.1429724097251892,
        -0.041805338114500046,
        0.11649080365896225,
        -0.18249636888504028,
        0.1880027800798416,
        0.03855765983462334,
        -0.020566748455166817,
        -0.1513134092092514,
        -0.10787585377693176,
        0.03354655206203461,
        0.07078112661838531,
        0.15651799738407135,
        0.29612696170806885,
        0.0729585736989975,
        0.026015926152467728,
        0.03144563362002373,
        0.08269991725683212,
        -0.09160898625850677,
        -0.14334632456302643,
        0.04195282608270645,
        -0.18457308411598206,
        0.1085318922996521,
        -0.030777737498283386,
        -0.01358039490878582,
        0.13420601189136505,
        0.17583662271499634,
        0.143238827586174,
        -0.033022332936525345,
        -0.18309234082698822,
        0.14893575012683868,
        0.08835554867982864,
        0.05944506824016571,
        -0.2056376338005066,
        -0.1664663553237915,
        0.1673671007156372,
        -0.08683938533067703,
        -0.1334766298532486,
        0.059354573488235474,
        -0.10607772320508957,
        0.1077764630317688,
        0.0432317815721035,
        0.16314467787742615,
        -0.12360181659460068,
        -0.08539659529924393,
        0.12222498655319214,
        0.11256419867277145,
        0.03011953830718994,
        0.21665465831756592,
        -0.24797287583351135,
        0.13222633302211761,
        -0.022354373708367348,
        -0.11474808305501938,
        -0.171464741230011,
        -0.07308632135391235,
        0.0651499405503273,
        0.06114601716399193,
        -0.1393176168203354,
        -0.20509476959705353,
        -0.01580086536705494,
        0.06406669318675995,
        -0.03669971972703934,
        -0.1513894498348236,
        -0.14170707762241364,
        0.019447579979896545,
        -0.13915081322193146,
        -0.0998438373208046,
        0.1454850286245346,
        -0.0029830161947757006,
        -0.08360651880502701,
        0.22549185156822205,
        0.07882139086723328
      ]
    ],
    "net.2.bias": [
      -0.08545395731925964,
      -0.005423389840871096,
      0.11283734440803528,
      -0.07876409590244293
    ]
  },
  "F2": {
    "n_in": 4,
    "n_hid": 60,
    "n_out": 4,
    "activation": "tanh",
    "net.0.weight": [
      [
        0.29360470175743103,
        0.15205687284469604,
        0.38052526116371155,
        0.2290426343679428
      ],
      [
        -0.4202048182487488,
        0.36876219511032104,
        -0.031870871782302856,
        -0.20900291204452515
      ],
      [
        0.25439274311065674,
        0.3221340477466583,
        -0.5035548806190491,
        -0.04491819441318512
      ],
      [
        0.29604601860046387,
        -0.04584033414721489,
        0.2159256637096405,
        -0.2455655187368393
      ],
      [
        -0.3778226673603058,
        0.32496926188468933,
        0.10600684583187103,
        0.5942742228507996
      ],
      [
        -0.18903928995132446,
        -0.3410347104072571,
        -0.001644383417442441,
        -0.30761784315109253
      ],
      [
        0.26517364382743835,
        0.68056720495224,
        0.20459358394145966,
        0.005464090965688229
      ],
      [
        0.2901040017604828,
        -0.35140684247016907,
        0.59181809425354,
        -0.6308372020721436
      ],
      [
        -0.5207814574241638,
        -0.12026121467351913,
        0.4043881893157959,
        0.12367270141839981
      ],
      [
        0.12920667231082916,
        -0.39103949069976807,
        0.13408729434013367,
        -0.02380429208278656
      ],
      [
        0.15204675495624542,
        0.3399594724178314,
        0.12074509263038635,
        0.05598824471235275
      ],
      [
        0.036422666162252426,
        -0.5890691876411438,
        -0.08602307736873627,
        0.27144619822502136
      ],
      [
        -0.2074250429868698,
        0.34509894251823425,
        -0.24557645618915558,
        -0.15349891781806946
      ],
      [
        0.06547891348600388,
        -0.455656498670578,
        0.04846866428852081,
        -0.007847252301871777
      ],
      [
        -0.03290872275829315,
        -0.007200783118605614,
        0.4951712191104889,
        0.5569761991500854
      ],
      [
        -0.41008642315864563,
        0.25314462184906006,
        -0.48165184259414673,
        -0.5584686398506165
      ],
      [
        0.14235685765743256,
        -0.00945504754781723,
        -0.2443307787179947,
        -0.48828011751174927
      ],
      [
        -0.25865286588668823,
        0.12027186900377274,
        -0.5084100365638733,
        -0.38511332869529724
      ],
      [
        0.12866824865341187,
        -0.31919175386428833,
        -0.39307132363319397,
        -0.34566694498062134
      ],
      [
        -0.039996612817049026,
        -0.3926750421524048,
        -0.26017504930496216,
        0.03695754334330559
      ],
      [
        -0.4905269742012024,
        -0.20479817688465118,
        -0.30505335330963135,
        -0.4202139675617218
      ],
      [
        0.12214772403240204,
        -0.43355390429496765,
        -0.4337247610092163,
        0.3675869405269623
      ],
      [
        0.024733327329158783,
        0.42259928584098816,
        -0.20144060254096985,
        -0.21725131571292877
      ],
      [
        -0.019570589065551758,
        0.029682481661438942,
        0.36527130007743835,
        -0.5877246856689453
      ],
      [
        0.0991373285651207,
        0.31521108746528625,
        -0.11028094589710236,
        -0.2318887710571289
      ],
      [
        0.3500277101993561,
        -0.43733319640159607,
        0.26113536953926086,
        -0.43474137783050537
      ],
      [
        0.2604733407497406,
        -0.5163895487785339,
        0.2220028042793274,
        -0.8932585120201111
      ],
      [
        -0.44101813435554504,
        0.018023530021309853,
        0.4158732295036316,
        -0.3402317464351654
      ],
      [
        -0.2094593644142151,
        0.4702088236808777,
        -0.0889529436826706,
        0.1553117036819458
      ],
      [
        -0.4510175287723541,
        -0.27740180492401123,
        -0.2658363878726959,
        0.34708356857299805
      ],
      [
        0.2830277979373932,
        -0.344925194978714,
        0.15321975946426392,
        -0.050525639206171036
      ],
      [
        -0.2869487702846527,
        -0.3770528733730316,
        -0.1920195072889328,
        0.5802710056304932
      ],
      [
        -0.461145281791687,
        -0.7619651556015015,
        -0.3399587869644165,
        -0.09144505858421326
      ],
      [
        0.19818873703479767,
        0.0654718428850174,
        -0.055870767682790756,
        -0.23206335306167603
      ],
      [
        -0.1255318969488144,
        -0.2584621012210846,
        0.38373157382011414,
        -0.6172194480895996
      ],
      [
        -0.37682148814201355,
        -0.4417067766189575,
        -0.167393758893013,
        0.3231929540634155
      ],
      [
        0.3813433051109314,
        -0.5446933507919312,
        -0.0385272242128849,
        0.42268505692481995
      ],
      [
        0.2884875535964966,
        0.4251438081264496,
        0.013950477354228497,
        -0.4746946394443512
      ],
      [
        0.44366273283958435,
        -0.1785392314195633,
        0.374491423368454,
        -0.11583692580461502
      ],
      [
        0.33759042620658875,
        0.5444254279136658,
        0.6329550743103027,
        -0.5156769752502441
      ],
      [
        -0.24749109148979187,
        -0.3099291920661926,
        -0.22000813484191895,
        0.512357234954834
      ],
      [
        -0.1411208212375641,
        -0.4303182065486908,
        -0.3152484893798828,
        -0.09079630672931671
      ],
      [
        0.23381340503692627,
        -0.36185505986213684,
        -0.4745825231075287,
        -0.5446199178695679
      ],
      [
        0.18612761795520782,
        0.20268283784389496,
        -0.35739555954933167,
        0.0934610441327095
      ],
      [
        0.4227863550186157,
        0.09666669368743896,
        -0.09191646426916122,
        -0.015730150043964386
      ],
      [
        -0.04121777042746544,
        0.22585377097129822,
        -0.30454859137535095,
        0.22294121980667114
      ],
      [
        0.22864919900894165,
        -0.32188817858695984,
        0.37638768553733826,
        0.5928196310997009
      ],
      [
        -0.2876950204372406,
        -0.21976348757743835,
        0.12762382626533508,
        -0.4981311559677124
      ],
      [
        0.383636474609375,
        0.5454928874969482,
        0.6336398720741272,
        -0.3716565668582916
      ],
      [
        -0.3889661729335785,
        0.16214153170585632,
        0.23867791891098022,
        -0.4734538197517395
      ],
      [
        -0.288356751203537,
        -0.41575300693511963,
        -0.3782486319541931,
        -0.4454735219478607
      ],
      [
        0.5048397779464722,
        -0.03497842326760292,
        0.3736695349216461,
        0.36453720927238464
      ],
      [
        0.26088306307792664,
        -0.3818831145763397,
        0.31846359372138977,
        0.24432313442230225
      ],
      [
        0.43604716658592224,
        -0.5180909037590027,
        0.33363649249076843,
        0.3161229193210602
      ],
      [
        -0.47352540493011475,
        0.003987677861005068,
        0.4810725152492523,
        -0.3153211176395416
      ],
      [
        0.15150095522403717,
        0.15087789297103882,
        0.08188439160585403,
        0.41054239869117737
      ],
      [
        0.49331989884376526,
        0.46095895767211914,
        0.026084722951054573,
        0.15499579906463623
      ],
      [
        -0.5777117013931274,
        -0.3273962438106537,
        -0.28088536858558655,
        -0.24747717380523682
      ],
      [
        0.4811207056045532,
        0.2064511477947235,
        0.3161337673664093,
        0.36041224002838135
      ],
      [
        -0.3127288222312927,
        -0.0023903504479676485,
        0.16362765431404114,
        0.18080319464206696
      ]
    ],
    "net.0.bias": [
      0.2353498637676239,
      -0.21883562207221985,
      -0.13065138459205627,
      0.41350483894348145,
      -0.12212972342967987,
      -0.33139854669570923,
      0.31710436940193176,
      0.3517286479473114,
      -0.17841710150241852,
      -0.07851078361272812,
      -0.3458755910396576,
      -0.3970976769924164,
      0.20930372178554535,
      -0.23745600879192352,
      0.38622793555259705,
      -0.3744980990886688,
      -0.08590303361415863,
      0.010595651343464851,
      0.2412470579147339,
      0.3851407468318939,
      0.34964343905448914,
      0.20558243989944458,
      -0.20419953763484955,
      -0.3311862647533417,
      -0.4192245900630951,
      0.015676705166697502,
      0.550459086894989,
      -0.11814430356025696,
      -0.037737175822257996,
      -0.393219918012619,
      0.13004560768604279,
      0.2805119454860687,
      -0.4735952317714691,
      -0.3279562294483185,
      0.4166007936000824,
      0.16115838289260864,
      -0.07779379934072495,
      0.05057808384299278,
      -0.06836464256048203,
      -0.36563149094581604,
      -0.490121454000473,
      0.34495118260383606,
      -0.1585964858531952,
      -0.16333425045013428,
      -0.10864924639463425,
      -0.2933788597583771,
      -0.13497383892536163,
      -0.41796016693115234,
      0.36205828189849854,
      0.22300074994564056,
      -0.23681654036045074,
      -0.14258596301078796,
      0.197675883769989,
      -0.1612495481967926,
      0.10685237497091293,
      0.1094449907541275,
      -0.30772101879119873,
      0.11635375767946243,
      0.04327000305056572,
      0.41585633158683777
    ],
    "net.2.weight": [
      [
        -0.022744525223970413,
        -0.012640555389225483,
        0.04354657977819443,
        -0.0968395248055458,
        0.04396386072039604,
        0.10856235772371292,
        -0.0550561249256134,
        0.14283618330955505,
        0.17357322573661804,
        0.13727161288261414,
        -0.04181073233485222,
        0.13387739658355713,
        -0.09332616627216339,
        -0.02375236712396145,
        0.07080212235450745,
        0.023524412885308266,
        -0.02007979154586792,
        0.048430632799863815,
        -0.0787210762500763,
        0.09892819076776505,
        0.045944102108478546,
        0.10220020264387131,
        0.030619965866208076,
        -0.07877541333436966,
        -0.11380396783351898,
        0.08507104218006134,
        -0.0692036971449852,
        0.0859028548002243,
        -0.0902080163359642,
        -0.01901099644601345,
        -0.0005088065518066287,
        0.06487705558538437,
        -0.001974990125745535,
        0.008800270967185497,
        -0.015715254470705986,
        0.0860297679901123,
        0.20384778082370758,
        -0.12690217792987823,
        -0.03546711802482605,
        -0.10271231085062027,
        0.1172366738319397,
        0.12319450825452805,
        -0.061172373592853546,
        -0.08224686980247498,
        -0.12566488981246948,
        0.09285561740398407,
        0.08874985575675964,
        0.11376956850290298,
        0.09456618130207062,
        0.07580406963825226,
        0.08560384809970856,
        -0.06513883918523788,
        0.048351921141147614,
        0.004831000696867704,
        0.07804922759532928,
        0.041090503334999084,
        -0.015707073733210564,
        -0.06465541571378708,
        -0.12097849696874619,
        0.07380076497793198
      ],
      [
        0.010168609209358692,
        0.02005651593208313,
        0.08130184561014175,
        -0.047886695712804794,
        0.047305017709732056,
        -0.058804020285606384,
        0.06523847579956055,
        -0.05404190719127655,
        0.07741493731737137,
        0.06414199620485306,
        0.06744981557130814,
        -0.027473265305161476,
        0.11794311553239822,
        -0.15269559621810913,
        -0.10092749446630478,
        0.05879503861069679,
        0.0415072999894619,
        0.07726117968559265,
        -0.01417474914342165,
        -0.01039844285696745,
        -0.08812246471643448,
        0.05603403225541115,
        0.0693710446357727,
        0.027809130027890205,
        -0.07108654081821442,
        -0.17388799786567688,
        -0.15613050758838654,
        -0.0021743003744632006,
        0.10865617543458939,
        -0.06561830639839172,
        -0.07397011667490005,
        -0.025793040171265602,
        -0.04700895771384239,
        -0.13687896728515625,
        -0.14511555433273315,
        0.17103683948516846,
        -0.1485310047864914,
        -0.004490151070058346,
        -0.1192394345998764,
        -0.17962875962257385,
        -0.035784874111413956,
        0.07923832535743713,
        0.08297610282897949,
        -0.02084382064640522,
        -0.04924917221069336,
        -0.12741240859031677,
        0.030762705951929092,
        0.10553423315286636,
        0.14095339179039001,
        -0.02415834367275238,
        0.10076287388801575,
        -0.18973863124847412,
        -0.040528830140829086,
        -0.09432095289230347,
        -0.02185266651213169,
        -0.0033888453617691994,
        -0.09241089224815369,
        0.05840795487165451,
        -0.11607807129621506,
        -0.09820932149887085
      ],
      [
        -0.03057544119656086,
        -0.07295955717563629,
        0.047010716050863266,
        0.02382206916809082,
        0.1337469071149826,
        -0.046534039080142975,
        0.019836630672216415,
        -0.035112883895635605,
        0.14990654587745667,
        0.08405458182096481,
        -0.08315350115299225,
        -0.10893691331148148,
        -0.10616380721330643,
        -0.06662826985120773,
        0.12490148842334747,
        0.054451439529657364,
        0.10177186876535416,
        0.1463492214679718,
        0.035076212137937546,
        -0.06387501209974289,
        0.16683298349380493,
        0.10435028374195099,
        0.05174193158745766,
        -0.06847439706325531,
        0.10824687033891678,
        -0.03671492636203766,
        0.03350481390953064,
        0.09122730046510696,
        0.10431931167840958,
        -0.08053641766309738,
        -0.08129655569791794,
        0.09196332842111588,
        -0.050226841121912,
        -0.1100999042391777,
        0.09284958243370056,
        0.022226043045520782,
        0.07532882690429688,
        -0.14127029478549957,
        0.027170559391379356,
        -0.08238513767719269,
        -0.022427555173635483,
        -0.004001259803771973,
        -0.02359393984079361,
        0.05028688907623291,
        -0.03896544501185417,
        0.11270791292190552,
        -0.00014271137479227036,
        -0.02863713726401329,
        -0.07605671882629395,
        -0.10978488624095917,
        -0.011785292997956276,
        -0.1502419412136078,
        -0.034541934728622437,
        -0.018208296969532967,
        0.021652216091752052,
        -0.07235178351402283,
        0.06078074872493744,
        0.11257944256067276,
        -0.08908417820930481,
        -0.038423486053943634
      ],
      [
        0.0777445062994957,
        0.12793515622615814,
        -0.09392321109771729,
        -0.0444105826318264,
        -0.010385420173406601,
        -0.03755859285593033,
        0.10144195705652237,
        -0.04074343293905258,
        0.12382092326879501,
        0.011035884730517864,
        0.01566869579255581,
        -0.057434551417827606,
        -0.06332647800445557,
        0.052289336919784546,
        0.04044237360358238,
        0.004461956210434437,
        0.1373947709798813,
        -0.17518235743045807,
        0.023313788697123528,
        0.08498607575893402,
        -0.04668920114636421,
        0.06678913533687592,
        0.02697027288377285,
        -0.07068241387605667,
        -0.050372689962387085,
        0.03335946798324585,
        -0.06639499217271805,
        0.04100184887647629,
        0.1636977195739746,
        0.06453239172697067,
        -0.03247903287410736,
        0.0031720120459795,
        -0.06273756176233292,
        -0.0873773917555809,
        -0.11199947446584702,
        -0.15124791860580444,
        0.0378209687769413,
        0.018462739884853363,
        -0.011671687476336956,
        -0.08965229243040085,
        0.09116902202367783,
        -0.10323666781187057,
        -0.007461137603968382,
        -0.08274948596954346,
        -0.03507377579808235,
        0.07427344471216202,
        -0.09727536886930466,
        -0.05682456120848656,
        0.07174424082040787,
        -0.08916595578193665,
        -0.057417429983615875,
        0.0018766185967251658,
        0.03689461946487427,
        -0.05532613769173622,
        -0.01551144104450941,
        0.0450153574347496,
        0.022187137976288795,
        -0.030151082202792168,
        -0.046979181468486786,
        0.035670261830091476
      ]
    ],
    "net.2.bias": [
      0.05235624313354492,
      0.003992030397057533,
      -0.10318286716938019,
      0.03078700788319111
    ]
  }
}