{
  "name": "PV3",
  "type": "F1+H1+F2",
  "t_step": 0.001,
  "normfacs": {
    "G": {
      "scale": 999.9949951171875,
      "offset": 781.4698486328125
    },
    "Ud": {
      "scale": 0.4200015068054199,
      "offset": 1.012689471244812
    },
    "Uq": {
      "scale": 1.0,
      "offset": -0.012256158515810966
    },
    "Id": {
      "scale": 5.881160259246826,
      "offset": 2.5773351192474365
    },
    "Iq": {
      "scale": 5.025164604187012,
      "offset": -0.10374172776937485
    },
    "GIrms": {
      "scale": 7125.08447265625,
      "offset": 2889.173095703125
    },
    "Ctrl": {
      "scale": 1.0,
      "offset": 0.5623593926429749
    },
    "Vdc": {
      "scale": 643.7698364257812,
      "offset": 458.31390380859375
    },
    "Idc": {
      "scale": 4.956446170806885,
      "offset": 1.9286991357803345
    },
    "Vd": {
      "scale": 349.07000732421875,
      "offset": 218.1281280517578
    },
    "Vq": {
      "scale": 297.98748779296875,
      "offset": -8.231996536254883
    }
  },
  "model_folder": "./ucf4tsiir/",
  "model_root": "ucf4tsiir",
  "data_path": "d:/data/ucf3/ucf9c.hdf5",
  "lr": 0.001,
  "eps": 1e-08,
  "h5grp_prefix": "ucf",
  "num_iter": 1000,
  "continue_iterations": false,
  "print_freq": 1,
  "batch_size": 105,
  "n_validation_pct": 15,
  "n_validation_seed": 99,
  "n_skip": 0,
  "n_trunc": 0,
  "n_dec": 1,
  "n_loss_skip": 250,
  "n_pad": 500,
  "gtype": "iir",
  "na": 2,
  "nb": 2,
  "nk": 0,
  "activation": "tanh",
  "nh1": 80,
  "nh2": 60,
  "COL_T": [
    "t"
  ],
  "COL_Y": [
    "Vdc",
    "Idc",
    "Vd",
    "Vq"
  ],
  "COL_U": [
    "G",
    "Ud",
    "Uq",
    "Id",
    "Iq",
    "GIrms",
    "Ctrl"
  ],
  "clamps": null,
  "sensitivity": {
    "limit": 45.0,
    "weight": 0.0005,
    "delta": 0.01,
    "inputs": [
      "Id",
      "Iq"
    ],
    "outputs": [
      "Vd",
      "Vq"
    ],
    "GIrms": {
      "G": "G",
      "Id": "Id",
      "Iq": "Iq",
      "k": 1.2247449
    },
    "big_sets": {
      "G": [
        100.0,
        600.0,
        999.0
      ],
      "Ud": [
        0.8,
        1.0,
        1.2
      ],
      "Uq": [
        -0.5,
        0.0,
        0.5
      ],
      "Id": [
        2.8,
        5.6
      ],
      "Iq": [
        -2.6,
        0.0,
        2.3
      ],
      "Ctrl": [
        0.0,
        1.0
      ]
    },
    "sets": {
      "G": [
        300.0,
        800.0
      ],
      "Ud": [
        0.9,
        1.1
      ],
      "Uq": [
        -0.4,
        0.4
      ],
      "Id": [
        2.8,
        5.6
      ],
      "Iq": [
        -2.6,
        2.3
      ],
      "Ctrl": [
        0.0,
        1.0
      ]
    }
  },
  "H1": {
    "n_in": 4,
    "n_out": 4,
    "n_b": 2,
    "n_a": 2,
    "n_k": 0,
    "a_0_0": [
      -0.36150211095809937,
      -0.3517264723777771
    ],
    "b_0_0": [
      -0.29348304867744446,
      -0.2669873535633087
    ],
    "a_0_1": [
      -0.09057639539241791,
      -0.10307949781417847
    ],
    "b_0_1": [
      0.1824139803647995,
      0.08091115206480026
    ],
    "a_0_2": [
      0.052812110632658005,
      0.17930825054645538
    ],
    "b_0_2": [
      0.13890570402145386,
      -0.06633629649877548
    ],
    "a_0_3": [
      -0.07090450823307037,
      -0.06006799265742302
    ],
    "b_0_3": [
      -0.19294854998588562,
      -0.10399450361728668
    ],
    "a_1_0": [
      -0.1160234808921814,
      -0.12047480046749115
    ],
    "b_1_0": [
      0.1433691382408142,
      0.11627662926912308
    ],
    "a_1_1": [
      -0.19097575545310974,
      -0.18686608970165253
    ],
    "b_1_1": [
      0.10397935658693314,
      0.17201192677021027
    ],
    "a_1_2": [
      -0.010532488115131855,
      0.02777850069105625
    ],
    "b_1_2": [
      -0.0537879504263401,
      -0.03381051495671272
    ],
    "a_1_3": [
      -0.22929026186466217,
      -0.21732589602470398
    ],
    "b_1_3": [
      0.1847941130399704,
      0.17551875114440918
    ],
    "a_2_0": [
      -0.019322006031870842,
      -0.025731997564435005
    ],
    "b_2_0": [
      -0.05060175433754921,
      -0.058948028832674026
    ],
    "a_2_1": [
      -0.3156050145626068,
      -0.32081034779548645
    ],
    "b_2_1": [
      0.22509486973285675,
      0.22919340431690216
    ],
    "a_2_2": [
      -0.054010700434446335,
      -0.03410761058330536
    ],
    "b_2_2": [
      0.08732632547616959,
      0.10615188628435135
    ],
    "a_2_3": [
      0.02004859782755375,
      0.01792934536933899
    ],
    "b_2_3": [
      0.025425298139452934,
      0.030623916536569595
    ],
    "a_3_0": [
      0.03302672132849693,
      0.04894702881574631
    ],
    "b_3_0": [
      0.051509905606508255,
      0.012390450574457645
    ],
    "a_3_1": [
      0.07721096277236938,
      0.12277328222990036
    ],
    "b_3_1": [
      -0.12540563941001892,
      -0.020714152604341507
    ],
    "a_3_2": [
      -0.278210312128067,
      -0.27433526515960693
    ],
    "b_3_2": [
      -0.29002535343170166,
      -0.21663689613342285
    ],
    "a_3_3": [
      -0.12156522274017334,
      -0.11324630677700043
    ],
    "b_3_3": [
      0.16892606019973755,
      0.12354695796966553
    ]
  },
  "H1s": {
    "n_in": 4,
    "n_out": 4,
    "n_a": 3,
    "n_b": 2,
    "b_0_0": [
      -293.48304867744446,
      -560470.4022407534
    ],
    "a_0_0": [
      1.0,
      1638.4978890419006,
      286771.4166641234
    ],
    "b_0_1": [
      182.41398036479958,
      263325.1324295999
    ],
    "a_0_1": [
      1.0,
      1909.423604607582,
      806344.1067934035
    ],
    "b_0_2": [
      138.90570402145383,
      72569.40752267842
    ],
    "a_0_2": [
      1.0,
      2052.8121106326585,
      1232120.361179114
    ],
    "b_0_3": [
      -192.94854998588556,
      -296943.05360317224
    ],
    "a_0_3": [
      1.0,
      1929.0954917669296,
      869027.4991095066
    ],
    "b_1_0": [
      143.3691382408142,
      259645.76750993726
    ],
    "a_1_0": [
      1.0,
      1883.9765191078186,
      763501.7186403275
    ],
    "b_1_1": [
      103.97935658693302,
      275991.28335714404
    ],
    "a_1_1": [
      1.0,
      1809.0242445468903,
      622158.1548452377
    ],
    "b_1_2": [
      -53.78795042634011,
      -87598.46538305291
    ],
    "a_1_2": [
      1.0,
      1989.467511884868,
      1017246.0125759242
    ],
    "b_1_3": [
      184.79411303997028,
      360312.86418438
    ],
    "a_1_3": [
      1.0,
      1770.7097381353376,
      553383.8421106336
    ],
    "b_2_0": [
      -50.601754337549224,
      -109549.78317022328
    ],
    "a_2_0": [
      1.0,
      1980.6779939681292,
      954945.9964036942
    ],
    "b_2_1": [
      225.0948697328568,
      454288.2740497592
    ],
    "a_2_1": [
      1.0,
      1684.3949854373932,
      363584.63764190656
    ],
    "b_2_2": [
      87.32632547616959,
      193478.21176052088
    ],
    "a_2_2": [
      1.0,
      1945.9892995655537,
      911881.6889822483
    ],
    "b_2_3": [
      25.425298139452956,
      56049.21467602245
    ],
    "a_2_3": [
      1.0,
      2020.0485978275542,
      1037977.9431968932
    ],
    "b_3_0": [
      51.50990560650826,
      63900.3561809659
    ],
    "a_3_0": [
      1.0,
      2033.0267213284974,
      1081973.7501442437
    ],
    "b_3_1": [
      -125.40563941001899,
      -146119.79201436054
    ],
    "a_3_1": [
      1.0,
      2077.2109627723694,
      1199984.24500227
    ],
    "b_3_2": [
      -290.0253534317017,
      -506662.24956512486
    ],
    "a_3_2": [
      1.0,
      1721.789687871933,
      447454.4227123259
    ],
    "b_3_3": [
      168.92606019973752,
      292473.018169403
    ],
    "a_3_3": [
      1.0,
      1878.4347772598267,
      765188.4704828262
    ]
  },
  "Q1s": {
    "n_in": 4,
    "n_out": 4,
    "n_a": 2,
    "n_b": 2,
    "A_0_0": [
      [
        -1638.4978890419006,
        -286771.4166641234
      ],
      [
        1.0,
        0.0
      ]
    ],
    "B_0_0": [
      1.0,
      0.0
    ],
    "C_0_0": [
      -293.48304867744446,
      -560470.4022407534
    ],
    "D_0_0": 0.0,
    "A_0_1": [
      [
        -1909.423604607582,
        -806344.1067934035
      ],
      [
        1.0,
        0.0
      ]
    ],
    "B_0_1": [
      1.0,
      0.0
    ],
    "C_0_1": [
      182.41398036479958,
      263325.1324295999
    ],
    "D_0_1": 0.0,
    "A_0_2": [
      [
        -2052.8121106326585,
        -1232120.361179114
      ],
      [
        1.0,
        0.0
      ]
    ],
    "B_0_2": [
      1.0,
      0.0
    ],
    "C_0_2": [
      138.90570402145383,
      72569.40752267842
    ],
    "D_0_2": 0.0,
    "A_0_3": [
      [
        -1929.0954917669296,
        -869027.4991095066
      ],
      [
        1.0,
        0.0
      ]
    ],
    "B_0_3": [
      1.0,
      0.0
    ],
    "C_0_3": [
      -192.94854998588556,
      -296943.05360317224
    ],
    "D_0_3": 0.0,
    "A_1_0": [
      [
        -1883.9765191078186,
        -763501.7186403275
      ],
      [
        1.0,
        0.0
      ]
    ],
    "B_1_0": [
      1.0,
      0.0
    ],
    "C_1_0": [
      143.3691382408142,
      259645.76750993726
    ],
    "D_1_0": 0.0,
    "A_1_1": [
      [
        -1809.0242445468903,
        -622158.1548452377
      ],
      [
        1.0,
        0.0
      ]
    ],
    "B_1_1": [
      1.0,
      0.0
    ],
    "C_1_1": [
      103.97935658693302,
      275991.28335714404
    ],
    "D_1_1": 0.0,
    "A_1_2": [
      [
        -1989.467511884868,
        -1017246.0125759242
      ],
      [
        1.0,
        0.0
      ]
    ],
    "B_1_2": [
      1.0,
      0.0
    ],
    "C_1_2": [
      -53.78795042634011,
      -87598.46538305291
    ],
    "D_1_2": 0.0,
    "A_1_3": [
      [
        -1770.7097381353376,
        -553383.8421106336
      ],
      [
        1.0,
        0.0
      ]
    ],
    "B_1_3": [
      1.0,
      0.0
    ],
    "C_1_3": [
      184.79411303997028,
      360312.86418438
    ],
    "D_1_3": 0.0,
    "A_2_0": [
      [
        -1980.6779939681292,
        -954945.9964036942
      ],
      [
        1.0,
        0.0
      ]
    ],
    "B_2_0": [
      1.0,
      0.0
    ],
    "C_2_0": [
      -50.601754337549224,
      -109549.78317022328
    ],
    "D_2_0": 0.0,
    "A_2_1": [
      [
        -1684.3949854373932,
        -363584.63764190656
      ],
      [
        1.0,
        0.0
      ]
    ],
    "B_2_1": [
      1.0,
      0.0
    ],
    "C_2_1": [
      225.0948697328568,
      454288.2740497592
    ],
    "D_2_1": 0.0,
    "A_2_2": [
      [
        -1945.9892995655537,
        -911881.6889822483
      ],
      [
        1.0,
        0.0
      ]
    ],
    "B_2_2": [
      1.0,
      0.0
    ],
    "C_2_2": [
      87.32632547616959,
      193478.21176052088
    ],
    "D_2_2": 0.0,
    "A_2_3": [
      [
        -2020.0485978275542,
        -1037977.9431968932
      ],
      [
        1.0,
        0.0
      ]
    ],
    "B_2_3": [
      1.0,
      0.0
    ],
    "C_2_3": [
      25.425298139452956,
      56049.21467602245
    ],
    "D_2_3": 0.0,
    "A_3_0": [
      [
        -2033.0267213284974,
        -1081973.7501442437
      ],
      [
        1.0,
        0.0
      ]
    ],
    "B_3_0": [
      1.0,
      0.0
    ],
    "C_3_0": [
      51.50990560650826,
      63900.3561809659
    ],
    "D_3_0": 0.0,
    "A_3_1": [
      [
        -2077.2109627723694,
        -1199984.24500227
      ],
      [
        1.0,
        0.0
      ]
    ],
    "B_3_1": [
      1.0,
      0.0
    ],
    "C_3_1": [
      -125.40563941001899,
      -146119.79201436054
    ],
    "D_3_1": 0.0,
    "A_3_2": [
      [
        -1721.789687871933,
        -447454.4227123259
      ],
      [
        1.0,
        0.0
      ]
    ],
    "B_3_2": [
      1.0,
      0.0
    ],
    "C_3_2": [
      -290.0253534317017,
      -506662.24956512486
    ],
    "D_3_2": 0.0,
    "A_3_3": [
      [
        -1878.4347772598267,
        -765188.4704828262
      ],
      [
        1.0,
        0.0
      ]
    ],
    "B_3_3": [
      1.0,
      0.0
    ],
    "C_3_3": [
      168.92606019973752,
      292473.018169403
    ],
    "D_3_3": 0.0
  },
  "F1": {
    "n_in": 7,
    "n_hid": 80,
    "n_out": 4,
    "activation": "tanh",
    "net.0.weight": [
      [
        -0.031715329736471176,
        0.15035685896873474,
        -0.5803973078727722,
        -0.29280614852905273,
        -0.2246103435754776,
        0.0647289827466011,
        -0.03957980126142502
      ],
      [
        0.31733444333076477,
        -0.09772603958845139,
        0.3359515368938446,
        -0.04614410549402237,
        -0.10100223869085312,
        -0.32242462038993835,
        -0.17364820837974548
      ],
      [
        -0.4960034191608429,
        0.021885909140110016,
        0.5459437966346741,
        0.1581229418516159,
        -0.1476345807313919,
        -0.20520180463790894,
        0.048164740204811096
      ],
      [
        0.4964064955711365,
        -0.06773766130208969,
        0.2623666524887085,
        -0.044740941375494,
        0.07727807760238647,
        0.3615712523460388,
        -0.020177355036139488
      ],
      [
        -0.51352858543396,
        0.1896737664937973,
        -0.17111217975616455,
        0.42218244075775146,
        -0.178782656788826,
        -0.027128200978040695,
        -0.1411518156528473
      ],
      [
        -1.1265777349472046,
        -0.2988343834877014,
        0.5307649374008179,
        0.04553113132715225,
        0.03315505012869835,
        -0.043813206255435944,
        -0.14467009902000427
      ],
      [
        -0.11465083807706833,
        -0.07981672883033752,
        -0.6963011026382446,
        -0.16339997947216034,
        0.12322776019573212,
        0.2209102362394333,
        -0.19984422624111176
      ],
      [
        0.015359831973910332,
        -0.1252264529466629,
        1.0360628366470337,
        0.07988773286342621,
        -0.004854974802583456,
        0.23398928344249725,
        -0.10230744630098343
      ],
      [
        -0.05404350161552429,
        -0.10248155146837234,
        -0.62666916847229,
        -0.11373292654752731,
        0.05350757762789726,
        0.11526568979024887,
        -0.43138745427131653
      ],
      [
        0.34153586626052856,
        0.36985382437705994,
        -0.08459099382162094,
        -0.02178122289478779,
        0.06658738851547241,
        0.17773403227329254,
        0.3206453323364258
      ],
      [
        -0.8262732625007629,
        -0.38569796085357666,
        -0.1144668385386467,
        0.36395907402038574,
        0.2365836501121521,
        1.1154612302780151,
        0.023813778534531593
      ],
      [
        -0.28986045718193054,
        0.37913864850997925,
        -0.7341613173484802,
        -0.24010521173477173,
        0.13528068363666534,
        0.31280773878097534,
        -0.16058914363384247
      ],
      [
        0.07171446830034256,
        0.010054940357804298,
        0.18041838705539703,
        -0.12793175876140594,
        0.08955901861190796,
        -0.15228460729122162,
        0.17414627969264984
      ],
      [
        0.34163588285446167,
        0.535309910774231,
        -0.08643088489770889,
        -0.2954747974872589,
        -0.11797759681940079,
        0.23346205055713654,
        0.1256706416606903
      ],
      [
        -0.4154942035675049,
        -0.13548621535301208,
        0.5601215958595276,
        0.1310252845287323,
        -0.09837637841701508,
        -0.17347489297389984,
        -0.33328258991241455
      ],
      [
        -0.14443114399909973,
        0.23095813393592834,
        -1.3047902584075928,
        0.013965894468128681,
        0.049870070070028305,
        -0.24879594147205353,
        0.13018183410167694
      ],
      [
        -0.33091044425964355,
        0.5669648051261902,
        0.6852208971977234,
        -0.2930101752281189,
        -0.11528562009334564,
        -0.12031767517328262,
        -0.04358144849538803
      ],
      [
        0.33487921953201294,
        0.3069504201412201,
        0.6319332122802734,
        -0.07677266746759415,
        0.14718924462795258,
        -0.1083340048789978,
        0.016357174143195152
      ],
      [
        -0.10795217752456665,
        -0.0127753596752882,
        -0.37280145287513733,
        -0.1830725222826004,
        -0.07249193638563156,
        0.10624881088733673,
        -0.6643355488777161
      ],
      [
        0.029059134423732758,
        0.6392757296562195,
        0.41642534732818604,
        -0.00814428273588419,
        -0.039783407002687454,
        0.06689290702342987,
        0.19296762347221375
      ],
      [
        0.43585965037345886,
        0.797541618347168,
        0.551063060760498,
        0.046065110713243484,
        -0.137717142701149,
        -0.08581332862377167,
        0.1503618061542511
      ],
      [
        0.15810371935367584,
        0.06642203778028488,
        -0.48253336548805237,
        -0.17324340343475342,
        -0.15480656921863556,
        0.06110678240656853,
        0.14545409381389618
      ],
      [
        -0.37423476576805115,
        -0.47595879435539246,
        0.0545164979994297,
        -0.3791762888431549,
        -0.12272433936595917,
        -0.20232288539409637,
        -1.2421624660491943
      ],
      [
        -0.15516763925552368,
        -0.11635180562734604,
        -0.9481176137924194,
        -0.015190416015684605,
        0.02562602423131466,
        -0.16417735815048218,
        0.11747632175683975
      ],
      [
        -1.29669189453125,
        0.46027225255966187,
        0.6438316702842712,
        -0.010720946826040745,
        0.22874514758586884,
        0.37937265634536743,
        -0.8245149850845337
      ],
      [
        0.12854790687561035,
        -0.47845718264579773,
        -0.6579057574272156,
        0.14254967868328094,
        -0.17799542844295502,
        -0.06146496534347534,
        -0.32437974214553833
      ],
      [
        -0.03867771849036217,
        -0.7221406698226929,
        0.19116617739200592,
        0.10223811864852905,
        -0.046087801456451416,
        -0.07687408477067947,
        -0.44830578565597534
      ],
      [
        0.7207792401313782,
        -0.2788240611553192,
        0.3145187497138977,
        -0.2822105586528778,
        0.03488685563206673,
        -0.3709506094455719,
        -0.018428457900881767
      ],
      [
        -0.1719369739294052,
        0.022633720189332962,
        -0.03632418066263199,
        -0.07029615342617035,
        -0.05359167233109474,
        0.12034713476896286,
        -0.8476731181144714
      ],
      [
        -0.4122539460659027,
        -0.4844510555267334,
        0.8005495071411133,
        -0.09342179447412491,
        0.12400706857442856,
        0.11422079801559448,
        0.16328956186771393
      ],
      [
        -0.2607012391090393,
        0.08003963530063629,
        0.8384122848510742,
        -0.11105624586343765,
        -0.047091808170080185,
        0.012640933506190777,
        -0.316273033618927
      ],
      [
        -0.1411760151386261,
        0.5052058696746826,
        -0.957259476184845,
        -0.02431665174663067,
        0.16606543958187103,
        0.18404778838157654,
        -0.12737183272838593
      ],
      [
        -0.5207728743553162,
        0.14285852015018463,
        -0.5833260416984558,
        -0.09303713589906693,
        -0.12306961417198181,
        -0.03347216919064522,
        -0.1362084597349167
      ],
      [
        0.047824129462242126,
        -0.4263990819454193,
        0.43290334939956665,
        0.23244711756706238,
        -0.5267055034637451,
        0.5253079533576965,
        -0.04022559896111488
      ],
      [
        -0.2628646194934845,
        -0.031107313930988312,
        -0.09390541911125183,
        0.22411799430847168,
        -0.17790207266807556,
        -0.03518913313746452,
        0.13359534740447998
      ],
      [
        -0.6891800761222839,
        0.08562471717596054,
        -0.6742645502090454,
        0.04050108417868614,
        -0.04404492676258087,
        -0.14542078971862793,
        -0.06654686480760574
      ],
      [
        0.12996987998485565,
        -0.4395766258239746,
        0.387830525636673,
        -0.17314478754997253,
        -0.2628859281539917,
        0.10070136934518814,
        -0.33741995692253113
      ],
      [
        -0.19719268381595612,
        -0.5535504221916199,
        0.09524106979370117,
        0.08568060398101807,
        0.10524363070726395,
        0.03797129541635513,
        -0.2334323525428772
      ],
      [
        -0.31857964396476746,
        0.5947738885879517,
        1.1365963220596313,
        0.02377157285809517,
        -0.09071028977632523,
        -0.2799883186817169,
        -0.4111563265323639
      ],
      [
        0.3335212767124176,
        -0.2773391902446747,
        -0.12123259902000427,
        0.24867652356624603,
        -0.1850511133670807,
        0.06636407971382141,
        0.1704462766647339
      ],
      [
        -0.09479159861803055,
        -0.0653475672006607,
        -1.2587648630142212,
        0.1969265639781952,
        0.06474853307008743,
        0.4022039771080017,
        -0.6549106240272522
      ],
      [
        0.07467645406723022,
        -0.471242755651474,
        0.303679496049881,
        -0.19580146670341492,
        0.09251047670841217,
        0.15008078515529633,
        -0.1100398376584053
      ],
      [
        -0.07304021716117859,
        -0.11420166492462158,
        0.5921376347541809,
        -0.19260011613368988,
        0.10203499346971512,
        -0.0014876052737236023,
        -0.08969529718160629
      ],
      [
        -0.13681842386722565,
        -0.17193767428398132,
        -0.5205615758895874,
        0.050608567893505096,
        -0.1705493927001953,
        -0.08068358153104782,
        -0.14087651669979095
      ],
      [
        0.3086155652999878,
        0.31393587589263916,
        -0.6684356331825256,
        0.03294168785214424,
        0.07987597584724426,
        -0.051329560577869415,
        0.16889232397079468
      ],
      [
        0.2033301144838333,
        -0.318637490272522,
        0.521390974521637,
        0.10091228038072586,
        0.020622342824935913,
        0.00120852782856673,
        0.2512427866458893
      ],
      [
        -0.5253891348838806,
        0.5488432049751282,
        0.2242344617843628,
        0.16542769968509674,
        0.08167115598917007,
        -0.07410445809364319,
        0.00409500440582633
      ],
      [
        -0.4605585038661957,
        0.08474010974168777,
        -0.13393130898475647,
        0.3484688997268677,
        0.20194262266159058,
        -0.27180421352386475,
        -0.05734877660870552
      ],
      [
        0.4942699372768402,
        0.9567252993583679,
        0.6836026906967163,
        0.2219538539648056,
        0.019841661676764488,
        -0.08441144227981567,
        0.4951969087123871
      ],
      [
        0.30404868721961975,
        0.029007086530327797,
        0.4924537241458893,
        0.1674962043762207,
        0.12751221656799316,
        -0.2048257738351822,
        0.18277627229690552
      ],
      [
        -0.1995544582605362,
        0.7971785664558411,
        -0.5959677696228027,
        0.15761643648147583,
        0.057257864624261856,
        0.3702874779701233,
        -0.6168099045753479
      ],
      [
        0.6860683560371399,
        0.3231002986431122,
        0.27913904190063477,
        -0.3820761740207672,
        -0.3850712776184082,
        -0.8189112544059753,
        0.060894131660461426
      ],
      [
        -0.12632396817207336,
        -0.6746638417243958,
        0.5231203436851501,
        -0.19665399193763733,
        -0.0848662480711937,
        0.12008821964263916,
        -0.34532758593559265
      ],
      [
        0.3283020555973053,
        -0.17214907705783844,
        -0.28518179059028625,
        -0.2910510301589966,
        -0.11068688333034515,
        0.3588191568851471,
        0.3565494418144226
      ],
      [
        0.26884883642196655,
        0.8637137413024902,
        0.37937110662460327,
        -0.14908477663993835,
        0.11670073866844177,
        0.28597593307495117,
        0.0757717564702034
      ],
      [
        0.8434509038925171,
        0.20188184082508087,
        0.11821039021015167,
        -0.11485812813043594,
        0.15733052790164948,
        0.024688052013516426,
        0.21185420453548431
      ],
      [
        -0.4485805034637451,
        -0.3179914355278015,
        -0.6341663599014282,
        0.19243501126766205,
        0.06094878911972046,
        -0.06998810172080994,
        -0.2655978500843048
      ],
      [
        0.17244736850261688,
        -0.0411667563021183,
        0.2714579701423645,
        -0.14014451205730438,
        0.33179712295532227,
        0.15283605456352234,
        -0.3611868917942047
      ],
      [
        0.8512492775917053,
        0.5695012807846069,
        -0.36923760175704956,
        0.12238091230392456,
        -0.11457205563783646,
        -0.16639374196529388,
        -0.03303881362080574
      ],
      [
        0.26236608624458313,
        -0.2991534173488617,
        0.37613147497177124,
        -0.0688905194401741,
        -0.053961411118507385,
        -0.08552013337612152,
        0.5851873159408569
      ],
      [
        -0.18745774030685425,
        0.07098402082920074,
        0.6089654564857483,
        0.1688471883535385,
        0.08982972800731659,
        -0.3001115322113037,
        -0.05278545990586281
      ],
      [
        -0.3951968848705292,
        -0.29187965393066406,
        0.4442254602909088,
        -0.2709946036338806,
        0.042189713567495346,
        0.2981235384941101,
        -0.20826515555381775
      ],
      [
        -0.18833942711353302,
        0.5198026895523071,
        -0.1831689029932022,
        -0.11269266158342361,
        0.1415681689977646,
        -0.32544592022895813,
        -0.19465556740760803
      ],
      [
        -0.5938684344291687,
        -0.11551030725240707,
        0.1529873162508011,
        -0.26890766620635986,
        0.20958556234836578,
        -0.2461387813091278,
        0.07967188209295273
      ],
      [
        -0.1727869063615799,
        -0.2825026214122772,
        0.5429619550704956,
        0.07824523001909256,
        0.29399123787879944,
        0.09390087425708771,
        -0.317962110042572
      ],
      [
        0.5028481483459473,
        0.08909563720226288,
        0.20383670926094055,
        -0.2939417362213135,
        -0.017247965559363365,
        -0.5164205431938171,
        -0.0883021280169487
      ],
      [
        -0.23729915916919708,
        -0.9493447542190552,
        0.8165590167045593,
        0.17891541123390198,
        -0.018454203382134438,
        -0.1685098111629486,
        -1.2049938440322876
      ],
      [
        -0.2868180274963379,
        -0.46375811100006104,
        0.8714542984962463,
        0.10161380469799042,
        -0.057321276515722275,
        0.13233232498168945,
        -0.24987177550792694
      ],
      [
        -0.6075066924095154,
        0.26103729009628296,
        -0.3335771858692169,
        0.16425509750843048,
        -0.13971352577209473,
        -0.16705231368541718,
        -0.1902223378419876
      ],
      [
        0.19741813838481903,
        -0.27677008509635925,
        0.6393285989761353,
        0.15713997185230255,
        0.14758461713790894,
        -0.019531045109033585,
        -0.053016576915979385
      ],
      [
        -0.1243593841791153,
        -0.09103050827980042,
        0.38506606221199036,
        -0.12034163624048233,
        0.10710343718528748,
        0.13442189991474152,
        -0.8849968314170837
      ],
      [
        -0.19194546341896057,
        0.2290584146976471,
        0.7015476822853088,
        -0.23128697276115417,
        0.1487223356962204,
        0.20241810381412506,
        0.26368972659111023
      ],
      [
        0.5794507265090942,
        -0.3872951567173004,
        -0.6533166766166687,
        0.08214730024337769,
        -0.029111642390489578,
        0.04277300834655762,
        -0.02507030963897705
      ],
      [
        0.4438394606113434,
        -0.0467349998652935,
        -0.265573114156723,
        0.06820669770240784,
        0.11705280095338821,
        -0.2323174923658371,
        0.10063900053501129
      ],
      [
        1.0671606063842773,
        -0.006288703065365553,
        0.16853217780590057,
        -0.18892908096313477,
        0.13353365659713745,
        -0.4042978882789612,
        -0.23333947360515594
      ],
      [
        0.1455647200345993,
        2.0175676345825195,
        0.21534082293510437,
        -0.11099795997142792,
        -0.013812985271215439,
        0.21270190179347992,
        0.6930259466171265
      ],
      [
        -0.5562319159507751,
        -0.10075969249010086,
        0.007683686446398497,
        0.01791047491133213,
        -0.07278060168027878,
        -0.17918263375759125,
        -0.1710754781961441
      ],
      [
        0.11920981109142303,
        -0.008185557089745998,
        1.0629751682281494,
        -0.10033220052719116,
        -0.05426272377371788,
        0.1256842464208603,
        0.35431692004203796
      ],
      [
        0.05917239934206009,
        -0.2845589220523834,
        -0.4280911087989807,
        0.10692790150642395,
        -0.06016630679368973,
        -0.5876185297966003,
        2.114356517791748
      ],
      [
        -0.423238605260849,
        -0.18806250393390656,
        0.29298174381256104,
        -0.09134369343519211,
        -0.0670306533575058,
        0.2529508173465729,
        0.035559918731451035
      ]
    ],
    "net.0.bias": [
      -0.4268778860569,
      -0.13797727227210999,
      -0.12273508310317993,
      0.2467416524887085,
      -0.409533828496933,
      0.17535364627838135,
      -0.20087431371212006,
      -0.10667656362056732,
      0.2536488473415375,
      0.17223460972309113,
      0.6815872192382812,
      -0.048187680542469025,
      0.0821167454123497,
      -0.10859601199626923,
      -0.0657336637377739,
      0.37545955181121826,
      -0.1998201161623001,
      -0.28505492210388184,
      0.18176035583019257,
      0.312908798456192,
      0.13378271460533142,
      -0.24040889739990234,
      -0.4975031614303589,
      0.15666204690933228,
      -0.24850472807884216,
      -0.07713104784488678,
      0.043809372931718826,
      0.31272098422050476,
      0.22745931148529053,
      0.13581061363220215,
      0.01487075723707676,
      -0.42585816979408264,
      -0.3397109806537628,
      0.44195085763931274,
      0.28788068890571594,
      0.11758611351251602,
      -0.30397164821624756,
      0.0731034129858017,
      0.39661550521850586,
      0.4987512230873108,
      -0.2978130578994751,
      -0.20681801438331604,
      -0.23926255106925964,
      0.2844628393650055,
      -0.06753077358007431,
      -0.07468406111001968,
      0.17868106067180634,
      -0.26470592617988586,
      -0.01860414817929268,
      0.10239291936159134,
      -0.30297595262527466,
      -0.5259234309196472,
      0.26581600308418274,
      -0.02402927167713642,
      0.13329505920410156,
      0.3240727484226227,
      0.07874087989330292,
      0.16722552478313446,
      0.46226775646209717,
      0.22483575344085693,
      -0.08670790493488312,
      0.19223859906196594,
      -0.20274119079113007,
      -0.6253345012664795,
      -0.3796859383583069,
      -0.29309478402137756,
      0.5448045134544373,
      -0.2353319674730301,
      -0.40579360723495483,
      0.06991463899612427,
      0.3484303057193756,
      0.10359517484903336,
      0.0027633365243673325,
      0.10884582996368408,
      0.31371864676475525,
      -0.031716398894786835,
      -0.2082923799753189,
      -0.2806263267993927,
      -0.6912399530410767,
      0.12534721195697784
    ],
    "net.2.weight": [
      [
        -0.08815257996320724,
        0.0033135616686195135,
        -0.00630936911329627,
        0.14102290570735931,
        -0.2145577222108841,
        0.31493934988975525,
        -0.06623157113790512,
        0.3093876838684082,
        -0.13321265578269958,
        -0.02838733233511448,
        0.33612456917762756,
        -0.10006663203239441,
        0.2192242443561554,
        -0.011309515684843063,
        0.013452878221869469,
        -0.34115371108055115,
        -0.11006031185388565,
        0.030807988718152046,
        -0.12587931752204895,
        0.06399958580732346,
        -0.046508580446243286,
        0.004303649067878723,
        0.35775864124298096,
        -0.39607322216033936,
        0.3374224901199341,
        0.09108913689851761,
        -0.0005700636538676918,
        0.20684659481048584,
        -0.1531011313199997,
        0.11481320858001709,
        0.007501944433897734,
        -0.07961983233690262,
        -0.09804753214120865,
        0.2876485288143158,
        0.06100919470191002,
        -0.013009775429964066,
        0.08094732463359833,
        0.0010043010115623474,
        0.052341610193252563,
        0.04396962374448776,
        0.22803105413913727,
        0.01975446753203869,
        -0.022627471014857292,
        -0.029292581602931023,
        -0.07539694756269455,
        0.18608734011650085,
        0.0016271240310743451,
        -0.22932840883731842,
        -0.020740361884236336,
        0.06590922921895981,
        0.10076077282428741,
        -0.2222929149866104,
        0.09289013594388962,
        0.13460372388362885,
        0.090065136551857,
        0.03612120449542999,
        0.03584960848093033,
        -0.011303561739623547,
        0.08045979589223862,
        -0.00965381134301424,
        0.0193575881421566,
        0.12048064917325974,
        -0.09978187829256058,
        -0.12410888820886612,
        0.03509276360273361,
        -0.047620318830013275,
        -0.31213054060935974,
        0.23850169777870178,
        -0.1283382773399353,
        0.14154645800590515,
        -0.13937832415103912,
        -0.04588143900036812,
        -0.12649622559547424,
        -0.04227564483880997,
        0.27180641889572144,
        -0.07004021853208542,
        -0.03685642033815384,
        0.23174066841602325,
        0.5399699807167053,
        0.142729714512825
      ],
      [
        0.1744745522737503,
        -0.10698997974395752,
        -0.020447630435228348,
        -0.164079487323761,
        0.018113913014531136,
        0.0021194014698266983,
        0.2526407837867737,
        -0.27367299795150757,
        0.1395598202943802,
        -0.10688899457454681,
        -0.05293141305446625,
        0.20868687331676483,
        -0.11667994409799576,
        -0.05626758933067322,
        -0.07485215365886688,
        0.37647154927253723,
        0.021147483959794044,
        -0.1163523942232132,
        0.10640023648738861,
        -0.2071036398410797,
        -0.30067378282546997,
        0.09627709537744522,
        0.04205935820937157,
        0.405915230512619,
        0.08958838880062103,
        0.1360943466424942,
        0.0742800161242485,
        -0.12018391489982605,
        0.12343579530715942,
        -0.11003512889146805,
        -0.18542343378067017,
        0.18084442615509033,
        0.23682308197021484,
        -0.022944500669836998,
        0.010372497141361237,
        0.3312366306781769,
        -0.06267254799604416,
        0.0925837978720665,
        -0.23961742222309113,
        -0.07444972544908524,
        0.11785825341939926,
        0.01130689401179552,
        -0.08385589718818665,
        0.13065983355045319,
        0.08566068112850189,
        -0.18989117443561554,
        -0.03248823434114456,
        0.17191508412361145,
        -0.34019359946250916,
        -0.1861102432012558,
        0.1771843284368515,
        -0.04409575089812279,
        -0.007456109393388033,
        0.04695357009768486,
        -0.11645311862230301,
        -0.19428890943527222,
        0.2672407031059265,
        -0.10592899471521378,
        0.01572059467434883,
        -0.25431734323501587,
        -0.12395330518484116,
        0.08565821498632431,
        0.045237984508275986,
        0.07701470702886581,
        -0.00314120901748538,
        -0.08278299123048782,
        -0.0003914472763426602,
        -0.142814040184021,
        0.10965419560670853,
        -0.1169424057006836,
        -0.02919568307697773,
        -0.04754182696342468,
        0.16602963209152222,
        -0.014191281981766224,
        -0.08114606887102127,
        -0.15465979278087616,
        0.08112423866987228,
        -0.35531511902809143,
        -0.049760494381189346,
        -0.016990654170513153
      ],
      [
        0.09003274142742157,
        -0.05507844686508179,
        0.206209197640419,
        -0.1452484130859375,
        0.1585799604654312,
        0.20625555515289307,
        0.1116882786154747,
        0.004728306084871292,
        -0.009380658157169819,
        -0.08848720788955688,
        -0.04696979746222496,
        0.054018959403038025,
        -0.10925038158893585,
        -0.12338177859783173,
        0.2439059466123581,
        -0.21164961159229279,
        0.0858205258846283,
        0.15935716032981873,
        0.10140138119459152,
        0.04209033027291298,
        0.1081802248954773,
        -0.030257869511842728,
        0.025848953053355217,
        -0.13657915592193604,
        0.22227595746517181,
        -0.07500451803207397,
        0.0011811137665063143,
        -0.12054867297410965,
        0.19568809866905212,
        0.08082857728004456,
        0.4042496681213379,
        0.03482930362224579,
        0.14209000766277313,
        -0.060980893671512604,
        -0.09127610921859741,
        0.11546538770198822,
        0.008682132698595524,
        0.03962156921625137,
        0.2885890603065491,
        -0.03299799934029579,
        0.01732792891561985,
        0.062427397817373276,
        0.11029043048620224,
        -0.037068188190460205,
        -0.20932911336421967,
        -0.18277457356452942,
        0.04008028656244278,
        0.16040222346782684,
        0.0036721485666930676,
        -0.12410839647054672,
        0.18207770586013794,
        0.039699096232652664,
        -0.021542459726333618,
        -0.21344511210918427,
        0.04994303733110428,
        -0.21935853362083435,
        0.04193361848592758,
        -0.03955078125,
        -0.10182254761457443,
        -0.3053480386734009,
        0.1503557413816452,
        0.2675534188747406,
        0.00858097430318594,
        0.12416784465312958,
        0.2015436589717865,
        -0.07985550165176392,
        0.1264389008283615,
        0.1134665310382843,
        0.1606627255678177,
        -0.07280554622411728,
        0.09794072806835175,
        0.06064203754067421,
        -0.37075698375701904,
        -0.19527846574783325,
        -0.05228478088974953,
        0.13947992026805878,
        0.20330464839935303,
        0.19790078699588776,
        -0.10640213638544083,
        0.0987042486667633
      ],
      [
        -0.05166817456483841,
        -0.06730347126722336,
        -0.19846753776073456,
        0.1461097151041031,
        -0.06800182908773422,
        -0.010450167581439018,
        0.09945083409547806,
        -0.07708574086427689,
        0.0030475198291242123,
        0.1701415628194809,
        0.108523428440094,
        0.11048800498247147,
        0.11941032856702805,
        0.16319642961025238,
        -0.2028714418411255,
        0.2163054645061493,
        -0.1917150616645813,
        -0.08380267769098282,
        -0.010647947899997234,
        0.10862752795219421,
        0.15490905940532684,
        0.10335594415664673,
        0.19204600155353546,
        0.03436589241027832,
        0.154962956905365,
        0.0012779124081134796,
        -0.1924789845943451,
        0.04804408922791481,
        -0.08676734566688538,
        -0.23176324367523193,
        -0.10827533155679703,
        0.0705660730600357,
        -0.008825833909213543,
        0.15614040195941925,
        0.08373041450977325,
        0.19410330057144165,
        -0.06984963268041611,
        -0.17565526068210602,
        -0.05064522847533226,
        0.05657854303717613,
        0.14562739431858063,
        -0.13682156801223755,
        -0.1635579764842987,
        0.08864888548851013,
        0.2872273921966553,
        -0.09139274805784225,
        0.05514160916209221,
        -0.1846601366996765,
        0.11641458421945572,
        0.008159000426530838,
        0.10293807834386826,
        -0.18639130890369415,
        -0.12062233686447144,
        0.11521173268556595,
        0.21886011958122253,
        0.2064664661884308,
        0.043505460023880005,
        -0.09339278936386108,
        0.2564578950405121,
        -0.13614362478256226,
        -0.12491592764854431,
        -0.20353999733924866,
        -0.0799831822514534,
        -0.07857953011989594,
        -0.14486569166183472,
        -0.005700019653886557,
        -0.45438605546951294,
        -0.2517162561416626,
        -0.04691474512219429,
        0.001713173696771264,
        -0.13310888409614563,
        -0.043751079589128494,
        0.016628269106149673,
        0.0450708270072937,
        0.14730070531368256,
        0.1681276112794876,
        -0.06363847106695175,
        -0.14246991276741028,
        0.21066661179065704,
        -0.051276545971632004
      ]
    ],
    "net.2.bias": [
      -0.06442619860172272,
      -0.012510562315583229,
      0.08447407186031342,
      -0.08781443536281586
    ]
  },
  "F2": {
    "n_in": 4,
    "n_hid": 60,
    "n_out": 4,
    "activation": "tanh",
    "net.0.weight": [
      [
        -0.04355635493993759,
        0.12420283257961273,
        0.47385892271995544,
        -0.06297646462917328
      ],
      [
        -0.07457749545574188,
        -0.1465592384338379,
        -0.025068337097764015,
        0.13680942356586456
      ],
      [
        -0.48562151193618774,
        -0.04400701820850372,
        -0.654073178768158,
        0.6947012543678284
      ],
      [
        -0.12990280985832214,
        0.3773445785045624,
        0.017580853775143623,
        -0.44000551104545593
      ],
      [
        0.25196537375450134,
        0.18353010714054108,
        0.3288244307041168,
        0.18122349679470062
      ],
      [
        -0.547502875328064,
        0.4010356664657593,
        0.010466129519045353,
        -0.31450191140174866
      ],
      [
        0.2576320171356201,
        0.5195481181144714,
        -0.4109048843383789,
        0.04506194591522217
      ],
      [
        0.6447651386260986,
        0.0277557335793972,
        0.4994502067565918,
        -0.039503831416368484
      ],
      [
        -1.4392322301864624,
        1.0485279560089111,
        0.39741086959838867,
        -0.1921921819448471
      ],
      [
        -0.30887362360954285,
        -0.34681111574172974,
        -0.013578683137893677,
        -0.2618635594844818
      ],
      [
        0.13427038490772247,
        0.39664873480796814,
        -0.04475082457065582,
        0.021515345200896263
      ],
      [
        0.18670471012592316,
        -0.24760200083255768,
        0.35485315322875977,
        -0.2573341727256775
      ],
      [
        -0.47251132130622864,
        0.11531886458396912,
        0.5035657286643982,
        0.131740540266037
      ],
      [
        0.18324600160121918,
        -0.3230850100517273,
        0.3345224857330322,
        -0.038527339696884155
      ],
      [
        0.2743362486362457,
        0.35965901613235474,
        0.22801333665847778,
        -0.0250866636633873
      ],
      [
        -0.07783591002225876,
        -0.2526867091655731,
        -0.24749360978603363,
        0.3174254894256592
      ],
      [
        -0.0540740005671978,
        0.22505339980125427,
        -0.10205510258674622,
        -0.07485312223434448
      ],
      [
        0.0822281762957573,
        -0.3956378400325775,
        0.24410824477672577,
        -0.14902609586715698
      ],
      [
        -0.057912226766347885,
        -0.12728741765022278,
        0.23691698908805847,
        0.26929181814193726
      ],
      [
        -0.2863749861717224,
        0.05480945110321045,
        -0.27476179599761963,
        -1.0309113264083862
      ],
      [
        0.03518892079591751,
        0.09484321624040604,
        -0.42834797501564026,
        -0.2683508098125458
      ],
      [
        -0.25146451592445374,
        0.07206757366657257,
        -0.3795231580734253,
        -0.6843584775924683
      ],
      [
        0.01806805282831192,
        -0.34736043214797974,
        -0.28573283553123474,
        -0.20109589397907257
      ],
      [
        -0.25088006258010864,
        -0.48586273193359375,
        -0.33439335227012634,
        -0.23767584562301636
      ],
      [
        -0.8605619072914124,
        -0.02299310825765133,
        -0.45915746688842773,
        -0.5113990306854248
      ],
      [
        0.18536554276943207,
        -0.4225625991821289,
        -0.3471037447452545,
        0.28002747893333435
      ],
      [
        -0.06922253966331482,
        0.6475657820701599,
        -0.033371783792972565,
        -0.22166220843791962
      ],
      [
        -0.0632815882563591,
        0.010295686312019825,
        0.3162934184074402,
        -0.5083963871002197
      ],
      [
        -0.021148230880498886,
        0.18617388606071472,
        -0.25012078881263733,
        -0.17415955662727356
      ],
      [
        0.4206996262073517,
        -0.4933786392211914,
        0.04334881529211998,
        -0.41347020864486694
      ],
      [
        0.25481438636779785,
        -0.3714657425880432,
        0.20324058830738068,
        -0.19721679389476776
      ],
      [
        -0.42601314187049866,
        -0.01708618551492691,
        0.15394359827041626,
        -0.5437894463539124
      ],
      [
        -0.31047332286834717,
        0.3733797073364258,
        -0.0738515704870224,
        0.3246661126613617
      ],
      [
        -0.4871250092983246,
        -0.04921237751841545,
        -0.3550598621368408,
        0.36384427547454834
      ],
      [
        0.11018111556768417,
        -0.3142082691192627,
        0.058426760137081146,
        0.059624992311000824
      ],
      [
        -0.24059011042118073,
        -0.3215734362602234,
        -0.1657465100288391,
        0.22259077429771423
      ],
      [
        -0.5783843994140625,
        -0.23259714245796204,
        -0.3854491412639618,
        0.09179754555225372
      ],
      [
        0.1050419881939888,
        0.06641317158937454,
        -0.2692919373512268,
        -0.27898532152175903
      ],
      [
        -0.2644161581993103,
        -0.1018989160656929,
        0.30823957920074463,
        -0.8764733076095581
      ],
      [
        -0.3158184289932251,
        -0.44520455598831177,
        -0.09009811282157898,
        0.46333232522010803
      ],
      [
        0.641248881816864,
        -0.6725495457649231,
        0.02028162032365799,
        -0.061366237699985504
      ],
      [
        0.1770392656326294,
        0.4716784358024597,
        -0.07147818803787231,
        -0.1275164932012558
      ],
      [
        0.3887636065483093,
        -0.09274780750274658,
        0.1326526701450348,
        0.08564946800470352
      ],
      [
        0.16436704993247986,
        0.5447316765785217,
        1.005536675453186,
        -0.5026122331619263
      ],
      [
        -0.37138986587524414,
        -0.1683858186006546,
        -0.3645561635494232,
        0.6612097024917603
      ],
      [
        0.1734088957309723,
        -0.567369282245636,
        -0.16874879598617554,
        -0.6010358333587646
      ],
      [
        0.27649787068367004,
        -1.046147108078003,
        -0.5533881783485413,
        -0.5389329195022583
      ],
      [
        0.11506945639848709,
        0.3749074935913086,
        -0.33701303601264954,
        0.1483210027217865
      ],
      [
        0.3114135265350342,
        0.08931799978017807,
        -0.16040794551372528,
        -0.12776881456375122
      ],
      [
        0.06539513170719147,
        0.11675826460123062,
        -0.3659810721874237,
        0.4071080684661865
      ],
      [
        0.17356981337070465,
        -0.21455241739749908,
        0.3158281445503235,
        0.4754370450973511
      ],
      [
        -0.18568630516529083,
        -0.06653151661157608,
        0.5085799694061279,
        -0.5453578233718872
      ],
      [
        0.07519977539777756,
        0.16281063854694366,
        0.4729689061641693,
        -0.7307170033454895
      ],
      [
        -0.44710272550582886,
        0.3559013605117798,
        0.2312822788953781,
        -0.3180534839630127
      ],
      [
        -0.22335606813430786,
        -0.8050757050514221,
        -0.7511799335479736,
        -0.12329946458339691
      ],
      [
        0.48923301696777344,
        -0.1825062334537506,
        0.2656044065952301,
        0.2920035123825073
      ],
      [
        0.03802686184644699,
        -0.3403014540672302,
        0.20846812427043915,
        0.23255512118339539
      ],
      [
        0.3267202377319336,
        -0.45714548230171204,
        0.3755703866481781,
        0.2877510190010071
      ],
      [
        -0.4297613501548767,
        0.03749953582882881,
        0.2892395555973053,
        -0.24601507186889648
      ],
      [
        0.14229950308799744,
        0.2326393723487854,
        0.058967433869838715,
        0.5026741027832031
      ]
    ],
    "net.0.bias": [
      0.5316506028175354,
      0.4780701994895935,
      -0.2185584157705307,
      0.3599618971347809,
      -0.653512716293335,
      -0.32946813106536865,
      -0.12659090757369995,
      -0.29768672585487366,
      0.10232128202915192,
      0.4499470889568329,
      0.3046394884586334,
      0.5899637937545776,
      -0.5311563611030579,
      -0.19856686890125275,
      0.16136658191680908,
      0.27062779664993286,
      0.24409209191799164,
      -0.261325865983963,
      -0.2406923472881317,
      0.21522191166877747,
      -0.02225353568792343,
      -0.08781307190656662,
      0.36289578676223755,
      0.30133381485939026,
      0.03422660753130913,
      -0.2488546073436737,
      -0.41734397411346436,
      -0.5515742301940918,
      0.2068369835615158,
      -0.29440298676490784,
      0.7135502099990845,
      -0.3174518644809723,
      0.032028522342443466,
      0.23292656242847443,
      0.28388044238090515,
      0.21423500776290894,
      0.33107686042785645,
      0.42865875363349915,
      0.01839865930378437,
      -0.392300009727478,
      -0.47116032242774963,
      0.018744539469480515,
      0.5323613882064819,
      0.13413095474243164,
      0.06954440474510193,
      -0.32607248425483704,
      -0.1637420803308487,
      0.1461534947156906,
      -0.5393732190132141,
      -0.20872169733047485,
      0.7351883053779602,
      -0.015105053782463074,
      0.1898707151412964,
      -0.03320720046758652,
      0.018536511808633804,
      -0.331027626991272,
      -0.4455370604991913,
      0.32314056158065796,
      -0.11898639798164368,
      -0.33688804507255554
    ],
    "net.2.weight": [
      [
        -0.14911039173603058,
        -0.18295510113239288,
        -0.016610272228717804,
        -0.2168678492307663,
        0.07458082586526871,
        0.008164902217686176,
        0.13806302845478058,
        -0.07813561707735062,
        0.269429475069046,
        0.006246210541576147,
        -0.01774495840072632,
        0.0921672061085701,
        -0.19518209993839264,
        -0.029838833957910538,
        -0.05516505986452103,
        0.035285718739032745,
        -0.06642888486385345,
        -0.036711614578962326,
        0.11985234171152115,
        -0.012083279900252819,
        -0.15024518966674805,
        0.03768434748053551,
        -0.10363289713859558,
        0.12176492810249329,
        0.10874954611063004,
        0.05741552263498306,
        0.06123749911785126,
        0.1402847021818161,
        -0.03286571055650711,
        -0.2345762550830841,
        0.30809828639030457,
        0.04741758480668068,
        0.05963505804538727,
        0.130305677652359,
        -0.012318423949182034,
        0.05435080826282501,
        0.022399118170142174,
        0.0742805153131485,
        0.13402344286441803,
        -0.051851626485586166,
        -0.418704628944397,
        0.12817758321762085,
        -0.07102244347333908,
        0.04688005894422531,
        -0.16820742189884186,
        -0.019566575065255165,
        0.007690866012126207,
        0.02385382167994976,
        0.05313582718372345,
        0.031087880954146385,
        -0.021188532933592796,
        0.009844470769166946,
        -0.025893928483128548,
        0.01812812127172947,
        -0.11520238220691681,
        -0.06475109606981277,
        0.07892326265573502,
        0.21845847368240356,
        0.06833139061927795,
        -0.07443296909332275
      ],
      [
        -0.14015495777130127,
        0.12277545034885406,
        0.1504470556974411,
        0.16844290494918823,
        -0.00828241091221571,
        0.2199946492910385,
        0.3625933527946472,
        -0.17129701375961304,
        -0.35200467705726624,
        -0.08335021138191223,
        0.12916961312294006,
        0.06350364536046982,
        0.13241732120513916,
        -0.2063056379556656,
        -0.01986827701330185,
        0.05294908955693245,
        0.14532819390296936,
        -0.12804466485977173,
        0.03349898383021355,
        -0.08297577500343323,
        0.06616225838661194,
        -0.18467190861701965,
        0.11379791051149368,
        0.016111331060528755,
        -0.19142961502075195,
        -0.18748226761817932,
        0.3969060480594635,
        -0.0948590412735939,
        0.07932691276073456,
        -0.15324784815311432,
        0.0006155855371616781,
        0.03528458997607231,
        -0.020474722608923912,
        -0.12030499428510666,
        -0.36752453446388245,
        -0.014069582335650921,
        -0.025806674733757973,
        0.03291691094636917,
        0.17779600620269775,
        -0.05373845249414444,
        -0.029802635312080383,
        0.005725658033043146,
        -0.12687398493289948,
        0.08098004013299942,
        0.07172776013612747,
        -0.18861833214759827,
        0.0454220175743103,
        0.10211917757987976,
        -0.09460058063268661,
        -0.14270837604999542,
        -0.14191097021102905,
        0.20836341381072998,
        -0.09619499742984772,
        0.5615777969360352,
        0.11265699565410614,
        -0.002690301975235343,
        -0.03897547721862793,
        0.091901496052742,
        0.12197189033031464,
        -0.09119126945734024
      ],
      [
        -0.06379693001508713,
        -0.07831226289272308,
        0.07790754735469818,
        0.07223515212535858,
        0.2873501479625702,
        -0.08044364303350449,
        0.12835460901260376,
        -0.2130623608827591,
        0.007357623893767595,
        -0.25911328196525574,
        -0.06281474232673645,
        0.024474024772644043,
        -0.0960090309381485,
        -0.05145316198468208,
        0.026156658306717873,
        -0.08720085024833679,
        -0.01589144580066204,
        -0.09120384603738785,
        0.004012088757008314,
        0.18581917881965637,
        0.09830722212791443,
        0.15506349503993988,
        0.037962138652801514,
        -0.038914620876312256,
        0.38745230436325073,
        0.11756308376789093,
        -0.052175525575876236,
        -0.039667464792728424,
        -0.0462522953748703,
        -0.10053715854883194,
        0.0609709657728672,
        0.060245636850595474,
        0.1503552496433258,
        0.14280661940574646,
        0.009569075889885426,
        -0.013322643004357815,
        0.10962264984846115,
        0.12286028265953064,
        0.11682463437318802,
        -0.08564619719982147,
        0.03913663700222969,
        -0.028776828199625015,
        0.09885377436876297,
        0.16201722621917725,
        0.08505793660879135,
        -0.16932541131973267,
        -0.2504740357398987,
        0.0007217625970952213,
        -0.03509077429771423,
        -0.0752321258187294,
        -0.005661941599100828,
        0.0666513592004776,
        0.10187927633523941,
        -0.08859816938638687,
        -0.28747063875198364,
        -0.05896947160363197,
        -0.034648485481739044,
        -0.019979184493422508,
        -0.024810723960399628,
        -0.001450634328648448
      ],
      [
        -0.045021507889032364,
        0.11570914834737778,
        -0.009258057922124863,
        -0.006208647973835468,
        0.06222474202513695,
        -0.09201011061668396,
        0.010577999986708164,
        -0.09179530292749405,
        0.00010239980474580079,
        0.037747856229543686,
        -0.030379870906472206,
        -0.04927248880267143,
        0.030895523726940155,
        0.064377561211586,
        -0.11995118111371994,
        -0.10556590557098389,
        0.05517693981528282,
        0.059276971966028214,
        -0.11947783827781677,
        -0.02503899671137333,
        -0.04022432491183281,
        -0.12310142815113068,
        0.07397808879613876,
        -0.07068614661693573,
        0.019947608932852745,
        0.05596455559134483,
        0.0016738212434574962,
        -0.0064755710773169994,
        -0.007551590912044048,
        0.06735096126794815,
        0.020914802327752113,
        -0.008617550134658813,
        0.12385102361440659,
        -0.08644656836986542,
        0.026414602994918823,
        0.055574774742126465,
        -0.04552573710680008,
        0.1545807123184204,
        -0.03198637813329697,
        -0.08932693302631378,
        -0.0222922433167696,
        -0.030628420412540436,
        -0.09069576859474182,
        -0.013729490339756012,
        0.07194255292415619,
        -0.004336089827120304,
        0.03459864482283592,
        0.008703130297362804,
        -0.059920426458120346,
        -0.04294570907950401,
        -0.10914973169565201,
        -0.07111351191997528,
        0.07945172488689423,
        0.03554849326610565,
        -0.04868321865797043,
        -0.044658832252025604,
        0.038205355405807495,
        -0.03418383747339249,
        -0.009392738342285156,
        -0.13196071982383728
      ]
    ],
    "net.2.bias": [
      -0.12622717022895813,
      0.0812096893787384,
      -0.12201244384050369,
      -0.02552489936351776
    ]
  }
}