{
  "name": "PV1",
  "type": "F1+H1+F2",
  "t_step": 0.001,
  "normfacs": {
    "T": {
      "scale": 20.003402709960938,
      "offset": 25.001075744628906
    },
    "G": {
      "scale": 999.9949951171875,
      "offset": 509.05596923828125
    },
    "Fc": {
      "scale": 9.999828338623047,
      "offset": 60.002323150634766
    },
    "Md": {
      "scale": 0.40000206232070923,
      "offset": 1.000035285949707
    },
    "Mq": {
      "scale": 0.4000000059604645,
      "offset": 0.0010394658893346786
    },
    "Vrms": {
      "scale": 546.6259155273438,
      "offset": 412.7568054199219
    },
    "GVrms": {
      "scale": 546.6232299804688,
      "offset": 236.25889587402344
    },
    "Ctl": {
      "scale": 1.0,
      "offset": 0.7490000128746033
    },
    "Vdc": {
      "scale": 439.7894592285156,
      "offset": 338.009033203125
    },
    "Idc": {
      "scale": 292.8359680175781,
      "offset": 131.6025390625
    },
    "Id": {
      "scale": 189.638916015625,
      "offset": 87.11183166503906
    },
    "Iq": {
      "scale": 67.69577026367188,
      "offset": -1.8766822814941406
    }
  },
  "lr": 0.001,
  "num_iter": 1000,
  "print_freq": 10,
  "batch_size": 210,
  "n_skip": 1,
  "n_trunc": 0,
  "n_dec": 1,
  "n_loss_skip": 20,
  "na": 4,
  "nb": 4,
  "nk": 0,
  "activation": "tanh",
  "nh1": 80,
  "nh2": 60,
  "COL_T": [
    "t"
  ],
  "COL_Y": [
    "Vdc",
    "Idc",
    "Id",
    "Iq"
  ],
  "COL_U": [
    "T",
    "G",
    "Fc",
    "Md",
    "Mq",
    "Vrms",
    "GVrms",
    "Ctl"
  ],
  "H1": {
    "n_in": 4,
    "n_out": 4,
    "n_b": 4,
    "n_a": 4,
    "n_k": 0,
    "a_0_0": [
      -0.04827860742807388,
      -0.05110597237944603,
      -0.0452130101621151,
      -0.04752510040998459
    ],
    "b_0_0": [
      -0.04721662774682045,
      -0.04976566135883331,
      -0.054238609969615936,
      -0.05890272930264473
    ],
    "a_0_1": [
      -0.009311476722359657,
      0.00698766577988863,
      -0.0009104140917770565,
      -0.0031613537576049566
    ],
    "b_0_1": [
      0.02254631370306015,
      0.029472069814801216,
      0.016615362837910652,
      0.015922103077173233
    ],
    "a_0_2": [
      0.015112831257283688,
      0.016183558851480484,
      0.00023117814271245152,
      0.008248735219240189
    ],
    "b_0_2": [
      0.011602066457271576,
      0.003129586111754179,
      0.001538648852147162,
      0.0063783866353333
    ],
    "a_0_3": [
      -0.08172480762004852,
      -0.08528243750333786,
      -0.07999839633703232,
      -0.09115050733089447
    ],
    "b_0_3": [
      -0.06873913109302521,
      -0.07572464644908905,
      -0.07285358011722565,
      -0.06508904695510864
    ],
    "a_1_0": [
      -0.0888863280415535,
      -0.0740668997168541,
      -0.07785088568925858,
      -0.07181651890277863
    ],
    "b_1_0": [
      -0.07666455209255219,
      -0.06810244172811508,
      -0.07266096025705338,
      -0.07268992811441422
    ],
    "a_1_1": [
      -0.07983158528804779,
      -0.08125606924295425,
      -0.0752430260181427,
      -0.08276328444480896
    ],
    "b_1_1": [
      0.0699601024389267,
      0.057823773473501205,
      0.05747201293706894,
      0.07032210379838943
    ],
    "a_1_2": [
      -0.04073342680931091,
      -0.036888621747493744,
      -0.04143518954515457,
      -0.04436176270246506
    ],
    "b_1_2": [
      0.049392055720090866,
      0.056407373398542404,
      0.04437066614627838,
      0.041922926902770996
    ],
    "a_1_3": [
      -0.034894559532403946,
      -0.04586192965507507,
      -0.02938973344862461,
      -0.048769306391477585
    ],
    "b_1_3": [
      -0.045146893709897995,
      -0.04385983943939209,
      -0.035962022840976715,
      -0.053215641528367996
    ],
    "a_2_0": [
      -0.02374010905623436,
      -0.017004268243908882,
      -0.006927270442247391,
      -0.01452383492141962
    ],
    "b_2_0": [
      0.028226524591445923,
      0.033734820783138275,
      0.0241584200412035,
      0.02491600811481476
    ],
    "a_2_1": [
      -0.0211959145963192,
      -0.032609060406684875,
      -0.02185325138270855,
      -0.02681947499513626
    ],
    "b_2_1": [
      -0.02501668967306614,
      -0.039635464549064636,
      -0.027870114892721176,
      -0.038148265331983566
    ],
    "a_2_2": [
      -0.20541486144065857,
      -0.1953139752149582,
      -0.19078980386257172,
      -0.18853342533111572
    ],
    "b_2_2": [
      -0.1488105207681656,
      -0.16080404818058014,
      -0.14458522200584412,
      -0.15867863595485687
    ],
    "a_2_3": [
      -0.008281254209578037,
      -0.014359630644321442,
      -0.012148126028478146,
      -0.002493970561772585
    ],
    "b_2_3": [
      0.019824063405394554,
      0.028502237051725388,
      0.03637203574180603,
      0.02007797732949257
    ],
    "a_3_0": [
      -0.04400920122861862,
      -0.03266502916812897,
      -0.041827231645584106,
      -0.03926413506269455
    ],
    "b_3_0": [
      0.042004913091659546,
      0.05430043116211891,
      0.04298245534300804,
      0.048036545515060425
    ],
    "a_3_1": [
      -0.1725771129131317,
      -0.18024565279483795,
      -0.16957969963550568,
      -0.16900664567947388
    ],
    "b_3_1": [
      -0.10199795663356781,
      -0.09452536702156067,
      -0.09554244577884674,
      -0.08119869232177734
    ],
    "a_3_2": [
      -0.01117064617574215,
      -0.012024400755763054,
      -0.0018648795085027814,
      -0.002067775232717395
    ],
    "b_3_2": [
      0.007523308042436838,
      -0.003880717558786273,
      0.005148088559508324,
      0.0036183681804686785
    ],
    "a_3_3": [
      -0.02468237094581127,
      -0.013111403211951256,
      -0.025464462116360664,
      -0.02600894309580326
    ],
    "b_3_3": [
      -0.03658093139529228,
      -0.038497861474752426,
      -0.03646928071975708,
      -0.025684205815196037
    ]
  },
  "F1": {
    "n_in": 8,
    "n_hid": 80,
    "n_out": 4,
    "activation": "tanh",
    "net.0.weight": [
      [
        -0.0010167984291911125,
        0.21706530451774597,
        -0.3343600332736969,
        -0.15112459659576416,
        -0.500800371170044,
        0.07264076173305511,
        -0.03360174968838692,
        0.24843290448188782
      ],
      [
        -0.07261388003826141,
        0.10000768303871155,
        -0.11688137799501419,
        0.0634714663028717,
        -0.4361492693424225,
        -0.3185354173183441,
        -0.16310839354991913,
        0.02968018315732479
      ],
      [
        0.08987534791231155,
        0.21509885787963867,
        -0.19110415875911713,
        0.26828378438949585,
        0.5187536478042603,
        0.15266895294189453,
        -0.32254233956336975,
        0.22875547409057617
      ],
      [
        -0.021831374615430832,
        0.07976967096328735,
        0.2533057928085327,
        -0.4254792332649231,
        -0.5472298264503479,
        -0.004986677784472704,
        -0.08983483165502548,
        0.3162018060684204
      ],
      [
        -0.19170311093330383,
        -0.11252029985189438,
        -0.29845380783081055,
        -0.4423154890537262,
        -0.4660397171974182,
        0.36889776587486267,
        0.2005152404308319,
        0.17848172783851624
      ],
      [
        0.024599110707640648,
        -0.16767308115959167,
        0.05823146179318428,
        -0.15139369666576385,
        0.07501716166734695,
        -0.14240197837352753,
        0.245395690202713,
        0.2069718837738037
      ],
      [
        -0.13716506958007812,
        -0.04811299219727516,
        0.30928006768226624,
        0.6988537907600403,
        0.6125727295875549,
        0.08014874160289764,
        0.18281453847885132,
        -0.25727027654647827
      ],
      [
        0.05103009194135666,
        -0.2524896264076233,
        -0.259746253490448,
        -0.18964655697345734,
        -0.4398999512195587,
        0.09000649303197861,
        -0.14610210061073303,
        0.13701610267162323
      ],
      [
        0.1618414968252182,
        -0.11887402832508087,
        0.07294533401727676,
        0.24034814536571503,
        0.03029978834092617,
        0.2968190908432007,
        -0.29679402709007263,
        -0.1506500542163849
      ],
      [
        0.17193603515625,
        0.34904637932777405,
        0.37115001678466797,
        0.3538389503955841,
        0.5544030666351318,
        -0.2308262437582016,
        -0.006316866260021925,
        -0.20501157641410828
      ],
      [
        -0.29486143589019775,
        0.3917945921421051,
        0.20598772168159485,
        -0.9784859418869019,
        -0.16746726632118225,
        -0.10302841663360596,
        -0.11805350333452225,
        -0.1467263102531433
      ],
      [
        0.08515679091215134,
        -0.30769672989845276,
        0.16519807279109955,
        0.6031336784362793,
        0.13329529762268066,
        0.12418124079704285,
        -0.34974274039268494,
        -0.24638892710208893
      ],
      [
        0.02539416030049324,
        -0.3490554988384247,
        -0.14475493133068085,
        -0.3316577672958374,
        1.1846235990524292,
        0.37690988183021545,
        -0.6648895740509033,
        -0.019170479848980904
      ],
      [
        -0.12930609285831451,
        -0.11948977410793304,
        -0.14665436744689941,
        -1.0021470785140991,
        0.06574612855911255,
        0.03239316865801811,
        -0.12934136390686035,
        0.15642082691192627
      ],
      [
        -0.17463724315166473,
        0.3880201280117035,
        0.23003438115119934,
        -0.19603300094604492,
        -0.21336796879768372,
        0.026288602501153946,
        0.0590263232588768,
        0.0887690931558609
      ],
      [
        0.07915502786636353,
        -0.06208920478820801,
        -0.07914765924215317,
        0.298453688621521,
        -0.1733046919107437,
        -0.24758212268352509,
        -0.11610757559537888,
        -0.18213626742362976
      ],
      [
        -0.1459546983242035,
        -0.3276418149471283,
        -0.07020580768585205,
        0.13631494343280792,
        -0.19973495602607727,
        -0.08671394735574722,
        0.2504537105560303,
        -0.04373227804899216
      ],
      [
        -0.03399767354130745,
        0.0033132261596620083,
        0.07165932655334473,
        0.5323429107666016,
        0.4605802893638611,
        0.27499568462371826,
        0.30027031898498535,
        -0.013548976741731167
      ],
      [
        -0.353427916765213,
        -0.10815003514289856,
        0.18298998475074768,
        -0.32500892877578735,
        -0.5100334882736206,
        -0.16176022589206696,
        -0.12168247252702713,
        -0.23804765939712524
      ],
      [
        -0.06051565706729889,
        0.2434973567724228,
        0.26896724104881287,
        -0.046961311250925064,
        0.641895592212677,
        -0.29174333810806274,
        -0.19351282715797424,
        -0.06521348655223846
      ],
      [
        -0.05516108125448227,
        -0.03409256786108017,
        -0.3263188898563385,
        -0.28881317377090454,
        0.30778825283050537,
        0.05276637151837349,
        -0.13623157143592834,
        0.14555951952934265
      ],
      [
        -0.28399258852005005,
        -0.011739799752831459,
        0.31288331747055054,
        -0.2723878026008606,
        0.1794472485780716,
        0.23628588020801544,
        -0.2580034136772156,
        0.2305261194705963
      ],
      [
        -0.019757768139243126,
        -0.23455557227134705,
        0.3883836269378662,
        -0.1445198357105255,
        0.24754536151885986,
        0.00378953549079597,
        0.2924257516860962,
        0.07132097333669662
      ],
      [
        0.15931615233421326,
        0.1722499132156372,
        -0.1214384138584137,
        -0.2230168581008911,
        -0.5704572200775146,
        0.2720206379890442,
        0.32920563220977783,
        0.2480943202972412
      ],
      [
        -0.1917809247970581,
        -0.09191405773162842,
        -0.1784982681274414,
        -0.45327290892601013,
        -0.11093258857727051,
        0.11475827544927597,
        -0.2124357670545578,
        -0.03149439021945
      ],
      [
        0.13264715671539307,
        0.06304992735385895,
        -0.3152695894241333,
        -0.5656756162643433,
        -0.7314526438713074,
        0.306352436542511,
        -0.21467982232570648,
        0.23554658889770508
      ],
      [
        0.04080410301685333,
        0.16284704208374023,
        -0.15058913826942444,
        0.1322576105594635,
        -0.4439733326435089,
        -0.2627710700035095,
        0.09976140409708023,
        0.02611769735813141
      ],
      [
        -0.20348483324050903,
        -0.13717058300971985,
        0.18302889168262482,
        -0.2518307864665985,
        -0.21417726576328278,
        0.42548227310180664,
        0.16544246673583984,
        0.0017445149132981896
      ],
      [
        -0.2773243486881256,
        0.23144832253456116,
        -0.24389797449111938,
        -0.08174259960651398,
        -0.2023923397064209,
        -0.01928885653614998,
        0.016234103590250015,
        0.30472898483276367
      ],
      [
        -0.009870879352092743,
        0.4676031470298767,
        0.21126452088356018,
        -0.08338817209005356,
        0.21525923907756805,
        -0.5319263935089111,
        -0.4487226605415344,
        0.15503916144371033
      ],
      [
        0.1600598692893982,
        0.34323322772979736,
        -0.13324059545993805,
        0.09475268423557281,
        0.5313408374786377,
        -0.2909654676914215,
        0.2668578326702118,
        -0.28307533264160156
      ],
      [
        -0.02762245573103428,
        -0.1232232078909874,
        -0.09490150213241577,
        0.07633441686630249,
        0.4238418638706207,
        -0.14780987799167633,
        -0.2284809798002243,
        -0.14227555692195892
      ],
      [
        -0.36255714297294617,
        0.07128889858722687,
        -0.19845232367515564,
        -0.40878647565841675,
        -0.15743416547775269,
        0.27908632159233093,
        0.18610426783561707,
        0.21244467794895172
      ],
      [
        0.10498173534870148,
        -0.18474707007408142,
        -0.07125008851289749,
        0.0015845122979953885,
        0.08763693273067474,
        0.07331079244613647,
        -0.17057962715625763,
        -0.17932230234146118
      ],
      [
        -0.33482232689857483,
        -0.016161436215043068,
        -0.18423834443092346,
        -0.3197939991950989,
        0.38598379492759705,
        -0.2603453993797302,
        -0.047415636479854584,
        0.0867643877863884
      ],
      [
        -0.03777029365301132,
        -0.42898431420326233,
        -0.38489413261413574,
        -0.04406575486063957,
        0.6134395599365234,
        0.33055704832077026,
        -0.155951127409935,
        0.14173954725265503
      ],
      [
        -0.1328573375940323,
        -0.012036132626235485,
        -0.21440011262893677,
        0.19959788024425507,
        0.23245997726917267,
        -0.10286903381347656,
        -0.11753680557012558,
        -0.20577606558799744
      ],
      [
        0.2139645367860794,
        -0.308671236038208,
        0.12483687698841095,
        -0.13736850023269653,
        -0.2836112082004547,
        0.007611138746142387,
        -0.1862420290708542,
        0.07278689742088318
      ],
      [
        0.07282616198062897,
        -0.2975442111492157,
        0.027491381391882896,
        -0.11049238592386246,
        0.13456659018993378,
        0.045875921845436096,
        -0.17976395785808563,
        0.004232911858707666
      ],
      [
        0.13401247560977936,
        -0.06989618390798569,
        0.11663110554218292,
        0.21425704658031464,
        -0.1851605623960495,
        0.05942075699567795,
        0.17907866835594177,
        0.041289519518613815
      ],
      [
        0.0809721127152443,
        0.055567678064107895,
        -0.26856422424316406,
        -0.01698654145002365,
        -0.03353346511721611,
        0.4072810113430023,
        0.225148007273674,
        0.03546314314007759
      ],
      [
        0.0972108468413353,
        -0.21837648749351501,
        -0.29791462421417236,
        -0.14900261163711548,
        0.4470038414001465,
        0.12317204475402832,
        -0.27611610293388367,
        0.12938258051872253
      ],
      [
        0.07333758473396301,
        0.44304975867271423,
        0.15004700422286987,
        0.9365610480308533,
        -0.03805719316005707,
        -0.13792631030082703,
        0.26702550053596497,
        0.2032759189605713
      ],
      [
        -0.1773374378681183,
        0.33581364154815674,
        0.1382225900888443,
        0.13132496178150177,
        -0.4570315182209015,
        0.17162592709064484,
        -0.10717779397964478,
        0.26932889223098755
      ],
      [
        -0.02397780306637287,
        0.15730829536914825,
        0.058601975440979004,
        0.06039988994598389,
        0.03618600592017174,
        0.24947144091129303,
        -0.2501256763935089,
        0.0784250944852829
      ],
      [
        -0.2491818517446518,
        -0.3668566048145294,
        -0.2595808804035187,
        0.3937916159629822,
        0.35781389474868774,
        0.25192347168922424,
        0.2539790868759155,
        -0.318147212266922
      ],
      [
        -0.221072256565094,
        -0.008859780617058277,
        -0.2966950237751007,
        0.16147002577781677,
        -0.6196344494819641,
        -0.11423644423484802,
        -0.31516262888908386,
        -0.17602136731147766
      ],
      [
        0.2004069983959198,
        0.3539030849933624,
        0.22797690331935883,
        0.4009513854980469,
        -0.04790860041975975,
        -0.22281129658222198,
        0.04441029950976372,
        0.2619381248950958
      ],
      [
        0.1103387326002121,
        0.41209477186203003,
        0.14503154158592224,
        0.2170397937297821,
        -0.3373953104019165,
        0.24508488178253174,
        0.06767027080059052,
        -0.06892993301153183
      ],
      [
        -0.1620977371931076,
        -0.2131042778491974,
        -0.3171313405036926,
        0.22569534182548523,
        0.5287420153617859,
        -0.03208182379603386,
        -0.16214677691459656,
        0.3076534867286682
      ],
      [
        0.2927027642726898,
        0.02897384762763977,
        -0.14292912185192108,
        0.16802920401096344,
        0.09687390178442001,
        -0.18784654140472412,
        0.3601321280002594,
        0.26306650042533875
      ],
      [
        -0.0799337849020958,
        0.4050399661064148,
        -0.2057281732559204,
        0.13838008046150208,
        0.31215134263038635,
        -0.04989266023039818,
        -0.41138750314712524,
        -0.09690724313259125
      ],
      [
        -0.11258681118488312,
        -0.11300305277109146,
        0.07035859674215317,
        0.5572508573532104,
        -0.08550973981618881,
        -0.29143810272216797,
        -0.00813313014805317,
        0.1665993183851242
      ],
      [
        0.11108244210481644,
        -0.45637404918670654,
        -0.1521109938621521,
        -0.38015222549438477,
        -0.2974424660205841,
        0.19504062831401825,
        -0.18353886902332306,
        0.14027824997901917
      ],
      [
        0.34264910221099854,
        -0.12757211923599243,
        -0.1313019096851349,
        -0.541349470615387,
        0.40172117948532104,
        -0.1357801854610443,
        0.19892090559005737,
        -0.3097262978553772
      ],
      [
        -0.2117643505334854,
        -0.44772976636886597,
        0.044896382838487625,
        0.9156078100204468,
        -0.23655109107494354,
        0.29569151997566223,
        -0.09314308315515518,
        0.0634617879986763
      ],
      [
        -0.03788258507847786,
        -0.42964667081832886,
        0.29479536414146423,
        0.011155333369970322,
        0.5549188852310181,
        0.14592498540878296,
        -0.262202650308609,
        0.28627246618270874
      ],
      [
        0.034034982323646545,
        0.25897303223609924,
        -0.3131754398345947,
        0.05324571207165718,
        -0.7327467799186707,
        -0.2034057229757309,
        0.10182637721300125,
        -0.2753104865550995
      ],
      [
        0.1640225052833557,
        0.20592305064201355,
        0.05279885232448578,
        -0.24900822341442108,
        -0.4838559627532959,
        -0.03466571494936943,
        0.17348919808864594,
        0.34295159578323364
      ],
      [
        0.16959354281425476,
        -0.01821058802306652,
        0.04294154793024063,
        -0.43627023696899414,
        -0.7153802514076233,
        0.06732089072465897,
        -0.16422542929649353,
        0.16794107854366302
      ],
      [
        -0.21971619129180908,
        -0.13695769011974335,
        -0.3042857348918915,
        0.2373664379119873,
        0.2900685667991638,
        0.2994993031024933,
        0.22148126363754272,
        0.19988074898719788
      ],
      [
        -0.07193835824728012,
        0.053246792405843735,
        -0.0835404321551323,
        0.3007463812828064,
        -0.08747857064008713,
        -0.41351988911628723,
        0.30373597145080566,
        -0.06973834335803986
      ],
      [
        -0.2889372408390045,
        -0.11812347918748856,
        0.29339084029197693,
        0.21287311613559723,
        -0.6450704336166382,
        0.27358293533325195,
        0.21985329687595367,
        0.22078141570091248
      ],
      [
        0.271768182516098,
        -0.2976410686969757,
        0.10239277780056,
        0.08434508740901947,
        0.12408755719661713,
        0.060332041233778,
        -0.10689999908208847,
        0.19642789661884308
      ],
      [
        -0.09499949216842651,
        -0.0624442882835865,
        0.09389198571443558,
        0.1898556351661682,
        0.05223937705159187,
        0.05176159739494324,
        0.21250219643115997,
        -0.02204468846321106
      ],
      [
        0.11091980338096619,
        0.010493203997612,
        0.026345858350396156,
        -0.3224988579750061,
        -0.6484454274177551,
        -0.1207137331366539,
        0.4018101692199707,
        -0.0878441333770752
      ],
      [
        -0.04805725812911987,
        -0.13254112005233765,
        0.3646167814731598,
        0.5445839762687683,
        -0.6257694959640503,
        -0.37561914324760437,
        -0.26396945118904114,
        0.029118387028574944
      ],
      [
        -0.11498959362506866,
        -0.24016259610652924,
        -0.0959227904677391,
        0.31166455149650574,
        -0.4100155532360077,
        -0.004424522630870342,
        -0.10264071822166443,
        -0.16363221406936646
      ],
      [
        0.03279801830649376,
        0.3251068890094757,
        -0.2457893043756485,
        -0.20552949607372284,
        -0.236953467130661,
        0.4787525236606598,
        -0.3657580018043518,
        -0.36105233430862427
      ],
      [
        0.3037717640399933,
        -0.2759254574775696,
        0.08905000984668732,
        0.08269432187080383,
        0.1546488106250763,
        -0.1548379510641098,
        0.21412663161754608,
        0.004034246318042278
      ],
      [
        -0.3470548093318939,
        -0.2672760784626007,
        -0.056881166994571686,
        0.2923758625984192,
        0.05492308363318443,
        0.2597755193710327,
        -0.11058362573385239,
        -0.08250601589679718
      ],
      [
        0.15023303031921387,
        0.17451277375221252,
        0.2788592576980591,
        0.314805269241333,
        -0.3873469829559326,
        -0.36167439818382263,
        -0.06499021500349045,
        0.28885379433631897
      ],
      [
        -0.1247386783361435,
        -0.383273184299469,
        0.12010066211223602,
        0.5715831518173218,
        0.3724016845226288,
        -0.3546833097934723,
        -0.3343016803264618,
        0.07487102597951889
      ],
      [
        -0.07322580367326736,
        -0.2128976732492447,
        0.062147919088602066,
        0.1592816412448883,
        0.4471946060657501,
        0.20063301920890808,
        -0.07765543460845947,
        -0.3169463872909546
      ],
      [
        -0.2290439009666443,
        0.3850935399532318,
        0.10458250343799591,
        0.21502627432346344,
        -0.7730915546417236,
        0.3912261128425598,
        0.3712584674358368,
        0.3193321228027344
      ],
      [
        -0.022809423506259918,
        -0.1639101356267929,
        -0.13319100439548492,
        1.2246848344802856,
        0.48663756251335144,
        -0.120814248919487,
        0.201520174741745,
        -0.15793125331401825
      ],
      [
        -0.14846394956111908,
        0.028552666306495667,
        -0.05016015097498894,
        -0.356023371219635,
        0.22095534205436707,
        -0.10856390744447708,
        0.14733226597309113,
        0.3254329562187195
      ],
      [
        0.13049957156181335,
        0.12669269740581512,
        0.25803422927856445,
        0.12647156417369843,
        -0.11223740875720978,
        0.38643786311149597,
        0.08930622786283493,
        -0.322517454624176
      ],
      [
        -0.06266727298498154,
        -0.2339264154434204,
        0.21232572197914124,
        -0.13961167633533478,
        -0.6438280940055847,
        0.06330885738134384,
        0.29039326310157776,
        0.08872509002685547
      ],
      [
        0.06366365402936935,
        -0.023793717846274376,
        0.1784944087266922,
        0.061627037823200226,
        0.1506974846124649,
        -0.39062681794166565,
        -0.2994335889816284,
        0.1488037109375
      ]
    ],
    "net.0.bias": [
      -0.18372014164924622,
      0.031152209267020226,
      0.08752036839723587,
      0.03340979292988777,
      -0.1817258596420288,
      0.33582615852355957,
      -0.33744046092033386,
      0.4055413007736206,
      -0.27855873107910156,
      -0.2615199387073517,
      0.3128437101840973,
      -0.2336398959159851,
      0.6354259848594666,
      -0.3249267339706421,
      -0.17774558067321777,
      -0.21352519094944,
      0.0542696937918663,
      0.3188229501247406,
      -0.1564967781305313,
      -0.008344090543687344,
      -0.08435611426830292,
      -0.011208489537239075,
      0.21375706791877747,
      -0.2263878732919693,
      0.00022659474052488804,
      0.3522365391254425,
      -0.16682955622673035,
      0.2985285818576813,
      -0.0606890469789505,
      0.059600088745355606,
      -0.41069507598876953,
      -0.0797700583934784,
      -0.1478167474269867,
      0.06496234238147736,
      0.08186660706996918,
      0.3585651218891144,
      -0.05091749131679535,
      0.01329485047608614,
      0.22863364219665527,
      -0.07299493998289108,
      0.31025034189224243,
      -0.3011195659637451,
      0.12458232790231705,
      0.028408609330654144,
      0.16035932302474976,
      0.3074050545692444,
      -0.03202245011925697,
      -0.21667639911174774,
      0.21515363454818726,
      0.150847926735878,
      0.13474519550800323,
      -0.20805096626281738,
      0.19727416336536407,
      0.31406834721565247,
      -0.04130624979734421,
      -0.33141279220581055,
      0.32045847177505493,
      -0.3273456394672394,
      0.0767146423459053,
      0.2148398458957672,
      -0.1415814459323883,
      -0.10639512538909912,
      -0.2922358214855194,
      0.07586409896612167,
      -0.23215502500534058,
      -0.15158045291900635,
      0.18141072988510132,
      0.3530900776386261,
      0.0494314506649971,
      0.1550808846950531,
      -0.06994540989398956,
      -0.14275522530078888,
      -0.3318103849887848,
      -0.33758026361465454,
      0.38800254464149475,
      -0.3202594518661499,
      0.03230419009923935,
      0.08719529956579208,
      0.24407874047756195,
      0.18260161578655243
    ],
    "net.2.weight": [
      [
        0.059886347502470016,
        -0.06341109424829483,
        -0.06287147104740143,
        -0.0901925191283226,
        -0.07163968682289124,
        0.07066873461008072,
        0.09915991127490997,
        -0.026423506438732147,
        0.080753393471241,
        -0.0950687974691391,
        -0.12691517174243927,
        0.12477757036685944,
        -0.1265762597322464,
        0.05121210217475891,
        -0.12167453020811081,
        0.12448491901159286,
        0.08819214999675751,
        -0.12376800924539566,
        0.06748748570680618,
        -0.08830449730157852,
        -0.030933093279600143,
        0.030498776584863663,
        0.14529536664485931,
        -0.05431153252720833,
        0.07870044559240341,
        0.03757154941558838,
        0.09127461910247803,
        -0.07956892997026443,
        -0.044599469751119614,
        -0.18867111206054688,
        -0.13821646571159363,
        0.030430741608142853,
        0.05537823960185051,
        0.12399762868881226,
        0.0253384318202734,
        0.07089578360319138,
        -0.025136562064290047,
        0.14256952702999115,
        -0.0054569304920732975,
        -0.06049271672964096,
        -0.025084329769015312,
        0.1269020140171051,
        -0.14631345868110657,
        0.05623187497258186,
        -0.042181938886642456,
        -0.053949370980262756,
        0.000929234258364886,
        0.062124330550432205,
        -0.15452735126018524,
        0.03335981443524361,
        0.019583020359277725,
        -0.22067248821258545,
        0.09785912930965424,
        0.11569181829690933,
        0.09776124358177185,
        0.017590461298823357,
        0.16514557600021362,
        -0.07991396635770798,
        0.07856909185647964,
        -0.1193496361374855,
        -0.1090911477804184,
        0.12678781151771545,
        0.007425619289278984,
        0.06611573696136475,
        -0.03615714982151985,
        -0.02433858998119831,
        0.005413172300904989,
        -0.07279592752456665,
        -0.07132158428430557,
        0.10349300503730774,
        0.052913740277290344,
        0.008145404048264027,
        0.17193102836608887,
        0.06549225747585297,
        -0.08456995338201523,
        0.030755050480365753,
        -0.0871162936091423,
        -0.15026205778121948,
        0.036748044192790985,
        0.010535157285630703
      ],
      [
        0.051582567393779755,
        -0.05285000428557396,
        0.1364419311285019,
        -0.0734219178557396,
        -0.028806133195757866,
        0.01579027622938156,
        0.1319083571434021,
        -0.12069838494062424,
        0.04780156910419464,
        0.08219729363918304,
        0.020573945716023445,
        -0.0532660186290741,
        0.2722276747226715,
        -0.09654304385185242,
        0.0294797420501709,
        0.03689306601881981,
        -0.15618222951889038,
        0.10624536871910095,
        -0.025024203583598137,
        0.100660540163517,
        0.08882763236761093,
        0.005946635268628597,
        -0.044774699956178665,
        -0.045311763882637024,
        -0.025616787374019623,
        0.013197963126003742,
        -0.10620571672916412,
        -0.06694413721561432,
        0.040329497307538986,
        0.25746768712997437,
        0.14483869075775146,
        -0.023592431098222733,
        0.009930887259542942,
        -0.04521343111991882,
        -0.0866873562335968,
        0.07160688936710358,
        0.016204947605729103,
        -0.08031180500984192,
        -0.045895978808403015,
        -0.005468714516609907,
        -0.005554197356104851,
        0.051309335976839066,
        0.03407454863190651,
        0.07090301811695099,
        0.13862711191177368,
        -0.045210905373096466,
        0.04557233303785324,
        0.10753345489501953,
        0.05187147110700607,
        0.027572600170969963,
        0.00012152285489719361,
        0.31031036376953125,
        -0.05763363093137741,
        -0.11098648607730865,
        0.017698366194963455,
        -0.15278926491737366,
        0.01971571519970894,
        -0.07747523486614227,
        0.0853145644068718,
        -0.11695177108049393,
        0.06423817574977875,
        0.01624973677098751,
        -0.0024913842789828777,
        -0.03431521728634834,
        0.07881130278110504,
        -0.18981920182704926,
        -0.017503544688224792,
        -0.0704868882894516,
        0.05986452475190163,
        -0.07485315948724747,
        -0.005437585990875959,
        0.0005676284781657159,
        -0.1597174108028412,
        -0.014559593051671982,
        0.03746303543448448,
        -0.039482902735471725,
        0.09050954878330231,
        0.136384055018425,
        -0.19514061510562897,
        0.004507066681981087
      ],
      [
        -0.03310823813080788,
        -0.20607563853263855,
        -0.05817032977938652,
        0.09513675421476364,
        0.12930813431739807,
        0.04083993658423424,
        0.1325247585773468,
        -0.06803172081708908,
        0.0607440248131752,
        0.042736493051052094,
        -0.10466670244932175,
        0.1018216609954834,
        0.20178914070129395,
        0.12145477533340454,
        -0.039743974804878235,
        0.009205116890370846,
        -0.08156277239322662,
        0.0352364219725132,
        0.011927166022360325,
        -0.040391843765974045,
        0.06068279221653938,
        0.12354140728712082,
        0.15510204434394836,
        0.10894323140382767,
        0.09670786559581757,
        0.0028079557232558727,
        -0.3088058829307556,
        0.09565051645040512,
        -0.016904976218938828,
        -0.32170379161834717,
        0.028720097616314888,
        -0.0014824664685875177,
        0.05606192350387573,
        0.026830362156033516,
        -0.007631039246916771,
        0.1291683167219162,
        -0.12092640995979309,
        -0.08785348385572433,
        0.04334535449743271,
        0.042379822582006454,
        0.1274460107088089,
        -0.12509934604167938,
        -0.11246896535158157,
        0.0752541646361351,
        0.12397991865873337,
        -0.03991169109940529,
        0.002985091181471944,
        -0.10518535226583481,
        0.13423706591129303,
        -0.0103447949513793,
        0.09214834868907928,
        -0.1684746891260147,
        -0.2565271556377411,
        0.09289029985666275,
        0.09606293588876724,
        0.1461629867553711,
        0.09976959973573685,
        -0.12730032205581665,
        0.08633950352668762,
        -0.07950303703546524,
        0.06732529401779175,
        -0.18657641112804413,
        -0.011966287158429623,
        0.024220431223511696,
        -0.008219216950237751,
        0.005127007141709328,
        -0.17439459264278412,
        -0.11275766789913177,
        0.13037291169166565,
        -0.03633362054824829,
        -0.009152396582067013,
        -0.12272286415100098,
        -0.12366437911987305,
        -0.05724221095442772,
        0.11065573990345001,
        0.08296257257461548,
        0.0054578641429543495,
        0.07274837046861649,
        0.10450919717550278,
        -0.07066237926483154
      ],
      [
        -0.12841524183750153,
        0.04596472904086113,
        0.0680338516831398,
        -0.1496155709028244,
        -0.15486320853233337,
        0.018145348876714706,
        0.07483062148094177,
        -0.02841494232416153,
        0.0537443645298481,
        0.09691877663135529,
        -0.07429715245962143,
        0.06451182067394257,
        0.1652495265007019,
        0.1254567950963974,
        -0.11903217434883118,
        0.046198442578315735,
        0.111171655356884,
        0.03865961730480194,
        -0.07132353633642197,
        0.10678410530090332,
        0.036341652274131775,
        -0.05224720016121864,
        0.028665579855442047,
        -0.10701597481966019,
        0.03146373853087425,
        -0.15454156696796417,
        -0.1112571582198143,
        -0.08986222743988037,
        -0.0745738297700882,
        0.1031169444322586,
        0.0012788786552846432,
        0.13620905578136444,
        -0.027866706252098083,
        0.0042499881237745285,
        0.1384555995464325,
        0.10911779850721359,
        0.05969537794589996,
        0.01327020674943924,
        0.05564770847558975,
        -0.03692092373967171,
        -0.06734521687030792,
        -0.023684794083237648,
        -0.04783894494175911,
        -0.14036092162132263,
        -0.09366408735513687,
        0.0930473729968071,
        -0.04452129453420639,
        -0.09893512725830078,
        -0.09729639440774918,
        0.07297496497631073,
        0.002201789291575551,
        0.030189400538802147,
        0.12556421756744385,
        -0.047285716980695724,
        0.018992707133293152,
        0.14074687659740448,
        0.2027241438627243,
        -0.05700710043311119,
        -0.10571526736021042,
        -0.017693057656288147,
        0.04551868513226509,
        -0.011785512790083885,
        -0.09684330224990845,
        0.13272619247436523,
        -0.0065938252955675125,
        -0.19642949104309082,
        -0.014198817312717438,
        0.07202855497598648,
        -0.1196344792842865,
        0.1461651772260666,
        0.13199357688426971,
        0.0021030758507549763,
        0.05810069665312767,
        -0.0014601332368329167,
        -0.04112428426742554,
        0.11397518962621689,
        -0.09793104976415634,
        -0.128396138548851,
        -0.14032474160194397,
        0.12619614601135254
      ]
    ],
    "net.2.bias": [
      -0.07285130769014359,
      0.06952599436044693,
      -0.0005361100775189698,
      -0.0915859192609787
    ]
  },
  "F2": {
    "n_in": 4,
    "n_hid": 60,
    "n_out": 4,
    "activation": "tanh",
    "net.0.weight": [
      [
        -0.34617483615875244,
        -0.38791605830192566,
        -0.0375187061727047,
        0.07373936474323273
      ],
      [
        0.19592012465000153,
        0.13486021757125854,
        -0.2726117670536041,
        -0.45473045110702515
      ],
      [
        -0.04815557226538658,
        -0.1464974582195282,
        0.4197109341621399,
        -0.5697208642959595
      ],
      [
        -0.32569703459739685,
        -0.40780675411224365,
        -0.12375860661268234,
        0.38965991139411926
      ],
      [
        0.4259495139122009,
        -0.45375099778175354,
        -0.04710070788860321,
        0.3137868046760559
      ],
      [
        0.4310687184333801,
        0.6179351210594177,
        -0.3162691593170166,
        -0.5301695466041565
      ],
      [
        0.33463025093078613,
        -0.1307002454996109,
        0.15487860143184662,
        -0.1744820475578308
      ],
      [
        0.1829390525817871,
        0.4574735760688782,
        0.4555570185184479,
        -0.4792819917201996
      ],
      [
        -0.31677770614624023,
        -0.1979086995124817,
        -0.32998719811439514,
        0.49767976999282837
      ],
      [
        -0.0418207012116909,
        -0.3503374755382538,
        -0.21484066545963287,
        -0.2338792383670807
      ],
      [
        0.22119668126106262,
        -0.4188799262046814,
        -0.4319821894168854,
        -0.5169941186904907
      ],
      [
        0.38280969858169556,
        0.387967050075531,
        -0.4761364758014679,
        0.010257819667458534
      ],
      [
        0.34835585951805115,
        0.03264164924621582,
        -0.029002659022808075,
        0.10290306061506271
      ],
      [
        -0.04736669734120369,
        0.27020302414894104,
        -0.35549262166023254,
        0.23382937908172607
      ],
      [
        0.262124240398407,
        -0.318851500749588,
        0.2812917232513428,
        0.5203840136528015
      ],
      [
        -0.2214180827140808,
        -0.14539961516857147,
        0.21964040398597717,
        -0.3948812782764435
      ],
      [
        0.0758640319108963,
        0.08238501846790314,
        0.25885552167892456,
        -0.43726760149002075
      ],
      [
        -0.3112497925758362,
        0.3630092144012451,
        0.1725509613752365,
        -0.6398373246192932
      ],
      [
        -0.25010550022125244,
        -0.39255550503730774,
        -0.5312049984931946,
        -0.2334214746952057
      ],
      [
        0.5155003070831299,
        -0.018693221732974052,
        0.2087973803281784,
        0.39564013481140137
      ],
      [
        0.22607827186584473,
        -0.45559027791023254,
        0.2296605110168457,
        0.19575712084770203
      ],
      [
        0.34002548456192017,
        -0.5780052542686462,
        0.32285037636756897,
        0.5100454092025757
      ],
      [
        -0.46888434886932373,
        0.04356101155281067,
        0.5163092017173767,
        -0.3742062449455261
      ],
      [
        0.2082429677248001,
        0.2709932029247284,
        0.082524374127388,
        0.4530712366104126
      ],
      [
        0.5045066475868225,
        0.5332751274108887,
        -0.1591438204050064,
        0.403043270111084
      ],
      [
        -0.5594207644462585,
        -0.35952484607696533,
        0.02356872893869877,
        -0.09581190347671509
      ],
      [
        0.6009954214096069,
        0.3123691976070404,
        0.3347715437412262,
        0.35271957516670227
      ],
      [
        -0.34134626388549805,
        -0.09894688427448273,
        -0.034836750477552414,
        0.26586300134658813
      ],
      [
        0.321536123752594,
        -0.1556783765554428,
        -0.22928650677204132,
        0.4072360694408417
      ],
      [
        -0.13853345811367035,
        -0.38827958703041077,
        0.38843196630477905,
        0.4135003685951233
      ],
      [
        -0.18612726032733917,
        -0.13579800724983215,
        -0.3359987735748291,
        -0.36523082852363586
      ],
      [
        0.1353185921907425,
        -0.31571823358535767,
        0.561191737651825,
        -0.26334622502326965
      ],
      [
        -0.020846830680966377,
        0.050341226160526276,
        0.23094743490219116,
        0.35362061858177185
      ],
      [
        0.30728381872177124,
        0.27135366201400757,
        -0.32131460309028625,
        -0.4888094365596771
      ],
      [
        -0.4754437208175659,
        -0.0008777742041274905,
        0.5203921794891357,
        -0.09246011078357697
      ],
      [
        -0.11059653759002686,
        -0.4273664057254791,
        0.30267074704170227,
        0.38163116574287415
      ],
      [
        -0.5288808345794678,
        -0.3555663824081421,
        0.44200634956359863,
        0.08485820144414902
      ],
      [
        -0.03895297273993492,
        0.1058289036154747,
        -0.006412486080080271,
        -0.3886740803718567
      ],
      [
        -0.5590717792510986,
        0.2715775668621063,
        -0.11760061979293823,
        -0.12736037373542786
      ],
      [
        -0.1489531248807907,
        -0.3071359694004059,
        -0.13928039371967316,
        -0.37615808844566345
      ],
      [
        0.4093547761440277,
        0.2048153430223465,
        -0.2794395089149475,
        -0.14593929052352905
      ],
      [
        0.22717304527759552,
        -0.20566298067569733,
        0.1788852959871292,
        0.15862399339675903
      ],
      [
        -0.3521929681301117,
        0.11347659677267075,
        -0.03592495247721672,
        0.4354449212551117
      ],
      [
        -0.1949039250612259,
        -0.15108484029769897,
        0.5354263186454773,
        -0.40809905529022217
      ],
      [
        0.07892445474863052,
        0.5256055593490601,
        -0.24198226630687714,
        0.43091410398483276
      ],
      [
        0.5432954430580139,
        0.5569268465042114,
        -0.14067919552326202,
        0.4184659719467163
      ],
      [
        -0.19692863523960114,
        -0.14343957602977753,
        0.1272352933883667,
        0.05668487772345543
      ],
      [
        0.3280588388442993,
        0.49599623680114746,
        -0.41726911067962646,
        0.26681676506996155
      ],
      [
        0.17187555134296417,
        0.29251164197921753,
        0.1722124218940735,
        -0.2187805473804474
      ],
      [
        -0.43351271748542786,
        0.35913974046707153,
        -0.27458447217941284,
        0.3879484534263611
      ],
      [
        -0.4932580590248108,
        -0.10620194673538208,
        0.02124287374317646,
        0.11013807356357574
      ],
      [
        0.02381402626633644,
        0.11675689369440079,
        0.06650692969560623,
        0.15014947950839996
      ],
      [
        0.5166378021240234,
        -0.30678749084472656,
        -0.008530029095709324,
        -0.20372916758060455
      ],
      [
        0.46776482462882996,
        0.3554120361804962,
        0.20586593449115753,
        -0.022607136517763138
      ],
      [
        -0.32631924748420715,
        0.341823011636734,
        -0.053137075155973434,
        0.4826105833053589
      ],
      [
        0.30087101459503174,
        0.41356906294822693,
        0.5299235582351685,
        -0.2999557554721832
      ],
      [
        0.12509694695472717,
        -0.23367412388324738,
        0.39420050382614136,
        -0.05800015851855278
      ],
      [
        0.0042111496441066265,
        -0.37039339542388916,
        -0.44098222255706787,
        0.1994120478630066
      ],
      [
        0.1280418038368225,
        0.07509014010429382,
        0.3001381754875183,
        -0.24754144251346588
      ],
      [
        0.18931224942207336,
        -0.2563675045967102,
        0.1611618548631668,
        -0.16953064501285553
      ]
    ],
    "net.0.bias": [
      0.3476632535457611,
      0.44563889503479004,
      0.4404584765434265,
      0.011730105616152287,
      0.3003992438316345,
      -0.4566955864429474,
      -0.2997781038284302,
      0.08907581120729446,
      0.006014560349285603,
      -0.39077284932136536,
      -0.22446776926517487,
      -0.23408423364162445,
      -0.4960913360118866,
      0.05729636549949646,
      0.37899038195610046,
      0.19630053639411926,
      -0.24166139960289001,
      -0.5471873879432678,
      -0.3924076557159424,
      0.008068383671343327,
      0.3717133104801178,
      -0.23223520815372467,
      -0.2762661278247833,
      -0.26901888847351074,
      -0.039060451090335846,
      -0.47307419776916504,
      -0.4414612352848053,
      0.5117046236991882,
      -0.2291843593120575,
      -0.10901230573654175,
      -0.13338403403759003,
      -0.43400049209594727,
      -0.09178677946329117,
      0.12728707492351532,
      -0.21746619045734406,
      -0.013559316284954548,
      -0.04321444034576416,
      -0.5101836323738098,
      0.3640732169151306,
      0.42137661576271057,
      0.3237142264842987,
      -0.1641899198293686,
      0.26038047671318054,
      -0.46808406710624695,
      -0.12073051929473877,
      -0.08452364057302475,
      -0.1654815375804901,
      0.1896151304244995,
      -0.23079149425029755,
      -0.057221315801143646,
      -0.13250340521335602,
      -0.46433186531066895,
      -0.08867998421192169,
      -0.4250151813030243,
      0.29597023129463196,
      0.21238701045513153,
      0.5487794280052185,
      -0.18109028041362762,
      0.02664591372013092,
      0.08213131129741669
    ],
    "net.2.weight": [
      [
        0.13253432512283325,
        0.12669947743415833,
        -0.07060256600379944,
        -0.09519585967063904,
        -0.11293230950832367,
        -0.08985535055398941,
        0.10276243090629578,
        0.020241031423211098,
        0.15236371755599976,
        0.09602843225002289,
        -0.018112968653440475,
        -0.10913361608982086,
        0.12402388453483582,
        0.12481570988893509,
        0.08402331173419952,
        -0.07298959791660309,
        0.09055683016777039,
        0.009312338195741177,
        0.08709321916103363,
        0.027109678834676743,
        0.07919488847255707,
        -0.1215256005525589,
        -0.07814309000968933,
        0.07858788222074509,
        -0.0240763109177351,
        -0.11472955346107483,
        0.11484819650650024,
        0.007149103097617626,
        0.10902644693851471,
        -0.09153822809457779,
        0.043964605778455734,
        -0.05517552047967911,
        -0.0603824108839035,
        -0.024795521050691605,
        -0.05047936365008354,
        0.06201335787773132,
        -0.015155669301748276,
        0.09276629239320755,
        0.029802890494465828,
        -0.02092408761382103,
        -0.060013383626937866,
        -0.12429913878440857,
        -0.024756677448749542,
        -0.12676416337490082,
        -0.02382729947566986,
        -0.004827619530260563,
        -0.01545809954404831,
        -0.056037336587905884,
        0.07986043393611908,
        0.11124259233474731,
        -0.03493605554103851,
        -0.04819943383336067,
        0.07055731862783432,
        0.09489236772060394,
        -0.11226321011781693,
        -0.03087470680475235,
        -0.01347531657665968,
        -0.03351627662777901,
        0.04767601564526558,
        -0.028790650889277458
      ],
      [
        0.06454954296350479,
        0.02689901366829872,
        0.062272366136312485,
        -0.11194191128015518,
        -0.09780557453632355,
        0.033235903829336166,
        0.13739362359046936,
        0.04870239645242691,
        0.05027793347835541,
        -0.09206320345401764,
        0.0410599447786808,
        0.12425906211137772,
        -0.0010974076576530933,
        0.0960424542427063,
        0.03982532396912575,
        -0.04309196397662163,
        0.019534263759851456,
        0.14348720014095306,
        -0.09862639009952545,
        -0.006994963623583317,
        0.16269664466381073,
        0.028216304257512093,
        -0.052188146859407425,
        0.02814391255378723,
        -0.06267888844013214,
        -0.11277028918266296,
        -0.0508495569229126,
        -0.13524745404720306,
        -0.030501142144203186,
        -0.003967508673667908,
        -0.0631859228014946,
        -0.13235034048557281,
        0.056583136320114136,
        -0.045883964747190475,
        -0.0678267702460289,
        -0.13001681864261627,
        -0.11174757033586502,
        0.0984099879860878,
        -0.1397511214017868,
        -0.09323595464229584,
        0.11247533559799194,
        -0.058451633900403976,
        -0.09563769400119781,
        -0.08018723875284195,
        0.03405625373125076,
        -0.07319236546754837,
        0.004670440219342709,
        0.08381795883178711,
        0.05673019215464592,
        -0.10963231325149536,
        -0.11310138553380966,
        0.08663584291934967,
        0.07527957856655121,
        0.0349164642393589,
        -0.16847403347492218,
        0.08627022057771683,
        0.1648060828447342,
        -0.09682894498109818,
        0.16147471964359283,
        0.11194577068090439
      ],
      [
        -0.09587797522544861,
        0.008824050426483154,
        0.16471433639526367,
        -0.037959810346364975,
        -0.12527212500572205,
        -0.007652283646166325,
        0.10483388602733612,
        -0.007609985768795013,
        -0.1052597314119339,
        0.1081804558634758,
        0.07173237204551697,
        -0.021290559321641922,
        0.054258789867162704,
        0.012643360532820225,
        0.048956528306007385,
        -0.015846675261855125,
        -0.05397430807352066,
        0.020810566842556,
        -0.04699898511171341,
        -0.004413556773215532,
        -0.034352947026491165,
        0.023854905739426613,
        -0.14383737742900848,
        0.05993711203336716,
        0.10084620118141174,
        -0.026635460555553436,
        -0.08234401047229767,
        -0.04037410765886307,
        -0.010787940584123135,
        -0.12574836611747742,
        -0.08269097656011581,
        0.060108501464128494,
        0.07620084285736084,
        0.08777636289596558,
        0.06395623087882996,
        0.027851443737745285,
        0.04999206215143204,
        0.11919877678155899,
        -0.056424036622047424,
        -0.049453005194664,
        0.10659413039684296,
        -0.009839414618909359,
        -0.11919818818569183,
        -0.14890266954898834,
        0.09208442270755768,
        0.13748586177825928,
        0.08132550120353699,
        0.04430555924773216,
        0.1270296424627304,
        -0.15361164510250092,
        -0.11680585891008377,
        -0.08490737527608871,
        0.1389646679162979,
        0.04633091762661934,
        -0.09644979983568192,
        0.07202737033367157,
        0.02402491495013237,
        -0.1134449690580368,
        0.08147790282964706,
        0.023764660581946373
      ],
      [
        -0.0927996039390564,
        -0.10719666630029678,
        0.05292288213968277,
        0.04174983128905296,
        -0.051243238151073456,
        -0.08031043410301208,
        0.04973109811544418,
        0.03319508209824562,
        -0.09304103255271912,
        -0.06649491935968399,
        0.026136798784136772,
        0.04307171329855919,
        -0.04421829432249069,
        0.07315552979707718,
        -0.062443070113658905,
        0.12164174020290375,
        0.10960229486227036,
        0.08717775344848633,
        0.07924507558345795,
        -0.25759923458099365,
        -0.09930665045976639,
        0.08685880899429321,
        0.050576094537973404,
        -0.04776933044195175,
        0.17273500561714172,
        -0.07455937564373016,
        -0.16108223795890808,
        -0.07664288580417633,
        -0.13144320249557495,
        0.23214252293109894,
        0.003599485382437706,
        -0.09211228042840958,
        -0.013485489413142204,
        -0.14499643445014954,
        -0.0351305715739727,
        0.13431023061275482,
        -0.026300666853785515,
        0.09758417308330536,
        0.11404091864824295,
        0.010380943305790424,
        0.05685273930430412,
        -0.08967068791389465,
        0.06676166504621506,
        0.13359250128269196,
        0.05287889018654823,
        0.15593841671943665,
        -0.13042473793029785,
        -0.002489856444299221,
        0.038380853831768036,
        -0.002144552767276764,
        0.03726007789373398,
        -0.042460668832063675,
        -0.05956505984067917,
        -0.11921068280935287,
        0.03021746128797531,
        -0.10813003778457642,
        -0.04501080513000488,
        0.07536519318819046,
        0.023869704455137253,
        -0.009752921760082245
      ]
    ],
    "net.2.bias": [
      -0.05025864392518997,
      -0.08489081263542175,
      0.04279729351401329,
      0.014464018866419792
    ]
  }
}