{
  "name": "PV3",
  "type": "F1+H1+F2",
  "t_step": 0.002,
  "normfacs": {
    "T": {
      "scale": 20.003402709960938,
      "offset": 25.001083374023438
    },
    "G": {
      "scale": 1000.0999755859375,
      "offset": 509.3038330078125
    },
    "Fc": {
      "scale": 9.999828338623047,
      "offset": 60.00246810913086
    },
    "Md": {
      "scale": 0.40000206232070923,
      "offset": 1.000037431716919
    },
    "Mq": {
      "scale": 0.4000000059604645,
      "offset": 0.0010415337746962905
    },
    "Vrms": {
      "scale": 546.6259155273438,
      "offset": 413.1492614746094
    },
    "GVrms": {
      "scale": 546.6232299804688,
      "offset": 236.55543518066406
    },
    "Ctl": {
      "scale": 1.0,
      "offset": 0.7490000128746033
    },
    "Vdc": {
      "scale": 439.7894592285156,
      "offset": 338.2721862792969
    },
    "Idc": {
      "scale": 292.8359680175781,
      "offset": 131.92489624023438
    },
    "Idlo": {
      "scale": 186.4149932861328,
      "offset": 87.38320922851562
    },
    "Iqlo": {
      "scale": 68.51012420654297,
      "offset": -1.8834285736083984
    },
    "I0lo": {
      "scale": 0.8136371970176697,
      "offset": -6.633380689891055e-05
    },
    "Idhi": {
      "scale": 14.488091468811035,
      "offset": 0.49975311756134033
    },
    "Iqhi": {
      "scale": 14.80299186706543,
      "offset": 0.493014395236969
    },
    "I0hi": {
      "scale": 14.913056373596191,
      "offset": 0.48872336745262146
    }
  },
  "lr": 0.001,
  "num_iter": 2000,
  "print_freq": 10,
  "batch_size": 270,
  "n_skip": 1,
  "n_trunc": 0,
  "n_dec": 1,
  "n_loss_skip": 20,
  "na": 4,
  "nb": 4,
  "nk": 0,
  "activation": "tanh",
  "nh1": 40,
  "nh2": 30,
  "COL_T": [
    "t"
  ],
  "COL_Y": [
    "Vdc",
    "Idc",
    "Idlo",
    "Iqlo",
    "I0lo",
    "Idhi",
    "Iqhi",
    "I0hi"
  ],
  "COL_U": [
    "T",
    "G",
    "Fc",
    "Md",
    "Mq",
    "Vrms",
    "GVrms",
    "Ctl"
  ],
  "H1": {
    "n_in": 8,
    "n_out": 8,
    "n_b": 4,
    "n_a": 4,
    "n_k": 0,
    "a_0_0": [
      0.02169058285653591,
      0.017457809299230576,
      0.01575753465294838,
      0.002658725017681718
    ],
    "b_0_0": [
      0.004744161851704121,
      0.007124904077500105,
      -0.00037970260018482804,
      0.00038362902705557644
    ],
    "a_0_1": [
      -0.16695155203342438,
      -0.16113176941871643,
      -0.16634491086006165,
      -0.1728421151638031
    ],
    "b_0_1": [
      -0.06649763882160187,
      -0.07547076791524887,
      -0.07742834091186523,
      -0.07471839338541031
    ],
    "a_0_2": [
      -0.037947941571474075,
      -0.051976483315229416,
      -0.041947510093450546,
      -0.04254235699772835
    ],
    "b_0_2": [
      0.03653477132320404,
      0.03618840128183365,
      0.049772534519433975,
      0.04859472066164017
    ],
    "a_0_3": [
      -0.01108609139919281,
      -0.0025123583618551493,
      -0.01454647071659565,
      -0.0029545652214437723
    ],
    "b_0_3": [
      0.015448858961462975,
      0.008276421576738358,
      0.01671278476715088,
      0.013502798043191433
    ],
    "a_0_4": [
      -0.19548040628433228,
      -0.17866642773151398,
      -0.16386471688747406,
      -0.14317893981933594
    ],
    "b_0_4": [
      -0.11549484729766846,
      -0.10479613393545151,
      -0.09636648744344711,
      -0.11374351382255554
    ],
    "a_0_5": [
      -0.060934022068977356,
      -0.04954524338245392,
      -0.05705747753381729,
      -0.06039029359817505
    ],
    "b_0_5": [
      0.038139186799526215,
      0.04920240119099617,
      0.0552891381084919,
      0.04151391610503197
    ],
    "a_0_6": [
      -0.05929210036993027,
      -0.05995212495326996,
      -0.041387878358364105,
      -0.054088979959487915
    ],
    "b_0_6": [
      0.04604582488536835,
      0.05052747577428818,
      0.04639514908194542,
      0.04543698579072952
    ],
    "a_0_7": [
      -0.12142988294363022,
      -0.1210525631904602,
      -0.11914553493261337,
      -0.11979122459888458
    ],
    "b_0_7": [
      -0.0780973881483078,
      -0.0816684141755104,
      -0.09400935471057892,
      -0.08783403784036636
    ],
    "a_1_0": [
      -0.1347086876630783,
      -0.15096311271190643,
      -0.1462540179491043,
      -0.15201795101165771
    ],
    "b_1_0": [
      0.05776984244585037,
      0.061369411647319794,
      0.04256347939372063,
      0.0579688660800457
    ],
    "a_1_1": [
      -0.13386116921901703,
      -0.12371765822172165,
      -0.11446290463209152,
      -0.12937861680984497
    ],
    "b_1_1": [
      -0.06869874894618988,
      -0.07495887577533722,
      -0.062312979251146317,
      -0.06928868591785431
    ],
    "a_1_2": [
      0.019380642101168633,
      0.008926001377403736,
      0.01277470588684082,
      0.02319381572306156
    ],
    "b_1_2": [
      -0.015785926952958107,
      -0.023362820968031883,
      -0.024080749601125717,
      -0.017089005559682846
    ],
    "a_1_3": [
      -0.003092230297625065,
      0.000643714505713433,
      -0.006782231852412224,
      0.009124021977186203
    ],
    "b_1_3": [
      -0.029251359403133392,
      -0.019464613869786263,
      -0.02394031174480915,
      -0.01655115932226181
    ],
    "a_1_4": [
      -0.06658678501844406,
      -0.07240397483110428,
      -0.06201643496751785,
      -0.07200191169977188
    ],
    "b_1_4": [
      -0.03806908056139946,
      -0.04318949207663536,
      -0.03311304748058319,
      -0.03910708427429199
    ],
    "a_1_5": [
      -0.12219947576522827,
      -0.1118636354804039,
      -0.10271935164928436,
      -0.11162403970956802
    ],
    "b_1_5": [
      -0.06589511036872864,
      -0.070311039686203,
      -0.06640584766864777,
      -0.06774317473173141
    ],
    "a_1_6": [
      -0.06996585428714752,
      -0.06526340544223785,
      -0.06693822890520096,
      -0.07902427762746811
    ],
    "b_1_6": [
      0.042845673859119415,
      0.03622351586818695,
      0.04427598789334297,
      0.03632310405373573
    ],
    "a_1_7": [
      0.0116783631965518,
      0.009533470496535301,
      0.004524447955191135,
      0.012487797066569328
    ],
    "b_1_7": [
      0.015743786469101906,
      0.02342192828655243,
      0.010603971779346466,
      0.010979210957884789
    ],
    "a_2_0": [
      -0.15097936987876892,
      -0.16376540064811707,
      -0.1862771213054657,
      -0.20101621747016907
    ],
    "b_2_0": [
      -0.04634765908122063,
      -0.04729212448000908,
      -0.04406355321407318,
      -0.04592036083340645
    ],
    "a_2_1": [
      -0.06703335046768188,
      -0.053801264613866806,
      -0.06397145241498947,
      -0.0649174153804779
    ],
    "b_2_1": [
      0.05486529320478439,
      0.042348992079496384,
      0.04802166298031807,
      0.0537845715880394
    ],
    "a_2_2": [
      -0.10486071556806564,
      -0.10086079686880112,
      -0.11639776080846786,
      -0.09886504709720612
    ],
    "b_2_2": [
      0.07990297675132751,
      0.0703892633318901,
      0.06523251533508301,
      0.07380347698926926
    ],
    "a_2_3": [
      -0.17387112975120544,
      -0.1816454380750656,
      -0.17409464716911316,
      -0.16064143180847168
    ],
    "b_2_3": [
      0.12166152149438858,
      0.10836392641067505,
      0.10754436999559402,
      0.11658554524183273
    ],
    "a_2_4": [
      -0.005053806584328413,
      -0.001768023706972599,
      0.00326748751103878,
      -0.00982601847499609
    ],
    "b_2_4": [
      -0.022262699902057648,
      -0.030464744195342064,
      -0.027227800339460373,
      -0.018697667866945267
    ],
    "a_2_5": [
      -0.040306974202394485,
      -0.03964700177311897,
      -0.03768737614154816,
      -0.049284208565950394
    ],
    "b_2_5": [
      0.04078889638185501,
      0.05058510601520538,
      0.051154725253582,
      0.044323958456516266
    ],
    "a_2_6": [
      -0.003257403615862131,
      -0.01880119927227497,
      -0.0024416884407401085,
      -0.02144705317914486
    ],
    "b_2_6": [
      0.024220600724220276,
      0.021648963913321495,
      0.024330072104930878,
      0.026800816878676414
    ],
    "a_2_7": [
      -0.043866489082574844,
      -0.027050307020545006,
      -0.030411209911108017,
      -0.029169371351599693
    ],
    "b_2_7": [
      0.03921860456466675,
      0.043751247227191925,
      0.036734797060489655,
      0.04978950321674347
    ],
    "a_3_0": [
      -0.16505081951618195,
      -0.16630151867866516,
      -0.16889704763889313,
      -0.18087318539619446
    ],
    "b_3_0": [
      0.08204308897256851,
      0.09661363065242767,
      0.08401525765657425,
      0.08016933500766754
    ],
    "a_3_1": [
      -0.10856832563877106,
      -0.10738414525985718,
      -0.10905997455120087,
      -0.1053677499294281
    ],
    "b_3_1": [
      -0.06959978491067886,
      -0.07263950258493423,
      -0.06717992573976517,
      -0.07009871304035187
    ],
    "a_3_2": [
      -0.03287869691848755,
      -0.04007888212800026,
      -0.0468500480055809,
      -0.04778512194752693
    ],
    "b_3_2": [
      -0.05020017921924591,
      -0.034105390310287476,
      -0.04224194586277008,
      -0.04478362575173378
    ],
    "a_3_3": [
      -0.06530266255140305,
      -0.06545630842447281,
      -0.05985773727297783,
      -0.05982377007603645
    ],
    "b_3_3": [
      -0.04197827726602554,
      -0.040687210857868195,
      -0.05648605525493622,
      -0.04838540405035019
    ],
    "a_3_4": [
      -0.06464523077011108,
      -0.07377508282661438,
      -0.061987437307834625,
      -0.07744888216257095
    ],
    "b_3_4": [
      0.06142855063080788,
      0.0567263588309288,
      0.061330631375312805,
      0.049804773181676865
    ],
    "a_3_5": [
      0.010811399668455124,
      0.019721953198313713,
      0.02061246708035469,
      0.0048119244165718555
    ],
    "b_3_5": [
      -0.018418287858366966,
      -0.0045151240192353725,
      -0.00920845940709114,
      -0.004069498274475336
    ],
    "a_3_6": [
      -0.043726228177547455,
      -0.04483665153384209,
      -0.051136404275894165,
      -0.050181977450847626
    ],
    "b_3_6": [
      -0.045794084668159485,
      -0.04802967980504036,
      -0.04296056181192398,
      -0.051490314304828644
    ],
    "a_3_7": [
      -0.22627048194408417,
      -0.21734243631362915,
      -0.19065383076667786,
      -0.17047908902168274
    ],
    "b_3_7": [
      -0.1462288498878479,
      -0.13725093007087708,
      -0.1366184949874878,
      -0.13437777757644653
    ],
    "a_4_0": [
      -0.02773119881749153,
      -0.015479528345167637,
      -0.024899261072278023,
      -0.02044551633298397
    ],
    "b_4_0": [
      -0.02669147029519081,
      -0.037613313645124435,
      -0.02176288142800331,
      -0.04241861402988434
    ],
    "a_4_1": [
      -0.04120626673102379,
      -0.05436462536454201,
      -0.04579081013798714,
      -0.053781066089868546
    ],
    "b_4_1": [
      0.03900280222296715,
      0.04696471616625786,
      0.057570818811655045,
      0.04989537224173546
    ],
    "a_4_2": [
      -0.14652830362319946,
      -0.14511512219905853,
      -0.14190246164798737,
      -0.14402411878108978
    ],
    "b_4_2": [
      -0.0757279321551323,
      -0.08607237786054611,
      -0.07449709624052048,
      -0.07884254306554794
    ],
    "a_4_3": [
      -0.023871244862675667,
      -0.02574438415467739,
      -0.019710306078195572,
      -0.028021177276968956
    ],
    "b_4_3": [
      0.03555198386311531,
      0.03866848722100258,
      0.035991962999105453,
      0.030817970633506775
    ],
    "a_4_4": [
      -0.0648115873336792,
      -0.06913555413484573,
      -0.07363498955965042,
      -0.06118299439549446
    ],
    "b_4_4": [
      0.05926736444234848,
      0.053061362355947495,
      0.055021848529577255,
      0.0644913762807846
    ],
    "a_4_5": [
      -0.01257401704788208,
      -0.018276715651154518,
      -0.01812034286558628,
      -0.012625261209905148
    ],
    "b_4_5": [
      -0.023899847641587257,
      -0.013884786516427994,
      -0.024264048784971237,
      -0.022858694195747375
    ],
    "a_4_6": [
      -0.0670798271894455,
      -0.05991310998797417,
      -0.06747905164957047,
      -0.06610814481973648
    ],
    "b_4_6": [
      -0.05206156149506569,
      -0.06112312898039818,
      -0.05197009816765785,
      -0.05310226231813431
    ],
    "a_4_7": [
      -0.004524394869804382,
      -0.011569141410291195,
      -0.005146373063325882,
      -0.0025176105555146933
    ],
    "b_4_7": [
      0.021321430802345276,
      0.02022196538746357,
      0.03008378855884075,
      0.02965971827507019
    ],
    "a_5_0": [
      -0.039756838232278824,
      -0.03840375319123268,
      -0.04063558205962181,
      -0.03507706895470619
    ],
    "b_5_0": [
      -0.0507243275642395,
      -0.038708288222551346,
      -0.051003240048885345,
      -0.051901694387197495
    ],
    "a_5_1": [
      -0.009186087176203728,
      -0.011487486772239208,
      -0.0031427114736288786,
      -0.017618637531995773
    ],
    "b_5_1": [
      0.017995528876781464,
      0.015372611582279205,
      0.010513019748032093,
      0.0052220760844647884
    ],
    "a_5_2": [
      -0.2163480818271637,
      -0.21953243017196655,
      -0.206731379032135,
      -0.2209790050983429
    ],
    "b_5_2": [
      -0.09926079958677292,
      -0.09169095754623413,
      -0.10403390228748322,
      -0.10431624203920364
    ],
    "a_5_3": [
      -0.019873468205332756,
      -0.016233306378126144,
      -0.024324515834450722,
      -0.02725915238261223
    ],
    "b_5_3": [
      -0.028899073600769043,
      -0.037490010261535645,
      -0.03919097036123276,
      -0.03445137292146683
    ],
    "a_5_4": [
      -0.08639489114284515,
      -0.10191000252962112,
      -0.10008208453655243,
      -0.10551561415195465
    ],
    "b_5_4": [
      0.04435812681913376,
      0.03648996725678444,
      0.038490477949380875,
      0.045715197920799255
    ],
    "a_5_5": [
      -0.04963836818933487,
      -0.04692978411912918,
      -0.048676520586013794,
      -0.052861537784338
    ],
    "b_5_5": [
      -0.05261430889368057,
      -0.04487386345863342,
      -0.0502345971763134,
      -0.05108093097805977
    ],
    "a_5_6": [
      -0.10513942688703537,
      -0.09573781490325928,
      -0.09802404791116714,
      -0.09795468300580978
    ],
    "b_5_6": [
      -0.06335527449846268,
      -0.07474520057439804,
      -0.07462716847658157,
      -0.061673566699028015
    ],
    "a_5_7": [
      0.0633111372590065,
      0.06546855717897415,
      0.049749407917261124,
      0.05494122952222824
    ],
    "b_5_7": [
      0.011004683561623096,
      0.017743490636348724,
      0.005476026795804501,
      0.00303924223408103
    ],
    "a_6_0": [
      0.002328376052901149,
      -0.004013017751276493,
      -0.0032971478067338467,
      0.012137552723288536
    ],
    "b_6_0": [
      -0.003309262217953801,
      -0.0015493878163397312,
      0.006910459138453007,
      -0.009738074615597725
    ],
    "a_6_1": [
      -0.07567622512578964,
      -0.07697930186986923,
      -0.07785588502883911,
      -0.09263778477907181
    ],
    "b_6_1": [
      -0.04756065085530281,
      -0.04207998514175415,
      -0.051757052540779114,
      -0.05111958459019661
    ],
    "a_6_2": [
      -0.23395945131778717,
      -0.23603998124599457,
      -0.2619064748287201,
      -0.2590336203575134
    ],
    "b_6_2": [
      -0.06108832731842995,
      -0.07420734316110611,
      -0.06106267869472504,
      -0.07008499652147293
    ],
    "a_6_3": [
      -0.025573475286364555,
      -0.022457145154476166,
      -0.035188041627407074,
      -0.027783595025539398
    ],
    "b_6_3": [
      -0.0292186439037323,
      -0.04303663596510887,
      -0.0287358108907938,
      -0.04484435170888901
    ],
    "a_6_4": [
      -0.2524089813232422,
      -0.24417728185653687,
      -0.24007217586040497,
      -0.24012330174446106
    ],
    "b_6_4": [
      -0.08223400264978409,
      -0.07391002774238586,
      -0.0664050430059433,
      -0.08299698680639267
    ],
    "a_6_5": [
      -0.017083052545785904,
      -0.016164416447281837,
      -0.01747065968811512,
      -0.020473415032029152
    ],
    "b_6_5": [
      -0.04361322149634361,
      -0.030581317842006683,
      -0.041290704160928726,
      -0.03581933677196503
    ],
    "a_6_6": [
      -0.00028118074988014996,
      -0.00965489074587822,
      -0.017187219113111496,
      -0.0140188904479146
    ],
    "b_6_6": [
      0.0302940271794796,
      0.037415627390146255,
      0.03618984296917915,
      0.050252947956323624
    ],
    "a_6_7": [
      -0.1651274561882019,
      -0.16937097907066345,
      -0.1588868945837021,
      -0.16058596968650818
    ],
    "b_6_7": [
      -0.12446283549070358,
      -0.1360860913991928,
      -0.1273116022348404,
      -0.12903986871242523
    ],
    "a_7_0": [
      -0.02066005766391754,
      -0.01952601782977581,
      -0.013025433756411076,
      -0.018243756145238876
    ],
    "b_7_0": [
      0.02507217973470688,
      0.02314988523721695,
      0.025235269218683243,
      0.03614930808544159
    ],
    "a_7_1": [
      -0.030803292989730835,
      -0.028797190636396408,
      -0.016665678471326828,
      -0.019225522875785828
    ],
    "b_7_1": [
      -0.035448864102363586,
      -0.03500659391283989,
      -0.030627820640802383,
      -0.027019234374165535
    ],
    "a_7_2": [
      -0.012739626690745354,
      -0.028236964717507362,
      -0.028260571882128716,
      -0.013734230771660805
    ],
    "b_7_2": [
      -0.027820978313684464,
      -0.0300452820956707,
      -0.032609689980745316,
      -0.03613804280757904
    ],
    "a_7_3": [
      -0.10037313401699066,
      -0.11527424305677414,
      -0.10195630043745041,
      -0.11312104016542435
    ],
    "b_7_3": [
      -0.08357042074203491,
      -0.08524320274591446,
      -0.07266291230916977,
      -0.09007808566093445
    ],
    "a_7_4": [
      -0.10530418902635574,
      -0.1084475889801979,
      -0.10045776516199112,
      -0.11911863088607788
    ],
    "b_7_4": [
      -0.06621738523244858,
      -0.06767183542251587,
      -0.060829661786556244,
      -0.050330162048339844
    ],
    "a_7_5": [
      -0.06776592135429382,
      -0.051091406494379044,
      -0.04870286583900452,
      -0.05119755119085312
    ],
    "b_7_5": [
      -0.040760379284620285,
      -0.057967379689216614,
      -0.04947476089000702,
      -0.04301302507519722
    ],
    "a_7_6": [
      0.005531984381377697,
      -0.009319773875176907,
      0.006612781900912523,
      -0.009763629175722599
    ],
    "b_7_6": [
      0.007235785014927387,
      0.010918446816504002,
      0.00226039276458323,
      -0.004505193792283535
    ],
    "a_7_7": [
      -0.12123645842075348,
      -0.13184231519699097,
      -0.1311350166797638,
      -0.12728461623191833
    ],
    "b_7_7": [
      0.08727207779884338,
      0.07765480875968933,
      0.08687165379524231,
      0.08008277416229248
    ]
  },
  "F1": {
    "n_in": 8,
    "n_hid": 40,
    "n_out": 8,
    "activation": "tanh",
    "net.0.weight": [
      [
        0.01674320548772812,
        0.2753576934337616,
        -0.30997681617736816,
        -1.1284551620483398,
        -0.09585108608007431,
        0.17598974704742432,
        0.008525480516254902,
        0.2508639693260193
      ],
      [
        -0.021542668342590332,
        0.12257101386785507,
        0.1647312045097351,
        0.2583501636981964,
        -0.36490124464035034,
        -0.24279378354549408,
        -0.24813444912433624,
        0.07150010019540787
      ],
      [
        0.11061552166938782,
        0.2600437104701996,
        -0.10710698366165161,
        -0.012579555623233318,
        0.11226443946361542,
        0.3184501528739929,
        -0.08965877443552017,
        0.24020417034626007
      ],
      [
        -0.09553128480911255,
        -0.05911065265536308,
        0.2682507038116455,
        -0.47630584239959717,
        -0.21734555065631866,
        -0.14123480021953583,
        -0.13005506992340088,
        0.3006039559841156
      ],
      [
        -0.04419820383191109,
        -0.14058557152748108,
        -0.31166934967041016,
        -1.6314352750778198,
        -0.9991587996482849,
        0.45579397678375244,
        0.16874195635318756,
        0.16495034098625183
      ],
      [
        -0.015271593816578388,
        -0.16890709102153778,
        0.032546598464250565,
        -0.42701879143714905,
        -0.2452649474143982,
        -0.34859225153923035,
        0.3817138075828552,
        0.2717530131340027
      ],
      [
        0.00017330370610579848,
        -0.0034637171775102615,
        -0.17563611268997192,
        -0.17181047797203064,
        0.011753653176128864,
        -0.04430333524942398,
        0.2444748878479004,
        -0.24166563153266907
      ],
      [
        0.05392584577202797,
        -0.3862033784389496,
        0.019961515441536903,
        -1.0187231302261353,
        0.033563971519470215,
        0.13486096262931824,
        -0.17944258451461792,
        0.06121838465332985
      ],
      [
        0.1980673372745514,
        -0.15760065615177155,
        0.012765554711222649,
        -0.08157029002904892,
        -0.4150490462779999,
        0.3340395987033844,
        -0.3238428235054016,
        -0.04479192942380905
      ],
      [
        0.09383204579353333,
        0.2155059576034546,
        0.28709128499031067,
        0.2776168882846832,
        0.10200924426317215,
        -0.3167569935321808,
        -0.0738089457154274,
        -0.15681058168411255
      ],
      [
        0.0110772754997015,
        0.17626963555812836,
        2.028364896774292,
        -1.302623987197876,
        1.1677807569503784,
        -0.1278129518032074,
        -0.24840518832206726,
        -0.16658003628253937
      ],
      [
        -0.0399881936609745,
        -0.25483229756355286,
        0.2950132191181183,
        1.5868644714355469,
        0.826073408126831,
        0.09801153093576431,
        -0.34085699915885925,
        -0.16341552138328552
      ],
      [
        0.023075588047504425,
        -0.11390138417482376,
        -0.1694471389055252,
        0.06514398008584976,
        0.8818643093109131,
        0.31742390990257263,
        -0.269755482673645,
        -0.13039842247962952
      ],
      [
        -0.29630863666534424,
        0.06952663511037827,
        0.23999790847301483,
        -0.8373867869377136,
        -0.04791995882987976,
        0.10543844848871231,
        -0.12281595170497894,
        0.17084945738315582
      ],
      [
        0.0022195843048393726,
        0.43847352266311646,
        0.5626808404922485,
        -0.28634336590766907,
        -0.009814313612878323,
        -0.1692708283662796,
        -0.06852312386035919,
        0.1182287409901619
      ],
      [
        0.11276564747095108,
        -0.05430454760789871,
        -0.47236746549606323,
        0.50838702917099,
        -0.35391777753829956,
        -0.26778802275657654,
        -0.11682624369859695,
        -0.1280142217874527
      ],
      [
        -0.13951796293258667,
        -0.1966860294342041,
        -0.05605613812804222,
        -0.1043793112039566,
        -0.2526090741157532,
        -0.048141952604055405,
        0.3324187695980072,
        -0.07056159526109695
      ],
      [
        0.02138662151992321,
        0.033918578177690506,
        0.13747914135456085,
        0.5196337699890137,
        -0.08799465745687485,
        0.3102879226207733,
        0.3376885950565338,
        -0.0029842068906873465
      ],
      [
        -0.12773895263671875,
        -0.15317769348621368,
        -0.0015129612293094397,
        -0.0673881322145462,
        -0.43082213401794434,
        -0.40314793586730957,
        -0.3415527939796448,
        -0.2183672934770584
      ],
      [
        -0.08817145973443985,
        0.12395723164081573,
        0.05877950042486191,
        -0.23642124235630035,
        0.260178804397583,
        -0.3237708508968353,
        -0.10508330166339874,
        -0.14157423377037048
      ],
      [
        -0.06635972857475281,
        0.004288013093173504,
        -0.3077877461910248,
        0.05158603563904762,
        -0.2222808599472046,
        0.03875463455915451,
        -0.1241484209895134,
        0.1393609344959259
      ],
      [
        -0.0959867313504219,
        -0.05148903280496597,
        0.1478317677974701,
        -0.35552823543548584,
        0.2660383880138397,
        0.03647942468523979,
        -0.21615925431251526,
        0.2793864607810974
      ],
      [
        0.09167999029159546,
        -0.11948519200086594,
        0.24118070304393768,
        -0.3928009867668152,
        -0.016213063150644302,
        -0.09020544588565826,
        0.2772831320762634,
        0.03859388083219528
      ],
      [
        0.0021171034313738346,
        0.2077735811471939,
        0.19803881645202637,
        -1.0845870971679688,
        0.8721458911895752,
        0.45381060242652893,
        0.36849984526634216,
        0.1925758421421051
      ],
      [
        -0.026302913203835487,
        -0.1343052089214325,
        -1.6659464836120605,
        -1.3308848142623901,
        -0.5910799503326416,
        0.04688078537583351,
        -0.2667046785354614,
        0.006375535391271114
      ],
      [
        0.02766098454594612,
        0.4132198393344879,
        -0.08974825590848923,
        -0.642009973526001,
        -0.2811413109302521,
        0.3167065978050232,
        0.005027109291404486,
        0.33101019263267517
      ],
      [
        0.12995398044586182,
        0.015551289543509483,
        -0.15053214132785797,
        0.12881478667259216,
        0.1471664011478424,
        -0.2120690792798996,
        0.003240874269977212,
        0.08598970621824265
      ],
      [
        -0.13842512667179108,
        -0.10926362127065659,
        0.6238477826118469,
        -0.1329675018787384,
        -0.12067991495132446,
        0.4034048020839691,
        0.18481841683387756,
        -0.0011858539655804634
      ],
      [
        -0.19684487581253052,
        0.28180867433547974,
        -0.03829185292124748,
        -0.12323262542486191,
        -0.2099306732416153,
        -0.07777519524097443,
        -0.020366216078400612,
        0.3268031179904938
      ],
      [
        0.00534678203985095,
        0.26146242022514343,
        0.05571196973323822,
        -0.12887850403785706,
        0.5223284959793091,
        -0.2280970811843872,
        -0.6226687431335449,
        0.09510672837495804
      ],
      [
        0.08240195363759995,
        0.3568263053894043,
        -0.32732486724853516,
        0.15608200430870056,
        0.23148001730442047,
        -0.47469738125801086,
        0.14229510724544525,
        -0.30402764678001404
      ],
      [
        -0.06845937669277191,
        -0.1449367105960846,
        -0.038435425609350204,
        0.11656582355499268,
        0.5152414441108704,
        -0.11938449740409851,
        -0.21171027421951294,
        -0.16236338019371033
      ],
      [
        -0.27970802783966064,
        0.010818399488925934,
        -0.16664516925811768,
        -0.207561194896698,
        -0.301932692527771,
        0.4256454110145569,
        0.18596278131008148,
        0.25778961181640625
      ],
      [
        0.03151481971144676,
        -0.2153298705816269,
        -0.007903821766376495,
        0.17008069157600403,
        0.10017546266317368,
        0.10091681778430939,
        -0.19592122733592987,
        -0.11663959175348282
      ],
      [
        -0.30017825961112976,
        -0.055213749408721924,
        -0.19115610420703888,
        -0.3043624758720398,
        0.36155226826667786,
        -0.31516000628471375,
        -0.049136966466903687,
        0.1554257869720459
      ],
      [
        0.017381511628627777,
        -0.2283235639333725,
        -0.23025254905223846,
        -0.08238362520933151,
        0.2947830557823181,
        0.3698941469192505,
        -0.07911045104265213,
        0.12524592876434326
      ],
      [
        -0.07060848921537399,
        0.0860084816813469,
        -0.23688477277755737,
        0.2533973753452301,
        0.24431215226650238,
        0.04147004708647728,
        -0.10351581126451492,
        -0.22867262363433838
      ],
      [
        0.024143652990460396,
        -0.37248140573501587,
        0.2179405838251114,
        -0.45081111788749695,
        -0.7220349907875061,
        0.052904244512319565,
        -0.10505829006433487,
        0.13508036732673645
      ],
      [
        -0.016611194238066673,
        -0.4159298241138458,
        0.0005920584662817419,
        0.9553399085998535,
        0.010260265320539474,
        -0.08525171130895615,
        -0.35476386547088623,
        -0.14252932369709015
      ],
      [
        0.08330045640468597,
        -0.11313439905643463,
        -0.10294061154127121,
        0.009590032510459423,
        -0.20973609387874603,
        -0.134374737739563,
        0.4769366383552551,
        0.03838154673576355
      ]
    ],
    "net.0.bias": [
      0.07817638665437698,
      0.009432596154510975,
      -0.215781569480896,
      0.03345242515206337,
      0.35182783007621765,
      0.32366055250167847,
      0.223366379737854,
      0.07382462173700333,
      0.20835520327091217,
      -0.19467681646347046,
      -0.3924620449542999,
      -0.2779877185821533,
      0.45037126541137695,
      0.2175992727279663,
      -0.24438884854316711,
      0.0817912220954895,
      0.2915748059749603,
      0.33039093017578125,
      0.2871321737766266,
      0.22954070568084717,
      -0.056271202862262726,
      0.004854871891438961,
      0.2826975882053375,
      0.3200918436050415,
      -0.22597748041152954,
      0.43835756182670593,
      0.12318859994411469,
      0.24967734515666962,
      -0.2430233657360077,
      0.1238970160484314,
      -0.18644686043262482,
      0.22739550471305847,
      -0.10366641730070114,
      0.06688039004802704,
      0.038668323308229446,
      0.23143422603607178,
      -0.12173602730035782,
      0.28288698196411133,
      -0.32151830196380615,
      0.061805617064237595
    ],
    "net.2.weight": [
      [
        -0.08161492645740509,
        0.1299140304327011,
        -0.15322580933570862,
        0.05146973952651024,
        -0.01629219576716423,
        0.12282048910856247,
        0.16639114916324615,
        -0.2253258377313614,
        -0.18078464269638062,
        0.08209943771362305,
        0.07469362765550613,
        0.029341189190745354,
        -0.18533088266849518,
        -0.1125091016292572,
        -0.0781596228480339,
        0.007294527254998684,
        0.09878300875425339,
        0.14392417669296265,
        0.16268013417720795,
        0.20267467200756073,
        0.09639859199523926,
        -0.1336509883403778,
        0.030828237533569336,
        0.17050142586231232,
        0.15201407670974731,
        0.22086140513420105,
        0.11386923491954803,
        -0.0033027795143425465,
        -0.05104023590683937,
        0.22666239738464355,
        0.15830466151237488,
        -0.02193230576813221,
        -0.12529292702674866,
        -0.12288566678762436,
        -0.034309882670640945,
        -0.0016737907426431775,
        0.19540487229824066,
        -0.14690908789634705,
        -0.23538918793201447,
        0.056237488985061646
      ],
      [
        0.045987989753484726,
        -0.20895271003246307,
        -0.08619793504476547,
        0.11598732322454453,
        0.05551580339670181,
        -0.09179721027612686,
        0.1517506092786789,
        0.17242540419101715,
        -0.031229525804519653,
        0.043167438358068466,
        -0.123963862657547,
        0.03517221659421921,
        0.11334721744060516,
        5.6449171097483486e-05,
        -0.18394584953784943,
        -0.09567862004041672,
        0.08710778504610062,
        -0.061847057193517685,
        -0.007228353526443243,
        0.07363894581794739,
        0.04841671884059906,
        -0.06442293524742126,
        0.04354817792773247,
        0.02521503157913685,
        0.07774486392736435,
        -0.21792015433311462,
        -0.08866889774799347,
        -0.03424474224448204,
        -0.10678881406784058,
        -0.26957523822784424,
        -0.14761754870414734,
        0.037541091442108154,
        0.13081523776054382,
        0.02899816446006298,
        -0.19093652069568634,
        -0.009415732696652412,
        0.04246184229850769,
        -0.050803374499082565,
        0.15460965037345886,
        0.02867300435900688
      ],
      [
        -0.183506578207016,
        -0.19086602330207825,
        -0.042901743203401566,
        0.10595553368330002,
        -0.21504317224025726,
        0.2660824954509735,
        -0.05044686794281006,
        0.12463344633579254,
        -0.077189140021801,
        -0.1469135880470276,
        0.15740755200386047,
        0.10088779777288437,
        0.07608680427074432,
        0.09271680563688278,
        -0.17008523643016815,
        0.11375465989112854,
        0.16810625791549683,
        -0.008798371069133282,
        -0.1547417789697647,
        -0.07699023187160492,
        -0.11536514014005661,
        -0.052133411169052124,
        0.14220762252807617,
        -0.1801089644432068,
        0.11685976386070251,
        0.03239341080188751,
        0.07543539255857468,
        -0.12476060539484024,
        -0.14286087453365326,
        -0.3651376962661743,
        0.11177059262990952,
        0.14211922883987427,
        0.11236454546451569,
        -0.02727334573864937,
        0.10500559210777283,
        -0.1512615978717804,
        -0.14398445188999176,
        0.07488412410020828,
        -0.0383928045630455,
        0.2924708127975464
      ],
      [
        -0.1038200780749321,
        -0.27841007709503174,
        -0.15087667107582092,
        0.08620603382587433,
        0.020688382908701897,
        0.2532181143760681,
        0.1563291996717453,
        0.1805165708065033,
        -0.02122160606086254,
        -0.09324944019317627,
        -0.07399832457304001,
        0.0016214189818128943,
        0.07922464609146118,
        -0.07552408427000046,
        0.07421902567148209,
        -0.04120004177093506,
        0.0283069871366024,
        -0.12871532142162323,
        0.0920475497841835,
        0.1660938560962677,
        -0.18275466561317444,
        0.08404690772294998,
        0.22404047846794128,
        0.07251615077257156,
        0.09396078437566757,
        -0.1552334874868393,
        0.1171698048710823,
        0.10384747385978699,
        -0.0814543068408966,
        -0.1746312826871872,
        -0.05992867425084114,
        0.08999285846948624,
        -0.08178792893886566,
        -0.06684764474630356,
        0.09358488768339157,
        0.09992193430662155,
        -0.13270631432533264,
        0.12592291831970215,
        0.14344656467437744,
        0.2163419872522354
      ],
      [
        0.07638228684663773,
        -0.14028164744377136,
        0.06723589450120926,
        -0.08276917040348053,
        -0.0553426519036293,
        -0.08799828588962555,
        0.15945450961589813,
        0.006189402192831039,
        0.08367089182138443,
        -0.1738770455121994,
        0.2382132112979889,
        0.21505816280841827,
        -0.10180892050266266,
        -0.10793248564004898,
        -0.16709816455841064,
        -0.025608142837882042,
        0.03787517547607422,
        -0.009554596617817879,
        -0.04559852555394173,
        -0.03191481903195381,
        -0.006887268740683794,
        0.041745107620954514,
        -0.018098678439855576,
        -0.050568945705890656,
        0.1691121608018875,
        0.2074579894542694,
        -0.12935836613178253,
        0.15937630832195282,
        -0.09612129628658295,
        -0.08721158653497696,
        -0.2399962693452835,
        -0.19534644484519958,
        0.20490634441375732,
        -0.09462621808052063,
        -0.10079769045114517,
        0.08255672454833984,
        -0.06120931729674339,
        0.02364387735724449,
        0.035973042249679565,
        0.08798490464687347
      ],
      [
        -0.1748645305633545,
        -0.0511128194630146,
        -0.0522908940911293,
        0.12990321218967438,
        -0.10458887368440628,
        0.2541324198246002,
        -0.11125341057777405,
        0.01768980175256729,
        0.09882857650518417,
        0.03246847912669182,
        0.06177890673279762,
        0.13046778738498688,
        -0.17287547886371613,
        -0.08237840980291367,
        -0.08336236327886581,
        0.12409935891628265,
        0.06432849168777466,
        -0.19015134871006012,
        0.03671116381883621,
        0.08494480699300766,
        0.06362862884998322,
        -0.05145237222313881,
        -0.10910617560148239,
        0.002252667909488082,
        -0.008051451295614243,
        -0.12439782172441483,
        0.04987659677863121,
        0.07172365486621857,
        0.15162673592567444,
        -0.1525854468345642,
        -0.08001599460840225,
        -0.16262203454971313,
        -0.11787636578083038,
        0.13438865542411804,
        0.12254830449819565,
        0.10747431218624115,
        -0.181138813495636,
        0.25474992394447327,
        0.2146325260400772,
        0.3652542531490326
      ],
      [
        -0.1297135055065155,
        0.10343543440103531,
        -0.11416793614625931,
        0.2214462012052536,
        -0.11406358331441879,
        0.07994692027568817,
        0.031704388558864594,
        -0.013048757798969746,
        -0.16977126896381378,
        0.0017809878336265683,
        -0.04568648338317871,
        -0.1620490401983261,
        0.04868122935295105,
        -0.0498029962182045,
        0.023830045014619827,
        0.17425955832004547,
        0.14699657261371613,
        -0.08328025788068771,
        0.12100323289632797,
        0.026733558624982834,
        0.0020196714904159307,
        0.18730990588665009,
        0.08383526653051376,
        -0.2147538959980011,
        0.014580084942281246,
        -0.12239998579025269,
        0.29541662335395813,
        -0.14525634050369263,
        -0.12108498066663742,
        0.059414926916360855,
        0.11863332986831665,
        0.06269115209579468,
        0.03581386059522629,
        0.0018199160695075989,
        0.21851469576358795,
        -0.04694199189543724,
        -0.10891995579004288,
        -0.1285044103860855,
        -0.07977291941642761,
        0.2468222826719284
      ],
      [
        -0.05884359031915665,
        -0.10843020677566528,
        0.07271288335323334,
        -0.04200347885489464,
        -0.0947866141796112,
        0.12950696051120758,
        0.013303041458129883,
        0.09083251655101776,
        -0.08245011419057846,
        -0.061061300337314606,
        0.10059089958667755,
        -0.17823462188243866,
        0.3458014726638794,
        -0.10646864026784897,
        -0.1322837620973587,
        -0.15540720522403717,
        0.06368926912546158,
        0.11816223710775375,
        -0.12607285380363464,
        0.04015191271901131,
        -0.11380944401025772,
        -0.0762554258108139,
        0.1398618370294571,
        -0.1822136491537094,
        0.07883024960756302,
        0.18652327358722687,
        -0.04582719877362251,
        0.20987407863140106,
        -0.06382596492767334,
        0.07643507421016693,
        -0.115453340113163,
        -0.0025241337716579437,
        0.07497406005859375,
        0.053106889128685,
        -0.03017270751297474,
        0.1653807908296585,
        -0.03235190361738205,
        -0.21106596291065216,
        0.11932441592216492,
        -0.10794640332460403
      ]
    ],
    "net.2.bias": [
      0.1438566893339157,
      -0.10159258544445038,
      -0.0036339997313916683,
      0.02953077107667923,
      0.1232956275343895,
      0.09814672917127609,
      -0.015713289380073547,
      -0.09437287598848343
    ]
  },
  "F2": {
    "n_in": 8,
    "n_hid": 30,
    "n_out": 8,
    "activation": "tanh",
    "net.0.weight": [
      [
        0.10287228226661682,
        0.46442854404449463,
        0.2251311093568802,
        -0.31693166494369507,
        -0.20995156466960907,
        -0.18116351962089539,
        -0.4208885431289673,
        0.3990432918071747
      ],
      [
        -0.011630252003669739,
        -0.2926132082939148,
        0.015677152201533318,
        -0.12622655928134918,
        0.1397034227848053,
        -0.3639463186264038,
        -0.16801469027996063,
        -0.42751359939575195
      ],
      [
        0.07021691650152206,
        0.2402399480342865,
        -0.29138678312301636,
        0.13781951367855072,
        0.3255470097064972,
        0.10656429827213287,
        -0.013433434069156647,
        0.05870014801621437
      ],
      [
        -0.07786858081817627,
        0.10428208857774734,
        -0.20960918068885803,
        0.27504071593284607,
        0.21855570375919342,
        -0.21874527633190155,
        0.21121226251125336,
        0.29782962799072266
      ],
      [
        -0.18080411851406097,
        -0.07537699490785599,
        0.2603510916233063,
        -0.2952430844306946,
        0.12191085517406464,
        -0.0038992315530776978,
        0.16175535321235657,
        -0.3620239198207855
      ],
      [
        -0.24881866574287415,
        -0.04963504895567894,
        0.16639043390750885,
        -0.13300827145576477,
        -0.24181517958641052,
        -0.28237184882164,
        -0.1624392569065094,
        -0.2342909425497055
      ],
      [
        0.3893466889858246,
        -0.14760561287403107,
        0.329985111951828,
        0.31853798031806946,
        0.09732984006404877,
        -0.38569942116737366,
        0.18626588582992554,
        0.05106882005929947
      ],
      [
        0.1947915256023407,
        -0.19517427682876587,
        0.03760601580142975,
        0.5795384049415588,
        -0.27764129638671875,
        0.22659894824028015,
        0.28933319449424744,
        -0.15201543271541595
      ],
      [
        0.0800868347287178,
        0.16287396848201752,
        0.02623635157942772,
        0.462743878364563,
        0.3085521161556244,
        0.26272982358932495,
        -0.04045739769935608,
        0.3144916594028473
      ],
      [
        -0.3271569013595581,
        -0.20115986466407776,
        -0.0027583977207541466,
        -0.2854146957397461,
        0.3885987102985382,
        0.3537529706954956,
        0.7887545228004456,
        0.298990398645401
      ],
      [
        -0.30036935210227966,
        0.09350986778736115,
        -0.02953888662159443,
        0.15397319197654724,
        0.24464023113250732,
        -0.0869484692811966,
        -0.0228606965392828,
        0.3509945571422577
      ],
      [
        -0.17974218726158142,
        -0.3518323600292206,
        0.2745109796524048,
        0.2868283689022064,
        -0.05097341910004616,
        -0.025089634582400322,
        -0.30947694182395935,
        -0.39769285917282104
      ],
      [
        0.11415772140026093,
        -0.0037059930618852377,
        0.33187150955200195,
        -0.405025839805603,
        0.003714720718562603,
        -0.005818243604153395,
        -0.05752182751893997,
        0.3014591336250305
      ],
      [
        0.2235226035118103,
        0.23322351276874542,
        -0.08060876280069351,
        -0.08695562183856964,
        -0.27744632959365845,
        0.0466962531208992,
        0.26515600085258484,
        -0.1756972372531891
      ],
      [
        -0.06747663021087646,
        -0.2642781138420105,
        0.1798003613948822,
        0.1624452918767929,
        -0.3115576207637787,
        -0.28463101387023926,
        0.2638353705406189,
        0.053948868066072464
      ],
      [
        -0.16797780990600586,
        0.14178165793418884,
        0.0676979124546051,
        -0.08088792860507965,
        -0.19468091428279877,
        0.21493464708328247,
        -0.08930140733718872,
        -0.18103814125061035
      ],
      [
        -0.2276696413755417,
        -0.16440574824810028,
        0.0020234372932463884,
        -0.38323044776916504,
        0.35220542550086975,
        0.13148118555545807,
        -0.023959361016750336,
        -0.2042044997215271
      ],
      [
        0.20038515329360962,
        -0.1922183632850647,
        0.14160411059856415,
        0.028531420975923538,
        -0.2547300457954407,
        0.10358905047178268,
        -0.013353425078094006,
        0.30369725823402405
      ],
      [
        -0.21961453557014465,
        -0.27766263484954834,
        0.3654537498950958,
        -0.2834204137325287,
        0.054346609860658646,
        0.3123990297317505,
        -0.016080012544989586,
        0.28434211015701294
      ],
      [
        0.3366573750972748,
        0.5705547332763672,
        -0.24006134271621704,
        0.4276220202445984,
        -0.15097995102405548,
        -0.14435185492038727,
        -0.02710207737982273,
        0.19025875627994537
      ],
      [
        0.1652667075395584,
        0.17189419269561768,
        -0.21188050508499146,
        0.12413682788610458,
        0.11996044218540192,
        0.1666410267353058,
        0.10465028882026672,
        -0.13349440693855286
      ],
      [
        -0.36999979615211487,
        0.3483715057373047,
        -0.3368925154209137,
        0.23440022766590118,
        -0.3036457598209381,
        -0.09113935381174088,
        0.04695314168930054,
        0.14778035879135132
      ],
      [
        -0.0706910640001297,
        0.2370036095380783,
        -0.022048229351639748,
        0.18771059811115265,
        0.47511500120162964,
        -0.15393652021884918,
        0.01843767799437046,
        -0.13444651663303375
      ],
      [
        0.3905421793460846,
        0.5021364688873291,
        -0.06417388468980789,
        -0.18364590406417847,
        -0.2810121178627014,
        0.21355780959129333,
        0.12255804985761642,
        0.39404940605163574
      ],
      [
        0.31801363825798035,
        0.3441869020462036,
        0.1612512171268463,
        -0.3348766267299652,
        0.007868867367506027,
        -0.10862880945205688,
        0.28912314772605896,
        0.10129380971193314
      ],
      [
        0.0043023391626775265,
        -0.31365966796875,
        -0.38163599371910095,
        0.1689883917570114,
        0.07966131716966629,
        -0.044167909771203995,
        0.1407432109117508,
        -0.14372307062149048
      ],
      [
        0.14555512368679047,
        -0.32623231410980225,
        0.21774110198020935,
        -0.10111336410045624,
        0.2310485988855362,
        0.25802427530288696,
        0.1674022227525711,
        -0.073201023042202
      ],
      [
        0.27329540252685547,
        -0.3704417645931244,
        -0.18831075727939606,
        0.00020178775594104081,
        -0.05601644888520241,
        -0.3071945905685425,
        -0.252057820558548,
        -0.19453097879886627
      ],
      [
        -0.22939570248126984,
        0.14713241159915924,
        0.19305315613746643,
        -0.09427715092897415,
        -0.303417831659317,
        -0.5009332299232483,
        -0.42127740383148193,
        0.02097092941403389
      ],
      [
        0.24044068157672882,
        -0.19712796807289124,
        -0.11534841358661652,
        -0.23989234864711761,
        -0.036558929830789566,
        -0.3090723752975464,
        -0.1887936294078827,
        0.30197176337242126
      ]
    ],
    "net.0.bias": [
      -0.13971324265003204,
      -0.10410675406455994,
      -0.07376199960708618,
      -0.3379771411418915,
      -0.06933820992708206,
      -0.004766230937093496,
      -0.14470331370830536,
      -0.07800877839326859,
      0.03992734104394913,
      -0.43327417969703674,
      0.30059418082237244,
      0.2874235510826111,
      0.2814951241016388,
      -0.08699623495340347,
      0.16773457825183868,
      -0.3360927999019623,
      -0.11384619772434235,
      -0.08501217514276505,
      -0.24443432688713074,
      0.19623737037181854,
      -0.1760367453098297,
      -0.021226465702056885,
      -0.07243417203426361,
      -0.34521836042404175,
      -0.03345903009176254,
      -0.2712247371673584,
      0.18711857497692108,
      0.1992717683315277,
      0.3609532415866852,
      -0.14645202457904816
    ],
    "net.2.weight": [
      [
        -0.0056222896091639996,
        0.0641554743051529,
        0.17056415975093842,
        0.1940055936574936,
        0.012255105189979076,
        -0.16015037894248962,
        -0.14908097684383392,
        -0.12572477757930756,
        0.14512480795383453,
        0.0966104045510292,
        0.17909403145313263,
        0.08636283129453659,
        -0.005166738759726286,
        -0.10058522969484329,
        0.17377711832523346,
        0.17543016374111176,
        0.15274539589881897,
        -0.1273147016763687,
        0.17676343023777008,
        -0.04715970531105995,
        0.11727975308895111,
        0.08885631710290909,
        0.1586197465658188,
        -0.15573376417160034,
        -0.0672309398651123,
        0.12469027191400528,
        -0.05802975222468376,
        -0.19931675493717194,
        0.16415946185588837,
        -0.0187650416046381
      ],
      [
        0.11765141785144806,
        -0.2370472252368927,
        0.1415884643793106,
        -0.05298816040158272,
        -0.2314460426568985,
        -0.05899721384048462,
        -0.15000423789024353,
        0.01579337939620018,
        0.020578229799866676,
        0.07977744191884995,
        0.11307050287723541,
        -0.05976621434092522,
        -0.11014170944690704,
        -0.16016574203968048,
        -0.040222153067588806,
        -0.22213783860206604,
        -0.09602329879999161,
        -0.05919639393687248,
        -0.08930882811546326,
        -0.012219340540468693,
        0.14707018435001373,
        0.25501200556755066,
        -0.08371097594499588,
        -0.025154417380690575,
        0.046973761171102524,
        0.17946173250675201,
        -0.13534538447856903,
        0.004012888763099909,
        0.012753934599459171,
        -0.0848153829574585
      ],
      [
        0.1334903985261917,
        -0.06951060146093369,
        0.19574131071567535,
        -0.020686300471425056,
        -0.12074337899684906,
        -0.09343661367893219,
        -0.09188323467969894,
        -0.0324682742357254,
        0.15901830792427063,
        -0.022370023652911186,
        0.21363544464111328,
        -0.08833125233650208,
        0.07829971611499786,
        0.09539666026830673,
        -0.021468386054039,
        0.10543202608823776,
        -0.06401319056749344,
        -0.19277380406856537,
        -0.1713998168706894,
        0.14366796612739563,
        -0.08276660740375519,
        0.13876795768737793,
        0.18537163734436035,
        0.03646284341812134,
        -0.09398682415485382,
        0.017556874081492424,
        -0.0915907621383667,
        -0.13040192425251007,
        -0.10985409468412399,
        -0.18547874689102173
      ],
      [
        0.09518756717443466,
        -0.05979971960186958,
        -0.07947000116109848,
        -0.1540350764989853,
        0.08646182715892792,
        -0.07963045686483383,
        -0.003240050747990608,
        -0.2460535168647766,
        -0.11740966886281967,
        0.08704148232936859,
        -0.16683527827262878,
        -0.3187784254550934,
        0.19974829256534576,
        0.061625488102436066,
        -0.11266779899597168,
        -0.04265375807881355,
        0.09793279320001602,
        -0.1447920799255371,
        0.038234248757362366,
        0.12200412899255753,
        -0.03602791950106621,
        0.07861769199371338,
        -0.15051506459712982,
        0.21445797383785248,
        0.10671192407608032,
        -0.0738329216837883,
        -0.15813365578651428,
        0.03974088653922081,
        0.12730315327644348,
        -0.07407902926206589
      ],
      [
        0.10615206509828568,
        0.07895908504724503,
        -0.042988330125808716,
        0.01566162332892418,
        0.16532014310359955,
        -0.005635047797113657,
        -0.06956400722265244,
        0.03939741104841232,
        0.03913070634007454,
        -0.03194563463330269,
        -0.1147979125380516,
        0.10634931921958923,
        0.07006289064884186,
        0.026936816051602364,
        -0.004895792342722416,
        0.005385892931371927,
        0.05283188447356224,
        0.00865001417696476,
        -0.11545388400554657,
        0.03600433096289635,
        0.021471966058015823,
        0.12513254582881927,
        -0.0260299164801836,
        0.07593192905187607,
        -0.06171014532446861,
        0.07315236330032349,
        0.0481424406170845,
        -0.03908210247755051,
        -0.1522512137889862,
        0.03948850929737091
      ],
      [
        -0.11543864756822586,
        -0.029265813529491425,
        -0.09383136034011841,
        0.10693249106407166,
        0.07860773801803589,
        0.11081280559301376,
        -0.11225888878107071,
        -0.10935937613248825,
        0.14844512939453125,
        0.2531319260597229,
        -0.010291767306625843,
        0.03654973581433296,
        0.14144331216812134,
        -0.04290219396352768,
        -0.08927661925554276,
        -0.18804877996444702,
        0.021021252498030663,
        0.10077226161956787,
        -0.06108119711279869,
        0.12845243513584137,
        0.1260785609483719,
        -0.1568681001663208,
        -0.16432379186153412,
        -0.20945405960083008,
        0.15070591866970062,
        -0.010911808349192142,
        -0.16354161500930786,
        0.047776538878679276,
        -0.09381665289402008,
        -0.09538984298706055
      ],
      [
        -0.04724101722240448,
        0.13610486686229706,
        -0.10557467490434647,
        -0.1277914047241211,
        0.017100190743803978,
        0.121797114610672,
        -0.05864913389086723,
        -0.11509865522384644,
        0.13056260347366333,
        0.19045038521289825,
        -0.09214919805526733,
        -0.07487800717353821,
        0.04045098274946213,
        0.03133528679609299,
        -0.020077913999557495,
        0.02458610013127327,
        -0.13983577489852905,
        0.1524200439453125,
        0.01630120538175106,
        0.05108530819416046,
        0.06522063165903091,
        0.10880934447050095,
        -0.07379447668790817,
        -0.08721140027046204,
        0.0038804130163043737,
        -0.031881608068943024,
        0.06540524959564209,
        -0.06682906299829483,
        -0.19191856682300568,
        -0.028535271063447
      ],
      [
        -0.1337050348520279,
        0.16552673280239105,
        -0.03276515752077103,
        -0.12126918137073517,
        -0.05958911404013634,
        -0.13973741233348846,
        -0.1268640160560608,
        -0.025299839675426483,
        -0.028909729793667793,
        0.17702820897102356,
        0.12312708795070648,
        -0.02196870930492878,
        0.07980119436979294,
        -0.0745486319065094,
        0.11240991950035095,
        0.17993959784507751,
        -0.005275890696793795,
        0.17529180645942688,
        -0.22242946922779083,
        0.030601544305682182,
        0.05341573804616928,
        -0.12006555497646332,
        0.09914179891347885,
        -0.04517154023051262,
        0.03401381894946098,
        -0.13744480907917023,
        0.04429326578974724,
        -0.1581582874059677,
        -0.07762054353952408,
        0.10232747346162796
      ]
    ],
    "net.2.bias": [
      0.1081787720322609,
      0.08179288357496262,
      -0.03500271588563919,
      -0.07767568528652191,
      0.07698077708482742,
      0.03944886103272438,
      0.17530973255634308,
      0.05903468653559685
    ]
  }
}