{
  "name": "PV3",
  "type": "F1+H1+F2",
  "t_step": 0.002,
  "normfacs": {
    "T": {
      "scale": 20.003402709960938,
      "offset": 25.001083374023438
    },
    "G": {
      "scale": 1000.0999755859375,
      "offset": 509.3038330078125
    },
    "Fc": {
      "scale": 9.999828338623047,
      "offset": 60.00246810913086
    },
    "Md": {
      "scale": 0.40000206232070923,
      "offset": 1.000037431716919
    },
    "Mq": {
      "scale": 0.4000000059604645,
      "offset": 0.0010415337746962905
    },
    "Vrms": {
      "scale": 546.6259155273438,
      "offset": 413.1492614746094
    },
    "GVrms": {
      "scale": 546.6232299804688,
      "offset": 236.55543518066406
    },
    "Ctl": {
      "scale": 1.0,
      "offset": 0.7490000128746033
    },
    "Vdc": {
      "scale": 439.7894592285156,
      "offset": 338.2721862792969
    },
    "Idc": {
      "scale": 292.8359680175781,
      "offset": 131.92489624023438
    },
    "Idlo": {
      "scale": 186.4149932861328,
      "offset": 87.38320922851562
    },
    "Iqlo": {
      "scale": 68.51012420654297,
      "offset": -1.8834285736083984
    },
    "I0lo": {
      "scale": 0.8136371970176697,
      "offset": -6.633380689891055e-05
    },
    "Idhi": {
      "scale": 14.488091468811035,
      "offset": 0.49975311756134033
    },
    "Iqhi": {
      "scale": 14.80299186706543,
      "offset": 0.493014395236969
    },
    "I0hi": {
      "scale": 14.913056373596191,
      "offset": 0.48872336745262146
    }
  },
  "lr": 0.001,
  "num_iter": 5000,
  "print_freq": 10,
  "batch_size": 270,
  "n_skip": 1,
  "n_trunc": 0,
  "n_dec": 1,
  "n_loss_skip": 20,
  "na": 4,
  "nb": 4,
  "nk": 0,
  "activation": "tanh",
  "nh1": 80,
  "nh2": 60,
  "COL_T": [
    "t"
  ],
  "COL_Y": [
    "Vdc",
    "Idc",
    "Idlo",
    "Iqlo",
    "I0lo",
    "Idhi",
    "Iqhi",
    "I0hi"
  ],
  "COL_U": [
    "T",
    "G",
    "Fc",
    "Md",
    "Mq",
    "Vrms",
    "GVrms",
    "Ctl"
  ],
  "H1": {
    "n_in": 8,
    "n_out": 8,
    "n_b": 4,
    "n_a": 4,
    "n_k": 0,
    "a_0_0": [
      -0.051214270293712616,
      -0.03654127195477486,
      -0.051849495619535446,
      -0.04154675453901291
    ],
    "b_0_0": [
      0.0476350300014019,
      0.04560462385416031,
      0.04770657420158386,
      0.045259229838848114
    ],
    "a_0_1": [
      -0.03056234121322632,
      -0.022451462224125862,
      -0.020390190184116364,
      -0.018558822572231293
    ],
    "b_0_1": [
      -0.026308484375476837,
      -0.0251169390976429,
      -0.03426036611199379,
      -0.03318928927183151
    ],
    "a_0_2": [
      -0.07206035405397415,
      -0.06959378719329834,
      -0.07363492250442505,
      -0.06992574036121368
    ],
    "b_0_2": [
      0.07099342346191406,
      0.06535202264785767,
      0.05956269055604935,
      0.057868100702762604
    ],
    "a_0_3": [
      -0.0017362098442390561,
      -0.01768311858177185,
      -0.011604776605963707,
      -0.014776278287172318
    ],
    "b_0_3": [
      0.02408452145755291,
      0.02589450590312481,
      0.025311924517154694,
      0.019755376502871513
    ],
    "a_0_4": [
      -0.22542959451675415,
      -0.21662144362926483,
      -0.21542532742023468,
      -0.20750169456005096
    ],
    "b_0_4": [
      0.13834929466247559,
      0.12112704664468765,
      0.12163812667131424,
      0.11734376847743988
    ],
    "a_0_5": [
      0.021291458979249,
      0.03408972546458244,
      0.024913279339671135,
      0.03324149176478386
    ],
    "b_0_5": [
      0.015484491363167763,
      0.006576817017048597,
      0.0026356985326856375,
      0.012050031684339046
    ],
    "a_0_6": [
      -0.11600874364376068,
      -0.10980769246816635,
      -0.10759715735912323,
      -0.11891503632068634
    ],
    "b_0_6": [
      0.05928818881511688,
      0.05468728393316269,
      0.06304935365915298,
      0.05913485586643219
    ],
    "a_0_7": [
      -0.08541455119848251,
      -0.09815099835395813,
      -0.09551411867141724,
      -0.1082075983285904
    ],
    "b_0_7": [
      -0.07355373352766037,
      -0.07291927188634872,
      -0.0641465038061142,
      -0.06703891605138779
    ],
    "a_1_0": [
      -0.21606075763702393,
      -0.22673854231834412,
      -0.2320924997329712,
      -0.22313392162322998
    ],
    "b_1_0": [
      -0.10182929784059525,
      -0.107319675385952,
      -0.0972767025232315,
      -0.10015615820884705
    ],
    "a_1_1": [
      -0.04520617052912712,
      -0.04776928573846817,
      -0.043040234595537186,
      -0.05514954403042793
    ],
    "b_1_1": [
      0.03796253725886345,
      0.040649767965078354,
      0.049963999539613724,
      0.05444354563951492
    ],
    "a_1_2": [
      -0.009917782619595528,
      -0.022727154195308685,
      -0.018506411463022232,
      -0.025782868266105652
    ],
    "b_1_2": [
      0.005625612568110228,
      0.0177552979439497,
      0.01069418340921402,
      0.0312606543302536
    ],
    "a_1_3": [
      0.002986838575452566,
      0.008575082756578922,
      0.012216751463711262,
      0.007424081675708294
    ],
    "b_1_3": [
      0.02961731143295765,
      0.020673522725701332,
      0.019597286358475685,
      0.014982062391936779
    ],
    "a_1_4": [
      -0.028456363826990128,
      -0.046657439321279526,
      -0.04473043233156204,
      -0.03896471858024597
    ],
    "b_1_4": [
      0.03430980443954468,
      0.041450392454862595,
      0.045660462230443954,
      0.043060265481472015
    ],
    "a_1_5": [
      -0.06171635910868645,
      -0.0725029930472374,
      -0.07148061692714691,
      -0.07332012802362442
    ],
    "b_1_5": [
      -0.03227151185274124,
      -0.04787565767765045,
      -0.0553898811340332,
      -0.053618814796209335
    ],
    "a_1_6": [
      0.012214326299726963,
      0.024058371782302856,
      0.030956711620092392,
      0.029254136607050896
    ],
    "b_1_6": [
      -0.021317528560757637,
      -0.0026414545718580484,
      -0.014056292362511158,
      -0.01522347703576088
    ],
    "a_1_7": [
      -0.182623490691185,
      -0.1961001306772232,
      -0.20531783998012543,
      -0.2083761990070343
    ],
    "b_1_7": [
      -0.09564591199159622,
      -0.0991106927394867,
      -0.09636674076318741,
      -0.0853479728102684
    ],
    "a_2_0": [
      -0.04026535153388977,
      -0.050553735345602036,
      -0.051383424550294876,
      -0.05080027878284454
    ],
    "b_2_0": [
      -0.057528261095285416,
      -0.044293101876974106,
      -0.04113662615418434,
      -0.0475790798664093
    ],
    "a_2_1": [
      -0.012571325525641441,
      -0.021827705204486847,
      -0.021744148805737495,
      -0.0035553667694330215
    ],
    "b_2_1": [
      -0.025662938132882118,
      -0.03620937094092369,
      -0.023129817098379135,
      -0.021680934354662895
    ],
    "a_2_2": [
      -0.016544947400689125,
      -0.014731030911207199,
      -0.016809236258268356,
      -0.024109793826937675
    ],
    "b_2_2": [
      -0.013591527938842773,
      -0.009513983502984047,
      -0.03101048246026039,
      -0.02426186203956604
    ],
    "a_2_3": [
      -0.2323228120803833,
      -0.22658300399780273,
      -0.23419354856014252,
      -0.2323564887046814
    ],
    "b_2_3": [
      -0.11338894069194794,
      -0.11594738811254501,
      -0.09469082951545715,
      -0.09611227363348007
    ],
    "a_2_4": [
      -0.006623784080147743,
      -0.017518114298582077,
      -0.0013491439167410135,
      -0.001629875274375081
    ],
    "b_2_4": [
      0.011229489929974079,
      0.003418420208618045,
      0.011983165517449379,
      -0.0026345534715801477
    ],
    "a_2_5": [
      -0.00021986688079778105,
      -0.01094790268689394,
      -0.0030082855373620987,
      -0.018096834421157837
    ],
    "b_2_5": [
      0.0006277443608269095,
      0.009363720193505287,
      0.014212490990757942,
      0.010657116770744324
    ],
    "a_2_6": [
      -0.07143031805753708,
      -0.07117823511362076,
      -0.07281795889139175,
      -0.06513922661542892
    ],
    "b_2_6": [
      -0.06243661418557167,
      -0.06334967911243439,
      -0.05371933802962303,
      -0.05788144841790199
    ],
    "a_2_7": [
      -0.017471833154559135,
      -0.011803300119936466,
      -0.01159583404660225,
      -0.0163657795637846
    ],
    "b_2_7": [
      0.0351380780339241,
      0.02769547700881958,
      0.02960202656686306,
      0.011681281961500645
    ],
    "a_3_0": [
      -0.06756290048360825,
      -0.07530248910188675,
      -0.0620240792632103,
      -0.06359878182411194
    ],
    "b_3_0": [
      0.050319526344537735,
      0.03895401582121849,
      0.041345417499542236,
      0.04413533955812454
    ],
    "a_3_1": [
      -0.0011474017519503832,
      -0.010409405454993248,
      -0.0023842130322009325,
      0.0037453975528478622
    ],
    "b_3_1": [
      -0.01470299530774355,
      -0.011714327149093151,
      -0.004746854770928621,
      -0.018965985625982285
    ],
    "a_3_2": [
      -0.10923107713460922,
      -0.11175834387540817,
      -0.1277102530002594,
      -0.13251319527626038
    ],
    "b_3_2": [
      0.059600431472063065,
      0.0510934516787529,
      0.062403250485658646,
      0.0703081414103508
    ],
    "a_3_3": [
      0.0031200593803077936,
      0.0066725751385092735,
      0.019275570288300514,
      0.013641194440424442
    ],
    "b_3_3": [
      -0.012736698612570763,
      -0.009732543490827084,
      -0.011920042335987091,
      -0.01750790886580944
    ],
    "a_3_4": [
      -0.24948956072330475,
      -0.24505135416984558,
      -0.24495826661586761,
      -0.24330425262451172
    ],
    "b_3_4": [
      -0.039652738720178604,
      -0.047782715409994125,
      -0.03635729104280472,
      -0.0409306138753891
    ],
    "a_3_5": [
      -0.2310532182455063,
      -0.2402622401714325,
      -0.25150400400161743,
      -0.2688395082950592
    ],
    "b_3_5": [
      -0.024641791358590126,
      -0.009491036646068096,
      -0.0192808136343956,
      -0.020722080022096634
    ],
    "a_3_6": [
      -0.015245482325553894,
      -0.021230541169643402,
      -0.014658870175480843,
      -0.01628902181982994
    ],
    "b_3_6": [
      -0.04207926243543625,
      -0.042201898992061615,
      -0.039000578224658966,
      -0.04409719631075859
    ],
    "a_3_7": [
      -0.024416739121079445,
      -0.03986532986164093,
      -0.03771553561091423,
      -0.02693341299891472
    ],
    "b_3_7": [
      -0.04426415637135506,
      -0.040682535618543625,
      -0.03938465937972069,
      -0.03238576650619507
    ],
    "a_4_0": [
      -0.12703222036361694,
      -0.13509362936019897,
      -0.11901717633008957,
      -0.13030165433883667
    ],
    "b_4_0": [
      0.07621914148330688,
      0.06343421339988708,
      0.07012086361646652,
      0.06895218044519424
    ],
    "a_4_1": [
      -0.03638751432299614,
      -0.05261724442243576,
      -0.04189794883131981,
      -0.04984187334775925
    ],
    "b_4_1": [
      -0.051017068326473236,
      -0.04703817144036293,
      -0.04874818027019501,
      -0.03988661989569664
    ],
    "a_4_2": [
      -0.08091981709003448,
      -0.08165347576141357,
      -0.0862637460231781,
      -0.08021285384893417
    ],
    "b_4_2": [
      -0.05319753661751747,
      -0.04862460121512413,
      -0.05718012526631355,
      -0.056028638035058975
    ],
    "a_4_3": [
      -0.06931281089782715,
      -0.05337038263678551,
      -0.051481157541275024,
      -0.047468069940805435
    ],
    "b_4_3": [
      -0.0684017613530159,
      -0.07748818397521973,
      -0.06960424035787582,
      -0.05569182708859444
    ],
    "a_4_4": [
      -0.014656192623078823,
      -0.01943071372807026,
      -0.014748625457286835,
      -0.022754766047000885
    ],
    "b_4_4": [
      -0.0025750654749572277,
      -0.01318430993705988,
      -0.0158380176872015,
      -0.015225603245198727
    ],
    "a_4_5": [
      -0.054339583963155746,
      -0.054806627333164215,
      -0.058585572987794876,
      -0.06629632413387299
    ],
    "b_4_5": [
      0.030795957893133163,
      0.038868267089128494,
      0.032988838851451874,
      0.044599439948797226
    ],
    "a_4_6": [
      -0.05345562472939491,
      -0.05204283818602562,
      -0.05741794407367706,
      -0.0561765618622303
    ],
    "b_4_6": [
      0.05199706554412842,
      0.05278180539608002,
      0.0577792152762413,
      0.060243088752031326
    ],
    "a_4_7": [
      -0.11236794292926788,
      -0.10464278608560562,
      -0.11699074506759644,
      -0.10420230776071548
    ],
    "b_4_7": [
      0.09941406548023224,
      0.08861919492483139,
      0.08545662462711334,
      0.07870688289403915
    ],
    "a_5_0": [
      -0.06318424642086029,
      -0.062210503965616226,
      -0.046201977878808975,
      -0.05228012800216675
    ],
    "b_5_0": [
      0.0696534663438797,
      0.057937875390052795,
      0.05988579988479614,
      0.05212872102856636
    ],
    "a_5_1": [
      -0.046697620302438736,
      -0.05603785440325737,
      -0.05828969553112984,
      -0.06442183256149292
    ],
    "b_5_1": [
      0.04304170235991478,
      0.05811234191060066,
      0.053725533187389374,
      0.06219758093357086
    ],
    "a_5_2": [
      -0.11482930183410645,
      -0.10767218470573425,
      -0.10587263107299805,
      -0.11009149253368378
    ],
    "b_5_2": [
      0.10194845497608185,
      0.09915950894355774,
      0.09689507633447647,
      0.08872096240520477
    ],
    "a_5_3": [
      -0.04899638891220093,
      -0.06299102306365967,
      -0.04978102445602417,
      -0.04205505922436714
    ],
    "b_5_3": [
      0.05251357704401016,
      0.04883628338575363,
      0.044409576803445816,
      0.037421755492687225
    ],
    "a_5_4": [
      -0.10771056264638901,
      -0.08963438868522644,
      -0.08880359679460526,
      -0.08766411989927292
    ],
    "b_5_4": [
      -0.08799893409013748,
      -0.08386248350143433,
      -0.08600471168756485,
      -0.07149363309144974
    ],
    "a_5_5": [
      -0.03321199119091034,
      -0.028484012931585312,
      -0.041391521692276,
      -0.03991645574569702
    ],
    "b_5_5": [
      -0.022311430424451828,
      -0.011865183711051941,
      -0.02476511523127556,
      -0.02466445043683052
    ],
    "a_5_6": [
      -0.030979780480265617,
      -0.03932373225688934,
      -0.04554659500718117,
      -0.04398645460605621
    ],
    "b_5_6": [
      0.01124427281320095,
      0.026354018598794937,
      0.014155227690935135,
      0.029349861666560173
    ],
    "a_5_7": [
      -0.07231589406728745,
      -0.07092984765768051,
      -0.06614052504301071,
      -0.06316979974508286
    ],
    "b_5_7": [
      -0.07194744050502777,
      -0.06598201394081116,
      -0.06778129190206528,
      -0.0628722533583641
    ],
    "a_6_0": [
      0.028933873400092125,
      0.029811471700668335,
      0.024675028398633003,
      0.020037192851305008
    ],
    "b_6_0": [
      -0.011016065254807472,
      -0.01443434040993452,
      -0.010964173823595047,
      -0.02149827592074871
    ],
    "a_6_1": [
      -0.034824613481760025,
      -0.04833546653389931,
      -0.047483354806900024,
      -0.05809066817164421
    ],
    "b_6_1": [
      0.030518043786287308,
      0.03208594769239426,
      0.030733440071344376,
      0.025086162611842155
    ],
    "a_6_2": [
      -0.2971593737602234,
      -0.2477344274520874,
      -0.22065483033657074,
      -0.17554157972335815
    ],
    "b_6_2": [
      -0.23836958408355713,
      -0.2196398228406906,
      -0.2020031064748764,
      -0.18614830076694489
    ],
    "a_6_3": [
      0.009100086987018585,
      -0.004208184778690338,
      -0.0039452859200537205,
      -0.003306924132630229
    ],
    "b_6_3": [
      0.010627759620547295,
      0.02514839358627796,
      0.011644341982901096,
      0.012319911271333694
    ],
    "a_6_4": [
      -0.016864657402038574,
      -0.027632635086774826,
      -0.02027834765613079,
      -0.017563819885253906
    ],
    "b_6_4": [
      -0.039224568754434586,
      -0.033929865807294846,
      -0.029633713886141777,
      -0.040596477687358856
    ],
    "a_6_5": [
      -0.06826414912939072,
      -0.06776279211044312,
      -0.0790414959192276,
      -0.06849298626184464
    ],
    "b_6_5": [
      0.039839860051870346,
      0.042208537459373474,
      0.03471288084983826,
      0.042943570762872696
    ],
    "a_6_6": [
      0.022130604833364487,
      0.018049076199531555,
      0.01191171258687973,
      0.024988986551761627
    ],
    "b_6_6": [
      0.00793937873095274,
      0.007157256826758385,
      0.008492163382470608,
      0.009793710894882679
    ],
    "a_6_7": [
      -0.2195862978696823,
      -0.2343726009130478,
      -0.23481054604053497,
      -0.2430834174156189
    ],
    "b_6_7": [
      -0.016357142478227615,
      -0.023546967655420303,
      -0.01813860796391964,
      -0.02604786492884159
    ],
    "a_7_0": [
      0.03823002055287361,
      0.041828978806734085,
      0.05278487876057625,
      0.0427398607134819
    ],
    "b_7_0": [
      -0.004580797161906958,
      -0.01697353459894657,
      -0.009172750636935234,
      -0.017003146931529045
    ],
    "a_7_1": [
      -0.10959874093532562,
      -0.10478435456752777,
      -0.10167980194091797,
      -0.11265861243009567
    ],
    "b_7_1": [
      0.07949325442314148,
      0.07438682019710541,
      0.08330722898244858,
      0.08276741206645966
    ],
    "a_7_2": [
      -0.015261850319802761,
      -0.0041424487717449665,
      -0.009061548858880997,
      -0.017702320590615273
    ],
    "b_7_2": [
      -0.017774121835827827,
      -0.015200050547719002,
      -0.015963992103934288,
      -0.00481694471091032
    ],
    "a_7_3": [
      0.02518058940768242,
      0.02398274838924408,
      0.02753269113600254,
      0.025487124919891357
    ],
    "b_7_3": [
      -0.0038699330762028694,
      0.009596207179129124,
      0.008534249849617481,
      0.007273716852068901
    ],
    "a_7_4": [
      -0.03833148255944252,
      -0.029267724603414536,
      -0.029431946575641632,
      -0.027296286076307297
    ],
    "b_7_4": [
      0.041824355721473694,
      0.041148822754621506,
      0.045864056795835495,
      0.04645756259560585
    ],
    "a_7_5": [
      -0.04625987634062767,
      -0.039016544818878174,
      -0.04804832488298416,
      -0.03460576757788658
    ],
    "b_7_5": [
      -0.04114935174584389,
      -0.04260870814323425,
      -0.038666676729917526,
      -0.05006347969174385
    ],
    "a_7_6": [
      -0.1559772789478302,
      -0.16592389345169067,
      -0.17626075446605682,
      -0.17237353324890137
    ],
    "b_7_6": [
      0.08054069429636002,
      0.08799653500318527,
      0.08848068118095398,
      0.08113095909357071
    ],
    "a_7_7": [
      -0.13620144128799438,
      -0.1551126092672348,
      -0.16494162380695343,
      -0.16090257465839386
    ],
    "b_7_7": [
      -0.059912871569395065,
      -0.06811631470918655,
      -0.06505120545625687,
      -0.06918478012084961
    ]
  },
  "F1": {
    "n_in": 8,
    "n_hid": 80,
    "n_out": 8,
    "activation": "tanh",
    "net.0.weight": [
      [
        -0.022175733000040054,
        0.20939701795578003,
        -0.0016629190649837255,
        -0.16883964836597443,
        0.28664278984069824,
        0.041133347898721695,
        -0.1698460578918457,
        0.22424541413784027
      ],
      [
        -0.036808088421821594,
        0.17402350902557373,
        -0.2539169490337372,
        0.1992739886045456,
        -0.11752823740243912,
        -0.36603325605392456,
        -0.3105933368206024,
        0.1518898755311966
      ],
      [
        0.03671988844871521,
        0.22020141780376434,
        -0.3058461546897888,
        -0.31243857741355896,
        0.18179389834403992,
        0.2752547264099121,
        -0.10791687667369843,
        0.2711893618106842
      ],
      [
        -0.028773313388228416,
        -0.018611153587698936,
        -0.15763764083385468,
        -0.8432189226150513,
        -0.21191547811031342,
        -0.08134835958480835,
        -0.1310848891735077,
        0.44652941823005676
      ],
      [
        -0.067169688642025,
        0.022471364587545395,
        -0.5548755526542664,
        -0.7087046504020691,
        -0.11569482833147049,
        0.28637081384658813,
        0.2699771523475647,
        0.36034727096557617
      ],
      [
        0.03763012960553169,
        -0.15091431140899658,
        0.48965173959732056,
        -0.2886797785758972,
        -0.382570743560791,
        -0.10133076459169388,
        0.22509564459323883,
        0.2085530012845993
      ],
      [
        -0.1208762601017952,
        0.03834133967757225,
        0.26849696040153503,
        0.3681015074253082,
        -0.044207699596881866,
        0.14396019279956818,
        0.2574058175086975,
        -0.19034643471240997
      ],
      [
        0.03554980456829071,
        -0.45094454288482666,
        -0.20180578529834747,
        -0.4838634729385376,
        0.6906054615974426,
        0.098479263484478,
        -0.19361691176891327,
        0.2551785409450531
      ],
      [
        -0.0031588347628712654,
        -0.16988033056259155,
        0.06963100284337997,
        -0.13695228099822998,
        0.0007271700887940824,
        0.2920328378677368,
        -0.3404599130153656,
        -0.21031972765922546
      ],
      [
        0.08589811623096466,
        0.34519875049591064,
        0.1606912910938263,
        0.6431338787078857,
        -0.038360752165317535,
        -0.29114797711372375,
        0.00946249533444643,
        -0.17275415360927582
      ],
      [
        -0.258635550737381,
        0.3233456015586853,
        0.16704323887825012,
        -0.46977728605270386,
        0.15120026469230652,
        -0.3021775484085083,
        -0.2384815663099289,
        -0.13467730581760406
      ],
      [
        0.08339006453752518,
        -0.25456100702285767,
        0.872482419013977,
        0.5703230500221252,
        0.20752234756946564,
        0.1588137149810791,
        -0.32201331853866577,
        -0.2456236183643341
      ],
      [
        0.14629143476486206,
        0.11140450090169907,
        0.13765481114387512,
        -0.3421492278575897,
        0.28645437955856323,
        0.36142486333847046,
        -0.18126963078975677,
        -0.11153796315193176
      ],
      [
        0.03383275121450424,
        -0.3169172406196594,
        -2.211653709411621,
        -1.5400205850601196,
        -0.2941405475139618,
        0.21211476624011993,
        -0.03490070626139641,
        0.27878448367118835
      ],
      [
        -0.16085144877433777,
        0.3819158971309662,
        0.6135302782058716,
        -0.006100266706198454,
        -0.20804382860660553,
        -0.1678040325641632,
        -0.1411258429288864,
        0.12132984399795532
      ],
      [
        0.0637657642364502,
        0.21808262169361115,
        -0.5516567230224609,
        0.10288725793361664,
        -0.47754302620887756,
        -0.18796859681606293,
        -0.11500216275453568,
        0.007307525258511305
      ],
      [
        -0.1408379226922989,
        -0.3281325697898865,
        -0.08433115482330322,
        -0.03146055340766907,
        -0.09038503468036652,
        0.06415543705224991,
        0.5222418904304504,
        -0.07968853414058685
      ],
      [
        -0.07122468948364258,
        0.07862959802150726,
        0.7893767952919006,
        0.7770876884460449,
        0.07132665812969208,
        0.3489072620868683,
        0.3751786947250366,
        0.017291178926825523
      ],
      [
        -0.13321666419506073,
        -0.1589852273464203,
        0.05523098260164261,
        0.11712747812271118,
        0.04149843752384186,
        -0.25231194496154785,
        -0.27027592062950134,
        -0.2887907028198242
      ],
      [
        -0.08278524875640869,
        0.2534514367580414,
        0.1911347210407257,
        -0.4199122190475464,
        0.13975712656974792,
        -0.3561500310897827,
        -0.1112249568104744,
        -0.12241162359714508
      ],
      [
        -0.016551103442907333,
        -0.017932666465640068,
        -1.5312598943710327,
        -0.4227275252342224,
        0.16474896669387817,
        0.03866470232605934,
        -0.17662261426448822,
        0.29384908080101013
      ],
      [
        -0.11637119203805923,
        -0.07993075251579285,
        0.37480950355529785,
        -0.6639260053634644,
        0.4335765838623047,
        0.25009846687316895,
        -0.2590417265892029,
        0.24628955125808716
      ],
      [
        -0.07479415088891983,
        -0.14329631626605988,
        0.6426052451133728,
        -0.1466716229915619,
        -0.10956136882305145,
        0.04010840877890587,
        0.3418292999267578,
        0.08029800653457642
      ],
      [
        0.07515693455934525,
        0.2397639900445938,
        -0.5855151414871216,
        -0.3299974501132965,
        -0.08352241665124893,
        0.2547250986099243,
        0.2920033931732178,
        0.40263524651527405
      ],
      [
        -0.14659082889556885,
        -0.03254134953022003,
        -0.2287919670343399,
        -0.725262463092804,
        -0.2954463064670563,
        0.16597647964954376,
        -0.2296399623155594,
        -0.02771596983075142
      ],
      [
        0.06330403685569763,
        -0.0013600080274045467,
        -0.7791827321052551,
        -0.334316223859787,
        -0.1019618883728981,
        0.35974401235580444,
        -0.4050741195678711,
        0.37617969512939453
      ],
      [
        0.137834370136261,
        -0.011005018837749958,
        0.15386146306991577,
        0.19800768792629242,
        0.03480938449501991,
        -0.18142956495285034,
        -0.015365982428193092,
        -0.021956320852041245
      ],
      [
        -0.2901534140110016,
        -0.16970190405845642,
        0.44916364550590515,
        -0.3829699158668518,
        -0.08777432143688202,
        0.29999294877052307,
        0.18850424885749817,
        -0.016927707940340042
      ],
      [
        -0.2140296995639801,
        0.21061651408672333,
        -0.4918522238731384,
        0.23985761404037476,
        0.04111607372760773,
        -0.07444718480110168,
        -0.1331149786710739,
        0.3079490065574646
      ],
      [
        -0.042024653404951096,
        0.4310815930366516,
        0.9754263162612915,
        -0.9156953692436218,
        0.0782582238316536,
        -0.29736101627349854,
        -0.21852895617485046,
        0.13131186366081238
      ],
      [
        -0.04656344652175903,
        0.3242782950401306,
        -0.4877714514732361,
        0.12930235266685486,
        -0.16095532476902008,
        -0.34325411915779114,
        0.2050325572490692,
        -0.32177242636680603
      ],
      [
        -0.08906728029251099,
        -0.05178859084844589,
        -0.34710314869880676,
        -0.013740877620875835,
        0.34814295172691345,
        -0.10664083808660507,
        -0.22373639047145844,
        -0.11395536363124847
      ],
      [
        -0.20416484773159027,
        0.20715299248695374,
        -1.0867860317230225,
        -0.24965158104896545,
        -0.205417662858963,
        0.2716907262802124,
        0.21833115816116333,
        0.36353057622909546
      ],
      [
        0.06122053414583206,
        -0.11082880198955536,
        0.13758276402950287,
        -0.05163990333676338,
        -0.08401983976364136,
        0.08846163749694824,
        -0.06494076550006866,
        -0.2705440819263458
      ],
      [
        -0.32008910179138184,
        0.07515324652194977,
        -0.03780721127986908,
        -0.4147591292858124,
        0.13200463354587555,
        -0.08012869954109192,
        0.02644321881234646,
        0.12880048155784607
      ],
      [
        0.04829609766602516,
        -0.35420385003089905,
        0.46487969160079956,
        -0.11302987486124039,
        -0.4881545305252075,
        0.28585532307624817,
        -0.09171447157859802,
        0.17397314310073853
      ],
      [
        -0.1668701469898224,
        -0.02233203314244747,
        0.04079576954245567,
        0.23881465196609497,
        0.3597160279750824,
        -0.19504496455192566,
        -0.19249796867370605,
        -0.2417020946741104
      ],
      [
        0.24835044145584106,
        -0.27543798089027405,
        0.15754246711730957,
        -0.4884791970252991,
        -0.15907861292362213,
        0.03310030326247215,
        -0.12930677831172943,
        0.010221883654594421
      ],
      [
        0.11753086000680923,
        -0.2429249882698059,
        -0.9314889311790466,
        -0.3471742868423462,
        0.3608458340167999,
        0.1419784277677536,
        -0.08108051866292953,
        0.018312951549887657
      ],
      [
        0.1715528517961502,
        -0.14146442711353302,
        -0.1981184482574463,
        0.37605392932891846,
        -0.3334254026412964,
        -0.07040008157491684,
        0.2725825905799866,
        0.03203435242176056
      ],
      [
        -0.015976376831531525,
        0.03406788408756256,
        -1.1013671159744263,
        -0.09595859050750732,
        0.3872946500778198,
        0.4257220923900604,
        0.21300743520259857,
        0.08270788937807083
      ],
      [
        -0.03170676529407501,
        -0.2275058627128601,
        -0.10281028598546982,
        -0.686138391494751,
        0.24844233691692352,
        0.10309254378080368,
        -0.21257218718528748,
        0.08700188249349594
      ],
      [
        -0.04143637791275978,
        0.38091039657592773,
        0.14385239779949188,
        1.695887804031372,
        0.24305535852909088,
        -0.2100890427827835,
        0.22736546397209167,
        0.26872870326042175
      ],
      [
        -0.15160031616687775,
        0.36386898159980774,
        0.2224104255437851,
        0.18011176586151123,
        -0.6762962341308594,
        0.17909835278987885,
        -0.3031424880027771,
        0.23957349359989166
      ],
      [
        -0.024781160056591034,
        0.1965308040380478,
        0.29895901679992676,
        0.26269084215164185,
        -0.6006603240966797,
        0.2624491751194,
        -0.28994375467300415,
        0.09693560749292374
      ],
      [
        -0.09916355460882187,
        -0.3986668288707733,
        -0.13010726869106293,
        0.30165138840675354,
        0.4790135622024536,
        0.28502345085144043,
        0.36384671926498413,
        -0.3455725610256195
      ],
      [
        -0.06857926398515701,
        -0.05905931442975998,
        -0.6533980369567871,
        0.2790890038013458,
        -0.16688130795955658,
        -0.2379232943058014,
        -0.35579466819763184,
        -0.1309664398431778
      ],
      [
        0.10959791392087936,
        0.4783482849597931,
        -0.8755814433097839,
        0.29181012511253357,
        1.179482102394104,
        -0.27884647250175476,
        0.2175787091255188,
        0.4293529987335205
      ],
      [
        0.058519281446933746,
        0.37020930647850037,
        0.24505998194217682,
        0.5980923175811768,
        -0.10048824548721313,
        0.2219081073999405,
        -0.03573044016957283,
        -0.024864880368113518
      ],
      [
        -0.15675607323646545,
        -0.21909308433532715,
        0.0467291884124279,
        0.8609099388122559,
        -0.07489392161369324,
        -0.08116861432790756,
        -0.21246419847011566,
        0.2898298501968384
      ],
      [
        0.22572630643844604,
        0.06812441349029541,
        -0.6120398044586182,
        0.1965060532093048,
        0.07619775086641312,
        -0.18444566428661346,
        0.2843016982078552,
        0.2880018949508667
      ],
      [
        -0.024854950606822968,
        0.34157800674438477,
        0.11478009819984436,
        0.2006540149450302,
        0.5440359115600586,
        -0.01140383817255497,
        -0.3284304141998291,
        -0.11849264800548553
      ],
      [
        -0.05506662279367447,
        -0.18136371672153473,
        0.3739078640937805,
        0.2682522237300873,
        0.44014817476272583,
        -0.3038758933544159,
        0.05053088068962097,
        0.14645259082317352
      ],
      [
        0.029976163059473038,
        -0.38289520144462585,
        0.06352853775024414,
        -0.5856017470359802,
        -0.384744256734848,
        0.19580434262752533,
        -0.13270168006420135,
        0.30280551314353943
      ],
      [
        0.11796803772449493,
        0.10680155456066132,
        -0.8230292201042175,
        -1.0037446022033691,
        -0.5292302966117859,
        -0.16993822157382965,
        0.2111826241016388,
        -0.2817520499229431
      ],
      [
        0.021328145638108253,
        -0.4777410924434662,
        1.098496675491333,
        1.2412302494049072,
        -0.9876236319541931,
        0.565859854221344,
        0.2373369038105011,
        0.26533257961273193
      ],
      [
        -0.0405845046043396,
        -0.4104769229888916,
        -0.6882714033126831,
        0.08738233149051666,
        0.5928462743759155,
        0.324903666973114,
        -0.13642576336860657,
        0.24977123737335205
      ],
      [
        0.09458550065755844,
        0.14274248480796814,
        -0.8000674843788147,
        0.017461540177464485,
        -0.41753190755844116,
        -0.2513076961040497,
        0.05008718743920326,
        -0.2543196678161621
      ],
      [
        0.08842946588993073,
        0.24845178425312042,
        0.8050796389579773,
        -0.3106291890144348,
        -0.5510510802268982,
        0.0054953014478087425,
        0.10949445515871048,
        0.4314795136451721
      ],
      [
        0.188909649848938,
        -0.09605655819177628,
        0.015430765226483345,
        -0.10085044801235199,
        0.40006303787231445,
        0.02058948017656803,
        -0.2432650774717331,
        0.2014722377061844
      ],
      [
        -0.22979560494422913,
        -0.10058365762233734,
        -0.19992288947105408,
        0.4497252106666565,
        -0.23461952805519104,
        0.2528953552246094,
        0.18774770200252533,
        0.22406943142414093
      ],
      [
        -0.034555669873952866,
        0.07501043379306793,
        -0.7565160393714905,
        0.1272411197423935,
        1.357401728630066,
        -0.34568023681640625,
        0.5283154845237732,
        -0.01424469705671072
      ],
      [
        -0.17535355687141418,
        -0.15890486538410187,
        -0.40565022826194763,
        -0.11770028620958328,
        -0.004021906293928623,
        0.49001187086105347,
        0.35014671087265015,
        0.1899062544107437
      ],
      [
        0.23769082129001617,
        -0.22283190488815308,
        0.1395701766014099,
        0.02687574177980423,
        0.07644755393266678,
        0.2248941957950592,
        0.05426415428519249,
        0.31629765033721924
      ],
      [
        -0.16187968850135803,
        -0.07086024433374405,
        0.20504772663116455,
        0.2323228418827057,
        -0.020727556198835373,
        -0.06223728507757187,
        0.1692037284374237,
        -0.0011627264320850372
      ],
      [
        0.03851969167590141,
        0.0716254934668541,
        -0.16915999352931976,
        -0.4304920434951782,
        -0.8102964758872986,
        -0.22364231944084167,
        0.4324054718017578,
        -0.0671425387263298
      ],
      [
        -0.058346524834632874,
        -0.22591987252235413,
        0.42880675196647644,
        0.3873158097267151,
        0.011387201026082039,
        -0.4068661630153656,
        -0.2586897611618042,
        0.006519005633890629
      ],
      [
        -0.009182168170809746,
        -0.3734875023365021,
        -0.02642492949962616,
        0.19404618442058563,
        -0.15615525841712952,
        -0.05591457709670067,
        -0.17136766016483307,
        -0.3965083658695221
      ],
      [
        0.058544352650642395,
        0.2987562119960785,
        -1.0873574018478394,
        -0.4120156168937683,
        -0.11026964336633682,
        0.439907968044281,
        -0.4911979138851166,
        -0.3454974591732025
      ],
      [
        0.20530319213867188,
        -0.2529066503047943,
        0.6703099012374878,
        -0.05167931690812111,
        0.062424320727586746,
        -0.020715177059173584,
        0.41223862767219543,
        -0.051663126796483994
      ],
      [
        -0.36454981565475464,
        -0.23203745484352112,
        0.33130133152008057,
        0.4146382510662079,
        -0.37403735518455505,
        0.31920740008354187,
        0.0746748298406601,
        -0.1818600296974182
      ],
      [
        0.3052876591682434,
        0.09775510430335999,
        0.46390748023986816,
        0.07703632116317749,
        0.1668758988380432,
        -0.32150012254714966,
        -0.06097383424639702,
        0.2738494575023651
      ],
      [
        -0.03480132669210434,
        -0.3480733036994934,
        0.13533812761306763,
        1.2388206720352173,
        -0.06075351685285568,
        -0.4269481301307678,
        -0.28699374198913574,
        -0.012878305278718472
      ],
      [
        -0.03186718747019768,
        -0.20722730457782745,
        0.15827080607414246,
        0.9250921607017517,
        0.35732221603393555,
        0.21852511167526245,
        -0.03547101095318794,
        -0.3286227583885193
      ],
      [
        -0.08535061776638031,
        0.3188284635543823,
        -0.9536488056182861,
        -0.16834452748298645,
        0.032778121531009674,
        0.4248954653739929,
        0.2518022656440735,
        0.32576537132263184
      ],
      [
        -0.2090308517217636,
        -0.1525317132472992,
        -0.6723555326461792,
        0.23772047460079193,
        -0.21130947768688202,
        -0.2618730962276459,
        0.258240669965744,
        -0.08236571401357651
      ],
      [
        -0.13346834480762482,
        -0.009699986316263676,
        -0.3052422106266022,
        -0.40717044472694397,
        0.4395698010921478,
        -0.1892579048871994,
        -0.004179053008556366,
        0.3220585882663727
      ],
      [
        0.15687184035778046,
        0.11591341346502304,
        0.5269591212272644,
        0.23128730058670044,
        -0.25699037313461304,
        0.28662773966789246,
        0.021306999027729034,
        -0.32096001505851746
      ],
      [
        -0.15018408000469208,
        -0.3249594569206238,
        0.06143372133374214,
        -0.27419865131378174,
        -0.30709654092788696,
        -0.0311555415391922,
        0.23700620234012604,
        0.05830971524119377
      ],
      [
        0.09467899054288864,
        -0.008563272655010223,
        0.4195028841495514,
        0.09344810247421265,
        -0.1513364166021347,
        -0.3484639823436737,
        -0.30849286913871765,
        0.20875588059425354
      ]
    ],
    "net.0.bias": [
      -0.21871471405029297,
      -0.024328919127583504,
      0.1355668008327484,
      0.026267502456903458,
      -0.326886385679245,
      0.33519136905670166,
      -0.20748990774154663,
      0.36019274592399597,
      -0.2712223529815674,
      -0.10462210327386856,
      0.16663742065429688,
      -0.13735714554786682,
      0.29000091552734375,
      -0.33347558975219727,
      -0.32167351245880127,
      -0.129805788397789,
      0.07439959049224854,
      0.34257763624191284,
      -0.20818889141082764,
      0.1296720653772354,
      -0.07824921607971191,
      -0.08518118411302567,
      0.2512003481388092,
      -0.36758098006248474,
      0.04899066686630249,
      0.37653928995132446,
      -0.03313296660780907,
      0.216365784406662,
      -0.13169190287590027,
      0.2884458899497986,
      -0.3909471333026886,
      -0.0588858462870121,
      -0.06764685362577438,
      0.12426683306694031,
      0.12523941695690155,
      0.28730514645576477,
      -0.027521831914782524,
      0.018628893420100212,
      0.23209042847156525,
      -0.06857723742723465,
      0.2971983551979065,
      -0.19849719107151031,
      -0.06515172868967056,
      -0.06959252804517746,
      0.14454098045825958,
      0.268271267414093,
      -0.05455363914370537,
      -0.2891198992729187,
      0.1423725187778473,
      0.1522343009710312,
      0.14123177528381348,
      -0.21871009469032288,
      0.2572283446788788,
      0.34561964869499207,
      0.011218591593205929,
      -0.37233850359916687,
      0.3220652639865875,
      -0.27001819014549255,
      0.03132257238030434,
      0.028172027319669724,
      -0.14677037298679352,
      0.12070182710886002,
      -0.31159070134162903,
      0.05167830362915993,
      -0.21842794120311737,
      -0.07864242792129517,
      0.017733609303832054,
      0.36116933822631836,
      -0.15477947890758514,
      0.23418231308460236,
      0.020772194489836693,
      -0.12269389629364014,
      -0.3443664312362671,
      -0.3074241578578949,
      0.3738829493522644,
      -0.08209463208913803,
      0.005878882482647896,
      0.05381321907043457,
      0.24122530221939087,
      0.2673470675945282
    ],
    "net.2.weight": [
      [
        0.026982462033629417,
        -0.2776345908641815,
        -0.029745513573288918,
        -0.10376307368278503,
        -0.02260483242571354,
        0.03747960552573204,
        0.14104054868221283,
        -0.015695756301283836,
        0.13748116791248322,
        -0.14030912518501282,
        -0.07062730193138123,
        0.12365466356277466,
        0.08507493883371353,
        0.02493373304605484,
        -0.17311902344226837,
        -0.023915817961096764,
        0.2913607060909271,
        -0.04623059928417206,
        0.04882700741291046,
        -0.13852094113826752,
        -0.14333082735538483,
        -0.0027462360449135303,
        0.19671186804771423,
        -0.03441270813345909,
        0.08970775455236435,
        0.08631593734025955,
        -0.13327597081661224,
        0.1472589522600174,
        -0.10701639205217361,
        -0.24594296514987946,
        -0.1548239290714264,
        -0.024121709167957306,
        0.08955391496419907,
        0.16640721261501312,
        -0.06249786540865898,
        0.10404621809720993,
        -0.05253654345870018,
        0.12285847216844559,
        -0.004606929607689381,
        -0.06335002928972244,
        0.08549921959638596,
        0.10366865992546082,
        -0.1910189986228943,
        0.007298788521438837,
        0.04632088169455528,
        0.06922516971826553,
        -0.05222102254629135,
        0.03530203178524971,
        -0.10095472633838654,
        -0.062431443482637405,
        -0.030615346506237984,
        -0.18599554896354675,
        0.02515266276896,
        0.08814667165279388,
        0.12483958899974823,
        0.09126026928424835,
        0.17461885511875153,
        -0.13457933068275452,
        0.08278613537549973,
        -0.13918541371822357,
        -0.07908949255943298,
        0.08901730179786682,
        0.04501600190997124,
        0.046330567449331284,
        -0.054134469479322433,
        0.02862640470266342,
        -0.07525995373725891,
        -0.05746152997016907,
        -0.012382128275930882,
        0.20179401338100433,
        0.15039882063865662,
        -0.09908384829759598,
        0.23517504334449768,
        0.14335884153842926,
        -0.05887608975172043,
        -0.044626761227846146,
        -0.12415771931409836,
        0.029488040134310722,
        0.07433369010686874,
        -0.08951646834611893
      ],
      [
        0.05819420889019966,
        0.08990862965583801,
        0.1256462037563324,
        -0.033507540822029114,
        -0.06312397867441177,
        0.07412122189998627,
        0.07339111715555191,
        -0.053002286702394485,
        0.0971231460571289,
        0.05090918764472008,
        0.01134979072958231,
        -0.0372253842651844,
        0.06840279698371887,
        -0.13984601199626923,
        0.04446179047226906,
        0.03881899639964104,
        -0.26443788409233093,
        0.11794786900281906,
        -0.025332733988761902,
        0.08576219528913498,
        0.041887108236551285,
        -0.03683335706591606,
        -0.022401684895157814,
        -0.07897398620843887,
        -0.03182569518685341,
        0.06565350294113159,
        0.15015609562397003,
        -0.1270194798707962,
        0.03859211131930351,
        0.1722576916217804,
        0.04945879802107811,
        -0.03730400651693344,
        -0.017954470589756966,
        -0.04017668217420578,
        -0.058125000447034836,
        0.059273526072502136,
        0.00021582555200438946,
        -0.04324977099895477,
        -0.05241193622350693,
        -0.09758702665567398,
        -0.019982650876045227,
        0.03620048239827156,
        0.07348588109016418,
        0.13449421525001526,
        0.1993437111377716,
        -0.07888258248567581,
        0.04951459541916847,
        0.06777701526880264,
        0.06874119490385056,
        0.07494176924228668,
        -0.001863153767772019,
        0.1591489613056183,
        -0.029269523918628693,
        -0.05393688380718231,
        -0.09980330616235733,
        -0.21203415095806122,
        0.007402689661830664,
        -0.06115800514817238,
        0.11860942095518112,
        0.013125636614859104,
        0.03627878054976463,
        -0.019256358966231346,
        -0.04710713401436806,
        -0.007363401353359222,
        0.06838773936033249,
        -0.2218955159187317,
        0.03362937271595001,
        -0.03353545442223549,
        0.021728526800870895,
        -0.07532629370689392,
        -0.016928790137171745,
        0.04618394374847412,
        -0.17918527126312256,
        -0.03186263144016266,
        0.030959272757172585,
        -0.0768866166472435,
        0.07414674758911133,
        0.138023242354393,
        -0.12146347761154175,
        0.042256198823451996
      ],
      [
        0.016406867653131485,
        -0.059293027967214584,
        -0.00046041945461183786,
        0.27122634649276733,
        0.13481998443603516,
        0.011300806887447834,
        0.04891136288642883,
        -0.1244954839348793,
        0.1154286190867424,
        0.08262527734041214,
        -0.04817557707428932,
        0.09910409897565842,
        0.0663447305560112,
        0.17780382931232452,
        -0.005515836179256439,
        0.08722268044948578,
        -0.19599278271198273,
        -0.0027650257106870413,
        -0.005601085256785154,
        -0.018799563869833946,
        0.20430903136730194,
        0.1724371612071991,
        0.040992435067892075,
        0.11196944117546082,
        0.16160476207733154,
        0.09352695196866989,
        -0.22342070937156677,
        0.019556356593966484,
        0.050590816885232925,
        -0.09272388368844986,
        0.0637429729104042,
        0.0030119535513222218,
        0.09459464251995087,
        -0.019749613478779793,
        0.01192206609994173,
        0.059214718639850616,
        -0.1606091558933258,
        -0.10847858339548111,
        0.030331803485751152,
        -0.057739369571208954,
        0.11590826511383057,
        -0.03389638289809227,
        -0.10868415981531143,
        0.19374242424964905,
        0.20518994331359863,
        -0.13263587653636932,
        0.009005848318338394,
        -0.11623174697160721,
        0.1151919737458229,
        -0.02347017265856266,
        0.07390847057104111,
        -0.1124495416879654,
        -0.17829637229442596,
        0.09579828381538391,
        0.012873079627752304,
        0.06609725207090378,
        -0.005341125652194023,
        -0.04128502681851387,
        0.12927564978599548,
        3.115184517810121e-05,
        0.053116727620363235,
        -0.20776857435703278,
        -0.016928451135754585,
        0.0491061694920063,
        -0.031028524041175842,
        -0.03989136964082718,
        -0.1698417365550995,
        -0.12539559602737427,
        0.15721651911735535,
        -0.09745579957962036,
        -0.10437145084142685,
        -0.03921746835112572,
        -0.15260981023311615,
        -0.05507097765803337,
        0.0907507985830307,
        -0.047861360013484955,
        0.045583199709653854,
        -0.004082543309777975,
        0.010002820752561092,
        -0.012907920405268669
      ],
      [
        -0.09771960973739624,
        -0.03752472996711731,
        0.11238455027341843,
        -0.18084357678890228,
        -0.15298692882061005,
        -0.029812881723046303,
        0.10469389706850052,
        -0.060240279883146286,
        0.04419724643230438,
        0.12275190651416779,
        0.05702442675828934,
        0.002293491503223777,
        0.13296644389629364,
        0.10119222104549408,
        -0.07403252273797989,
        -0.027791472151875496,
        -0.00918709859251976,
        0.09412694722414017,
        -0.12390152364969254,
        0.06784610450267792,
        -0.09117300063371658,
        -0.10382992029190063,
        -0.018863186240196228,
        -0.10979441553354263,
        0.015511211939156055,
        -0.06562788039445877,
        -0.0616447888314724,
        -0.024405566975474358,
        -0.05615835636854172,
        0.10597465932369232,
        0.04527190327644348,
        0.054704584181308746,
        0.0006044338806532323,
        -0.016392692923545837,
        0.05853996053338051,
        0.0046513983979821205,
        0.025105874985456467,
        -0.08432062715291977,
        -4.5278313336893916e-05,
        -0.03659864515066147,
        0.009875034913420677,
        -0.06141243875026703,
        -0.0023550461046397686,
        -0.09507809579372406,
        0.03539961203932762,
        0.08270153403282166,
        -0.08745010197162628,
        -0.08923202753067017,
        0.014471643604338169,
        0.007075238972902298,
        0.014745070599019527,
        0.08859536796808243,
        0.06675347685813904,
        -0.13321737945079803,
        0.02212287299335003,
        0.07363435626029968,
        0.14473165571689606,
        -0.025030817836523056,
        -0.043565742671489716,
        -0.041227493435144424,
        0.05868280306458473,
        -0.17034278810024261,
        -0.08489546924829483,
        0.010594494640827179,
        -0.023581042885780334,
        -0.23706300556659698,
        -0.07799766212701797,
        0.06944534927606583,
        0.008388297632336617,
        0.03500023111701012,
        0.12186983972787857,
        0.01872124895453453,
        -0.07109517604112625,
        -0.04841243103146553,
        0.04357493668794632,
        0.007051615510135889,
        -0.14786188304424286,
        0.047288864850997925,
        -0.15121494233608246,
        0.05745222046971321
      ],
      [
        -0.022031543776392937,
        0.04220320284366608,
        0.011384385637938976,
        -0.05474376305937767,
        0.07215654104948044,
        -0.02195192314684391,
        0.0893150195479393,
        0.04836195334792137,
        -0.08284741640090942,
        0.06592100858688354,
        -0.011876411736011505,
        -0.074752576649189,
        0.11188100278377533,
        0.08541730046272278,
        -0.06966953724622726,
        -0.04115673899650574,
        -0.015004861168563366,
        0.04756440967321396,
        0.06342105567455292,
        -0.07843736559152603,
        -0.04051942750811577,
        0.10772933810949326,
        -0.0040460010059177876,
        0.12372872978448868,
        -0.06195218116044998,
        -0.015330619178712368,
        -0.021317824721336365,
        -0.10707248002290726,
        0.07330936938524246,
        0.13831104338169098,
        0.05193138122558594,
        -0.049519285559654236,
        0.06800935417413712,
        -0.08923549205064774,
        0.10303673893213272,
        -0.14853835105895996,
        -0.14249162375926971,
        -0.06269221007823944,
        0.057560525834560394,
        -0.07851302623748779,
        0.06931367516517639,
        -0.10335370153188705,
        0.07509727030992508,
        0.0467679388821125,
        0.10978557914495468,
        0.05138055235147476,
        0.011801054701209068,
        0.029948335140943527,
        0.06459994614124298,
        -0.09984921663999557,
        -0.04232313856482506,
        0.14037321507930756,
        -0.08841647207736969,
        0.01919708028435707,
        -0.17836591601371765,
        -0.008602699264883995,
        0.02715810388326645,
        -0.10018391162157059,
        0.03860602155327797,
        0.02741267904639244,
        0.024982595816254616,
        -0.12289365381002426,
        0.1042882576584816,
        0.06568869203329086,
        -0.08203299343585968,
        -0.0488140806555748,
        -0.1256195306777954,
        -0.11375768482685089,
        0.09860330820083618,
        -0.06899046897888184,
        -0.051432739943265915,
        -0.09277578443288803,
        -0.06667697429656982,
        0.029743041843175888,
        -0.06633306294679642,
        -0.18533679842948914,
        0.007996608503162861,
        0.021604904904961586,
        -0.15122391283512115,
        -0.07508032768964767
      ],
      [
        -0.054369427263736725,
        -0.20174285769462585,
        -0.10097267478704453,
        -0.0379788801074028,
        -0.1162777990102768,
        0.05416123941540718,
        -0.06665541976690292,
        -0.05308341607451439,
        -0.09167568385601044,
        -0.11960093677043915,
        -0.12629690766334534,
        0.06027815490961075,
        0.019707154482603073,
        0.13405922055244446,
        -0.07695447653532028,
        -0.11067242920398712,
        0.1720326840877533,
        0.01658550649881363,
        0.07314079999923706,
        -0.11623243987560272,
        -0.015107733197510242,
        0.027844423428177834,
        0.06496530026197433,
        -0.09892112761735916,
        0.07809821516275406,
        -0.21245460212230682,
        0.08347857743501663,
        -0.07448337227106094,
        -0.011765986680984497,
        -0.13673736155033112,
        0.09108522534370422,
        -0.10426650941371918,
        -0.12797868251800537,
        0.06968758255243301,
        0.16254055500030518,
        -0.10264437645673752,
        -0.04708962142467499,
        0.10587292164564133,
        0.009073243476450443,
        0.07805564254522324,
        -0.12152928858995438,
        -0.06174774095416069,
        -0.11408115178346634,
        0.05998449772596359,
        -0.10854832828044891,
        -0.017407964915037155,
        0.008992684073746204,
        -0.07427845895290375,
        -0.06148070842027664,
        -0.05529811233282089,
        0.010943733155727386,
        0.0407562181353569,
        -0.05996384099125862,
        -0.08409633487462997,
        0.04040616378188133,
        0.07541831582784653,
        0.06168341636657715,
        -0.032747067511081696,
        -0.05014466866850853,
        -0.12659482657909393,
        -0.023748265579342842,
        0.016426026821136475,
        0.09631254523992538,
        -0.10302063822746277,
        -0.07989327609539032,
        0.016192827373743057,
        -0.027737487107515335,
        0.1322558969259262,
        0.013306803070008755,
        0.02016628161072731,
        0.008707295171916485,
        0.006390028167515993,
        0.08749838173389435,
        0.05446869879961014,
        -0.0029137174133211374,
        -0.04079396277666092,
        0.03292632848024368,
        -0.023231225088238716,
        0.10868948698043823,
        -0.02512906864285469
      ],
      [
        0.06464272737503052,
        0.15261462330818176,
        0.14255981147289276,
        -0.10087572038173676,
        -0.10011976957321167,
        -0.10364460945129395,
        -0.09295248985290527,
        0.1671442836523056,
        0.06565026938915253,
        -0.12491784989833832,
        0.0524592250585556,
        -0.0635300949215889,
        0.1263810694217682,
        -0.0894906148314476,
        -0.09987973421812057,
        -0.1773611158132553,
        -0.11561405658721924,
        0.0784759595990181,
        -0.07520187646150589,
        0.08301282674074173,
        0.1267274171113968,
        0.06950698047876358,
        -0.08086993545293808,
        -0.03846967965364456,
        0.08099526166915894,
        0.12653848528862,
        -0.12751184403896332,
        0.10732264816761017,
        0.06258904933929443,
        -0.04898987337946892,
        0.07525710016489029,
        0.14499284327030182,
        -0.05369284003973007,
        -0.0029866655822843313,
        0.05873986706137657,
        -0.09452059864997864,
        0.08952074497938156,
        0.05325911194086075,
        0.08451084047555923,
        -0.29010045528411865,
        -0.043425992131233215,
        0.07219281792640686,
        -0.004305764567106962,
        -0.09431105852127075,
        0.005685376934707165,
        -0.10437282919883728,
        -0.043107423931360245,
        -0.03773810341954231,
        0.13157793879508972,
        -0.04874669015407562,
        0.011113462038338184,
        0.19888968765735626,
        0.02636888064444065,
        -0.11236176639795303,
        0.0254256222397089,
        -0.02896500937640667,
        0.14490525424480438,
        -0.13164660334587097,
        0.03000948205590248,
        0.19478774070739746,
        -0.14779508113861084,
        -0.06250391900539398,
        0.04782918840646744,
        -0.15184032917022705,
        -0.0010981896193698049,
        -0.11372827738523483,
        0.04896717891097069,
        0.12783502042293549,
        0.21028240025043488,
        0.01678401604294777,
        -0.013656958937644958,
        0.06847123801708221,
        -0.14498351514339447,
        -0.030826006084680557,
        0.01797178015112877,
        -0.11235710978507996,
        0.1325155794620514,
        0.0878569483757019,
        0.01901574805378914,
        0.0646679475903511
      ],
      [
        -0.08649586886167526,
        -0.05213756486773491,
        0.0029344377107918262,
        0.07260396331548691,
        0.08881551027297974,
        0.03140243887901306,
        -0.057701390236616135,
        0.14825795590877533,
        -0.13425157964229584,
        -0.195102259516716,
        -0.011579412035644054,
        0.07829362899065018,
        -0.06704709678888321,
        0.05091698840260506,
        -0.13061892986297607,
        -0.12011515349149704,
        0.24039112031459808,
        -0.06931852549314499,
        0.08659318089485168,
        -0.14145757257938385,
        0.130503848195076,
        0.12602560222148895,
        0.21300676465034485,
        0.0904608815908432,
        0.10813809931278229,
        -0.013669390231370926,
        -0.15926721692085266,
        0.058339059352874756,
        -0.08415385335683823,
        -0.22303852438926697,
        0.07430818676948547,
        -0.021206269040703773,
        -0.0006417527329176664,
        -0.07090064883232117,
        0.013638458214700222,
        0.10208447277545929,
        -0.1163751557469368,
        0.012520279735326767,
        0.12679682672023773,
        0.12559014558792114,
        -0.013067390769720078,
        0.07630539685487747,
        -0.07936980575323105,
        -0.10920458287000656,
        -0.2607087790966034,
        0.10768195241689682,
        -0.02559434063732624,
        -0.07611267268657684,
        -0.09573055803775787,
        0.0004362354229670018,
        -0.0071741752326488495,
        -0.20993682742118835,
        0.10272444784641266,
        0.09045358747243881,
        -0.16326691210269928,
        0.1124623641371727,
        0.10879284143447876,
        -0.08449908345937729,
        0.020748784765601158,
        0.21367324888706207,
        -0.05227571725845337,
        0.11105643957853317,
        0.0527600534260273,
        0.19108574092388153,
        -0.018816115334630013,
        -0.08117899298667908,
        0.11709625273942947,
        -0.0690043568611145,
        -0.08751942962408066,
        0.26333507895469666,
        -0.04236823692917824,
        0.08082666993141174,
        0.18049511313438416,
        0.12811987102031708,
        -0.033123262226581573,
        0.11846548318862915,
        0.0003187087131664157,
        -0.16754354536533356,
        0.11971408873796463,
        0.049948710948228836
      ]
    ],
    "net.2.bias": [
      0.11439505964517593,
      0.10603675991296768,
      -0.08405196666717529,
      0.05966104939579964,
      0.01880233734846115,
      0.07996410131454468,
      0.053370263427495956,
      -0.030717458575963974
    ]
  },
  "F2": {
    "n_in": 8,
    "n_hid": 60,
    "n_out": 8,
    "activation": "tanh",
    "net.0.weight": [
      [
        0.34344038367271423,
        -0.273256778717041,
        -0.2596034109592438,
        -0.2217177003622055,
        0.07048655301332474,
        -0.2964721918106079,
        0.4496194124221802,
        -0.2354477494955063
      ],
      [
        -0.2247592955827713,
        -0.14773260056972504,
        -0.009090455248951912,
        0.08887488394975662,
        0.31983712315559387,
        -0.07098575681447983,
        -0.10588230192661285,
        -0.15419304370880127
      ],
      [
        -0.2123943418264389,
        -0.11150778084993362,
        0.09405491501092911,
        0.09507806599140167,
        0.1799100935459137,
        0.10929524898529053,
        -0.04816724359989166,
        -0.04322507232427597
      ],
      [
        0.13570359349250793,
        -0.34781643748283386,
        -0.14812560379505157,
        -0.07490136474370956,
        -0.2032194882631302,
        0.23120547831058502,
        0.11730382591485977,
        -0.3678017556667328
      ],
      [
        0.28368616104125977,
        -0.24305392801761627,
        0.23958206176757812,
        0.2512247860431671,
        0.04272185638546944,
        0.10295988619327545,
        0.04413222521543503,
        0.1809036135673523
      ],
      [
        -0.030566733330488205,
        -0.1679716408252716,
        -0.04608145356178284,
        0.27747631072998047,
        0.038101308047771454,
        0.209513321518898,
        0.0674181804060936,
        0.08866984397172928
      ],
      [
        -0.1764175295829773,
        -0.1325455605983734,
        -0.3494408428668976,
        -0.34347692131996155,
        0.2704390585422516,
        0.08846323937177658,
        0.8694515824317932,
        -0.060245491564273834
      ],
      [
        0.096980981528759,
        0.1206544041633606,
        -0.3139668405056,
        -0.3327118158340454,
        -0.21896488964557648,
        -0.037199873477220535,
        -0.15148323774337769,
        -0.12611405551433563
      ],
      [
        -0.13867807388305664,
        0.0935816764831543,
        0.17575910687446594,
        0.24387259781360626,
        0.3571619987487793,
        -0.24616587162017822,
        -0.06591612100601196,
        -0.07070277631282806
      ],
      [
        0.2532435953617096,
        -0.10959111154079437,
        -0.15395072102546692,
        -0.254772424697876,
        0.25710901618003845,
        -0.15015563368797302,
        -0.015083563514053822,
        0.23400789499282837
      ],
      [
        0.31872057914733887,
        -0.01020953431725502,
        -0.16480539739131927,
        0.1977660208940506,
        -0.11071682721376419,
        -0.1262824684381485,
        -0.23112241923809052,
        -0.20984527468681335
      ],
      [
        -0.3011816442012787,
        -0.3051082193851471,
        -0.4770685136318207,
        0.0689479410648346,
        0.28037163615226746,
        -0.17836709320545197,
        0.2977471649646759,
        -0.04692183807492256
      ],
      [
        0.27415138483047485,
        0.3079543709754944,
        -0.03541526943445206,
        -0.06426048278808594,
        -0.3204665184020996,
        -0.12305515259504318,
        0.06655339151620865,
        0.005156856961548328
      ],
      [
        0.37839028239250183,
        -0.128026083111763,
        0.19678723812103271,
        -0.40541958808898926,
        0.09686573594808578,
        0.4266202747821808,
        -0.7828062176704407,
        -0.1267412006855011
      ],
      [
        0.060561295598745346,
        -0.08764587342739105,
        -0.18940666317939758,
        0.14921066164970398,
        0.0023590014316141605,
        0.12038752436637878,
        0.04842928424477577,
        0.2275523543357849
      ],
      [
        0.2175978571176529,
        0.1257234811782837,
        -0.006456867326050997,
        0.26856109499931335,
        0.1210770234465599,
        -0.05123477056622505,
        -0.009446126408874989,
        0.1879592388868332
      ],
      [
        -0.07038919627666473,
        0.20238105952739716,
        -0.14955556392669678,
        0.12092256546020508,
        -0.23053710162639618,
        0.178153857588768,
        0.16347920894622803,
        0.026924530044198036
      ],
      [
        -0.16795964539051056,
        0.43748509883880615,
        -0.18033002316951752,
        -0.6604726910591125,
        -0.4786670506000519,
        -0.17750270664691925,
        -0.08052455633878708,
        -0.33487093448638916
      ],
      [
        0.05637568607926369,
        0.08127734810113907,
        0.45566070079803467,
        -0.006825583055615425,
        -0.1505109965801239,
        0.33726567029953003,
        -0.7131332755088806,
        0.45824870467185974
      ],
      [
        -0.23377878963947296,
        0.00048385822447016835,
        -0.13495437800884247,
        0.4084959924221039,
        0.15106846392154694,
        -0.25709500908851624,
        0.2568632960319519,
        0.03100530244410038
      ],
      [
        -0.02523605339229107,
        0.07636433094739914,
        0.2299056500196457,
        0.25264450907707214,
        0.1267760843038559,
        0.007584929931908846,
        0.10066822171211243,
        -0.46483588218688965
      ],
      [
        -0.0657864362001419,
        -0.13617520034313202,
        -0.22853007912635803,
        0.12452758103609085,
        0.0007440052577294409,
        -0.13969199359416962,
        -0.04908193275332451,
        -0.08168266713619232
      ],
      [
        0.2485521286725998,
        0.4383508265018463,
        -0.16253286600112915,
        0.11772160232067108,
        0.06183822080492973,
        0.12883886694908142,
        -0.023487208411097527,
        0.23006682097911835
      ],
      [
        0.19639065861701965,
        0.22794148325920105,
        0.021267466247081757,
        -0.1759532243013382,
        0.059718213975429535,
        -0.41540470719337463,
        -0.0031442788895219564,
        0.1336146742105484
      ],
      [
        -0.3622501790523529,
        0.2067892998456955,
        0.35167306661605835,
        -0.13356997072696686,
        0.09893709421157837,
        -0.17526639997959137,
        0.053269896656274796,
        -0.24662639200687408
      ],
      [
        -0.09367962926626205,
        -0.20092882215976715,
        -0.2870415151119232,
        0.17747944593429565,
        -0.10740847140550613,
        0.04403677210211754,
        -0.11184177547693253,
        0.22483517229557037
      ],
      [
        -0.13410669565200806,
        -0.11732259392738342,
        -0.3051680624485016,
        -0.1725870668888092,
        0.3364432454109192,
        -0.41563087701797485,
        -0.021991483867168427,
        -0.12554937601089478
      ],
      [
        0.1842457503080368,
        0.18523795902729034,
        -0.290201872587204,
        0.1057916134595871,
        -0.4272426664829254,
        0.07987675070762634,
        -0.07060646265745163,
        -0.09716655313968658
      ],
      [
        0.10598904639482498,
        0.27896225452423096,
        0.022867541760206223,
        -0.11171399801969528,
        0.27707988023757935,
        0.24319906532764435,
        0.09618956595659256,
        -0.055375825613737106
      ],
      [
        0.025645572692155838,
        0.2094375193119049,
        -0.07583215087652206,
        0.0037939981557428837,
        -0.16320684552192688,
        -0.31465503573417664,
        0.16429632902145386,
        -0.0937759205698967
      ],
      [
        -0.17661331593990326,
        0.08429340273141861,
        -0.3069198727607727,
        -0.04688282310962677,
        -0.05103709176182747,
        0.2248956561088562,
        0.5372440218925476,
        0.2800522744655609
      ],
      [
        0.4382084310054779,
        -0.27936774492263794,
        -0.18156467378139496,
        0.006265764124691486,
        -0.3547957241535187,
        0.06429901719093323,
        -0.06027761474251747,
        0.16996461153030396
      ],
      [
        0.30893442034721375,
        -0.20414243638515472,
        0.3334377408027649,
        0.05153954401612282,
        -0.3242621123790741,
        0.39772704243659973,
        -0.689075231552124,
        -0.23345814645290375
      ],
      [
        -0.3042773902416229,
        -0.006936262361705303,
        -0.05089154094457626,
        -0.01422862522304058,
        -0.36503472924232483,
        -0.02904355712234974,
        0.20739668607711792,
        0.2656284272670746
      ],
      [
        0.11962570995092392,
        0.09027214348316193,
        0.11210436373949051,
        -0.4848064184188843,
        0.05199399217963219,
        -0.27062714099884033,
        -0.03886950761079788,
        -0.1196950301527977
      ],
      [
        0.3912051022052765,
        0.1060844212770462,
        -0.04581518471240997,
        -0.33186081051826477,
        -0.10927850753068924,
        -0.3631249964237213,
        -0.006058116909116507,
        0.0809871032834053
      ],
      [
        -0.10517701506614685,
        0.17642109096050262,
        -0.21776215732097626,
        -0.12866857647895813,
        0.4500352740287781,
        0.0016047859098762274,
        -0.006657921243458986,
        0.1481107771396637
      ],
      [
        0.06124448403716087,
        -0.09908674657344818,
        -0.19212406873703003,
        0.07870262116193771,
        0.11524926126003265,
        -0.026748431846499443,
        0.20100975036621094,
        -0.3165033161640167
      ],
      [
        -0.08236810564994812,
        0.3155224919319153,
        0.035106904804706573,
        0.059193480759859085,
        0.053390346467494965,
        -0.03194492682814598,
        -0.0860164687037468,
        0.1449139565229416
      ],
      [
        -0.3741978406906128,
        -0.15025097131729126,
        0.1257971078157425,
        -0.009253887459635735,
        0.013244057074189186,
        -0.2369292676448822,
        0.06180810555815697,
        -0.24901379644870758
      ],
      [
        0.19721533358097076,
        -0.19978155195713043,
        0.3165539503097534,
        0.012075823731720448,
        -0.25959983468055725,
        0.18934841454029083,
        -0.10835590958595276,
        -0.10838957130908966
      ],
      [
        -0.1849277913570404,
        -0.19382162392139435,
        0.035243019461631775,
        -0.20038071274757385,
        0.14954619109630585,
        -0.19518138468265533,
        0.26304057240486145,
        0.2520028054714203
      ],
      [
        0.10611473023891449,
        -0.1562274843454361,
        -0.11798480153083801,
        -0.2555566728115082,
        0.35379260778427124,
        -0.18843971192836761,
        -0.06251590698957443,
        -0.16228431463241577
      ],
      [
        0.09256122261285782,
        -0.2537412941455841,
        0.16057759523391724,
        -0.15814098715782166,
        0.31182003021240234,
        -0.1195656806230545,
        -0.01865517534315586,
        -0.06564578413963318
      ],
      [
        0.03610079362988472,
        -0.12011232227087021,
        -0.2673150599002838,
        0.4875994622707367,
        0.39453738927841187,
        0.13838614523410797,
        0.3469931483268738,
        0.08718343079090118
      ],
      [
        -0.1138785257935524,
        -0.2586630582809448,
        -0.2916911244392395,
        -0.20813222229480743,
        -0.09975069016218185,
        0.29048922657966614,
        -0.07679243385791779,
        0.09551983326673508
      ],
      [
        0.04638015478849411,
        -0.18161889910697937,
        -0.008257090114057064,
        0.36923980712890625,
        0.2352079153060913,
        0.24797770380973816,
        -0.15108807384967804,
        0.08342418074607849
      ],
      [
        0.1420045793056488,
        0.12781086564064026,
        -0.08808194100856781,
        0.2356051653623581,
        -0.16436566412448883,
        -0.20371568202972412,
        0.17147628962993622,
        0.14824999868869781
      ],
      [
        0.2217426300048828,
        -0.32049399614334106,
        0.019750075414776802,
        0.3696693181991577,
        -0.03811148554086685,
        -0.2833988666534424,
        0.12363709509372711,
        0.08278350532054901
      ],
      [
        0.15726105868816376,
        0.1359620839357376,
        -0.00111820874735713,
        0.1630655825138092,
        -0.11800692975521088,
        -0.1870519369840622,
        0.04700709134340286,
        0.20359507203102112
      ],
      [
        0.14249783754348755,
        -0.05059529468417168,
        -0.05302886292338371,
        0.02610260620713234,
        0.0858321413397789,
        -0.2416912466287613,
        -0.20571717619895935,
        0.20667561888694763
      ],
      [
        -0.1079900711774826,
        -0.03585943952202797,
        0.09001418203115463,
        0.06579945236444473,
        0.2197204828262329,
        0.030361715704202652,
        0.006433611735701561,
        -0.029050763696432114
      ],
      [
        0.06869800388813019,
        0.12101434916257858,
        0.23541738092899323,
        -0.3223933279514313,
        -0.10672780871391296,
        -0.46494314074516296,
        -0.01901518739759922,
        0.1262238770723343
      ],
      [
        -0.10045866668224335,
        -0.3381752073764801,
        0.2840009033679962,
        -0.35736969113349915,
        0.3132167458534241,
        0.06741733849048615,
        0.06277458369731903,
        0.1401699185371399
      ],
      [
        -0.22873155772686005,
        0.28767046332359314,
        0.10930555313825607,
        -0.20469459891319275,
        0.0734817236661911,
        -0.17186641693115234,
        -0.23048631846904755,
        -0.05318835750222206
      ],
      [
        -0.13370676338672638,
        1.3240008354187012,
        0.4082297384738922,
        -0.11235152930021286,
        -0.6958909034729004,
        0.05500411242246628,
        -0.05593143403530121,
        0.4079429507255554
      ],
      [
        -0.055345404893159866,
        0.1103680282831192,
        0.0785491093993187,
        -0.19680657982826233,
        -0.2294284999370575,
        -0.2676837146282196,
        -0.010283339768648148,
        0.21138037741184235
      ],
      [
        -0.10955280065536499,
        0.3413804769515991,
        -0.18533699214458466,
        -0.06849643588066101,
        0.00027109921211376786,
        0.000452459673397243,
        -0.005996871739625931,
        0.4149220883846283
      ],
      [
        0.06830418109893799,
        0.3052002489566803,
        0.0772172212600708,
        -0.0061406828463077545,
        0.2723779082298279,
        -0.2541735768318176,
        0.0731804296374321,
        0.09404198080301285
      ],
      [
        0.3039476275444031,
        -0.4809543192386627,
        0.14404773712158203,
        0.04856577515602112,
        0.3693799078464508,
        0.008738413453102112,
        0.05360770970582962,
        0.39537501335144043
      ]
    ],
    "net.0.bias": [
      -0.09254196286201477,
      -0.03417884185910225,
      0.3104313611984253,
      -0.218815878033638,
      -0.30220916867256165,
      0.03435010462999344,
      -0.15437698364257812,
      0.03498530387878418,
      0.258878618478775,
      -0.025671446695923805,
      -0.33059054613113403,
      -0.12189935892820358,
      0.332689493894577,
      -0.11280792951583862,
      -0.144775852560997,
      0.16708721220493317,
      0.02218901365995407,
      -0.36423149704933167,
      0.33409762382507324,
      0.21022047102451324,
      0.3453304171562195,
      0.1536797285079956,
      -0.16698582470417023,
      -0.13682247698307037,
      0.14031431078910828,
      -0.08449264615774155,
      0.0744006410241127,
      -0.3333721160888672,
      -0.1590312123298645,
      0.1622457206249237,
      0.03194909170269966,
      -0.12606339156627655,
      -0.33018961548805237,
      0.2749364674091339,
      -0.10119380056858063,
      -0.4004526436328888,
      0.34371769428253174,
      0.1360597461462021,
      -0.22550244629383087,
      -0.2894359529018402,
      0.30846861004829407,
      0.021678738296031952,
      -0.2466786652803421,
      0.26670271158218384,
      -0.09035983681678772,
      0.02228085696697235,
      -0.15844836831092834,
      -0.29135456681251526,
      -0.19721980392932892,
      -0.03864317014813423,
      -0.26483914256095886,
      0.3408656120300293,
      -0.014939079992473125,
      -0.15956182777881622,
      0.12111581861972809,
      -0.31952840089797974,
      -0.1750243455171585,
      0.18106122314929962,
      -0.2885472774505615,
      0.18262508511543274
    ],
    "net.2.weight": [
      [
        0.000341426843078807,
        -0.12062397599220276,
        -0.18465441465377808,
        0.09521596878767014,
        0.09163445979356766,
        0.0297256950289011,
        -0.03832700476050377,
        -0.04823889583349228,
        -0.05310584977269173,
        0.12323404848575592,
        -0.012438513338565826,
        -0.008814078755676746,
        -0.09407608956098557,
        0.05783277377486229,
        0.1369359791278839,
        0.07043535262346268,
        0.07924743741750717,
        -0.014167108573019505,
        -0.09310987591743469,
        -0.04091210663318634,
        0.006587216630578041,
        -0.04697342962026596,
        -0.008568190038204193,
        -0.05044776573777199,
        -0.12717317044734955,
        0.10303004831075668,
        -0.06898079812526703,
        0.022331418469548225,
        0.005290315952152014,
        -0.08623240888118744,
        0.0215004850178957,
        0.07100417464971542,
        -0.016345469281077385,
        -0.06715451925992966,
        0.10987173020839691,
        -0.014460219070315361,
        -0.1457476168870926,
        -0.05555129796266556,
        0.14018972218036652,
        0.006642518099397421,
        0.0029091723263263702,
        0.0041966065764427185,
        0.12399173527956009,
        -0.06786370277404785,
        0.08006690442562103,
        0.0567990206182003,
        0.0077226958237588406,
        0.030230559408664703,
        -0.03769725561141968,
        0.04560268670320511,
        0.07356579601764679,
        -0.13255491852760315,
        -0.10343655198812485,
        0.00895985122770071,
        0.03483152016997337,
        -0.013442684896290302,
        0.17185723781585693,
        -0.077229805290699,
        -0.042908281087875366,
        0.02601979486644268
      ],
      [
        -0.07769347727298737,
        -0.003667720826342702,
        -0.061352722346782684,
        0.0043626464903354645,
        -0.15646964311599731,
        -0.08163680881261826,
        0.001529889297671616,
        0.01831839047372341,
        -0.08026672899723053,
        0.09463975578546524,
        -0.11748120188713074,
        -0.04312165081501007,
        0.00015583104686811566,
        -0.020803257822990417,
        -0.0670364573597908,
        0.0634230375289917,
        0.054509397596120834,
        0.10925028473138809,
        -0.00592279527336359,
        0.05448383092880249,
        0.032272759824991226,
        0.05396785959601402,
        -0.09798319637775421,
        0.11760762333869934,
        -0.11876359581947327,
        -0.06447462737560272,
        -0.010552235879004002,
        0.06343653053045273,
        -0.05361953377723694,
        -0.005049775820225477,
        0.015723705291748047,
        0.07140513509511948,
        0.013618692755699158,
        0.06174671649932861,
        -0.09460540115833282,
        -0.032090190798044205,
        0.03924858942627907,
        -0.122274249792099,
        0.024637088179588318,
        -0.17182712256908417,
        0.014157534576952457,
        0.05373923480510712,
        -0.10300691425800323,
        -0.07166261225938797,
        0.09329231083393097,
        -0.1170126423239708,
        0.04822639748454094,
        -0.10992871224880219,
        0.02669082209467888,
        0.10478910058736801,
        0.050135474652051926,
        -0.09993607550859451,
        0.003197033191099763,
        -0.06083105131983757,
        0.058190856128931046,
        -0.04187171906232834,
        -0.03912227228283882,
        0.10763862729072571,
        0.0013604972045868635,
        -0.06498652696609497
      ],
      [
        -0.16448228061199188,
        -0.10281194001436234,
        -0.08449584245681763,
        -0.047039929777383804,
        -0.09339052438735962,
        -0.09417389333248138,
        0.01981605589389801,
        0.08131024986505508,
        -0.06108967587351799,
        0.02322261780500412,
        -0.026290765032172203,
        0.02490006759762764,
        -0.07201498001813889,
        -0.046531323343515396,
        0.09786515682935715,
        0.09017424285411835,
        -0.0863017737865448,
        -0.022088931873440742,
        0.03651142492890358,
        -0.030437836423516273,
        -0.09182298928499222,
        -0.08738620579242706,
        0.09014664590358734,
        -0.04709751904010773,
        0.015471559949219227,
        0.03351445868611336,
        -0.11663150787353516,
        0.018671955913305283,
        0.06880660355091095,
        -0.04192725196480751,
        0.047863882035017014,
        0.03029121458530426,
        0.01763172447681427,
        0.11099454015493393,
        -0.007628096733242273,
        -0.023666037246584892,
        -0.09939388930797577,
        0.03961501270532608,
        0.07483676075935364,
        -0.08893154561519623,
        -0.08246450126171112,
        0.10405676811933517,
        -0.06369884312152863,
        0.016920164227485657,
        -0.05060490965843201,
        0.15502679347991943,
        0.03444796800613403,
        0.021514300256967545,
        -0.06637246161699295,
        0.08974487334489822,
        0.039902858436107635,
        0.0048278444446623325,
        -0.13721750676631927,
        -0.08700543642044067,
        -0.0904148742556572,
        0.08319396525621414,
        0.13086043298244476,
        0.12478902190923691,
        0.02533664181828499,
        0.06281659007072449
      ],
      [
        0.06015613302588463,
        -0.10731364786624908,
        -0.04833763837814331,
        -0.1123763769865036,
        0.021938089281320572,
        -0.01658872328698635,
        0.029572203755378723,
        -0.09842456877231598,
        -0.011323805898427963,
        -0.0008069275063462555,
        -0.05715867131948471,
        -0.012750501744449139,
        -0.114248126745224,
        0.01240009069442749,
        -0.061336856335401535,
        -0.1169411763548851,
        -0.047620199620723724,
        -0.14393144845962524,
        0.0581890344619751,
        0.10209979861974716,
        -0.0942285880446434,
        -0.0025161555968225002,
        0.0576055645942688,
        0.1046895831823349,
        -0.04215473681688309,
        -0.08976323902606964,
        0.0856505036354065,
        -0.09991545230150223,
        -0.0010761887533590198,
        -0.006906404159963131,
        -0.09419342130422592,
        -0.057750046253204346,
        -0.069572813808918,
        -0.010356161743402481,
        0.012037532404065132,
        0.14821112155914307,
        -0.03133348375558853,
        0.06277047097682953,
        0.01926746405661106,
        -0.009442346170544624,
        -0.06751537322998047,
        -0.053938981145620346,
        0.03047865256667137,
        0.05118456855416298,
        -0.0627756118774414,
        0.035116732120513916,
        0.07694537192583084,
        0.08194644749164581,
        0.10734811425209045,
        0.035589806735515594,
        0.1049370989203453,
        0.06926213204860687,
        0.12990449368953705,
        -0.12120874971151352,
        0.015393491834402084,
        0.019738854840397835,
        0.007360971532762051,
        -0.03780055418610573,
        0.10055308043956757,
        0.2052251100540161
      ],
      [
        -0.01367422565817833,
        0.02907554805278778,
        0.08971863240003586,
        0.01617511734366417,
        -0.010731764137744904,
        0.09265869110822678,
        -0.011873357929289341,
        -0.011700804345309734,
        0.006118255667388439,
        0.0030085514299571514,
        0.050760287791490555,
        0.023523978888988495,
        0.0372609905898571,
        0.04353069141507149,
        -0.09667982161045074,
        -0.003594914684072137,
        0.004297663923352957,
        -0.010690069757401943,
        -0.022623777389526367,
        0.04550858214497566,
        -0.0683060809969902,
        -0.05019855871796608,
        -0.048515044152736664,
        0.06805435568094254,
        -0.04208934307098389,
        -0.014098213985562325,
        -0.05549662187695503,
        0.015658702701330185,
        0.05569233372807503,
        -0.011548272334039211,
        0.01652378961443901,
        -0.006835078354924917,
        -0.03154480457305908,
        0.0031723245047032833,
        0.07668084651231766,
        -0.0321076326072216,
        0.12045878171920776,
        -0.061364658176898956,
        0.0582091361284256,
        0.047896966338157654,
        0.0639924556016922,
        0.024583401158452034,
        0.005273798014968634,
        -0.030174221843481064,
        -0.08484191447496414,
        0.006993081886321306,
        -0.011647270061075687,
        0.050226546823978424,
        0.02612634375691414,
        0.056146785616874695,
        -0.030242620036005974,
        -0.08262484520673752,
        -0.018977835774421692,
        0.0013507381081581116,
        -0.09404489398002625,
        -0.022742072120308876,
        -0.06328027695417404,
        -0.06310919672250748,
        -0.028446542099118233,
        -0.02893890254199505
      ],
      [
        -0.0342063270509243,
        0.14890706539154053,
        -0.04443329945206642,
        0.021998882293701172,
        -0.019577190279960632,
        0.01899767853319645,
        -0.13858921825885773,
        0.07396786659955978,
        -0.07801700383424759,
        0.04412398487329483,
        -0.06259643286466599,
        -0.11776518076658249,
        0.012435388751327991,
        -0.29084280133247375,
        -0.0824146419763565,
        -0.0033158990554511547,
        -0.16056489944458008,
        -0.1300927698612213,
        0.29170775413513184,
        0.10402083396911621,
        -0.007207694463431835,
        -0.09593943506479263,
        -0.02410840056836605,
        -0.11956651508808136,
        -0.006392537150532007,
        0.016876734793186188,
        0.020766371861100197,
        -0.08124881982803345,
        0.048846133053302765,
        0.0871388390660286,
        0.04144473001360893,
        -0.029667140915989876,
        -0.13590508699417114,
        -0.04717167839407921,
        -0.10464199632406235,
        0.09827914834022522,
        -0.03256798908114433,
        0.03951837867498398,
        -0.07391674816608429,
        -0.0562995970249176,
        -0.0052903685718774796,
        -0.03400048613548279,
        -0.026559818536043167,
        -0.0371512770652771,
        0.07182198017835617,
        -0.008093243464827538,
        0.03533811494708061,
        0.027501937001943588,
        -0.10295353829860687,
        0.02324691228568554,
        -0.0325082391500473,
        0.06464589387178421,
        -0.09077654778957367,
        -0.0456918366253376,
        0.017080746591091156,
        0.15900865197181702,
        0.10341865569353104,
        -0.03145730495452881,
        0.04367973655462265,
        0.009435058571398258
      ],
      [
        -0.04098121449351311,
        0.025120312348008156,
        -0.0842878669500351,
        0.04806477203965187,
        -0.1263359934091568,
        0.060948509722948074,
        -0.12481408566236496,
        0.10855856537818909,
        -0.05311626195907593,
        -0.011533540673553944,
        0.05293118953704834,
        -0.09891662746667862,
        -0.06134691461920738,
        -0.3440612852573395,
        -0.04760751500725746,
        0.11796248704195023,
        -0.1218922957777977,
        -0.058664437383413315,
        0.32297542691230774,
        -0.008855830878019333,
        -0.006509414408355951,
        -0.12436103075742722,
        -0.013716035522520542,
        -0.01875767856836319,
        -0.025325512513518333,
        0.07471544295549393,
        0.034027259796857834,
        -0.04913923516869545,
        0.02709272876381874,
        0.0539754293859005,
        0.04032847285270691,
        0.009430762380361557,
        -0.06415525078773499,
        0.10108684748411179,
        -0.07397206872701645,
        -0.014247727580368519,
        -0.08746085315942764,
        -0.08361664414405823,
        -0.01771535538136959,
        0.0043982090428471565,
        -0.030225085094571114,
        0.06673365086317062,
        -0.052360650151968,
        0.03488219901919365,
        0.14627930521965027,
        -0.08142788708209991,
        0.024727242067456245,
        -0.00451821181923151,
        -0.0032960197422653437,
        -0.03434735909104347,
        -0.05935293808579445,
        -0.0019321126164868474,
        0.022447388619184494,
        0.0317126028239727,
        0.04616088792681694,
        0.1113763377070427,
        -0.011173195205628872,
        0.000980560202151537,
        0.023183094337582588,
        0.032203976064920425
      ],
      [
        0.004519008565694094,
        -0.0734114795923233,
        -0.12274475395679474,
        0.04136122763156891,
        -0.07741937786340714,
        -0.03302295133471489,
        -0.16585564613342285,
        0.14927053451538086,
        0.004856574349105358,
        -0.018779883161187172,
        -0.0824408009648323,
        -0.1035487949848175,
        -0.05119628086686134,
        -0.27970612049102783,
        0.0031059011816978455,
        0.10542088747024536,
        0.020916979759931564,
        -0.12012734264135361,
        0.2729078233242035,
        0.07460153102874756,
        0.01212319452315569,
        0.017030850052833557,
        0.00668973196297884,
        0.05301566794514656,
        -0.0001542428508400917,
        -0.026402680203318596,
        0.029979171231389046,
        -0.12578949332237244,
        -0.03962849825620651,
        -0.05928828567266464,
        -0.051982734352350235,
        -0.05647138133645058,
        -0.17949581146240234,
        0.01799282804131508,
        -0.035170286893844604,
        -0.09780329465866089,
        0.024367226287722588,
        -0.04352725297212601,
        0.04243660345673561,
        -0.06758379936218262,
        0.013069297187030315,
        -0.002710602944716811,
        -0.011348825879395008,
        -0.005960735492408276,
        0.08018919825553894,
        0.09496688097715378,
        0.02419286221265793,
        0.002115644281730056,
        -0.0005258144228719175,
        -0.05372827500104904,
        -0.026504511013627052,
        0.05679689347743988,
        -0.005536130629479885,
        -0.019256331026554108,
        0.004494756460189819,
        0.1595630794763565,
        0.010751506313681602,
        -0.09904932975769043,
        0.09729532897472382,
        0.027337761595845222
      ]
    ],
    "net.2.bias": [
      0.05942792072892189,
      0.02902691811323166,
      0.07654905319213867,
      0.06582473963499069,
      0.014335881918668747,
      -0.019345713779330254,
      -0.002535311272367835,
      -0.08142562955617905
    ]
  }
}