{
  "name": "PV3",
  "type": "F1+H1+F2",
  "t_step": 0.002,
  "normfacs": {
    "T": {
      "scale": 20.003402709960938,
      "offset": 25.001083374023438
    },
    "G": {
      "scale": 1000.0999755859375,
      "offset": 509.3038330078125
    },
    "Fc": {
      "scale": 9.999828338623047,
      "offset": 60.00246810913086
    },
    "Md": {
      "scale": 0.40000206232070923,
      "offset": 1.000037431716919
    },
    "Mq": {
      "scale": 0.4000000059604645,
      "offset": 0.0010415337746962905
    },
    "Vrms": {
      "scale": 546.6259155273438,
      "offset": 413.1492614746094
    },
    "GVrms": {
      "scale": 546.6232299804688,
      "offset": 236.55543518066406
    },
    "Ctl": {
      "scale": 1.0,
      "offset": 0.7490000128746033
    },
    "Vdc": {
      "scale": 439.7894592285156,
      "offset": 338.2721862792969
    },
    "Idc": {
      "scale": 292.8359680175781,
      "offset": 131.92489624023438
    },
    "Idlo": {
      "scale": 186.4149932861328,
      "offset": 87.38320922851562
    },
    "Iqlo": {
      "scale": 68.51012420654297,
      "offset": -1.8834285736083984
    },
    "I0lo": {
      "scale": 0.8136371970176697,
      "offset": -6.633380689891055e-05
    },
    "Idhi": {
      "scale": 14.488091468811035,
      "offset": 0.49975311756134033
    },
    "Iqhi": {
      "scale": 14.80299186706543,
      "offset": 0.493014395236969
    },
    "I0hi": {
      "scale": 14.913056373596191,
      "offset": 0.48872336745262146
    }
  },
  "lr": 0.001,
  "num_iter": 1000,
  "print_freq": 10,
  "batch_size": 270,
  "n_skip": 1,
  "n_trunc": 0,
  "n_dec": 1,
  "n_loss_skip": 20,
  "na": 4,
  "nb": 4,
  "nk": 0,
  "activation": "tanh",
  "nh1": 80,
  "nh2": 60,
  "COL_T": [
    "t"
  ],
  "COL_Y": [
    "Vdc",
    "Idc",
    "Idlo",
    "Iqlo",
    "I0lo",
    "Idhi",
    "Iqhi",
    "I0hi"
  ],
  "COL_U": [
    "T",
    "G",
    "Fc",
    "Md",
    "Mq",
    "Vrms",
    "GVrms",
    "Ctl"
  ],
  "H1": {
    "n_in": 8,
    "n_out": 8,
    "n_b": 4,
    "n_a": 4,
    "n_k": 0,
    "a_0_0": [
      -0.04602968692779541,
      -0.03018871508538723,
      -0.04416275396943092,
      -0.032477401196956635
    ],
    "b_0_0": [
      0.05093240737915039,
      0.04855634272098541,
      0.049644581973552704,
      0.046335142105817795
    ],
    "a_0_1": [
      -0.032156169414520264,
      -0.02347484976053238,
      -0.020585542544722557,
      -0.01778377965092659
    ],
    "b_0_1": [
      -0.02978503704071045,
      -0.0289396233856678,
      -0.037879686802625656,
      -0.03664594516158104
    ],
    "a_0_2": [
      -0.07586782425642014,
      -0.07272066175937653,
      -0.07621566951274872,
      -0.071928009390831
    ],
    "b_0_2": [
      0.07771698385477066,
      0.07013874500989914,
      0.06310222297906876,
      0.06113218888640404
    ],
    "a_0_3": [
      0.0004961667582392693,
      -0.013942612335085869,
      -0.005970213562250137,
      -0.007110745646059513
    ],
    "b_0_3": [
      0.023280179128050804,
      0.0253298357129097,
      0.024108700454235077,
      0.01723414659500122
    ],
    "a_0_4": [
      -0.21142275631427765,
      -0.20034632086753845,
      -0.19680312275886536,
      -0.18645533919334412
    ],
    "b_0_4": [
      0.15237540006637573,
      0.13475041091442108,
      0.13486850261688232,
      0.1301981657743454
    ],
    "a_0_5": [
      0.012389066629111767,
      0.026462774723768234,
      0.01931929402053356,
      0.030139299109578133
    ],
    "b_0_5": [
      0.0157399270683527,
      0.00770114129409194,
      0.003297467017546296,
      0.011425534263253212
    ],
    "a_0_6": [
      -0.09248717874288559,
      -0.08808379620313644,
      -0.08772777765989304,
      -0.10098153352737427
    ],
    "b_0_6": [
      0.036322563886642456,
      0.033073559403419495,
      0.04278207942843437,
      0.04017466679215431
    ],
    "a_0_7": [
      -0.033651553094387054,
      -0.040741998702287674,
      -0.031604524701833725,
      -0.03743615746498108
    ],
    "b_0_7": [
      0.024737795814871788,
      0.025513118132948875,
      0.0368678905069828,
      0.0396907739341259
    ],
    "a_1_0": [
      -0.19980792701244354,
      -0.20930561423301697,
      -0.21341463923454285,
      -0.20314492285251617
    ],
    "b_1_0": [
      -0.09414757788181305,
      -0.09988342970609665,
      -0.09005074203014374,
      -0.09324533492326736
    ],
    "a_1_1": [
      -0.049487143754959106,
      -0.051401976495981216,
      -0.04597003012895584,
      -0.05742209777235985
    ],
    "b_1_1": [
      0.039604831486940384,
      0.041877247393131256,
      0.050605207681655884,
      0.05471091344952583
    ],
    "a_1_2": [
      -0.02415725216269493,
      -0.03355811536312103,
      -0.026341091841459274,
      -0.031084971502423286
    ],
    "b_1_2": [
      0.029539503157138824,
      0.03765227273106575,
      0.026727724820375443,
      0.042672641575336456
    ],
    "a_1_3": [
      0.0032936816569417715,
      0.005995134823024273,
      0.006861495785415173,
      -0.0004929721471853554
    ],
    "b_1_3": [
      0.020898712798953056,
      0.014689149335026741,
      0.016319554299116135,
      0.014434020034968853
    ],
    "a_1_4": [
      -0.010715221054852009,
      -0.026840882375836372,
      -0.023011164739727974,
      -0.01569952443242073
    ],
    "b_1_4": [
      0.021929964423179626,
      0.027688762173056602,
      0.030484328046441078,
      0.025712057948112488
    ],
    "a_1_5": [
      -0.04070243984460831,
      -0.04882640391588211,
      -0.045625753700733185,
      -0.04609513655304909
    ],
    "b_1_5": [
      -0.024454401805996895,
      -0.03783651813864708,
      -0.04290556162595749,
      -0.03879844397306442
    ],
    "a_1_6": [
      0.006037472747266293,
      0.01688448339700699,
      0.022734152153134346,
      0.019967373460531235
    ],
    "b_1_6": [
      -0.009301087819039822,
      0.008241717703640461,
      -0.0044106836430728436,
      -0.006801404990255833
    ],
    "a_1_7": [
      -0.09706839174032211,
      -0.1018909364938736,
      -0.10118940472602844,
      -0.09334784001111984
    ],
    "b_1_7": [
      -0.06363438814878464,
      -0.06924474239349365,
      -0.06771504133939743,
      -0.05739068612456322
    ],
    "a_2_0": [
      0.007616417016834021,
      -0.003542019287124276,
      -0.005160827189683914,
      -0.005276234820485115
    ],
    "b_2_0": [
      -0.006699122954159975,
      0.0053023393265903,
      0.007594595197588205,
      -1.0524010576773435e-05
    ],
    "a_2_1": [
      -0.01559602003544569,
      -0.024310648441314697,
      -0.023693814873695374,
      -0.005026920698583126
    ],
    "b_2_1": [
      -0.02999618649482727,
      -0.040067002177238464,
      -0.02672109380364418,
      -0.02486807480454445
    ],
    "a_2_2": [
      -0.01981162652373314,
      -0.01661881059408188,
      -0.01729949563741684,
      -0.023256827145814896
    ],
    "b_2_2": [
      -0.022442588582634926,
      -0.015525735914707184,
      -0.034423403441905975,
      -0.025466296821832657
    ],
    "a_2_3": [
      -0.22700150310993195,
      -0.22106876969337463,
      -0.2283618450164795,
      -0.22608345746994019
    ],
    "b_2_3": [
      -0.09922530502080917,
      -0.10502316057682037,
      -0.08692013472318649,
      -0.09142152965068817
    ],
    "a_2_4": [
      -0.023705553263425827,
      -0.033498603850603104,
      -0.01616981253027916,
      -0.01525220088660717
    ],
    "b_2_4": [
      -0.032565806061029434,
      -0.03677007183432579,
      -0.02466454543173313,
      -0.035965364426374435
    ],
    "a_2_5": [
      -0.00234008370898664,
      -0.012268883176147938,
      -0.0035828494001179934,
      -0.017992902547121048
    ],
    "b_2_5": [
      0.008629078045487404,
      0.015151082538068295,
      0.018232902511954308,
      0.012966547161340714
    ],
    "a_2_6": [
      -0.05257776379585266,
      -0.05149812251329422,
      -0.052328433841466904,
      -0.043881356716156006
    ],
    "b_2_6": [
      -0.049977533519268036,
      -0.050184138119220734,
      -0.03984656184911728,
      -0.043243780732154846
    ],
    "a_2_7": [
      -0.03776269406080246,
      -0.03426877036690712,
      -0.035883959382772446,
      -0.04224233701825142
    ],
    "b_2_7": [
      0.044708430767059326,
      0.039973147213459015,
      0.044188566505908966,
      0.028005171567201614
    ],
    "a_3_0": [
      -0.09660623222589493,
      -0.1035105362534523,
      -0.08947628736495972,
      -0.09036076813936234
    ],
    "b_3_0": [
      0.08494526892900467,
      0.07190157473087311,
      0.07348404824733734,
      0.0759720429778099
    ],
    "a_3_1": [
      -0.015804976224899292,
      -0.024326356127858162,
      -0.015686314553022385,
      -0.00900878943502903
    ],
    "b_3_1": [
      -0.03406591713428497,
      -0.029477711766958237,
      -0.02155846543610096,
      -0.03522074222564697
    ],
    "a_3_2": [
      -0.03487531468272209,
      -0.03491673991084099,
      -0.04843476414680481,
      -0.05089956521987915
    ],
    "b_3_2": [
      0.046759847551584244,
      0.03549212962388992,
      0.04484901204705238,
      0.051175255328416824
    ],
    "a_3_3": [
      -7.449491386068985e-05,
      0.004107615444809198,
      0.017414838075637817,
      0.01253808569163084
    ],
    "b_3_3": [
      0.013617764227092266,
      0.015253699384629726,
      0.011739504523575306,
      0.00492421118542552
    ],
    "a_3_4": [
      -0.18503020703792572,
      -0.17538343369960785,
      -0.1700211763381958,
      -0.16302569210529327
    ],
    "b_3_4": [
      -0.058455079793930054,
      -0.06403174251317978,
      -0.05005137622356415,
      -0.05211630463600159
    ],
    "a_3_5": [
      -0.211345836520195,
      -0.21919673681259155,
      -0.22904625535011292,
      -0.24495503306388855
    ],
    "b_3_5": [
      -0.05458961799740791,
      -0.03991009667515755,
      -0.05012780427932739,
      -0.051961500197649
    ],
    "a_3_6": [
      0.04140255227684975,
      0.03539977967739105,
      0.0419171079993248,
      0.04018821567296982
    ],
    "b_3_6": [
      -0.0020724856294691563,
      -0.0020712981931865215,
      0.0010239039547741413,
      -0.004340721294283867
    ],
    "a_3_7": [
      0.01839531771838665,
      0.004369818605482578,
      0.007670838385820389,
      0.019304320216178894
    ],
    "b_3_7": [
      -0.015193023718893528,
      -0.011403987184166908,
      -0.008759933523833752,
      0.00014174626267049462
    ],
    "a_4_0": [
      -0.13122642040252686,
      -0.13759614527225494,
      -0.11973429471254349,
      -0.12916535139083862
    ],
    "b_4_0": [
      0.08665064722299576,
      0.0729493796825409,
      0.0782616063952446,
      0.07549665868282318
    ],
    "a_4_1": [
      -0.029501721262931824,
      -0.045734766870737076,
      -0.034876272082328796,
      -0.042511798441410065
    ],
    "b_4_1": [
      -0.04245906323194504,
      -0.03894337639212608,
      -0.040809012949466705,
      -0.031971562653779984
    ],
    "a_4_2": [
      -0.042850423604249954,
      -0.040848251432180405,
      -0.04260757192969322,
      -0.033599309623241425
    ],
    "b_4_2": [
      -0.044260699301958084,
      -0.037696730345487595,
      -0.044826872646808624,
      -0.042296525090932846
    ],
    "a_4_3": [
      -0.009808726608753204,
      0.0021933638490736485,
      -0.00044048859854228795,
      -0.0015223738737404346
    ],
    "b_4_3": [
      -0.017779899761080742,
      -0.02937493287026882,
      -0.023835889995098114,
      -0.012417024932801723
    ],
    "a_4_4": [
      -0.02059178799390793,
      -0.024043414741754532,
      -0.017906254157423973,
      -0.02437683753669262
    ],
    "b_4_4": [
      -0.013404099270701408,
      -0.021935971453785896,
      -0.022940389811992645,
      -0.020613180473446846
    ],
    "a_4_5": [
      -0.05321389436721802,
      -0.0513455905020237,
      -0.05234159901738167,
      -0.05681399255990982
    ],
    "b_4_5": [
      0.03343717008829117,
      0.04083235189318657,
      0.03422800078988075,
      0.04492625221610069
    ],
    "a_4_6": [
      0.007159577216953039,
      0.006203874479979277,
      -0.0015450678765773773,
      -0.002682139864191413
    ],
    "b_4_6": [
      -0.0024581339675933123,
      -5.4045340220909566e-05,
      0.006699548102915287,
      0.010957731865346432
    ],
    "a_4_7": [
      -0.06018844246864319,
      -0.058087993413209915,
      -0.07629439979791641,
      -0.0696670264005661
    ],
    "b_4_7": [
      0.06286341696977615,
      0.0548851415514946,
      0.05374203249812126,
      0.04890722781419754
    ],
    "a_5_0": [
      0.004322561901062727,
      0.0022209426388144493,
      0.014988009817898273,
      0.0055732401087880135
    ],
    "b_5_0": [
      -0.005621691234409809,
      -0.016929907724261284,
      -0.013639270327985287,
      -0.019193390384316444
    ],
    "a_5_1": [
      -0.012278628535568714,
      -0.021451279520988464,
      -0.023421291261911392,
      -0.02907215803861618
    ],
    "b_5_1": [
      0.013460437767207623,
      0.029079560190439224,
      0.024757692590355873,
      0.03280458599328995
    ],
    "a_5_2": [
      -0.03609039634466171,
      -0.029970580711960793,
      -0.029191670939326286,
      -0.03439170867204666
    ],
    "b_5_2": [
      0.042850613594055176,
      0.04047239571809769,
      0.03951175510883331,
      0.033200703561306
    ],
    "a_5_3": [
      0.017947407439351082,
      0.0012683534296229482,
      0.011722979135811329,
      0.01654435507953167
    ],
    "b_5_3": [
      0.00013104427489452064,
      -0.0011153900995850563,
      -0.003351021558046341,
      -0.008142320439219475
    ],
    "a_5_4": [
      -0.007134799845516682,
      0.002623587613925338,
      -0.005080643109977245,
      -0.012672523967921734
    ],
    "b_5_4": [
      -0.00028176046907901764,
      -0.0013017940800637007,
      -0.008094917982816696,
      0.0020920487586408854
    ],
    "a_5_5": [
      -0.032815758138895035,
      -0.02460472099483013,
      -0.03379618376493454,
      -0.028316771611571312
    ],
    "b_5_5": [
      -0.029853466898202896,
      -0.017893008887767792,
      -0.02905897982418537,
      -0.026861779391765594
    ],
    "a_5_6": [
      0.02117515727877617,
      0.015254844911396503,
      0.011496549472212791,
      0.015545349568128586
    ],
    "b_5_6": [
      -0.006542763207107782,
      0.006292078178375959,
      -0.00836268812417984,
      0.004185258876532316
    ],
    "a_5_7": [
      -0.03118390403687954,
      -0.034605663269758224,
      -0.03459078446030617,
      -0.03640351444482803
    ],
    "b_5_7": [
      -0.03631780296564102,
      -0.034502532333135605,
      -0.0394161082804203,
      -0.03690142557024956
    ],
    "a_6_0": [
      0.004373912699520588,
      0.0038694413378834724,
      -0.002778782742097974,
      -0.008771435357630253
    ],
    "b_6_0": [
      -0.01642446219921112,
      -0.022865055128932,
      -0.022027265280485153,
      -0.03375719487667084
    ],
    "a_6_1": [
      -0.04702122136950493,
      -0.06274225562810898,
      -0.06411638855934143,
      -0.07694284617900848
    ],
    "b_6_1": [
      0.03055885247886181,
      0.03480025753378868,
      0.035949625074863434,
      0.03225982189178467
    ],
    "a_6_2": [
      -0.2725606858730316,
      -0.22501881420612335,
      -0.19965732097625732,
      -0.15609650313854218
    ],
    "b_6_2": [
      -0.17052966356277466,
      -0.15836185216903687,
      -0.14709164202213287,
      -0.13738977909088135
    ],
    "a_6_3": [
      0.007402826100587845,
      -0.005297319497913122,
      -0.004374288488179445,
      -0.0030326340347528458
    ],
    "b_6_3": [
      0.010447932407259941,
      0.02455408312380314,
      0.01056117657572031,
      0.010717052035033703
    ],
    "a_6_4": [
      0.026178330183029175,
      0.014124487526714802,
      0.02042401395738125,
      0.022205527871847153
    ],
    "b_6_4": [
      -0.0027958606369793415,
      0.0029289969243109226,
      0.007843656465411186,
      -0.0016919872723519802
    ],
    "a_6_5": [
      -0.028277743607759476,
      -0.02466764487326145,
      -0.032915085554122925,
      -0.019464002922177315
    ],
    "b_6_5": [
      0.03321339190006256,
      0.034192975610494614,
      0.025378916412591934,
      0.032462507486343384
    ],
    "a_6_6": [
      0.007911969907581806,
      0.00298795267008245,
      -0.003998670261353254,
      0.00825602188706398
    ],
    "b_6_6": [
      0.008308620192110538,
      0.00907921139150858,
      0.01194792240858078,
      0.014570923522114754
    ],
    "a_6_7": [
      -0.20299437642097473,
      -0.21529531478881836,
      -0.21332120895385742,
      -0.21927034854888916
    ],
    "b_6_7": [
      -0.07690726965665817,
      -0.07886664569377899,
      -0.06803449988365173,
      -0.070371612906456
    ],
    "a_7_0": [
      0.031940117478370667,
      0.03566165268421173,
      0.04672130569815636,
      0.03718779608607292
    ],
    "b_7_0": [
      0.013487119227647781,
      -0.0004930656286887825,
      0.006967985071241856,
      -0.0006809384794905782
    ],
    "a_7_1": [
      -0.07924837619066238,
      -0.07472609728574753,
      -0.07196970283985138,
      -0.08333872258663177
    ],
    "b_7_1": [
      0.05465168505907059,
      0.049889955669641495,
      0.058755457401275635,
      0.057959236204624176
    ],
    "a_7_2": [
      -0.025290176272392273,
      -0.012209142558276653,
      -0.01553590502589941,
      -0.022897472605109215
    ],
    "b_7_2": [
      0.03134436532855034,
      0.02864757552742958,
      0.024301854893565178,
      0.03293455019593239
    ],
    "a_7_3": [
      0.0055276756174862385,
      0.004558495245873928,
      0.008587580174207687,
      0.007303970400243998
    ],
    "b_7_3": [
      -6.076283170841634e-05,
      0.014748666435480118,
      0.014424710534512997,
      0.013363844715058804
    ],
    "a_7_4": [
      -0.038971252739429474,
      -0.03274986892938614,
      -0.03614106774330139,
      -0.0376543290913105
    ],
    "b_7_4": [
      0.03391024470329285,
      0.03397683426737785,
      0.040672238916158676,
      0.04400583729147911
    ],
    "a_7_5": [
      -0.006818688008934259,
      -0.0012245342368260026,
      -0.012749463319778442,
      -0.0026301515754312277
    ],
    "b_7_5": [
      -0.01702113449573517,
      -0.01830786094069481,
      -0.014263851568102837,
      -0.025775596499443054
    ],
    "a_7_6": [
      -0.12311621755361557,
      -0.13238966464996338,
      -0.14204630255699158,
      -0.13748277723789215
    ],
    "b_7_6": [
      0.05334527790546417,
      0.060521237552165985,
      0.06058470159769058,
      0.052702873945236206
    ],
    "a_7_7": [
      -0.08267132192850113,
      -0.09297514706850052,
      -0.09317214041948318,
      -0.07870768755674362
    ],
    "b_7_7": [
      -0.056088637560606,
      -0.06512738019227982,
      -0.061057090759277344,
      -0.0627237930893898
    ]
  },
  "F1": {
    "n_in": 8,
    "n_hid": 80,
    "n_out": 8,
    "activation": "tanh",
    "net.0.weight": [
      [
        -0.06765290349721909,
        0.1863381266593933,
        -0.03463354706764221,
        -0.22801339626312256,
        0.22240902483463287,
        0.09700383991003036,
        -0.1887788027524948,
        0.21097111701965332
      ],
      [
        -0.03200333192944527,
        0.18708670139312744,
        -0.3285755217075348,
        0.18686915934085846,
        -0.37186577916145325,
        -0.31646430492401123,
        -0.30038124322891235,
        0.13477303087711334
      ],
      [
        0.03687532618641853,
        0.23484370112419128,
        -0.3851780891418457,
        -0.3089195787906647,
        0.150515615940094,
        0.29902127385139465,
        -0.11868782341480255,
        0.26385921239852905
      ],
      [
        -0.0037547179963439703,
        -0.03181959316134453,
        0.1329858899116516,
        -0.8135910034179688,
        -0.41980886459350586,
        -0.03140135481953621,
        -0.08172517269849777,
        0.33079707622528076
      ],
      [
        -0.16093824803829193,
        -0.05740205943584442,
        -0.09862645715475082,
        -0.7440460920333862,
        -0.5286870002746582,
        0.36626023054122925,
        0.23247933387756348,
        0.1601664125919342
      ],
      [
        -0.0032185434829443693,
        -0.15172551572322845,
        0.5100934505462646,
        -0.3880477249622345,
        -0.32354870438575745,
        -0.11732880026102066,
        0.2549954652786255,
        0.21744973957538605
      ],
      [
        -0.1650051325559616,
        0.03876623511314392,
        0.1440327912569046,
        0.41582003235816956,
        0.04235905408859253,
        0.09540124237537384,
        0.2476874440908432,
        -0.21250049769878387
      ],
      [
        0.08581021428108215,
        -0.3494708240032196,
        -0.5936019420623779,
        -0.44340062141418457,
        0.3304438591003418,
        0.10512269288301468,
        -0.24640628695487976,
        0.14439497888088226
      ],
      [
        0.12346338480710983,
        -0.14447689056396484,
        0.32173776626586914,
        -0.08494926244020462,
        0.5198361277580261,
        0.3306700587272644,
        -0.33221232891082764,
        -0.19246594607830048
      ],
      [
        0.12036018073558807,
        0.3674820065498352,
        0.2723654508590698,
        0.6054795980453491,
        -0.14700883626937866,
        -0.29752302169799805,
        0.02610764093697071,
        -0.1864335536956787
      ],
      [
        -0.2765088379383087,
        0.30932262539863586,
        0.08532126992940903,
        -0.3414543569087982,
        -0.10446766763925552,
        -0.246109277009964,
        -0.2591108977794647,
        -0.1275513619184494
      ],
      [
        0.10810041427612305,
        -0.2850034236907959,
        1.0391279458999634,
        0.4627147614955902,
        0.34915968775749207,
        0.11937081813812256,
        -0.33751219511032104,
        -0.26051729917526245
      ],
      [
        0.13596172630786896,
        0.10154752433300018,
        -0.13897520303726196,
        -0.3861291706562042,
        0.43875500559806824,
        0.2971525192260742,
        -0.15983319282531738,
        -0.0798211619257927
      ],
      [
        -7.91327329352498e-05,
        -0.3157801330089569,
        -1.5834941864013672,
        -0.9417073130607605,
        -0.05754587799310684,
        0.11079788208007812,
        -0.025270652025938034,
        0.2119261920452118
      ],
      [
        -0.1822742372751236,
        0.37704432010650635,
        0.47745636105537415,
        0.0029302872717380524,
        -0.34925106167793274,
        -0.12215783447027206,
        -0.13879895210266113,
        0.0942550078034401
      ],
      [
        0.035800110548734665,
        0.2045130729675293,
        -0.33654794096946716,
        0.1395062804222107,
        -0.6249538660049438,
        -0.15162546932697296,
        -0.12408741563558578,
        -0.030600063502788544
      ],
      [
        -0.12873294949531555,
        -0.3203046917915344,
        -0.037327855825424194,
        0.002256369683891535,
        -0.011518418788909912,
        0.03674996271729469,
        0.5036519169807434,
        -0.06252425163984299
      ],
      [
        -0.09958953410387039,
        0.007896674796938896,
        0.34967172145843506,
        0.7499041557312012,
        0.3230324685573578,
        0.2678004801273346,
        0.32541486620903015,
        0.0009876051917672157
      ],
      [
        -0.1984821856021881,
        -0.1858755499124527,
        0.07961084693670273,
        0.017420848831534386,
        -0.15373912453651428,
        -0.27951183915138245,
        -0.28655722737312317,
        -0.29554104804992676
      ],
      [
        -0.08783210068941116,
        0.24546708166599274,
        0.16782395541667938,
        -0.350444495677948,
        0.08226612210273743,
        -0.32152679562568665,
        -0.12126734107732773,
        -0.11065534502267838
      ],
      [
        -0.12376339733600616,
        -0.025384029373526573,
        -0.3732157051563263,
        -0.5173730254173279,
        -0.18204545974731445,
        0.07212455570697784,
        -0.09471975266933441,
        0.18324539065361023
      ],
      [
        -0.2214188575744629,
        -0.06224946305155754,
        0.47030290961265564,
        -0.6448685526847839,
        0.24698592722415924,
        0.2086934596300125,
        -0.2039707899093628,
        0.20160074532032013
      ],
      [
        -0.060744673013687134,
        -0.15098728239536285,
        0.38627374172210693,
        -0.16362972557544708,
        -0.09211456030607224,
        0.01570778340101242,
        0.33003219962120056,
        0.0753667801618576
      ],
      [
        0.16875715553760529,
        0.18556953966617584,
        -0.08731982111930847,
        -0.4722166061401367,
        -0.5927838087081909,
        0.24762286245822906,
        0.32997313141822815,
        0.248343363404274
      ],
      [
        -0.23145350813865662,
        -0.05224795639514923,
        -0.19439871609210968,
        -0.4191643297672272,
        -0.1629069447517395,
        0.15246142446994781,
        -0.1793421506881714,
        -0.04140685126185417
      ],
      [
        0.033080168068408966,
        0.0034586533438414335,
        -1.0298434495925903,
        -0.22619575262069702,
        -0.4733641445636749,
        0.39894378185272217,
        -0.4195631146430969,
        0.29985523223876953
      ],
      [
        0.12419889122247696,
        0.0076066539622843266,
        -0.1001955196261406,
        0.09585540741682053,
        0.16951538622379303,
        -0.17050163447856903,
        -0.04953254386782646,
        0.04514143988490105
      ],
      [
        -0.28615322709083557,
        -0.16102220118045807,
        0.3732750415802002,
        -0.09470067173242569,
        -0.08388034254312515,
        0.41668370366096497,
        0.14949023723602295,
        -0.07159823179244995
      ],
      [
        -0.2622782588005066,
        0.22094543278217316,
        -0.3551473021507263,
        -0.08916687220335007,
        -0.042879629880189896,
        -0.05245308205485344,
        -0.02038680389523506,
        0.31147584319114685
      ],
      [
        -0.040150050073862076,
        0.4187970459461212,
        1.0098644495010376,
        -0.8963860869407654,
        0.08843798190355301,
        -0.2957846522331238,
        -0.23906026780605316,
        0.14752833545207977
      ],
      [
        0.0543404184281826,
        0.34462305903434753,
        -0.8190678954124451,
        0.11870486289262772,
        0.038698725402355194,
        -0.3642273247241974,
        0.29563912749290466,
        -0.26614072918891907
      ],
      [
        -0.04289422556757927,
        -0.04772256687283516,
        -0.5484614968299866,
        0.07339400053024292,
        0.2942317724227905,
        -0.06114982068538666,
        -0.2294931709766388,
        -0.12285888940095901
      ],
      [
        -0.3347628712654114,
        0.17953601479530334,
        -0.42866477370262146,
        -0.31694331765174866,
        -0.2893419563770294,
        0.23614941537380219,
        0.16636088490486145,
        0.25716862082481384
      ],
      [
        0.10533773899078369,
        -0.1674792468547821,
        -0.05599880591034889,
        0.01558657456189394,
        0.24820485711097717,
        0.11600038409233093,
        -0.15735770761966705,
        -0.20457516610622406
      ],
      [
        -0.279092013835907,
        0.07457340508699417,
        0.023411164060235023,
        -0.5032852292060852,
        0.31691884994506836,
        -0.14342531561851501,
        0.047624554485082626,
        0.15050314366817474
      ],
      [
        -0.035190220922231674,
        -0.3426041603088379,
        0.036014147102832794,
        0.08638216555118561,
        -0.310823529958725,
        0.33957013487815857,
        -0.11413277685642242,
        0.06927888840436935
      ],
      [
        -0.10634975880384445,
        -0.021276777610182762,
        -0.0778128132224083,
        0.31429192423820496,
        0.3490504026412964,
        -0.13934768736362457,
        -0.19768913090229034,
        -0.22531618177890778
      ],
      [
        0.23487618565559387,
        -0.3137648105621338,
        0.06259511411190033,
        -0.42518311738967896,
        -0.0015697670169174671,
        0.04390813410282135,
        -0.1740952730178833,
        0.05133907124400139
      ],
      [
        0.1367698609828949,
        -0.2146320343017578,
        -0.17905329167842865,
        -0.2869531810283661,
        0.07693633437156677,
        0.11816033720970154,
        -0.05013630911707878,
        0.002193257911130786
      ],
      [
        0.15968450903892517,
        -0.12527646124362946,
        0.14712795615196228,
        0.34859994053840637,
        -0.28923049569129944,
        -0.09772060811519623,
        0.28204146027565,
        0.020238786935806274
      ],
      [
        -0.03927059471607208,
        0.07491401582956314,
        -0.6195783615112305,
        -0.08401303738355637,
        0.22548457980155945,
        0.40384751558303833,
        0.19396355748176575,
        0.05198398232460022
      ],
      [
        0.11489085108041763,
        -0.20297996699810028,
        -0.03468725085258484,
        -0.698097825050354,
        0.39198148250579834,
        0.1976471096277237,
        -0.22798621654510498,
        0.09420223534107208
      ],
      [
        0.1208401471376419,
        0.41561296582221985,
        0.7392863035202026,
        0.7753251194953918,
        -0.09343232214450836,
        -0.18065938353538513,
        0.2372947335243225,
        0.2291458547115326
      ],
      [
        -0.17764730751514435,
        0.2831675112247467,
        0.28574371337890625,
        -0.0039623696357011795,
        -0.3403480052947998,
        0.1713452786207199,
        -0.20532816648483276,
        0.23371049761772156
      ],
      [
        -0.0349312499165535,
        0.14444148540496826,
        0.2553902864456177,
        0.21578393876552582,
        -0.4617461562156677,
        0.2592548429965973,
        -0.31947606801986694,
        0.08485700190067291
      ],
      [
        -0.1542423814535141,
        -0.36971256136894226,
        -0.41262975335121155,
        0.3924132287502289,
        0.17598505318164825,
        0.24503132700920105,
        0.2937261760234833,
        -0.3323696255683899
      ],
      [
        -0.17521445453166962,
        -0.022293424233794212,
        -0.2018885314464569,
        0.17997241020202637,
        -0.2342468500137329,
        -0.20146362483501434,
        -0.2972952127456665,
        -0.169505774974823
      ],
      [
        0.1001943051815033,
        0.3628414571285248,
        -0.1378498673439026,
        0.2090114802122116,
        0.8868227601051331,
        -0.244573712348938,
        0.04568886756896973,
        0.3227457106113434
      ],
      [
        0.09539328515529633,
        0.3848206400871277,
        0.23162902891635895,
        0.569328248500824,
        -0.12808601558208466,
        0.21325315535068512,
        0.006396267097443342,
        -0.05814317986369133
      ],
      [
        -0.192545086145401,
        -0.22150889039039612,
        -0.2731150686740875,
        0.9156067967414856,
        -0.07806435227394104,
        -0.03588410094380379,
        -0.22359025478363037,
        0.2955607771873474
      ],
      [
        0.2114623486995697,
        0.0607295036315918,
        -0.014263401739299297,
        0.3064512014389038,
        0.12110655009746552,
        -0.20226095616817474,
        0.3486781120300293,
        0.28009679913520813
      ],
      [
        -0.04570210352540016,
        0.3196210563182831,
        -0.09030737727880478,
        0.09394124895334244,
        0.4740920662879944,
        -0.0524749681353569,
        -0.3302866518497467,
        -0.06693604588508606
      ],
      [
        -0.12816619873046875,
        -0.14039331674575806,
        0.06644443422555923,
        0.3532022535800934,
        0.16555903851985931,
        -0.25604766607284546,
        -0.012968886643648148,
        0.1535816788673401
      ],
      [
        0.07054772973060608,
        -0.4147418439388275,
        0.17667418718338013,
        -0.4360499382019043,
        -0.4307778775691986,
        0.2723954916000366,
        -0.17966598272323608,
        0.15808404982089996
      ],
      [
        0.26084810495376587,
        0.0663827657699585,
        -0.17834199965000153,
        -0.4911428689956665,
        -0.1402396857738495,
        -0.16417677700519562,
        0.20290417969226837,
        -0.2998548150062561
      ],
      [
        0.012930483557283878,
        -0.4553963541984558,
        1.0972234010696411,
        1.0808132886886597,
        -0.8260985612869263,
        0.5184416174888611,
        0.2516098916530609,
        0.22561423480510712
      ],
      [
        -0.0703330785036087,
        -0.41846778988838196,
        -0.3446598947048187,
        -0.026706337928771973,
        0.7678921222686768,
        0.2851165235042572,
        -0.14025622606277466,
        0.2865851819515228
      ],
      [
        0.082319475710392,
        0.155343160033226,
        -0.8365195989608765,
        0.09069062769412994,
        -0.47994861006736755,
        -0.2263427972793579,
        0.04447447136044502,
        -0.2686622738838196
      ],
      [
        0.10260266065597534,
        0.20274735987186432,
        0.5297031402587891,
        -0.4106641411781311,
        -0.38082554936408997,
        -0.017757635563611984,
        0.14746518433094025,
        0.34273388981819153
      ],
      [
        0.22333700954914093,
        -0.0764463022351265,
        0.0776035413146019,
        -0.11065680533647537,
        -0.14592337608337402,
        0.08935052901506424,
        -0.22537299990653992,
        0.1709624081850052
      ],
      [
        -0.25747233629226685,
        -0.1324145495891571,
        -0.3166121542453766,
        0.33201509714126587,
        -0.1596945822238922,
        0.22587287425994873,
        0.20436051487922668,
        0.20884011685848236
      ],
      [
        0.001752413110807538,
        0.04556591436266899,
        -1.0825978517532349,
        0.11393892019987106,
        0.8706638813018799,
        -0.26842400431632996,
        0.46015089750289917,
        -0.02005183696746826
      ],
      [
        -0.19510795176029205,
        -0.13201972842216492,
        -0.11658970266580582,
        -0.24147076904773712,
        0.041742049157619476,
        0.43265989422798157,
        0.3617359399795532,
        0.18836386501789093
      ],
      [
        0.2702111303806305,
        -0.1779753565788269,
        0.06444332003593445,
        -0.037612684071063995,
        -0.2560073733329773,
        0.2291841357946396,
        0.04362056404352188,
        0.24132540822029114
      ],
      [
        -0.13800768554210663,
        -0.06814225018024445,
        0.14811497926712036,
        0.2369164377450943,
        -0.2321346551179886,
        -0.017395993694663048,
        0.16071051359176636,
        -0.023298772051930428
      ],
      [
        0.1267218142747879,
        0.039885614067316055,
        0.18579740822315216,
        -0.3533964157104492,
        -0.6082507371902466,
        -0.18308959901332855,
        0.39214056730270386,
        -0.09195978939533234
      ],
      [
        0.010331112891435623,
        -0.19889871776103973,
        0.16806839406490326,
        0.5078528523445129,
        -0.14123252034187317,
        -0.30907660722732544,
        -0.2667843699455261,
        0.003921309486031532
      ],
      [
        -0.09010163694620132,
        -0.2840195894241333,
        -0.06165650486946106,
        0.40234288573265076,
        0.11677104979753494,
        -0.03383665904402733,
        -0.13819730281829834,
        -0.17296060919761658
      ],
      [
        0.014622833579778671,
        0.24973341822624207,
        -0.9759451746940613,
        -0.3762768805027008,
        -0.0010425535729154944,
        0.3592356741428375,
        -0.4462917447090149,
        -0.37406957149505615
      ],
      [
        0.2343939244747162,
        -0.23263749480247498,
        0.4794255495071411,
        0.06575419753789902,
        -0.044254448264837265,
        -0.01543758437037468,
        0.3861570954322815,
        -0.039120979607105255
      ],
      [
        -0.37157493829727173,
        -0.2669934034347534,
        -0.01851092278957367,
        0.6121377348899841,
        -0.026550469920039177,
        0.2879215478897095,
        -0.09112072736024857,
        -0.10858653485774994
      ],
      [
        0.24580278992652893,
        0.11832980066537857,
        0.6741090416908264,
        0.2586360275745392,
        0.05953875929117203,
        -0.29112738370895386,
        -0.04194745048880577,
        0.2686276435852051
      ],
      [
        -0.03463394194841385,
        -0.40103548765182495,
        0.14927712082862854,
        1.1912163496017456,
        -0.37878382205963135,
        -0.36733168363571167,
        -0.33950933814048767,
        0.03639347478747368
      ],
      [
        -0.05886664614081383,
        -0.220730260014534,
        0.07635369151830673,
        0.81147700548172,
        0.3438062071800232,
        0.21291084587574005,
        -0.04549875482916832,
        -0.3343251943588257
      ],
      [
        -0.26118913292884827,
        0.3190091848373413,
        -0.05882672965526581,
        -0.37691959738731384,
        0.01882910542190075,
        0.361118346452713,
        0.27445539832115173,
        0.30339527130126953
      ],
      [
        -0.19583660364151,
        -0.16204921901226044,
        -0.9178447127342224,
        0.5282413959503174,
        -0.3402300179004669,
        -0.23032110929489136,
        0.2189081609249115,
        -0.16363349556922913
      ],
      [
        -0.15164366364479065,
        0.01708790846168995,
        -0.11255120486021042,
        -0.5013546943664551,
        0.3936813473701477,
        -0.13597479462623596,
        0.13125188648700714,
        0.32489973306655884
      ],
      [
        0.1747569888830185,
        0.10488034784793854,
        0.5617542266845703,
        0.27433744072914124,
        -0.17933042347431183,
        0.31784066557884216,
        0.01825989969074726,
        -0.32400208711624146
      ],
      [
        -0.1312052458524704,
        -0.3127959966659546,
        0.17901645600795746,
        -0.2271609753370285,
        -0.2541017532348633,
        -0.0022213058546185493,
        0.26785463094711304,
        0.06214294955134392
      ],
      [
        0.09459086507558823,
        0.029946068301796913,
        0.09985911101102829,
        0.22633664309978485,
        -0.26834967732429504,
        -0.31413087248802185,
        -0.27776166796684265,
        0.21033720672130585
      ]
    ],
    "net.0.bias": [
      -0.22079700231552124,
      -0.021257227286696434,
      0.14039836823940277,
      0.04759015887975693,
      -0.27438095211982727,
      0.3393709361553192,
      -0.21161016821861267,
      0.35224053263664246,
      -0.2685827314853668,
      -0.10433337837457657,
      0.17246882617473602,
      -0.1513170450925827,
      0.29102659225463867,
      -0.3522196114063263,
      -0.3156856894493103,
      -0.1254766881465912,
      0.0709507092833519,
      0.33624082803726196,
      -0.21246562898159027,
      0.13222891092300415,
      -0.07341445237398148,
      -0.07860260456800461,
      0.25238946080207825,
      -0.3352304995059967,
      0.051544785499572754,
      0.38074564933776855,
      -0.048519425094127655,
      0.25774675607681274,
      -0.1309717297554016,
      0.2914090156555176,
      -0.3839184641838074,
      -0.0595417357981205,
      -0.0348181389272213,
      0.1152094304561615,
      0.11901411414146423,
      0.3000848889350891,
      -0.030016491189599037,
      0.008800679817795753,
      0.24141176044940948,
      -0.073293037712574,
      0.3258761763572693,
      -0.20317108929157257,
      -0.053433772176504135,
      -0.051645100116729736,
      0.15633422136306763,
      0.2739427387714386,
      -0.04478799179196358,
      -0.2910305857658386,
      0.14989705383777618,
      0.15399955213069916,
      0.14178071916103363,
      -0.22478610277175903,
      0.2517413794994354,
      0.3724935054779053,
      0.009940174408257008,
      -0.38267800211906433,
      0.30658048391342163,
      -0.27248287200927734,
      0.06182581186294556,
      0.026157284155488014,
      -0.14723533391952515,
      0.11786364018917084,
      -0.3175613582134247,
      0.07066023349761963,
      -0.21863293647766113,
      -0.06370673328638077,
      0.021249232813715935,
      0.32691624760627747,
      -0.17119534313678741,
      0.23337028920650482,
      -0.019570255652070045,
      -0.15631988644599915,
      -0.34585076570510864,
      -0.3171493411064148,
      0.3738265633583069,
      -0.09179925918579102,
      0.005954690743237734,
      0.0611911341547966,
      0.2394920289516449,
      0.26838210225105286
    ],
    "net.2.weight": [
      [
        0.046290334314107895,
        -0.22748620808124542,
        -0.023667598143219948,
        -0.09964840859174728,
        -0.025366107001900673,
        0.027197718620300293,
        0.1320418417453766,
        -0.0008429343579337001,
        0.15599817037582397,
        -0.15084153413772583,
        -0.07851215451955795,
        0.14237350225448608,
        0.08098158240318298,
        0.03401156887412071,
        -0.17007403075695038,
        -0.02096034213900566,
        0.24468611180782318,
        -0.052263934165239334,
        0.05206717923283577,
        -0.15019454061985016,
        -0.08308509737253189,
        0.032110389322042465,
        0.18073861300945282,
        -0.04862707853317261,
        0.10788844525814056,
        0.10031213611364365,
        -0.11401111632585526,
        0.13183309137821198,
        -0.08510248363018036,
        -0.24952997267246246,
        -0.16114486753940582,
        0.00473795598372817,
        0.06206449493765831,
        0.16859999299049377,
        -0.06293432414531708,
        0.10215704888105392,
        -0.03534605726599693,
        0.1408878117799759,
        0.0010543433018028736,
        -0.09079597145318985,
        0.08588587492704391,
        0.12078296393156052,
        -0.18477724492549896,
        0.020817255601286888,
        0.04502951353788376,
        0.053589239716529846,
        -0.027051638811826706,
        0.040979307144880295,
        -0.11165911704301834,
        -0.04615817591547966,
        -0.0382719486951828,
        -0.16705937683582306,
        0.023650558665394783,
        0.08893964439630508,
        0.04073983430862427,
        0.07865516096353531,
        0.1879199594259262,
        -0.13922925293445587,
        0.05235474929213524,
        -0.07649373263120651,
        -0.0834241732954979,
        0.05098690465092659,
        0.03812061995267868,
        0.049876339733600616,
        -0.05542288348078728,
        -0.07328391075134277,
        -0.04587816447019577,
        -0.05435648560523987,
        -0.0014138942351564765,
        0.18378755450248718,
        0.14936159551143646,
        -0.08843390643596649,
        0.2394580841064453,
        0.15021970868110657,
        -0.062137193977832794,
        -0.060591697692871094,
        -0.1020410880446434,
        -0.029691867530345917,
        0.05926331505179405,
        -0.0861322209239006
      ],
      [
        0.06215238198637962,
        0.006059804931282997,
        0.12178582698106766,
        -0.05348611995577812,
        -0.03204770386219025,
        0.063125379383564,
        0.08923329412937164,
        -0.06714800000190735,
        0.10245320945978165,
        0.03958475589752197,
        0.0071054245345294476,
        -0.05293279141187668,
        0.06602338701486588,
        -0.11724040657281876,
        0.03996774181723595,
        0.034640662372112274,
        -0.20945389568805695,
        0.10972150415182114,
        -0.018885035067796707,
        0.08392835408449173,
        0.07889916747808456,
        -0.03053254447877407,
        -0.02598782815039158,
        -0.04695473983883858,
        0.0008988888002932072,
        0.05463230237364769,
        0.11932457983493805,
        -0.12024304270744324,
        0.0455508790910244,
        0.16143137216567993,
        0.06916167587041855,
        -0.02225293405354023,
        0.017893720418214798,
        -0.045356959104537964,
        -0.041964348405599594,
        0.0378786101937294,
        0.009751900099217892,
        -0.0727928951382637,
        -0.04853707551956177,
        -0.10174370557069778,
        -0.009875912219285965,
        0.05045424774289131,
        0.028345147147774696,
        0.08561217784881592,
        0.15802213549613953,
        -0.060407280921936035,
        0.04413989931344986,
        0.09482335299253464,
        0.051570016890764236,
        0.03154665231704712,
        -0.004350508563220501,
        0.1601225733757019,
        -0.04678705707192421,
        -0.06583957374095917,
        0.012290277518332005,
        -0.22808122634887695,
        0.0005151707446202636,
        -0.047426238656044006,
        0.09489286690950394,
        -0.08725935965776443,
        0.049066342413425446,
        0.047367118299007416,
        -0.009486304596066475,
        -0.039516881108284,
        0.07709772139787674,
        -0.156953364610672,
        -0.01717599295079708,
        -0.050920095294713974,
        0.04322041943669319,
        -0.08238864690065384,
        -0.027451377362012863,
        0.0039804186671972275,
        -0.1950647532939911,
        -0.02583952061831951,
        0.027829473838210106,
        -0.0446234792470932,
        0.10043661296367645,
        0.13017185032367706,
        -0.1190161481499672,
        0.00460849842056632
      ],
      [
        -0.025451436638832092,
        -0.2057504951953888,
        -0.0448637381196022,
        0.12599477171897888,
        0.1169801726937294,
        0.021397573873400688,
        0.08530151844024658,
        -0.14051422476768494,
        0.09378119558095932,
        0.08991494029760361,
        -0.057770173996686935,
        0.10798245668411255,
        0.06521233171224594,
        0.14783647656440735,
        -0.02649313397705555,
        0.05594455823302269,
        -0.0743989497423172,
        0.00410074507817626,
        0.011980501003563404,
        -0.007810904644429684,
        0.09983567893505096,
        0.0927446037530899,
        0.06336849182844162,
        0.11298579722642899,
        0.09866293519735336,
        0.0424574613571167,
        -0.2333497405052185,
        0.04189005121588707,
        0.00295953918248415,
        -0.1077738031744957,
        0.06887111812829971,
        -0.002534501953050494,
        0.053433988243341446,
        -0.00022226176224648952,
        0.02321426197886467,
        0.059950534254312515,
        -0.1427503228187561,
        -0.10017922520637512,
        0.024601027369499207,
        0.0033295287285000086,
        0.10285155475139618,
        -0.07384374737739563,
        -0.09632614254951477,
        0.09348493069410324,
        0.1629689782857895,
        -0.09212013334035873,
        0.002661228645592928,
        -0.11246426403522491,
        0.11164532601833344,
        -0.05288248509168625,
        0.09142649173736572,
        -0.14328469336032867,
        -0.16585150361061096,
        0.09164445102214813,
        0.08692548424005508,
        0.08350708335638046,
        -0.01101544126868248,
        -0.03837723284959793,
        0.09960475564002991,
        -0.0687970221042633,
        0.04996693134307861,
        -0.13608992099761963,
        -0.014881166629493237,
        0.03917280212044716,
        -0.02515323832631111,
        0.025972016155719757,
        -0.15864744782447815,
        -0.11875447630882263,
        0.12112126499414444,
        -0.06462910026311874,
        -0.05057525262236595,
        -0.0677073672413826,
        -0.15091876685619354,
        -0.05605252459645271,
        0.07518741488456726,
        0.02086898311972618,
        0.012543135322630405,
        0.038360945880413055,
        0.04488128051161766,
        -0.034164588898420334
      ],
      [
        -0.08914929628372192,
        0.03991929441690445,
        0.10841117799282074,
        -0.15846428275108337,
        -0.15025357902050018,
        -0.03900035098195076,
        0.10127367824316025,
        -0.07552168518304825,
        0.05526973307132721,
        0.13523229956626892,
        0.048474159091711044,
        0.023165177553892136,
        0.12498310208320618,
        0.11298801749944687,
        -0.06312867999076843,
        -0.01464969851076603,
        -0.0370207242667675,
        0.07611404359340668,
        -0.1012459471821785,
        0.06299465894699097,
        -0.08786933869123459,
        -0.0993921309709549,
        -0.035446807742118835,
        -0.0930568128824234,
        -0.022397924214601517,
        -0.08707138150930405,
        -0.02078392542898655,
        -0.04487428814172745,
        -0.03969511389732361,
        0.09462644904851913,
        0.05836750939488411,
        0.08810882270336151,
        0.002519983798265457,
        -0.028192464262247086,
        0.06414850801229477,
        -0.007545823231339455,
        0.03878018260002136,
        -0.0703340470790863,
        -0.013579112477600574,
        -0.033955950289964676,
        -0.011492295190691948,
        -0.050385523587465286,
        0.019761960953474045,
        -0.09239360690116882,
        0.024399535730481148,
        0.0677109956741333,
        -0.061487454921007156,
        -0.05841183289885521,
        -0.011117365211248398,
        0.013971187174320221,
        0.014798720367252827,
        0.09876634925603867,
        0.07069306075572968,
        -0.14376798272132874,
        -0.04025519639253616,
        0.0801922157406807,
        0.1220373585820198,
        -0.01451539434492588,
        -0.0626000463962555,
        0.0015608975663781166,
        0.06172472983598709,
        -0.14513537287712097,
        -0.08415038138628006,
        0.013013839721679688,
        -0.021343253552913666,
        -0.23559248447418213,
        -0.04755464196205139,
        0.05548837035894394,
        0.006961396429687738,
        0.01686597242951393,
        0.07931934297084808,
        0.04735235497355461,
        -0.035058680921792984,
        -0.04713531211018562,
        0.013621462509036064,
        0.021426701918244362,
        -0.0987141877412796,
        -0.010173565708100796,
        -0.15840546786785126,
        0.06255494058132172
      ],
      [
        -0.034172169864177704,
        0.0721530020236969,
        0.01284745242446661,
        -0.031365182250738144,
        0.07518754154443741,
        -0.009502113796770573,
        0.0798998475074768,
        0.0444062314927578,
        -0.0908394530415535,
        0.07422110438346863,
        0.007060025352984667,
        -0.0949367880821228,
        0.1116923987865448,
        0.06820562481880188,
        -0.06897018849849701,
        -0.03549809753894806,
        -0.006099394988268614,
        0.04011508822441101,
        0.07188060134649277,
        -0.05058326944708824,
        -0.06813814491033554,
        0.08915911614894867,
        0.0013350624358281493,
        0.1387677937746048,
        -0.04797336831688881,
        -0.020880063995718956,
        -0.023310275748372078,
        -0.111922986805439,
        0.0797380730509758,
        0.1532333642244339,
        0.048636097460985184,
        -0.050393447279930115,
        0.09098657965660095,
        -0.10389591753482819,
        0.12153294682502747,
        -0.14384236931800842,
        -0.15006814897060394,
        -0.06612854450941086,
        0.05731058120727539,
        -0.06633652001619339,
        0.0720142349600792,
        -0.1145305335521698,
        0.07799343764781952,
        0.03435118496417999,
        0.10469690710306168,
        0.046723272651433945,
        0.019666530191898346,
        0.026610426604747772,
        0.05434388667345047,
        -0.12194383144378662,
        -0.03551451489329338,
        0.12837685644626617,
        -0.08101855218410492,
        0.028126664459705353,
        -0.06600577384233475,
        -0.03771362081170082,
        0.0028189951553940773,
        -0.1000429317355156,
        0.04598349332809448,
        0.003191969823092222,
        0.008081099018454552,
        -0.09147363901138306,
        0.09560484439134598,
        0.06542941182851791,
        -0.0899217426776886,
        0.028875034302473068,
        -0.1282966285943985,
        -0.12423210591077805,
        0.0835084542632103,
        -0.06514419615268707,
        -0.11602047830820084,
        -0.08799216896295547,
        -0.06957454979419708,
        0.01583859883248806,
        -0.06579528748989105,
        -0.1769292950630188,
        0.03907778859138489,
        -0.025594588369131088,
        -0.1380557268857956,
        -0.06407276540994644
      ],
      [
        -0.04342364892363548,
        -0.1846139132976532,
        -0.11062563210725784,
        -0.01983805187046528,
        -0.09737928211688995,
        0.05497843027114868,
        -0.0641409307718277,
        -0.04123077541589737,
        -0.08969912678003311,
        -0.12658029794692993,
        -0.13496044278144836,
        0.05376908555626869,
        0.00447373790666461,
        0.13301420211791992,
        -0.06839649379253387,
        -0.11736665666103363,
        0.18494237959384918,
        0.0022373979445546865,
        0.0847308412194252,
        -0.11280226707458496,
        -0.008633140474557877,
        0.03955703228712082,
        0.06502199172973633,
        -0.060349006205797195,
        0.012595969252288342,
        -0.22240370512008667,
        0.10850336402654648,
        -0.08897850662469864,
        0.02469336986541748,
        -0.14295919239521027,
        0.08812074363231659,
        -0.10503280162811279,
        -0.10497496277093887,
        0.018880141898989677,
        0.17302103340625763,
        -0.11112601310014725,
        -0.05201331526041031,
        0.11029987782239914,
        0.00270838919095695,
        0.11706653982400894,
        -0.1317235380411148,
        -0.051648691296577454,
        -0.07864189147949219,
        0.02850925363600254,
        -0.13913100957870483,
        -0.034824054688215256,
        0.005733851343393326,
        -0.012089675292372704,
        -0.08723468333482742,
        -0.052303895354270935,
        0.01287800818681717,
        0.039632417261600494,
        -0.051853034645318985,
        -0.08471324294805527,
        0.026066113263368607,
        0.06010584905743599,
        0.07845835387706757,
        -0.03589535504579544,
        -0.03477972745895386,
        -0.1424483358860016,
        -0.009846796281635761,
        0.054166220128536224,
        0.11229600012302399,
        -0.09964092075824738,
        -0.07045523822307587,
        0.027502112090587616,
        -0.018209420144557953,
        0.09459540247917175,
        -0.012978022918105125,
        0.019744643941521645,
        -0.03648779168725014,
        0.043921396136283875,
        0.10388477146625519,
        0.0591665580868721,
        -0.01879276894032955,
        -0.02113797329366207,
        0.0925002470612526,
        -0.09884809702634811,
        0.10910122096538544,
        -0.028226161375641823
      ],
      [
        0.06668183952569962,
        0.03256111219525337,
        0.13775750994682312,
        -0.14125598967075348,
        -0.07152403891086578,
        -0.10854849964380264,
        -0.05450509116053581,
        0.11537419259548187,
        0.07036963850259781,
        -0.09582694619894028,
        -0.015956908464431763,
        -0.06936115026473999,
        0.11018015444278717,
        -0.10482977330684662,
        -0.08787964284420013,
        -0.17941147089004517,
        -0.049923937767744064,
        0.08253655582666397,
        -0.08091507852077484,
        0.02143748849630356,
        0.05275329574942589,
        0.03799178823828697,
        -0.07672437280416489,
        0.007740580942481756,
        0.0030167351942509413,
        0.10040540993213654,
        -0.137086883187294,
        0.1068185418844223,
        0.07186511158943176,
        -0.07569824159145355,
        0.09173796325922012,
        0.10221980512142181,
        -0.029682248830795288,
        -0.028177853673696518,
        0.03835033252835274,
        -0.0974406898021698,
        0.04093816876411438,
        0.005399849731475115,
        0.053506430238485336,
        -0.208378866314888,
        -0.04794967547059059,
        0.07018627971410751,
        0.04912953078746796,
        -0.08282952755689621,
        -0.0023034673649817705,
        -0.10434431582689285,
        -0.0967930406332016,
        -0.03047688864171505,
        0.13938745856285095,
        -0.06869203597307205,
        0.02867814525961876,
        0.19166485965251923,
        0.0072686211206018925,
        -0.12827029824256897,
        0.02829867973923683,
        0.03282521292567253,
        0.1083378940820694,
        -0.12480783462524414,
        0.07507269084453583,
        0.09727565944194794,
        -0.10104035586118698,
        -0.06022048369050026,
        0.09084014594554901,
        -0.12211734801530838,
        0.019816940650343895,
        -0.03890169784426689,
        -0.004324201960116625,
        0.10091959685087204,
        0.18374425172805786,
        0.025851987302303314,
        0.009561574086546898,
        0.08148292452096939,
        -0.14968672394752502,
        -0.01686081849038601,
        0.007982295006513596,
        -0.10290878266096115,
        0.09985871613025665,
        0.13824571669101715,
        0.01651240512728691,
        0.039742521941661835
      ],
      [
        -0.10742386430501938,
        -0.08234546333551407,
        -0.011873551644384861,
        0.019854199141263962,
        0.08596040308475494,
        0.02947511337697506,
        -0.023799406364560127,
        0.1193864718079567,
        -0.140920490026474,
        -0.1431511789560318,
        0.002307230606675148,
        0.07721231132745743,
        -0.07344608008861542,
        0.02896854095160961,
        -0.12422603368759155,
        -0.10185959190130234,
        0.26778364181518555,
        -0.06482148915529251,
        0.09228242188692093,
        -0.11755891144275665,
        0.027148619294166565,
        0.008726331405341625,
        0.21729756891727448,
        0.09977564215660095,
        0.06917712092399597,
        -0.03840131312608719,
        -0.17888547480106354,
        0.06290655583143234,
        -0.12392644584178925,
        -0.22883965075016022,
        0.09723084419965744,
        -0.032967910170555115,
        -0.0046737357042729855,
        -0.07265886664390564,
        0.006686903536319733,
        0.08376207202672958,
        -0.11814173310995102,
        -0.05262232571840286,
        0.10759004950523376,
        0.1801287829875946,
        -0.01734921894967556,
        0.04463671147823334,
        -0.038626253604888916,
        -0.12357120215892792,
        -0.26902520656585693,
        0.11681722849607468,
        -0.021438680589199066,
        -0.06718583405017853,
        -0.07729752361774445,
        -0.056357622146606445,
        -0.01143567357212305,
        -0.21387091279029846,
        0.08901714533567429,
        0.06949427723884583,
        -0.01964910887181759,
        0.11158770322799683,
        0.08045738935470581,
        -0.06470083445310593,
        0.019217785447835922,
        0.034508876502513885,
        -0.055681001394987106,
        0.11334837973117828,
        0.04809761419892311,
        0.15862791240215302,
        -0.008923348970711231,
        0.07931652665138245,
        0.09826798737049103,
        -0.0772772878408432,
        -0.0786016434431076,
        0.2706892490386963,
        -0.027368251234292984,
        0.061956677585840225,
        0.18163356184959412,
        0.13004060089588165,
        -0.0357363186776638,
        0.155116468667984,
        -0.04475952684879303,
        -0.07371656596660614,
        0.11950692534446716,
        0.023636866360902786
      ]
    ],
    "net.2.bias": [
      0.10746698081493378,
      0.09946628659963608,
      -0.0717305988073349,
      0.05545990169048309,
      0.026601698249578476,
      0.07240846008062363,
      0.040992289781570435,
      -0.03054938092827797
    ]
  },
  "F2": {
    "n_in": 8,
    "n_hid": 60,
    "n_out": 8,
    "activation": "tanh",
    "net.0.weight": [
      [
        0.36855414509773254,
        -0.33355432748794556,
        -0.22940124571323395,
        -0.35738232731819153,
        0.1078217402100563,
        -0.2978858947753906,
        0.17537783086299896,
        -0.25659117102622986
      ],
      [
        -0.24759790301322937,
        -0.2067277580499649,
        0.05207481607794762,
        0.25081565976142883,
        0.3654390573501587,
        -0.06580629199743271,
        -0.2400978058576584,
        -0.15318244695663452
      ],
      [
        -0.20365692675113678,
        -0.11787819862365723,
        0.15633951127529144,
        0.12947452068328857,
        0.1974998563528061,
        0.06220072880387306,
        -0.1262212097644806,
        -0.054164327681064606
      ],
      [
        0.05880219116806984,
        -0.2475273460149765,
        -0.03389068320393562,
        -0.03204379975795746,
        -0.2772767245769501,
        0.2012518346309662,
        0.1307452917098999,
        -0.34173664450645447
      ],
      [
        0.31242090463638306,
        -0.23861807584762573,
        0.18602566421031952,
        0.30849993228912354,
        0.0645756721496582,
        0.050655998289585114,
        0.2058703452348709,
        0.2181919366121292
      ],
      [
        -0.12487667798995972,
        -0.24032410979270935,
        0.020263055339455605,
        0.21823927760124207,
        0.07442136108875275,
        0.19943660497665405,
        0.0665106475353241,
        0.061246857047080994
      ],
      [
        -0.10007665306329727,
        -0.024610240012407303,
        -0.27779966592788696,
        -0.5116158127784729,
        0.0858113020658493,
        0.1093575581908226,
        0.2842235267162323,
        -0.0868246853351593
      ],
      [
        0.10379978269338608,
        0.17088784277439117,
        -0.3258955180644989,
        -0.25289392471313477,
        -0.3140806555747986,
        0.05857966095209122,
        -0.2518296539783478,
        -0.07219891995191574
      ],
      [
        -0.12435121834278107,
        0.07912418991327286,
        0.12764066457748413,
        0.28592658042907715,
        0.37016940116882324,
        -0.2734811007976532,
        0.0002308210969204083,
        -0.007117473520338535
      ],
      [
        0.3074585497379303,
        -0.13119399547576904,
        -0.13397502899169922,
        -0.24589607119560242,
        0.2824074625968933,
        -0.11414215713739395,
        -0.07327287644147873,
        0.22231325507164001
      ],
      [
        0.28645387291908264,
        -0.03754166141152382,
        -0.20422886312007904,
        0.20576778054237366,
        -0.08266723155975342,
        -0.18824927508831024,
        -0.201834574341774,
        -0.2169397622346878
      ],
      [
        -0.2594776749610901,
        -0.2068813145160675,
        -0.415516197681427,
        -0.03210523724555969,
        0.12462688982486725,
        -0.23557189106941223,
        0.02930310368537903,
        -0.09349789470434189
      ],
      [
        0.27087655663490295,
        0.2673797309398651,
        -0.09903053939342499,
        -0.22593015432357788,
        -0.23226045072078705,
        -0.2408801168203354,
        0.16565650701522827,
        0.06970570236444473
      ],
      [
        0.3089761435985565,
        -0.09320148825645447,
        0.20884042978286743,
        -0.25233152508735657,
        0.10461175441741943,
        0.3499753177165985,
        -0.5188537836074829,
        -0.16401949524879456
      ],
      [
        0.17384782433509827,
        -0.04538601264357567,
        -0.2157236486673355,
        0.22048760950565338,
        0.007790533825755119,
        0.031529027968645096,
        -0.0007859196048229933,
        0.26693588495254517
      ],
      [
        0.229605033993721,
        0.09336009621620178,
        0.028312481939792633,
        0.27069154381752014,
        0.1815977841615677,
        -0.096879743039608,
        -0.01782497577369213,
        0.21129900217056274
      ],
      [
        -0.11040504276752472,
        0.282808393239975,
        -0.19136911630630493,
        0.19694280624389648,
        -0.22261817753314972,
        0.0857696458697319,
        0.25911903381347656,
        0.03877272829413414
      ],
      [
        -0.11004920303821564,
        0.30026569962501526,
        -0.2493332177400589,
        -0.19066722691059113,
        -0.36185508966445923,
        -0.17586439847946167,
        -0.25184565782546997,
        -0.15656216442584991
      ],
      [
        0.21855176985263824,
        0.11771406978368759,
        0.42055487632751465,
        -0.006972079165279865,
        -0.18826228380203247,
        0.3043254315853119,
        -0.4624720513820648,
        0.4384334683418274
      ],
      [
        -0.13947540521621704,
        -0.07267589122056961,
        -0.09958328306674957,
        0.2623203694820404,
        0.18385083973407745,
        -0.2168768346309662,
        0.3269249200820923,
        -0.03148572891950607
      ],
      [
        -0.1415783166885376,
        -0.060519374907016754,
        0.29567211866378784,
        0.5283998847007751,
        0.19042222201824188,
        0.05098453536629677,
        0.08318768441677094,
        -0.20723851025104523
      ],
      [
        -0.10973105579614639,
        -0.14467468857765198,
        -0.22889141738414764,
        0.19995975494384766,
        0.05361814796924591,
        -0.13448384404182434,
        -0.04363787919282913,
        0.0015852671349421144
      ],
      [
        0.227754145860672,
        0.3492213189601898,
        -0.2590893805027008,
        0.21312667429447174,
        0.10531862080097198,
        0.17604342103004456,
        -0.12382248789072037,
        0.11080555617809296
      ],
      [
        0.1481449007987976,
        0.3344998061656952,
        -0.2367514967918396,
        -0.18455471098423004,
        -0.21572226285934448,
        -0.19034646451473236,
        -0.04504416882991791,
        0.2186208963394165
      ],
      [
        -0.30798542499542236,
        0.2378852665424347,
        0.29243454337120056,
        -0.24047531187534332,
        0.06289037317037582,
        -0.1903965026140213,
        0.0900610089302063,
        -0.1843380630016327
      ],
      [
        -0.11226943880319595,
        -0.23395191133022308,
        -0.2853297293186188,
        0.3445664942264557,
        -0.054922666400671005,
        -0.0017622924642637372,
        -0.14526404440402985,
        0.2547875940799713
      ],
      [
        -0.14221912622451782,
        -0.18453189730644226,
        -0.26671284437179565,
        -0.20844854414463043,
        0.34176093339920044,
        -0.28794732689857483,
        -0.0682094395160675,
        -0.09811858832836151
      ],
      [
        0.05897865444421768,
        0.15633876621723175,
        -0.3062317669391632,
        0.2446766048669815,
        -0.39626994729042053,
        0.058720555156469345,
        -0.11679919809103012,
        -0.08439408242702484
      ],
      [
        0.16065211594104767,
        0.3059365451335907,
        0.05499698966741562,
        -0.18232221901416779,
        0.2750450670719147,
        0.21892577409744263,
        0.05351703613996506,
        -0.1278505176305771
      ],
      [
        0.00012788492313120514,
        0.2638312876224518,
        -0.00908881239593029,
        -0.08561451733112335,
        -0.25188693404197693,
        -0.23546351492404938,
        0.23116633296012878,
        -0.04414629563689232
      ],
      [
        -0.09473742544651031,
        0.13431626558303833,
        -0.32522305846214294,
        0.038024548441171646,
        -0.10693416744470596,
        0.2010740488767624,
        0.3914252817630768,
        0.24046719074249268
      ],
      [
        0.33417201042175293,
        -0.33248528838157654,
        -0.15703172981739044,
        0.11621929705142975,
        -0.29471883177757263,
        0.09955132752656937,
        -0.10025240480899811,
        0.1743224412202835
      ],
      [
        0.3075234889984131,
        -0.25471824407577515,
        0.2440454214811325,
        0.20064677298069,
        -0.2888917624950409,
        0.3989993929862976,
        -0.4415372908115387,
        -0.18414320051670074
      ],
      [
        -0.2633231282234192,
        0.02123492769896984,
        -0.029193133115768433,
        -0.04081803187727928,
        -0.374411940574646,
        0.0021849588956683874,
        0.3699165880680084,
        0.31042593717575073
      ],
      [
        0.1976606398820877,
        0.04673336446285248,
        0.11642669886350632,
        -0.38954228162765503,
        0.16166120767593384,
        -0.3717488646507263,
        -0.16001030802726746,
        -0.13013675808906555
      ],
      [
        0.3696332573890686,
        0.09687681496143341,
        -0.19527949392795563,
        -0.27827179431915283,
        -0.3226725161075592,
        -0.11794662475585938,
        0.15037386119365692,
        -0.01592267118394375
      ],
      [
        -0.07622668892145157,
        0.19214552640914917,
        -0.2401263564825058,
        -0.2471635937690735,
        0.3702101409435272,
        0.03994080051779747,
        -0.06572593748569489,
        0.14766216278076172
      ],
      [
        0.1435120403766632,
        -0.13596466183662415,
        -0.15695011615753174,
        -0.06054225564002991,
        0.188236266374588,
        -0.08369061350822449,
        0.21630991995334625,
        -0.34426042437553406
      ],
      [
        -0.10533314943313599,
        0.29908016324043274,
        0.020479457452893257,
        0.12016564607620239,
        0.08522075414657593,
        -0.05054108798503876,
        -0.13376490771770477,
        0.14475584030151367
      ],
      [
        -0.22545993328094482,
        -0.1723702847957611,
        0.05099241062998772,
        -0.06855609267950058,
        0.00774512579664588,
        -0.2800890803337097,
        0.17450132966041565,
        -0.2621729373931885
      ],
      [
        0.1668504774570465,
        -0.2971118986606598,
        0.32531633973121643,
        0.06252492964267731,
        -0.2420831024646759,
        0.19959090650081635,
        -0.24990904331207275,
        -0.08988682180643082
      ],
      [
        -0.21766725182533264,
        -0.25827112793922424,
        -0.025965653359889984,
        -0.17386747896671295,
        0.20864839851856232,
        -0.22475163638591766,
        0.2677011489868164,
        0.26701632142066956
      ],
      [
        0.32645466923713684,
        -0.11890600621700287,
        -0.13766099512577057,
        -0.27334627509117126,
        0.3175584375858307,
        -0.21023550629615784,
        -0.051635146141052246,
        -0.10734539479017258
      ],
      [
        0.04203948378562927,
        -0.29140704870224,
        0.2524627447128296,
        -0.2478800117969513,
        0.3607177138328552,
        -0.12630020081996918,
        -0.1055271252989769,
        -0.057495325803756714
      ],
      [
        0.1746850460767746,
        -0.05853456258773804,
        -0.33346104621887207,
        0.33029231429100037,
        0.32540270686149597,
        0.18357186019420624,
        0.3491515815258026,
        0.13304060697555542
      ],
      [
        -0.039785049855709076,
        -0.24386557936668396,
        -0.2948724031448364,
        -0.2067662477493286,
        -0.11964625120162964,
        0.24028389155864716,
        -0.24434635043144226,
        0.00832919031381607
      ],
      [
        0.0367530956864357,
        -0.19453448057174683,
        -0.043312761932611465,
        0.39545443654060364,
        0.24392111599445343,
        0.3108551502227783,
        -0.12187927216291428,
        0.053267545998096466
      ],
      [
        0.15055756270885468,
        0.01297216396778822,
        -0.09667537361383438,
        0.31789591908454895,
        -0.07749368250370026,
        -0.16298437118530273,
        0.20455418527126312,
        0.09967135637998581
      ],
      [
        0.2041604220867157,
        -0.2974597215652466,
        0.12580303847789764,
        0.26640254259109497,
        -0.05310507491230965,
        -0.20021656155586243,
        0.1781354546546936,
        0.17130006849765778
      ],
      [
        0.16906295716762543,
        0.11263938993215561,
        -0.023499250411987305,
        0.2415837198495865,
        -0.10565929859876633,
        -0.1788223683834076,
        0.06137671321630478,
        0.1287129670381546
      ],
      [
        0.18619905412197113,
        -0.02533697336912155,
        -0.07134103029966354,
        0.028069252148270607,
        0.07140401750802994,
        -0.24803219735622406,
        -0.29246264696121216,
        0.16912759840488434
      ],
      [
        -0.2452855110168457,
        -0.051527585834264755,
        0.09562700241804123,
        0.022202102467417717,
        0.24349170923233032,
        0.03473351150751114,
        0.12633469700813293,
        -0.04585394635796547
      ],
      [
        0.05804191157221794,
        0.04489552229642868,
        0.3051571249961853,
        -0.35489827394485474,
        -0.07907148450613022,
        -0.37079766392707825,
        -0.15150216221809387,
        0.16024944186210632
      ],
      [
        -0.2559809982776642,
        -0.37399667501449585,
        0.2343892902135849,
        -0.3107706904411316,
        0.3139393627643585,
        0.06882958114147186,
        0.1748836636543274,
        0.25093182921409607
      ],
      [
        -0.2664526700973511,
        0.22544515132904053,
        0.11913624405860901,
        -0.18093959987163544,
        0.09982080012559891,
        -0.11218065768480301,
        -0.12644250690937042,
        -0.025500494986772537
      ],
      [
        -0.1712307333946228,
        0.4904569387435913,
        0.3365725576877594,
        -0.04149989038705826,
        -0.44046708941459656,
        0.06791125982999802,
        -0.0850534662604332,
        0.32973989844322205
      ],
      [
        0.01935700513422489,
        0.16467319428920746,
        0.07962141185998917,
        -0.17186322808265686,
        -0.2717241942882538,
        -0.2713095545768738,
        -0.06357713043689728,
        0.14942674338817596
      ],
      [
        -0.05905916169285774,
        0.3482033610343933,
        -0.1703851819038391,
        -0.19016596674919128,
        0.03876706212759018,
        -0.06876354664564133,
        -0.04384550824761391,
        0.372117817401886
      ],
      [
        0.0005199465667828918,
        0.33998027443885803,
        0.026856087148189545,
        -0.19203780591487885,
        0.24475964903831482,
        -0.18072836101055145,
        0.13203033804893494,
        0.11381056159734726
      ],
      [
        0.214675635099411,
        -0.4407525062561035,
        0.03605075553059578,
        0.06283039599657059,
        0.29421234130859375,
        0.08925632387399673,
        0.22090284526348114,
        0.20519690215587616
      ]
    ],
    "net.0.bias": [
      -0.08204305917024612,
      -0.0219867005944252,
      0.29572632908821106,
      -0.2814710736274719,
      -0.26612451672554016,
      0.006758192088454962,
      -0.1688431352376938,
      0.034980759024620056,
      0.30447912216186523,
      -0.03567880764603615,
      -0.29773762822151184,
      -0.13269686698913574,
      0.3504679501056671,
      -0.11846577376127243,
      -0.14137861132621765,
      0.1685078740119934,
      0.022263921797275543,
      -0.29312828183174133,
      0.2959052622318268,
      0.18910200893878937,
      0.30432191491127014,
      0.13841861486434937,
      -0.10398725420236588,
      -0.13899961113929749,
      0.17098233103752136,
      -0.0585395023226738,
      0.06163061410188675,
      -0.3276060223579407,
      -0.15341980755329132,
      0.1257638782262802,
      0.008336605504155159,
      -0.14970548450946808,
      -0.2893470823764801,
      0.2440958023071289,
      -0.06589940190315247,
      -0.37529802322387695,
      0.3390549123287201,
      0.18203188478946686,
      -0.207426056265831,
      -0.2543458938598633,
      0.31984856724739075,
      0.01797095127403736,
      -0.23001819849014282,
      0.23675218224525452,
      -0.1004486009478569,
      0.02508777193725109,
      -0.17180289328098297,
      -0.29242900013923645,
      -0.2378290444612503,
      -0.03608357906341553,
      -0.2658500075340271,
      0.3450796604156494,
      -0.006148808170109987,
      -0.14478857815265656,
      0.12189572304487228,
      -0.3012876808643341,
      -0.17343588173389435,
      0.1505451798439026,
      -0.295274019241333,
      0.17451053857803345
    ],
    "net.2.weight": [
      [
        0.007561877835541964,
        -0.13433784246444702,
        -0.1605919450521469,
        0.08052925765514374,
        0.13645975291728973,
        0.03469284251332283,
        -0.08510800451040268,
        -0.0648491233587265,
        -0.012276779860258102,
        0.08523812890052795,
        0.07688643783330917,
        0.015522378496825695,
        -0.04653415083885193,
        0.11842390149831772,
        0.15780635178089142,
        0.10759139806032181,
        0.12704847753047943,
        -0.022470416501164436,
        -0.09386033564805984,
        -0.05606843903660774,
        0.014125820249319077,
        -0.004858704283833504,
        0.003485199296846986,
        -0.06512830406427383,
        -0.1248682290315628,
        0.15313544869422913,
        -0.07007356733083725,
        0.0023844833485782146,
        -0.030303435400128365,
        -0.10970449447631836,
        0.04279552027583122,
        0.08024433255195618,
        0.004217612091451883,
        -0.08200670778751373,
        0.10018841922283173,
        -0.019755076617002487,
        -0.14294643700122833,
        -0.0417364202439785,
        0.14398923516273499,
        0.052900590002536774,
        -0.011371222324669361,
        -0.03894359990954399,
        0.12107592821121216,
        -0.0798874944448471,
        0.1251777708530426,
        0.031124472618103027,
        0.06801293045282364,
        0.07172629237174988,
        -0.02703975699841976,
        0.13878875970840454,
        0.10336414724588394,
        -0.1313117891550064,
        -0.12897449731826782,
        -0.024526085704565048,
        0.01800272986292839,
        -0.028763964772224426,
        0.14961488544940948,
        -0.082992322742939,
        -0.08932049572467804,
        0.04535150155425072
      ],
      [
        -0.101312056183815,
        -0.038552142679691315,
        -0.06424923241138458,
        -0.009793637320399284,
        -0.05231904610991478,
        -0.06207725778222084,
        0.04577142745256424,
        0.014632763341069221,
        -0.100727878510952,
        0.10405860096216202,
        -0.07961230725049973,
        -0.020872456952929497,
        0.044923145323991776,
        0.0400814414024353,
        -0.048827216029167175,
        0.04004433751106262,
        0.09911534190177917,
        0.14065109193325043,
        -0.06146981567144394,
        0.036937110126018524,
        0.02113318257033825,
        0.08294679969549179,
        -0.03710263967514038,
        0.13049855828285217,
        -0.11466280370950699,
        -0.015776503831148148,
        -0.022225823253393173,
        0.14447380602359772,
        -0.0812636986374855,
        0.02984033152461052,
        0.023078789934515953,
        0.0976490005850792,
        0.08698458969593048,
        0.04781877622008324,
        -0.14410066604614258,
        -0.014083372429013252,
        0.023007944226264954,
        -0.13934606313705444,
        0.04509079083800316,
        -0.11681167781352997,
        -0.013423220254480839,
        0.00965684000402689,
        -0.10613229870796204,
        -0.12002678960561752,
        0.12933991849422455,
        -0.08594182878732681,
        0.1434067040681839,
        -0.06702250242233276,
        0.013182751834392548,
        0.09825864434242249,
        0.06961885839700699,
        -0.1083381175994873,
        -0.04642753303050995,
        0.002464313292875886,
        0.04769296199083328,
        -0.0638294517993927,
        -0.05105769634246826,
        0.0528220534324646,
        -0.02362380176782608,
        -0.09532825648784637
      ],
      [
        -0.1578889936208725,
        -0.14195659756660461,
        -0.07356525212526321,
        -0.07006611675024033,
        -0.11420834809541702,
        -0.09617488831281662,
        -0.01631902903318405,
        0.1257302463054657,
        -0.050557464361190796,
        -0.05077113211154938,
        -0.019575070589780807,
        0.04164913669228554,
        -0.06942202150821686,
        -0.0567375011742115,
        0.11143431812524796,
        0.10441353917121887,
        -0.06548672914505005,
        -0.027222957462072372,
        0.019187521189451218,
        -0.027390239760279655,
        -0.07315833121538162,
        -0.07140703499317169,
        0.0903124213218689,
        -0.03931562975049019,
        2.8037637093802914e-05,
        0.04961569979786873,
        -0.09011023491621017,
        0.004775735549628735,
        0.05923926457762718,
        -0.05059726908802986,
        0.08581603318452835,
        -0.01260015182197094,
        0.03819539025425911,
        0.11430168151855469,
        -0.015280744060873985,
        -0.01753617264330387,
        -0.09128008782863617,
        0.0538925938308239,
        0.07091717422008514,
        -0.07072141021490097,
        -0.10502824932336807,
        0.06802136451005936,
        -0.061864107847213745,
        0.022175276651978493,
        -0.025039896368980408,
        0.12594309449195862,
        0.10685219615697861,
        0.058246999979019165,
        -0.06904018670320511,
        0.07801572233438492,
        0.04238881170749664,
        0.024340657517313957,
        -0.16143937408924103,
        -0.08025377243757248,
        -0.1020996943116188,
        0.08099360018968582,
        0.11587046086788177,
        0.1070367619395256,
        0.02300836145877838,
        0.03557060658931732
      ],
      [
        0.1175471618771553,
        -0.06453157961368561,
        -0.07261575758457184,
        -0.10019264370203018,
        0.012736475095152855,
        -4.8040965339168906e-05,
        0.05507638677954674,
        -0.1000201627612114,
        -0.03510783985257149,
        -0.02970387414097786,
        -0.07967006415128708,
        0.023491280153393745,
        -0.1546894609928131,
        0.06313290446996689,
        -0.08697490394115448,
        -0.09668055176734924,
        -0.06292402744293213,
        -0.11717420071363449,
        0.09466209262609482,
        0.10219892114400864,
        -0.10207698494195938,
        0.008575846441090107,
        0.0975525751709938,
        0.0689115896821022,
        -0.044601187109947205,
        -0.09421314299106598,
        0.06831768155097961,
        -0.09797654300928116,
        0.0003246947599109262,
        -0.02175612933933735,
        -0.06085783243179321,
        -0.015194281004369259,
        -0.08041834831237793,
        -0.019878586754202843,
        0.00842666532844305,
        0.14377212524414062,
        -0.0660378560423851,
        0.09533728659152985,
        0.014769934117794037,
        -0.04878133907914162,
        -0.05194684863090515,
        -0.022319883108139038,
        0.014320863410830498,
        -0.03390065208077431,
        0.059621986001729965,
        0.09169284999370575,
        0.04021712765097618,
        0.06804594397544861,
        0.09341200441122055,
        0.05849849060177803,
        0.08272827416658401,
        0.049750324338674545,
        0.1189112514257431,
        -0.1335763782262802,
        0.012823903933167458,
        -0.02869022637605667,
        -0.011264213360846043,
        -0.06692564487457275,
        0.09685550630092621,
        0.14093682169914246
      ],
      [
        -0.0881241112947464,
        0.09230637550354004,
        0.09840911626815796,
        0.01646624505519867,
        -0.02387152425944805,
        0.02865549735724926,
        -0.004119180608540773,
        -0.026690592989325523,
        -0.003042715834453702,
        0.019958455115556717,
        0.025018244981765747,
        -0.0006142496131360531,
        0.046281974762678146,
        0.08653505146503448,
        -0.13111630082130432,
        0.028987959027290344,
        0.048588499426841736,
        0.012187737971544266,
        -0.013478566892445087,
        0.10246513783931732,
        -0.10365714132785797,
        -0.05954832211136818,
        -0.07517857104539871,
        0.094216488301754,
        -0.09877879917621613,
        -0.036511823534965515,
        -0.08918777108192444,
        -0.01774420589208603,
        0.04873911663889885,
        -0.025959303602576256,
        0.07340709120035172,
        -0.016484985128045082,
        -0.06066296622157097,
        0.02259366400539875,
        0.09358128905296326,
        -0.012582859955728054,
        0.1167740598320961,
        -0.07093483209609985,
        0.05177212879061699,
        0.06683436036109924,
        0.07062684744596481,
        0.01568063721060753,
        0.03474544361233711,
        -0.07893630862236023,
        -0.13000217080116272,
        -0.01451660506427288,
        -0.04007049649953842,
        0.07711372524499893,
        0.07425623387098312,
        0.0509042888879776,
        -0.053617995232343674,
        -0.09457509964704514,
        -0.04380638152360916,
        0.03189685940742493,
        -0.08038348704576492,
        -0.1380089968442917,
        -0.06427861750125885,
        -0.09973349422216415,
        -0.049589212983846664,
        -0.07843109220266342
      ],
      [
        -0.14306820929050446,
        0.14267988502979279,
        -0.022627277299761772,
        0.10097203403711319,
        -0.007232322823256254,
        0.02602994628250599,
        -0.09594888240098953,
        -0.07786533981561661,
        -0.10466084629297256,
        0.0315006859600544,
        -0.032269325107336044,
        -0.1332932859659195,
        0.07461725920438766,
        -0.15923167765140533,
        -0.06786828488111496,
        -0.06415693461894989,
        -0.09969118982553482,
        -0.0943928062915802,
        0.11843357980251312,
        0.08275669813156128,
        0.0024088462814688683,
        -0.10144693404436111,
        -0.012845562770962715,
        -0.09915214031934738,
        0.011939328163862228,
        0.018177703022956848,
        -0.0632290244102478,
        -0.02363613434135914,
        0.04920452460646629,
        0.03164125978946686,
        0.042829081416130066,
        0.00899984035640955,
        -0.10973073542118073,
        -0.02387806586921215,
        -0.1277933269739151,
        0.1223621666431427,
        -0.05043148994445801,
        0.048353902995586395,
        -0.05273636430501938,
        -0.0019840048626065254,
        0.07784496992826462,
        -0.16965614259243011,
        0.03084675781428814,
        -0.11333432048559189,
        0.05579397827386856,
        0.011357140727341175,
        0.09892330318689346,
        0.1108526811003685,
        0.012941931374371052,
        0.004536906722933054,
        -0.08131134510040283,
        0.046275749802589417,
        -0.1257994920015335,
        0.02640313096344471,
        -0.045630939304828644,
        0.15732143819332123,
        0.10954136401414871,
        0.04052412137389183,
        -0.009867100045084953,
        0.004909904208034277
      ],
      [
        -0.1729857176542282,
        0.06373307853937149,
        -0.049425460398197174,
        0.04910403862595558,
        0.04036871716380119,
        0.06627573817968369,
        -0.0810457170009613,
        0.028605850413441658,
        -0.0647742748260498,
        -0.008832941763103008,
        0.056946270167827606,
        -0.06107110530138016,
        -0.11978131532669067,
        -0.24144791066646576,
        -0.03394715115427971,
        0.15266911685466766,
        -0.05656369775533676,
        0.029237128794193268,
        0.19368790090084076,
        -0.05250582471489906,
        -0.03310605138540268,
        -0.12429670244455338,
        0.037919290363788605,
        -0.02378823794424534,
        -0.021630767732858658,
        0.06860606372356415,
        -0.021176287904381752,
        -0.0387016125023365,
        0.018596066161990166,
        0.048470381647348404,
        0.05356603115797043,
        0.04052824154496193,
        -0.08678781986236572,
        0.12369315326213837,
        -0.049699731171131134,
        0.004252035170793533,
        -0.1301734894514084,
        -0.11284883320331573,
        0.0036879247054457664,
        -0.023152390494942665,
        -0.05973817780613899,
        0.022883091121912003,
        -0.01985003985464573,
        0.022967252880334854,
        0.1428971141576767,
        -0.10792118310928345,
        -0.032306768000125885,
        0.018039453774690628,
        0.03956455737352371,
        -0.0007277794647961855,
        -0.058541253209114075,
        0.0008762389188632369,
        0.04450612515211105,
        0.09672434628009796,
        0.04038827493786812,
        0.058305010199546814,
        -0.007473202422261238,
        0.008504035882651806,
        0.0030649250838905573,
        0.006805401761084795
      ],
      [
        -0.0350814014673233,
        -0.1327514797449112,
        -0.11538065969944,
        0.0052159312181174755,
        0.020180555060505867,
        0.020310906693339348,
        -0.15949133038520813,
        0.09287586808204651,
        -0.011278243735432625,
        -0.10793556272983551,
        -0.05370095744729042,
        -0.09828988462686539,
        -0.11605118215084076,
        -0.12048541009426117,
        0.025788018479943275,
        0.08977275341749191,
        0.08493810147047043,
        -0.09088560193777084,
        0.15199096500873566,
        0.07168536633253098,
        0.009559952653944492,
        0.008594085462391376,
        -0.02366200089454651,
        0.03505644202232361,
        0.012863660231232643,
        -0.03802461549639702,
        0.008201424032449722,
        -0.10318474471569061,
        -0.03561672940850258,
        -0.06507232785224915,
        -0.03488964959979057,
        -0.05173631012439728,
        -0.16711384057998657,
        0.05323415249586105,
        -0.06799568980932236,
        -0.10440225899219513,
        -0.030196474865078926,
        -0.06225043535232544,
        0.07596883177757263,
        -0.11573862284421921,
        -0.0026956931687891483,
        -0.0276639387011528,
        -0.013852691277861595,
        -0.012524135410785675,
        0.04621659964323044,
        0.11902914941310883,
        -0.003544565988704562,
        0.10439455509185791,
        0.13358227908611298,
        -0.06967156380414963,
        0.013480691239237785,
        0.060419030487537384,
        -0.03230727091431618,
        0.042635850608348846,
        -0.02334258332848549,
        0.16009049117565155,
        0.022249586880207062,
        -0.07627635449171066,
        0.0956890806555748,
        0.014985470101237297
      ]
    ],
    "net.2.bias": [
      0.07145597040653229,
      0.026917852461338043,
      0.08431579917669296,
      0.0628151223063469,
      0.027392134070396423,
      -0.02564818039536476,
      0.016923263669013977,
      -0.09812368452548981
    ]
  }
}