{
  "name": "PV3",
  "type": "F1+H1+F2",
  "t_step": 0.002,
  "normfacs": {
    "T": {
      "scale": 20.003402709960938,
      "offset": 25.001083374023438
    },
    "G": {
      "scale": 1000.0999755859375,
      "offset": 509.3038330078125
    },
    "Fc": {
      "scale": 9.999828338623047,
      "offset": 60.00246810913086
    },
    "Md": {
      "scale": 0.40000206232070923,
      "offset": 1.000037431716919
    },
    "Mq": {
      "scale": 0.4000000059604645,
      "offset": 0.0010415337746962905
    },
    "Vrms": {
      "scale": 546.6259155273438,
      "offset": 413.1492614746094
    },
    "GVrms": {
      "scale": 546.6232299804688,
      "offset": 236.55543518066406
    },
    "Ctl": {
      "scale": 1.0,
      "offset": 0.7490000128746033
    },
    "Unb": {
      "scale": 1.0,
      "offset": 0.11088889092206955
    },
    "Vdc": {
      "scale": 439.7894592285156,
      "offset": 338.2721862792969
    },
    "Idc": {
      "scale": 292.8359680175781,
      "offset": 131.92489624023438
    },
    "Idlo": {
      "scale": 186.4149932861328,
      "offset": 87.38320922851562
    },
    "Iqlo": {
      "scale": 68.51012420654297,
      "offset": -1.8834285736083984
    },
    "I0lo": {
      "scale": 0.8136371970176697,
      "offset": -6.633380689891055e-05
    },
    "Idhi": {
      "scale": 14.488091468811035,
      "offset": 0.49975311756134033
    },
    "Iqhi": {
      "scale": 14.80299186706543,
      "offset": 0.493014395236969
    },
    "I0hi": {
      "scale": 14.913056373596191,
      "offset": 0.48872336745262146
    }
  },
  "lr": 0.001,
  "num_iter": 2000,
  "print_freq": 10,
  "batch_size": 270,
  "n_skip": 1,
  "n_trunc": 0,
  "n_dec": 1,
  "n_loss_skip": 20,
  "na": 4,
  "nb": 4,
  "nk": 0,
  "activation": "tanh",
  "nh1": 80,
  "nh2": 60,
  "COL_T": [
    "t"
  ],
  "COL_Y": [
    "Vdc",
    "Idc",
    "Idlo",
    "Iqlo",
    "I0lo",
    "Idhi",
    "Iqhi",
    "I0hi"
  ],
  "COL_U": [
    "T",
    "G",
    "Fc",
    "Md",
    "Mq",
    "Vrms",
    "GVrms",
    "Ctl",
    "Unb"
  ],
  "H1": {
    "n_in": 8,
    "n_out": 8,
    "n_b": 4,
    "n_a": 4,
    "n_k": 0,
    "a_0_0": [
      -0.02951076067984104,
      -0.04116977006196976,
      -0.02576538734138012,
      -0.026598751544952393
    ],
    "b_0_0": [
      0.03875117003917694,
      0.03559833765029907,
      0.04857347160577774,
      0.03781764954328537
    ],
    "a_0_1": [
      -0.03331670165061951,
      -0.04238816723227501,
      -0.032884497195482254,
      -0.046637240797281265
    ],
    "b_0_1": [
      0.04135452210903168,
      0.04700958728790283,
      0.049357447773218155,
      0.043601009994745255
    ],
    "a_0_2": [
      -0.00676075741648674,
      -0.005733332596719265,
      -0.006623539142310619,
      0.0016589851584285498
    ],
    "b_0_2": [
      0.009555132128298283,
      0.008553629741072655,
      0.017904037609696388,
      0.013403933495283127
    ],
    "a_0_3": [
      -0.06597445160150528,
      -0.0636119693517685,
      -0.06647548079490662,
      -0.0741562619805336
    ],
    "b_0_3": [
      0.06025191769003868,
      0.05580596998333931,
      0.06054152548313141,
      0.045081865042448044
    ],
    "a_0_4": [
      -0.10848511755466461,
      -0.11742904782295227,
      -0.10538523644208908,
      -0.1081748828291893
    ],
    "b_0_4": [
      -0.060804300010204315,
      -0.07383646816015244,
      -0.07279714196920395,
      -0.07132667303085327
    ],
    "a_0_5": [
      -0.0860736072063446,
      -0.12191542983055115,
      -0.14009036123752594,
      -0.15826097130775452
    ],
    "b_0_5": [
      0.03272552415728569,
      0.0406431220471859,
      0.05425938218832016,
      0.04779636859893799
    ],
    "a_0_6": [
      0.0068451412953436375,
      0.006739574950188398,
      -0.006847904995083809,
      -0.009445230476558208
    ],
    "b_0_6": [
      -0.014311418868601322,
      -0.024923445656895638,
      -0.014383384957909584,
      -0.006463881116360426
    ],
    "a_0_7": [
      -0.2132362276315689,
      -0.21229754388332367,
      -0.20246195793151855,
      -0.21091291308403015
    ],
    "b_0_7": [
      0.11289624124765396,
      0.11572469025850296,
      0.11388876289129257,
      0.10916755348443985
    ],
    "a_1_0": [
      -0.09195397049188614,
      -0.08402930945158005,
      -0.08011820912361145,
      -0.07507994025945663
    ],
    "b_1_0": [
      0.08686528354883194,
      0.07629069685935974,
      0.08569633215665817,
      0.07950162142515182
    ],
    "a_1_1": [
      0.015499505214393139,
      0.012453462928533554,
      0.0068256426602602005,
      -0.005022899713367224
    ],
    "b_1_1": [
      -0.01378810964524746,
      0.003981419373303652,
      -0.003117254003882408,
      -0.001820261008106172
    ],
    "a_1_2": [
      -0.01842367835342884,
      -0.019862806424498558,
      -0.007517051883041859,
      -0.0025417471770197153
    ],
    "b_1_2": [
      -0.048224810510873795,
      -0.04692818596959114,
      -0.04169510304927826,
      -0.04406212642788887
    ],
    "a_1_3": [
      0.002292407676577568,
      -0.011517040431499481,
      -0.008117234334349632,
      0.003566161962226033
    ],
    "b_1_3": [
      -0.02498367615044117,
      -0.021439431235194206,
      -0.019425462931394577,
      -0.011547042056918144
    ],
    "a_1_4": [
      -0.15334764122962952,
      -0.17212612926959991,
      -0.16689205169677734,
      -0.18867114186286926
    ],
    "b_1_4": [
      0.07357339560985565,
      0.06458885222673416,
      0.07579001784324646,
      0.07998493313789368
    ],
    "a_1_5": [
      -0.17854171991348267,
      -0.21998293697834015,
      -0.23157016932964325,
      -0.25822800397872925
    ],
    "b_1_5": [
      -0.0685039833188057,
      -0.0796627327799797,
      -0.09736805409193039,
      -0.10499785840511322
    ],
    "a_1_6": [
      -0.01667727343738079,
      -0.018562719225883484,
      -0.024706296622753143,
      -0.020352479070425034
    ],
    "b_1_6": [
      -0.011969609186053276,
      -0.006955736316740513,
      -0.01694028452038765,
      -0.01850975677371025
    ],
    "a_1_7": [
      -0.017122888937592506,
      -1.1021980753866956e-05,
      0.00419527105987072,
      0.011241271160542965
    ],
    "b_1_7": [
      0.043474454432725906,
      0.027936231344938278,
      0.02692759409546852,
      0.029195601120591164
    ],
    "a_2_0": [
      -0.18959924578666687,
      -0.18634985387325287,
      -0.1746426671743393,
      -0.17735959589481354
    ],
    "b_2_0": [
      -0.09545203298330307,
      -0.0996144488453865,
      -0.09621313214302063,
      -0.08959345519542694
    ],
    "a_2_1": [
      -0.0026229391805827618,
      -0.0041781580075621605,
      -0.00927682314068079,
      -0.018134891986846924
    ],
    "b_2_1": [
      -0.02274227701127529,
      -0.01623026840388775,
      -0.023923320695757866,
      -0.014493703842163086
    ],
    "a_2_2": [
      -0.00425305962562561,
      -0.0005888162995688617,
      -0.0027135666459798813,
      0.0022517861798405647
    ],
    "b_2_2": [
      0.02063142880797386,
      0.022054346278309822,
      0.026714056730270386,
      0.027796253561973572
    ],
    "a_2_3": [
      0.015785204246640205,
      0.018204189836978912,
      0.0003033021348528564,
      0.007296720519661903
    ],
    "b_2_3": [
      0.002720909658819437,
      -0.004385761916637421,
      -0.0039924983866512775,
      -0.006657486781477928
    ],
    "a_2_4": [
      -0.16409967839717865,
      -0.17848411202430725,
      -0.1777275949716568,
      -0.19846570491790771
    ],
    "b_2_4": [
      -0.05933329835534096,
      -0.07498802244663239,
      -0.0772901326417923,
      -0.08953509479761124
    ],
    "a_2_5": [
      -0.031664133071899414,
      -0.05337408930063248,
      -0.0688740611076355,
      -0.08833291381597519
    ],
    "b_2_5": [
      0.002981828525662422,
      0.021589919924736023,
      0.02295665256679058,
      0.039185550063848495
    ],
    "a_2_6": [
      -0.14677071571350098,
      -0.1570792943239212,
      -0.17359864711761475,
      -0.196310892701149
    ],
    "b_2_6": [
      0.06356102228164673,
      0.06369102746248245,
      0.06674326211214066,
      0.06570150703191757
    ],
    "a_2_7": [
      0.034117888659238815,
      0.018894553184509277,
      0.03111649490892887,
      0.037879426032304764
    ],
    "b_2_7": [
      0.0012230743886902928,
      0.0020351686980575323,
      0.00402445811778307,
      0.005615935195237398
    ],
    "a_3_0": [
      -0.2307339757680893,
      -0.2169533520936966,
      -0.22072383761405945,
      -0.22445957362651825
    ],
    "b_3_0": [
      -0.16511042416095734,
      -0.16281485557556152,
      -0.16678385436534882,
      -0.154302716255188
    ],
    "a_3_1": [
      -0.24739834666252136,
      -0.2331000119447708,
      -0.23637092113494873,
      -0.22528958320617676
    ],
    "b_3_1": [
      0.11685381829738617,
      0.1263943612575531,
      0.11339159309864044,
      0.11438585817813873
    ],
    "a_3_2": [
      -0.11003714054822922,
      -0.11425377428531647,
      -0.11626675724983215,
      -0.11048620194196701
    ],
    "b_3_2": [
      0.08248334378004074,
      0.09387924522161484,
      0.07770877331495285,
      0.08860963582992554
    ],
    "a_3_3": [
      -0.09109552949666977,
      -0.09454608708620071,
      -0.09462250024080276,
      -0.09657170623540878
    ],
    "b_3_3": [
      0.07717949151992798,
      0.07898738235235214,
      0.0745750293135643,
      0.078089639544487
    ],
    "a_3_4": [
      -0.06568484753370285,
      -0.06798827648162842,
      -0.07678765058517456,
      -0.0852532759308815
    ],
    "b_3_4": [
      -0.05676297843456268,
      -0.06225583329796791,
      -0.06127379834651947,
      -0.07391887158155441
    ],
    "a_3_5": [
      -0.03698905557394028,
      -0.04638265073299408,
      -0.039748724550008774,
      -0.04297531768679619
    ],
    "b_3_5": [
      -0.05026010423898697,
      -0.04585089534521103,
      -0.042912304401397705,
      -0.04276670515537262
    ],
    "a_3_6": [
      -0.08189522475004196,
      -0.06785817444324493,
      -0.07654493302106857,
      -0.06771919131278992
    ],
    "b_3_6": [
      -0.08012566715478897,
      -0.07183470577001572,
      -0.06387089192867279,
      -0.05692700296640396
    ],
    "a_3_7": [
      0.017517630010843277,
      0.00262102740816772,
      0.0007197645609267056,
      -0.0012689653085544705
    ],
    "b_3_7": [
      0.006103291176259518,
      0.020239228382706642,
      0.006918606348335743,
      0.00855342485010624
    ],
    "a_4_0": [
      -0.06262661516666412,
      -0.07890553772449493,
      -0.07700836658477783,
      -0.07942987978458405
    ],
    "b_4_0": [
      0.04053707420825958,
      0.04612993076443672,
      0.05136914923787117,
      0.042457710951566696
    ],
    "a_4_1": [
      -0.08795619755983353,
      -0.08857740461826324,
      -0.10142922401428223,
      -0.09265972673892975
    ],
    "b_4_1": [
      -0.057377561926841736,
      -0.05626649409532547,
      -0.06525985896587372,
      -0.05856865271925926
    ],
    "a_4_2": [
      -0.14564484357833862,
      -0.15459585189819336,
      -0.16570506989955902,
      -0.15751083195209503
    ],
    "b_4_2": [
      -0.09099435061216354,
      -0.09155610203742981,
      -0.09046746790409088,
      -0.09003372490406036
    ],
    "a_4_3": [
      -0.044287629425525665,
      -0.05162214860320091,
      -0.04420122876763344,
      -0.04426904395222664
    ],
    "b_4_3": [
      -0.05496566370129585,
      -0.05548274517059326,
      -0.04290507733821869,
      -0.043259408324956894
    ],
    "a_4_4": [
      -0.023532452061772346,
      -0.017939981073141098,
      -0.004740319214761257,
      -0.01194230280816555
    ],
    "b_4_4": [
      0.03751441463828087,
      0.02242792397737503,
      0.028299450874328613,
      0.01850295066833496
    ],
    "a_4_5": [
      0.01397025492042303,
      0.019039912149310112,
      0.023625977337360382,
      0.015363854356110096
    ],
    "b_4_5": [
      -0.013205151073634624,
      -0.018674597144126892,
      -0.008491293527185917,
      -0.005791143514215946
    ],
    "a_4_6": [
      -0.0522276945412159,
      -0.04232717677950859,
      -0.04919905960559845,
      -0.06026485189795494
    ],
    "b_4_6": [
      0.04891291633248329,
      0.0465075746178627,
      0.043061964213848114,
      0.05313295125961304
    ],
    "a_4_7": [
      0.03954199329018593,
      0.03590387850999832,
      0.037553176283836365,
      0.03429630771279335
    ],
    "b_4_7": [
      -0.01831933669745922,
      -0.0024740612134337425,
      -0.0007644573925063014,
      0.001230115769430995
    ],
    "a_5_0": [
      -0.00904368981719017,
      -0.0012696837075054646,
      -0.0030176672153174877,
      -0.002760239178314805
    ],
    "b_5_0": [
      -0.007924774661660194,
      -0.008707217872142792,
      -0.003551224246621132,
      -0.0023365020751953125
    ],
    "a_5_1": [
      0.03172961249947548,
      0.03755129873752594,
      0.02657311037182808,
      0.037500735372304916
    ],
    "b_5_1": [
      0.0018561392789706588,
      0.0011118454858660698,
      0.006079385057091713,
      -0.004197712522000074
    ],
    "a_5_2": [
      -0.060029421001672745,
      -0.06586121022701263,
      -0.07162613421678543,
      -0.06282421946525574
    ],
    "b_5_2": [
      0.05606558546423912,
      0.062432508915662766,
      0.061761654913425446,
      0.0530674122273922
    ],
    "a_5_3": [
      -0.005759315565228462,
      -0.014549549669027328,
      -0.013159781694412231,
      0.0029436808545142412
    ],
    "b_5_3": [
      0.028016963973641396,
      0.019454464316368103,
      0.024218376725912094,
      0.023477181792259216
    ],
    "a_5_4": [
      -0.09966320544481277,
      -0.10249045491218567,
      -0.10215529799461365,
      -0.10639193654060364
    ],
    "b_5_4": [
      -0.06735449284315109,
      -0.08499166369438171,
      -0.08197122067213058,
      -0.0862601101398468
    ],
    "a_5_5": [
      -0.17287221550941467,
      -0.16273115575313568,
      -0.16373755037784576,
      -0.1562863439321518
    ],
    "b_5_5": [
      -0.13340285420417786,
      -0.13771016895771027,
      -0.12077853828668594,
      -0.12450552731752396
    ],
    "a_5_6": [
      -0.023855609819293022,
      -0.03015882894396782,
      -0.03568050637841225,
      -0.035811152309179306
    ],
    "b_5_6": [
      -0.046239886432886124,
      -0.04457036033272743,
      -0.037553317844867706,
      -0.02932232804596424
    ],
    "a_5_7": [
      0.021187767386436462,
      0.02433636039495468,
      0.024571575224399567,
      0.019511954858899117
    ],
    "b_5_7": [
      -0.008012528531253338,
      -0.01788991317152977,
      -0.026763416826725006,
      -0.01995871774852276
    ],
    "a_6_0": [
      -0.0026412196457386017,
      -0.019259797409176826,
      -0.018025076016783714,
      -0.021375909447669983
    ],
    "b_6_0": [
      -0.004209673963487148,
      -0.002158657182008028,
      0.004075759090483189,
      0.005801876541227102
    ],
    "a_6_1": [
      0.019949808716773987,
      0.011626267805695534,
      0.007034494075924158,
      0.014923738315701485
    ],
    "b_6_1": [
      0.0014262800104916096,
      -9.333364141639322e-05,
      -0.006909334100782871,
      -0.0030136641580611467
    ],
    "a_6_2": [
      -0.016477996483445168,
      -0.01941417157649994,
      -0.009341548196971416,
      -0.011540854349732399
    ],
    "b_6_2": [
      -0.01616067998111248,
      -0.022951463237404823,
      -0.018961094319820404,
      -0.019447023048996925
    ],
    "a_6_3": [
      -0.09382224828004837,
      -0.09331811219453812,
      -0.08220398426055908,
      -0.0795014426112175
    ],
    "b_6_3": [
      -0.08110649138689041,
      -0.06453142315149307,
      -0.07216212898492813,
      -0.07986684143543243
    ],
    "a_6_4": [
      -0.0016158230137079954,
      -0.007703395094722509,
      0.0018020394491031766,
      -0.0017334051663056016
    ],
    "b_6_4": [
      0.009792659431695938,
      -0.004334332421422005,
      0.004184757359325886,
      0.010690229944884777
    ],
    "a_6_5": [
      0.028152069076895714,
      0.03146017715334892,
      0.04136870428919792,
      0.04668779298663139
    ],
    "b_6_5": [
      -0.012784789316356182,
      -0.008028173819184303,
      -0.005254762712866068,
      -0.0006796031957492232
    ],
    "a_6_6": [
      -0.019682463258504868,
      -0.01117801759392023,
      -0.021635351702570915,
      -0.005221316125243902
    ],
    "b_6_6": [
      0.02582162618637085,
      0.023497750982642174,
      0.028319621458649635,
      0.03663592040538788
    ],
    "a_6_7": [
      0.017281660810112953,
      0.01048338133841753,
      0.01136212982237339,
      0.008553427644073963
    ],
    "b_6_7": [
      0.014731558039784431,
      0.021938707679510117,
      0.015676284208893776,
      0.019219914451241493
    ],
    "a_7_0": [
      -0.2585560381412506,
      -0.23400038480758667,
      -0.21174991130828857,
      -0.19648173451423645
    ],
    "b_7_0": [
      -0.18327130377292633,
      -0.18015184998512268,
      -0.1871589720249176,
      -0.18383105099201202
    ],
    "a_7_1": [
      -0.23318475484848022,
      -0.2401033341884613,
      -0.23879317939281464,
      -0.2283204048871994
    ],
    "b_7_1": [
      0.19242878258228302,
      0.1918182075023651,
      0.1890668123960495,
      0.17840220034122467
    ],
    "a_7_2": [
      -0.021256223320961,
      -0.0036577575374394655,
      -0.016253378242254257,
      -0.018529502674937248
    ],
    "b_7_2": [
      0.01888432726264,
      0.018391534686088562,
      0.005447694566100836,
      0.005266678053885698
    ],
    "a_7_3": [
      -0.04064646735787392,
      -0.04627460613846779,
      -0.04464864730834961,
      -0.03411140292882919
    ],
    "b_7_3": [
      -0.046031828969717026,
      -0.03842679783701897,
      -0.04511138051748276,
      -0.04202952980995178
    ],
    "a_7_4": [
      -0.11046060174703598,
      -0.09626998752355576,
      -0.09139445424079895,
      -0.09604246914386749
    ],
    "b_7_4": [
      0.07933510839939117,
      0.08433836698532104,
      0.08213617652654648,
      0.08816099911928177
    ],
    "a_7_5": [
      0.005716260056942701,
      -0.0003968269156757742,
      0.018833916634321213,
      0.028469929471611977
    ],
    "b_7_5": [
      -0.012447514571249485,
      -0.02848421037197113,
      -0.022857410833239555,
      -0.021417157724499702
    ],
    "a_7_6": [
      -0.01569579541683197,
      -0.009014767594635487,
      -0.02838989906013012,
      -0.020217308774590492
    ],
    "b_7_6": [
      0.04499222710728645,
      0.032839611172676086,
      0.03165935352444649,
      0.02900814823806286
    ],
    "a_7_7": [
      0.014231373555958271,
      0.0036338036879897118,
      0.0174676775932312,
      0.009298549965023994
    ],
    "b_7_7": [
      0.011940467171370983,
      0.0015903472667559981,
      0.0004028923576697707,
      0.01075683068484068
    ]
  },
  "F1": {
    "n_in": 9,
    "n_hid": 80,
    "n_out": 8,
    "activation": "tanh",
    "net.0.weight": [
      [
        0.07359261065721512,
        0.12025965005159378,
        -0.2222989797592163,
        -0.44428756833076477,
        -0.20900899171829224,
        0.2549966871738434,
        -0.007423225324600935,
        0.2269049733877182,
        0.03860951215028763
      ],
      [
        0.07559644430875778,
        -0.00483986921608448,
        -0.001613829517737031,
        -0.2830338180065155,
        -0.14626899361610413,
        -0.15389373898506165,
        0.09620887786149979,
        0.13351747393608093,
        0.34042811393737793
      ],
      [
        -0.17970499396324158,
        -0.2978791892528534,
        0.22579354047775269,
        0.2287822812795639,
        0.0558096319437027,
        0.3991078734397888,
        0.17501811683177948,
        0.017768559977412224,
        0.41902250051498413
      ],
      [
        -0.3391643762588501,
        -0.1649220883846283,
        -0.1672384887933731,
        -0.1360577940940857,
        0.31759995222091675,
        -0.21982069313526154,
        -0.1258811354637146,
        -0.20777639746665955,
        -0.13232846558094025
      ],
      [
        -0.09755543619394302,
        0.35672953724861145,
        0.03853381425142288,
        0.19903571903705597,
        0.2980785071849823,
        -0.24845093488693237,
        -0.10678249597549438,
        -0.303237646818161,
        -0.035647787153720856
      ],
      [
        -0.11743738502264023,
        0.21709774434566498,
        0.1550009548664093,
        -0.5658508539199829,
        -0.048217467963695526,
        0.2727176547050476,
        0.30987438559532166,
        0.11505759507417679,
        -0.14503195881843567
      ],
      [
        0.18385736644268036,
        -0.1538262963294983,
        0.09436668455600739,
        -0.231658473610878,
        -0.24298159778118134,
        -0.10768184065818787,
        0.19710229337215424,
        0.14123646914958954,
        -0.165426105260849
      ],
      [
        0.07190386205911636,
        0.1630883514881134,
        -0.32133662700653076,
        -0.05716361477971077,
        0.3627724349498749,
        0.07720527797937393,
        0.28183475136756897,
        -0.27527672052383423,
        -0.0376773439347744
      ],
      [
        0.032097913324832916,
        0.2620767652988434,
        0.17297257483005524,
        0.20846226811408997,
        -0.002740328200161457,
        -0.4318806529045105,
        -0.04317415505647659,
        -0.20429730415344238,
        -0.4800703823566437
      ],
      [
        0.2343597561120987,
        0.3289911150932312,
        -0.12820108234882355,
        0.12150916457176208,
        -0.029181264340877533,
        -0.0548391155898571,
        -0.2004145234823227,
        0.14842092990875244,
        -0.17502063512802124
      ],
      [
        0.06141650676727295,
        0.2013016790151596,
        0.08988847583532333,
        0.14180932939052582,
        -0.16335029900074005,
        -0.42972472310066223,
        -0.04695222154259682,
        0.07777124643325806,
        -0.3572131395339966
      ],
      [
        -0.03744799271225929,
        0.3416496515274048,
        0.0252017080783844,
        -0.07032658159732819,
        -0.14196473360061646,
        -0.6238142848014832,
        -0.2505672574043274,
        -0.2851339876651764,
        -0.30013731122016907
      ],
      [
        -0.08905381709337234,
        0.1094125360250473,
        -0.11748766154050827,
        0.2251235395669937,
        -0.29072079062461853,
        0.3308500051498413,
        0.2711086571216583,
        -0.2878414988517761,
        -0.14359170198440552
      ],
      [
        -0.01414093840867281,
        0.1451846808195114,
        -0.1293843686580658,
        0.20403237640857697,
        -0.16080443561077118,
        -0.24785704910755157,
        0.03936367481946945,
        -0.31199735403060913,
        -0.3755136728286743
      ],
      [
        0.056931983679533005,
        -0.2527223229408264,
        0.011089012026786804,
        -1.2562525272369385,
        -0.23125481605529785,
        0.17909972369670868,
        -0.08859749883413315,
        0.0007794303237460554,
        0.22127890586853027
      ],
      [
        0.00023047396098263562,
        0.022115498781204224,
        -0.06980124115943909,
        -0.04283098503947258,
        0.14563800394535065,
        0.3970398008823395,
        0.19810350239276886,
        0.3071514964103699,
        -0.14732146263122559
      ],
      [
        -0.3535204231739044,
        -0.11493640393018723,
        0.09214519709348679,
        0.037665896117687225,
        -0.20055921375751495,
        -0.3443993628025055,
        -0.248677596449852,
        -0.25871846079826355,
        -0.072818323969841
      ],
      [
        0.06051193177700043,
        0.27141961455345154,
        -0.2609606683254242,
        0.14269208908081055,
        -0.35125452280044556,
        -0.05694582313299179,
        -0.20559430122375488,
        -0.05271634832024574,
        0.006289989221841097
      ],
      [
        -0.2730928063392639,
        -0.3236146867275238,
        -0.2848607897758484,
        0.07940809428691864,
        -0.1225474402308464,
        0.15954336524009705,
        -0.2690794765949249,
        -0.03063415363430977,
        0.27885282039642334
      ],
      [
        -0.1667369306087494,
        0.3486960530281067,
        0.16734996438026428,
        -0.31925395131111145,
        0.25706762075424194,
        -0.04160437360405922,
        -0.18901076912879944,
        0.2766648232936859,
        -0.23306086659431458
      ],
      [
        0.08050473034381866,
        -0.1986008584499359,
        0.42552414536476135,
        0.19972747564315796,
        0.057429056614637375,
        0.2980169951915741,
        -0.04147255793213844,
        -0.10071148723363876,
        -0.1296555995941162
      ],
      [
        0.13588610291481018,
        0.2937256693840027,
        0.07086063921451569,
        -0.31983426213264465,
        -0.06787855923175812,
        -0.39654651284217834,
        -0.38993072509765625,
        -0.17062458395957947,
        0.0940854623913765
      ],
      [
        -0.017299136146903038,
        -0.15688495337963104,
        0.11787337809801102,
        1.2793046236038208,
        -0.3402833640575409,
        -0.284752756357193,
        -0.48146897554397583,
        0.3230170011520386,
        -0.022627977654337883
      ],
      [
        0.1932777613401413,
        0.23589679598808289,
        0.09177674353122711,
        -0.026289600878953934,
        0.1301589161157608,
        -0.1004328727722168,
        -0.2436932474374771,
        -0.027206474915146828,
        0.032924309372901917
      ],
      [
        -0.17260392010211945,
        -0.3460400402545929,
        0.1324920803308487,
        -0.025648286566138268,
        -0.34004467725753784,
        0.4953854978084564,
        0.2487010508775711,
        -0.060969457030296326,
        -0.28038284182548523
      ],
      [
        0.09722373634576797,
        -0.5359119176864624,
        -0.2243891805410385,
        -0.09058472514152527,
        0.1923840045928955,
        0.24640144407749176,
        0.2027266025543213,
        0.0034524518996477127,
        0.6030251979827881
      ],
      [
        0.12222643196582794,
        -0.34293046593666077,
        0.26477357745170593,
        -0.16156722605228424,
        -0.12953971326351166,
        0.18640460073947906,
        0.19935503602027893,
        0.24213269352912903,
        -0.1871693879365921
      ],
      [
        -0.030957862734794617,
        0.2837642431259155,
        -0.2216232717037201,
        0.0702444538474083,
        -0.1023407056927681,
        -0.19826042652130127,
        -0.31273144483566284,
        -0.14058150351047516,
        -0.00746093038469553
      ],
      [
        0.20586593449115753,
        -0.16367316246032715,
        -0.1691143959760666,
        -0.32196763157844543,
        -0.4014902412891388,
        0.257228285074234,
        -0.07221885770559311,
        -0.1779521256685257,
        -0.24255390465259552
      ],
      [
        0.18796931207180023,
        0.25144442915916443,
        0.2902878224849701,
        0.2381168007850647,
        -0.0016991992015391588,
        -0.08763305842876434,
        0.10109846293926239,
        0.28503480553627014,
        0.10369347035884857
      ],
      [
        -0.1109638437628746,
        -0.17430996894836426,
        -0.17318016290664673,
        0.24417728185653687,
        -0.25610002875328064,
        -0.3659624755382538,
        0.3377635180950165,
        -0.220138281583786,
        0.11827590316534042
      ],
      [
        0.0012224775273352861,
        0.06836105138063431,
        -0.1119605153799057,
        -0.20331265032291412,
        0.16739478707313538,
        0.070945605635643,
        0.2865474820137024,
        -0.11148131638765335,
        0.1171218678355217
      ],
      [
        -0.08531027287244797,
        0.004230336751788855,
        -0.12660960853099823,
        0.6589978337287903,
        0.15688437223434448,
        0.07157407701015472,
        -0.1243128702044487,
        -0.18358321487903595,
        0.3407514691352844
      ],
      [
        -0.0016433827113360167,
        0.3491207957267761,
        -0.09303028881549835,
        -1.259993553161621,
        0.02179291658103466,
        -0.2749602794647217,
        -0.08347596973180771,
        0.08524481952190399,
        -0.3103143870830536
      ],
      [
        0.04634809494018555,
        0.23861098289489746,
        0.06154205650091171,
        0.13266927003860474,
        -0.46722885966300964,
        -0.08699135482311249,
        0.03595177084207535,
        -0.11490027606487274,
        0.15409769117832184
      ],
      [
        0.20897403359413147,
        -0.25636792182922363,
        0.016195695847272873,
        0.42972832918167114,
        0.1965108960866928,
        0.028459129855036736,
        0.09759654849767685,
        -0.26614585518836975,
        -0.023893294855952263
      ],
      [
        0.011913781985640526,
        0.6507463455200195,
        0.09321071207523346,
        0.6879234313964844,
        0.5099827647209167,
        -0.1596022993326187,
        -0.14753210544586182,
        -0.22723396122455597,
        0.3764658272266388
      ],
      [
        0.058102626353502274,
        -0.38644522428512573,
        0.11967456340789795,
        -0.016408761963248253,
        0.3461780250072479,
        0.45159247517585754,
        0.38024601340293884,
        -0.19543127715587616,
        -0.2823385000228882
      ],
      [
        0.223006010055542,
        0.2919561564922333,
        -0.06845812499523163,
        0.15258903801441193,
        0.29797857999801636,
        0.08273031562566757,
        -0.2903096079826355,
        0.07217763364315033,
        -0.060499221086502075
      ],
      [
        0.2609136998653412,
        -0.1293124556541443,
        -0.28419947624206543,
        0.3716394007205963,
        0.095940962433815,
        -0.11987558752298355,
        0.2114081233739853,
        -0.2157103419303894,
        -0.03987943008542061
      ],
      [
        -0.08716532588005066,
        -0.31375882029533386,
        -0.2537350654602051,
        0.3566032946109772,
        0.2982781231403351,
        0.43786752223968506,
        0.4746321439743042,
        -0.3207113444805145,
        -0.22106710076332092
      ],
      [
        -0.032482925802469254,
        -0.2569195032119751,
        0.038835372775793076,
        -0.597585141658783,
        0.017770078033208847,
        -0.29921871423721313,
        -0.11456968635320663,
        0.2714928984642029,
        0.33416232466697693
      ],
      [
        0.1026376262307167,
        0.25877153873443604,
        0.2998822331428528,
        -0.7676900625228882,
        0.4542188346385956,
        0.38133153319358826,
        0.24154582619667053,
        0.2495511919260025,
        0.14223834872245789
      ],
      [
        0.19234952330589294,
        -0.10197454690933228,
        0.33456745743751526,
        -0.0016869736136868596,
        -0.29031577706336975,
        -0.059077613055706024,
        -0.17686602473258972,
        -0.2058888077735901,
        0.21123093366622925
      ],
      [
        0.19464083015918732,
        0.01689823903143406,
        -0.09196607768535614,
        0.19582872092723846,
        0.06940515339374542,
        0.13655579090118408,
        -0.14242792129516602,
        0.3069216310977936,
        0.13803936541080475
      ],
      [
        -0.0843694657087326,
        0.4017336368560791,
        0.06151363253593445,
        0.07423777133226395,
        0.395114928483963,
        -0.33207377791404724,
        -0.11211726069450378,
        0.26337048411369324,
        0.0768040120601654
      ],
      [
        -0.14300614595413208,
        -0.19594216346740723,
        0.11494817584753036,
        -0.09377659857273102,
        -0.243650883436203,
        0.5111225247383118,
        0.18782882392406464,
        -0.23117129504680634,
        0.090489462018013
      ],
      [
        0.07890785485506058,
        0.027333537116646767,
        -0.12921294569969177,
        -0.07843831926584244,
        -0.4784177541732788,
        0.031908296048641205,
        0.09926880896091461,
        -0.21708619594573975,
        0.07168561220169067
      ],
      [
        0.2010638564825058,
        0.10792338103055954,
        -0.02372567169368267,
        0.047696661204099655,
        -0.05646076798439026,
        -0.2865751385688782,
        0.0761638656258583,
        -0.2591521143913269,
        -0.16429680585861206
      ],
      [
        -0.033563584089279175,
        0.11433032155036926,
        0.2151537388563156,
        -0.6420533657073975,
        0.6979716420173645,
        -0.2950449287891388,
        0.363714337348938,
        0.01607404090464115,
        -0.4849739670753479
      ],
      [
        0.22285640239715576,
        0.22675853967666626,
        0.10024173557758331,
        0.5838851928710938,
        -0.16225852072238922,
        0.3189551830291748,
        -0.03377241641283035,
        0.15633466839790344,
        -0.2713584303855896
      ],
      [
        -0.03589646518230438,
        -0.2771255373954773,
        0.11548052728176117,
        -0.6204556226730347,
        -0.3404838740825653,
        0.4286385774612427,
        0.6405938863754272,
        0.09424873441457748,
        0.03598858043551445
      ],
      [
        -0.08795911818742752,
        -0.14042450487613678,
        0.18164272606372833,
        0.48846882581710815,
        0.261466383934021,
        -0.10559443384408951,
        0.15536928176879883,
        -0.318886399269104,
        -0.29238224029541016
      ],
      [
        0.19739501178264618,
        -0.16303275525569916,
        0.16665121912956238,
        -0.06320074200630188,
        -0.17781676352024078,
        -0.2484651505947113,
        0.16447323560714722,
        0.010790631175041199,
        0.37223461270332336
      ],
      [
        0.16424010694026947,
        0.2253076434135437,
        0.14014028012752533,
        -0.16864359378814697,
        -0.1522374302148819,
        0.13591787219047546,
        0.11962044984102249,
        -0.23610210418701172,
        0.27463817596435547
      ],
      [
        0.026199420914053917,
        -0.28522223234176636,
        -0.22112302482128143,
        0.5274519920349121,
        0.3626556098461151,
        -0.4888330399990082,
        0.22885705530643463,
        0.1797780841588974,
        0.1860523670911789
      ],
      [
        0.2502497732639313,
        -0.1871151179075241,
        0.4746885895729065,
        0.4450662434101105,
        -0.47147247195243835,
        0.17533499002456665,
        -0.15638881921768188,
        0.22219403088092804,
        -0.01190897822380066
      ],
      [
        0.011580795980989933,
        0.0371524840593338,
        0.1033749058842659,
        -0.699221134185791,
        0.20124177634716034,
        0.17497718334197998,
        0.04832756891846657,
        0.08555739372968674,
        -0.19668899476528168
      ],
      [
        0.033059850335121155,
        -0.2859496772289276,
        -0.014814836904406548,
        -0.1951143443584442,
        0.24904374778270721,
        0.03172224760055542,
        0.10401883721351624,
        -0.15091043710708618,
        0.5445505976676941
      ],
      [
        0.22143110632896423,
        -0.20087985694408417,
        0.07528378814458847,
        -0.1580670326948166,
        -0.15947455167770386,
        -0.19585008919239044,
        -0.1143532395362854,
        -0.10474615544080734,
        0.11978010088205338
      ],
      [
        -0.19410571455955505,
        0.04814412444829941,
        -0.028013059869408607,
        -0.15066203474998474,
        0.06707065552473068,
        0.34488892555236816,
        -0.21372249722480774,
        -0.01667269878089428,
        -0.15931858122348785
      ],
      [
        0.25441116094589233,
        -0.4002506136894226,
        -0.1625073254108429,
        0.19854897260665894,
        0.0033922747243195772,
        0.1162467673420906,
        0.06377137452363968,
        -0.08684392273426056,
        -0.07438141852617264
      ],
      [
        0.15585856139659882,
        -0.08686003088951111,
        -0.248103067278862,
        -0.4435998499393463,
        -0.23035232722759247,
        0.2165839970111847,
        -0.18891489505767822,
        0.2977050840854645,
        -0.05495196580886841
      ],
      [
        -0.036358773708343506,
        0.3530600965023041,
        0.11943445354700089,
        0.11518263816833496,
        0.39942875504493713,
        -0.19447578489780426,
        -0.3481476604938507,
        -0.044700995087623596,
        0.2176733911037445
      ],
      [
        -0.044368352741003036,
        -0.6122695207595825,
        0.10132919251918793,
        1.4901490211486816,
        -0.07526984065771103,
        -0.32520437240600586,
        -0.42144304513931274,
        0.10856705904006958,
        -0.11255733668804169
      ],
      [
        -0.09537310153245926,
        0.18553635478019714,
        0.09343599528074265,
        0.06614957004785538,
        0.4709751009941101,
        -0.1764264702796936,
        -0.36101412773132324,
        -0.2648448050022125,
        0.35902097821235657
      ],
      [
        0.16978582739830017,
        0.08431481570005417,
        -0.1273578554391861,
        0.3043791651725769,
        0.39471733570098877,
        0.2666527330875397,
        -0.2866683304309845,
        -0.13723967969417572,
        -0.2954322099685669
      ],
      [
        0.28986623883247375,
        -0.13534925878047943,
        -0.10608159750699997,
        0.34771180152893066,
        -0.3015780746936798,
        -0.2591646909713745,
        0.034614626318216324,
        -0.0374271422624588,
        -0.24543863534927368
      ],
      [
        0.1499352604150772,
        -0.06622892618179321,
        -0.14059217274188995,
        0.12296536564826965,
        -0.07720300555229187,
        -0.10355061292648315,
        0.45407187938690186,
        -0.0008119232370518148,
        -0.31077373027801514
      ],
      [
        0.2970465123653412,
        0.010661869309842587,
        -0.3113466799259186,
        0.05173738673329353,
        -0.08585746586322784,
        0.23347316682338715,
        -0.014396941289305687,
        -0.32735010981559753,
        -0.04878375306725502
      ],
      [
        0.21765446662902832,
        0.033008892089128494,
        0.0020797934848815203,
        -0.01710456795990467,
        0.21005669236183167,
        -0.17553798854351044,
        -0.10749746114015579,
        -0.31255680322647095,
        -0.4277707040309906
      ],
      [
        0.16605068743228912,
        -0.22847290337085724,
        0.03498178720474243,
        0.22092705965042114,
        -0.029323454946279526,
        -0.2437479943037033,
        0.35721877217292786,
        -0.1928505301475525,
        0.33520305156707764
      ],
      [
        -0.06477684527635574,
        -0.1239398941397667,
        0.02379005216062069,
        0.00837639532983303,
        0.4946793019771576,
        -0.2669598162174225,
        -0.3246549665927887,
        -0.12670619785785675,
        0.010684510692954063
      ],
      [
        0.3786573112010956,
        -0.19862446188926697,
        0.23276302218437195,
        -0.11084990203380585,
        -0.01946212910115719,
        0.2609349191188812,
        -0.1764652281999588,
        0.017420513555407524,
        0.2848994731903076
      ],
      [
        -0.037000011652708054,
        0.38809728622436523,
        -0.10468752682209015,
        0.13510212302207947,
        -0.5027078986167908,
        -0.15124700963497162,
        -0.3181568384170532,
        0.09940991550683975,
        0.07707086205482483
      ],
      [
        0.18743957579135895,
        -0.14625389873981476,
        -0.03341154754161835,
        0.8460215330123901,
        0.06484169512987137,
        0.2848825752735138,
        -0.17861753702163696,
        -0.052054744213819504,
        -0.01749163307249546
      ],
      [
        -0.03323861584067345,
        0.39160969853401184,
        0.15266788005828857,
        -0.9262800216674805,
        -0.23843148350715637,
        0.21759749948978424,
        0.36955901980400085,
        -0.26718583703041077,
        0.2483026385307312
      ],
      [
        0.18282023072242737,
        -0.09309857338666916,
        -0.32930004596710205,
        0.389255166053772,
        -0.13648952543735504,
        0.2463613599538803,
        0.17716680467128754,
        -0.1455182582139969,
        0.17717361450195312
      ],
      [
        -0.28455716371536255,
        0.028159333392977715,
        -0.2250947505235672,
        -0.11190332472324371,
        0.1355009227991104,
        0.2561877965927124,
        -0.18898272514343262,
        0.20981143414974213,
        -0.052269309759140015
      ],
      [
        -0.16235877573490143,
        -0.2967410087585449,
        -0.32443422079086304,
        0.5895287990570068,
        -0.13242891430854797,
        0.3146200478076935,
        0.2632588744163513,
        0.1644757241010666,
        0.5736523270606995
      ]
    ],
    "net.0.bias": [
      0.27261942625045776,
      -0.254032164812088,
      0.0017761741764843464,
      -0.18008308112621307,
      -0.19440166652202606,
      0.13819392025470734,
      0.32442817091941833,
      -0.3113856315612793,
      0.03036891482770443,
      -0.14776629209518433,
      -0.034294355660676956,
      0.26691997051239014,
      -0.12517672777175903,
      -0.12564592063426971,
      -0.2971571385860443,
      0.33735159039497375,
      -0.07197870314121246,
      -0.2726929485797882,
      0.045673441141843796,
      -0.19442632794380188,
      -0.27304789423942566,
      0.015915995463728905,
      0.33364418148994446,
      -0.1396060585975647,
      0.29691368341445923,
      0.32261890172958374,
      0.27222615480422974,
      -0.16213692724704742,
      0.13627924025058746,
      -0.183028444647789,
      -0.2706872820854187,
      -0.0484127476811409,
      0.26907679438591003,
      0.2953386902809143,
      -0.12837308645248413,
      0.08190573751926422,
      -0.3206450045108795,
      0.33412840962409973,
      -0.13001053035259247,
      -0.20995259284973145,
      0.1277642399072647,
      0.18819667398929596,
      -0.4113251864910126,
      0.2984163165092468,
      0.11860666424036026,
      -0.29930490255355835,
      -0.08696617931127548,
      0.26103758811950684,
      -0.22158585488796234,
      -0.2971448004245758,
      0.19768528640270233,
      -0.2452659010887146,
      0.17765001952648163,
      0.1699986457824707,
      0.10381657630205154,
      -0.13417716324329376,
      0.44636407494544983,
      -0.25666847825050354,
      0.33649134635925293,
      -0.2964079976081848,
      -0.26122161746025085,
      0.15185049176216125,
      0.09369326382875443,
      -0.09122023731470108,
      -0.32641977071762085,
      -0.08882832527160645,
      -0.08188819885253906,
      -0.2428589016199112,
      -0.10448619723320007,
      0.05673286318778992,
      0.007273862604051828,
      0.09688667207956314,
      0.32461920380592346,
      0.07630165666341782,
      -0.2165341079235077,
      -0.16606776416301727,
      -0.4306606650352478,
      -0.2414056360721588,
      -0.02459884062409401,
      0.20249506831169128
    ],
    "net.2.weight": [
      [
        0.04647199064493179,
        -0.03049597516655922,
        0.22761346399784088,
        -0.09160565584897995,
        -0.070513054728508,
        0.12587043642997742,
        0.040543992072343826,
        0.0089655676856637,
        -0.08035217970609665,
        -0.13600170612335205,
        -0.19849567115306854,
        -0.2622825503349304,
        0.1934298872947693,
        -0.12872746586799622,
        0.11043380200862885,
        0.0930919274687767,
        -0.085930734872818,
        -0.03016766719520092,
        0.028533853590488434,
        -0.04191873222589493,
        0.18430903553962708,
        -0.2924051284790039,
        -0.1319892555475235,
        -0.16259212791919708,
        0.23773349821567535,
        0.12832285463809967,
        0.0539773553609848,
        -0.1574186533689499,
        0.09566804766654968,
        -0.02174958772957325,
        0.04067340865731239,
        0.13218922913074493,
        0.04511265456676483,
        -0.2493940144777298,
        -0.08168841898441315,
        0.10709933936595917,
        -0.052374083548784256,
        0.22744552791118622,
        -0.11170119792222977,
        0.034704603254795074,
        0.28587302565574646,
        0.01322889607399702,
        0.1382128894329071,
        0.005671827122569084,
        0.04379081353545189,
        -0.15252938866615295,
        0.28327059745788574,
        0.06764473021030426,
        -0.05090228095650673,
        -0.05047301575541496,
        0.05609123408794403,
        0.43732750415802,
        -0.05506632477045059,
        -0.0899820476770401,
        0.11065105348825455,
        -0.16557861864566803,
        -0.00044522617827169597,
        0.037833262234926224,
        0.1616232544183731,
        -0.10729673504829407,
        0.14619910717010498,
        0.15699370205402374,
        0.018436938524246216,
        -0.3320671319961548,
        0.19078531861305237,
        -0.1422383189201355,
        0.00571375573053956,
        -0.10049773752689362,
        0.003591719549149275,
        0.09229793399572372,
        -0.0337897427380085,
        -0.0040032449178397655,
        -0.236803337931633,
        0.08342619240283966,
        -0.11760322004556656,
        0.1461610347032547,
        0.28485244512557983,
        0.26960644125938416,
        -0.02808624505996704,
        0.05155491083860397
      ],
      [
        -0.011071779765188694,
        -0.14239557087421417,
        -0.13282841444015503,
        0.07859709858894348,
        0.08843550831079483,
        0.06084180623292923,
        0.004058719612658024,
        -0.1020549088716507,
        0.06315037608146667,
        0.20895759761333466,
        0.007056735921651125,
        0.23000817000865936,
        0.020087333396077156,
        0.08744709193706512,
        -0.09122194349765778,
        0.060660138726234436,
        -0.10289538651704788,
        0.12164777517318726,
        0.05067902430891991,
        0.08106712251901627,
        0.08154679089784622,
        0.217628613114357,
        0.22161437571048737,
        0.21084930002689362,
        -0.024425849318504333,
        -0.12125061452388763,
        -0.12182466685771942,
        0.04044380038976669,
        -0.05519546940922737,
        -0.005170024465769529,
        0.01212594099342823,
        -0.018198247998952866,
        0.040360819548368454,
        0.1397779881954193,
        0.17229893803596497,
        -0.0427505187690258,
        -0.05370057374238968,
        -0.32026728987693787,
        0.16729000210762024,
        -0.023283127695322037,
        -0.18461690843105316,
        -0.13560901582241058,
        -0.16130897402763367,
        0.08019496500492096,
        0.08897848427295685,
        -0.04398708418011665,
        -0.0850297287106514,
        -0.07418380677700043,
        0.0723428875207901,
        -0.17533326148986816,
        0.13018332421779633,
        -0.3491051495075226,
        -0.16609996557235718,
        0.008881395682692528,
        0.13799220323562622,
        -0.08643347024917603,
        0.10404682904481888,
        -0.1255997121334076,
        -0.010548392310738564,
        -0.11703351885080338,
        0.04125542566180229,
        -0.14840109646320343,
        -0.011282692663371563,
        0.302289217710495,
        -0.1694273054599762,
        0.06671351194381714,
        -0.050295863300561905,
        -0.13998450338840485,
        -0.08096206933259964,
        -0.00857741292566061,
        -0.09032326191663742,
        -0.1050284206867218,
        -0.0687674805521965,
        -0.0955200344324112,
        0.24284784495830536,
        0.05855141207575798,
        -0.03270963206887245,
        -0.058423906564712524,
        0.10695775598287582,
        -0.02935374341905117
      ],
      [
        -0.08038444072008133,
        -0.0326986089348793,
        -0.022308599203824997,
        -0.10733763128519058,
        -0.020423784852027893,
        0.0384533666074276,
        0.001574549125507474,
        -0.006756223272532225,
        0.1153343915939331,
        0.1777488738298416,
        0.15213222801685333,
        0.10941793024539948,
        0.16094417870044708,
        0.1556381732225418,
        -0.1204640120267868,
        -0.003900481155142188,
        0.0571184903383255,
        0.23659296333789825,
        -0.17279788851737976,
        0.1259573996067047,
        -0.002390139503404498,
        -0.0740102156996727,
        0.009124143049120903,
        0.08146490901708603,
        -0.090998575091362,
        -0.22402173280715942,
        -0.1630059778690338,
        0.07406557351350784,
        -0.05236916244029999,
        0.09273413568735123,
        0.02277551405131817,
        0.09176847338676453,
        0.00281161000020802,
        0.05099790543317795,
        0.1219235211610794,
        -0.016972864046692848,
        0.09571975469589233,
        -0.13429412245750427,
        0.0886605829000473,
        0.0032110519241541624,
        -0.05882268026471138,
        -0.158203586935997,
        -0.009977677837014198,
        -0.11916210502386093,
        -0.06922591477632523,
        0.13530881702899933,
        -0.12036765366792679,
        -0.07077191025018692,
        0.023795580491423607,
        -0.013485394418239594,
        0.04508284106850624,
        -0.07467518001794815,
        0.07121309638023376,
        -0.1980145275592804,
        -0.0052612521685659885,
        -0.028896845877170563,
        0.02292664721608162,
        0.02885936014354229,
        -0.1307409703731537,
        0.02121305838227272,
        0.10225527733564377,
        -0.12314997613430023,
        -0.12693151831626892,
        0.15532130002975464,
        -0.07954642921686172,
        -0.10246338695287704,
        0.014885940589010715,
        0.061756134033203125,
        -0.031688038259744644,
        0.08138798177242279,
        0.12027818709611893,
        -0.04015345498919487,
        -0.015419982373714447,
        -0.11207091808319092,
        0.06727587431669235,
        -0.0071395402774214745,
        -0.06694205850362778,
        -0.02427864633500576,
        -0.09152214974164963,
        -0.03228241950273514
      ],
      [
        -0.05597226694226265,
        0.08871261775493622,
        -0.09164366871118546,
        -0.07515546679496765,
        0.11314529180526733,
        0.03987492248415947,
        -0.019063906744122505,
        0.08591284602880478,
        -0.08516718447208405,
        0.1445840448141098,
        0.002707767067477107,
        -0.002703947015106678,
        0.08772464841604233,
        0.11233004927635193,
        -0.12856425344944,
        -0.008421661332249641,
        0.08407054841518402,
        0.177707701921463,
        0.08196577429771423,
        0.02135896310210228,
        -0.03895331174135208,
        0.13255757093429565,
        0.003153145546093583,
        0.24576584994792938,
        -0.17970186471939087,
        -0.0870603397488594,
        -0.0918530523777008,
        -0.0278797410428524,
        0.03238217532634735,
        0.10722292214632034,
        0.017646273598074913,
        -0.011837122030556202,
        0.05060030519962311,
        -0.011015832424163818,
        0.1514718383550644,
        -0.16239401698112488,
        -0.04200972616672516,
        -0.1637977808713913,
        0.1707528829574585,
        0.014500794000923634,
        -0.07432994991540909,
        -0.1067308783531189,
        0.05824730172753334,
        -0.024468589574098587,
        0.01960744895040989,
        0.1441297084093094,
        0.054978612810373306,
        -0.0022583911195397377,
        0.0028008397202938795,
        -0.1699623018503189,
        -0.010395240038633347,
        -0.007374797016382217,
        -0.08404407650232315,
        -0.019267411902546883,
        -0.03931029140949249,
        -0.14829358458518982,
        -0.06893067806959152,
        -0.057464197278022766,
        -0.014731686562299728,
        -0.03430752083659172,
        0.042495619505643845,
        -0.08251458406448364,
        0.05845772475004196,
        0.2061229646205902,
        -0.13205476105213165,
        0.048371605575084686,
        -0.03176534175872803,
        -0.09401217103004456,
        -0.07234743237495422,
        -0.006727679632604122,
        -0.05436334013938904,
        -0.1885010451078415,
        -0.04531503841280937,
        0.028988279402256012,
        -0.01765485480427742,
        -0.13121408224105835,
        0.07081140577793121,
        -0.05466251075267792,
        -0.04783424735069275,
        -0.11928843706846237
      ],
      [
        -0.030497750267386436,
        -0.09711606055498123,
        -0.07129599899053574,
        0.0049691349267959595,
        -0.17833353579044342,
        -0.051774103194475174,
        0.017197484150528908,
        -0.12925444543361664,
        0.03133688494563103,
        -0.14101175963878632,
        -0.07158622145652771,
        0.02046241983771324,
        0.022694842889904976,
        0.10846809297800064,
        0.009798980318009853,
        -0.05097039416432381,
        0.002196462592110038,
        -0.051401425153017044,
        0.10163336247205734,
        -0.1665007472038269,
        -0.013897680677473545,
        0.015712788328528404,
        -0.017297575250267982,
        -0.19595380127429962,
        0.2407255619764328,
        -0.21147631108760834,
        0.12529245018959045,
        -0.13194136321544647,
        0.12080438435077667,
        -0.13748247921466827,
        0.07462528347969055,
        -0.14643028378486633,
        -0.1188049167394638,
        -0.08384636044502258,
        0.08218766748905182,
        -0.053803931921720505,
        -0.16864919662475586,
        0.21085654199123383,
        -0.10569634288549423,
        0.03387953341007233,
        -0.0033342158421874046,
        -0.023301880806684494,
        -0.1024494394659996,
        0.1069161593914032,
        0.057219427078962326,
        -0.19206827878952026,
        0.07147202640771866,
        0.0015272746095433831,
        -0.0421193428337574,
        0.01138866413384676,
        -0.04279658943414688,
        0.18045786023139954,
        -0.051689330488443375,
        -0.02561337873339653,
        -0.028210176154971123,
        0.004794717766344547,
        0.11515185236930847,
        -0.023521987721323967,
        -0.07497621327638626,
        -0.04992394894361496,
        -0.04113869369029999,
        0.030120112001895905,
        0.15937520563602448,
        -0.26701343059539795,
        0.010282505303621292,
        -0.12820696830749512,
        -0.06757981330156326,
        0.08712665736675262,
        0.17133328318595886,
        -0.05781952291727066,
        -0.004408030770719051,
        0.10382449626922607,
        0.030740434303879738,
        0.10183754563331604,
        -0.05343227460980415,
        -0.026231825351715088,
        0.030372126027941704,
        -0.017275778576731682,
        0.03847593814134598,
        -0.024998990818858147
      ],
      [
        0.066510871052742,
        0.17499911785125732,
        0.20696669816970825,
        -0.0726059079170227,
        -0.08929499983787537,
        -0.06790877133607864,
        -0.031034691259264946,
        0.027898099273443222,
        -0.07958217710256577,
        -0.14652736485004425,
        -0.1384926736354828,
        -0.022732244804501534,
        -0.0410417802631855,
        -0.1320020854473114,
        -0.09670953452587128,
        -0.10813149809837341,
        0.033162396401166916,
        0.09487131983041763,
        0.05495717003941536,
        -0.04185853153467178,
        -0.00203373609110713,
        0.24183402955532074,
        0.03886159881949425,
        -0.002117434749379754,
        -0.12360623478889465,
        0.19083695113658905,
        -0.11317000538110733,
        0.07348605245351791,
        -0.03285713121294975,
        -0.027059290558099747,
        0.14307694137096405,
        0.14470724761486053,
        0.029387693852186203,
        -0.045089565217494965,
        0.2227366864681244,
        -0.1504001021385193,
        0.11236261576414108,
        -0.10516011714935303,
        -0.04979963228106499,
        -0.1198202595114708,
        -0.24888627231121063,
        0.15594245493412018,
        0.02193453535437584,
        0.00863253977149725,
        -0.0672776997089386,
        -0.06495383381843567,
        -0.15345530211925507,
        0.012784196063876152,
        0.044350288808345795,
        -0.10776351392269135,
        -0.03123360686004162,
        0.053802069276571274,
        -0.01520144660025835,
        0.022812308743596077,
        0.15793836116790771,
        0.09950282424688339,
        0.09582734107971191,
        -0.18332603573799133,
        0.183038130402565,
        0.06965716928243637,
        -0.15442918241024017,
        -0.0757201686501503,
        0.061201903969049454,
        0.07087283581495285,
        0.04880762845277786,
        0.14061492681503296,
        -0.12225032597780228,
        0.05491593852639198,
        -0.12706716358661652,
        0.009494468569755554,
        -0.0871652290225029,
        0.2186656892299652,
        -0.12445425242185593,
        0.005587778519839048,
        0.1113249808549881,
        -0.08228003233671188,
        0.21731576323509216,
        0.046702321618795395,
        -0.03202710300683975,
        0.17587263882160187
      ],
      [
        -0.11165191978216171,
        0.06986217200756073,
        0.11685030162334442,
        0.042678430676460266,
        0.03647242859005928,
        -0.058736804872751236,
        0.027215754613280296,
        0.033571094274520874,
        -0.05907617136836052,
        -0.1616387963294983,
        0.011434349231421947,
        0.03864797204732895,
        -0.08619461208581924,
        -0.03233231604099274,
        -0.05573975294828415,
        -0.10612265020608902,
        0.046716563403606415,
        -0.15136617422103882,
        0.11380989104509354,
        -0.15532724559307098,
        -0.050651662051677704,
        -0.015554429963231087,
        0.11528319865465164,
        -0.02784990519285202,
        0.004234106279909611,
        0.17279745638370514,
        -0.0366470031440258,
        -0.12794320285320282,
        -0.12220141291618347,
        -8.388702553929761e-05,
        0.15326735377311707,
        -0.010303199291229248,
        0.043861016631126404,
        -0.13655658066272736,
        -0.0018771818140521646,
        0.10367824882268906,
        -0.10371661186218262,
        -0.09458883851766586,
        -0.006562426220625639,
        0.05714307352900505,
        0.02800445444881916,
        0.08744410425424576,
        -0.017971571534872055,
        -0.04843863844871521,
        -0.09618519246578217,
        0.04376480355858803,
        -0.05596313253045082,
        -0.06920556724071503,
        -0.029897237196564674,
        -0.02464110590517521,
        -0.07590898126363754,
        -0.015520081855356693,
        0.10051138699054718,
        0.19002792239189148,
        -0.07498816400766373,
        0.12389214336872101,
        0.07047833502292633,
        -0.12190648168325424,
        0.11037667840719223,
        0.05047614127397537,
        -0.13954424858093262,
        0.06653764098882675,
        -0.03205842152237892,
        0.04983377456665039,
        -0.011431887745857239,
        -0.011946534737944603,
        0.02748296409845352,
        -0.07371716946363449,
        0.07000958174467087,
        0.07083595544099808,
        -0.06148224696516991,
        0.2109067291021347,
        0.11120018362998962,
        0.13053879141807556,
        -0.07825294137001038,
        0.0864533856511116,
        -0.09757605195045471,
        -0.055907636880874634,
        -0.02398173324763775,
        0.10211773216724396
      ],
      [
        0.110606350004673,
        0.10475166141986847,
        0.03663086146116257,
        0.032104797661304474,
        0.039081230759620667,
        0.10284027457237244,
        -0.00810626894235611,
        -0.02870228700339794,
        -0.10861732065677643,
        0.09926752001047134,
        -0.1392676830291748,
        0.10447165369987488,
        -0.051640816032886505,
        -0.06378836929798126,
        -0.0416276715695858,
        0.04539971426129341,
        -0.018688462674617767,
        0.10811267048120499,
        0.012857550755143166,
        -0.010835688561201096,
        0.1009296178817749,
        -0.04102419316768646,
        -0.0011515036458149552,
        0.06203031912446022,
        -0.004393927752971649,
        0.23803415894508362,
        -0.05673807114362717,
        -0.0019156160997226834,
        -0.07352959364652634,
        0.12831184267997742,
        -0.04644066467881203,
        0.1268378496170044,
        0.14896732568740845,
        0.12630751729011536,
        0.1721818745136261,
        -0.1196432039141655,
        0.11659662425518036,
        -0.155432790517807,
        0.10091370344161987,
        -0.026078594848513603,
        -0.06132527068257332,
        -0.0828515961766243,
        -0.07879316806793213,
        0.09261579811573029,
        0.04363897070288658,
        0.031724002212285995,
        0.13707616925239563,
        0.005567871034145355,
        -0.011607666499912739,
        -0.28104251623153687,
        0.0672065019607544,
        -0.11972300708293915,
        0.031739551573991776,
        0.12245795130729675,
        0.14766164124011993,
        -0.14354324340820312,
        0.06222265586256981,
        -0.15062741935253143,
        0.014084897004067898,
        -0.004488353617489338,
        0.018827959895133972,
        -0.14026977121829987,
        -0.05131026729941368,
        0.0778089389204979,
        -0.2190108448266983,
        0.02459990233182907,
        0.10211396217346191,
        0.011575468815863132,
        -0.17180688679218292,
        -0.024848561733961105,
        -0.11572663486003876,
        0.004439421463757753,
        0.0714595839381218,
        0.034020207822322845,
        0.049010761082172394,
        -0.0558512844145298,
        0.0636618360877037,
        -0.05379719287157059,
        -0.07786359637975693,
        0.1807756870985031
      ]
    ],
    "net.2.bias": [
      -0.0669507160782814,
      -0.030498456209897995,
      -0.0653558075428009,
      -0.13395348191261292,
      0.0019410348031669855,
      0.056031979620456696,
      -0.029608367010951042,
      -0.006683210376650095
    ]
  },
  "F2": {
    "n_in": 8,
    "n_hid": 60,
    "n_out": 8,
    "activation": "tanh",
    "net.0.weight": [
      [
        0.2262161523103714,
        -0.13203588128089905,
        -0.11107131093740463,
        0.371925950050354,
        -0.0766725242137909,
        -0.1718456894159317,
        -0.19674651324748993,
        -0.017977768555283546
      ],
      [
        -0.332950234413147,
        -0.11409071832895279,
        -0.41172605752944946,
        -0.030824026092886925,
        0.11601516604423523,
        -0.23288017511367798,
        -0.02675033174455166,
        -0.0640488937497139
      ],
      [
        0.24209289252758026,
        0.34259602427482605,
        -0.0006927284994162619,
        -0.1302274465560913,
        -0.3359367847442627,
        -0.14340370893478394,
        0.07441645860671997,
        0.02742690220475197
      ],
      [
        0.13608784973621368,
        -0.047086216509342194,
        0.24233683943748474,
        -0.07471290230751038,
        0.06962376832962036,
        0.3350442349910736,
        -0.3691858649253845,
        0.004917662590742111
      ],
      [
        0.12628988921642303,
        -0.03462205082178116,
        -0.223680317401886,
        0.26607567071914673,
        -0.07558540254831314,
        0.02117428556084633,
        -0.11089058965444565,
        0.4340689182281494
      ],
      [
        0.23512603342533112,
        -0.026263104751706123,
        0.06067302078008652,
        0.16686081886291504,
        0.24836304783821106,
        -0.18699999153614044,
        -0.009356234222650528,
        0.3076457381248474
      ],
      [
        -0.15405619144439697,
        0.28163307905197144,
        -0.1527521312236786,
        0.4083767831325531,
        -0.4620831608772278,
        0.16219604015350342,
        0.15847432613372803,
        0.07263427972793579
      ],
      [
        -0.2651805877685547,
        0.4545682370662689,
        -0.43633410334587097,
        -0.39935535192489624,
        -0.2496047168970108,
        -0.15118210017681122,
        0.010038161650300026,
        -0.5180217623710632
      ],
      [
        0.09607132524251938,
        -0.054824404418468475,
        0.2763018310070038,
        -0.3007514774799347,
        -0.08138531446456909,
        0.1909085363149643,
        -0.040375493466854095,
        0.2541574537754059
      ],
      [
        -0.17745788395404816,
        0.014437229372560978,
        -0.117296501994133,
        0.09173427522182465,
        0.21045193076133728,
        -0.1834346354007721,
        0.24294054508209229,
        -0.06523673236370087
      ],
      [
        0.06773921847343445,
        -0.262462854385376,
        0.45478367805480957,
        0.5642713904380798,
        0.021083476021885872,
        0.169149249792099,
        0.17734989523887634,
        0.019165631383657455
      ],
      [
        -0.3344728648662567,
        -0.051492903381586075,
        -0.2992779314517975,
        0.020750705152750015,
        0.0816517174243927,
        -0.09805603325366974,
        -0.03820783644914627,
        -0.0077251531183719635
      ],
      [
        0.2401551753282547,
        0.2608722448348999,
        -0.193221315741539,
        0.11000949144363403,
        0.18980206549167633,
        0.1702542006969452,
        -0.018855653703212738,
        -0.004798123147338629
      ],
      [
        0.20635578036308289,
        0.39749911427497864,
        -0.4068044424057007,
        -0.1367875188589096,
        -0.2654423415660858,
        -0.14763067662715912,
        0.019637370482087135,
        0.18001581728458405
      ],
      [
        -0.3912753760814667,
        0.2868320941925049,
        0.2896038293838501,
        -0.10759667307138443,
        -0.009292916394770145,
        -0.06265458464622498,
        0.07777266949415207,
        0.014660091139376163
      ],
      [
        -0.3110457956790924,
        -0.18065738677978516,
        -0.2008085548877716,
        0.515631377696991,
        -0.19386246800422668,
        0.13440056145191193,
        -0.1707371026277542,
        0.5067744851112366
      ],
      [
        -0.100901760160923,
        -0.28453800082206726,
        -0.24556568264961243,
        -0.19291894137859344,
        0.22471344470977783,
        -0.24191199243068695,
        -0.08776199817657471,
        -0.1062946543097496
      ],
      [
        0.265432745218277,
        0.10405776649713516,
        -0.32251325249671936,
        0.26728662848472595,
        -0.4317203760147095,
        0.10992471128702164,
        -0.08312712609767914,
        -0.15401685237884521
      ],
      [
        0.30272433161735535,
        0.24030931293964386,
        0.09424764662981033,
        -0.08832383900880814,
        0.4397607445716858,
        0.07975798845291138,
        0.08842232823371887,
        0.04006972163915634
      ],
      [
        -0.05962356925010681,
        0.2579127252101898,
        0.061186544597148895,
        -0.09277833253145218,
        -0.26443544030189514,
        -0.220759317278862,
        0.30535438656806946,
        0.12017922103404999
      ],
      [
        -0.07269798219203949,
        0.11706902831792831,
        -0.3160153329372406,
        -0.15461799502372742,
        -0.0109441839158535,
        0.13211403787136078,
        0.3164670169353485,
        0.22063899040222168
      ],
      [
        0.32850080728530884,
        -0.29797396063804626,
        -0.14399056136608124,
        0.0544026680290699,
        -0.33058780431747437,
        0.08174560219049454,
        -0.24970701336860657,
        0.053080540150403976
      ],
      [
        0.22206179797649384,
        -0.3818466067314148,
        0.4073285460472107,
        0.25128263235092163,
        -0.17185480892658234,
        0.2769498825073242,
        -0.2374991923570633,
        -0.19643977284431458
      ],
      [
        -0.19562669098377228,
        -0.11075468361377716,
        0.08487247675657272,
        -0.190796360373497,
        -0.361820250749588,
        -0.07390139997005463,
        0.28119778633117676,
        0.16491025686264038
      ],
      [
        0.15533646941184998,
        -0.07773856818675995,
        -0.023518849164247513,
        -0.5184623599052429,
        0.298652321100235,
        -0.515160322189331,
        -0.2979641556739807,
        -0.3404710590839386
      ],
      [
        0.3091016113758087,
        0.11565639078617096,
        -0.20509225130081177,
        0.10798570513725281,
        -0.4142601191997528,
        0.05844740942120552,
        0.0025857556611299515,
        -0.09428219497203827
      ],
      [
        0.005742843262851238,
        0.2484631985425949,
        -0.19963586330413818,
        -0.15742090344429016,
        0.2554738521575928,
        0.1888774335384369,
        -0.09848873317241669,
        0.14902086555957794
      ],
      [
        0.30150753259658813,
        -0.04344349727034569,
        -0.20445413887500763,
        -0.35283809900283813,
        0.27155768871307373,
        -0.10660619288682938,
        0.19927513599395752,
        -0.4465087950229645
      ],
      [
        -0.07442815601825714,
        0.2978542447090149,
        -0.08651752024888992,
        0.05518229305744171,
        0.12766645848751068,
        -0.08244084566831589,
        -0.18283332884311676,
        0.04986293613910675
      ],
      [
        -0.062040120363235474,
        -0.10797064006328583,
        0.07704798877239227,
        0.14563965797424316,
        -0.06253490597009659,
        -0.17649856209754944,
        -0.09799748659133911,
        -0.18299248814582825
      ],
      [
        0.22653041779994965,
        -0.1863832175731659,
        0.2629827558994293,
        0.13840630650520325,
        -0.3417588174343109,
        0.29547929763793945,
        -0.39698851108551025,
        -0.09972240030765533
      ],
      [
        -0.20083430409431458,
        -0.36573168635368347,
        0.11544303596019745,
        -0.2541281580924988,
        0.21585696935653687,
        -0.263673335313797,
        0.3406171500682831,
        0.14122778177261353
      ],
      [
        0.26709094643592834,
        -0.08541815727949142,
        -0.192050501704216,
        -0.2619243264198303,
        0.29941698908805847,
        -0.19165261089801788,
        -0.05580368638038635,
        -0.2953646779060364
      ],
      [
        0.026801876723766327,
        -0.31496962904930115,
        0.18584874272346497,
        -0.2579202651977539,
        0.2965278923511505,
        -0.03429161012172699,
        -0.19472163915634155,
        -0.02154984138906002
      ],
      [
        0.03272262588143349,
        -0.06657084822654724,
        -0.30573683977127075,
        0.4571540653705597,
        0.2894512712955475,
        0.22992877662181854,
        0.33398109674453735,
        0.3155568242073059
      ],
      [
        -0.058370739221572876,
        -0.16149868071079254,
        -0.300476998090744,
        -0.2910103499889374,
        -0.11030591279268265,
        0.2712666392326355,
        -0.12422871589660645,
        0.05908950790762901
      ],
      [
        -0.015136496163904667,
        -0.12014349550008774,
        -0.0013453727588057518,
        0.28312888741493225,
        0.30322757363319397,
        0.3424205183982849,
        -0.01941368542611599,
        0.09809575229883194
      ],
      [
        0.2605969309806824,
        -0.21121323108673096,
        -0.09964355826377869,
        0.32132136821746826,
        -0.11003859341144562,
        -0.17453120648860931,
        0.280779093503952,
        0.08276019245386124
      ],
      [
        0.3168366551399231,
        -0.3735271692276001,
        0.11779458820819855,
        0.4362758994102478,
        -0.17295245826244354,
        -0.23672109842300415,
        0.2110978662967682,
        0.4790540635585785
      ],
      [
        0.23310799896717072,
        0.24109645187854767,
        -0.019561462104320526,
        0.16131985187530518,
        -0.11812374740839005,
        -0.1208086907863617,
        0.06537820398807526,
        -0.0727313756942749
      ],
      [
        0.024020105600357056,
        0.03114764578640461,
        0.006017614156007767,
        0.13370028138160706,
        -0.042887281626462936,
        -0.1820506900548935,
        -0.3419523537158966,
        0.2414199411869049
      ],
      [
        -0.21668940782546997,
        -0.012358997948467731,
        0.06391344964504242,
        -0.019855111837387085,
        0.24886669218540192,
        0.052199412137269974,
        0.08216218650341034,
        0.014952247962355614
      ],
      [
        0.06453637033700943,
        0.26459553837776184,
        0.224823459982872,
        -0.3100142180919647,
        -0.20825360715389252,
        -0.28618550300598145,
        -0.10878285765647888,
        0.29642000794410706
      ],
      [
        -0.3549880385398865,
        -0.2820340692996979,
        0.11427955329418182,
        -0.27259254455566406,
        0.2874651551246643,
        0.1179230809211731,
        0.07373940199613571,
        0.19764111936092377
      ],
      [
        -0.5320344567298889,
        0.10368182510137558,
        0.3413865268230438,
        -0.07613665610551834,
        0.02742660790681839,
        -0.14616765081882477,
        -0.09038715064525604,
        0.06848766654729843
      ],
      [
        -0.06437760591506958,
        0.3058634102344513,
        0.30165112018585205,
        -0.002852156525477767,
        -0.360624223947525,
        -0.1314830332994461,
        0.05096850171685219,
        0.2853090763092041
      ],
      [
        0.14134685695171356,
        0.08599624037742615,
        0.03174664080142975,
        -0.3527563214302063,
        -0.14382800459861755,
        -0.42270708084106445,
        0.024731596931815147,
        -0.029303666204214096
      ],
      [
        -0.08373215794563293,
        0.25491783022880554,
        -0.15880891680717468,
        -0.3368525505065918,
        0.13874948024749756,
        -0.1579030305147171,
        -0.00113656185567379,
        0.3763721287250519
      ],
      [
        -0.026501944288611412,
        0.25417453050613403,
        0.05454970523715019,
        -0.16123126447200775,
        0.25617650151252747,
        -0.23907877504825592,
        0.05644484981894493,
        0.1458529531955719
      ],
      [
        0.19656401872634888,
        -0.5838394165039062,
        0.16435782611370087,
        0.06368950754404068,
        0.20888923108577728,
        0.13259129226207733,
        0.13901172578334808,
        0.5126837491989136
      ],
      [
        -0.15992574393749237,
        -0.0352412611246109,
        0.3474069833755493,
        -0.28549885749816895,
        -0.21360328793525696,
        0.03148961812257767,
        -0.10904993116855621,
        0.05185393616557121
      ],
      [
        0.18180592358112335,
        -0.12719859182834625,
        -0.23872223496437073,
        -0.265168160200119,
        0.5382589101791382,
        -0.31291547417640686,
        -0.1092350110411644,
        0.24684569239616394
      ],
      [
        0.09137272089719772,
        -0.37353700399398804,
        0.21131408214569092,
        0.19416119158267975,
        0.3095218539237976,
        0.07693594694137573,
        -0.1283145248889923,
        -0.1135842353105545
      ],
      [
        0.18568773567676544,
        -0.05260434001684189,
        0.050275858491659164,
        -0.22556419670581818,
        -0.2547657787799835,
        0.1825597882270813,
        -0.0745539590716362,
        -0.18756012618541718
      ],
      [
        -0.3987908959388733,
        0.06755965948104858,
        0.02442692033946514,
        -0.20340222120285034,
        0.2774788737297058,
        0.1789504587650299,
        -0.2398146688938141,
        -0.006262205075472593
      ],
      [
        0.2652156949043274,
        0.035219017416238785,
        -0.11726932227611542,
        0.2839902937412262,
        -0.0701393112540245,
        -0.0027543373871594667,
        -0.16584213078022003,
        -0.18745826184749603
      ],
      [
        -0.25883081555366516,
        -0.05585777759552002,
        -0.23195676505565643,
        0.326072096824646,
        0.030939772725105286,
        -0.15679492056369781,
        0.1749066561460495,
        -0.24548478424549103
      ],
      [
        -0.2495650351047516,
        0.15832892060279846,
        -0.36857253313064575,
        -0.03626484423875809,
        0.21329106390476227,
        -0.4610896408557892,
        -0.2806083559989929,
        0.058147210627794266
      ],
      [
        0.16471906006336212,
        0.004558328539133072,
        -0.36640939116477966,
        -0.20461586117744446,
        -0.031507279723882675,
        0.1530483365058899,
        0.03210592642426491,
        0.015775350853800774
      ],
      [
        0.04919423162937164,
        0.1732301265001297,
        0.40968501567840576,
        0.4058050215244293,
        0.22249682247638702,
        -0.04450499638915062,
        -0.18602684140205383,
        0.13366465270519257
      ]
    ],
    "net.0.bias": [
      0.11033964902162552,
      0.11724132299423218,
      0.00740857096388936,
      -0.2533065378665924,
      -0.2857271432876587,
      0.335854709148407,
      -0.14981135725975037,
      -0.0673421248793602,
      -0.18042710423469543,
      -0.16131149232387543,
      0.05982862785458565,
      0.12669254839420319,
      -0.1558411717414856,
      -0.13216519355773926,
      0.26821276545524597,
      -0.22553297877311707,
      -0.2638924717903137,
      -0.044242504984140396,
      0.3845001459121704,
      0.10838182270526886,
      0.06516127288341522,
      -0.06283111125230789,
      0.22784961760044098,
      -0.19441905617713928,
      0.1910932958126068,
      0.04056830704212189,
      0.05192788690328598,
      0.06834319978952408,
      -0.23199506103992462,
      0.2718687057495117,
      0.16529369354248047,
      -0.25678232312202454,
      -0.31168901920318604,
      -0.14374519884586334,
      0.24803860485553741,
      -0.15509411692619324,
      0.3601538836956024,
      -0.19634298980236053,
      -0.3267628252506256,
      0.18530620634555817,
      -0.2531963288784027,
      -0.036244947463274,
      -0.08752921968698502,
      -0.031806617975234985,
      -0.3199603259563446,
      -0.2942824363708496,
      0.17097033560276031,
      -0.004826596472412348,
      -0.18511709570884705,
      0.005527992267161608,
      -0.3060087263584137,
      0.1330648511648178,
      0.14370836317539215,
      0.3281727731227875,
      -0.3496052622795105,
      -0.033180274069309235,
      0.27512937784194946,
      0.3403927981853485,
      -0.2406160831451416,
      0.14343878626823425
    ],
    "net.2.weight": [
      [
        0.05150182545185089,
        0.023682674393057823,
        -0.07224930077791214,
        0.10312257707118988,
        -0.021206870675086975,
        -0.05858440324664116,
        0.02491126023232937,
        0.054203763604164124,
        -0.07757166028022766,
        0.08808702975511551,
        0.014369186013936996,
        0.008712772279977798,
        0.16902917623519897,
        0.09967203438282013,
        -0.10760495811700821,
        -0.058999478816986084,
        0.026314815506339073,
        -0.11469366401433945,
        0.06072184816002846,
        -0.18642061948776245,
        -0.07129690051078796,
        0.0029690759256482124,
        -0.08204052597284317,
        -0.12298265844583511,
        -0.009088672697544098,
        -0.176829993724823,
        0.14075873792171478,
        -0.11809684336185455,
        0.03193359822034836,
        -0.01270653773099184,
        0.01795913092792034,
        -0.08902732282876968,
        0.04128403961658478,
        0.06239604949951172,
        0.12771379947662354,
        -0.13279804587364197,
        -0.05502454936504364,
        0.03252648562192917,
        0.02649500034749508,
        -0.12658457458019257,
        -0.0664166733622551,
        -0.11387018114328384,
        -0.13991425931453705,
        -0.06550788879394531,
        -0.10916608572006226,
        -0.11658337712287903,
        -0.022030800580978394,
        0.026911791414022446,
        -0.035215578973293304,
        0.005627658683806658,
        0.013552112504839897,
        0.045523110777139664,
        -0.06535990536212921,
        -0.022869685664772987,
        0.1274261474609375,
        0.11807730793952942,
        -0.15981648862361908,
        -0.05286145955324173,
        -0.04209073260426521,
        0.02039494551718235
      ],
      [
        -0.08844846487045288,
        -0.12168076634407043,
        0.12754996120929718,
        -0.015139632858335972,
        0.01490307692438364,
        0.043486323207616806,
        -0.07241275906562805,
        0.016032380983233452,
        0.10136071592569351,
        -0.09606382995843887,
        -0.03525049239397049,
        -0.05487429350614548,
        0.06389082968235016,
        0.045676976442337036,
        0.020438237115740776,
        0.025825556367635727,
        -0.0979464054107666,
        0.10235252976417542,
        0.07979054749011993,
        -0.038068171590566635,
        -0.13856695592403412,
        0.15324364602565765,
        -0.030392786487936974,
        0.027588436380028725,
        -0.013305692933499813,
        0.1062057837843895,
        0.11945612728595734,
        0.11750539392232895,
        -0.05769989639520645,
        0.08991570770740509,
        0.0850440263748169,
        0.00955129973590374,
        -0.08820405602455139,
        -0.035481542348861694,
        -0.13028991222381592,
        0.09561283886432648,
        0.11382696032524109,
        0.07904957234859467,
        0.033493299037218094,
        0.018951058387756348,
        0.11867769807577133,
        -0.08477219939231873,
        -0.022381015121936798,
        -0.14963465929031372,
        -0.0004297843261156231,
        0.005406823009252548,
        0.05015597119927406,
        -0.06175276264548302,
        -0.012567252852022648,
        -0.05567627400159836,
        -0.08780346065759659,
        0.045700039714574814,
        -0.1553824245929718,
        0.04702584072947502,
        -0.10082053393125534,
        -0.052136048674583435,
        -0.054431889206171036,
        -0.15103264153003693,
        0.1334228813648224,
        0.09620608389377594
      ],
      [
        0.007429958321154118,
        0.003013902809470892,
        0.14695797860622406,
        0.07218749076128006,
        -0.023551208898425102,
        -0.07140830904245377,
        0.07933419197797775,
        -0.02951464056968689,
        -0.06250409036874771,
        -0.10204930603504181,
        -0.07278198003768921,
        -0.08803331106901169,
        -0.05616682022809982,
        0.09283037483692169,
        -0.01663137599825859,
        0.09231628477573395,
        -0.06409171968698502,
        0.1316198855638504,
        0.06298377364873886,
        -0.05717453733086586,
        -0.053803104907274246,
        0.010668671689927578,
        0.053294338285923004,
        -0.09946366399526596,
        0.07720715552568436,
        0.169192835688591,
        0.034778472036123276,
        0.1457347422838211,
        0.05764762684702873,
        0.036604203283786774,
        0.11815501749515533,
        0.020116562023758888,
        0.10280080884695053,
        -0.12905044853687286,
        0.04078873246908188,
        -0.05263460427522659,
        -0.008146886713802814,
        -0.04068968445062637,
        0.060081321746110916,
        0.1689860075712204,
        -0.12342805415391922,
        -0.011329805478453636,
        0.04562017321586609,
        -0.047435734421014786,
        -0.04587137699127197,
        0.06801988184452057,
        -0.007523234002292156,
        -0.08040975034236908,
        -0.06367476284503937,
        0.05099022388458252,
        -0.006422554608434439,
        0.09253978729248047,
        -0.0019664729479700327,
        0.03713347390294075,
        -0.10264512896537781,
        0.09419671446084976,
        0.024763837456703186,
        0.02421168051660061,
        -0.027230696752667427,
        0.12860623002052307
      ],
      [
        -0.07656959444284439,
        -0.0845058262348175,
        -0.04105003550648689,
        0.07929493486881256,
        -0.1476006954908371,
        0.04980888590216637,
        -0.12364263087511063,
        -0.10944729298353195,
        0.00045791035518050194,
        0.0031993312295526266,
        0.1664375364780426,
        0.0294440146535635,
        -0.027524931356310844,
        0.11333876103162766,
        0.10742663592100143,
        -0.10907567292451859,
        0.08122819662094116,
        -0.13445712625980377,
        0.1171749159693718,
        0.03553337976336479,
        0.09247066080570221,
        -0.0755331888794899,
        0.09597300738096237,
        -0.14522525668144226,
        -0.2461562156677246,
        0.013779613189399242,
        0.032749660313129425,
        0.07923471927642822,
        0.1357283741235733,
        0.05568837374448776,
        -0.061353765428066254,
        -0.08469382673501968,
        -0.087687648832798,
        0.02391623519361019,
        -0.031420547515153885,
        -0.09439843893051147,
        -0.05014872923493385,
        -0.1510685682296753,
        -0.14190790057182312,
        0.03023752011358738,
        -0.025490745902061462,
        0.1153920516371727,
        -0.03765710070729256,
        0.10834548622369766,
        -0.06812884658575058,
        -0.05451801419258118,
        -0.06624053418636322,
        -0.13042624294757843,
        -0.07976685464382172,
        0.06731290370225906,
        -0.188071146607399,
        -0.28055432438850403,
        0.1367483288049698,
        -0.015175530686974525,
        -0.1835317462682724,
        -0.1066199541091919,
        -0.09679144620895386,
        -0.09547200053930283,
        0.14146114885807037,
        0.08693426102399826
      ],
      [
        0.013786762952804565,
        -0.09365663677453995,
        -0.05223781242966652,
        -0.1285477727651596,
        0.019068755209445953,
        -0.018981093540787697,
        -0.07069218158721924,
        -0.01823432371020317,
        0.052313078194856644,
        0.030207443982362747,
        0.025162119418382645,
        -0.015316778793931007,
        -0.045180000364780426,
        -0.033827878534793854,
        -0.07510478794574738,
        0.09518542140722275,
        -0.06109261512756348,
        0.02551020309329033,
        -0.049470264464616776,
        0.03106599673628807,
        0.0454239547252655,
        -0.12185828387737274,
        0.09207213670015335,
        -0.11082254350185394,
        0.030288487672805786,
        -0.016272926703095436,
        0.07628888636827469,
        0.1002429649233818,
        0.006489339284598827,
        0.016136756166815758,
        -0.024149557575583458,
        0.03468061983585358,
        -0.08704124391078949,
        0.06176544353365898,
        -0.04124850779771805,
        0.07123832404613495,
        0.1160290539264679,
        0.042262449860572815,
        -0.02750958502292633,
        0.07805377244949341,
        -0.1354401856660843,
        0.06858418136835098,
        -0.031136058270931244,
        0.04379035159945488,
        -0.02501339465379715,
        -0.05102932080626488,
        -0.044576048851013184,
        0.04057067632675171,
        -0.08626954257488251,
        -0.011997154913842678,
        0.04807969182729721,
        0.011445934884250164,
        -0.08009207248687744,
        -0.11394242197275162,
        -0.060826707631349564,
        0.09438997507095337,
        -0.08435219526290894,
        0.08421826362609863,
        0.06853560358285904,
        -0.03987067937850952
      ],
      [
        -0.189609557390213,
        -0.08033964782953262,
        0.06629323959350586,
        -0.02664194069802761,
        0.08151757717132568,
        -0.10539104789495468,
        -0.013982590287923813,
        -0.2915951609611511,
        0.003809733781963587,
        0.012004940770566463,
        0.1018097847700119,
        0.045629046857357025,
        -0.05564412102103233,
        0.0952143594622612,
        -0.050358694046735764,
        -0.11531288176774979,
        -0.11093000322580338,
        -0.11243361979722977,
        0.06381602585315704,
        -0.026780251413583755,
        -0.11592482030391693,
        0.06927456706762314,
        -0.03118043579161167,
        0.021984929218888283,
        0.21619170904159546,
        0.015013800002634525,
        -0.11954628676176071,
        0.11301574856042862,
        -0.014129320159554482,
        -0.05146748200058937,
        -0.02653803676366806,
        0.11134035885334015,
        0.06965414434671402,
        0.1724841296672821,
        0.14847007393836975,
        0.013821585103869438,
        -0.00025876573636196554,
        -0.024075886234641075,
        0.18876376748085022,
        0.010446528904139996,
        0.053929269313812256,
        -0.13979540765285492,
        -0.0780375674366951,
        0.004413364455103874,
        0.014077535830438137,
        -0.08479823172092438,
        -0.1485757678747177,
        -0.01741659827530384,
        -0.027363954111933708,
        -0.29839715361595154,
        -0.03819216042757034,
        0.16286009550094604,
        -0.0014440574450418353,
        -0.02448175475001335,
        -0.04996214434504509,
        0.08135201781988144,
        0.011324620805680752,
        -0.08913230150938034,
        0.04379187896847725,
        0.15342766046524048
      ],
      [
        -0.06140095740556717,
        0.057507313787937164,
        0.053821440786123276,
        -0.0005973438965156674,
        0.08827883750200272,
        -0.12145135551691055,
        0.05885695293545723,
        -0.3405458331108093,
        -0.06624280661344528,
        -0.0675300732254982,
        0.06054944917559624,
        -0.08444042503833771,
        -0.11568048596382141,
        0.01937060058116913,
        -0.04098963737487793,
        -0.17080095410346985,
        -0.04206744208931923,
        -0.08090493828058243,
        0.09823375940322876,
        -0.11199425905942917,
        -0.07105037569999695,
        0.005737265106290579,
        0.008556090295314789,
        -0.02705818973481655,
        0.12283513695001602,
        0.17769698798656464,
        -0.04130822420120239,
        0.22489924728870392,
        0.10690835863351822,
        -0.10289391130208969,
        0.022108854725956917,
        0.10425496101379395,
        -0.03167138993740082,
        0.07207722216844559,
        0.06301207840442657,
        0.07467333227396011,
        0.0029477409552782774,
        -0.09720677882432938,
        0.16483943164348602,
        0.06897453963756561,
        0.10475251823663712,
        -0.007525356020778418,
        0.07018910348415375,
        0.05515778437256813,
        0.00195949524641037,
        -0.046907488256692886,
        -0.019391950219869614,
        -0.11939524859189987,
        0.013617326505482197,
        -0.28741252422332764,
        0.002398738404735923,
        0.10286068916320801,
        0.12935245037078857,
        -0.12056560814380646,
        -0.0048300521448254585,
        0.08034288883209229,
        -0.1350366324186325,
        0.12315446883440018,
        -0.08450620621442795,
        0.07094941288232803
      ],
      [
        0.049846548587083817,
        -0.021873636171221733,
        0.06717142462730408,
        -0.0876498818397522,
        0.0015892937080934644,
        -0.10170888900756836,
        -0.14765912294387817,
        -0.30534282326698303,
        0.06960898637771606,
        -0.004096911288797855,
        0.20364177227020264,
        -0.08818171173334122,
        0.07296121120452881,
        -0.05416611582040787,
        -0.058257970958948135,
        -0.15923592448234558,
        0.08752425014972687,
        -0.07249031215906143,
        0.11366035789251328,
        0.004986806306988001,
        -0.10515086352825165,
        0.07606491446495056,
        0.05475044250488281,
        0.0038701577577739954,
        0.033848293125629425,
        -0.04059017077088356,
        0.06141193211078644,
        0.11794093251228333,
        -0.06471286714076996,
        0.03631318733096123,
        -0.0024415189400315285,
        0.016455303877592087,
        0.05388954281806946,
        -0.06080686300992966,
        0.16160841286182404,
        0.06691280752420425,
        0.02822161838412285,
        -0.07986321300268173,
        0.10213436931371689,
        -0.046440429985523224,
        0.0761776864528656,
        -0.08987552672624588,
        0.0072564538568258286,
        -0.08443845808506012,
        0.05259031429886818,
        0.06279056519269943,
        0.0951356440782547,
        -0.16812297701835632,
        0.058397065848112106,
        -0.3020349442958832,
        0.056326281279325485,
        0.19920267164707184,
        -0.01828301139175892,
        0.022570550441741943,
        -0.08611892908811569,
        -0.09509559720754623,
        0.10696456581354141,
        0.005764922127127647,
        -0.0009677420021034777,
        0.14671796560287476
      ]
    ],
    "net.2.bias": [
      0.03743233159184456,
      0.06490255147218704,
      0.002688757609575987,
      -0.07516584545373917,
      -0.10016614943742752,
      0.08275322616100311,
      0.010997130535542965,
      -0.05082368105649948
    ]
  }
}