{
  "name": "PV1",
  "type": "F1+H1+F2",
  "t_step": 0.001,
  "normfacs": {
    "T": {
      "scale": 20.003402709960938,
      "offset": 25.001083374023438
    },
    "G": {
      "scale": 1000.0999755859375,
      "offset": 509.3038330078125
    },
    "Fc": {
      "scale": 9.999828338623047,
      "offset": 60.00246810913086
    },
    "Md": {
      "scale": 0.40000206232070923,
      "offset": 1.000037431716919
    },
    "Mq": {
      "scale": 0.4000000059604645,
      "offset": 0.0010415337746962905
    },
    "Vrms": {
      "scale": 546.6259155273438,
      "offset": 413.1492614746094
    },
    "GVrms": {
      "scale": 546.6232299804688,
      "offset": 236.55543518066406
    },
    "Ctl": {
      "scale": 1.0,
      "offset": 0.7490000128746033
    },
    "Vdc": {
      "scale": 439.7894592285156,
      "offset": 338.2721862792969
    },
    "Idc": {
      "scale": 292.8359680175781,
      "offset": 131.92489624023438
    },
    "Idlo": {
      "scale": 186.4149932861328,
      "offset": 87.38320922851562
    },
    "Iqlo": {
      "scale": 68.51012420654297,
      "offset": -1.8834285736083984
    },
    "I0lo": {
      "scale": 0.8136371970176697,
      "offset": -6.633380689891055e-05
    },
    "Idhi": {
      "scale": 14.488091468811035,
      "offset": 0.49975311756134033
    },
    "Iqhi": {
      "scale": 14.80299186706543,
      "offset": 0.493014395236969
    },
    "I0hi": {
      "scale": 14.913056373596191,
      "offset": 0.48872336745262146
    }
  },
  "lr": 0.001,
  "num_iter": 20,
  "print_freq": 10,
  "batch_size": 270,
  "n_skip": 1,
  "n_trunc": 0,
  "n_dec": 1,
  "n_loss_skip": 20,
  "na": 4,
  "nb": 4,
  "nk": 0,
  "activation": "tanh",
  "nh1": 80,
  "nh2": 60,
  "COL_T": [
    "t"
  ],
  "COL_Y": [
    "Vdc",
    "Idc",
    "Idlo",
    "Iqlo",
    "I0lo",
    "Idhi",
    "Iqhi",
    "I0hi"
  ],
  "COL_U": [
    "T",
    "G",
    "Fc",
    "Md",
    "Mq",
    "Vrms",
    "GVrms",
    "Ctl"
  ],
  "H1": {
    "n_in": 8,
    "n_out": 8,
    "n_b": 4,
    "n_a": 4,
    "n_k": 0,
    "a_0_0": [
      -0.02827637828886509,
      -0.012367098592221737,
      -0.026071621105074883,
      -0.01397444773465395
    ],
    "b_0_0": [
      0.02664313092827797,
      0.024704569950699806,
      0.026088034734129906,
      0.02300833910703659
    ],
    "a_0_1": [
      -0.022597335278987885,
      -0.01478634588420391,
      -0.01293620839715004,
      -0.011298475787043571
    ],
    "b_0_1": [
      0.01958317495882511,
      0.02057330310344696,
      0.011609197594225407,
      0.012669233605265617
    ],
    "a_0_2": [
      -0.011666488833725452,
      -0.009325976483523846,
      -0.013592841103672981,
      -0.010032749734818935
    ],
    "b_0_2": [
      0.026748329401016235,
      0.019613170996308327,
      0.013109173625707626,
      0.011861642822623253
    ],
    "a_0_3": [
      -0.007288627792149782,
      -0.023656224831938744,
      -0.01773282326757908,
      -0.021005192771553993
    ],
    "b_0_3": [
      0.020592259243130684,
      0.02328347973525524,
      0.022767096757888794,
      0.0166657492518425
    ],
    "a_0_4": [
      0.007372239138931036,
      0.007165844086557627,
      -0.0016601099632680416,
      -0.004847085103392601
    ],
    "b_0_4": [
      0.02576368860900402,
      0.009674472734332085,
      0.011646525003015995,
      0.009224516339600086
    ],
    "a_0_5": [
      -0.013957036659121513,
      -0.0006198319606482983,
      -0.008461016230285168,
      0.001648384495638311
    ],
    "b_0_5": [
      -0.006732446141541004,
      -0.014878061600029469,
      -0.01939062401652336,
      -0.011400735937058926
    ],
    "a_0_6": [
      -0.0054612294770777225,
      -0.0024081231094896793,
      -0.003249525325372815,
      -0.017654890194535255
    ],
    "b_0_6": [
      0.011050865054130554,
      0.008378636091947556,
      0.01864715851843357,
      0.016619423404335976
    ],
    "a_0_7": [
      -0.010846951976418495,
      -0.017914284020662308,
      -0.008743570186197758,
      -0.014653980731964111
    ],
    "b_0_7": [
      0.006461669225245714,
      0.007033835165202618,
      0.0183066688477993,
      0.021219272166490555
    ],
    "a_1_0": [
      -0.014122651889920235,
      -0.021904345601797104,
      -0.02392539195716381,
      -0.011222174391150475
    ],
    "b_1_0": [
      -0.01896401308476925,
      -0.02480105310678482,
      -0.014949571341276169,
      -0.018034372478723526
    ],
    "a_1_1": [
      -0.01024334691464901,
      -0.011698391288518906,
      -0.005774904042482376,
      -0.016742520034313202
    ],
    "b_1_1": [
      0.011876927688717842,
      0.014151936396956444,
      0.022821826860308647,
      0.02682148478925228
    ],
    "a_1_2": [
      -0.016032174229621887,
      -0.025089038535952568,
      -0.017508864402770996,
      -0.02186327613890171
    ],
    "b_1_2": [
      0.016836006194353104,
      0.024884182959794998,
      0.013855957426130772,
      0.02961868979036808
    ],
    "a_1_3": [
      -0.008586905896663666,
      -0.006846199743449688,
      -0.006906595081090927,
      -0.015142758376896381
    ],
    "b_1_3": [
      0.023359131067991257,
      0.018107248470187187,
      0.020683566108345985,
      0.01971667818725109
    ],
    "a_1_4": [
      -0.007956977933645248,
      -0.023845193907618523,
      -0.01971966214478016,
      -0.01206638291478157
    ],
    "b_1_4": [
      0.014721540734171867,
      0.020535694435238838,
      0.023289896547794342,
      0.018366573378443718
    ],
    "a_1_5": [
      -0.019484639167785645,
      -0.02739141136407852,
      -0.023967096582055092,
      -0.024211827665567398
    ],
    "b_1_5": [
      -0.00937990564852953,
      -0.022825876250863075,
      -0.027900397777557373,
      -0.023730672895908356
    ],
    "a_1_6": [
      -0.014973429962992668,
      -0.004112974740564823,
      0.001749155460856855,
      -0.0010104315588250756
    ],
    "b_1_6": [
      0.007739871274679899,
      0.02526109851896763,
      0.012531500309705734,
      0.009984943084418774
    ],
    "a_1_7": [
      -0.025225169956684113,
      -0.02965601533651352,
      -0.02854064851999283,
      -0.020286904647946358
    ],
    "b_1_7": [
      -0.02219630777835846,
      -0.02785366401076317,
      -0.02633957378566265,
      -0.01601800136268139
    ],
    "a_2_0": [
      -0.007121644448488951,
      -0.018301505595445633,
      -0.019942564889788628,
      -0.020082902163267136
    ],
    "b_2_0": [
      0.007315604016184807,
      0.019726067781448364,
      0.022483214735984802,
      0.015342501923441887
    ],
    "a_2_1": [
      -0.005761963315308094,
      -0.01439297292381525,
      -0.013720965944230556,
      0.004947255831211805
    ],
    "b_2_1": [
      -0.016229882836341858,
      -0.02627200074493885,
      -0.012872428633272648,
      -0.010956373997032642
    ],
    "a_2_2": [
      -0.0222312044352293,
      -0.019265370443463326,
      -0.020136937499046326,
      -0.02624613791704178
    ],
    "b_2_2": [
      -0.018635280430316925,
      -0.011899145320057869,
      -0.030943844467401505,
      -0.022110501304268837
    ],
    "a_2_3": [
      -0.009820519015192986,
      -0.005030110478401184,
      -0.012185205705463886,
      -0.008583897724747658
    ],
    "b_2_3": [
      -0.008745717816054821,
      -0.019457891583442688,
      -0.005932580213993788,
      -0.01464234571903944
    ],
    "a_2_4": [
      -0.01993083953857422,
      -0.029836488887667656,
      -0.012612715363502502,
      -0.011800589971244335
    ],
    "b_2_4": [
      -0.024164998903870583,
      -0.02848086506128311,
      -0.016457105055451393,
      -0.027820121496915817
    ],
    "a_2_5": [
      -0.014117378741502762,
      -0.024219540879130363,
      -0.015710050240159035,
      -0.0303050447255373
    ],
    "b_2_5": [
      0.01759370043873787,
      0.024158360436558723,
      0.027249852195382118,
      0.021978041157126427
    ],
    "a_2_6": [
      -0.022403063252568245,
      -0.021962815895676613,
      -0.023460255935788155,
      -0.01572856679558754
    ],
    "b_2_6": [
      -0.022651270031929016,
      -0.02326987497508526,
      -0.013306905515491962,
      -0.017064006999135017
    ],
    "a_2_7": [
      -0.025287814438343048,
      -0.02189050428569317,
      -0.02361922711133957,
      -0.030122745782136917
    ],
    "b_2_7": [
      0.02949242666363716,
      0.02484014630317688,
      0.029130015522241592,
      0.013016019016504288
    ],
    "a_3_0": [
      -0.007890352047979832,
      -0.014657974243164062,
      -0.0002991858054883778,
      -0.0007346484926529229
    ],
    "b_3_0": [
      0.018496638163924217,
      0.005827152170240879,
      0.007710964884608984,
      0.010415639728307724
    ],
    "a_3_1": [
      0.0100849075242877,
      -0.002677871845662594,
      0.00115142110735178,
      0.0025643580593168736
    ],
    "b_3_1": [
      0.001320350100286305,
      0.005213485565036535,
      0.012186250649392605,
      -0.002659799065440893
    ],
    "a_3_2": [
      -0.01003909483551979,
      -0.01085785310715437,
      -0.025202380493283272,
      -0.02853919193148613
    ],
    "b_3_2": [
      0.020784908905625343,
      0.00966185238212347,
      0.01927376724779606,
      0.025947265326976776
    ],
    "a_3_3": [
      -0.0065125650726258755,
      -0.002323353663086891,
      0.01089208573102951,
      0.005834721028804779
    ],
    "b_3_3": [
      0.006393146235495806,
      0.008222994394600391,
      0.005081521347165108,
      -0.001150303753092885
    ],
    "a_3_4": [
      0.009951168671250343,
      0.007713902276009321,
      0.00044502891250886023,
      -0.005899698939174414
    ],
    "b_3_4": [
      0.004648011643439531,
      -0.0021433280780911446,
      0.010523081757128239,
      0.0070429048500955105
    ],
    "a_3_5": [
      0.011161334812641144,
      0.009414497762918472,
      0.005718482658267021,
      -0.004077430348843336
    ],
    "b_3_5": [
      -0.014813527464866638,
      0.0011506277369335294,
      -0.007646138779819012,
      -0.007944231852889061
    ],
    "a_3_6": [
      0.020007776096463203,
      0.013041996397078037,
      0.01874571479856968,
      0.016308359801769257
    ],
    "b_3_6": [
      0.003992157988250256,
      0.004087945446372032,
      0.007224565837532282,
      0.0018402786226943135
    ],
    "a_3_7": [
      0.002004666719585657,
      -0.012093990109860897,
      -0.008877551183104515,
      0.002651117742061615
    ],
    "b_3_7": [
      -0.018482845276594162,
      -0.014366853050887585,
      -0.011240190826356411,
      -0.0017324804794043303
    ],
    "a_4_0": [
      -0.016504842787981033,
      -0.02312813512980938,
      -0.005341341719031334,
      -0.014658452942967415
    ],
    "b_4_0": [
      0.027031755074858665,
      0.013690829277038574,
      0.019305460155010223,
      0.016810286790132523
    ],
    "a_4_1": [
      -0.01263983454555273,
      -0.02852262184023857,
      -0.017263295128941536,
      -0.024472692981362343
    ],
    "b_4_1": [
      -0.025693122297525406,
      -0.022102775052189827,
      -0.023814957588911057,
      -0.01475662924349308
    ],
    "a_4_2": [
      -0.024898122996091843,
      -0.022775134071707726,
      -0.024390364065766335,
      -0.01520876120775938
    ],
    "b_4_2": [
      -0.025579873472452164,
      -0.019082453101873398,
      -0.026264704763889313,
      -0.02374328300356865
    ],
    "a_4_3": [
      0.005078305024653673,
      0.014554315246641636,
      0.009248063899576664,
      0.005415330175310373
    ],
    "b_4_3": [
      -0.0041044470854103565,
      -0.016890276223421097,
      -0.012586362659931183,
      -0.0024386118166148663
    ],
    "a_4_4": [
      -0.026391416788101196,
      -0.029772255569696426,
      -0.023532861843705177,
      -0.029876068234443665
    ],
    "b_4_4": [
      -0.017374161630868912,
      -0.025887148454785347,
      -0.026801584288477898,
      -0.024304740130901337
    ],
    "a_4_5": [
      -0.021985678002238274,
      -0.019969958811998367,
      -0.020778343081474304,
      -0.025046616792678833
    ],
    "b_4_5": [
      0.014333517290651798,
      0.02181912027299404,
      0.01524239033460617,
      0.025899993255734444
    ],
    "a_4_6": [
      -0.0036265705712139606,
      -0.004934851545840502,
      -0.013030714355409145,
      -0.014518902637064457
    ],
    "b_4_6": [
      -0.019914673641324043,
      -0.017553936690092087,
      -0.010785428807139397,
      -0.006439290475100279
    ],
    "a_4_7": [
      -0.014098435640335083,
      -0.011684604920446873,
      -0.029540738090872765,
      -0.02254444919526577
    ],
    "b_4_7": [
      0.03059440664947033,
      0.02262910082936287,
      0.021450089290738106,
      0.016548285260796547
    ],
    "a_5_0": [
      -0.0003083443152718246,
      -0.0030209822580218315,
      0.00911814533174038,
      -0.0009140680776908994
    ],
    "b_5_0": [
      -0.0013565822737291455,
      -0.01281642448157072,
      -0.00966036319732666,
      -0.015401002950966358
    ],
    "a_5_1": [
      -0.012094424106180668,
      -0.02052275836467743,
      -0.021656181663274765,
      -0.02640376426279545
    ],
    "b_5_1": [
      0.01111220009624958,
      0.02631637081503868,
      0.021407458931207657,
      0.02870110236108303
    ],
    "a_5_2": [
      -0.0239531509578228,
      -0.017404470592737198,
      -0.01620204746723175,
      -0.02097986824810505
    ],
    "b_5_2": [
      0.02865665778517723,
      0.02594696916639805,
      0.024701565504074097,
      0.01810474693775177
    ],
    "a_5_3": [
      -0.000725222285836935,
      -0.017178669571876526,
      -0.006426743697375059,
      -0.0012575609143823385
    ],
    "b_5_3": [
      0.016575969755649567,
      0.016076136380434036,
      0.014731710776686668,
      0.010983629152178764
    ],
    "a_5_4": [
      -0.017138797789812088,
      -0.007460230030119419,
      -0.015233814716339111,
      -0.022886427119374275
    ],
    "b_5_4": [
      0.022337377071380615,
      0.020888229832053185,
      0.013586867600679398,
      0.023165833204984665
    ],
    "a_5_5": [
      -0.024873701855540276,
      -0.015666602179408073,
      -0.02371763065457344,
      -0.016986550763249397
    ],
    "b_5_5": [
      -0.02377777174115181,
      -0.01157478429377079,
      -0.022385530173778534,
      -0.019694767892360687
    ],
    "a_5_6": [
      -0.0031150244176387787,
      -0.009562501683831215,
      -0.013897591270506382,
      -0.010464995168149471
    ],
    "b_5_6": [
      0.008097640238702297,
      0.0207329411059618,
      0.0057976567186415195,
      0.017946353182196617
    ],
    "a_5_7": [
      -0.009265200234949589,
      -0.011920792050659657,
      -0.011050348170101643,
      -0.01194013562053442
    ],
    "b_5_7": [
      -0.01525803841650486,
      -0.013195649720728397,
      -0.017753841355443,
      -0.014800802804529667
    ],
    "a_6_0": [
      0.000525838288012892,
      0.00042664853390306234,
      -0.005766094196587801,
      -0.011293461546301842
    ],
    "b_6_0": [
      -0.003392975777387619,
      -0.009320801123976707,
      -0.007883625105023384,
      -0.019097067415714264
    ],
    "a_6_1": [
      -0.003947708755731583,
      -0.015034358017146587,
      -0.011025354266166687,
      -0.017736339941620827
    ],
    "b_6_1": [
      -0.014795944094657898,
      -0.011202319525182247,
      -0.010893035680055618,
      -0.01563327945768833
    ],
    "a_6_2": [
      -0.01607517898082733,
      -0.0062550390139222145,
      -0.019737614318728447,
      -0.016116870567202568
    ],
    "b_6_2": [
      -0.023661604151129723,
      -0.016340984031558037,
      -0.009904732927680016,
      -0.005115843378007412
    ],
    "a_6_3": [
      -0.0037245717830955982,
      -0.01635231077671051,
      -0.015387278981506824,
      -0.014035317115485668
    ],
    "b_6_3": [
      -0.021309642121195793,
      -0.007506502326577902,
      -0.021771002560853958,
      -0.021846624091267586
    ],
    "a_6_4": [
      -0.006014960817992687,
      -0.01684596948325634,
      -0.009280594997107983,
      -0.006196442060172558
    ],
    "b_6_4": [
      -0.018628057092428207,
      -0.013682503253221512,
      -0.009565205313265324,
      -0.019960135221481323
    ],
    "a_6_5": [
      -0.013322562910616398,
      -0.010786125436425209,
      -0.02022060565650463,
      -0.008069029077887535
    ],
    "b_6_5": [
      0.0209405068308115,
      0.02227730117738247,
      0.013847806490957737,
      0.0213707834482193
    ],
    "a_6_6": [
      -0.007553560193628073,
      -0.012543099001049995,
      -0.019555600360035896,
      -0.007285413797944784
    ],
    "b_6_6": [
      -0.01701575331389904,
      -0.01644279435276985,
      -0.013775734230875969,
      -0.01139125507324934
    ],
    "a_6_7": [
      0.008385875262320042,
      7.8836630564183e-05,
      0.006508760154247284,
      0.005469511728733778
    ],
    "b_6_7": [
      -0.008911396376788616,
      -0.009975312277674675,
      0.0019503270741552114,
      0.0008513472857885063
    ],
    "a_7_0": [
      -0.005002925172448158,
      -0.0016726156463846564,
      0.009000786580145359,
      -0.0008814585162326694
    ],
    "b_7_0": [
      0.012638160027563572,
      -0.001247727544978261,
      0.006334980949759483,
      -0.0012574471766129136
    ],
    "a_7_1": [
      -0.029015621170401573,
      -0.021783577278256416,
      -0.01607917994260788,
      -0.024318154901266098
    ],
    "b_7_1": [
      0.025576230138540268,
      0.020086724311113358,
      0.028054699301719666,
      0.026198260486125946
    ],
    "a_7_2": [
      -0.02611396834254265,
      -0.012638813816010952,
      -0.015585948713123798,
      -0.02257445827126503
    ],
    "b_7_2": [
      0.029220281168818474,
      0.02603624016046524,
      0.02127346210181713,
      0.02951597422361374
    ],
    "a_7_3": [
      -0.017026640474796295,
      -0.018599919974803925,
      -0.015225334092974663,
      -0.01719624735414982
    ],
    "b_7_3": [
      0.009821157902479172,
      0.025129495188593864,
      0.025472087785601616,
      0.025255445390939713
    ],
    "a_7_4": [
      -0.019230233505368233,
      -0.011325674131512642,
      -0.012916402891278267,
      -0.012530931271612644
    ],
    "b_7_4": [
      0.016337648034095764,
      0.015710659325122833,
      0.02164231613278389,
      0.02412400394678116
    ],
    "a_7_5": [
      -0.007258004508912563,
      -0.0008862257236614823,
      -0.011536217294633389,
      -0.00046183401718735695
    ],
    "b_7_5": [
      -0.01334046944975853,
      -0.014291053637862206,
      -0.009844538755714893,
      -0.020866209641098976
    ],
    "a_7_6": [
      -0.009849312715232372,
      -0.016369421035051346,
      -0.023037541657686234,
      -0.01530653890222311
    ],
    "b_7_6": [
      0.013944628648459911,
      0.020578322932124138,
      0.020013999193906784,
      0.011395072564482689
    ],
    "a_7_7": [
      -0.0204546470195055,
      -0.029110310599207878,
      -0.027540618553757668,
      -0.011217688210308552
    ],
    "b_7_7": [
      -0.020055506378412247,
      -0.02861512452363968,
      -0.023956194519996643,
      -0.024947114288806915
    ]
  },
  "F1": {
    "n_in": 8,
    "n_hid": 80,
    "n_out": 8,
    "activation": "tanh",
    "net.0.weight": [
      [
        0.015262996777892113,
        0.17196981608867645,
        -0.304827481508255,
        -0.25752270221710205,
        -0.11714659631252289,
        0.07833649218082428,
        -0.02458571456372738,
        0.2648424208164215
      ],
      [
        -0.047225985676050186,
        0.11075910180807114,
        -0.08832097053527832,
        -0.048944368958473206,
        -0.35833868384361267,
        -0.21412399411201477,
        -0.12847815454006195,
        0.030864691361784935
      ],
      [
        0.11967018991708755,
        0.2283092737197876,
        -0.21957606077194214,
        -0.16913633048534393,
        0.10770728439092636,
        0.3138602674007416,
        -0.056360989809036255,
        0.28485342860221863
      ],
      [
        -0.03750709816813469,
        0.020315909758210182,
        0.3093724250793457,
        -0.3081440031528473,
        -0.20227976143360138,
        -0.11006492376327515,
        -0.15523846447467804,
        0.28496578335762024
      ],
      [
        -0.2084215134382248,
        -0.1437886655330658,
        -0.23015815019607544,
        -0.31032583117485046,
        -0.2256530523300171,
        0.29132381081581116,
        0.17617233097553253,
        0.1572342962026596
      ],
      [
        -0.0011873322073370218,
        -0.16058017313480377,
        0.07311680167913437,
        -0.342680424451828,
        -0.27606821060180664,
        -0.16152942180633545,
        0.24375708401203156,
        0.22806039452552795
      ],
      [
        -0.1765354871749878,
        0.008151523768901825,
        0.24623844027519226,
        0.33156099915504456,
        0.11945229768753052,
        0.06871259212493896,
        0.2579667270183563,
        -0.18724425137043
      ],
      [
        0.08593174815177917,
        -0.29518038034439087,
        -0.26268818974494934,
        -0.16230040788650513,
        0.17990967631340027,
        0.12112565338611603,
        -0.2304966151714325,
        0.08576934039592743
      ],
      [
        0.2055097371339798,
        -0.06466773897409439,
        -0.004718568176031113,
        0.061088643968105316,
        0.24023306369781494,
        0.3197610676288605,
        -0.2924916744232178,
        -0.14715594053268433
      ],
      [
        0.1259075254201889,
        0.31389930844306946,
        0.3271491825580597,
        0.33165648579597473,
        0.04934972524642944,
        -0.28641995787620544,
        0.05349177122116089,
        -0.2001655548810959
      ],
      [
        -0.33586588501930237,
        0.29335689544677734,
        0.27491480112075806,
        -0.36709657311439514,
        0.070050448179245,
        -0.08042044192552567,
        -0.07895967364311218,
        -0.18273738026618958
      ],
      [
        0.12059958279132843,
        -0.2266514152288437,
        0.11382059752941132,
        0.15835614502429962,
        0.2734900414943695,
        0.11509918421506882,
        -0.36716872453689575,
        -0.24609911441802979
      ],
      [
        0.15687359869480133,
        0.09458868205547333,
        -0.25546523928642273,
        -0.2122577726840973,
        0.31180810928344727,
        0.2590470016002655,
        -0.13354593515396118,
        -0.06813375651836395
      ],
      [
        -0.3356456458568573,
        -0.005750819109380245,
        -0.2809560298919678,
        -0.28755515813827515,
        -0.011607113294303417,
        0.05489298701286316,
        -0.14405705034732819,
        0.2127816379070282
      ],
      [
        -0.19524715840816498,
        0.3007926344871521,
        0.22275418043136597,
        -0.27758675813674927,
        -0.06759996712207794,
        -0.004501095972955227,
        0.03151032701134682,
        0.06346002966165543
      ],
      [
        0.13367386162281036,
        0.04149583354592323,
        -0.17097599804401398,
        0.1465333253145218,
        -0.3596089482307434,
        -0.18899187445640564,
        -0.06817641854286194,
        -0.15170587599277496
      ],
      [
        -0.14270280301570892,
        -0.2890898883342743,
        -0.05859823524951935,
        0.05518306791782379,
        -0.24993671476840973,
        -6.834216765128076e-05,
        0.2547522485256195,
        -0.01893562078475952
      ],
      [
        -0.009603620506823063,
        -0.010160708799958229,
        0.0830744132399559,
        0.2191821187734604,
        0.314090758562088,
        0.24520759284496307,
        0.35603734850883484,
        -0.004837126471102238
      ],
      [
        -0.2968519330024719,
        -0.18791408836841583,
        0.2202976793050766,
        -0.0047678700648248196,
        -0.15497206151485443,
        -0.2916657030582428,
        -0.3512062430381775,
        -0.3191525936126709
      ],
      [
        -0.09024053812026978,
        0.21455428004264832,
        0.20865006744861603,
        -0.32158857583999634,
        0.19971226155757904,
        -0.2559012770652771,
        -0.054074544459581375,
        -0.12259133160114288
      ],
      [
        -0.08391843736171722,
        -0.048949070274829865,
        -0.3094402849674225,
        -0.2843288779258728,
        -0.07566969096660614,
        0.02189864218235016,
        -0.14017054438591003,
        0.15065589547157288
      ],
      [
        -0.29766085743904114,
        -0.025019755586981773,
        0.29475706815719604,
        -0.13164734840393066,
        0.3399655222892761,
        0.10847369581460953,
        -0.32043397426605225,
        0.20421971380710602
      ],
      [
        -0.056194279342889786,
        -0.1371711939573288,
        0.27659523487091064,
        -0.30541175603866577,
        0.01717429794371128,
        -0.05336497351527214,
        0.27313777804374695,
        0.119352787733078
      ],
      [
        0.15012574195861816,
        0.1453392505645752,
        -0.06602983921766281,
        -0.05695214122533798,
        -0.3123287260532379,
        0.2077198028564453,
        0.3011457622051239,
        0.2572060525417328
      ],
      [
        -0.2444409281015396,
        -0.00428439537063241,
        -0.25519368052482605,
        -0.21493883430957794,
        -0.18674032390117645,
        0.10042209178209305,
        -0.2307657152414322,
        -0.028076322749257088
      ],
      [
        0.007364262826740742,
        0.20740826427936554,
        -0.2703116834163666,
        -0.2572365999221802,
        -0.21127623319625854,
        0.23606133460998535,
        -0.1475234180688858,
        0.2857832908630371
      ],
      [
        0.14453458786010742,
        0.024269087240099907,
        -0.022007258608937263,
        -0.06173645704984665,
        0.0651809498667717,
        -0.10131971538066864,
        -0.022992094978690147,
        0.024494878947734833
      ],
      [
        -0.272764652967453,
        -0.16910304129123688,
        0.29754969477653503,
        -0.2662886381149292,
        -0.019343897700309753,
        0.35129937529563904,
        0.14334894716739655,
        0.010455903597176075
      ],
      [
        -0.28579315543174744,
        0.19516602158546448,
        -0.24011486768722534,
        -0.08223006874322891,
        -0.12121373414993286,
        -0.03223580867052078,
        0.02391013130545616,
        0.31188905239105225
      ],
      [
        0.024401603266596794,
        0.33722004294395447,
        0.21468405425548553,
        -0.21920812129974365,
        0.13756678998470306,
        -0.22904445230960846,
        -0.12926959991455078,
        0.12487372756004333
      ],
      [
        0.10943248122930527,
        0.2775278687477112,
        -0.09798388183116913,
        0.0013617216609418392,
        0.16226579248905182,
        -0.330206960439682,
        0.2678670585155487,
        -0.28129249811172485
      ],
      [
        -0.014568723738193512,
        -0.03951413929462433,
        -0.17525222897529602,
        0.032281823456287384,
        0.27163970470428467,
        -0.08265306055545807,
        -0.18930186331272125,
        -0.11011067032814026
      ],
      [
        -0.3305436372756958,
        0.18030540645122528,
        -0.14999724924564362,
        -0.25472623109817505,
        -0.22452759742736816,
        0.22413896024227142,
        0.2079627960920334,
        0.2922228276729584
      ],
      [
        0.14262355864048004,
        -0.13297218084335327,
        -0.11754264682531357,
        0.09706803411245346,
        0.3116152286529541,
        0.07881291210651398,
        -0.1823432594537735,
        -0.18352922797203064
      ],
      [
        -0.34358784556388855,
        0.09716194868087769,
        -0.17868545651435852,
        -0.3352971076965332,
        0.2893284261226654,
        -0.20871050655841827,
        -0.019428864121437073,
        0.12219978868961334
      ],
      [
        -0.008128747344017029,
        -0.25503283739089966,
        -0.26697367429733276,
        0.26462438702583313,
        0.036987002938985825,
        0.28760114312171936,
        -0.13597649335861206,
        0.09542820602655411
      ],
      [
        -0.061655279248952866,
        -0.030179016292095184,
        -0.2319709211587906,
        0.13602976500988007,
        0.13251151144504547,
        -0.027852822095155716,
        -0.09669410437345505,
        -0.23858337104320526
      ],
      [
        0.24899081885814667,
        -0.2837752103805542,
        0.12494775652885437,
        -0.1304052621126175,
        -0.14961941540241241,
        0.04297541081905365,
        -0.20423641800880432,
        0.06091649830341339
      ],
      [
        0.05409742146730423,
        -0.2425185590982437,
        0.07719123363494873,
        0.14109116792678833,
        0.11950153112411499,
        -0.026860250160098076,
        -0.2698836326599121,
        -0.037167493253946304
      ],
      [
        0.1415899246931076,
        -0.14607778191566467,
        0.11599905043840408,
        0.2560602128505707,
        -0.1646990031003952,
        -0.01667753793299198,
        0.1289612501859665,
        0.007569723762571812
      ],
      [
        0.009800590574741364,
        0.0650104433298111,
        -0.25754067301750183,
        0.03051791340112686,
        0.22384338080883026,
        0.33939698338508606,
        0.2286631315946579,
        0.06817816942930222
      ],
      [
        0.16899797320365906,
        -0.1929188072681427,
        -0.27929946780204773,
        -0.30980783700942993,
        0.3736770749092102,
        0.2033998966217041,
        -0.26532086730003357,
        0.11725860834121704
      ],
      [
        0.25427937507629395,
        0.36710402369499207,
        0.2967335879802704,
        0.29450753331184387,
        -0.10169103741645813,
        -0.1136411502957344,
        0.30383601784706116,
        0.20647847652435303
      ],
      [
        -0.19496290385723114,
        0.30668264627456665,
        0.15462669730186462,
        0.1918639838695526,
        -0.20298370718955994,
        0.08968055993318558,
        -0.1350984126329422,
        0.2671399712562561
      ],
      [
        -0.07776729762554169,
        0.15850290656089783,
        0.0783003494143486,
        0.1578076332807541,
        -0.13979379832744598,
        0.19324934482574463,
        -0.2260817587375641,
        0.10077077895402908
      ],
      [
        -0.24578937888145447,
        -0.35710179805755615,
        -0.2672540247440338,
        0.2863777279853821,
        0.17244617640972137,
        0.3376742899417877,
        0.2742493748664856,
        -0.32142212986946106
      ],
      [
        -0.2215820699930191,
        -0.06391575932502747,
        -0.23388628661632538,
        0.2654906213283539,
        -0.24724772572517395,
        -0.19231769442558289,
        -0.34896501898765564,
        -0.22052302956581116
      ],
      [
        0.3010769784450531,
        0.2687073051929474,
        0.2342367023229599,
        0.25229400396347046,
        0.3350986838340759,
        -0.11124711483716965,
        0.13480006158351898,
        0.2943585515022278
      ],
      [
        0.0995146706700325,
        0.37385687232017517,
        0.18751922249794006,
        0.2407144159078598,
        -0.14425982534885406,
        0.18960751593112946,
        0.06102937459945679,
        -0.064488485455513
      ],
      [
        -0.21866387128829956,
        -0.17764657735824585,
        -0.265487939119339,
        0.2581324279308319,
        0.23204638063907623,
        -0.02016001008450985,
        -0.1838763803243637,
        0.29323089122772217
      ],
      [
        0.2056780755519867,
        0.04688958451151848,
        -0.14695173501968384,
        0.3073538541793823,
        0.12405611574649811,
        -0.24783457815647125,
        0.3589878976345062,
        0.2890721261501312
      ],
      [
        -0.10881507396697998,
        0.2146347016096115,
        -0.19974201917648315,
        -0.041488975286483765,
        0.32069483399391174,
        0.03518997132778168,
        -0.2339763343334198,
        -0.0973191186785698
      ],
      [
        -0.11530844867229462,
        -0.08929740637540817,
        0.02849515527486801,
        0.306160032749176,
        0.005620412062853575,
        -0.23915943503379822,
        -0.0029677413403987885,
        0.1486104428768158
      ],
      [
        0.16576838493347168,
        -0.3248427212238312,
        -0.04772600159049034,
        -0.2686375379562378,
        -0.1714133322238922,
        0.14549994468688965,
        -0.25170910358428955,
        0.14825955033302307
      ],
      [
        0.28312310576438904,
        0.04396651312708855,
        -0.2187895029783249,
        -0.14659681916236877,
        0.05687319487333298,
        -0.24883198738098145,
        0.19641783833503723,
        -0.3003152012825012
      ],
      [
        -0.3490084409713745,
        -0.32311707735061646,
        -0.08005306124687195,
        0.2580549120903015,
        -0.34222450852394104,
        0.31187283992767334,
        -0.12103305011987686,
        0.12142598628997803
      ],
      [
        -0.0037797698751091957,
        -0.2983678877353668,
        0.28924641013145447,
        0.16960486769676208,
        0.3309703767299652,
        0.19919830560684204,
        -0.21292200684547424,
        0.3156215250492096
      ],
      [
        0.03631318360567093,
        0.1473032534122467,
        -0.27933961153030396,
        -0.08218367397785187,
        -0.32656329870224,
        -0.158138245344162,
        0.05590614676475525,
        -0.2980482280254364
      ],
      [
        0.09528303146362305,
        0.20724399387836456,
        0.06570415198802948,
        -0.25368496775627136,
        -0.2924548089504242,
        -0.09207502007484436,
        0.17258179187774658,
        0.3658938705921173
      ],
      [
        0.22398236393928528,
        -0.054470859467983246,
        0.11219143122434616,
        -0.32618942856788635,
        -0.28764575719833374,
        0.14433921873569489,
        -0.21601784229278564,
        0.14948922395706177
      ],
      [
        -0.24773497879505157,
        -0.1542087346315384,
        -0.2761542499065399,
        0.20129765570163727,
        -0.057007357478141785,
        0.2931739389896393,
        0.2397291511297226,
        0.21675850450992584
      ],
      [
        0.0005560441641137004,
        -0.12894706428050995,
        -0.07520270347595215,
        0.027275225147604942,
        0.1701182872056961,
        -0.25496599078178406,
        0.2772751450538635,
        -0.04574558138847351
      ],
      [
        -0.2786256968975067,
        -0.21204473078250885,
        0.29343274235725403,
        0.3044881224632263,
        -0.30672773718833923,
        0.22862844169139862,
        0.15644194185733795,
        0.18864737451076508
      ],
      [
        0.2792239189147949,
        -0.16976507008075714,
        0.1304914653301239,
        0.12686960399150848,
        -0.1253669708967209,
        0.13909104466438293,
        -0.08093671500682831,
        0.23930495977401733
      ],
      [
        -0.09818940609693527,
        -0.1152169480919838,
        0.1051449328660965,
        0.145114004611969,
        -0.1931246668100357,
        0.044856373220682144,
        0.22135628759860992,
        -0.022187605500221252
      ],
      [
        0.12728652358055115,
        -0.07022514939308167,
        0.10764145851135254,
        -0.23509889841079712,
        -0.1897854208946228,
        -0.19718755781650543,
        0.3384777009487152,
        -0.11315899342298508
      ],
      [
        0.01848386973142624,
        -0.19214162230491638,
        0.3326403498649597,
        0.34835362434387207,
        -0.24585062265396118,
        -0.3075833022594452,
        -0.28884875774383545,
        -0.022694924846291542
      ],
      [
        -0.07727647572755814,
        -0.25240761041641235,
        -0.14647328853607178,
        0.08316046744585037,
        -0.16379712522029877,
        0.05740359053015709,
        -0.10211675614118576,
        -0.19217263162136078
      ],
      [
        0.06558358669281006,
        0.27014657855033875,
        -0.24111038446426392,
        0.017577821388840675,
        -0.10939033329486847,
        0.3262089192867279,
        -0.356012225151062,
        -0.3596462309360504
      ],
      [
        0.32882964611053467,
        -0.21098387241363525,
        0.08552143722772598,
        -0.0507684126496315,
        -0.0951167419552803,
        -0.06153545528650284,
        0.23778705298900604,
        0.034098051488399506
      ],
      [
        -0.34033524990081787,
        -0.2149726301431656,
        -0.13222220540046692,
        0.16424182057380676,
        -0.2156100869178772,
        0.3288421928882599,
        -0.08469398319721222,
        -0.06781376153230667
      ],
      [
        0.2958848178386688,
        0.15680627524852753,
        0.2800944745540619,
        0.183673694729805,
        -0.08636613935232162,
        -0.2555052638053894,
        -0.04720168933272362,
        0.2716749906539917
      ],
      [
        -0.09848953038454056,
        -0.34833163022994995,
        0.12474443018436432,
        0.32355767488479614,
        -0.07996133714914322,
        -0.31327641010284424,
        -0.341157466173172,
        0.06803137809038162
      ],
      [
        -0.00714716874063015,
        -0.19919617474079132,
        0.05150982737541199,
        0.1136484444141388,
        0.30184003710746765,
        0.2538290023803711,
        -0.07357840985059738,
        -0.33242160081863403
      ],
      [
        -0.3096294403076172,
        0.3504079282283783,
        0.16146235167980194,
        0.1747288554906845,
        -0.29743123054504395,
        0.32298803329467773,
        0.35509270429611206,
        0.3142806887626648
      ],
      [
        -0.27917709946632385,
        -0.1533065140247345,
        -0.25051993131637573,
        0.3339839279651642,
        -0.14906997978687286,
        -0.1820325255393982,
        0.1652049571275711,
        -0.18426135182380676
      ],
      [
        -0.16349108517169952,
        -0.015806935727596283,
        -0.027003366500139236,
        -0.2545371353626251,
        0.29050323367118835,
        -0.14615407586097717,
        0.14030010998249054,
        0.3175080120563507
      ],
      [
        0.17455054819583893,
        0.06251785904169083,
        0.3082190155982971,
        0.06785327941179276,
        -0.17030492424964905,
        0.3414360284805298,
        0.09587259590625763,
        -0.3384764492511749
      ],
      [
        -0.08963943272829056,
        -0.2617078423500061,
        0.3152585029602051,
        -0.046159666031599045,
        -0.3014153242111206,
        -0.04320429265499115,
        0.20114398002624512,
        0.07092181593179703
      ],
      [
        0.09198406338691711,
        0.050520237535238266,
        0.14056749641895294,
        -0.10613953322172165,
        -0.16109764575958252,
        -0.3102390170097351,
        -0.24857288599014282,
        0.17340311408042908
      ]
    ],
    "net.0.bias": [
      -0.22400644421577454,
      0.05416762828826904,
      0.12386541068553925,
      0.012229212559759617,
      -0.24741575121879578,
      0.3473110496997833,
      -0.19407835602760315,
      0.27848389744758606,
      -0.2772618234157562,
      -0.07425423711538315,
      0.1824101358652115,
      -0.13775651156902313,
      0.30731478333473206,
      -0.2345578670501709,
      -0.31059521436691284,
      -0.14679452776908875,
      0.0653521865606308,
      0.33313411474227905,
      -0.17810818552970886,
      0.13761767745018005,
      -0.07848387956619263,
      -0.08889155834913254,
      0.2699674665927887,
      -0.27106592059135437,
      0.05134725570678711,
      0.32387518882751465,
      -0.05884498357772827,
      0.26048117876052856,
      -0.11643291264772415,
      0.29379037022590637,
      -0.3312516510486603,
      -0.03939684480428696,
      -0.05007149651646614,
      0.1052611693739891,
      0.1487322747707367,
      0.28522077202796936,
      -0.061629362404346466,
      -0.023650821298360825,
      0.25171738862991333,
      -0.10596204549074173,
      0.3169362545013428,
      -0.2434513121843338,
      -0.04931747540831566,
      -0.03370405361056328,
      0.16627852618694305,
      0.2516002058982849,
      -0.06769763678312302,
      -0.3072664141654968,
      0.1785607486963272,
      0.11557120084762573,
      0.15103228390216827,
      -0.23155692219734192,
      0.2422562837600708,
      0.3228353261947632,
      0.04333227872848511,
      -0.32154276967048645,
      0.26019033789634705,
      -0.2719569802284241,
      0.09066502749919891,
      0.03871385380625725,
      -0.1546514332294464,
      0.11905109882354736,
      -0.33012473583221436,
      0.0914354994893074,
      -0.21263612806797028,
      -0.05310124531388283,
      0.03440271317958832,
      0.289181649684906,
      -0.1783570647239685,
      0.23820888996124268,
      -0.029975049197673798,
      -0.17800438404083252,
      -0.31301629543304443,
      -0.33169302344322205,
      0.32984060049057007,
      -0.07594636082649231,
      0.006317290011793375,
      0.09133227169513702,
      0.2289271503686905,
      0.3150582015514374
    ],
    "net.2.weight": [
      [
        0.07179754227399826,
        -0.06370773911476135,
        -0.009343288838863373,
        -0.04524369537830353,
        -0.07174275070428848,
        0.044392265379428864,
        0.08407534658908844,
        -0.06857360899448395,
        0.06594900786876678,
        -0.07903143018484116,
        -0.023029927164316177,
        0.09604521095752716,
        -0.006810698192566633,
        0.010517340153455734,
        -0.09866739809513092,
        0.07866864651441574,
        0.0065824659541249275,
        -0.0779530256986618,
        0.034169070422649384,
        -0.08246209472417831,
        -0.0774855688214302,
        0.022921044379472733,
        0.1037629246711731,
        -0.05220578610897064,
        0.07360449433326721,
        0.11152251064777374,
        0.053947947919368744,
        -0.03889588639140129,
        -0.03138617053627968,
        -0.029589444398880005,
        -0.11088468134403229,
        0.006386703811585903,
        0.06494426727294922,
        0.11489618569612503,
        0.028183722868561745,
        0.046276986598968506,
        -0.05661275237798691,
        0.10469532757997513,
        -0.025583650916814804,
        -0.09664275497198105,
        0.023975959047675133,
        0.07332412153482437,
        -0.12139460444450378,
        0.0848267674446106,
        0.0596846304833889,
        -0.058762792497873306,
        -0.016739465296268463,
        0.07610755413770676,
        -0.09245015680789948,
        -0.011580261401832104,
        0.030439991503953934,
        -0.11518766731023788,
        0.08050630986690521,
        0.07919015735387802,
        0.049144577234983444,
        -0.06715935468673706,
        0.13240762054920197,
        -0.08676140755414963,
        0.1089194044470787,
        -0.08624446392059326,
        -0.11168740689754486,
        0.06391295790672302,
        -0.000566184869967401,
        0.027468902990221977,
        -0.08111651241779327,
        -0.06797099858522415,
        -0.012298619374632835,
        -0.08828170597553253,
        -0.011128179728984833,
        0.03661225363612175,
        0.01608200930058956,
        0.015475381165742874,
        0.10860151797533035,
        0.022219784557819366,
        -0.03834409639239311,
        -0.06260478496551514,
        -0.06161192059516907,
        -0.08443231135606766,
        0.0018576006405055523,
        0.00041830947156995535
      ],
      [
        0.05395400524139404,
        -0.05523519590497017,
        0.10995170474052429,
        -0.058726731687784195,
        0.001509726862423122,
        0.11508863419294357,
        0.10418445616960526,
        -0.06211793050169945,
        0.001401475165039301,
        -0.0006848666816949844,
        -0.03770369291305542,
        -0.05947389453649521,
        0.0418771393597126,
        -0.08402980118989944,
        0.01810990646481514,
        0.028182288631796837,
        -0.0413648746907711,
        0.11275897920131683,
        -0.028176143765449524,
        0.05049256607890129,
        0.09207047522068024,
        -0.05425656586885452,
        0.07709286361932755,
        -0.026486245915293694,
        -0.017733007669448853,
        0.0009197734761983156,
        -0.01706298068165779,
        -0.02467985451221466,
        0.03625514730811119,
        0.01933889091014862,
        0.060072608292102814,
        -0.04334414750337601,
        0.028256729245185852,
        -0.04995068535208702,
        -0.0821862742304802,
        0.05348291993141174,
        -0.006493720225989819,
        -0.06476709246635437,
        -0.04226535186171532,
        0.018961161375045776,
        0.00011084554716944695,
        0.053893495351076126,
        0.02323131263256073,
        0.06220216676592827,
        0.06695717573165894,
        -0.021153077483177185,
        0.027736781165003777,
        0.08422862738370895,
        0.02603200264275074,
        0.023228472098708153,
        0.02491585724055767,
        0.06229332089424133,
        -0.03951973840594292,
        -0.05577537789940834,
        0.03074956312775612,
        -0.11174623668193817,
        0.008042598143219948,
        -0.06583207100629807,
        0.09455448389053345,
        -0.09317285567522049,
        0.07381636649370193,
        0.11543386429548264,
        0.019952083006501198,
        0.0038747121579945087,
        0.10263247787952423,
        -0.05536893755197525,
        -0.025470523163676262,
        -0.04783004894852638,
        -0.03180382400751114,
        0.033291686326265335,
        -0.005922449752688408,
        -0.022824587300419807,
        -0.13260214030742645,
        -0.013370598666369915,
        0.01752590388059616,
        -0.003979552537202835,
        0.10634303092956543,
        0.12851731479167938,
        -0.05450452119112015,
        -0.002925379667431116
      ],
      [
        -0.03705907240509987,
        -0.11710192263126373,
        -0.06037198752164841,
        0.12508442997932434,
        0.06780995428562164,
        0.07418081164360046,
        0.05659867450594902,
        -0.08861231803894043,
        -0.006466788239777088,
        0.09038817137479782,
        -0.048407070338726044,
        0.07843182981014252,
        0.04017649590969086,
        0.07297784835100174,
        -0.045654743909835815,
        0.03127718344330788,
        -0.0995047390460968,
        0.012702440842986107,
        0.016281098127365112,
        0.032207589596509933,
        0.07570948451757431,
        0.0907449871301651,
        0.11774945259094238,
        0.0853116512298584,
        0.0660208910703659,
        0.005498166661709547,
        -0.10279396921396255,
        -0.023950107395648956,
        0.00700306287035346,
        -0.045809365808963776,
        0.04736756533384323,
        0.01823270507156849,
        0.03876907005906105,
        0.008113047108054161,
        0.10862766951322556,
        0.04763798043131828,
        -0.11902333050966263,
        -0.10215272754430771,
        0.039296675473451614,
        0.0062306951731443405,
        0.07483983039855957,
        -0.13033811748027802,
        -0.08228342980146408,
        0.08943326771259308,
        0.08987908810377121,
        -0.09622542560100555,
        0.021425925195217133,
        -0.08155350387096405,
        0.10559199750423431,
        0.03169919177889824,
        0.13143160939216614,
        -0.12507085502147675,
        -0.10093159973621368,
        0.0768323540687561,
        0.07882241904735565,
        0.05462390184402466,
        0.07851792871952057,
        -0.10826513171195984,
        0.10193626582622528,
        -0.09588475525379181,
        0.0338994562625885,
        -0.06867509335279465,
        -0.045799147337675095,
        0.030084658414125443,
        -0.050336893647909164,
        -0.02267688699066639,
        -0.1267465204000473,
        -0.10665996372699738,
        0.027148161083459854,
        -0.039262499660253525,
        -0.08864253014326096,
        -0.043078552931547165,
        -0.11223984509706497,
        -0.10837225615978241,
        0.08783335983753204,
        0.03595331311225891,
        0.03587343543767929,
        -0.0416237898170948,
        0.048298515379428864,
        0.007319302298128605
      ],
      [
        -0.07625167816877365,
        0.015734555199742317,
        0.12263750284910202,
        -0.09049446880817413,
        -0.11058618128299713,
        0.029202263802289963,
        0.07569454610347748,
        -0.06378825008869171,
        0.006978360936045647,
        0.06333781033754349,
        0.049209076911211014,
        0.003259285818785429,
        0.12415848672389984,
        0.06554973125457764,
        -0.06450444459915161,
        -0.009895317256450653,
        0.06116905063390732,
        0.11761287599802017,
        -0.13214880228042603,
        0.06064198166131973,
        -0.04977276176214218,
        -0.1280638426542282,
        0.04095084220170975,
        -0.05597882717847824,
        0.01630590111017227,
        -0.053463250398635864,
        -0.100531205534935,
        0.007670837454497814,
        -0.02680751495063305,
        0.08046460896730423,
        -0.0025562322698533535,
        0.06630773097276688,
        0.04154582321643829,
        -0.044013816863298416,
        0.0880909338593483,
        0.015903519466519356,
        0.0001032660948112607,
        -0.056705646216869354,
        -0.003025275655090809,
        -0.03300043195486069,
        0.01009342260658741,
        -0.10526470839977264,
        0.019823424518108368,
        -0.0719418078660965,
        -0.006374349817633629,
        0.07249321043491364,
        -0.09875936061143875,
        -0.0748426765203476,
        -0.006651741452515125,
        -0.027352068573236465,
        0.03951410949230194,
        0.003254127921536565,
        0.0655415803194046,
        -0.07174456864595413,
        -0.028731394559144974,
        0.04827090725302696,
        0.10476598888635635,
        -0.023140016943216324,
        -0.04372548684477806,
        0.044978655874729156,
        0.06972859054803848,
        -0.06436964124441147,
        -0.06860236078500748,
        0.06239335611462593,
        -0.016574058681726456,
        -0.11547742038965225,
        -0.08492700755596161,
        0.047770049422979355,
        -0.054092131555080414,
        0.08732539415359497,
        0.0680118054151535,
        0.013091476634144783,
        -0.02930399775505066,
        -0.05373033136129379,
        0.015015867538750172,
        2.257374580949545e-05,
        -0.06436198949813843,
        -0.008219042792916298,
        -0.08024178445339203,
        0.07395313680171967
      ],
      [
        -0.051877908408641815,
        0.0816698968410492,
        -0.008026999421417713,
        -0.0444473959505558,
        0.0653916746377945,
        0.02987516298890114,
        0.07270441949367523,
        0.046026717871427536,
        -0.12580685317516327,
        0.05750096216797829,
        -0.0080745629966259,
        -0.07019743323326111,
        0.08048675954341888,
        0.07845909148454666,
        -0.09151226282119751,
        -0.030144251883029938,
        0.09022239595651627,
        0.0629972517490387,
        0.07338612526655197,
        -0.054119281470775604,
        -0.0801239088177681,
        0.0764201208949089,
        0.0619734525680542,
        0.12704934179782867,
        -0.05257883667945862,
        -0.052083820104599,
        -0.028259258717298508,
        -0.08820430189371109,
        0.0642431452870369,
        0.09611969441175461,
        0.017627356573939323,
        -0.03188132494688034,
        0.07615653425455093,
        -0.09116338193416595,
        0.11772334575653076,
        -0.10495045781135559,
        -0.12789860367774963,
        -0.046946704387664795,
        0.07246899604797363,
        0.004251297563314438,
        0.06307962536811829,
        -0.10081721842288971,
        0.06146053597331047,
        0.008320454508066177,
        0.06274077296257019,
        0.08222410082817078,
        0.027776768431067467,
        0.0028656120412051678,
        0.013807563111186028,
        -0.07259941101074219,
        -0.019765570759773254,
        0.05847054719924927,
        -0.0395793579518795,
        0.0699259489774704,
        -0.06521939486265182,
        -0.038821589201688766,
        0.006201498210430145,
        -0.1157945841550827,
        0.019696664065122604,
        -0.000969470595009625,
        0.009876519441604614,
        -0.021718580275774002,
        0.0925152450799942,
        0.09277084469795227,
        -0.08058514446020126,
        0.045741576701402664,
        -0.10834977775812149,
        -0.09837215393781662,
        0.018810464069247246,
        0.008145768195390701,
        -0.07248780131340027,
        -0.1016908586025238,
        -0.06390676647424698,
        0.01851094327867031,
        -0.08276396989822388,
        -0.129256471991539,
        0.035020146518945694,
        -0.060731254518032074,
        -0.08776891231536865,
        -0.04267257824540138
      ],
      [
        -0.023647231981158257,
        -0.09192484617233276,
        -0.09527437388896942,
        -0.011898398399353027,
        -0.10696159303188324,
        -0.02927383780479431,
        -0.06666307151317596,
        -0.07840379327535629,
        0.061790626496076584,
        -0.07435194402933121,
        -0.0989627093076706,
        0.08448345214128494,
        0.010413999669253826,
        0.10819060355424881,
        -0.030823471024632454,
        -0.03426213189959526,
        -0.012278828769922256,
        -0.01881018653512001,
        0.1059420183300972,
        -0.1110125258564949,
        0.010394921526312828,
        0.06927923113107681,
        -0.07691854238510132,
        -0.06498740613460541,
        0.05868702381849289,
        -0.12652258574962616,
        0.04191422462463379,
        -0.10331077873706818,
        0.041163813322782516,
        -0.10977301001548767,
        0.07805179059505463,
        -0.0851210430264473,
        -0.11430404335260391,
        0.015230664983391762,
        0.07831349223852158,
        -0.1026427149772644,
        -0.02924581989645958,
        0.11882687360048294,
        -0.0112004978582263,
        0.055129848420619965,
        -0.12745045125484467,
        -0.01648230291903019,
        -0.07728399336338043,
        0.07374315708875656,
        0.028874382376670837,
        -0.08722098916769028,
        0.038666293025016785,
        -0.00455913320183754,
        -0.06659157574176788,
        -0.06108589097857475,
        -0.05767131224274635,
        0.10249152779579163,
        -0.086915023624897,
        -0.08166318386793137,
        -0.014590078964829445,
        0.015862422063946724,
        0.02637593448162079,
        0.016246099025011063,
        -0.047595035284757614,
        -0.07638505101203918,
        -0.027528710663318634,
        -0.04987756162881851,
        0.09243632853031158,
        -0.117717444896698,
        -0.06489620357751846,
        -0.08701832592487335,
        -0.00012077298015356064,
        0.08699356764554977,
        0.11298780888319016,
        -0.10550180077552795,
        0.01591450348496437,
        0.06629598140716553,
        0.06981556862592697,
        0.11003667116165161,
        -0.02371465414762497,
        -0.05468367040157318,
        0.05356702581048012,
        -0.057974446564912796,
        0.04693063348531723,
        -0.030505098402500153
      ],
      [
        0.05746794119477272,
        0.08974778652191162,
        0.1198032945394516,
        -0.08617925643920898,
        -0.06661184877157211,
        -0.036869995296001434,
        -0.07275976985692978,
        0.1044536754488945,
        -0.023271484300494194,
        -0.08398192375898361,
        -0.04084264859557152,
        -0.07738883048295975,
        0.05174177139997482,
        -0.09779321402311325,
        -0.09908334165811539,
        -0.12552563846111298,
        0.04545462504029274,
        0.0702056810259819,
        -0.0851437970995903,
        0.0208821389824152,
        0.06969195604324341,
        0.0020574233494699,
        -0.012377447448670864,
        0.01919848658144474,
        -0.01765632815659046,
        0.07136257737874985,
        -0.08780928701162338,
        0.0696193277835846,
        0.07540608197450638,
        -0.058094825595617294,
        0.08561331778764725,
        0.09418440610170364,
        -0.029007093980908394,
        -0.04236709699034691,
        0.06130646914243698,
        -0.08468911051750183,
        0.028332918882369995,
        0.011495538987219334,
        0.060825545340776443,
        -0.10165566205978394,
        -0.07750153541564941,
        0.03636287525296211,
        0.05475737899541855,
        -0.08874358236789703,
        -0.04862784221768379,
        -0.10161224752664566,
        -0.09561116248369217,
        -0.04344518855214119,
        0.10818053781986237,
        -0.025888759642839432,
        0.07980642467737198,
        0.09618066251277924,
        0.05291863530874252,
        -0.1018035039305687,
        0.04001806303858757,
        0.03414024040102959,
        0.08763960748910904,
        -0.11979123204946518,
        0.08444531261920929,
        0.098015695810318,
        -0.09172122925519943,
        0.01009452249854803,
        0.09872149676084518,
        -0.07443202286958694,
        0.03498472273349762,
        0.04628380015492439,
        0.01464888360351324,
        0.10673386603593826,
        0.08025234192609787,
        0.09924124926328659,
        -0.02836342342197895,
        0.09751908481121063,
        -0.1198498085141182,
        -0.07452728599309921,
        -0.00813959538936615,
        -0.04919993504881859,
        0.11883949488401413,
        0.06752937287092209,
        0.0783965066075325,
        0.07445085048675537
      ],
      [
        -0.10401707142591476,
        0.007948472164571285,
        -0.004728736821562052,
        0.009962626732885838,
        0.03817826882004738,
        -0.058311961591243744,
        -0.03891313448548317,
        0.10835514962673187,
        -0.009784416295588017,
        -0.08516202867031097,
        0.05940589681267738,
        0.09670383483171463,
        -0.04388151690363884,
        -0.01636718399822712,
        -0.10000479966402054,
        -0.07253963500261307,
        0.06211497634649277,
        -0.06853455305099487,
        0.1100313737988472,
        -0.07560676336288452,
        0.0049198707565665245,
        0.023010293021798134,
        0.03982456773519516,
        0.0700121819972992,
        0.09598738700151443,
        0.028511831536889076,
        -0.04166300967335701,
        -0.09737510979175568,
        -0.1207013949751854,
        -0.011954406276345253,
        0.10832740366458893,
        -0.00021829712204635143,
        -0.02559042163193226,
        -0.06067933514714241,
        0.024909190833568573,
        0.07362224161624908,
        -0.08919938653707504,
        -0.05790603160858154,
        0.10327745229005814,
        0.03201406076550484,
        -0.027888089418411255,
        0.04049887880682945,
        -0.03785688430070877,
        -0.0991039127111435,
        -0.12369702011346817,
        0.07512590289115906,
        0.0077065397053956985,
        -0.061904147267341614,
        -0.049845848232507706,
        -0.043411191552877426,
        -0.054102230817079544,
        -0.0809946209192276,
        0.08066841959953308,
        0.061028458178043365,
        -0.03550853207707405,
        -0.01964757777750492,
        0.06245867908000946,
        -0.0302758626639843,
        0.008481858298182487,
        0.04257937893271446,
        -0.0908161848783493,
        0.020967997610569,
        0.002639926504343748,
        0.10888691991567612,
        -0.03783814609050751,
        -0.042740654200315475,
        0.11720012873411179,
        -0.07448437064886093,
        0.026292556896805763,
        0.10221724957227707,
        -0.029219474643468857,
        0.08753238618373871,
        0.12021098285913467,
        0.12447665631771088,
        -0.03170648589730263,
        0.12224137037992477,
        -0.0697498545050621,
        -0.05911923199892044,
        0.034838367253541946,
        0.03609797731041908
      ]
    ],
    "net.2.bias": [
      0.07912758737802505,
      0.11728014796972275,
      -0.05975164845585823,
      0.07134701311588287,
      0.04634260758757591,
      0.048800285905599594,
      0.05846080556511879,
      -0.05014493688941002
    ]
  },
  "F2": {
    "n_in": 8,
    "n_hid": 60,
    "n_out": 8,
    "activation": "tanh",
    "net.0.weight": [
      [
        0.29455819725990295,
        -0.3386041522026062,
        -0.18829840421676636,
        -0.36477282643318176,
        0.10930369049310684,
        -0.2923966646194458,
        0.13253843784332275,
        -0.2654325067996979
      ],
      [
        -0.24204856157302856,
        -0.20045767724514008,
        0.07312256842851639,
        0.3051111698150635,
        0.3516870439052582,
        -0.04682430624961853,
        -0.32592812180519104,
        -0.1371300369501114
      ],
      [
        -0.1511385142803192,
        -0.09524869173765182,
        0.15539634227752686,
        0.15770217776298523,
        0.1773861050605774,
        0.08053214102983475,
        -0.12221944332122803,
        -0.024244341999292374
      ],
      [
        0.039101071655750275,
        -0.18896698951721191,
        -0.0236514825373888,
        -0.05138012394309044,
        -0.31933456659317017,
        0.23295046389102936,
        -0.03065519779920578,
        -0.31799909472465515
      ],
      [
        0.2637616991996765,
        -0.21044595539569855,
        0.14551492035388947,
        0.330941379070282,
        0.036760881543159485,
        0.08128495514392853,
        0.16055965423583984,
        0.2468799203634262
      ],
      [
        -0.12536481022834778,
        -0.2192000448703766,
        -0.007244122214615345,
        0.2565104365348816,
        0.050919778645038605,
        0.22508662939071655,
        0.01792685128748417,
        0.08803530782461166
      ],
      [
        -0.006846230011433363,
        -0.010725844651460648,
        -0.31580907106399536,
        -0.32914596796035767,
        0.04996633529663086,
        0.1542922854423523,
        0.2571066915988922,
        -0.004805494099855423
      ],
      [
        0.16299979388713837,
        0.16602566838264465,
        -0.32344505190849304,
        -0.29435938596725464,
        -0.28991732001304626,
        0.023675069212913513,
        -0.23955172300338745,
        -0.09637821465730667
      ],
      [
        -0.07296197861433029,
        0.11748383194208145,
        0.10262389481067657,
        0.30732405185699463,
        0.33953502774238586,
        -0.24641945958137512,
        0.019985245540738106,
        0.037683021277189255
      ],
      [
        0.315757691860199,
        -0.10243500024080276,
        -0.1463003307580948,
        -0.2157161682844162,
        0.256809800863266,
        -0.09242274612188339,
        -0.1408323049545288,
        0.24539925158023834
      ],
      [
        0.32462507486343384,
        -0.02257433906197548,
        -0.241744264960289,
        0.28349077701568604,
        -0.10125289857387543,
        -0.1677747219800949,
        -0.24684682488441467,
        -0.18471385538578033
      ],
      [
        -0.2605772018432617,
        -0.18395280838012695,
        -0.3423624336719513,
        -0.05156860128045082,
        0.12166391313076019,
        -0.24802185595035553,
        -0.02075263485312462,
        -0.11003264039754868
      ],
      [
        0.15819314122200012,
        0.29029545187950134,
        -0.03069162927567959,
        -0.19514136016368866,
        -0.2514365613460541,
        -0.2226041704416275,
        0.116785928606987,
        0.06109066307544708
      ],
      [
        0.19511301815509796,
        -0.03712119162082672,
        0.16577115654945374,
        -0.3018116354942322,
        0.0742613822221756,
        0.35603636503219604,
        -0.3593038022518158,
        -0.16301366686820984
      ],
      [
        0.2431478500366211,
        -0.035872992128133774,
        -0.2080429643392563,
        0.23402810096740723,
        0.004421488381922245,
        0.03317466005682945,
        -0.12558281421661377,
        0.28518399596214294
      ],
      [
        0.21343421936035156,
        0.08374364674091339,
        0.03340692073106766,
        0.20217007398605347,
        0.1999998688697815,
        -0.12452802807092667,
        -0.05786828324198723,
        0.17527464032173157
      ],
      [
        -0.18854300677776337,
        0.31428593397140503,
        -0.22598500549793243,
        0.14658263325691223,
        -0.24235579371452332,
        0.09689344465732574,
        0.2643436789512634,
        0.02697635628283024
      ],
      [
        -0.028955288231372833,
        0.23658671975135803,
        -0.26549583673477173,
        -0.22854581475257874,
        -0.31339991092681885,
        -0.2069060355424881,
        -0.00017560413107275963,
        -0.15051275491714478
      ],
      [
        0.07072983682155609,
        -0.005465502385050058,
        0.3118094205856323,
        -0.16869162023067474,
        -0.07848358154296875,
        0.21713654696941376,
        -0.07529723644256592,
        0.322139710187912
      ],
      [
        -0.15263794362545013,
        -0.014155869372189045,
        -0.07316044718027115,
        0.1525459885597229,
        0.14147429168224335,
        -0.19968846440315247,
        0.24569515883922577,
        -0.03234623372554779
      ],
      [
        -0.1073056310415268,
        -0.026010436937212944,
        0.2646928131580353,
        0.3296700417995453,
        0.18757182359695435,
        0.0438871905207634,
        0.24758420884609222,
        -0.16601577401161194
      ],
      [
        -0.19753076136112213,
        -0.11212949454784393,
        -0.2187751978635788,
        0.14021004736423492,
        0.038109153509140015,
        -0.1318960040807724,
        -0.02340519428253174,
        -0.016204535961151123
      ],
      [
        0.3233475089073181,
        0.3361126184463501,
        -0.29273688793182373,
        0.1496286392211914,
        0.12300704419612885,
        0.15584880113601685,
        -0.06875594705343246,
        0.10809512436389923
      ],
      [
        0.06990955770015717,
        0.3244941830635071,
        -0.31898033618927,
        -0.1535710096359253,
        -0.21867886185646057,
        -0.19137397408485413,
        0.088883176445961,
        0.19648481905460358
      ],
      [
        -0.2585967779159546,
        0.20999769866466522,
        0.3156716227531433,
        -0.19441527128219604,
        0.08255694061517715,
        -0.2018655687570572,
        0.08983644098043442,
        -0.18452830612659454
      ],
      [
        -0.12448813766241074,
        -0.21943940222263336,
        -0.31261423230171204,
        0.29885345697402954,
        -0.06249592453241348,
        0.007112074177712202,
        -0.19068749248981476,
        0.2633039653301239
      ],
      [
        -0.21439804136753082,
        -0.16069313883781433,
        -0.2581934630870819,
        -0.31298306584358215,
        0.3317016363143921,
        -0.289848655462265,
        -0.03439236059784889,
        -0.1186608076095581
      ],
      [
        0.140706405043602,
        0.1125534251332283,
        -0.2890205383300781,
        0.33306416869163513,
        -0.3705090284347534,
        0.05215352773666382,
        -0.044252097606658936,
        -0.06542077660560608
      ],
      [
        0.2500787675380707,
        0.3006727695465088,
        0.04388274624943733,
        -0.11919957399368286,
        0.2722285985946655,
        0.22645440697669983,
        0.05550725758075714,
        -0.09577717632055283
      ],
      [
        -0.0036693259608000517,
        0.29496830701828003,
        0.05864206701517105,
        -0.0888720452785492,
        -0.27939680218696594,
        -0.20963716506958008,
        0.2745571434497833,
        -0.03222726285457611
      ],
      [
        -0.015698229894042015,
        0.1568264216184616,
        -0.2517051696777344,
        -0.008695152588188648,
        -0.11877521872520447,
        0.2023114114999771,
        0.275461882352829,
        0.2398485243320465
      ],
      [
        0.2821199297904968,
        -0.2953073978424072,
        -0.14639237523078918,
        0.06248631328344345,
        -0.3210967481136322,
        0.11696594208478928,
        -0.25203657150268555,
        0.17221809923648834
      ],
      [
        0.30054759979248047,
        -0.283578097820282,
        0.2773449420928955,
        0.18211787939071655,
        -0.2522338032722473,
        0.3569258153438568,
        -0.32315918803215027,
        -0.22005121409893036
      ],
      [
        -0.15779055655002594,
        0.002588933799415827,
        0.042869605123996735,
        -0.08408322930335999,
        -0.3554282784461975,
        -0.020111585035920143,
        0.24839498102664948,
        0.29255470633506775
      ],
      [
        0.17868027091026306,
        0.046427033841609955,
        0.09199590981006622,
        -0.2743534445762634,
        0.1527308225631714,
        -0.3539361357688904,
        -0.14660188555717468,
        -0.09998612105846405
      ],
      [
        0.246762216091156,
        -0.029707426205277443,
        -0.1414557248353958,
        0.04416714981198311,
        -0.27362480759620667,
        -0.11272820830345154,
        0.11446613073348999,
        -0.04212318733334541
      ],
      [
        -0.05713178589940071,
        0.19569031894207,
        -0.24796393513679504,
        -0.1989409625530243,
        0.3628077507019043,
        0.049532175064086914,
        -0.03624136000871658,
        0.16260752081871033
      ],
      [
        0.21623456478118896,
        -0.07681310176849365,
        -0.12961870431900024,
        -0.06640200316905975,
        0.14784106612205505,
        -0.05883926525712013,
        0.21048007905483246,
        -0.30299997329711914
      ],
      [
        -0.1554649919271469,
        0.28998780250549316,
        0.025707079097628593,
        0.09165675938129425,
        0.0955815538764,
        -0.06264787912368774,
        -0.162446990609169,
        0.1220615953207016
      ],
      [
        -0.1060759425163269,
        -0.16305090487003326,
        0.06381981819868088,
        0.06601927429437637,
        -0.01147619541734457,
        -0.25508788228034973,
        -0.037590913474559784,
        -0.22065626084804535
      ],
      [
        0.1669938862323761,
        -0.2546023428440094,
        0.30238237977027893,
        0.12096044421195984,
        -0.2823723554611206,
        0.24176931381225586,
        -0.3292850852012634,
        -0.040912799537181854
      ],
      [
        -0.203952819108963,
        -0.2842779755592346,
        0.01505788043141365,
        -0.15279968082904816,
        0.2356565296649933,
        -0.25806576013565063,
        0.2746865749359131,
        0.23284292221069336
      ],
      [
        0.2988542318344116,
        -0.12298975884914398,
        -0.19727823138237,
        -0.25294792652130127,
        0.31396371126174927,
        -0.19482649862766266,
        -0.025827966630458832,
        -0.07397081702947617
      ],
      [
        0.07081246376037598,
        -0.2931842803955078,
        0.28955337405204773,
        -0.25710952281951904,
        0.36804816126823425,
        -0.13546264171600342,
        -0.16535168886184692,
        -0.06587542593479156
      ],
      [
        0.1001114621758461,
        -0.06306386739015579,
        -0.35550135374069214,
        0.24774540960788727,
        0.33063217997550964,
        0.17838896811008453,
        0.3494091331958771,
        0.1054687350988388
      ],
      [
        -0.007967302575707436,
        -0.2667522132396698,
        -0.3242641091346741,
        -0.22785936295986176,
        -0.10059723258018494,
        0.22271671891212463,
        -0.16249948740005493,
        -0.0001572086475789547
      ],
      [
        0.014217554591596127,
        -0.21076181530952454,
        -0.03008764609694481,
        0.3614670932292938,
        0.26205819845199585,
        0.2899547517299652,
        -0.05552005395293236,
        0.026766281574964523
      ],
      [
        0.21297146379947662,
        -0.09762437641620636,
        -0.16341723501682281,
        0.32228630781173706,
        0.002728118561208248,
        -0.21888110041618347,
        0.27911826968193054,
        0.07860849052667618
      ],
      [
        0.17264437675476074,
        -0.32692915201187134,
        0.08563357591629028,
        0.19751274585723877,
        -0.031124772503972054,
        -0.22086021304130554,
        0.301510751247406,
        0.1450478881597519
      ],
      [
        0.12097084522247314,
        0.10418529063463211,
        -0.01297056395560503,
        0.223345085978508,
        -0.09800499677658081,
        -0.18712005019187927,
        0.113960400223732,
        0.11503851413726807
      ],
      [
        0.14704664051532745,
        -0.021885111927986145,
        -0.06658904999494553,
        -0.008411812596023083,
        0.07260836660861969,
        -0.2540219724178314,
        -0.34957191348075867,
        0.15271317958831787
      ],
      [
        -0.19877241551876068,
        -0.05029767006635666,
        0.11877450346946716,
        0.029556717723608017,
        0.24870707094669342,
        0.02558204159140587,
        0.10466043651103973,
        -0.05214961618185043
      ],
      [
        0.03568785637617111,
        0.10920336842536926,
        0.26176461577415466,
        -0.35416579246520996,
        -0.12703044712543488,
        -0.337668776512146,
        -0.12240594625473022,
        0.1955234259366989
      ],
      [
        -0.3378424048423767,
        -0.31941843032836914,
        0.20725183188915253,
        -0.21128526329994202,
        0.2651255130767822,
        0.1080213263630867,
        0.08992386609315872,
        0.2769245207309723
      ],
      [
        -0.33853989839553833,
        0.25084251165390015,
        0.12280428409576416,
        -0.24715204536914825,
        0.08776288479566574,
        -0.10779378563165665,
        -0.13072717189788818,
        -0.04556423798203468
      ],
      [
        -0.14855949580669403,
        0.32795250415802,
        0.28540870547294617,
        -0.019424444064497948,
        -0.3275177776813507,
        -0.002758671995252371,
        0.004652792122215033,
        0.25425058603286743
      ],
      [
        0.031350623816251755,
        0.12349266558885574,
        0.07304909080266953,
        -0.1803898960351944,
        -0.23976851999759674,
        -0.29507976770401,
        -0.023412974551320076,
        0.12995557487010956
      ],
      [
        -0.008620036765933037,
        0.36298316717147827,
        -0.08732578158378601,
        -0.21224938333034515,
        0.03935603052377701,
        -0.07984703779220581,
        -0.06699025630950928,
        0.3617922067642212
      ],
      [
        -0.002928517758846283,
        0.3105229139328003,
        0.0474972277879715,
        -0.12758569419384003,
        0.26593610644340515,
        -0.1998831331729889,
        0.008196099661290646,
        0.07937392592430115
      ],
      [
        0.15665951371192932,
        -0.3292645514011383,
        0.0202478114515543,
        -0.09436231851577759,
        0.22838211059570312,
        0.11596451699733734,
        0.14518284797668457,
        0.2109278440475464
      ]
    ],
    "net.0.bias": [
      -0.09159956872463226,
      -0.03860902413725853,
      0.2673773765563965,
      -0.2814907729625702,
      -0.25992128252983093,
      0.010238688439130783,
      -0.14590579271316528,
      0.03465940058231354,
      0.2978876531124115,
      -0.02958422712981701,
      -0.29184678196907043,
      -0.1453590840101242,
      0.3164481222629547,
      -0.09110426157712936,
      -0.14073608815670013,
      0.17174032330513,
      0.027273723855614662,
      -0.30023133754730225,
      0.2823869585990906,
      0.18484346568584442,
      0.294556200504303,
      0.14173166453838348,
      -0.10043001919984818,
      -0.1297828108072281,
      0.1800345480442047,
      -0.05741608515381813,
      0.05734260007739067,
      -0.32936233282089233,
      -0.16072523593902588,
      0.11760316044092178,
      -0.007990684360265732,
      -0.16311033070087433,
      -0.2935921847820282,
      0.23894497752189636,
      -0.06241457164287567,
      -0.35946473479270935,
      0.3258059322834015,
      0.17049540579319,
      -0.19915184378623962,
      -0.26463839411735535,
      0.32570183277130127,
      0.016226960346102715,
      -0.22493132948875427,
      0.22040137648582458,
      -0.08739738911390305,
      0.040519870817661285,
      -0.1686817854642868,
      -0.28730979561805725,
      -0.24866168200969696,
      -0.026916703209280968,
      -0.2465370148420334,
      0.3452293574810028,
      -0.008280093781650066,
      -0.12939362227916718,
      0.12575651705265045,
      -0.296517550945282,
      -0.1666366159915924,
      0.148361474275589,
      -0.29908955097198486,
      0.16680775582790375
    ],
    "net.2.weight": [
      [
        -0.002654026262462139,
        -0.1272321194410324,
        -0.137033611536026,
        0.049218446016311646,
        0.06968611478805542,
        -0.012258145958185196,
        -0.10541927814483643,
        -0.055137645453214645,
        0.004194727633148432,
        0.011881416663527489,
        0.042738184332847595,
        0.021852383390069008,
        -0.011503024958074093,
        0.07565826177597046,
        0.1365947723388672,
        0.1006016731262207,
        0.13686075806617737,
        -0.034172460436820984,
        -0.0486731193959713,
        -0.024720165878534317,
        0.027862079441547394,
        0.044200267642736435,
        0.00010110950097441673,
        -0.07086913287639618,
        -0.10880213230848312,
        0.13732078671455383,
        -0.04772534966468811,
        -0.006703660823404789,
        -0.07134608924388885,
        -0.06872553378343582,
        0.04345357418060303,
        0.06601285189390182,
        -0.042255911976099014,
        -0.05124795064330101,
        0.08958420157432556,
        -0.05727830529212952,
        -0.10255035758018494,
        -0.03134392574429512,
        0.13224393129348755,
        0.029598593711853027,
        0.012799588963389397,
        -0.036448270082473755,
        0.08187273144721985,
        -0.07591213285923004,
        0.09613674134016037,
        0.04329992085695267,
        0.021650679409503937,
        0.024859106168150902,
        -0.07624904811382294,
        0.10694566369056702,
        0.07640160620212555,
        -0.11079060286283493,
        -0.12421303242444992,
        -0.038189467042684555,
        0.07576745003461838,
        -0.05352162942290306,
        0.12799371778964996,
        -0.061628807336091995,
        -0.11089945584535599,
        0.046433914452791214
      ],
      [
        -0.09022317826747894,
        -0.034102968871593475,
        -0.048463236540555954,
        -0.0030277289915829897,
        -0.10497445613145828,
        -0.10761161148548126,
        0.0635167583823204,
        -0.00023672007955610752,
        -0.08747828751802444,
        0.0012216393370181322,
        -0.1060342863202095,
        0.027755839750170708,
        0.06302394717931747,
        0.12466265261173248,
        -0.08717843145132065,
        -0.01945016160607338,
        0.08395407348871231,
        0.12830698490142822,
        -0.09107669442892075,
        0.04158429428935051,
        0.040782712399959564,
        0.07240685075521469,
        -0.06929786503314972,
        0.11187565326690674,
        -0.07388085871934891,
        -0.05910160019993782,
        0.005082188174128532,
        0.12448427826166153,
        -0.07959293574094772,
        0.07186289876699448,
        0.0059940749779343605,
        0.058730266988277435,
        0.10784853994846344,
        0.03845604136586189,
        -0.11850934475660324,
        -0.02950906939804554,
        0.02428284101188183,
        -0.12484267354011536,
        0.031788695603609085,
        -0.07439348846673965,
        -0.02586151473224163,
        0.028619490563869476,
        -0.10977254807949066,
        -0.10154183954000473,
        0.06724418699741364,
        -0.11570213735103607,
        0.09233789145946503,
        -0.09606102854013443,
        -0.005891371984034777,
        0.04455973207950592,
        0.05741270259022713,
        -0.09127602726221085,
        0.006812935695052147,
        0.04670540243387222,
        0.09782533347606659,
        -0.08526588976383209,
        -0.05795973539352417,
        0.04631857946515083,
        -0.0035971212200820446,
        -0.10117721557617188
      ],
      [
        -0.1273110955953598,
        -0.1350303590297699,
        -0.07596303522586823,
        -0.06951817125082016,
        -0.10418611764907837,
        -0.09599670767784119,
        -0.0045103877782821655,
        0.09591368585824966,
        -0.046711452305316925,
        -0.0003559645265340805,
        -0.015292210504412651,
        0.04405122622847557,
        -0.07401589304208755,
        -0.009021678008139133,
        0.10965172946453094,
        0.10737604647874832,
        -0.10809771716594696,
        -0.03357362747192383,
        0.016595756635069847,
        -0.029421407729387283,
        -0.07126842439174652,
        -0.07523654401302338,
        0.0781339630484581,
        -0.05142148956656456,
        0.0029374135192483664,
        0.03220784291625023,
        -0.07569578289985657,
        -0.0012951554963365197,
        0.0623646005988121,
        -0.060121431946754456,
        0.044023480266332626,
        -0.01574864611029625,
        0.05658530816435814,
        0.10139614343643188,
        0.01614854484796524,
        -0.010420368984341621,
        -0.09592858701944351,
        0.06396862119436264,
        0.06470571458339691,
        -0.06291307508945465,
        -0.11283327639102936,
        0.08425597846508026,
        -0.04634443297982216,
        0.036792632192373276,
        -0.05053048953413963,
        0.10120180249214172,
        0.11115560680627823,
        0.06598907709121704,
        -0.05692315474152565,
        0.07980763167142868,
        0.04841509088873863,
        0.02644660323858261,
        -0.1165088340640068,
        -0.07255752384662628,
        -0.11447636038064957,
        0.0725293979048729,
        0.11290910840034485,
        0.092171311378479,
        0.02591639757156372,
        0.043757107108831406
      ],
      [
        0.13574951887130737,
        -0.055314112454652786,
        -0.055884599685668945,
        -0.10355383157730103,
        -0.000339734397130087,
        -0.0037017855793237686,
        0.047761086374521255,
        -0.10006371885538101,
        -0.02751964144408703,
        -0.09252852946519852,
        -0.09240507334470749,
        0.028856391087174416,
        -0.13831393420696259,
        0.04732883721590042,
        -0.10565610975027084,
        -0.10199198126792908,
        -0.03825462609529495,
        -0.11068081855773926,
        0.09203490614891052,
        0.09292316436767578,
        -0.0801723301410675,
        0.014456508681178093,
        0.07985170185565948,
        0.05428142100572586,
        -0.030378296971321106,
        -0.10813144594430923,
        0.07997570931911469,
        -0.10046256333589554,
        -0.011305464431643486,
        -0.00445581553503871,
        -0.03015241213142872,
        -0.03404286131262779,
        -0.09900706261396408,
        -0.005139575339853764,
        -0.00290242163464427,
        0.12502704560756683,
        -0.054809752851724625,
        0.08703704923391342,
        0.01868889294564724,
        -0.04597971960902214,
        -0.042974792420864105,
        -0.005123475566506386,
        0.01353702787309885,
        -0.034232549369335175,
        0.05081064626574516,
        0.0955570861697197,
        0.03274960070848465,
        0.05913569778203964,
        0.09186038374900818,
        0.04102544113993645,
        0.07213792949914932,
        0.055098019540309906,
        0.12325820326805115,
        -0.10604704916477203,
        0.0313909687101841,
        0.006750672589987516,
        -0.010683901607990265,
        -0.06151839718222618,
        0.08997680991888046,
        0.10554789006710052
      ],
      [
        -0.10090167820453644,
        0.07570882886648178,
        0.08839277178049088,
        0.02336559072136879,
        0.0021633978467434645,
        0.09649432450532913,
        0.005143353249877691,
        -0.038393285125494,
        -0.009979371912777424,
        0.036030080169439316,
        0.03195830434560776,
        -0.0045472402125597,
        0.039153724908828735,
        0.0354948416352272,
        -0.10860365629196167,
        0.030306851491332054,
        0.07409645617008209,
        0.01536067109555006,
        -0.013345818966627121,
        0.0998046025633812,
        -0.11256016045808792,
        -0.05944453924894333,
        -0.06661935150623322,
        0.10822753608226776,
        -0.12187366932630539,
        0.002688013482838869,
        -0.11236301809549332,
        -0.0051955003291368484,
        0.04843941703438759,
        -0.03099014051258564,
        0.10757989436388016,
        -0.0028563414234668016,
        -0.0656016543507576,
        0.03172050788998604,
        0.07062853872776031,
        0.0004101970698684454,
        0.10912458598613739,
        -0.08056426048278809,
        0.05529902130365372,
        0.07544305175542831,
        0.0624772347509861,
        0.007661778479814529,
        0.03887104615569115,
        -0.09919542819261551,
        -0.10047543793916702,
        -0.012737737037241459,
        -0.015664899721741676,
        0.09689703583717346,
        0.09569505602121353,
        0.08308909088373184,
        -0.05861717835068703,
        -0.10140237957239151,
        -0.10506387799978256,
        0.04979470372200012,
        -0.115115687251091,
        -0.12867066264152527,
        -0.06432066112756729,
        -0.11194904893636703,
        -0.04932653531432152,
        -0.08097794651985168
      ],
      [
        -0.07546473294496536,
        0.11100051552057266,
        -0.020782586187124252,
        0.10307253152132034,
        -0.0010517227929085493,
        -0.00859858002513647,
        -0.04146505147218704,
        -0.08132795244455338,
        -0.10054811090230942,
        0.08728404343128204,
        -0.04263661801815033,
        -0.13228583335876465,
        0.12373379617929459,
        -0.0016752765513956547,
        -0.08583750575780869,
        -0.09682507067918777,
        -0.09618677198886871,
        -0.11643055826425552,
        0.12206427752971649,
        0.09087415039539337,
        0.012822962366044521,
        -0.10607288032770157,
        -0.0313553661108017,
        -0.11913604289293289,
        0.04424856975674629,
        -0.03096482716500759,
        -0.031299807131290436,
        -0.04173746332526207,
        0.05665837973356247,
        0.07517777383327484,
        0.034807439893484116,
        -0.015911061316728592,
        -0.01647281087934971,
        0.0032911933958530426,
        -0.10529179871082306,
        0.12248318642377853,
        -0.05080503225326538,
        0.07631624490022659,
        -0.07549000531435013,
        -0.005227947141975164,
        0.04926496371626854,
        -0.13158711791038513,
        0.05316329374909401,
        -0.09961628168821335,
        0.014578296802937984,
        -0.016246715560555458,
        0.06956496089696884,
        0.12092394381761551,
        0.023384157568216324,
        -0.003426553215831518,
        -0.06769844144582748,
        0.05097068101167679,
        -0.06062892824411392,
        0.04582265391945839,
        -0.053688738495111465,
        0.08484844863414764,
        0.09506873041391373,
        0.08643729239702225,
        -0.0036028025206178427,
        0.062097907066345215
      ],
      [
        -0.12455050647258759,
        0.09508014470338821,
        -0.031013110652565956,
        0.04424561560153961,
        -0.024624554440379143,
        -0.03723408654332161,
        -0.06293094158172607,
        0.091988205909729,
        -0.06795139610767365,
        -0.026248661801218987,
        0.06280206888914108,
        0.00859528686851263,
        -0.10502200573682785,
        -0.13129933178424835,
        -0.06334150582551956,
        0.12196818739175797,
        -0.08121433854103088,
        0.06885875761508942,
        0.09602136164903641,
        -0.05175679177045822,
        -0.05519770085811615,
        -0.08993737399578094,
        0.020645778626203537,
        -0.017032166942954063,
        0.00680857477709651,
        0.05721873790025711,
        0.05278380587697029,
        -0.04213285818696022,
        0.0059057679027318954,
        0.034651707857847214,
        0.007023012265563011,
        0.025185782462358475,
        -0.055117107927799225,
        0.10967877507209778,
        -0.020367108285427094,
        -0.018935522064566612,
        -0.11249885708093643,
        -0.09233960509300232,
        0.0016800977755337954,
        -0.024117307737469673,
        -0.061487339437007904,
        0.05637923255562782,
        -0.015724681317806244,
        0.04524301737546921,
        0.10652653127908707,
        -0.052411820739507675,
        -0.0668538436293602,
        -0.02913648448884487,
        -0.014786404557526112,
        -0.06553824245929718,
        -0.03374645859003067,
        -0.001570928143337369,
        0.06260805577039719,
        0.11412492394447327,
        0.09776496142148972,
        0.011657802388072014,
        -0.010901606641709805,
        0.038126762956380844,
        -0.008570336736738682,
        -0.01513272151350975
      ],
      [
        0.028908327221870422,
        -0.1212378591299057,
        -0.10369475930929184,
        -0.0060433438047766685,
        -0.045320965349674225,
        -0.04963487386703491,
        -0.1268828809261322,
        0.10293034464120865,
        0.0002666864893399179,
        -0.07210338860750198,
        -0.056706905364990234,
        0.02204320766031742,
        -0.08422071486711502,
        0.0009022851008921862,
        -0.00012370647164061666,
        0.05236907675862312,
        0.06718823313713074,
        -0.08986423164606094,
        0.06502692401409149,
        0.10042589902877808,
        0.012127969413995743,
        0.07251884788274765,
        -0.04397191107273102,
        0.028214752674102783,
        0.0368584506213665,
        -0.05223992466926575,
        0.0706477090716362,
        -0.1242520809173584,
        -0.05495866760611534,
        -0.06695378571748734,
        -0.06054891273379326,
        -0.07736705988645554,
        -0.12754763662815094,
        0.03192313387989998,
        -0.04050106182694435,
        -0.11444662511348724,
        0.008462149649858475,
        -0.019897667691111565,
        0.048164356499910355,
        -0.11218512803316116,
        -0.027182240039110184,
        0.009372539818286896,
        0.04368763417005539,
        0.008933928795158863,
        0.029375821352005005,
        0.1446303427219391,
        -0.051868587732315063,
        0.08025076240301132,
        0.1008397713303566,
        -0.11282187700271606,
        0.02482949197292328,
        0.07768688350915909,
        -0.03693258389830589,
        0.057608433067798615,
        0.007351826410740614,
        0.09372364729642868,
        -0.004238411784172058,
        -0.0693587064743042,
        0.08917301148176193,
        0.041778985410928726
      ]
    ],
    "net.2.bias": [
      0.1022520512342453,
      0.027389103546738625,
      0.08343087881803513,
      0.06811439990997314,
      0.020631348714232445,
      -0.025657543912529945,
      0.029651978984475136,
      -0.08255121111869812
    ]
  }
}