{
  "name": "PV3",
  "type": "F1+H1+F2",
  "t_step": 0.01,
  "normfacs": {
    "G": {
      "scale": 1000.0,
      "offset": 809.2813110351562
    },
    "Ud": {
      "scale": 0.40000003576278687,
      "offset": 0.9999997615814209
    },
    "Uq": {
      "scale": 1.0,
      "offset": -3.3840739238621964e-11
    },
    "Vd": {
      "scale": 342.86944580078125,
      "offset": 230.29591369628906
    },
    "Vq": {
      "scale": 296.395751953125,
      "offset": -5.334640026092529
    },
    "GVrms": {
      "scale": 422296.6875,
      "offset": 262281.46875
    },
    "Ramp": {
      "scale": 1.0,
      "offset": 0.8093812465667725
    },
    "Vdc": {
      "scale": 635.2540283203125,
      "offset": 495.7726135253906
    },
    "Idc": {
      "scale": 4.1067023277282715,
      "offset": 1.8830465078353882
    },
    "Id": {
      "scale": 4.686577320098877,
      "offset": 2.4104905128479004
    },
    "Iq": {
      "scale": 4.055089473724365,
      "offset": -0.05657494440674782
    }
  },
  "model_folder": "./ucf4n",
  "model_root": "ucf4n",
  "data_path": "../../data/ucf4.hdf5",
  "lr": 0.001,
  "eps": 1e-08,
  "h5grp_prefix": "ucf",
  "num_iter": 1000,
  "continue_iterations": false,
  "print_freq": 20,
  "batch_size": 405,
  "n_validation_pct": 15,
  "n_validation_seed": 99,
  "n_skip": 0,
  "n_trunc": 0,
  "n_dec": 1,
  "n_loss_skip": 50,
  "n_pad": 100,
  "gtype": "stable2ndx",
  "na": 2,
  "nb": 3,
  "nk": 0,
  "activation": "tanh",
  "nh1": 80,
  "nh2": 60,
  "COL_T": [
    "t"
  ],
  "COL_Y": [
    "Vdc",
    "Idc",
    "Id",
    "Iq"
  ],
  "COL_U": [
    "G",
    "Ud",
    "Uq",
    "Vd",
    "Vq",
    "GVrms",
    "Ramp"
  ],
  "clamps": null,
  "sensitivity": {
    "limit": 0.01,
    "weight": 0.001,
    "delta": 0.01,
    "inputs": [
      "Vd",
      "Vq"
    ],
    "outputs": [
      "Id",
      "Iq"
    ],
    "GVrms": {
      "G": "G",
      "Vd": "Vd",
      "Vq": "Vq",
      "k": 1.2247449
    },
    "sets": {
      "G": [
        300.0,
        800.0
      ],
      "Ud": [
        0.9,
        1.1
      ],
      "Uq": [
        -0.4,
        0.4
      ],
      "Vd": [
        170.0,
        340.0
      ],
      "Vq": [
        -135.0,
        135.0
      ],
      "Ramp": [
        0.0,
        1.0
      ]
    }
  },
  "H1": {
    "n_in": 4,
    "n_out": 4,
    "n_b": 3,
    "n_a": 2,
    "n_k": 0,
    "b_0_0": [
      -0.02860945463180542,
      -0.0637047290802002,
      -0.1327679306268692
    ],
    "a_0_0": [
      -0.07831067591905594,
      -0.14168709516525269
    ],
    "alpha1_0_0": -0.0391753651201725,
    "alpha2_0_0": -0.38096562027931213,
    "b_0_1": [
      0.05621977895498276,
      -0.10337197780609131,
      -0.07733798027038574
    ],
    "a_0_1": [
      0.1571355015039444,
      0.08862745761871338
    ],
    "alpha1_0_1": 0.0787300169467926,
    "alpha2_0_1": 0.02183573506772518,
    "b_0_2": [
      -0.14705951511859894,
      0.1152770146727562,
      0.10578092187643051
    ],
    "a_0_2": [
      -0.13599811494350433,
      -0.16120892763137817
    ],
    "alpha1_0_2": -0.06810415536165237,
    "alpha2_0_2": -0.5021545886993408,
    "b_0_3": [
      -0.30777621269226074,
      -0.06288135796785355,
      0.05431562289595604
    ],
    "a_0_3": [
      -0.29474374651908875,
      0.19601023197174072
    ],
    "alpha1_0_3": -0.14845289289951324,
    "alpha2_0_3": 0.11421430110931396,
    "b_1_0": [
      -0.17485074698925018,
      0.043091967701911926,
      0.17663590610027313
    ],
    "a_1_0": [
      -0.8802682161331177,
      0.24551260471343994
    ],
    "alpha1_1_0": -0.4723971486091614,
    "alpha2_1_0": -0.7254720330238342,
    "b_1_1": [
      0.1999816596508026,
      -1.6866615624167025e-05,
      0.0035083405673503876
    ],
    "a_1_1": [
      0.44492143392562866,
      0.23490464687347412
    ],
    "alpha1_1_1": 0.22624346613883972,
    "alpha2_1_1": 0.03201133757829666,
    "b_1_2": [
      -0.41014400124549866,
      -0.2894968092441559,
      -0.32363560795783997
    ],
    "a_1_2": [
      -0.43414634466171265,
      0.02537238597869873
    ],
    "alpha1_1_2": -0.2205825001001358,
    "alpha2_1_2": -0.4998568594455719,
    "b_1_3": [
      -0.18147380650043488,
      0.033476050943136215,
      -0.09111903607845306
    ],
    "a_1_3": [
      0.4184929132461548,
      -0.017765820026397705
    ],
    "alpha1_1_3": 0.21238316595554352,
    "alpha2_1_3": -0.5907696485519409,
    "b_2_0": [
      0.0020772037096321583,
      -0.05846149101853371,
      -0.17360591888427734
    ],
    "a_2_0": [
      -0.2671796679496765,
      0.005053997039794922
    ],
    "alpha1_2_0": -0.13439315557479858,
    "alpha2_2_0": -0.2989150583744049,
    "b_2_1": [
      0.2328837662935257,
      0.19909203052520752,
      0.2115766406059265
    ],
    "a_2_1": [
      -0.4458647072315216,
      0.04965043067932129
    ],
    "alpha1_2_1": -0.22673971951007843,
    "alpha2_2_1": -0.45361050963401794,
    "b_2_2": [
      -0.19850029051303864,
      -0.032223425805568695,
      -0.004837084095925093
    ],
    "a_2_2": [
      0.011416492983698845,
      -0.15130281448364258
    ],
    "alpha1_2_2": 0.005708308424800634,
    "alpha2_2_2": -0.3184901475906372,
    "b_2_3": [
      -0.3991856873035431,
      -0.20552784204483032,
      -0.09469699114561081
    ],
    "a_2_3": [
      -0.42676636576652527,
      0.12264001369476318
    ],
    "alpha1_2_3": -0.21671326458454132,
    "alpha2_2_3": -0.2317492663860321,
    "b_3_0": [
      0.3070967495441437,
      0.09100448340177536,
      -0.10397110134363174
    ],
    "a_3_0": [
      -0.5924923419952393,
      0.3288792371749878
    ],
    "alpha1_3_0": -0.3053995966911316,
    "alpha2_3_0": 0.09280651807785034,
    "b_3_1": [
      -0.3419562578201294,
      -0.12595762312412262,
      -0.17961855232715607
    ],
    "a_3_1": [
      -0.6306076049804688,
      0.21867072582244873
    ],
    "alpha1_3_1": -0.32642385363578796,
    "alpha2_3_1": -0.2841622531414032,
    "b_3_2": [
      0.44379928708076477,
      0.17400376498699188,
      0.2870035469532013
    ],
    "a_3_2": [
      -0.41413432359695435,
      0.02202296257019043
    ],
    "alpha1_3_2": -0.21010516583919525,
    "alpha2_3_2": -0.47549474239349365,
    "b_3_3": [
      -0.1540653556585312,
      -0.1463167667388916,
      0.008488120511174202
    ],
    "a_3_3": [
      -0.4252563714981079,
      0.1910712718963623
    ],
    "alpha1_3_3": -0.21592237055301666,
    "alpha2_3_3": -0.054769981652498245
  },
  "H1s": {
    "n_in": 4,
    "n_out": 4,
    "n_a": 3,
    "n_b": 3,
    "b_0_0": [
      -0.02860945463180542,
      -12.0923638343811,
      -2250.821143388752
    ],
    "a_0_0": [
      1.0,
      192.1689324080944,
      7800.022289156915
    ],
    "b_0_1": [
      0.05621977895498276,
      0.9067580103874171,
      -1244.9017912149438
    ],
    "a_0_1": [
      1.0,
      215.71355015039438,
      12457.62959122657
    ],
    "b_0_2": [
      -0.14705951511859894,
      -17.884201556444168,
      739.9842143058772
    ],
    "a_0_2": [
      1.0,
      186.40018850564957,
      7027.929574251175
    ],
    "b_0_3": [
      -0.30777621269226074,
      -67.8433783352375,
      -3163.419477641583
    ],
    "a_0_3": [
      1.0,
      170.52562534809113,
      9012.66485452652
    ],
    "b_1_0": [
      -0.17485074698925018,
      -30.66095262765888,
      448.77126812935626
    ],
    "a_1_0": [
      1.0,
      111.97317838668823,
      3652.443885803222
    ],
    "b_1_1": [
      0.1999816596508026,
      39.994645268598106,
      2034.7313360252886
    ],
    "a_1_1": [
      1.0,
      244.49214339256287,
      16798.260807991028
    ],
    "b_1_2": [
      -0.41014400124549866,
      -110.97848117351532,
      -10232.764184474945
    ],
    "a_1_2": [
      1.0,
      156.58536553382874,
      5912.260413169861
    ],
    "b_1_3": [
      -0.18147380650043488,
      -32.94715620577336,
      -2391.167916357517
    ],
    "a_1_3": [
      1.0,
      241.84929132461548,
      14007.27093219757
    ],
    "b_2_0": [
      0.0020772037096321583,
      -5.430708359926951,
      -2299.902061931781
    ],
    "a_2_0": [
      1.0,
      173.28203320503235,
      7378.743290901183
    ],
    "b_2_1": [
      0.2328837662935257,
      66.48595631122589,
      6435.5243742465955
    ],
    "a_2_1": [
      1.0,
      155.41352927684784,
      6037.857234477997
    ],
    "b_2_2": [
      -0.19850029051303864,
      -42.9224006831646,
      -2355.608004145325
    ],
    "a_2_2": [
      1.0,
      201.14164929836988,
      8601.136785000564
    ],
    "b_2_3": [
      -0.3991856873035431,
      -100.38992166519165,
      -6994.105204939842
    ],
    "a_2_3": [
      1.0,
      157.32336342334747,
      6958.736479282379
    ],
    "b_3_0": [
      0.3070967495441437,
      70.51979824900629,
      2941.301316022873
    ],
    "a_3_0": [
      1.0,
      140.75076580047607,
      7363.868951797485
    ],
    "b_3_1": [
      -0.3419562578201294,
      -80.98701387643814,
      -6475.32433271408
    ],
    "a_3_1": [
      1.0,
      136.93923950195312,
      5880.6312084198
    ],
    "b_3_2": [
      0.44379928708076477,
      106.16023391485214,
      9048.065990209583
    ],
    "a_3_2": [
      1.0,
      158.58656764030457,
      6078.886389732361
    ],
    "b_3_3": [
      -0.1540653556585312,
      -45.4447478055954,
      -2918.940018862486
    ],
    "a_3_3": [
      1.0,
      157.4743628501892,
      7658.149003982543
    ]
  },
  "Q1s": {
    "n_in": 4,
    "n_out": 4,
    "n_a": 2,
    "n_b": 3,
    "A_0_0": [
      [
        -192.1689324080944,
        -7800.022289156915
      ],
      [
        1.0,
        0.0
      ]
    ],
    "B_0_0": [
      1.0,
      0.0
    ],
    "C_0_0": [
      -6.594515481009241,
      -2027.666759580046
    ],
    "D_0_0": -0.02860945463180542,
    "A_0_1": [
      [
        -215.71355015039438,
        -12457.62959122657
      ],
      [
        1.0,
        0.0
      ]
    ],
    "B_0_1": [
      1.0,
      0.0
    ],
    "C_0_1": [
      -11.220610096662343,
      -1945.2669731367537
    ],
    "D_0_1": 0.05621977895498276,
    "A_0_2": [
      [
        -186.40018850564957,
        -7027.929574251175
      ],
      [
        1.0,
        0.0
      ]
    ],
    "B_0_2": [
      1.0,
      0.0
    ],
    "C_0_2": [
      9.527719783212095,
      1773.5081297829165
    ],
    "D_0_2": -0.14705951511859894,
    "A_0_3": [
      [
        -170.52562534809113,
        -9012.66485452652
      ],
      [
        1.0,
        0.0
      ]
    ],
    "B_0_3": [
      1.0,
      0.0
    ],
    "C_0_3": [
      -15.359647198622639,
      -389.53562245076546
    ],
    "D_0_3": -0.30777621269226074,
    "A_1_0": [
      [
        -111.97317838668823,
        -3652.443885803222
      ],
      [
        1.0,
        0.0
      ]
    ],
    "B_1_0": [
      1.0,
      0.0
    ],
    "C_1_0": [
      -11.082358743985878,
      1087.4038098983692
    ],
    "D_1_0": -0.17485074698925018,
    "A_1_1": [
      [
        -244.49214339256287,
        -16798.260807991028
      ],
      [
        1.0,
        0.0
      ]
    ],
    "B_1_1": [
      1.0,
      0.0
    ],
    "C_1_1": [
      -8.89929933862863,
      -1324.6127396037898
    ],
    "D_1_1": 0.1999816596508026,
    "A_1_2": [
      [
        -156.58536553382874,
        -5912.260413169861
      ],
      [
        1.0,
        0.0
      ]
    ],
    "B_1_2": [
      1.0,
      0.0
    ],
    "C_1_2": [
      -46.75593281698181,
      -7807.886042212093
    ],
    "D_1_2": -0.41014400124549866,
    "A_1_3": [
      [
        -241.84929132461548,
        -14007.27093219757
      ],
      [
        1.0,
        0.0
      ]
    ],
    "B_1_3": [
      1.0,
      0.0
    ],
    "C_1_3": [
      10.942155290337212,
      150.78485839127143
    ],
    "D_1_3": -0.18147380650043488,
    "A_2_0": [
      [
        -173.28203320503235,
        -7378.743290901183
      ],
      [
        1.0,
        0.0
      ]
    ],
    "B_2_0": [
      1.0,
      0.0
    ],
    "C_2_0": [
      -5.790650442113047,
      -2315.2292148680644
    ],
    "D_2_0": 0.0020772037096321583,
    "A_2_1": [
      [
        -155.41352927684784,
        -6037.857234477997
      ],
      [
        1.0,
        0.0
      ]
    ],
    "B_2_1": [
      1.0,
      0.0
    ],
    "C_2_1": [
      30.292668280264444,
      5029.405441138748
    ],
    "D_2_1": 0.2328837662935257,
    "A_2_2": [
      [
        -201.14164929836988,
        -8601.136785000564
      ],
      [
        1.0,
        0.0
      ]
    ],
    "B_2_2": [
      1.0,
      0.0
    ],
    "C_2_2": [
      -2.995724863166444,
      -648.2798535803299
    ],
    "D_2_2": -0.19850029051303864,
    "A_2_3": [
      [
        -157.32336342334747,
        -6958.736479282379
      ],
      [
        1.0,
        0.0
      ]
    ],
    "B_2_3": [
      1.0,
      0.0
    ],
    "C_2_3": [
      -37.5886867081376,
      -4216.277200693268
    ],
    "D_2_3": -0.3991856873035431,
    "A_3_0": [
      [
        -140.75076580047607,
        -7363.868951797485
      ],
      [
        1.0,
        0.0
      ]
    ],
    "B_3_0": [
      1.0,
      0.0
    ],
    "C_3_0": [
      27.29569557583106,
      679.8810968568246
    ],
    "D_3_0": 0.3070967495441437,
    "A_3_1": [
      [
        -136.93923950195312,
        -5880.6312084198
      ],
      [
        1.0,
        0.0
      ]
    ],
    "B_3_1": [
      1.0,
      0.0
    ],
    "C_3_1": [
      -34.15978398761581,
      -4464.4056910625795
    ],
    "D_3_1": -0.3419562578201294,
    "A_3_2": [
      [
        -158.58656764030457,
        -6078.886389732361
      ],
      [
        1.0,
        0.0
      ]
    ],
    "B_3_2": [
      1.0,
      0.0
    ],
    "C_3_2": [
      35.77962825549949,
      6350.260544201397
    ],
    "D_3_2": 0.44379928708076477,
    "A_3_3": [
      [
        -157.4743628501892,
        -7658.149003982543
      ],
      [
        1.0,
        0.0
      ]
    ],
    "B_3_3": [
      1.0,
      0.0
    ],
    "C_3_3": [
      -21.183404085980406,
      -1739.084568877889
    ],
    "D_3_3": -0.1540653556585312
  },
  "F1": {
    "n_in": 7,
    "n_hid": 80,
    "n_out": 4,
    "activation": "tanh",
    "net.0.weight": [
      [
        -0.17353440821170807,
        0.5558000206947327,
        -0.0932421088218689,
        -0.3849821984767914,
        0.1642610728740692,
        0.06336955726146698,
        -0.14124266803264618
      ],
      [
        0.36421066522598267,
        0.10660409927368164,
        0.16534744203090668,
        -0.4952442944049835,
        0.15878966450691223,
        -0.3412136435508728,
        -0.1846383810043335
      ],
      [
        -0.1551504135131836,
        0.32641175389289856,
        0.12490008026361465,
        0.5964471697807312,
        -0.11246932297945023,
        -0.10772781074047089,
        0.1707388311624527
      ],
      [
        0.3901762068271637,
        -0.4975109398365021,
        0.22367048263549805,
        -0.08550649136304855,
        -0.2706088423728943,
        0.294373482465744,
        -0.36400797963142395
      ],
      [
        -0.21896015107631683,
        -0.17914816737174988,
        -0.007009561639279127,
        0.5205245018005371,
        -0.6174676418304443,
        -0.16361376643180847,
        -0.2598645091056824
      ],
      [
        -0.5015147924423218,
        -0.06730281561613083,
        0.1699317991733551,
        0.33349382877349854,
        0.3255596160888672,
        -0.018128573894500732,
        -0.3520258069038391
      ],
      [
        0.12248753756284714,
        -0.6967387795448303,
        -0.6873735785484314,
        -0.550586998462677,
        -0.002781011862680316,
        0.08973681181669235,
        -0.3746994435787201
      ],
      [
        -0.2520609200000763,
        0.7933502197265625,
        0.7052088379859924,
        0.4953266382217407,
        0.18621788918972015,
        0.4365004301071167,
        -0.1960773915052414
      ],
      [
        0.01626780815422535,
        -0.01960022933781147,
        -0.5703614950180054,
        -0.3711482286453247,
        0.09173346310853958,
        0.1617283970117569,
        -0.1776103675365448
      ],
      [
        0.08256129920482635,
        -0.26678547263145447,
        0.08427861332893372,
        0.3004859685897827,
        0.0045463331043720245,
        0.20714470744132996,
        0.5276188254356384
      ],
      [
        -0.25538188219070435,
        -0.25598323345184326,
        0.004255506210029125,
        0.7133760452270508,
        0.7109480500221252,
        0.4573577046394348,
        0.10177482664585114
      ],
      [
        -0.31597229838371277,
        0.35706329345703125,
        -0.49708694219589233,
        -0.6163097023963928,
        0.37218794226646423,
        0.33062744140625,
        -0.3184451758861542
      ],
      [
        0.11756743490695953,
        -0.25739768147468567,
        0.016584284603595734,
        -0.1989004909992218,
        0.264905720949173,
        -0.24684762954711914,
        0.14513494074344635
      ],
      [
        0.13417647778987885,
        0.01649768464267254,
        0.25165024399757385,
        -0.7978416085243225,
        -0.6233665347099304,
        0.1258953958749771,
        0.09546178579330444
      ],
      [
        -0.4756685793399811,
        -0.3818967938423157,
        0.36184510588645935,
        0.2080414742231369,
        -0.3367527723312378,
        -0.13191577792167664,
        -0.4285750389099121
      ],
      [
        -0.11852110177278519,
        -0.16741196811199188,
        -0.696557879447937,
        -0.25543734431266785,
        -0.121381014585495,
        -0.3025158643722534,
        0.046043362468481064
      ],
      [
        -0.375821977853775,
        0.48305052518844604,
        0.230262890458107,
        -0.6238352656364441,
        0.13324743509292603,
        -0.04704390838742256,
        0.054041311144828796
      ],
      [
        0.288974404335022,
        0.3995548188686371,
        0.15415744483470917,
        -0.039290089160203934,
        0.5698075890541077,
        -0.2888043522834778,
        -0.05760469660162926
      ],
      [
        0.03166967257857323,
        -0.1530202180147171,
        -0.19914846122264862,
        -0.6170743703842163,
        -0.28399571776390076,
        0.051630765199661255,
        -0.1908128559589386
      ],
      [
        -0.1252995878458023,
        -0.14345666766166687,
        0.03306574374437332,
        0.5738006234169006,
        0.08020725101232529,
        0.22572581470012665,
        0.19309677183628082
      ],
      [
        0.4099981188774109,
        0.03289366140961647,
        0.40825676918029785,
        0.10903436690568924,
        -0.6079472303390503,
        -0.26756566762924194,
        0.2642688751220703
      ],
      [
        0.056419096887111664,
        -1.1578352451324463,
        -0.7659980058670044,
        -0.8015217781066895,
        -1.1374655961990356,
        -0.17648202180862427,
        0.5451951026916504
      ],
      [
        0.321852445602417,
        -0.23434962332248688,
        0.288769394159317,
        -0.05331220477819443,
        -0.10469265282154083,
        -0.05185836926102638,
        -0.06692072004079819
      ],
      [
        -0.1713743656873703,
        -0.27329766750335693,
        -0.24030989408493042,
        -0.26062580943107605,
        -0.2225029021501541,
        -0.24652062356472015,
        0.10627169162034988
      ],
      [
        -0.3881141245365143,
        -0.17397834360599518,
        0.326789915561676,
        -0.3521023690700531,
        0.22447790205478668,
        0.09188738465309143,
        -0.33981457352638245
      ],
      [
        0.16946032643318176,
        0.3735678493976593,
        -0.13996893167495728,
        0.5566869378089905,
        -0.13674546778202057,
        0.015159400179982185,
        -0.19538655877113342
      ],
      [
        0.26079070568084717,
        0.39759522676467896,
        0.0798424780368805,
        0.11931092292070389,
        0.021094992756843567,
        -0.027693331241607666,
        -0.2927839457988739
      ],
      [
        0.12945325672626495,
        0.42119309306144714,
        0.6209425330162048,
        -0.5109697580337524,
        0.20087897777557373,
        -0.33512967824935913,
        -0.19638118147850037
      ],
      [
        -0.3180466294288635,
        0.33915865421295166,
        -0.43258601427078247,
        -0.2171013206243515,
        0.024765126407146454,
        0.2931175231933594,
        -0.26123693585395813
      ],
      [
        -0.37695780396461487,
        -0.13034220039844513,
        0.09702122956514359,
        -0.06444669514894485,
        0.7041176557540894,
        0.18694652616977692,
        -0.0843951404094696
      ],
      [
        -0.008086186833679676,
        -0.13025066256523132,
        -0.0992322489619255,
        -0.19373393058776855,
        -0.41569197177886963,
        0.13917797803878784,
        -0.31123828887939453
      ],
      [
        0.45749518275260925,
        0.528810977935791,
        0.3616946339607239,
        0.1826692521572113,
        0.8140072822570801,
        0.29425472021102905,
        0.7379134297370911
      ],
      [
        -0.44528481364250183,
        0.4726199805736542,
        -0.16297808289527893,
        -0.373705118894577,
        0.06433238089084625,
        -0.1368875652551651,
        -0.18566331267356873
      ],
      [
        0.16865192353725433,
        0.17142608761787415,
        0.3319728672504425,
        0.18978004157543182,
        -0.5878328680992126,
        0.0664600282907486,
        -0.5441076755523682
      ],
      [
        -0.1410239040851593,
        0.02451910637319088,
        0.25267311930656433,
        0.4928564131259918,
        -0.23505109548568726,
        0.03204580396413803,
        0.2770525813102722
      ],
      [
        -0.09888337552547455,
        0.49763309955596924,
        -0.19727559387683868,
        -0.28048333525657654,
        -0.015337019227445126,
        -0.45819056034088135,
        0.03090113215148449
      ],
      [
        0.3486136794090271,
        0.1146479994058609,
        -0.13707448542118073,
        0.007935519330203533,
        -0.13087400794029236,
        0.37751221656799316,
        -0.02521178498864174
      ],
      [
        -0.4198605418205261,
        -0.2787359952926636,
        0.2159305214881897,
        0.2649274170398712,
        0.6928186416625977,
        0.16927063465118408,
        -0.34490838646888733
      ],
      [
        0.3038165867328644,
        0.4945293366909027,
        0.6994963884353638,
        -0.6452959179878235,
        -0.29227975010871887,
        -0.9874369502067566,
        -1.0848188400268555
      ],
      [
        -0.1943843513727188,
        -0.35902953147888184,
        -0.04370418190956116,
        1.0762275457382202,
        -0.046260397881269455,
        0.00357977207750082,
        0.11413244158029556
      ],
      [
        0.01627596840262413,
        -0.1034659743309021,
        -0.3485139012336731,
        0.7592828273773193,
        0.26248377561569214,
        0.5540145635604858,
        -0.28264760971069336
      ],
      [
        0.09617244452238083,
        0.05835281312465668,
        -0.08485543727874756,
        -0.4425028860569,
        0.29462048411369324,
        0.13913635909557343,
        0.010291241109371185
      ],
      [
        -0.0033998247236013412,
        -0.20285098254680634,
        0.28498873114585876,
        -0.6159546971321106,
        0.4725901484489441,
        -0.06796656548976898,
        -0.007667592726647854
      ],
      [
        -0.09122499078512192,
        -0.048693329095840454,
        -0.11480410397052765,
        0.36928778886795044,
        -0.6210031509399414,
        -0.1483505815267563,
        -0.2819715738296509
      ],
      [
        0.2187797725200653,
        0.20419040322303772,
        -0.3493047058582306,
        0.15420034527778625,
        0.25819331407546997,
        -0.07211557030677795,
        0.12033571302890778
      ],
      [
        -0.10756233334541321,
        -0.2719475328922272,
        0.33738863468170166,
        0.7029908895492554,
        0.33067482709884644,
        0.36088910698890686,
        -0.1152128204703331
      ],
      [
        -0.34001824259757996,
        -0.1523335874080658,
        0.0771060511469841,
        0.8438213467597961,
        0.11893901228904724,
        0.19015873968601227,
        0.13679182529449463
      ],
      [
        -0.0965430960059166,
        -0.24056021869182587,
        -0.6209766864776611,
        0.5213730335235596,
        0.158551424741745,
        -0.21178995072841644,
        0.16106849908828735
      ],
      [
        0.23763413727283478,
        0.465917706489563,
        0.6757973432540894,
        0.4592337906360626,
        -0.07060500234365463,
        -0.13544140756130219,
        0.2801365852355957
      ],
      [
        0.1576830893754959,
        -0.5751528143882751,
        0.5440484285354614,
        0.5141738653182983,
        0.23584647476673126,
        -0.2944272458553314,
        0.008733171038329601
      ],
      [
        -0.05124562233686447,
        0.32715240120887756,
        -0.08163391798734665,
        0.3049193024635315,
        0.17562417685985565,
        0.18258394300937653,
        -0.06863217800855637
      ],
      [
        0.46324214339256287,
        -1.2719467878341675,
        -0.03747627139091492,
        -0.2711113691329956,
        -0.11565499752759933,
        -0.5051925182342529,
        0.4540024697780609
      ],
      [
        0.1438688486814499,
        0.429342657327652,
        0.580359935760498,
        -0.670611560344696,
        -0.17349767684936523,
        -0.1409933865070343,
        -0.30150169134140015
      ],
      [
        0.3380184769630432,
        -0.365317165851593,
        0.030213965103030205,
        -0.36213576793670654,
        -0.24518057703971863,
        0.31813129782676697,
        0.3481276035308838
      ],
      [
        0.232606902718544,
        0.7140091061592102,
        0.25642552971839905,
        0.16491034626960754,
        0.18473905324935913,
        0.38404369354248047,
        -0.1996740698814392
      ],
      [
        0.29452213644981384,
        -0.18011924624443054,
        0.2010798305273056,
        -0.509114682674408,
        -0.152239590883255,
        -0.09910130500793457,
        -0.23020406067371368
      ],
      [
        -0.33160266280174255,
        0.16336075961589813,
        -0.32048162817955017,
        0.3324657380580902,
        0.548362135887146,
        -0.08853790909051895,
        -0.28888511657714844
      ],
      [
        0.2751460671424866,
        0.20472605526447296,
        -0.059742048382759094,
        -0.3979867994785309,
        0.581811249256134,
        0.20428350567817688,
        -0.2288195937871933
      ],
      [
        0.5222381949424744,
        -0.49027734994888306,
        0.0539611279964447,
        0.6146228313446045,
        -0.22538352012634277,
        -0.18992330133914948,
        0.4266470670700073
      ],
      [
        0.16761276125907898,
        -0.813362717628479,
        -0.10383445024490356,
        -0.043481916189193726,
        0.05066874623298645,
        0.008871425874531269,
        0.4813966751098633
      ],
      [
        0.08455715328454971,
        -1.3777518272399902,
        0.06990999728441238,
        0.11780647933483124,
        0.39144161343574524,
        -0.7587780356407166,
        -0.12268093228340149
      ],
      [
        -0.3338730037212372,
        -0.940150797367096,
        0.3886192739009857,
        -0.48015642166137695,
        0.7464122772216797,
        0.1724339723587036,
        -0.17382113635540009
      ],
      [
        -0.08605259656906128,
        0.01830272190272808,
        -0.189590722322464,
        -0.3886706829071045,
        0.12335196882486343,
        -0.2188567966222763,
        -0.23110626637935638
      ],
      [
        -0.5622915625572205,
        -0.3853219151496887,
        0.19023625552654266,
        -0.4022553563117981,
        0.40646642446517944,
        -0.22571508586406708,
        -0.09876420348882675
      ],
      [
        0.2066987305879593,
        -1.294230341911316,
        0.7150852680206299,
        0.28707876801490784,
        0.9026597738265991,
        0.17247077822685242,
        -0.024661341682076454
      ],
      [
        0.5608013868331909,
        0.45639780163764954,
        0.025392306968569756,
        -0.9237267971038818,
        -0.1850883960723877,
        -0.40595170855522156,
        -0.34943678975105286
      ],
      [
        -0.1272783726453781,
        -0.057002924382686615,
        0.16192153096199036,
        0.3316584527492523,
        0.3746296763420105,
        -0.23085817694664001,
        -0.4475491940975189
      ],
      [
        -0.12829472124576569,
        0.1288331151008606,
        0.42841675877571106,
        0.7502781748771667,
        0.10619129985570908,
        0.4941385090351105,
        -0.3878527879714966
      ],
      [
        -0.18471986055374146,
        0.19276955723762512,
        -0.08406234532594681,
        -0.21214142441749573,
        -0.40140968561172485,
        -0.36050111055374146,
        -0.2394545078277588
      ],
      [
        0.06922547519207001,
        -0.18347130715847015,
        0.36388328671455383,
        0.5887811779975891,
        0.541274905204773,
        0.07693172991275787,
        -0.26864370703697205
      ],
      [
        -0.012256206013262272,
        0.09013698250055313,
        0.1380872279405594,
        -0.3543885052204132,
        0.5177314877510071,
        0.04354289174079895,
        -0.24712339043617249
      ],
      [
        -0.6128220558166504,
        0.9179643392562866,
        0.7530507445335388,
        -0.6246790289878845,
        0.5043853521347046,
        0.2510412633419037,
        0.3496159017086029
      ],
      [
        0.21148809790611267,
        -0.23398691415786743,
        0.09096325188875198,
        -0.03136998787522316,
        -0.29247725009918213,
        0.08266537636518478,
        -0.23493525385856628
      ],
      [
        0.25837427377700806,
        0.30041590332984924,
        -0.2940498888492584,
        0.20833823084831238,
        0.09128092974424362,
        -0.12155913561582565,
        0.0205993689596653
      ],
      [
        0.2701570689678192,
        -0.20486170053482056,
        0.15437671542167664,
        -0.1678798645734787,
        0.181998610496521,
        -0.3992316424846649,
        -0.2699820101261139
      ],
      [
        -0.057379450649023056,
        0.34227439761161804,
        -0.1954887956380844,
        0.12125808000564575,
        -0.16592937707901,
        0.3904005289077759,
        0.46313562989234924
      ],
      [
        -0.13174811005592346,
        -0.9282788634300232,
        -0.6781993508338928,
        -0.11117641627788544,
        -0.24682390689849854,
        -0.2977434992790222,
        -0.27892187237739563
      ],
      [
        -0.012354561127722263,
        -0.8789364695549011,
        -0.0057708281092345715,
        -0.15310683846473694,
        -0.04377865791320801,
        -0.10411912202835083,
        0.3590486943721771
      ],
      [
        -0.3036786615848541,
        0.18106311559677124,
        -0.21433809399604797,
        0.3965089023113251,
        -0.6965014338493347,
        -0.5718652009963989,
        0.335297554731369
      ],
      [
        -0.2241075187921524,
        0.017229359596967697,
        0.14616557955741882,
        -0.18660753965377808,
        0.32893383502960205,
        0.17569217085838318,
        0.034615907818078995
      ]
    ],
    "net.0.bias": [
      -0.30745071172714233,
      -0.3574282228946686,
      -0.10651411861181259,
      0.2287936508655548,
      -0.17839249968528748,
      0.31909796595573425,
      -0.06895694881677628,
      -0.10464227944612503,
      0.2584564685821533,
      0.3717740476131439,
      0.17358987033367157,
      0.15452922880649567,
      -0.12263527512550354,
      -0.1356174349784851,
      -0.044539954513311386,
      0.2784399688243866,
      -0.16433365643024445,
      -0.3168306350708008,
      0.1269768476486206,
      0.3983425796031952,
      -0.0851437896490097,
      -0.6656697988510132,
      -0.2930578589439392,
      0.127293199300766,
      -0.09833585470914841,
      -0.17899520695209503,
      0.021742146462202072,
      0.24714906513690948,
      0.3347025215625763,
      0.3335614800453186,
      0.035842981189489365,
      -0.17897096276283264,
      -0.32786455750465393,
      0.32627567648887634,
      0.2144806981086731,
      0.2723987102508545,
      -0.2129845917224884,
      0.486690491437912,
      0.5673204064369202,
      0.26309484243392944,
      -0.21349187195301056,
      -0.15063410997390747,
      -0.2484254539012909,
      0.24583923816680908,
      -0.08929985761642456,
      -0.13862299919128418,
      0.2052415907382965,
      -0.2052931934595108,
      -0.10886774212121964,
      -0.17470911145210266,
      -0.04238397255539894,
      -0.39164143800735474,
      0.26097190380096436,
      -0.10545353591442108,
      0.19797956943511963,
      0.31024476885795593,
      0.15024156868457794,
      0.03568187728524208,
      0.4160383343696594,
      0.24893611669540405,
      -0.35277217626571655,
      0.5265160202980042,
      -0.025865385308861732,
      -0.3915480375289917,
      -0.21015283465385437,
      -0.3651779294013977,
      0.31606388092041016,
      -0.1088453084230423,
      -0.26049408316612244,
      -0.11261819303035736,
      0.19871610403060913,
      0.31665152311325073,
      0.08353663235902786,
      0.06837985664606094,
      0.11371778696775436,
      -0.04364395514130592,
      -0.045418400317430496,
      -0.45966222882270813,
      -0.32953840494155884,
      0.03913455829024315
    ],
    "net.2.weight": [
      [
        -0.12243037670850754,
        -0.008268396370112896,
        0.20050154626369476,
        0.05044374614953995,
        -0.0342441089451313,
        0.16984491050243378,
        -0.21874654293060303,
        0.36618122458457947,
        -0.20645010471343994,
        0.012104903347790241,
        0.12688201665878296,
        -0.31817135214805603,
        0.18391945958137512,
        -0.2041134089231491,
        0.07065518200397491,
        -0.16919472813606262,
        -0.059193603694438934,
        0.1062118262052536,
        -0.21611197292804718,
        0.049333442002534866,
        0.08333425223827362,
        -0.05867232382297516,
        0.11808016896247864,
        -0.27194932103157043,
        0.09903786331415176,
        0.11726752668619156,
        0.06360854208469391,
        0.13185802102088928,
        -0.211945578455925,
        0.07144998013973236,
        -0.19766370952129364,
        -0.018348246812820435,
        -0.06546542793512344,
        0.0512685626745224,
        0.0863390862941742,
        -0.063835009932518,
        -0.06302015483379364,
        -0.0018701063236221671,
        0.3958633542060852,
        0.002275948179885745,
        0.1346728652715683,
        -0.09621325135231018,
        0.06383800506591797,
        -0.03584800660610199,
        -0.02915603294968605,
        0.315234899520874,
        0.06460924446582794,
        0.008558513596653938,
        0.22749075293540955,
        0.32381248474121094,
        0.13955643773078918,
        -0.24788421392440796,
        0.06267382949590683,
        -0.036180783063173294,
        0.07455024123191833,
        -0.11318255215883255,
        0.134190171957016,
        -0.08954180032014847,
        0.05691174045205116,
        0.10723581165075302,
        0.17352305352687836,
        -0.1011539027094841,
        -0.09477225691080093,
        0.13511165976524353,
        0.2069379687309265,
        -0.09148988127708435,
        0.11491259187459946,
        0.37806516885757446,
        -0.08217816799879074,
        0.3242195248603821,
        0.049243200570344925,
        0.02967875823378563,
        -0.03492307662963867,
        -0.08709866553544998,
        0.21635933220386505,
        -0.20113414525985718,
        -0.08017163723707199,
        0.01640394516289234,
        0.1360173523426056,
        0.09328587353229523
      ],
      [
        0.19038987159729004,
        0.035058729350566864,
        -0.34116318821907043,
        -0.13138608634471893,
        -0.1599600911140442,
        0.021478762850165367,
        0.2697230875492096,
        -0.261084645986557,
        0.18287648260593414,
        -0.16311080753803253,
        -0.1018160954117775,
        0.40465426445007324,
        0.10395336151123047,
        0.10679453611373901,
        -0.2186335027217865,
        0.16841141879558563,
        0.15881291031837463,
        0.0439300462603569,
        0.15213057398796082,
        -0.16423019766807556,
        -0.36265283823013306,
        -0.08288732916116714,
        0.11717796325683594,
        0.08073236048221588,
        0.12929409742355347,
        -0.05926544964313507,
        0.06204388663172722,
        0.09712666273117065,
        0.09983517229557037,
        0.05218580365180969,
        -0.044115450233221054,
        0.14456190168857574,
        0.18576809763908386,
        -0.0128140514716506,
        -0.13790929317474365,
        0.16281886398792267,
        -0.03133012354373932,
        0.13219571113586426,
        -0.12826821208000183,
        -0.2396916300058365,
        -0.12678803503513336,
        0.24423491954803467,
        -0.03716658800840378,
        -0.035420916974544525,
        0.09299404919147491,
        -0.3147813081741333,
        -0.16401466727256775,
        -0.04593624547123909,
        -0.17363247275352478,
        -0.29712262749671936,
        -0.05480116233229637,
        -0.09667696058750153,
        0.16583265364170074,
        0.0750369057059288,
        0.020975386723876,
        -0.03354141116142273,
        0.14376109838485718,
        0.3115918040275574,
        -0.019110573455691338,
        -0.18196380138397217,
        -0.3356054127216339,
        0.26773127913475037,
        0.08613607287406921,
        0.014094778336584568,
        -0.3657509386539459,
        0.11975761502981186,
        -0.07262999564409256,
        -0.3745809495449066,
        0.07609394937753677,
        -0.13091738522052765,
        0.09906180202960968,
        0.23734170198440552,
        -0.05351141095161438,
        -0.06528632342815399,
        0.10388664901256561,
        -0.09735247492790222,
        -0.07511092722415924,
        -0.0974268689751625,
        -0.2105809599161148,
        -0.015181255526840687
      ],
      [
        0.05548250675201416,
        -0.114609494805336,
        0.36718711256980896,
        -0.1572483479976654,
        0.018721213564276695,
        0.15266764163970947,
        0.14706233143806458,
        -0.1069839596748352,
        -0.031001107767224312,
        0.09195107221603394,
        0.06570181250572205,
        0.13351960480213165,
        -0.19946108758449554,
        -0.3134223222732544,
        -0.11463437974452972,
        0.07051608711481094,
        -0.10951191186904907,
        0.0933787003159523,
        -0.12521566450595856,
        0.11686426401138306,
        -0.33202627301216125,
        -0.06199994683265686,
        0.00886608101427555,
        -0.12952862679958344,
        -0.15477469563484192,
        0.2620087265968323,
        0.2629533112049103,
        -0.277536541223526,
        0.05957554280757904,
        -0.02395101822912693,
        -0.07995335757732391,
        -0.08090277016162872,
        -0.023329313844442368,
        -0.007611170876771212,
        0.00450128735974431,
        0.03019053302705288,
        -0.003949200268834829,
        0.006819528993219137,
        -0.3381335437297821,
        0.1577678769826889,
        0.16162651777267456,
        -0.08092410117387772,
        -0.07173468172550201,
        0.059612199664115906,
        0.17402002215385437,
        0.04061754792928696,
        0.14056353271007538,
        0.2426796704530716,
        -0.013172146864235401,
        0.05152643471956253,
        0.3982893228530884,
        0.31334370374679565,
        -0.21175920963287354,
        -0.26368576288223267,
        0.07392141222953796,
        -0.16996128857135773,
        0.3071257472038269,
        -0.045483849942684174,
        0.13528947532176971,
        -0.3905482590198517,
        0.17672701179981232,
        0.021580152213573456,
        -0.038189034909009933,
        -0.1501310020685196,
        0.34839674830436707,
        -0.14848576486110687,
        0.08164495974779129,
        0.08741545677185059,
        -0.052422426640987396,
        0.11956805735826492,
        -0.05601661652326584,
        -0.40751680731773376,
        -0.12100337445735931,
        0.3171584904193878,
        -0.1323227882385254,
        0.11020025610923767,
        0.1564192771911621,
        0.1587870866060257,
        0.06688611954450607,
        0.00282298750244081
      ],
      [
        -0.08215749263763428,
        -0.16327449679374695,
        0.03841358423233032,
        0.14901898801326752,
        0.21893009543418884,
        -0.06767004728317261,
        -0.06697645038366318,
        0.07194648683071136,
        -0.049364570528268814,
        0.14797531068325043,
        -0.15655072033405304,
        -0.19377616047859192,
        -0.15206122398376465,
        0.24047644436359406,
        0.11592689156532288,
        0.008990012109279633,
        -0.199928879737854,
        -0.1137932613492012,
        0.0743594840168953,
        0.0591556653380394,
        0.4996856153011322,
        0.3165363073348999,
        0.06856342405080795,
        0.0788450688123703,
        0.007486258167773485,
        0.07051528245210648,
        -0.10776811093091965,
        -0.07359593361616135,
        -0.03466179221868515,
        -0.23868629336357117,
        0.17415045201778412,
        -0.10078117251396179,
        -0.0216391421854496,
        0.14319197833538055,
        0.1508224755525589,
        0.014768377877771854,
        -0.024328695610165596,
        -0.2768677771091461,
        0.3452603220939636,
        0.09912021458148956,
        0.035309210419654846,
        -0.19801858067512512,
        -0.17494390904903412,
        0.22589527070522308,
        -0.05843224376440048,
        -0.10557950288057327,
        0.04885391891002655,
        -0.057161908596754074,
        0.1563211977481842,
        0.09568982571363449,
        -0.033425506204366684,
        -0.2653311491012573,
        -0.07436441630125046,
        0.16475829482078552,
        0.11557972431182861,
        0.056592416018247604,
        -0.1728316992521286,
        -0.4618877172470093,
        0.19864995777606964,
        0.06194847822189331,
        -0.0402185283601284,
        -0.35266873240470886,
        -0.0532500334084034,
        -0.010763718746602535,
        -0.05920848622918129,
        -0.10249581187963486,
        -0.14664362370967865,
        -0.025604182854294777,
        0.046187855303287506,
        -0.04299197718501091,
        -0.1835748851299286,
        -0.03967553377151489,
        0.07861041277647018,
        -0.10187053680419922,
        -0.03301748260855675,
        0.009380439296364784,
        -0.06082357466220856,
        -0.11229623854160309,
        0.2712419629096985,
        -0.05284051597118378
      ]
    ],
    "net.2.bias": [
      -0.09780090302228928,
      -0.0010917920153588057,
      0.13015340268611908,
      -0.09167058765888214
    ]
  },
  "F2": {
    "n_in": 4,
    "n_hid": 60,
    "n_out": 4,
    "activation": "tanh",
    "net.0.weight": [
      [
        0.7117022275924683,
        0.032369401305913925,
        0.6278511881828308,
        0.2510235011577606
      ],
      [
        -0.5509688258171082,
        0.8901000022888184,
        -0.37424150109291077,
        -0.124481700360775
      ],
      [
        0.005322396755218506,
        0.3681768476963043,
        -0.7315630316734314,
        0.035886701196432114
      ],
      [
        -0.18359649181365967,
        -0.32560667395591736,
        0.2402864694595337,
        -0.19164636731147766
      ],
      [
        0.15905749797821045,
        0.3097374439239502,
        0.028004169464111328,
        0.9366798400878906
      ],
      [
        -0.19089244306087494,
        -0.30934789776802063,
        -0.04122142493724823,
        -0.22836729884147644
      ],
      [
        0.1725085824728012,
        0.5383378863334656,
        -0.054963260889053345,
        -0.03066522628068924
      ],
      [
        0.8204503059387207,
        -0.39565780758857727,
        0.8283478617668152,
        -0.550134003162384
      ],
      [
        -0.5698877573013306,
        -0.17574578523635864,
        0.26834768056869507,
        0.11898960173130035
      ],
      [
        0.25234225392341614,
        -0.4357840120792389,
        0.16445989906787872,
        -0.1145176813006401
      ],
      [
        0.2542765438556671,
        0.3150174021720886,
        -0.03581787273287773,
        0.12098715454339981
      ],
      [
        0.20313002169132233,
        -0.6629508137702942,
        0.07284539192914963,
        0.38454684615135193
      ],
      [
        -0.3394644558429718,
        0.48362913727760315,
        -0.16830205917358398,
        -0.1818682700395584
      ],
      [
        0.1180439367890358,
        -0.5177266597747803,
        0.1472707986831665,
        0.04515920951962471
      ],
      [
        -0.07073859125375748,
        -0.25757381319999695,
        0.6634377241134644,
        0.6326473355293274
      ],
      [
        -0.21168915927410126,
        0.3763163983821869,
        -0.63092440366745,
        -0.7275367379188538
      ],
      [
        0.3412727415561676,
        -0.11926427483558655,
        -0.2807520031929016,
        -0.42650365829467773
      ],
      [
        -0.2451099008321762,
        0.3688947856426239,
        -0.4207362234592438,
        -0.4824505150318146
      ],
      [
        -0.22345280647277832,
        -0.14428958296775818,
        -1.011141300201416,
        -0.1884901225566864
      ],
      [
        -0.05258772894740105,
        -0.11544925719499588,
        -0.12251096963882446,
        -0.07635542005300522
      ],
      [
        -0.5839275121688843,
        -0.20613811910152435,
        -0.3098151385784149,
        -0.3370271325111389
      ],
      [
        0.31405243277549744,
        -0.2950332462787628,
        -0.8225975632667542,
        0.15720468759536743
      ],
      [
        0.0020877651404589415,
        0.5086328387260437,
        -0.33175426721572876,
        -0.3415924906730652
      ],
      [
        0.8845198750495911,
        0.5247311592102051,
        0.09794124215841293,
        -0.9902045130729675
      ],
      [
        0.13730965554714203,
        0.25081920623779297,
        0.07908809930086136,
        -0.3391473591327667
      ],
      [
        0.7589574456214905,
        -0.4165474772453308,
        0.5528876185417175,
        -0.592938244342804
      ],
      [
        0.6983346343040466,
        -0.7187482118606567,
        0.540482223033905,
        -0.7342572808265686
      ],
      [
        0.3873060345649719,
        0.20835308730602264,
        0.6571800112724304,
        -0.6460081934928894
      ],
      [
        -0.07465873658657074,
        0.6407108306884766,
        0.000362438295269385,
        -0.0011237987782806158
      ],
      [
        -0.5125022530555725,
        -0.6256282329559326,
        -0.3197984993457794,
        0.5445448160171509
      ],
      [
        0.41032159328460693,
        -0.3211028575897217,
        0.33796045184135437,
        -0.04504065588116646
      ],
      [
        -0.27129700779914856,
        -0.12852877378463745,
        0.023268066346645355,
        0.4570830762386322
      ],
      [
        -0.7701576352119446,
        -0.5778163075447083,
        0.08197686076164246,
        -0.0127771170809865
      ],
      [
        0.1940861940383911,
        0.01589258760213852,
        -0.02158755622804165,
        -0.14319182932376862
      ],
      [
        0.15477420389652252,
        -0.343478262424469,
        0.6612653732299805,
        -0.598141610622406
      ],
      [
        -0.3599390685558319,
        -0.7666051983833313,
        -0.35653257369995117,
        0.3192237913608551
      ],
      [
        0.37649184465408325,
        -0.6987848877906799,
        0.041900087147951126,
        0.8368527293205261
      ],
      [
        -0.08563488721847534,
        0.011703331023454666,
        -0.17358924448490143,
        -0.26004019379615784
      ],
      [
        0.6769855618476868,
        -0.23809027671813965,
        0.5665925145149231,
        -0.06496525555849075
      ],
      [
        0.15259553492069244,
        0.6852497458457947,
        1.5313944816589355,
        -0.3698245584964752
      ],
      [
        -0.16251803934574127,
        -0.6623260974884033,
        -0.3313855230808258,
        0.6382912397384644
      ],
      [
        -0.147938072681427,
        -0.33636099100112915,
        0.011991392821073532,
        -0.11713720113039017
      ],
      [
        0.29095226526260376,
        -0.2616254687309265,
        -0.4564459025859833,
        -0.4442175328731537
      ],
      [
        -0.23778817057609558,
        0.2348443567752838,
        -0.5378063321113586,
        0.1469954252243042
      ],
      [
        0.535235583782196,
        0.04327103868126869,
        -0.01759466528892517,
        -0.02930363267660141
      ],
      [
        -0.36992347240448,
        0.39313146471977234,
        -0.6803358197212219,
        0.24617333710193634
      ],
      [
        0.3795672059059143,
        -0.3344804048538208,
        0.507378101348877,
        0.5881511569023132
      ],
      [
        -0.38232022523880005,
        -0.2862887680530548,
        -0.15384556353092194,
        -0.36321917176246643
      ],
      [
        -0.5619123578071594,
        1.0121309757232666,
        0.11499294638633728,
        -0.5602071285247803
      ],
      [
        -0.27593517303466797,
        -0.016072457656264305,
        0.3363935947418213,
        -0.5811025500297546
      ],
      [
        -0.3680173456668854,
        -0.4147189259529114,
        -0.6748714447021484,
        -0.3388349115848541
      ],
      [
        0.7338372468948364,
        -0.04806829243898392,
        0.49596306681632996,
        0.25343677401542664
      ],
      [
        0.17426785826683044,
        -0.5104017853736877,
        0.3413119316101074,
        0.5195436477661133
      ],
      [
        0.414824903011322,
        -0.8458417057991028,
        0.3547841012477875,
        0.7192556858062744
      ],
      [
        0.368081659078598,
        0.0627804845571518,
        0.5854578018188477,
        -0.2581181824207306
      ],
      [
        0.019060377031564713,
        0.04219856858253479,
        0.010598902590572834,
        0.37931689620018005
      ],
      [
        0.9249556064605713,
        0.664209246635437,
        -0.124087393283844,
        0.1891576200723648
      ],
      [
        -1.1731232404708862,
        -0.21969294548034668,
        -0.4847371578216553,
        -0.11111800372600555
      ],
      [
        0.5566924810409546,
        0.1210533082485199,
        0.3273053765296936,
        0.32218992710113525
      ],
      [
        -0.5294581651687622,
        0.032715000212192535,
        0.17312394082546234,
        0.2598949372768402
      ]
    ],
    "net.0.bias": [
      0.29197508096694946,
      -0.44111368060112,
      -0.07351162284612656,
      0.4058493971824646,
      -0.19070948660373688,
      -0.3677181601524353,
      0.33848103880882263,
      0.38797467947006226,
      -0.11444898694753647,
      -0.062106482684612274,
      -0.4306771457195282,
      -0.37507426738739014,
      0.257132351398468,
      -0.31265977025032043,
      0.5896933078765869,
      -0.4458983242511749,
      -0.056567996740341187,
      -0.05944957584142685,
      0.4007566571235657,
      0.34759488701820374,
      0.4297691881656647,
      0.28460872173309326,
      -0.16900700330734253,
      -0.2912278473377228,
      -0.4917990267276764,
      -0.017959699034690857,
      0.6840499043464661,
      -0.1520792543888092,
      -0.02228786051273346,
      -0.32906410098075867,
      0.09080231189727783,
      0.2628045678138733,
      -0.5247052311897278,
      -0.3608303368091583,
      0.43076562881469727,
      0.1828666478395462,
      -0.06636916846036911,
      0.026332426816225052,
      -0.08029703050851822,
      -0.20757529139518738,
      -0.3817031979560852,
      0.45734378695487976,
      -0.21857692301273346,
      -0.11873510479927063,
      -0.22951214015483856,
      -0.2909822463989258,
      -0.238703191280365,
      -0.41186270117759705,
      0.0004756936978083104,
      0.2492871880531311,
      -0.4854711592197418,
      -0.1401837170124054,
      0.17631366848945618,
      -0.10973358154296875,
      0.08798498660326004,
      0.12424738705158234,
      -0.3749043643474579,
      0.16553756594657898,
      -0.004089773166924715,
      0.4107717275619507
    ],
    "net.2.weight": [
      [
        0.04910719022154808,
        0.04713020846247673,
        0.10325321555137634,
        -0.0974319726228714,
        0.07207857072353363,
        0.1478293538093567,
        0.03270218148827553,
        0.2362590730190277,
        0.09804920107126236,
        0.0534231960773468,
        -0.03358963131904602,
        0.12623277306556702,
        -0.13433438539505005,
        -0.027934834361076355,
        0.06419769674539566,
        0.08087114244699478,
        -0.0780651718378067,
        0.050916802138090134,
        -0.06899454444646835,
        0.1153809130191803,
        0.15036123991012573,
        0.08459559082984924,
        0.06125791743397713,
        -0.040633972734212875,
        -0.11919638514518738,
        0.08881577849388123,
        -0.011907044798135757,
        0.10245367884635925,
        -0.019424516707658768,
        -0.09874854236841202,
        -0.1270785629749298,
        0.026817001402378082,
        -0.15683865547180176,
        -0.022576607763767242,
        -0.040220800787210464,
        0.014475428499281406,
        0.15156902372837067,
        -0.10387831181287766,
        0.05875358358025551,
        -0.030287662521004677,
        0.08176103234291077,
        0.08521854877471924,
        -0.03332061693072319,
        -0.03719136863946915,
        -0.22712285816669464,
        0.12543196976184845,
        0.1725350022315979,
        0.11698560416698456,
        0.14863774180412292,
        0.0075777433812618256,
        0.10314846783876419,
        -0.11944147199392319,
        0.055200595408678055,
        0.027353031560778618,
        0.13633254170417786,
        0.06362926214933395,
        0.020509421825408936,
        -0.15331684052944183,
        -0.1825454831123352,
        0.1556176096200943
      ],
      [
        -0.01355184055864811,
        0.02503594011068344,
        0.2988797128200531,
        -0.04207396134734154,
        0.14737145602703094,
        -0.07507234811782837,
        0.10729416459798813,
        -0.21266154944896698,
        0.027246471494436264,
        0.10299619287252426,
        0.007593302056193352,
        -0.08479265868663788,
        0.224575012922287,
        -0.24554981291294098,
        -0.1226527988910675,
        0.0972340777516365,
        0.05856003984808922,
        0.14215253293514252,
        -0.004989885725080967,
        0.041930973529815674,
        -0.05072426050901413,
        0.13508497178554535,
        0.1065012514591217,
        0.10468145459890366,
        -0.09046216309070587,
        -0.27679574489593506,
        -0.17259666323661804,
        -0.028799625113606453,
        0.1319260150194168,
        -0.10235238820314407,
        -0.0781080350279808,
        -0.017946328967809677,
        -0.06527778506278992,
        -0.16579832136631012,
        -0.2142447531223297,
        0.22351785004138947,
        -0.4196352958679199,
        -0.004724540747702122,
        -0.2578277885913849,
        -0.23818303644657135,
        -0.05268241465091705,
        0.13535359501838684,
        0.044849149882793427,
        0.09433090686798096,
        -0.07036612927913666,
        -0.07774613797664642,
        -0.04490688815712929,
        0.07134079933166504,
        0.14105431735515594,
        -0.048342783004045486,
        0.04306425899267197,
        -0.21668723225593567,
        -0.10446636378765106,
        -0.41232454776763916,
        -0.10181871801614761,
        0.030671941116452217,
        -0.1628885269165039,
        0.1404893398284912,
        -0.13418211042881012,
        -0.07745443284511566
      ],
      [
        -0.0852385088801384,
        -0.08348219841718674,
        0.3096950054168701,
        0.04706631228327751,
        0.2575199007987976,
        -0.045423779636621475,
        0.15828874707221985,
        -0.18806590139865875,
        0.13509857654571533,
        0.08414174616336823,
        -0.13510145246982574,
        -0.16971810162067413,
        0.04840906336903572,
        -0.22120323777198792,
        0.0742267593741417,
        0.1178218200802803,
        0.1271263211965561,
        0.20960961282253265,
        0.0742197260260582,
        -0.012653929181396961,
        0.1888701319694519,
        0.18002715706825256,
        0.11704018712043762,
        0.00281718373298645,
        0.12812639772891998,
        -0.13101309537887573,
        -0.09065337479114532,
        0.12977716326713562,
        0.13437649607658386,
        -0.18673495948314667,
        -0.10849036276340485,
        0.06948678940534592,
        -0.16750085353851318,
        -0.11775687336921692,
        -0.05567524582147598,
        0.05461854115128517,
        -0.21984733641147614,
        -0.055763185024261475,
        -0.16683802008628845,
        -0.20753121376037598,
        -0.10525992512702942,
        0.04491494223475456,
        0.04641374200582504,
        0.16356909275054932,
        -0.08105750381946564,
        0.19847054779529572,
        -0.0543658621609211,
        -0.0028002618346363306,
        -0.07000864297151566,
        -0.17869405448436737,
        0.0027163424529135227,
        -0.1838298738002777,
        -0.12232508510351181,
        -0.36686572432518005,
        -0.016913486644625664,
        -0.08384569734334946,
        0.02747955545783043,
        0.2013317346572876,
        -0.1051851138472557,
        -0.02646322175860405
      ],
      [
        0.19316595792770386,
        0.3135087490081787,
        -0.11442513018846512,
        -0.09564056992530823,
        -0.14602631330490112,
        0.03763747587800026,
        0.012142537161707878,
        0.08680807799100876,
        0.09448570013046265,
        0.18200139701366425,
        0.08549412339925766,
        -0.006790537852793932,
        -0.10046882927417755,
        0.1666213572025299,
        0.2744162082672119,
        -0.21280749142169952,
        0.2182815819978714,
        -0.12236888706684113,
        0.2576723098754883,
        0.05575348064303398,
        0.09574473649263382,
        0.11900720745325089,
        0.04492122679948807,
        -0.19882741570472717,
        -0.024785738438367844,
        0.338162899017334,
        -0.30215516686439514,
        -0.006749629508703947,
        0.23180373013019562,
        0.11478313058614731,
        -0.021784598007798195,
        0.03490925580263138,
        0.06389740109443665,
        -0.045105256140232086,
        -0.11408114433288574,
        -0.25469768047332764,
        0.09135203808546066,
        0.046724725514650345,
        0.0042448402382433414,
        0.0036275971215218306,
        0.10805115103721619,
        -0.15567423403263092,
        -0.03596673533320427,
        -0.10413111001253128,
        0.033135756850242615,
        0.07340219616889954,
        -0.2425139993429184,
        -0.011639117263257504,
        0.1860586404800415,
        -0.020555822178721428,
        -0.2882916331291199,
        -0.14997950196266174,
        0.04839162901043892,
        -0.05357658118009567,
        -0.07316113263368607,
        -0.016480661928653717,
        0.1713404655456543,
        0.10603295266628265,
        -0.07765311747789383,
        0.019094286486506462
      ]
    ],
    "net.2.bias": [
      0.005025146994739771,
      0.05507225915789604,
      -0.07456349581480026,
      -0.00999114103615284
    ]
  }
}