{
  "name": "PV3",
  "type": "F1+H1+F2",
  "t_step": 0.01,
  "normfacs": {
    "Ud": {
      "scale": 1.0,
      "offset": 0.47477516531944275,
      "max": 1.0,
      "min": 0.0
    },
    "Uq": {
      "scale": 0.4000000059604645,
      "offset": -8.28867807722844e-11,
      "max": 0.20000000298023224,
      "min": -0.20000000298023224
    },
    "Vd": {
      "scale": 329.87640380859375,
      "offset": 143.28494262695312,
      "max": 323.7900085449219,
      "min": -6.086386203765869
    },
    "Vq": {
      "scale": 158.86859130859375,
      "offset": -2.000671625137329,
      "max": 64.76424407958984,
      "min": -94.1043472290039
    },
    "Ra": {
      "scale": 51.999977111816406,
      "offset": 49.49589157104492,
      "max": 60.0,
      "min": 8.000022888183594
    },
    "Rb": {
      "scale": 51.999977111816406,
      "offset": 54.74798583984375,
      "max": 60.0,
      "min": 8.000022888183594
    },
    "Rc": {
      "scale": 51.999977111816406,
      "offset": 49.49589157104492,
      "max": 60.0,
      "min": 8.000022888183594
    },
    "Ramp": {
      "scale": 1.0,
      "offset": 0.9495509266853333,
      "max": 1.0,
      "min": 0.0
    },
    "Id": {
      "scale": 43.27613830566406,
      "offset": 3.4480490684509277,
      "max": 40.69775390625,
      "min": -2.578383445739746
    },
    "Iq": {
      "scale": 28.00843620300293,
      "offset": 2.3909170627593994,
      "max": 17.929737091064453,
      "min": -10.078699111938477
    }
  },
  "model_folder": "./ucf_s1",
  "model_root": "ucf_s1",
  "data_path": "d:/data/ucf_sigma/ucf_s1.hdf5",
  "lr": 0.001,
  "eps": 1e-08,
  "h5grp_prefix": "ucf",
  "num_iter": 200,
  "continue_iterations": false,
  "print_freq": 20,
  "batch_size": 800,
  "n_validation_pct": 15,
  "n_validation_seed": 99,
  "n_skip": 0,
  "n_trunc": 0,
  "n_dec": 1,
  "n_loss_skip": 50,
  "n_pad": 100,
  "gtype": "stable2ndx",
  "na": 2,
  "nb": 3,
  "nk": 0,
  "activation": "tanh",
  "nh1": 80,
  "nh2": 60,
  "COL_T": [
    "t"
  ],
  "COL_Y": [
    "Id",
    "Iq"
  ],
  "COL_U": [
    "Ud",
    "Uq",
    "Vd",
    "Vq",
    "Ra",
    "Rb",
    "Rc",
    "Ramp"
  ],
  "clamps": null,
  "sensitivity": {
    "limit": 0.01,
    "weight": 0.2,
    "delta": 0.01,
    "inputs": [
      "Vd",
      "Vq"
    ],
    "outputs": [
      "Id",
      "Iq"
    ],
    "sets": {
      "Ra": [
        6.0,
        59.0
      ],
      "Rb": [
        6.0,
        59.0
      ],
      "Rc": [
        6.0,
        59.0
      ],
      "Ud": [
        0.3,
        0.9
      ],
      "Uq": [
        -0.15,
        0.15
      ],
      "Vd": [
        150.0,
        300.0
      ],
      "Vq": [
        -50.0,
        50.0
      ],
      "Ramp": [
        0.0,
        1.0
      ]
    }
  },
  "H1": {
    "n_in": 2,
    "n_out": 2,
    "n_b": 3,
    "n_a": 2,
    "n_k": 0,
    "b_0_0": [
      0.10587617754936218,
      0.0959729552268982,
      0.019745755940675735
    ],
    "a_0_0": [
      0.00025017495499923825,
      -0.23519939184188843
    ],
    "alpha1_0_0": 0.00012508747749961913,
    "alpha2_0_0": -0.47969967126846313,
    "b_0_1": [
      0.22698518633842468,
      0.24363036453723907,
      0.14640602469444275
    ],
    "a_0_1": [
      -0.0011949578765779734,
      -0.3036477565765381
    ],
    "alpha1_0_1": -0.0005974789964966476,
    "alpha2_0_1": -0.6287834644317627,
    "b_1_0": [
      0.17225490510463715,
      0.07962360233068466,
      0.02481946349143982
    ],
    "a_1_0": [
      0.0007174112251959741,
      -0.052654266357421875
    ],
    "alpha1_1_0": 0.0003587056417018175,
    "alpha2_1_0": -0.10616350919008255,
    "b_1_1": [
      -0.04781452938914299,
      -0.05313689634203911,
      -0.08863645046949387
    ],
    "a_1_1": [
      0.01621609926223755,
      -0.008643388748168945
    ],
    "alpha1_1_1": 0.008108227513730526,
    "alpha2_1_1": -0.033779919147491455
  },
  "H1s": {
    "n_in": 2,
    "n_out": 2,
    "n_a": 3,
    "n_b": 3,
    "b_0_0": [
      0.10587617754936218,
      30.772531032562256,
      2215.9488871693616
    ],
    "a_0_0": [
      1.0,
      200.02501749549992,
      7650.507831131107
    ],
    "b_0_1": [
      0.22698518633842468,
      69.76007372140884,
      6170.215755701066
    ],
    "a_0_1": [
      1.0,
      199.8805042123422,
      6951.57285546884
    ],
    "b_1_0": [
      0.17225490510463715,
      42.413341253995895,
      2766.9797092676163
    ],
    "a_1_0": [
      1.0,
      200.0717411225196,
      9480.631448677741
    ],
    "b_1_1": [
      -0.04781452938914299,
      -14.876595512032512,
      -1895.8787620067576
    ],
    "a_1_1": [
      1.0,
      201.62160992622375,
      10075.727105140686
    ]
  },
  "Q1s": {
    "n_in": 2,
    "n_out": 2,
    "n_a": 2,
    "n_b": 3,
    "A_0_0": [
      [
        -200.02501749549992,
        -7650.507831131107
      ],
      [
        1.0,
        0.0
      ]
    ],
    "B_0_0": [
      1.0,
      0.0
    ],
    "C_0_0": [
      9.594646765894428,
      1405.9423616977388
    ],
    "D_0_0": 0.10587617754936218,
    "A_0_1": [
      [
        -199.8805042123422,
        -6951.57285546884
      ],
      [
        1.0,
        0.0
      ]
    ],
    "B_0_1": [
      1.0,
      0.0
    ],
    "C_0_1": [
      24.39016022735207,
      4592.311695757337
    ],
    "D_0_1": 0.22698518633842468,
    "A_1_0": [
      [
        -200.0717411225196,
        -9480.631448677741
      ],
      [
        1.0,
        0.0
      ]
    ],
    "B_1_0": [
      1.0,
      0.0
    ],
    "C_1_0": [
      7.950002472816756,
      1133.8944387435934
    ],
    "D_1_0": 0.17225490510463715,
    "A_1_1": [
      [
        -201.62160992622375,
        -10075.727105140686
      ],
      [
        1.0,
        0.0
      ]
    ],
    "B_1_1": [
      1.0,
      0.0
    ],
    "C_1_1": [
      -5.236153118728762,
      -1414.1126122210237
    ],
    "D_1_1": -0.04781452938914299
  },
  "F1": {
    "n_in": 8,
    "n_hid": 80,
    "n_out": 2,
    "activation": "tanh",
    "net.0.weight": [
      [
        -0.24873295426368713,
        0.3455254137516022,
        -0.21292664110660553,
        -0.1941729485988617,
        -0.049491021782159805,
        0.19834089279174805,
        0.09948105365037918,
        0.22837866842746735
      ],
      [
        0.3305252492427826,
        -0.5722209811210632,
        -0.08136236667633057,
        -0.026335714384913445,
        -0.12044748663902283,
        -0.002387660089880228,
        0.04570029303431511,
        0.15665331482887268
      ],
      [
        0.34380432963371277,
        0.5380268096923828,
        -0.13751138746738434,
        -0.057265691459178925,
        0.11902239918708801,
        0.241913840174675,
        0.07695476710796356,
        0.3111419379711151
      ],
      [
        -0.08086831122636795,
        0.039703745394945145,
        0.2997298538684845,
        -0.23866453766822815,
        -0.16356609761714935,
        -0.1100488007068634,
        -0.027151424437761307,
        0.2892882227897644
      ],
      [
        -0.062163759022951126,
        -0.2246171236038208,
        -0.3464179039001465,
        -0.325905978679657,
        -0.1479691118001938,
        0.2838587760925293,
        0.1282549947500229,
        0.24448740482330322
      ],
      [
        0.044928308576345444,
        -0.11556088924407959,
        0.02829047664999962,
        -0.33276575803756714,
        -0.24815267324447632,
        -0.13968303799629211,
        0.15567496418952942,
        0.1765471249818802
      ],
      [
        -0.2586650848388672,
        0.18014177680015564,
        0.1617572158575058,
        0.24341216683387756,
        0.1578877866268158,
        0.08653492480516434,
        0.2397242784500122,
        -0.16180916130542755
      ],
      [
        0.421833336353302,
        -0.5968410968780518,
        -0.1816936731338501,
        -0.11012578010559082,
        0.04897194728255272,
        0.05367053300142288,
        -0.2675265967845917,
        0.06793516129255295
      ],
      [
        -0.16179794073104858,
        0.0661323070526123,
        0.005395800806581974,
        0.008449115790426731,
        0.39545366168022156,
        0.37431102991104126,
        -0.11338800191879272,
        -0.06879036128520966
      ],
      [
        0.21992227435112,
        0.31401947140693665,
        0.20378907024860382,
        0.24161961674690247,
        0.01581823080778122,
        -0.33543598651885986,
        -0.011053063906729221,
        -0.23971427977085114
      ],
      [
        -0.20869126915931702,
        0.3246059715747833,
        0.33342093229293823,
        -0.2769893407821655,
        -0.1392350047826767,
        -0.2181498110294342,
        -0.31813347339630127,
        -0.11449276655912399
      ],
      [
        -0.09789774566888809,
        -0.5403012633323669,
        0.08152095228433609,
        0.08979232609272003,
        0.17345544695854187,
        -0.08968740701675415,
        -0.4850596487522125,
        -0.3678135871887207
      ],
      [
        0.5236804485321045,
        0.38613995909690857,
        -0.19337043166160583,
        -0.09160882979631424,
        0.20225945115089417,
        0.12528477609157562,
        -0.18355411291122437,
        -0.33572059869766235
      ],
      [
        -0.4230463206768036,
        -0.20745623111724854,
        -0.2884286046028137,
        -0.21508321166038513,
        -0.0036580075975507498,
        0.10748905688524246,
        -0.15816085040569305,
        0.18770931661128998
      ],
      [
        -0.1849290132522583,
        0.7025622725486755,
        0.2478533834218979,
        -0.23084083199501038,
        -0.23183327913284302,
        -0.054241303354501724,
        -0.02312035858631134,
        0.13925684988498688
      ],
      [
        -0.08100994676351547,
        0.11155548691749573,
        -0.18311592936515808,
        0.11136007308959961,
        -0.35084229707717896,
        -0.17253020405769348,
        -0.10379395633935928,
        -0.22374849021434784
      ],
      [
        -0.3518478572368622,
        -0.7380514740943909,
        -0.05398480221629143,
        0.02843060903251171,
        -0.17735569179058075,
        -0.03441941365599632,
        0.23673920333385468,
        0.025707030668854713
      ],
      [
        0.24057653546333313,
        0.3140685260295868,
        0.032153770327568054,
        0.17210903763771057,
        0.3147258758544922,
        0.17188596725463867,
        0.1778039187192917,
        -0.06852918863296509
      ],
      [
        -1.123587965965271,
        -0.5766347646713257,
        0.137979194521904,
        -0.021589502692222595,
        -0.05365300178527832,
        -0.1311306208372116,
        -0.13345403969287872,
        -0.3332851231098175
      ],
      [
        0.1062912791967392,
        0.2262657880783081,
        0.1969766765832901,
        -0.2620173990726471,
        0.17030826210975647,
        -0.24925409257411957,
        -0.0830846056342125,
        -0.19111473858356476
      ],
      [
        -0.19590525329113007,
        -0.05402049049735069,
        -0.36186015605926514,
        -0.27351129055023193,
        0.09176049381494522,
        0.0654940977692604,
        -0.015333959832787514,
        0.15838037431240082
      ],
      [
        -0.6780868768692017,
        -0.009368058294057846,
        0.25802767276763916,
        -0.12146713584661484,
        0.18373925983905792,
        0.10167190432548523,
        -0.33413171768188477,
        0.24868251383304596
      ],
      [
        -0.1303406059741974,
        -0.17408670485019684,
        0.23191453516483307,
        -0.22795358300209045,
        0.16411654651165009,
        0.012749417684972286,
        0.34314966201782227,
        -0.0037695560604333878
      ],
      [
        0.42289549112319946,
        0.3601502478122711,
        -0.05544672906398773,
        -0.034800585359334946,
        -0.9297876954078674,
        -0.10593879222869873,
        -0.4292902946472168,
        0.3404045104980469
      ],
      [
        -0.294005811214447,
        0.09373656660318375,
        -0.20947019755840302,
        -0.15417014062404633,
        -0.33724555373191833,
        -0.08254725486040115,
        -0.2375788688659668,
        -0.12177172303199768
      ],
      [
        -0.010377836413681507,
        0.23089028894901276,
        -0.21699774265289307,
        -0.21888647973537445,
        -0.12729528546333313,
        0.19967131316661835,
        -0.19486670196056366,
        0.19258281588554382
      ],
      [
        -0.24887895584106445,
        0.34537559747695923,
        -0.0004525482945609838,
        -0.052718646824359894,
        -0.010233373381197453,
        -0.0406101830303669,
        -0.012132703326642513,
        0.02533888816833496
      ],
      [
        -0.1684359908103943,
        -0.4702748656272888,
        0.26558783650398254,
        -0.16258355975151062,
        -0.16117754578590393,
        0.254583477973938,
        0.0793338343501091,
        0.010454336181282997
      ],
      [
        -0.7491747736930847,
        0.6916311979293823,
        -0.1315281242132187,
        -0.049715038388967514,
        -0.015622769482433796,
        0.09718801826238632,
        0.1436389684677124,
        0.3049212396144867
      ],
      [
        0.43955472111701965,
        0.35716283321380615,
        0.21697479486465454,
        -0.12542639672756195,
        0.1653689444065094,
        -0.13878050446510315,
        -0.03923521935939789,
        0.05251705273985863
      ],
      [
        0.32129794359207153,
        1.2651433944702148,
        -0.04963308572769165,
        0.005860740318894386,
        -0.5549629926681519,
        -0.43070414662361145,
        -0.5970003008842468,
        -0.26912105083465576
      ],
      [
        -0.5866624116897583,
        -0.35104572772979736,
        -0.15477031469345093,
        0.022696521133184433,
        0.2588029205799103,
        -0.08588089793920517,
        -0.2996891140937805,
        -0.17582200467586517
      ],
      [
        -0.6624537110328674,
        0.2311224341392517,
        -0.0939084067940712,
        -0.17346525192260742,
        -0.13980217278003693,
        0.2469242364168167,
        0.2554936707019806,
        0.23834028840065002
      ],
      [
        -0.2891250252723694,
        -0.3054709732532501,
        -0.10744421184062958,
        0.059864602982997894,
        0.2914968430995941,
        0.0003630690334830433,
        -0.26463332772254944,
        -0.1698652058839798
      ],
      [
        -0.23739445209503174,
        0.014822980388998985,
        -0.14817658066749573,
        -0.2395831048488617,
        0.05473566800355911,
        -0.46130019426345825,
        -0.1156587079167366,
        0.0014385166577994823
      ],
      [
        0.12855643033981323,
        -0.138383686542511,
        -0.2560743987560272,
        0.20752766728401184,
        0.08991841971874237,
        0.34149304032325745,
        0.025052152574062347,
        0.06904604285955429
      ],
      [
        0.3373948335647583,
        -0.11837341636419296,
        -0.1345224380493164,
        0.10310270637273788,
        0.01518548559397459,
        -0.07344204187393188,
        -0.08191338926553726,
        -0.322603702545166
      ],
      [
        0.24420882761478424,
        -0.7344016432762146,
        0.10237463563680649,
        -0.07647503912448883,
        -0.14819031953811646,
        0.09332890808582306,
        -0.1992076188325882,
        0.0006982959457673132
      ],
      [
        0.4060836136341095,
        -0.6606665253639221,
        0.030530216172337532,
        0.1260174959897995,
        0.10180726647377014,
        -0.02435261942446232,
        -0.3528742790222168,
        0.05331570282578468
      ],
      [
        0.2660873830318451,
        -0.12146443873643875,
        0.07714073359966278,
        0.17984077334403992,
        -0.23397597670555115,
        -0.11129847913980484,
        0.05532809719443321,
        0.05255453661084175
      ],
      [
        -0.34624114632606506,
        -0.4585903286933899,
        -0.12061132490634918,
        -0.008852197788655758,
        0.7327576279640198,
        0.2768692374229431,
        0.6667998433113098,
        0.24074788391590118
      ],
      [
        -0.020524362102150917,
        -0.1556216925382614,
        -0.23376800119876862,
        -0.1810038834810257,
        0.526651918888092,
        0.333725243806839,
        -0.10400524735450745,
        0.10510002076625824
      ],
      [
        0.33713850378990173,
        0.4697897732257843,
        0.23537562787532806,
        0.20988014340400696,
        -0.02968422695994377,
        -0.007177349179983139,
        0.2721976935863495,
        0.28059065341949463
      ],
      [
        -0.5419872999191284,
        0.5410788655281067,
        0.09336536377668381,
        0.11594883352518082,
        -0.10105984658002853,
        0.1429513692855835,
        0.10722049325704575,
        0.29475948214530945
      ],
      [
        -0.17365697026252747,
        0.5166394710540771,
        0.02958684228360653,
        0.07072949409484863,
        -0.05277209356427193,
        0.20697391033172607,
        -0.07127933949232101,
        0.004215873312205076
      ],
      [
        -0.19962579011917114,
        -0.2914910912513733,
        -0.32549232244491577,
        0.27359309792518616,
        0.2706209421157837,
        0.22436583042144775,
        0.3538818955421448,
        -0.27031564712524414
      ],
      [
        -0.2982124090194702,
        0.11794852465391159,
        -0.16078001260757446,
        0.22096408903598785,
        -0.3188011348247528,
        -0.18560196459293365,
        -0.41600823402404785,
        -0.22026294469833374
      ],
      [
        0.06907184422016144,
        0.5952627062797546,
        0.1731521040201187,
        0.18525394797325134,
        0.4013950824737549,
        -0.016449183225631714,
        0.17467908561229706,
        0.33389562368392944
      ],
      [
        0.2524067461490631,
        0.4323270320892334,
        0.11603645980358124,
        0.17458640038967133,
        0.023220719769597054,
        0.22432184219360352,
        0.04523177817463875,
        -0.02913144789636135
      ],
      [
        -0.14645346999168396,
        -0.07377520948648453,
        -0.15362268686294556,
        0.13189519941806793,
        0.2892538011074066,
        -0.03269914537668228,
        -0.06197933107614517,
        0.3857158422470093
      ],
      [
        0.19504034519195557,
        0.27664870023727417,
        -0.1930922418832779,
        0.18415415287017822,
        0.21276015043258667,
        -0.30829891562461853,
        0.39275068044662476,
        0.26629385352134705
      ],
      [
        0.11813350766897202,
        1.0413854122161865,
        -0.09044171869754791,
        -0.010924194008111954,
        0.23343494534492493,
        -0.1011321023106575,
        -0.25312045216560364,
        -0.20443910360336304
      ],
      [
        -0.17638245224952698,
        -0.024568472057580948,
        0.04511183500289917,
        0.2707241177558899,
        -0.1263045370578766,
        -0.31894296407699585,
        -0.11922118812799454,
        0.11267929524183273
      ],
      [
        0.19998300075531006,
        -0.6152358651161194,
        -0.06437554210424423,
        -0.19141125679016113,
        -0.038516029715538025,
        0.19702008366584778,
        -0.07266324013471603,
        0.11880757659673691
      ],
      [
        0.33443620800971985,
        0.19432160258293152,
        -0.2597365379333496,
        -0.088516004383564,
        0.0645010769367218,
        -0.2921542823314667,
        0.11837272346019745,
        -0.46420177817344666
      ],
      [
        -0.19071029126644135,
        -0.3778243958950043,
        -0.01756855472922325,
        0.14963337779045105,
        -0.44428694248199463,
        0.1415696144104004,
        -0.2696182131767273,
        0.1654646396636963
      ],
      [
        -0.12216822057962418,
        -0.6228776574134827,
        0.14642086625099182,
        0.13050098717212677,
        0.4200664162635803,
        0.15314030647277832,
        0.031419143080711365,
        0.1805599480867386
      ],
      [
        0.34166762232780457,
        0.11857933551073074,
        -0.14325696229934692,
        -0.030913256108760834,
        -0.5569157600402832,
        -0.1963135153055191,
        -0.3083377182483673,
        -0.22766856849193573
      ],
      [
        -0.01634460687637329,
        0.249618798494339,
        0.02096380479633808,
        -0.2050114870071411,
        -0.16176731884479523,
        0.0007472726283594966,
        0.18205389380455017,
        0.2876819372177124
      ],
      [
        0.3569502830505371,
        -0.16364552080631256,
        0.11335060745477676,
        -0.2377040535211563,
        -0.3361969292163849,
        0.09733015298843384,
        -0.17055973410606384,
        0.09046420454978943
      ],
      [
        0.017115982249379158,
        -0.20619413256645203,
        -0.23348937928676605,
        0.13724233210086823,
        0.05020834133028984,
        0.36007100343704224,
        0.318612664937973,
        0.28410834074020386
      ],
      [
        -0.29392728209495544,
        -0.5319492220878601,
        -0.03231426700949669,
        0.003958542365580797,
        0.9490109086036682,
        0.09964974224567413,
        1.1064190864562988,
        0.04536304250359535
      ],
      [
        -0.5087360143661499,
        -0.10677135735750198,
        0.19408607482910156,
        0.1997995525598526,
        -0.2644083499908447,
        0.23129110038280487,
        0.26050975918769836,
        0.29978859424591064
      ],
      [
        0.7552032470703125,
        -0.594325602054596,
        0.03825262933969498,
        0.07579150795936584,
        -0.15917636454105377,
        0.025598222389817238,
        -0.2603190839290619,
        0.2720046639442444
      ],
      [
        0.25353145599365234,
        0.0030435509979724884,
        0.06022435799241066,
        0.09177490323781967,
        -0.15179100632667542,
        0.09010564535856247,
        0.19268512725830078,
        -0.07347920536994934
      ],
      [
        0.25442203879356384,
        -0.2326173037290573,
        0.13964150846004486,
        -0.16303089261054993,
        -0.300809770822525,
        -0.21243493258953094,
        0.18558961153030396,
        -0.07746204733848572
      ],
      [
        0.18909424543380737,
        -0.3954695165157318,
        0.2225407510995865,
        0.23952773213386536,
        -0.3093826472759247,
        -0.28193697333335876,
        -0.3032916188240051,
        0.06348176300525665
      ],
      [
        0.29114827513694763,
        -0.7940362691879272,
        -0.1245771199464798,
        0.06744714081287384,
        -0.21079885959625244,
        0.04266250878572464,
        -0.11136699467897415,
        -0.13718746602535248
      ],
      [
        0.34349849820137024,
        0.2627985179424286,
        -0.1635185331106186,
        -0.000713006651494652,
        -0.36002063751220703,
        0.07689736038446426,
        -0.7144001722335815,
        -0.48903676867485046
      ],
      [
        2.0506436824798584,
        -1.1103030443191528,
        0.019338663667440414,
        -0.01876484788954258,
        -0.11852657794952393,
        0.013513422571122646,
        0.12347646802663803,
        -0.06082181632518768
      ],
      [
        -0.5942165851593018,
        -0.31653591990470886,
        -0.11411383002996445,
        0.11696940660476685,
        -0.2931232154369354,
        0.2316807061433792,
        -0.10608281195163727,
        -0.12556691467761993
      ],
      [
        0.2822599709033966,
        -0.008888297714293003,
        0.18518421053886414,
        0.11132340133190155,
        -0.13569165766239166,
        -0.1744435578584671,
        -0.025647666305303574,
        0.26936522126197815
      ],
      [
        -0.14361722767353058,
        -0.4466010332107544,
        0.02701643668115139,
        0.18880446255207062,
        0.008833452127873898,
        -0.29882895946502686,
        -0.3481156527996063,
        0.07481057196855545
      ],
      [
        -0.5239567160606384,
        -0.06968337297439575,
        0.024560479447245598,
        0.05191166326403618,
        0.12255523353815079,
        -0.0038521867245435715,
        -0.2502085566520691,
        -0.26610660552978516
      ],
      [
        -0.23555491864681244,
        0.4064575433731079,
        0.10742884129285812,
        0.10469134896993637,
        -0.22531601786613464,
        0.2900681793689728,
        0.5489506721496582,
        0.49913454055786133
      ],
      [
        -0.22371317446231842,
        -0.07172563672065735,
        -0.19244728982448578,
        0.2669543921947479,
        -0.3843148350715637,
        -0.38393163681030273,
        -0.03265427425503731,
        -0.03893011063337326
      ],
      [
        -0.24370595812797546,
        0.17139355838298798,
        0.021817918866872787,
        -0.20663584768772125,
        0.34850624203681946,
        -0.07403592765331268,
        0.18687663972377777,
        0.4278949499130249
      ],
      [
        0.617539644241333,
        0.2356039136648178,
        0.2124313861131668,
        0.025099273771047592,
        -0.15946722030639648,
        0.26388126611709595,
        0.0751684159040451,
        -0.197380930185318
      ],
      [
        -0.18464690446853638,
        -0.7714191675186157,
        0.24663189053535461,
        -0.04294176772236824,
        -0.1817702203989029,
        0.0349046066403389,
        0.27830034494400024,
        0.25252652168273926
      ],
      [
        0.6231469511985779,
        -0.09105540066957474,
        0.06978616118431091,
        -0.04252220690250397,
        -0.15056264400482178,
        -0.3079075515270233,
        -0.2261461764574051,
        0.045121826231479645
      ]
    ],
    "net.0.bias": [
      -0.2500702440738678,
      -0.24599145352840424,
      0.31885188817977905,
      -0.048074543476104736,
      -0.2859252095222473,
      0.3555864989757538,
      -0.17013238370418549,
      0.2282901555299759,
      -0.33201006054878235,
      -0.10330897569656372,
      0.2577747702598572,
      -0.18905623257160187,
      0.49395450949668884,
      -0.44429346919059753,
      -0.33506929874420166,
      -0.11869876086711884,
      -0.1295800507068634,
      0.6250335574150085,
      -0.5839303731918335,
      0.18528029322624207,
      -0.08650734275579453,
      -0.1550120711326599,
      0.4350544810295105,
      -1.313682198524475,
      0.10644879937171936,
      0.42647162079811096,
      -0.02604835294187069,
      0.25671979784965515,
      -0.1417689025402069,
      0.38860809803009033,
      -1.4912004470825195,
      -0.40341582894325256,
      -0.09816878288984299,
      0.17844004929065704,
      0.254689484834671,
      0.4420495927333832,
      -0.01970333233475685,
      -0.11163520067930222,
      0.23139137029647827,
      -0.1488995999097824,
      1.4083147048950195,
      -0.24008755385875702,
      -0.10473240911960602,
      -0.06720481812953949,
      0.21486055850982666,
      0.15348058938980103,
      0.050581302493810654,
      -0.30684784054756165,
      0.21165888011455536,
      0.10870561748743057,
      0.3272548019886017,
      -0.3224795460700989,
      0.25537222623825073,
      0.3705976903438568,
      0.2079433798789978,
      -0.552746593952179,
      0.5284990668296814,
      -0.8846230506896973,
      0.05935882031917572,
      0.007780495099723339,
      -0.17553943395614624,
      1.7237147092819214,
      -0.2945021092891693,
      -0.06135166436433792,
      -0.13870342075824738,
      -0.014195055700838566,
      -0.014218206517398357,
      0.277904212474823,
      -0.8379735946655273,
      0.7018749713897705,
      0.011209884658455849,
      -0.5009717345237732,
      -0.46346765756607056,
      -0.3233647048473358,
      0.4414040446281433,
      -0.013390440493822098,
      0.09121058881282806,
      0.2673255205154419,
      0.045342035591602325,
      0.3460872769355774
    ],
    "net.2.weight": [
      [
        0.07834780216217041,
        -0.19510050117969513,
        -0.10402355343103409,
        -0.05778348445892334,
        -0.04273838549852371,
        0.02289295569062233,
        0.12767013907432556,
        -0.1273951381444931,
        0.022106364369392395,
        -0.07436492294073105,
        0.04508136212825775,
        0.07934200763702393,
        -0.07301203906536102,
        0.06500204652547836,
        -0.05059942975640297,
        0.04340223968029022,
        0.06287697702646255,
        -0.08987010270357132,
        0.2797015905380249,
        -0.07587852329015732,
        -0.10923454910516739,
        0.1588224470615387,
        0.12495508044958115,
        -0.2642364203929901,
        0.13983359932899475,
        0.08389295637607574,
        0.05029654875397682,
        0.004549234639853239,
        0.1617048680782318,
        -0.05673915892839432,
        -0.5785090923309326,
        0.09813174605369568,
        0.20141829550266266,
        0.08892955631017685,
        0.07686801999807358,
        0.006826432887464762,
        -0.034574296325445175,
        -0.009453588165342808,
        -0.12039265781641006,
        -0.12322526425123215,
        0.36939603090286255,
        -0.016344768926501274,
        -0.1572742760181427,
        0.16469040513038635,
        0.06716782599687576,
        -0.05660351738333702,
        0.05703254044055939,
        0.0823902040719986,
        -0.12120188027620316,
        -0.002598721766844392,
        -0.023425817489624023,
        -0.08312270045280457,
        0.0941353291273117,
        0.03930075094103813,
        -0.04185885563492775,
        -0.002422991208732128,
        0.14006081223487854,
        -0.16288915276527405,
        0.0522819384932518,
        -0.16053710877895355,
        -0.03610315918922424,
        0.5997611880302429,
        0.057850874960422516,
        -0.17595155537128448,
        -0.04928555339574814,
        -0.06801172345876694,
        -0.02981080859899521,
        -0.181477352976799,
        -0.0960286483168602,
        -0.47789448499679565,
        0.16115789115428925,
        -0.010394824668765068,
        0.1312621831893921,
        0.06968656182289124,
        0.013250140473246574,
        0.02982914447784424,
        -0.006552418228238821,
        -0.1679503172636032,
        0.005793686490505934,
        -0.071828193962574
      ],
      [
        0.0334213487803936,
        -0.14166641235351562,
        0.15577638149261475,
        -0.0544416718184948,
        -0.04905669391155243,
        0.0995626449584961,
        0.04940090328454971,
        -0.08096935600042343,
        -0.043680641800165176,
        0.04421624913811684,
        -0.006877511739730835,
        -0.113216832280159,
        0.08029182255268097,
        -0.11569638550281525,
        0.039672452956438065,
        0.00851640198379755,
        -0.16476930677890778,
        0.1510215550661087,
        -0.13896901905536652,
        0.07465936988592148,
        0.06161227449774742,
        -0.05177580937743187,
        0.07172924280166626,
        -0.3465261161327362,
        -0.014587159268558025,
        0.025933094322681427,
        0.016136735677719116,
        -0.025421690195798874,
        0.1660071760416031,
        0.057818688452243805,
        -0.06714468449354172,
        -0.09779029339551926,
        0.04146050289273262,
        -0.04782704636454582,
        -0.04952555149793625,
        0.05300706624984741,
        -0.0013361067976802588,
        -0.191946879029274,
        -0.10370681434869766,
        -0.012844921089708805,
        0.3346995711326599,
        -0.020630648359656334,
        0.03926414996385574,
        0.10842549800872803,
        0.14031143486499786,
        -0.02952437847852707,
        0.029002157971262932,
        0.04114897921681404,
        0.07393258064985275,
        0.005209167953580618,
        0.03407256305217743,
        0.14934438467025757,
        -0.01954236626625061,
        -0.0538385733962059,
        0.08269070088863373,
        -0.13676820695400238,
        -0.028200209140777588,
        -0.19491170346736908,
        0.10170362889766693,
        -0.06891338527202606,
        0.03228069841861725,
        0.7049049139022827,
        -0.030990760773420334,
        -0.12183208763599396,
        0.06520380824804306,
        -0.07230161875486374,
        0.03269246965646744,
        -0.11392508447170258,
        -0.09770277887582779,
        -0.692996621131897,
        0.002311763120815158,
        -0.05886343866586685,
        -0.14423233270645142,
        -0.03237580507993698,
        0.1051989421248436,
        0.009517893195152283,
        0.11536508798599243,
        0.1656971424818039,
        -0.11554428189992905,
        0.08334262669086456
      ]
    ],
    "net.2.bias": [
      -0.05856458097696304,
      0.06141403317451477
    ]
  },
  "F2": {
    "n_in": 2,
    "n_hid": 60,
    "n_out": 2,
    "activation": "tanh",
    "net.0.weight": [
      [
        -0.6675980687141418,
        0.2218644618988037
      ],
      [
        0.2922551929950714,
        -0.47822317481040955
      ],
      [
        0.4733215868473053,
        -0.47514432668685913
      ],
      [
        0.31479284167289734,
        0.05350745469331741
      ],
      [
        0.8118976950645447,
        -0.4870508909225464
      ],
      [
        -0.9061440825462341,
        0.5763247013092041
      ],
      [
        0.8149445652961731,
        -0.02909594029188156
      ],
      [
        0.17288950085639954,
        -0.483525812625885
      ],
      [
        0.6356496214866638,
        -0.7292829155921936
      ],
      [
        0.05927310883998871,
        -0.3895503580570221
      ],
      [
        -0.19230428338050842,
        0.09076958149671555
      ],
      [
        0.0024663147050887346,
        -0.040871985256671906
      ],
      [
        -0.20605561137199402,
        -0.43317312002182007
      ],
      [
        0.2550482451915741,
        -0.27356696128845215
      ],
      [
        -0.22481167316436768,
        -0.26625558733940125
      ],
      [
        -1.099426031112671,
        -0.5839065313339233
      ],
      [
        0.8565595746040344,
        0.6727432608604431
      ],
      [
        0.13940918445587158,
        -0.4090742766857147
      ],
      [
        0.10069163888692856,
        0.039165519177913666
      ],
      [
        -0.6002529263496399,
        -0.006686308886855841
      ],
      [
        0.6917941570281982,
        -0.8620865345001221
      ],
      [
        -0.20547568798065186,
        0.1097692996263504
      ],
      [
        0.5980348587036133,
        -0.6220622658729553
      ],
      [
        0.1272718757390976,
        0.6115122437477112
      ],
      [
        0.12445958703756332,
        0.2219671756029129
      ],
      [
        0.06565218418836594,
        0.2233072966337204
      ],
      [
        -0.35524967312812805,
        0.19281993806362152
      ],
      [
        0.8191396594047546,
        0.675029456615448
      ],
      [
        -0.9867905974388123,
        0.5463528633117676
      ],
      [
        -0.1619543433189392,
        -0.8180835843086243
      ],
      [
        0.32924798130989075,
        -0.5589659214019775
      ],
      [
        -0.07392262667417526,
        -0.5548214912414551
      ],
      [
        -0.6560825705528259,
        -0.08344188332557678
      ],
      [
        -0.5694986581802368,
        0.89288330078125
      ],
      [
        -0.06610013544559479,
        0.3503010869026184
      ],
      [
        0.16850636899471283,
        -0.24703091382980347
      ],
      [
        0.32719698548316956,
        -0.20872288942337036
      ],
      [
        0.10379064828157425,
        -0.15673130750656128
      ],
      [
        -0.010820017196238041,
        -0.19603703916072845
      ],
      [
        -0.13715381920337677,
        -0.5858518481254578
      ],
      [
        -0.12267529219388962,
        -0.6576367020606995
      ],
      [
        -0.20391586422920227,
        0.43801239132881165
      ],
      [
        -0.2952147126197815,
        -0.4532995820045471
      ],
      [
        -0.39252734184265137,
        -0.1611350178718567
      ],
      [
        0.07619265466928482,
        0.06009354814887047
      ],
      [
        0.3664291203022003,
        -0.4338309168815613
      ],
      [
        0.018631257116794586,
        0.30429401993751526
      ],
      [
        0.4363248348236084,
        -0.24588005244731903
      ],
      [
        -0.6089059114456177,
        -0.05001354217529297
      ],
      [
        0.5182608366012573,
        -0.21814940869808197
      ],
      [
        -0.27056899666786194,
        0.43548059463500977
      ],
      [
        0.05443232133984566,
        -0.5025436282157898
      ],
      [
        -0.6041812896728516,
        0.11238009482622147
      ],
      [
        -0.3234657347202301,
        0.5801801085472107
      ],
      [
        0.6355679631233215,
        0.4172825515270233
      ],
      [
        -0.39706623554229736,
        -0.3610756993293762
      ],
      [
        -0.05390767380595207,
        0.17586760222911835
      ],
      [
        -0.6625465154647827,
        -0.2572841942310333
      ],
      [
        -0.5227704644203186,
        0.542931318283081
      ],
      [
        -0.4172367751598358,
        0.7489043474197388
      ]
    ],
    "net.0.bias": [
      -0.16469748318195343,
      -0.3897516131401062,
      0.31268078088760376,
      0.1080980896949768,
      0.48183926939964294,
      0.2679101824760437,
      -0.6234662532806396,
      0.43970778584480286,
      -0.15299127995967865,
      -0.3527807891368866,
      0.4363768994808197,
      0.5308607220649719,
      -0.6397517919540405,
      -0.0816708356142044,
      0.5923165678977966,
      0.24782977998256683,
      0.5791725516319275,
      -0.2551884055137634,
      -0.40337181091308594,
      0.6002683639526367,
      0.35697028040885925,
      0.6737876534461975,
      -0.31053316593170166,
      -0.4620739221572876,
      -0.0982714295387268,
      -0.7345573902130127,
      0.2887854278087616,
      0.5094010829925537,
      0.1438063383102417,
      -0.056466467678546906,
      0.3640449345111847,
      -0.4342725872993469,
      0.6777218580245972,
      -0.7162580490112305,
      -0.6749553680419922,
      -0.17520521581172943,
      0.5931498408317566,
      0.052998460829257965,
      0.2757270038127899,
      -0.506847083568573,
      0.2444109171628952,
      -0.09311053901910782,
      0.2869358956813812,
      0.4861075282096863,
      0.31448373198509216,
      -0.08935485035181046,
      -0.02047646977007389,
      -0.4561103880405426,
      -0.22658877074718475,
      0.4438451826572418,
      -0.3092721402645111,
      0.4326152205467224,
      -0.26209747791290283,
      -0.18162354826927185,
      -0.02627781592309475,
      -0.6339164972305298,
      -0.017981838434934616,
      -0.05618172511458397,
      -0.08869769424200058,
      -0.16867947578430176
    ],
    "net.2.weight": [
      [
        0.0797993391752243,
        0.0773305892944336,
        -0.06332273781299591,
        0.07763702422380447,
        -0.0782707929611206,
        -0.08086646348237991,
        0.02316243201494217,
        0.023789802566170692,
        -0.07381711155176163,
        -0.14022701978683472,
        -0.03296104446053505,
        0.062324680387973785,
        -0.13337798416614532,
        -0.12209779024124146,
        0.030771946534514427,
        -0.06238698959350586,
        -0.09881257265806198,
        -0.06449516117572784,
        -0.03768576309084892,
        -0.09894602745771408,
        -0.0609736405313015,
        0.02353539876639843,
        -0.13330137729644775,
        -0.035444680601358414,
        -0.09074772894382477,
        -0.10395373404026031,
        0.0624149851500988,
        -0.0862526074051857,
        -0.07225807011127472,
        0.06806516647338867,
        0.046069514006376266,
        0.09715114533901215,
        -0.017928484827280045,
        -0.0817556381225586,
        -0.03244974464178085,
        -0.011456433683633804,
        0.11588050425052643,
        -0.09370046854019165,
        0.011296231299638748,
        0.03887201473116875,
        -0.04871005564928055,
        -0.09653063118457794,
        0.07140368968248367,
        -0.10676305741071701,
        0.05111250653862953,
        -0.0922911986708641,
        0.030763013288378716,
        -0.11938121914863586,
        0.06101270765066147,
        -0.10078661888837814,
        -0.12841074168682098,
        0.023185277357697487,
        0.08149058371782303,
        -0.13233423233032227,
        -0.05391037091612816,
        0.09348458796739578,
        -0.07004130631685257,
        0.04458826780319214,
        -0.14467094838619232,
        -0.06535937637090683
      ],
      [
        -0.07636560499668121,
        0.09518706798553467,
        0.066302090883255,
        -0.0796879306435585,
        0.03800726681947708,
        0.029858000576496124,
        -0.053916677832603455,
        -0.06369674950838089,
        -0.062121838331222534,
        0.09282674640417099,
        -0.08336017280817032,
        -0.08524508774280548,
        -0.0474417507648468,
        -0.008402599021792412,
        0.043895967304706573,
        0.003088834462687373,
        -0.0161574799567461,
        -0.08770693838596344,
        -0.030326567590236664,
        -0.045610763132572174,
        0.12280971556901932,
        -0.11510486900806427,
        -0.09558817744255066,
        -0.1117708832025528,
        -0.032174184918403625,
        0.09274673461914062,
        0.12070555984973907,
        -0.09540591388940811,
        0.03697390854358673,
        0.067711241543293,
        0.06707817316055298,
        0.09838955104351044,
        -0.00014693882258143276,
        -0.10017960518598557,
        0.0785507932305336,
        -0.053517896682024,
        0.07563357055187225,
        -0.027288448065519333,
        0.0600992850959301,
        0.10787653177976608,
        0.12790575623512268,
        -0.12094680964946747,
        -0.07397446781396866,
        -0.04454438015818596,
        -0.07645227760076523,
        0.11254693567752838,
        -0.017828693613409996,
        -0.09437254071235657,
        -0.07143481820821762,
        -0.05806193873286247,
        0.04224523901939392,
        -0.10497889667749405,
        -0.1335214078426361,
        -0.13739147782325745,
        0.10038689523935318,
        0.05363424867391586,
        -0.06561849266290665,
        0.002890769625082612,
        0.08115497976541519,
        0.0021863409783691168
      ]
    ],
    "net.2.bias": [
      -0.006938108708709478,
      0.015503423288464546
    ]
  }
}