{
  "name": "PV3",
  "type": "F1+H1+F2",
  "t_step": 0.01,
  "normfacs": {
    "Ud": {
      "scale": 1.0,
      "offset": 0.47477516531944275,
      "max": 1.0,
      "min": 0.0
    },
    "Uq": {
      "scale": 0.4000000059604645,
      "offset": -8.28867807722844e-11,
      "max": 0.20000000298023224,
      "min": -0.20000000298023224
    },
    "Vd": {
      "scale": 329.87640380859375,
      "offset": 143.28494262695312,
      "max": 323.7900085449219,
      "min": -6.086386203765869
    },
    "Vq": {
      "scale": 158.86859130859375,
      "offset": -2.000671625137329,
      "max": 64.76424407958984,
      "min": -94.1043472290039
    },
    "Ra": {
      "scale": 51.999977111816406,
      "offset": 49.49589157104492,
      "max": 60.0,
      "min": 8.000022888183594
    },
    "Rb": {
      "scale": 51.999977111816406,
      "offset": 54.74798583984375,
      "max": 60.0,
      "min": 8.000022888183594
    },
    "Rc": {
      "scale": 51.999977111816406,
      "offset": 49.49589157104492,
      "max": 60.0,
      "min": 8.000022888183594
    },
    "Ramp": {
      "scale": 1.0,
      "offset": 0.9495509266853333,
      "max": 1.0,
      "min": 0.0
    },
    "Isd": {
      "scale": 43.27613830566406,
      "offset": 3.4480490684509277,
      "max": 40.69775390625,
      "min": -2.578383445739746
    },
    "Isq": {
      "scale": 28.00843620300293,
      "offset": 2.3909170627593994,
      "max": 17.929737091064453,
      "min": -10.078699111938477
    }
  },
  "model_folder": "./ucf_s1",
  "model_root": "ucf_s1",
  "data_path": "d:/data/ucf_sigma/ucf_s1.hdf5",
  "lr": 0.001,
  "eps": 1e-08,
  "h5grp_prefix": "ucf",
  "num_iter": 10,
  "continue_iterations": false,
  "print_freq": 20,
  "batch_size": 800,
  "n_validation_pct": 15,
  "n_validation_seed": 99,
  "n_skip": 0,
  "n_trunc": 0,
  "n_dec": 1,
  "n_loss_skip": 50,
  "n_pad": 100,
  "gtype": "stable2ndx",
  "na": 2,
  "nb": 3,
  "nk": 0,
  "activation": "tanh",
  "nh1": 80,
  "nh2": 60,
  "COL_T": [
    "t"
  ],
  "COL_Y": [
    "Isd",
    "Isq"
  ],
  "COL_U": [
    "Ud",
    "Uq",
    "Vd",
    "Vq",
    "Ra",
    "Rb",
    "Rc",
    "Ramp"
  ],
  "clamps": null,
  "sensitivity": null,
  "H1": {
    "n_in": 2,
    "n_out": 2,
    "n_b": 3,
    "n_a": 2,
    "n_k": 0,
    "b_0_0": [
      0.03379828482866287,
      0.04606903716921806,
      0.02479328028857708
    ],
    "a_0_0": [
      0.19990232586860657,
      0.11261332035064697
    ],
    "alpha1_0_0": 0.10028602182865143,
    "alpha2_0_0": 0.02813836559653282,
    "b_0_1": [
      0.052736103534698486,
      0.07692666351795197,
      0.058071527630090714
    ],
    "a_0_1": [
      -0.031506989151239395,
      -0.03270608186721802
    ],
    "alpha1_0_1": -0.01575479842722416,
    "alpha2_0_1": -0.09855008870363235,
    "b_1_0": [
      0.07230885326862335,
      0.059238702058792114,
      0.04237049072980881
    ],
    "a_1_0": [
      -0.06560740619897842,
      -0.012342393398284912
    ],
    "alpha1_1_0": -0.03281547874212265,
    "alpha2_1_0": -0.09342239797115326,
    "b_1_1": [
      -0.011877141892910004,
      -0.007021193392574787,
      -0.032092608511447906
    ],
    "a_1_1": [
      0.22705607116222382,
      0.16520678997039795
    ],
    "alpha1_1_1": 0.11401958763599396,
    "alpha2_1_1": 0.11672662943601608
  },
  "H1s": {
    "n_in": 2,
    "n_out": 2,
    "n_a": 3,
    "n_b": 3,
    "b_0_0": [
      0.03379828482866287,
      11.366560682654379,
      1046.6060228645802
    ],
    "a_0_0": [
      1.0,
      219.9902325868606,
      13125.156462192528
    ],
    "b_0_1": [
      0.052736103534698486,
      18.239887058734894,
      1877.3429468274117
    ],
    "a_0_1": [
      1.0,
      196.84930108487606,
      9357.869289815426
    ],
    "b_1_0": [
      0.07230885326862335,
      20.385640859603882,
      1739.1804605722427
    ],
    "a_1_0": [
      1.0,
      193.43925938010216,
      9220.502004027367
    ],
    "b_1_1": [
      -0.011877141892910004,
      -3.077547717839477,
      -509.9094379693298
    ],
    "a_1_1": [
      1.0,
      222.70560711622235,
      13922.628611326214
    ]
  },
  "Q1s": {
    "n_in": 2,
    "n_out": 2,
    "n_a": 2,
    "n_b": 3,
    "A_0_0": [
      [
        -219.9902325868606,
        -13125.156462192528
      ],
      [
        1.0,
        0.0
      ]
    ],
    "B_0_0": [
      1.0,
      0.0
    ],
    "C_0_0": [
      3.9312681421598716,
      602.998246334632
    ],
    "D_0_0": 0.03379828482866287,
    "A_0_1": [
      [
        -196.84930108487606,
        -9357.869289815426
      ],
      [
        1.0,
        0.0
      ]
    ],
    "B_0_1": [
      1.0,
      0.0
    ],
    "C_0_1": [
      7.858821935989834,
      1383.84538309553
    ],
    "D_0_1": 0.052736103534698486,
    "A_1_0": [
      [
        -193.43925938010216,
        -9220.502004027367
      ],
      [
        1.0,
        0.0
      ]
    ],
    "B_1_0": [
      1.0,
      0.0
    ],
    "C_1_0": [
      6.398269836696901,
      1072.4565340999802
    ],
    "D_1_0": 0.07230885326862335,
    "A_1_1": [
      [
        -222.70560711622235,
        -13922.628611326214
      ],
      [
        1.0,
        0.0
      ]
    ],
    "B_1_1": [
      1.0,
      0.0
    ],
    "C_1_1": [
      -0.43244162177343615,
      -344.5484024303198
    ],
    "D_1_1": -0.011877141892910004
  },
  "F1": {
    "n_in": 8,
    "n_hid": 80,
    "n_out": 2,
    "activation": "tanh",
    "net.0.weight": [
      [
        -0.10095543414354324,
        0.14409412443637848,
        -0.38605552911758423,
        -0.22192968428134918,
        -0.10234659910202026,
        0.11828058958053589,
        0.026821017265319824,
        0.2744333744049072
      ],
      [
        0.02647535130381584,
        0.05818765237927437,
        -0.0519426204264164,
        -0.16467978060245514,
        -0.3169955909252167,
        -0.19495587050914764,
        -0.12497184425592422,
        0.015405088663101196
      ],
      [
        0.1814751774072647,
        0.2810477614402771,
        -0.1898476928472519,
        -0.049607813358306885,
        0.17625051736831665,
        0.3570001423358917,
        -0.024927442893385887,
        0.38622090220451355
      ],
      [
        0.028759261593222618,
        0.0025624583940953016,
        0.4022534489631653,
        -0.43900758028030396,
        -0.2188723236322403,
        -0.08666614443063736,
        -0.13411201536655426,
        0.2944747805595398
      ],
      [
        -0.12346567213535309,
        -0.1646658182144165,
        -0.14354518055915833,
        -0.3708922266960144,
        -0.30809906125068665,
        0.18972909450531006,
        0.05604660511016846,
        0.205070361495018
      ],
      [
        -0.021003302186727524,
        -0.10856577008962631,
        0.026850447058677673,
        -0.21980136632919312,
        -0.18840324878692627,
        -0.0881272628903389,
        0.2901323735713959,
        0.25455063581466675
      ],
      [
        -0.19818753004074097,
        0.01845146343111992,
        0.1879553198814392,
        0.4445907175540924,
        0.11268781125545502,
        0.03936376795172691,
        0.2094217836856842,
        -0.2074434906244278
      ],
      [
        0.14076998829841614,
        -0.27172499895095825,
        -0.17359164357185364,
        -0.26631850004196167,
        0.08926551043987274,
        0.04728018119931221,
        -0.28013625741004944,
        0.1199541911482811
      ],
      [
        0.11759771406650543,
        -0.05980473756790161,
        -0.06100977957248688,
        0.11203636229038239,
        0.25179019570350647,
        0.33534473180770874,
        -0.24000276625156403,
        -0.14717301726341248
      ],
      [
        0.2464536726474762,
        0.3680223524570465,
        0.4135406017303467,
        0.3456558585166931,
        0.016105322167277336,
        -0.2673134505748749,
        -0.021732700988650322,
        -0.2130684107542038
      ],
      [
        -0.2818785011768341,
        0.31345057487487793,
        0.3098035454750061,
        -0.4382685422897339,
        0.03200458735227585,
        -0.1177060455083847,
        -0.09235196560621262,
        -0.17717720568180084
      ],
      [
        0.047619763761758804,
        -0.2797712981700897,
        0.03937210887670517,
        0.10836632549762726,
        0.24340422451496124,
        0.08193998783826828,
        -0.35961905121803284,
        -0.2923489809036255
      ],
      [
        0.2051686942577362,
        0.18031346797943115,
        -0.2406863570213318,
        -0.07570707052946091,
        0.39649146795272827,
        0.3237890303134918,
        -0.09027157723903656,
        0.021632084622979164
      ],
      [
        -0.4022462069988251,
        -0.11454581469297409,
        -0.33551225066185,
        -0.3744228780269623,
        -0.08243252336978912,
        -0.04620184004306793,
        -0.20774270594120026,
        0.16263775527477264
      ],
      [
        -0.08328576385974884,
        0.4311196804046631,
        0.37126976251602173,
        -0.26040419936180115,
        -0.2377808690071106,
        -0.10705374926328659,
        -0.098203144967556,
        0.09154152125120163
      ],
      [
        0.03304555267095566,
        -0.04194313660264015,
        -0.27586817741394043,
        0.17822255194187164,
        -0.22715474665164948,
        -0.09716034680604935,
        0.02348584495484829,
        -0.185551717877388
      ],
      [
        -0.12606172263622284,
        -0.34159138798713684,
        -0.08386610448360443,
        0.017713060602545738,
        -0.25863006711006165,
        -0.08786547183990479,
        0.22478936612606049,
        -0.04100808873772621
      ],
      [
        0.061636876314878464,
        0.0875622108578682,
        0.127784863114357,
        0.35103413462638855,
        0.32600197196006775,
        0.23152492940425873,
        0.32676824927330017,
        0.07748149335384369
      ],
      [
        -0.40171971917152405,
        -0.24308985471725464,
        0.15304739773273468,
        -0.08672989159822464,
        -0.12489248067140579,
        -0.24401390552520752,
        -0.280033677816391,
        -0.37823426723480225
      ],
      [
        0.02437628246843815,
        0.2771401107311249,
        0.28515878319740295,
        -0.29695433378219604,
        0.23594073951244354,
        -0.22286906838417053,
        -0.05934423580765724,
        -0.13639846444129944
      ],
      [
        0.003177032805979252,
        -0.0015548908850178123,
        -0.24212628602981567,
        -0.22145657241344452,
        -0.005867393221706152,
        0.08788205683231354,
        -0.1111539676785469,
        0.2285137176513672
      ],
      [
        -0.38393911719322205,
        -0.12011086195707321,
        0.24292485415935516,
        -0.22688978910446167,
        0.2653471827507019,
        0.035913098603487015,
        -0.3729807436466217,
        0.17878457903862
      ],
      [
        -0.17507751286029816,
        -0.1659819632768631,
        0.15251745283603668,
        -0.1983538568019867,
        0.173814058303833,
        0.061522699892520905,
        0.38835275173187256,
        0.08969708532094955
      ],
      [
        0.30054768919944763,
        0.09814061224460602,
        0.03978211060166359,
        -0.19314028322696686,
        -0.46740806102752686,
        0.008078702725470066,
        0.10466219484806061,
        0.23623768985271454
      ],
      [
        -0.35798558592796326,
        -0.055760424584150314,
        -0.35677197575569153,
        -0.23228421807289124,
        -0.13024801015853882,
        0.15141333639621735,
        -0.13491763174533844,
        -0.02521868422627449
      ],
      [
        -0.10254720598459244,
        0.13987912237644196,
        -0.3817223608493805,
        -0.25742489099502563,
        -0.04666072875261307,
        0.387952595949173,
        0.031543999910354614,
        0.28370651602745056
      ],
      [
        0.03739809989929199,
        -0.02131005935370922,
        -0.09309879690408707,
        -0.11459080129861832,
        0.0875680074095726,
        -0.06391911208629608,
        0.040724679827690125,
        0.02267163246870041
      ],
      [
        -0.17853373289108276,
        -0.1516098529100418,
        0.3797142803668976,
        -0.35574594140052795,
        -0.11863967776298523,
        0.22528445720672607,
        0.03446424752473831,
        0.02016214281320572
      ],
      [
        -0.402837872505188,
        0.20144470036029816,
        -0.34292975068092346,
        0.032425448298454285,
        -0.04760913550853729,
        0.029373908415436745,
        0.07488104701042175,
        0.30036109685897827
      ],
      [
        0.14153994619846344,
        0.37134644389152527,
        0.31224390864372253,
        -0.20342499017715454,
        0.222715362906456,
        -0.14401307702064514,
        -0.08569958806037903,
        0.10859721899032593
      ],
      [
        0.21282896399497986,
        0.3253372609615326,
        -0.01781756617128849,
        0.037753745913505554,
        0.08071959018707275,
        -0.39656558632850647,
        0.15431413054466248,
        -0.2599867284297943
      ],
      [
        -0.10772214084863663,
        -0.14449194073677063,
        -0.29871615767478943,
        -0.011652125045657158,
        0.2619939148426056,
        -0.15606307983398438,
        -0.24026863276958466,
        -0.14271746575832367
      ],
      [
        -0.4573819041252136,
        0.10121554881334305,
        -0.2742151618003845,
        -0.23661135137081146,
        -0.18869400024414062,
        0.1763012856245041,
        0.2022211104631424,
        0.26499560475349426
      ],
      [
        0.014921929687261581,
        -0.19584842026233673,
        -0.2101123034954071,
        0.07623998075723648,
        0.34053996205329895,
        0.11479627341032028,
        -0.11737537384033203,
        -0.17355602979660034
      ],
      [
        -0.389102041721344,
        0.0009266139823012054,
        -0.2580666244029999,
        -0.3902111351490021,
        0.2763351798057556,
        -0.29655924439430237,
        -0.07390820235013962,
        0.08202462643384933
      ],
      [
        -0.10305175930261612,
        -0.1820266991853714,
        -0.39183950424194336,
        0.4326154887676239,
        0.22022713720798492,
        0.4070136249065399,
        0.04412948340177536,
        0.14491325616836548
      ],
      [
        -0.0625147745013237,
        0.02918289601802826,
        -0.191395565867424,
        0.252966970205307,
        0.11593460291624069,
        0.0326526053249836,
        -0.07536181062459946,
        -0.10670487582683563
      ],
      [
        0.17888033390045166,
        -0.32426339387893677,
        0.07408235222101212,
        -0.20926132798194885,
        -0.13359002768993378,
        0.047992318868637085,
        -0.14666759967803955,
        -0.04688435047864914
      ],
      [
        0.13990990817546844,
        -0.2784332036972046,
        0.12648960947990417,
        0.06302103400230408,
        0.13303464651107788,
        -0.05820633843541145,
        -0.2967515289783478,
        -0.05087200179696083
      ],
      [
        0.2384001463651657,
        -0.04665368050336838,
        0.24777868390083313,
        0.26649874448776245,
        -0.25083020329475403,
        -0.036501653492450714,
        0.07997211068868637,
        0.033996034413576126
      ],
      [
        -0.16612420976161957,
        -0.05120519921183586,
        -0.46743613481521606,
        0.05252990499138832,
        0.345246285200119,
        0.3159107267856598,
        0.30822262167930603,
        0.06361090391874313
      ],
      [
        0.0943414494395256,
        -0.14906887710094452,
        -0.3608410060405731,
        -0.2164589911699295,
        0.3301847279071808,
        0.18598012626171112,
        -0.2669115960597992,
        0.13734868168830872
      ],
      [
        0.37353554368019104,
        0.4222227931022644,
        0.41447168588638306,
        0.3060660660266876,
        -0.1499951034784317,
        -0.13307985663414001,
        0.22134476900100708,
        0.20929265022277832
      ],
      [
        -0.3024234473705292,
        0.2927553057670593,
        0.08785597234964371,
        0.26363033056259155,
        -0.1343584805727005,
        0.2055024951696396,
        -0.036701999604701996,
        0.27398058772087097
      ],
      [
        -0.14205637574195862,
        0.15807317197322845,
        -0.007936441339552402,
        0.24379238486289978,
        -0.004034531768411398,
        0.30966734886169434,
        -0.13083411753177643,
        0.09520866721868515
      ],
      [
        -0.15018369257450104,
        -0.2790081202983856,
        -0.19446584582328796,
        0.3356436789035797,
        0.08973214775323868,
        0.2551022171974182,
        0.18168626725673676,
        -0.2685416638851166
      ],
      [
        -0.28197211027145386,
        -0.010096270591020584,
        -0.2645823657512665,
        0.3881484270095825,
        -0.12238260358572006,
        -0.021016331389546394,
        -0.1966584026813507,
        -0.14193065464496613
      ],
      [
        0.28107506036758423,
        0.2859776020050049,
        0.2471296340227127,
        0.3420204818248749,
        0.3564067780971527,
        -0.012719523161649704,
        0.19759635627269745,
        0.311045378446579
      ],
      [
        0.2217693030834198,
        0.42441415786743164,
        0.28711599111557007,
        0.25301703810691833,
        -0.09531689435243607,
        0.18343189358711243,
        0.06904953718185425,
        -0.06937527656555176
      ],
      [
        -0.16421817243099213,
        -0.15259435772895813,
        -0.2273569107055664,
        0.36545857787132263,
        0.3293483257293701,
        0.060521554201841354,
        -0.12660010159015656,
        0.41134995222091675
      ],
      [
        0.10519028455018997,
        0.003570461878553033,
        -0.28133267164230347,
        0.41174280643463135,
        0.21878567337989807,
        -0.1487332284450531,
        0.4125831425189972,
        0.26882994174957275
      ],
      [
        -0.037371229380369186,
        0.26971957087516785,
        -0.10762026160955429,
        0.012304460629820824,
        0.25618666410446167,
        0.004918327555060387,
        -0.294055312871933,
        -0.04855821281671524
      ],
      [
        -0.19675326347351074,
        -0.14380303025245667,
        -0.0647568479180336,
        0.2967227101325989,
        0.04973216727375984,
        -0.21092581748962402,
        0.048923928290605545,
        0.15799285471439362
      ],
      [
        0.07285800576210022,
        -0.3711773157119751,
        -0.16768091917037964,
        -0.30838438868522644,
        -0.022778823971748352,
        0.21102958917617798,
        -0.12299162894487381,
        0.055233411490917206
      ],
      [
        0.19266051054000854,
        0.05277073755860329,
        -0.3404080271720886,
        -0.02760368399322033,
        0.16297127306461334,
        -0.1615343540906906,
        0.26141685247421265,
        -0.3267436921596527
      ],
      [
        -0.20268434286117554,
        -0.40415167808532715,
        0.05975013226270676,
        0.11992654204368591,
        -0.46316927671432495,
        0.14225256443023682,
        -0.2699679136276245,
        0.09321383386850357
      ],
      [
        -0.1135333776473999,
        -0.4130939245223999,
        0.16698382794857025,
        0.18882045149803162,
        0.4735099971294403,
        0.27546006441116333,
        -0.11129026114940643,
        0.28088879585266113
      ],
      [
        0.16065660119056702,
        0.16230419278144836,
        -0.1476525217294693,
        -0.2036767601966858,
        -0.4683612287044525,
        -0.24522162973880768,
        -0.04494231939315796,
        -0.275494784116745
      ],
      [
        0.01625007949769497,
        0.1770986169576645,
        -0.042352888733148575,
        -0.16161306202411652,
        -0.1686159074306488,
        0.010439093224704266,
        0.26069605350494385,
        0.34205421805381775
      ],
      [
        0.2852892577648163,
        -0.06961163878440857,
        0.2026800811290741,
        -0.45550042390823364,
        -0.2875533699989319,
        0.1409323364496231,
        -0.18584072589874268,
        0.16284793615341187
      ],
      [
        -0.1541609913110733,
        -0.134048193693161,
        -0.1925484985113144,
        0.24317535758018494,
        -0.12475568056106567,
        0.19196054339408875,
        0.13007403910160065,
        0.32073748111724854
      ],
      [
        -0.08386383950710297,
        -0.07230447977781296,
        -0.16633884608745575,
        0.15784482657909393,
        0.24515461921691895,
        -0.13328342139720917,
        0.3666243553161621,
        -0.013679162599146366
      ],
      [
        -0.3476009666919708,
        -0.23702135682106018,
        0.2674879729747772,
        0.39656028151512146,
        -0.32233014702796936,
        0.24467366933822632,
        0.18234573304653168,
        0.22583132982254028
      ],
      [
        0.40787020325660706,
        -0.1568671464920044,
        0.21750622987747192,
        0.11687234789133072,
        -0.1444350928068161,
        0.079312764108181,
        -0.14168447256088257,
        0.20289430022239685
      ],
      [
        -0.009060820564627647,
        -0.07524646818637848,
        0.18116258084774017,
        0.18498581647872925,
        -0.14607882499694824,
        0.09059984982013702,
        0.23155418038368225,
        0.020503271371126175
      ],
      [
        0.20374269783496857,
        -0.09727738797664642,
        0.21384075284004211,
        -0.3600825071334839,
        -0.2890167832374573,
        -0.2505665719509125,
        0.24380213022232056,
        -0.10004666447639465
      ],
      [
        0.09635850787162781,
        -0.183877632021904,
        0.4485935568809509,
        0.2985629439353943,
        -0.21642397344112396,
        -0.19909490644931793,
        -0.21776965260505676,
        -0.005770133342593908
      ],
      [
        -0.03127402067184448,
        -0.24117498099803925,
        -0.07056205719709396,
        -0.011905894614756107,
        -0.22353415191173553,
        0.020775089040398598,
        -0.1198812872171402,
        -0.15834952890872955
      ],
      [
        -0.04907500371336937,
        0.21023514866828918,
        -0.3363094627857208,
        -0.05120208486914635,
        -0.16434107720851898,
        0.2947426736354828,
        -0.3694002628326416,
        -0.33214932680130005
      ],
      [
        0.3545841872692108,
        -0.11870992183685303,
        0.07210653275251389,
        0.045672882348299026,
        -0.026813676580786705,
        -0.005785240791738033,
        0.2723270356655121,
        -0.059031758457422256
      ],
      [
        -0.4500376880168915,
        -0.2617794871330261,
        -0.22301682829856873,
        0.18794886767864227,
        -0.17254003882408142,
        0.3264293968677521,
        -0.022490553557872772,
        -0.053284771740436554
      ],
      [
        0.2348482608795166,
        0.11112982779741287,
        0.2525900900363922,
        0.09381945431232452,
        -0.15684588253498077,
        -0.2615867555141449,
        -0.07589948177337646,
        0.14317987859249115
      ],
      [
        -0.1857752650976181,
        -0.4436240792274475,
        0.07443961501121521,
        0.22643762826919556,
        -0.11309094727039337,
        -0.3230997920036316,
        -0.33313435316085815,
        0.0063166264444589615
      ],
      [
        -0.11557219922542572,
        -0.15427975356578827,
        -0.016911227256059647,
        0.17105551064014435,
        0.2753413915634155,
        0.2395821213722229,
        -0.058767639100551605,
        -0.3211749196052551
      ],
      [
        -0.2465197741985321,
        0.42196568846702576,
        0.2333608716726303,
        0.26114174723625183,
        -0.2420112043619156,
        0.3728574812412262,
        0.3988269567489624,
        0.40365636348724365
      ],
      [
        -0.2840364873409271,
        -0.10758175700902939,
        -0.22323372960090637,
        0.4620913565158844,
        -0.1406097710132599,
        -0.11550978571176529,
        0.19653622806072235,
        -0.045044973492622375
      ],
      [
        -0.10741040110588074,
        0.02612483687698841,
        0.03893201798200607,
        -0.18077850341796875,
        0.3178715705871582,
        -0.08451737463474274,
        0.1485361009836197,
        0.44093623757362366
      ],
      [
        0.27264297008514404,
        0.12869535386562347,
        0.3958226442337036,
        0.10860872268676758,
        -0.13855361938476562,
        0.3634939193725586,
        0.10869944095611572,
        -0.31788918375968933
      ],
      [
        -0.055372901260852814,
        -0.2779519855976105,
        0.35015222430229187,
        -0.16042788326740265,
        -0.3093283176422119,
        -0.04149362072348595,
        0.23498046398162842,
        0.06348229199647903
      ],
      [
        0.2012648731470108,
        -0.05406082794070244,
        0.22090046107769012,
        -0.18210625648498535,
        -0.14517998695373535,
        -0.31246575713157654,
        -0.27088087797164917,
        0.15368522703647614
      ]
    ],
    "net.0.bias": [
      -0.19533634185791016,
      -0.017961693927645683,
      0.15281501412391663,
      -0.10738324373960495,
      -0.23127736151218414,
      0.35514742136001587,
      -0.16020628809928894,
      0.283991277217865,
      -0.27601736783981323,
      -0.12921802699565887,
      0.1676252782344818,
      -0.14552690088748932,
      0.319939523935318,
      -0.2692812979221344,
      -0.32247403264045715,
      -0.15508191287517548,
      0.03425374999642372,
      0.3867233395576477,
      -0.1995583474636078,
      0.12996460497379303,
      -0.08561571687459946,
      -0.09032454341650009,
      0.3139479458332062,
      -0.32394903898239136,
      0.005808066576719284,
      0.3329288959503174,
      -0.047393713146448135,
      0.2690626382827759,
      -0.054446324706077576,
      0.270255446434021,
      -0.331468790769577,
      -0.058947235345840454,
      -0.023824572563171387,
      0.13334999978542328,
      0.12436514347791672,
      0.41168904304504395,
      -0.04711908474564552,
      -0.0561680868268013,
      0.21164511144161224,
      -0.11143676191568375,
      0.5413333177566528,
      -0.19307291507720947,
      -0.040280506014823914,
      -0.028907088562846184,
      0.1657697707414627,
      0.23971512913703918,
      -0.08072160184383392,
      -0.29686716198921204,
      0.17383410036563873,
      0.13834477961063385,
      0.23057323694229126,
      -0.21475447714328766,
      0.21371500194072723,
      0.3165951073169708,
      0.06676862388849258,
      -0.37311825156211853,
      0.2787770926952362,
      -0.3357335031032562,
      0.08593413233757019,
      -0.0641239807009697,
      -0.15317875146865845,
      0.2342657893896103,
      -0.2915324866771698,
      -0.043980419635772705,
      -0.21521994471549988,
      -0.11021511256694794,
      -0.09617289900779724,
      0.2966389060020447,
      -0.16309577226638794,
      0.25751450657844543,
      0.006975853815674782,
      -0.2199213206768036,
      -0.3427841365337372,
      -0.31104934215545654,
      0.3703193664550781,
      -0.0854555144906044,
      0.04347134381532669,
      0.11407764256000519,
      0.19658777117729187,
      0.26845622062683105
    ],
    "net.2.weight": [
      [
        0.1423412561416626,
        -0.11607586592435837,
        -0.0013621642719954252,
        -0.17590735852718353,
        0.008470360189676285,
        0.019374681636691093,
        0.13036949932575226,
        -0.08692824840545654,
        0.05672839283943176,
        -0.1426461786031723,
        -0.04693557694554329,
        0.06492356956005096,
        -0.016643278300762177,
        0.10257075726985931,
        -0.11827243119478226,
        0.08318191766738892,
        0.054723888635635376,
        -0.07096566259860992,
        0.03478163853287697,
        -0.15116176009178162,
        -0.012000678107142448,
        0.07704789936542511,
        0.11177823692560196,
        -0.057405535131692886,
        0.14085926115512848,
        0.12310762703418732,
        0.061364978551864624,
        -0.0557248517870903,
        0.09509335458278656,
        -0.08104662597179413,
        -0.09829148650169373,
        0.09218557178974152,
        0.1917952299118042,
        0.13269782066345215,
        0.07094177603721619,
        0.08125917613506317,
        0.0395408496260643,
        0.0017796572064980865,
        -0.07087310403585434,
        -0.1398453265428543,
        0.08950411528348923,
        0.08462872356176376,
        -0.18955335021018982,
        0.08362835645675659,
        0.037722840905189514,
        -0.01881210319697857,
        0.06097722426056862,
        0.11270039528608322,
        -0.1589663326740265,
        0.048874713480472565,
        0.07385525107383728,
        -0.06362120807170868,
        0.08491360396146774,
        0.03927827998995781,
        0.10145629197359085,
        -0.025872401893138885,
        0.13748584687709808,
        -0.09047988057136536,
        0.05579585209488869,
        -0.21987394988536835,
        -0.0030019956175237894,
        0.12182331085205078,
        0.03608675301074982,
        -0.08989451825618744,
        -0.05179238319396973,
        -0.12779372930526733,
        -0.11255994439125061,
        -0.10986106842756271,
        0.012170309200882912,
        -0.033962611109018326,
        0.1089528501033783,
        -0.023773489519953728,
        0.10836277902126312,
        0.021945273503661156,
        -0.037841375917196274,
        0.05879912152886391,
        0.033437736332416534,
        -0.18258064985275269,
        -0.05038944631814957,
        -0.02620036154985428
      ],
      [
        0.04472700133919716,
        -0.06306673586368561,
        0.1590489000082016,
        -0.11723964661359787,
        -0.02130856364965439,
        0.08454396575689316,
        0.10000447928905487,
        -0.06640031933784485,
        0.01216147281229496,
        0.04129461571574211,
        -0.06662409752607346,
        -0.06911148130893707,
        0.06949042528867722,
        -0.0902969017624855,
        -0.012103183194994926,
        0.021093808114528656,
        -0.07206276804208755,
        0.16330568492412567,
        -0.06818483769893646,
        0.010721340775489807,
        0.06868914514780045,
        -0.05385025963187218,
        0.06298166513442993,
        -0.0632454976439476,
        -0.07020725309848785,
        0.009609444066882133,
        -0.0384078212082386,
        -0.051230885088443756,
        0.0533972829580307,
        0.011398809030652046,
        0.05927398428320885,
        -0.055553995072841644,
        0.0035439874045550823,
        -0.011601467616856098,
        -0.10981452465057373,
        0.1355537474155426,
        0.04942748323082924,
        -0.1241597905755043,
        -0.02025047317147255,
        0.026457104831933975,
        0.08067096769809723,
        0.04513014480471611,
        0.06678659468889236,
        0.14926886558532715,
        0.10526078194379807,
        0.03384725749492645,
        0.03247062861919403,
        0.09471160918474197,
        0.044470299035310745,
        0.116827093064785,
        0.08466324210166931,
        0.08322495222091675,
        -0.018259501084685326,
        -0.06926002353429794,
        0.017348943278193474,
        -0.12670983374118805,
        0.04244367033243179,
        -0.11352751404047012,
        0.0767851248383522,
        -0.1313740760087967,
        0.08189541846513748,
        0.1601082980632782,
        0.03603944554924965,
        -0.00015852101205382496,
        0.11385387927293777,
        -0.16783352196216583,
        0.024835050106048584,
        -0.03759682551026344,
        -0.009565328247845173,
        -0.0029598944820463657,
        0.006274061277508736,
        -0.03662263974547386,
        -0.15979847311973572,
        -0.02159101329743862,
        0.07384558022022247,
        0.046803493052721024,
        0.09551335126161575,
        0.13523925840854645,
        -0.0669570341706276,
        0.05865411460399628
      ]
    ],
    "net.2.bias": [
      -0.048981353640556335,
      -0.09394874423742294
    ]
  },
  "F2": {
    "n_in": 2,
    "n_hid": 60,
    "n_out": 2,
    "activation": "tanh",
    "net.0.weight": [
      [
        -0.7556264996528625,
        0.35618582367897034
      ],
      [
        0.409067839384079,
        -0.7229308485984802
      ],
      [
        0.3525512218475342,
        -0.48121365904808044
      ],
      [
        0.42947039008140564,
        0.16493697464466095
      ],
      [
        0.8029278516769409,
        -0.5924798846244812
      ],
      [
        -0.6491847038269043,
        0.5482090711593628
      ],
      [
        0.7079498767852783,
        0.5005846619606018
      ],
      [
        0.3887079954147339,
        -0.5969545245170593
      ],
      [
        0.5385792851448059,
        -0.5895281434059143
      ],
      [
        0.23874643445014954,
        -0.3915836811065674
      ],
      [
        -0.2683229148387909,
        0.1994379609823227
      ],
      [
        -0.30171865224838257,
        -0.12305688858032227
      ],
      [
        -0.5259963870048523,
        -0.5334586501121521
      ],
      [
        0.31299519538879395,
        -0.22069264948368073
      ],
      [
        -0.3885338604450226,
        -0.3268181085586548
      ],
      [
        -0.616045355796814,
        -0.5227222442626953
      ],
      [
        0.560331404209137,
        0.4864075779914856
      ],
      [
        0.11709485948085785,
        -0.3052988052368164
      ],
      [
        0.23057697713375092,
        0.09902330487966537
      ],
      [
        -0.5140680074691772,
        0.21111059188842773
      ],
      [
        0.7595491409301758,
        -0.6354314088821411
      ],
      [
        -0.646396279335022,
        0.17556101083755493
      ],
      [
        0.5464261174201965,
        -0.3593628704547882
      ],
      [
        0.132271870970726,
        0.5560597777366638
      ],
      [
        0.23630307614803314,
        0.2276681810617447
      ],
      [
        0.6170729398727417,
        0.43414729833602905
      ],
      [
        -0.39743417501449585,
        -0.0072689419612288475
      ],
      [
        0.4511042535305023,
        0.7367700338363647
      ],
      [
        -0.6706200242042542,
        0.4559164047241211
      ],
      [
        -0.22274741530418396,
        -0.7716631889343262
      ],
      [
        0.16976164281368256,
        -0.4572417736053467
      ],
      [
        0.042332470417022705,
        -0.5516542792320251
      ],
      [
        -0.5665208101272583,
        -0.02041509561240673
      ],
      [
        -0.25722619891166687,
        0.48699745535850525
      ],
      [
        0.05753077566623688,
        0.5215750932693481
      ],
      [
        0.11958333104848862,
        -0.15773239731788635
      ],
      [
        0.4122716784477234,
        -0.06487223505973816
      ],
      [
        0.171770378947258,
        -0.14547547698020935
      ],
      [
        0.03542906045913696,
        -0.196250319480896
      ],
      [
        -0.09818600863218307,
        -0.6452267169952393
      ],
      [
        0.05450849235057831,
        -0.5674677491188049
      ],
      [
        -0.14748647809028625,
        0.4864230453968048
      ],
      [
        -0.49488481879234314,
        -0.4891827404499054
      ],
      [
        -0.17245803773403168,
        -0.12579987943172455
      ],
      [
        0.02192153036594391,
        0.07037575542926788
      ],
      [
        0.4434871971607208,
        -0.4358251392841339
      ],
      [
        -0.10837661474943161,
        0.31979092955589294
      ],
      [
        0.5809952616691589,
        0.0004048399277962744
      ],
      [
        -0.521909236907959,
        0.12821616232395172
      ],
      [
        0.4390081465244293,
        -0.3516192138195038
      ],
      [
        -0.3435468375682831,
        0.39585021138191223
      ],
      [
        -0.05736856907606125,
        -0.6145591139793396
      ],
      [
        -0.5227188467979431,
        0.22717000544071198
      ],
      [
        -0.23486846685409546,
        0.5649600625038147
      ],
      [
        0.6234028339385986,
        0.11866883188486099
      ],
      [
        -0.132245734333992,
        -0.3248623013496399
      ],
      [
        -0.031217563897371292,
        0.20473532378673553
      ],
      [
        -0.5694593787193298,
        -0.2499314397573471
      ],
      [
        -0.5093878507614136,
        0.5094911456108093
      ],
      [
        -0.40498700737953186,
        0.7250313758850098
      ]
    ],
    "net.0.bias": [
      -0.16433611512184143,
      -0.3921850621700287,
      0.320864200592041,
      0.0965517982840538,
      0.4749220013618469,
      0.28075161576271057,
      -0.6787089705467224,
      0.4355144500732422,
      -0.14479735493659973,
      -0.32925498485565186,
      0.43665552139282227,
      0.505635142326355,
      -0.6345473527908325,
      -0.07654662430286407,
      0.5900776386260986,
      0.26133912801742554,
      0.5818150639533997,
      -0.2534887492656708,
      -0.3999979496002197,
      0.5949042439460754,
      0.2824877202510834,
      0.6675445437431335,
      -0.3074166476726532,
      -0.4638330340385437,
      -0.09445032477378845,
      -0.6804747581481934,
      0.28805121779441833,
      0.5088605880737305,
      0.1555616408586502,
      -0.057724423706531525,
      0.3606765568256378,
      -0.43593326210975647,
      0.6757346391677856,
      -0.7138209939002991,
      -0.6659320592880249,
      -0.17572839558124542,
      0.5895572900772095,
      0.0573369562625885,
      0.27957913279533386,
      -0.5058306455612183,
      0.2613392472267151,
      -0.0900462418794632,
      0.27301570773124695,
      0.4865361750125885,
      0.2971568703651428,
      -0.0682702586054802,
      -0.027975384145975113,
      -0.45494574308395386,
      -0.23463179171085358,
      0.44683900475502014,
      -0.29707208275794983,
      0.42786064743995667,
      -0.2643512487411499,
      -0.17606399953365326,
      -0.012241899035871029,
      -0.6355329751968384,
      -0.017357805743813515,
      -0.05821557715535164,
      -0.07896694540977478,
      -0.15293310582637787
    ],
    "net.2.weight": [
      [
        0.0874340757727623,
        0.08350016176700592,
        -0.07213820517063141,
        0.0661226287484169,
        -0.08684618026018143,
        -0.09759963303804398,
        0.02634064294397831,
        0.016696974635124207,
        -0.06844938546419144,
        -0.13600459694862366,
        -0.036674439907073975,
        0.05680050700902939,
        -0.12925246357917786,
        -0.13453151285648346,
        0.0299709290266037,
        -0.0773649588227272,
        -0.10220477730035782,
        -0.060873277485370636,
        -0.0344107486307621,
        -0.1039978414773941,
        -0.07070784270763397,
        0.02166300266981125,
        -0.1339636743068695,
        -0.03261283040046692,
        -0.10073669999837875,
        -0.10240296274423599,
        0.06430826336145401,
        -0.08965056389570236,
        -0.0855354368686676,
        0.07927203923463821,
        0.03878966346383095,
        0.10578557103872299,
        -0.02108984813094139,
        -0.0762462317943573,
        -0.025999637320637703,
        -0.011033396236598492,
        0.11100174486637115,
        -0.11130483448505402,
        0.004835256841033697,
        0.04583714157342911,
        -0.05473694950342178,
        -0.08549331873655319,
        0.07729551196098328,
        -0.10973764210939407,
        0.04327244311571121,
        -0.1036674901843071,
        0.036386243999004364,
        -0.12364805489778519,
        0.06616730242967606,
        -0.10802566260099411,
        -0.12269668281078339,
        0.016946658492088318,
        0.0879424661397934,
        -0.127536803483963,
        -0.07020263373851776,
        0.10072227567434311,
        -0.048732444643974304,
        0.05014606565237045,
        -0.14199799299240112,
        -0.05903938412666321
      ],
      [
        -0.07843027263879776,
        0.09911327064037323,
        0.06513870507478714,
        -0.08394896239042282,
        0.03247441351413727,
        0.008315826766192913,
        -0.06402937322854996,
        -0.062402136623859406,
        -0.050145067274570465,
        0.0922628790140152,
        -0.08214577287435532,
        -0.08130276203155518,
        -0.05032976716756821,
        -0.004746692255139351,
        0.04584145173430443,
        0.015866093337535858,
        -0.020441601052880287,
        -0.08773595094680786,
        -0.0335390605032444,
        -0.04146842658519745,
        0.11649907380342484,
        -0.11498750001192093,
        -0.09195408970117569,
        -0.11590063571929932,
        -0.034152690321207047,
        0.0896238312125206,
        0.12335304915904999,
        -0.10204507410526276,
        0.0038065367843955755,
        0.06953433156013489,
        0.06779325008392334,
        0.09569898992776871,
        0.0071008154191076756,
        -0.09740205854177475,
        0.07456046342849731,
        -0.05369428172707558,
        0.07745914161205292,
        -0.018637094646692276,
        0.06541433930397034,
        0.10600779205560684,
        0.13144059479236603,
        -0.13008977472782135,
        -0.07398317009210587,
        -0.04266304150223732,
        -0.07187624275684357,
        0.11956653743982315,
        -0.028317149728536606,
        -0.09613443911075592,
        -0.06898154318332672,
        -0.060130517929792404,
        0.0416431687772274,
        -0.10134126991033554,
        -0.1318192481994629,
        -0.13905304670333862,
        0.07368059456348419,
        0.05342905968427658,
        -0.09261034429073334,
        0.020996589213609695,
        0.08134401589632034,
        0.006060897838324308
      ]
    ],
    "net.2.bias": [
      -0.013963042758405209,
      0.01999817043542862
    ]
  }
}