{
  "name": "PV3",
  "type": "F1+H1+F2",
  "t_step": 0.001,
  "normfacs": {
    "G": {
      "scale": 999.9949951171875,
      "offset": 781.4698486328125
    },
    "Ud": {
      "scale": 0.4200015068054199,
      "offset": 1.012689471244812
    },
    "Uq": {
      "scale": 1.0,
      "offset": -0.012256158515810966
    },
    "Vd": {
      "scale": 349.07000732421875,
      "offset": 218.1281280517578
    },
    "Vq": {
      "scale": 297.98748779296875,
      "offset": -8.231996536254883
    },
    "GVrms": {
      "scale": 417096.65625,
      "offset": 244942.328125
    },
    "Ctrl": {
      "scale": 1.0,
      "offset": 0.5623593926429749
    },
    "Vdc": {
      "scale": 643.7698364257812,
      "offset": 458.31390380859375
    },
    "Idc": {
      "scale": 4.956446170806885,
      "offset": 1.9286991357803345
    },
    "Id": {
      "scale": 5.881160259246826,
      "offset": 2.5773351192474365
    },
    "Iq": {
      "scale": 5.025164604187012,
      "offset": -0.10374172776937485
    }
  },
  "model_folder": "./ucf4siir/",
  "model_root": "ucf4siir",
  "data_path": "d:/data/ucf3/ucf9c.hdf5",
  "lr": 0.001,
  "eps": 1e-08,
  "h5grp_prefix": "ucf",
  "num_iter": 1000,
  "continue_iterations": false,
  "print_freq": 1,
  "batch_size": 105,
  "n_validation_pct": 15,
  "n_validation_seed": 99,
  "n_skip": 0,
  "n_trunc": 0,
  "n_dec": 1,
  "n_loss_skip": 250,
  "n_pad": 500,
  "gtype": "iir",
  "na": 2,
  "nb": 2,
  "nk": 0,
  "activation": "tanh",
  "nh1": 80,
  "nh2": 60,
  "COL_T": [
    "t"
  ],
  "COL_Y": [
    "Vdc",
    "Idc",
    "Id",
    "Iq"
  ],
  "COL_U": [
    "G",
    "Ud",
    "Uq",
    "Vd",
    "Vq",
    "GVrms",
    "Ctrl"
  ],
  "clamps": null,
  "sensitivity": {
    "limit": 0.01,
    "weight": 0.5,
    "delta": 0.01,
    "inputs": [
      "Vd",
      "Vq"
    ],
    "outputs": [
      "Id",
      "Iq"
    ],
    "GVrms": {
      "G": "G",
      "Vd": "Vd",
      "Vq": "Vq",
      "k": 1.2247449
    },
    "big_sets": {
      "G": [
        100.0,
        600.0,
        999.0
      ],
      "Ud": [
        0.8,
        1.0,
        1.2
      ],
      "Uq": [
        -0.5,
        0.0,
        0.5
      ],
      "Vd": [
        170.0,
        335.0
      ],
      "Vq": [
        -145.0,
        0.0,
        135.0
      ],
      "Ctrl": [
        0.0,
        1.0
      ]
    },
    "sets": {
      "G": [
        300.0,
        800.0
      ],
      "Ud": [
        0.9,
        1.1
      ],
      "Uq": [
        -0.4,
        0.4
      ],
      "Vd": [
        170.0,
        330.0
      ],
      "Vq": [
        -125.0,
        125.0
      ],
      "Ctrl": [
        0.0,
        1.0
      ]
    }
  },
  "H1": {
    "n_in": 4,
    "n_out": 4,
    "n_b": 2,
    "n_a": 2,
    "n_k": 0,
    "a_0_0": [
      -0.15690076351165771,
      -0.1286352127790451
    ],
    "b_0_0": [
      -0.28269296884536743,
      -0.11767393350601196
    ],
    "a_0_1": [
      -0.1060926541686058,
      -0.11005567014217377
    ],
    "b_0_1": [
      0.20385462045669556,
      0.1304958462715149
    ],
    "a_0_2": [
      0.04598570987582207,
      0.09587284922599792
    ],
    "b_0_2": [
      0.1939254105091095,
      0.017476096749305725
    ],
    "a_0_3": [
      0.0696559026837349,
      0.18511056900024414
    ],
    "b_0_3": [
      -0.14057494699954987,
      0.07093074917793274
    ],
    "a_1_0": [
      -0.07775084674358368,
      -0.08264049142599106
    ],
    "b_1_0": [
      0.2315143495798111,
      0.08569126576185226
    ],
    "a_1_1": [
      -0.2681519687175751,
      -0.17693522572517395
    ],
    "b_1_1": [
      0.2732686698436737,
      0.3103519678115845
    ],
    "a_1_2": [
      -0.11352647840976715,
      -0.1096636950969696
    ],
    "b_1_2": [
      0.05599366873502731,
      0.1956518590450287
    ],
    "a_1_3": [
      -0.20808513462543488,
      -0.25762468576431274
    ],
    "b_1_3": [
      0.2472827285528183,
      0.11936785280704498
    ],
    "a_2_0": [
      0.01545077282935381,
      0.006366699002683163
    ],
    "b_2_0": [
      -0.06655260175466537,
      -0.04299025237560272
    ],
    "a_2_1": [
      -0.3178931772708893,
      -0.33950933814048767
    ],
    "b_2_1": [
      0.21706880629062653,
      0.19912037253379822
    ],
    "a_2_2": [
      0.08060109615325928,
      0.09108737111091614
    ],
    "b_2_2": [
      0.05015135928988457,
      0.026716554537415504
    ],
    "a_2_3": [
      -0.1081988736987114,
      -0.12023590505123138
    ],
    "b_2_3": [
      -0.17740105092525482,
      -0.08436250686645508
    ],
    "a_3_0": [
      0.07824138551950455,
      0.0839248076081276
    ],
    "b_3_0": [
      -0.03089834749698639,
      -0.05585639551281929
    ],
    "a_3_1": [
      0.038688432425260544,
      0.046246420592069626
    ],
    "b_3_1": [
      -0.04861902445554733,
      -0.02562948688864708
    ],
    "a_3_2": [
      -0.32025784254074097,
      -0.32319700717926025
    ],
    "b_3_2": [
      -0.2684786915779114,
      -0.25459784269332886
    ],
    "a_3_3": [
      -0.1489308476448059,
      -0.1029195711016655
    ],
    "b_3_3": [
      0.2018457055091858,
      0.1820688247680664
    ]
  },
  "H1s": {
    "n_in": 4,
    "n_out": 4,
    "n_a": 3,
    "n_b": 2,
    "b_0_0": [
      -282.69296884536743,
      -400366.90235137945
    ],
    "a_0_0": [
      1.0,
      1843.0992364883423,
      714464.0237092972
    ],
    "b_0_1": [
      203.85462045669559,
      334350.4667282102
    ],
    "a_0_1": [
      1.0,
      1893.907345831394,
      783851.6756892202
    ],
    "b_0_2": [
      193.92541050910955,
      211401.50725841525
    ],
    "a_0_2": [
      1.0,
      2045.9857098758223,
      1141858.5591018205
    ],
    "b_0_3": [
      -140.5749469995499,
      -69644.19782161714
    ],
    "a_0_3": [
      1.0,
      2069.655902683735,
      1254766.4716839793
    ],
    "b_1_0": [
      231.51434957981115,
      317205.61534166336
    ],
    "a_1_0": [
      1.0,
      1922.2491532564163,
      839608.6618304253
    ],
    "b_1_1": [
      273.26866984367416,
      583620.637655257
    ],
    "a_1_1": [
      1.0,
      1731.848031282425,
      554912.8055572509
    ],
    "b_1_2": [
      55.99366873502724,
      251645.52778005676
    ],
    "a_1_2": [
      1.0,
      1886.4735215902328,
      776809.8264932632
    ],
    "b_1_3": [
      247.2827285528184,
      366650.5813598635
    ],
    "a_1_3": [
      1.0,
      1791.9148653745651,
      534290.1796102524
    ],
    "b_2_0": [
      -66.55260175466542,
      -109542.85413026817
    ],
    "a_2_0": [
      1.0,
      2015.4507728293538,
      1021817.471832037
    ],
    "b_2_1": [
      217.0688062906265,
      416189.1788244248
    ],
    "a_2_1": [
      1.0,
      1682.1068227291107,
      342597.484588623
    ],
    "b_2_2": [
      50.15135928988457,
      76867.91382730012
    ],
    "a_2_2": [
      1.0,
      2080.6010961532597,
      1171688.467264176
    ],
    "b_2_3": [
      -177.40105092525482,
      -261763.55779170993
    ],
    "a_2_3": [
      1.0,
      1891.8011263012884,
      771565.221250057
    ],
    "b_3_0": [
      -30.898347496986414,
      -86754.74300980565
    ],
    "a_3_0": [
      1.0,
      2078.2413855195045,
      1162166.1931276321
    ],
    "b_3_1": [
      -48.61902445554735,
      -74248.51134419443
    ],
    "a_3_1": [
      1.0,
      2038.68843242526,
      1084934.8530173297
    ],
    "b_3_2": [
      -268.47869157791155,
      -523076.5342712406
    ],
    "a_3_2": [
      1.0,
      1679.742157459259,
      356545.15027999855
    ],
    "b_3_3": [
      201.84570550918585,
      383914.5302772519
    ],
    "a_3_3": [
      1.0,
      1851.069152355194,
      748149.5812535286
    ]
  },
  "Q1s": {
    "n_in": 4,
    "n_out": 4,
    "n_a": 2,
    "n_b": 2,
    "A_0_0": [
      [
        -1843.0992364883423,
        -714464.0237092972
      ],
      [
        1.0,
        0.0
      ]
    ],
    "B_0_0": [
      1.0,
      0.0
    ],
    "C_0_0": [
      -282.69296884536743,
      -400366.90235137945
    ],
    "D_0_0": 0.0,
    "A_0_1": [
      [
        -1893.907345831394,
        -783851.6756892202
      ],
      [
        1.0,
        0.0
      ]
    ],
    "B_0_1": [
      1.0,
      0.0
    ],
    "C_0_1": [
      203.85462045669559,
      334350.4667282102
    ],
    "D_0_1": 0.0,
    "A_0_2": [
      [
        -2045.9857098758223,
        -1141858.5591018205
      ],
      [
        1.0,
        0.0
      ]
    ],
    "B_0_2": [
      1.0,
      0.0
    ],
    "C_0_2": [
      193.92541050910955,
      211401.50725841525
    ],
    "D_0_2": 0.0,
    "A_0_3": [
      [
        -2069.655902683735,
        -1254766.4716839793
      ],
      [
        1.0,
        0.0
      ]
    ],
    "B_0_3": [
      1.0,
      0.0
    ],
    "C_0_3": [
      -140.5749469995499,
      -69644.19782161714
    ],
    "D_0_3": 0.0,
    "A_1_0": [
      [
        -1922.2491532564163,
        -839608.6618304253
      ],
      [
        1.0,
        0.0
      ]
    ],
    "B_1_0": [
      1.0,
      0.0
    ],
    "C_1_0": [
      231.51434957981115,
      317205.61534166336
    ],
    "D_1_0": 0.0,
    "A_1_1": [
      [
        -1731.848031282425,
        -554912.8055572509
      ],
      [
        1.0,
        0.0
      ]
    ],
    "B_1_1": [
      1.0,
      0.0
    ],
    "C_1_1": [
      273.26866984367416,
      583620.637655257
    ],
    "D_1_1": 0.0,
    "A_1_2": [
      [
        -1886.4735215902328,
        -776809.8264932632
      ],
      [
        1.0,
        0.0
      ]
    ],
    "B_1_2": [
      1.0,
      0.0
    ],
    "C_1_2": [
      55.99366873502724,
      251645.52778005676
    ],
    "D_1_2": 0.0,
    "A_1_3": [
      [
        -1791.9148653745651,
        -534290.1796102524
      ],
      [
        1.0,
        0.0
      ]
    ],
    "B_1_3": [
      1.0,
      0.0
    ],
    "C_1_3": [
      247.2827285528184,
      366650.5813598635
    ],
    "D_1_3": 0.0,
    "A_2_0": [
      [
        -2015.4507728293538,
        -1021817.471832037
      ],
      [
        1.0,
        0.0
      ]
    ],
    "B_2_0": [
      1.0,
      0.0
    ],
    "C_2_0": [
      -66.55260175466542,
      -109542.85413026817
    ],
    "D_2_0": 0.0,
    "A_2_1": [
      [
        -1682.1068227291107,
        -342597.484588623
      ],
      [
        1.0,
        0.0
      ]
    ],
    "B_2_1": [
      1.0,
      0.0
    ],
    "C_2_1": [
      217.0688062906265,
      416189.1788244248
    ],
    "D_2_1": 0.0,
    "A_2_2": [
      [
        -2080.6010961532597,
        -1171688.467264176
      ],
      [
        1.0,
        0.0
      ]
    ],
    "B_2_2": [
      1.0,
      0.0
    ],
    "C_2_2": [
      50.15135928988457,
      76867.91382730012
    ],
    "D_2_2": 0.0,
    "A_2_3": [
      [
        -1891.8011263012884,
        -771565.221250057
      ],
      [
        1.0,
        0.0
      ]
    ],
    "B_2_3": [
      1.0,
      0.0
    ],
    "C_2_3": [
      -177.40105092525482,
      -261763.55779170993
    ],
    "D_2_3": 0.0,
    "A_3_0": [
      [
        -2078.2413855195045,
        -1162166.1931276321
      ],
      [
        1.0,
        0.0
      ]
    ],
    "B_3_0": [
      1.0,
      0.0
    ],
    "C_3_0": [
      -30.898347496986414,
      -86754.74300980565
    ],
    "D_3_0": 0.0,
    "A_3_1": [
      [
        -2038.68843242526,
        -1084934.8530173297
      ],
      [
        1.0,
        0.0
      ]
    ],
    "B_3_1": [
      1.0,
      0.0
    ],
    "C_3_1": [
      -48.61902445554735,
      -74248.51134419443
    ],
    "D_3_1": 0.0,
    "A_3_2": [
      [
        -1679.742157459259,
        -356545.15027999855
      ],
      [
        1.0,
        0.0
      ]
    ],
    "B_3_2": [
      1.0,
      0.0
    ],
    "C_3_2": [
      -268.47869157791155,
      -523076.5342712406
    ],
    "D_3_2": 0.0,
    "A_3_3": [
      [
        -1851.069152355194,
        -748149.5812535286
      ],
      [
        1.0,
        0.0
      ]
    ],
    "B_3_3": [
      1.0,
      0.0
    ],
    "C_3_3": [
      201.84570550918585,
      383914.5302772519
    ],
    "D_3_3": 0.0
  },
  "F1": {
    "n_in": 7,
    "n_hid": 80,
    "n_out": 4,
    "activation": "tanh",
    "net.0.weight": [
      [
        -0.08300086110830307,
        -0.003988610114902258,
        -0.4158397912979126,
        -0.5265350341796875,
        -0.22190135717391968,
        0.04013815149664879,
        -0.0898420661687851
      ],
      [
        0.38713499903678894,
        0.089259073138237,
        0.5270450115203857,
        -0.24495603144168854,
        -0.3050239384174347,
        -0.3772790729999542,
        -0.19811908900737762
      ],
      [
        -0.1835981160402298,
        -0.15822938084602356,
        0.8192031979560852,
        0.20456066727638245,
        -0.10999264568090439,
        -0.16353143751621246,
        0.10489869862794876
      ],
      [
        0.40954089164733887,
        0.16791941225528717,
        0.29984989762306213,
        -0.11098738014698029,
        0.10121961683034897,
        0.3467838168144226,
        -0.15564316511154175
      ],
      [
        -0.23327544331550598,
        0.7188193202018738,
        -0.21781864762306213,
        0.4936096668243408,
        0.015641983598470688,
        0.06077364832162857,
        -0.2558470070362091
      ],
      [
        -0.3457334637641907,
        -0.3559618294239044,
        1.0599490404129028,
        0.19211678206920624,
        0.2411527782678604,
        0.09893618524074554,
        -0.02918674610555172
      ],
      [
        -0.010770093649625778,
        -0.2993881404399872,
        -0.675076961517334,
        -0.2659064531326294,
        0.0727134495973587,
        0.25938645005226135,
        -0.06495008617639542
      ],
      [
        0.013789533637464046,
        0.6523526906967163,
        1.2679402828216553,
        0.20839716494083405,
        0.02685258910059929,
        0.1387578397989273,
        -0.16066843271255493
      ],
      [
        0.2554956078529358,
        -0.3729771375656128,
        -1.0145573616027832,
        -0.17810991406440735,
        0.131858691573143,
        0.35426414012908936,
        -0.5112243890762329
      ],
      [
        0.30751946568489075,
        0.04134554788470268,
        -0.5321160554885864,
        0.5310750603675842,
        0.47276145219802856,
        0.7219226956367493,
        0.6682854890823364
      ],
      [
        -0.3009549677371979,
        0.3880409598350525,
        0.06470423191785812,
        0.8707724809646606,
        0.45854517817497253,
        0.6772996783256531,
        0.41667190194129944
      ],
      [
        -0.16994193196296692,
        -0.003242479870095849,
        -0.8613502383232117,
        -0.30885225534439087,
        0.13954788446426392,
        0.3980282247066498,
        -0.24778544902801514
      ],
      [
        -0.13817517459392548,
        0.12510059773921967,
        0.3877379298210144,
        -0.1654619723558426,
        0.2109348326921463,
        -0.2864263355731964,
        0.4614890217781067
      ],
      [
        0.20712293684482574,
        0.2181558609008789,
        -0.5112525820732117,
        -0.36351045966148376,
        -0.4303261935710907,
        0.1572861671447754,
        0.09903674572706223
      ],
      [
        -0.3452700972557068,
        -0.028254451230168343,
        0.5221150517463684,
        0.13150469958782196,
        -0.1768345981836319,
        -0.12451313436031342,
        -0.3391534090042114
      ],
      [
        0.02712162211537361,
        -0.060053467750549316,
        -1.4223053455352783,
        0.00022799678845331073,
        0.22487479448318481,
        -0.054925959557294846,
        0.17854124307632446
      ],
      [
        -0.38484588265419006,
        0.13961666822433472,
        0.8149569630622864,
        -0.3186069428920746,
        -0.4334016442298889,
        0.11311230808496475,
        -0.07000162452459335
      ],
      [
        0.07021194696426392,
        -0.04792977496981621,
        0.8284067511558533,
        -0.3241027891635895,
        0.30590909719467163,
        -0.3640276789665222,
        -0.3448975086212158
      ],
      [
        0.07978318631649017,
        -0.16381122171878815,
        -0.5959453582763672,
        -0.26541706919670105,
        -0.14626912772655487,
        0.20678095519542694,
        -0.40768691897392273
      ],
      [
        0.13181497156620026,
        -0.04213371500372887,
        0.21327728033065796,
        -0.0022791801020503044,
        0.09615534543991089,
        0.17344611883163452,
        0.372494101524353
      ],
      [
        0.45360660552978516,
        0.4367690682411194,
        0.6120476722717285,
        0.11321015655994415,
        -0.08386281877756119,
        0.030919350683689117,
        0.44578951597213745
      ],
      [
        0.19537828862667084,
        -0.837688684463501,
        -0.579894483089447,
        -0.23173165321350098,
        -0.14789652824401855,
        0.1070999726653099,
        0.6349003911018372
      ],
      [
        0.23057422041893005,
        -2.7495620250701904,
        -0.627351701259613,
        -0.02723032236099243,
        -0.4961329996585846,
        -0.14930933713912964,
        0.4460347592830658
      ],
      [
        -0.136219784617424,
        -0.18245013058185577,
        -1.0270439386367798,
        -0.002564399503171444,
        0.0291775893419981,
        -0.09642577171325684,
        0.08314879238605499
      ],
      [
        -0.476289302110672,
        0.4647006392478943,
        0.14518195390701294,
        -0.0895628109574318,
        0.09845999628305435,
        0.22119440138339996,
        -0.4858008325099945
      ],
      [
        0.27690938115119934,
        0.0315932035446167,
        -0.6047777533531189,
        0.5296395421028137,
        -0.2869293689727783,
        -0.12096162885427475,
        -0.19006843864917755
      ],
      [
        0.5276870131492615,
        0.10047529637813568,
        0.4021797478199005,
        0.2304859161376953,
        -0.05793170630931854,
        0.17967911064624786,
        -0.5633940696716309
      ],
      [
        0.28263017535209656,
        0.2724462151527405,
        0.8167928457260132,
        -0.6746358871459961,
        -0.11571517586708069,
        -0.7075982689857483,
        -0.37397271394729614
      ],
      [
        -0.2649611532688141,
        0.08931342512369156,
        -0.08994048088788986,
        0.04834558442234993,
        0.11031747609376907,
        0.4689655900001526,
        -0.6824999451637268
      ],
      [
        -0.31845930218696594,
        -0.7957578301429749,
        1.2785000801086426,
        -0.2905091345310211,
        0.15356338024139404,
        0.14319728314876556,
        0.418159544467926
      ],
      [
        -0.18609674274921417,
        -0.1283694952726364,
        0.36230823397636414,
        -0.11672506481409073,
        -0.18532143533229828,
        0.2803071141242981,
        -0.17817996442317963
      ],
      [
        -0.39776888489723206,
        0.641822099685669,
        -1.032812237739563,
        0.08195316046476364,
        0.35290732979774475,
        0.1736259013414383,
        -0.287704735994339
      ],
      [
        -0.5593160390853882,
        -0.13129737973213196,
        -0.19765372574329376,
        -0.6783726215362549,
        -0.5033321976661682,
        -0.5260391235351562,
        -0.5321014523506165
      ],
      [
        0.4493606984615326,
        0.1280668079853058,
        0.7066616415977478,
        0.623697817325592,
        -0.05604282766580582,
        0.2707090675830841,
        -0.047643668949604034
      ],
      [
        -0.1280229538679123,
        0.029270542785525322,
        -0.042945507913827896,
        0.33050382137298584,
        0.08207915723323822,
        -0.13297735154628754,
        0.177541583776474
      ],
      [
        -0.5201480388641357,
        0.14555981755256653,
        -0.49913787841796875,
        0.09545496851205826,
        0.2020498812198639,
        -0.17518170177936554,
        0.03778647258877754
      ],
      [
        0.5579985976219177,
        -0.16713829338550568,
        -0.02147296443581581,
        -0.19203877449035645,
        -0.5122768878936768,
        0.2631899118423462,
        -0.19715778529644012
      ],
      [
        -0.24345964193344116,
        -0.39605236053466797,
        0.7257907390594482,
        0.19664603471755981,
        0.4982626736164093,
        0.290656715631485,
        -0.38102254271507263
      ],
      [
        -0.11530815064907074,
        0.2662028670310974,
        0.8752527236938477,
        0.29432547092437744,
        -0.10786841809749603,
        -0.24019740521907806,
        -0.1691163331270218
      ],
      [
        0.08812505751848221,
        -0.439433217048645,
        -0.3924366235733032,
        0.46246233582496643,
        -0.03588365763425827,
        0.10080614686012268,
        0.4311569035053253
      ],
      [
        0.021145137026906013,
        -0.15661802887916565,
        -1.2308738231658936,
        0.6911837458610535,
        0.8253114223480225,
        0.4157695174217224,
        -0.09902077913284302
      ],
      [
        0.08656242489814758,
        -0.13551053404808044,
        -0.07832859456539154,
        -0.30008143186569214,
        -0.13422748446464539,
        0.2243434488773346,
        -0.04574498534202576
      ],
      [
        -0.3342791795730591,
        -0.07017491012811661,
        0.880806565284729,
        -0.2522278428077698,
        0.0025050893891602755,
        0.046535830944776535,
        -0.18659499287605286
      ],
      [
        0.42830172181129456,
        0.11858606338500977,
        -0.12322870641946793,
        0.15557895600795746,
        -0.44400379061698914,
        0.06424467265605927,
        0.04098639264702797
      ],
      [
        0.10829346626996994,
        0.10246310383081436,
        -0.7948095202445984,
        0.08502867072820663,
        0.14861254394054413,
        -0.17861531674861908,
        0.19091546535491943
      ],
      [
        0.30645906925201416,
        0.0021698232740163803,
        0.4580143094062805,
        0.08780432492494583,
        0.09953122586011887,
        -0.1011095941066742,
        0.0002712744753807783
      ],
      [
        -0.43213793635368347,
        -0.08039242774248123,
        0.4319714307785034,
        0.3795931935310364,
        0.21870069205760956,
        0.026117660105228424,
        0.3544909954071045
      ],
      [
        -0.05402610823512077,
        -0.2120378464460373,
        -0.3802780210971832,
        0.29026517271995544,
        0.10749651491641998,
        -0.278622567653656,
        -0.024123696610331535
      ],
      [
        0.11889143288135529,
        0.33420607447624207,
        0.7113368511199951,
        0.2707391083240509,
        -0.02144048735499382,
        -0.22480934858322144,
        0.45879650115966797
      ],
      [
        0.2458391636610031,
        -0.034923143684864044,
        0.6415955424308777,
        0.2014649659395218,
        0.18935765326023102,
        -0.24723967909812927,
        0.20029869675636292
      ],
      [
        -0.09231870621442795,
        0.47570937871932983,
        -0.49781161546707153,
        0.2963685095310211,
        0.4358018636703491,
        0.10968142747879028,
        -0.18825580179691315
      ],
      [
        0.3498224914073944,
        -0.0561644583940506,
        0.3744516372680664,
        -0.4627011716365814,
        -0.8038240075111389,
        -0.04312838613986969,
        0.17049066722393036
      ],
      [
        0.3837468922138214,
        0.45177406072616577,
        1.2885701656341553,
        -0.5679807662963867,
        -0.9045467376708984,
        -0.4525611996650696,
        -0.6168041825294495
      ],
      [
        0.1884925663471222,
        -0.4502563178539276,
        -0.2883310317993164,
        -0.18727749586105347,
        -0.10855082422494888,
        0.30722710490226746,
        0.3852881193161011
      ],
      [
        0.5862547755241394,
        0.11287223547697067,
        0.010080378502607346,
        -0.2542624771595001,
        0.08710821717977524,
        0.33987948298454285,
        0.21778012812137604
      ],
      [
        0.38401859998703003,
        0.05846813693642616,
        -0.17814001441001892,
        0.007542288396507502,
        0.22643280029296875,
        0.13213542103767395,
        0.20681168138980865
      ],
      [
        -0.12254904955625534,
        -0.2755231559276581,
        -0.6712459325790405,
        0.3850456178188324,
        0.19692915678024292,
        -0.009521550498902798,
        -0.329787015914917
      ],
      [
        0.2808927595615387,
        0.02374214679002762,
        -0.0897912085056305,
        -0.43218955397605896,
        0.35560935735702515,
        -0.033901359885931015,
        -0.5031046271324158
      ],
      [
        1.0089167356491089,
        0.3277272880077362,
        -0.385608047246933,
        0.08425296097993851,
        -0.29025736451148987,
        -0.11353830248117447,
        0.19348479807376862
      ],
      [
        -0.012039797380566597,
        -0.4578400254249573,
        -0.07147302478551865,
        -0.1545192152261734,
        -0.09733694791793823,
        -0.06343027949333191,
        0.4356967508792877
      ],
      [
        -0.14210231602191925,
        -0.2989632189273834,
        0.5564765334129333,
        0.11881302297115326,
        0.1695665419101715,
        -0.24762895703315735,
        0.052567824721336365
      ],
      [
        -0.4150330424308777,
        -0.3450033664703369,
        0.8701157569885254,
        -0.27317604422569275,
        0.12534795701503754,
        0.41783571243286133,
        0.01947505958378315
      ],
      [
        -0.18820440769195557,
        0.25148868560791016,
        0.06448524445295334,
        -0.1097695454955101,
        0.013192193582654,
        -0.16164124011993408,
        -0.3765864670276642
      ],
      [
        -0.35920587182044983,
        -0.5029958486557007,
        0.210860937833786,
        -1.07590651512146,
        -0.19333094358444214,
        -0.7725768685340881,
        -0.49952369928359985
      ],
      [
        -0.0530191995203495,
        -0.3937050998210907,
        0.7588013410568237,
        -0.018094414845108986,
        0.21569134294986725,
        0.10736005008220673,
        -0.10238144546747208
      ],
      [
        0.5850990414619446,
        0.4304858148097992,
        1.2320131063461304,
        -1.0171722173690796,
        -1.1710753440856934,
        -0.8226727247238159,
        -0.27515909075737
      ],
      [
        0.5060411095619202,
        -0.42127740383148193,
        1.0111660957336426,
        0.386239618062973,
        0.13934491574764252,
        0.25416290760040283,
        -0.5831476449966431
      ],
      [
        -0.12599359452724457,
        -0.04439018666744232,
        1.0984785556793213,
        -0.003292191307991743,
        -0.0188295878469944,
        -0.017893116921186447,
        -0.19929394125938416
      ],
      [
        -0.808936357498169,
        1.978554368019104,
        -0.1992725282907486,
        -0.04936269670724869,
        -0.40253695845603943,
        -0.21328453719615936,
        -1.0159916877746582
      ],
      [
        0.31711071729660034,
        0.07127634435892105,
        0.7617563605308533,
        0.2202829271554947,
        0.27066770195961,
        -0.12371426075696945,
        -0.12954433262348175
      ],
      [
        0.011510387994349003,
        0.2588377296924591,
        0.37497633695602417,
        -0.32091209292411804,
        0.21430827677249908,
        -0.034492362290620804,
        -0.5557100176811218
      ],
      [
        -0.330794095993042,
        0.38037195801734924,
        0.8255003094673157,
        -0.4354139566421509,
        0.15460850298404694,
        0.4242246150970459,
        0.2338407188653946
      ],
      [
        0.3923253118991852,
        -0.01473585981875658,
        -0.669514000415802,
        0.045973245054483414,
        -0.13401544094085693,
        -0.08386541157960892,
        -0.3351307809352875
      ],
      [
        0.13458308577537537,
        0.031171279028058052,
        -0.7235919237136841,
        0.014960340224206448,
        0.12076181173324585,
        -0.3566070795059204,
        -0.1391533762216568
      ],
      [
        0.23904260993003845,
        -0.2203449159860611,
        0.08262142539024353,
        -0.1667925864458084,
        0.186063751578331,
        -0.44089043140411377,
        -0.0846225768327713
      ],
      [
        -0.4499722719192505,
        0.3567848205566406,
        -0.08823061734437943,
        -0.10965976119041443,
        -0.1037910133600235,
        0.30832749605178833,
        0.5578637719154358
      ],
      [
        -0.4043651223182678,
        -0.1790897101163864,
        0.3209124207496643,
        -0.13622160255908966,
        -0.14635366201400757,
        -0.27881017327308655,
        -0.15839551389217377
      ],
      [
        -0.03493472933769226,
        -0.020838234573602676,
        0.8526135087013245,
        -0.1618310809135437,
        0.027702543884515762,
        0.15733875334262848,
        0.2598867416381836
      ],
      [
        -0.018593698740005493,
        0.0011478738160803914,
        -0.5511038899421692,
        0.16520072519779205,
        -0.2779128849506378,
        -0.7565690875053406,
        1.0607421398162842
      ],
      [
        -0.1464386284351349,
        0.10616270452737808,
        0.5407553315162659,
        -0.039947137236595154,
        -0.08948540687561035,
        0.2570759654045105,
        0.05510559305548668
      ]
    ],
    "net.0.bias": [
      -0.40174686908721924,
      -0.05256060138344765,
      -0.011505790054798126,
      0.17495197057724,
      -0.3830472528934479,
      0.327892929315567,
      -0.08619657158851624,
      -0.03916143998503685,
      0.3204108476638794,
      0.29198744893074036,
      0.5305810570716858,
      0.0848391205072403,
      -0.14162372052669525,
      -0.2375539243221283,
      -0.05047927051782608,
      0.31631410121917725,
      -0.18794670701026917,
      -0.4035293161869049,
      0.1203160285949707,
      0.2674286961555481,
      -0.1215120404958725,
      -0.47410061955451965,
      -0.10986275970935822,
      0.08133786171674728,
      -0.1071557030081749,
      -0.05321158468723297,
      0.22540034353733063,
      0.42241474986076355,
      0.3093040883541107,
      0.21429137885570526,
      -0.06477755308151245,
      -0.4250467121601105,
      -0.34455588459968567,
      0.5600687861442566,
      0.2161514163017273,
      0.17254184186458588,
      -0.3733139634132385,
      0.3582259714603424,
      0.34004929661750793,
      0.32337310910224915,
      -0.18194462358951569,
      -0.20543885231018066,
      -0.323605477809906,
      0.3534539043903351,
      -0.17326022684574127,
      -0.029405325651168823,
      0.056382276117801666,
      -0.13798925280570984,
      -0.17544648051261902,
      0.04422082006931305,
      -0.05492952838540077,
      -0.2598482072353363,
      0.3174707591533661,
      -0.13571512699127197,
      0.2852015197277069,
      0.2396385818719864,
      0.12199389934539795,
      0.13349099457263947,
      0.5340283513069153,
      0.0828399732708931,
      -0.17374292016029358,
      0.3013765513896942,
      -0.001836863229982555,
      -0.3164506256580353,
      -0.08641426265239716,
      0.28487053513526917,
      0.3921228051185608,
      -0.08055995404720306,
      -0.4997081160545349,
      0.07434618473052979,
      0.24628257751464844,
      0.0575983040034771,
      0.13473911583423615,
      0.04006729647517204,
      0.20297831296920776,
      -0.13933174312114716,
      -0.2978205978870392,
      -0.20177118480205536,
      -0.45300915837287903,
      0.14150038361549377
    ],
    "net.2.weight": [
      [
        -0.2769482433795929,
        0.025321315973997116,
        0.24353624880313873,
        0.16410207748413086,
        -0.1376330703496933,
        0.22235959768295288,
        -0.34843263030052185,
        0.32949861884117126,
        -0.2146228700876236,
        -0.10348667949438095,
        0.09088838845491409,
        -0.2380976527929306,
        0.1141648218035698,
        -0.2672443687915802,
        -0.08562019467353821,
        -0.20507341623306274,
        -0.1323527693748474,
        0.11528821289539337,
        -0.18815992772579193,
        0.11183591932058334,
        0.0789162665605545,
        -0.20421920716762543,
        -0.027644816786050797,
        -0.38269248604774475,
        -0.06824710220098495,
        0.10307511687278748,
        0.1936921924352646,
        0.061619747430086136,
        -0.07802056521177292,
        -0.13088442385196686,
        -0.22099803388118744,
        -0.10974421352148056,
        -0.098576620221138,
        0.27738404273986816,
        0.1610671579837799,
        0.08421771973371506,
        -0.10999317467212677,
        0.07002110034227371,
        0.2535098195075989,
        0.0072272298857569695,
        0.24269309639930725,
        -0.2628399431705475,
        -0.07227408140897751,
        0.10527753084897995,
        -0.011792690493166447,
        0.23635333776474,
        0.08467991650104523,
        -0.16907241940498352,
        0.172101229429245,
        0.3661206066608429,
        0.1462259739637375,
        -0.2546144723892212,
        -0.1914554238319397,
        -0.12586526572704315,
        0.1350317746400833,
        0.07755474746227264,
        0.058283742517232895,
        -0.012370442040264606,
        0.20922788977622986,
        0.0027622731868177652,
        -0.006829794496297836,
        -0.04837290570139885,
        -0.07147227227687836,
        0.060450490564107895,
        0.04317096993327141,
        -0.29615604877471924,
        0.15029025077819824,
        0.27004796266555786,
        0.12454801797866821,
        0.4206373393535614,
        0.07115256786346436,
        -0.138957217335701,
        -0.02995440363883972,
        -0.054937925189733505,
        0.28233984112739563,
        -0.09218224138021469,
        -0.108101986348629,
        0.05536351352930069,
        0.14045806229114532,
        0.12543396651744843
      ],
      [
        0.07680315524339676,
        -0.09535863995552063,
        -0.14377495646476746,
        -0.0052232518792152405,
        0.2051500380039215,
        0.13539941608905792,
        0.12112944573163986,
        -0.19506573677062988,
        0.3101732134819031,
        -0.21301749348640442,
        -0.10425993800163269,
        0.20653624832630157,
        -0.14823083579540253,
        -0.11917050927877426,
        -0.002390609821304679,
        0.27056431770324707,
        -0.04567559435963631,
        -0.03337624669075012,
        0.1037110835313797,
        -0.09390638768672943,
        -0.2527078092098236,
        0.05554058030247688,
        0.21486611664295197,
        0.17063219845294952,
        0.1695527583360672,
        0.04090980067849159,
        0.3743687570095062,
        -0.27635833621025085,
        0.2967086732387543,
        -0.046728700399398804,
        -0.0593583844602108,
        0.092933788895607,
        0.22053968906402588,
        0.017573298886418343,
        0.017177443951368332,
        0.13582958281040192,
        -0.14835131168365479,
        0.24981717765331268,
        -0.05136165767908096,
        -0.09486074000597,
        0.2465764433145523,
        -0.0024261705111712217,
        -0.09968382865190506,
        0.10946475714445114,
        -0.008379233069717884,
        -0.0693756639957428,
        -0.016464484855532646,
        0.18803967535495758,
        -0.1971861720085144,
        -0.11980018019676208,
        0.2487570196390152,
        -0.17879243195056915,
        -0.32731345295906067,
        -0.06364543735980988,
        -0.0012338627129793167,
        -0.11317786574363708,
        0.26953545212745667,
        -0.05413627251982689,
        0.1197548508644104,
        -0.2903738021850586,
        -0.11429359763860703,
        0.10983315855264664,
        0.05233023688197136,
        0.16205844283103943,
        -0.0817662850022316,
        -0.40067094564437866,
        0.26025035977363586,
        -0.1748180389404297,
        0.42839980125427246,
        0.009599445387721062,
        0.06083980202674866,
        -0.06045374274253845,
        0.17934447526931763,
        0.0108479680493474,
        -0.09067874401807785,
        -0.07935269922018051,
        0.007255411706864834,
        -0.2383008748292923,
        -0.30409935116767883,
        0.015141669660806656
      ],
      [
        0.02513633854687214,
        -0.05633297935128212,
        0.2754015624523163,
        0.045684732496738434,
        0.055712003260850906,
        0.2825954854488373,
        -0.00587216392159462,
        -0.07160758972167969,
        -0.07455413043498993,
        -0.09083980321884155,
        -0.18981139361858368,
        -0.08998338878154755,
        0.05381368473172188,
        -0.10203110426664352,
        0.06989716738462448,
        -0.009685790166258812,
        0.08619647473096848,
        0.16152271628379822,
        -0.09932877123355865,
        0.07257677614688873,
        0.20711465179920197,
        -0.08646657317876816,
        0.20242004096508026,
        -0.19667699933052063,
        0.03426853567361832,
        -0.15120355784893036,
        0.11127471178770065,
        -0.2783573269844055,
        0.17772580683231354,
        0.32278504967689514,
        0.1267620325088501,
        -0.21642185747623444,
        0.07436391711235046,
        -0.07616287469863892,
        -0.05739114433526993,
        -0.043399207293987274,
        -0.08529943227767944,
        0.10303280502557755,
        0.07526766508817673,
        -0.04472152143716812,
        0.06698421388864517,
        0.03675483912229538,
        0.12557058036327362,
        0.03828897699713707,
        -0.26348793506622314,
        0.04631900414824486,
        0.12228723615407944,
        -0.04973779618740082,
        0.11157779395580292,
        0.10679323971271515,
        -0.042377252131700516,
        0.08292310684919357,
        -0.288904070854187,
        -0.04582013934850693,
        0.03772687911987305,
        -0.12586411833763123,
        -0.09229478985071182,
        -0.12609753012657166,
        -0.0043249293230473995,
        -0.07720401138067245,
        0.07752767950296402,
        0.34639161825180054,
        0.024690650403499603,
        0.14518603682518005,
        0.17238250374794006,
        -0.3815787434577942,
        0.1633259356021881,
        0.15738314390182495,
        0.0942426472902298,
        0.031891003251075745,
        0.05066388100385666,
        0.19741946458816528,
        -0.2954070568084717,
        -0.47422006726264954,
        -0.13064216077327728,
        0.13708075881004333,
        0.13714641332626343,
        0.2677200436592102,
        -0.3505966365337372,
        0.1725456714630127
      ],
      [
        -0.09624474495649338,
        -0.22320584952831268,
        -0.22159986197948456,
        0.03565662354230881,
        0.044751908630132675,
        -0.019659345969557762,
        0.10607552528381348,
        -0.1610516607761383,
        0.035034433007240295,
        0.16590341925621033,
        -0.0009201298817060888,
        0.1131560280919075,
        0.16917753219604492,
        0.04047161340713501,
        -0.2339565008878708,
        0.16594170033931732,
        -0.2857646048069,
        -0.09085641801357269,
        -0.04582725092768669,
        0.11130848526954651,
        0.02283448912203312,
        0.302640825510025,
        0.2959943115711212,
        0.27555346488952637,
        -0.06146947294473648,
        -0.05111013352870941,
        -0.4530687630176544,
        -0.23783940076828003,
        -0.2666742503643036,
        -0.23617182672023773,
        -0.10748159140348434,
        0.22685585916042328,
        -0.017940299585461617,
        0.09097469598054886,
        0.1707935482263565,
        0.21737952530384064,
        -0.1424250602722168,
        -0.14335499703884125,
        -0.10745636373758316,
        0.12431841343641281,
        0.24450235068798065,
        -0.13546128571033478,
        -0.24441000819206238,
        0.08956775069236755,
        0.3837678134441376,
        -0.12073846161365509,
        0.16118913888931274,
        0.008462653495371342,
        0.06772703677415848,
        0.05971331521868706,
        0.23443134129047394,
        -0.27137476205825806,
        -0.5393339395523071,
        0.2695182263851166,
        0.2046043872833252,
        0.16710668802261353,
        0.1517491638660431,
        -0.2600610852241516,
        0.21751552820205688,
        0.05712449178099632,
        -0.012834797613322735,
        -0.20165175199508667,
        -0.1493283212184906,
        0.09317662566900253,
        -0.06554438918828964,
        -0.21504320204257965,
        -0.26207783818244934,
        -0.3483724892139435,
        0.10248543322086334,
        -0.10843802988529205,
        -0.31132858991622925,
        -0.17458252608776093,
        -0.09970082342624664,
        0.16073253750801086,
        -0.020733779296278954,
        0.23478718101978302,
        -0.08309920877218246,
        -0.06759915500879288,
        0.41994509100914,
        -0.06203993409872055
      ]
    ],
    "net.2.bias": [
      0.04168612137436867,
      0.05914951488375664,
      0.12492125481367111,
      -0.11339845508337021
    ]
  },
  "F2": {
    "n_in": 4,
    "n_hid": 60,
    "n_out": 4,
    "activation": "tanh",
    "net.0.weight": [
      [
        0.03264877200126648,
        0.45839163661003113,
        0.6965071558952332,
        -0.12103231251239777
      ],
      [
        -0.10468684881925583,
        -0.0936453714966774,
        0.09213333576917648,
        0.08592955768108368
      ],
      [
        -0.2912008464336395,
        -0.12407731264829636,
        -0.33218222856521606,
        0.30609187483787537
      ],
      [
        -0.4422922432422638,
        0.4612361788749695,
        -0.2007872611284256,
        -0.25882694125175476
      ],
      [
        0.3782629370689392,
        0.25900033116340637,
        0.7696282267570496,
        0.22509434819221497
      ],
      [
        -0.5228721499443054,
        0.34117501974105835,
        -0.09825613349676132,
        -0.2615605294704437
      ],
      [
        0.4405450224876404,
        0.2513220012187958,
        -0.4449636936187744,
        0.1042642891407013
      ],
      [
        0.4167751967906952,
        -0.03254546970129013,
        0.2674347162246704,
        -0.3224775195121765
      ],
      [
        -0.7367112040519714,
        0.4511924684047699,
        0.07174914330244064,
        0.10708779096603394
      ],
      [
        -0.328685462474823,
        -0.5630197525024414,
        -0.6579670310020447,
        -0.45534059405326843
      ],
      [
        0.3095681965351105,
        0.4793216586112976,
        0.3608999252319336,
        0.04670747369527817
      ],
      [
        0.3564818799495697,
        -0.25477591156959534,
        0.47319459915161133,
        -0.27835214138031006
      ],
      [
        -0.5023890733718872,
        -0.16201390326023102,
        0.3835790455341339,
        0.02556469477713108
      ],
      [
        0.44552385807037354,
        -0.38153505325317383,
        0.6111159324645996,
        -0.07251092791557312
      ],
      [
        0.18517479300498962,
        0.3392115533351898,
        0.2046024352312088,
        -0.10889852046966553
      ],
      [
        -0.10995881259441376,
        -0.19081954658031464,
        -0.2308448851108551,
        0.388660192489624
      ],
      [
        -0.03510031849145889,
        0.1564781665802002,
        -0.21352115273475647,
        -0.09692887961864471
      ],
      [
        0.1037205159664154,
        -0.47529757022857666,
        0.14544060826301575,
        -0.07615393400192261
      ],
      [
        -0.17208395898342133,
        0.00936540961265564,
        0.25326672196388245,
        0.4985140860080719
      ],
      [
        -0.4358895719051361,
        0.25897565484046936,
        -0.3902224004268646,
        -0.3916703760623932
      ],
      [
        -0.03167764097452164,
        -0.1087220311164856,
        -0.6079853773117065,
        -0.39456552267074585
      ],
      [
        -0.047178301960229874,
        0.30011317133903503,
        -0.47530707716941833,
        -0.5441877841949463
      ],
      [
        0.11187317967414856,
        -0.5035067200660706,
        -0.25644028186798096,
        -0.31136107444763184
      ],
      [
        -0.31575751304626465,
        -0.4144434332847595,
        -0.5731043219566345,
        0.21940971910953522
      ],
      [
        -0.6967877149581909,
        -0.08709891885519028,
        -0.4687674343585968,
        -0.43817558884620667
      ],
      [
        0.1602039486169815,
        -0.37905070185661316,
        -0.4484643042087555,
        0.34915676712989807
      ],
      [
        0.12564051151275635,
        0.4481591284275055,
        -0.017279861494898796,
        -0.25836578011512756
      ],
      [
        -0.26652127504348755,
        0.051030661910772324,
        0.13685950636863708,
        -0.3136964440345764
      ],
      [
        0.004429126624017954,
        0.12517783045768738,
        -0.19533222913742065,
        -0.4706457555294037
      ],
      [
        0.43477171659469604,
        -0.6151987314224243,
        0.22699643671512604,
        -0.29302552342414856
      ],
      [
        0.09694689512252808,
        -0.5460313558578491,
        0.09034871309995651,
        -0.5196217894554138
      ],
      [
        -0.4932447373867035,
        0.06402873247861862,
        0.273444801568985,
        -0.6546604633331299
      ],
      [
        -0.2294798195362091,
        0.44044920802116394,
        -0.09704107791185379,
        0.26288339495658875
      ],
      [
        -0.40148070454597473,
        -0.12165684998035431,
        -0.26684820652008057,
        0.3770098388195038
      ],
      [
        0.22974984347820282,
        -0.5740610361099243,
        0.025417177006602287,
        0.08788878470659256
      ],
      [
        -0.12137124687433243,
        -0.2826513648033142,
        -0.2582271993160248,
        0.5329458117485046
      ],
      [
        -0.5811450481414795,
        -0.37181007862091064,
        -0.26352328062057495,
        0.2079440951347351
      ],
      [
        0.1261378973722458,
        0.0636846199631691,
        -0.19239015877246857,
        -0.20690181851387024
      ],
      [
        -0.10531006008386612,
        -0.04870634153485298,
        0.5529678463935852,
        -0.4988633394241333
      ],
      [
        -0.23565825819969177,
        -0.9270775318145752,
        -0.26541006565093994,
        0.5143663883209229
      ],
      [
        0.5632336139678955,
        -0.43040168285369873,
        0.12074200809001923,
        0.0011510158656165004
      ],
      [
        0.004390227608382702,
        0.7772338390350342,
        -0.14360392093658447,
        -0.309127539396286
      ],
      [
        0.22955824434757233,
        -0.15461552143096924,
        0.1870175302028656,
        0.06376490741968155
      ],
      [
        0.5017534494400024,
        0.40512290596961975,
        0.6108675599098206,
        -0.6397457718849182
      ],
      [
        -0.2093835473060608,
        -0.299709290266037,
        -0.2165876179933548,
        0.498136967420578
      ],
      [
        0.15990442037582397,
        -0.44002583622932434,
        0.012069780379533768,
        -0.3760601282119751
      ],
      [
        0.44064030051231384,
        0.056616123765707016,
        -0.36396023631095886,
        -0.9449113011360168
      ],
      [
        0.22684475779533386,
        0.31598711013793945,
        -0.3661741316318512,
        0.20660839974880219
      ],
      [
        0.36351248621940613,
        0.057482052594423294,
        -0.12750746309757233,
        0.0005879485397599638
      ],
      [
        0.037065982818603516,
        0.30397292971611023,
        -0.19620950520038605,
        0.11388992518186569
      ],
      [
        0.28996068239212036,
        -0.27666130661964417,
        0.33034443855285645,
        0.6419523358345032
      ],
      [
        -0.27621373534202576,
        -0.04413473606109619,
        0.2882187068462372,
        -0.41999030113220215
      ],
      [
        0.17094144225120544,
        0.09698963165283203,
        0.19253921508789062,
        -0.35026443004608154
      ],
      [
        -0.2800198197364807,
        0.19295227527618408,
        0.3296947181224823,
        -0.7284139394760132
      ],
      [
        -0.19980214536190033,
        -0.8227681517601013,
        -0.3197529911994934,
        -0.3819223642349243
      ],
      [
        0.7234088778495789,
        -0.28054019808769226,
        0.21739594638347626,
        0.4180586040019989
      ],
      [
        0.09111928194761276,
        -0.4185280203819275,
        0.1738189458847046,
        0.22394147515296936
      ],
      [
        0.29296576976776123,
        -0.4512016475200653,
        0.18220306932926178,
        0.3813072443008423
      ],
      [
        -0.4089334309101105,
        -0.02810676209628582,
        0.4592209756374359,
        -0.5394513607025146
      ],
      [
        0.27815744280815125,
        0.15318253636360168,
        0.469725102186203,
        0.4435359537601471
      ]
    ],
    "net.0.bias": [
      0.716107964515686,
      0.4985995292663574,
      -0.15476161241531372,
      0.5186424255371094,
      -0.7148093581199646,
      -0.3818175792694092,
      -0.15536271035671234,
      -0.15622231364250183,
      0.6744948029518127,
      0.4115629196166992,
      0.35594022274017334,
      0.7140471339225769,
      -0.4590495824813843,
      -0.046296898275613785,
      0.24587997794151306,
      0.31377676129341125,
      0.2634908854961395,
      -0.4368114173412323,
      -0.060968294739723206,
      0.46186554431915283,
      -0.28114140033721924,
      -0.502299964427948,
      0.33095982670783997,
      0.4705061912536621,
      -0.3431118130683899,
      -0.33000272512435913,
      -0.4076586067676544,
      -0.2857993245124817,
      0.10259737074375153,
      -0.28148746490478516,
      0.8046120405197144,
      -0.49680817127227783,
      0.10688282549381256,
      0.01635786145925522,
      0.4115724265575409,
      0.6234815120697021,
      0.5340157747268677,
      0.14828062057495117,
      -0.607042670249939,
      -0.6011297702789307,
      -0.49009719491004944,
      0.03406239300966263,
      0.6568045020103455,
      -0.536130964756012,
      -0.26494932174682617,
      -0.49051618576049805,
      -0.0025597079657018185,
      0.1962459683418274,
      -0.5502057075500488,
      -0.4786551296710968,
      0.5883889198303223,
      0.15015757083892822,
      -0.05358192324638367,
      0.24411222338676453,
      -0.18553315103054047,
      -0.4401194453239441,
      -0.5682091116905212,
      0.43972542881965637,
      0.1000521183013916,
      -0.36598914861679077
    ],
    "net.2.weight": [
      [
        -0.11810087412595749,
        -0.14883138239383698,
        -0.0502394363284111,
        0.008720722049474716,
        0.11721424758434296,
        -0.05577768012881279,
        0.10174395143985748,
        -0.0616108737885952,
        0.23193363845348358,
        0.031229089945554733,
        0.1276455819606781,
        0.034339215606451035,
        0.09859119355678558,
        0.0066240448504686356,
        -0.03191816434264183,
        0.07933908700942993,
        -0.014204413630068302,
        -0.010897994972765446,
        0.09889383614063263,
        -0.08996274322271347,
        0.022522270679473877,
        0.16113121807575226,
        -0.09286682307720184,
        0.11628662049770355,
        0.01982673443853855,
        0.04311683773994446,
        0.08776731789112091,
        0.22413663566112518,
        0.028640689328312874,
        -0.011056443676352501,
        0.02310389280319214,
        0.06486760079860687,
        0.0547017827630043,
        0.10445695370435715,
        0.03780357912182808,
        0.06104256212711334,
        0.010395883582532406,
        0.07519378513097763,
        0.017031054943799973,
        -0.04383796453475952,
        -0.1689714938402176,
        0.17281192541122437,
        -0.04073650762438774,
        0.0985063686966896,
        -0.18647874891757965,
        -0.05832148343324661,
        -0.09147939085960388,
        -0.0037395881954580545,
        -0.02795691415667534,
        0.07486342638731003,
        0.035704605281353,
        -0.05761408433318138,
        0.10333725810050964,
        0.032839950174093246,
        0.05823235958814621,
        -0.1837107390165329,
        0.06100574508309364,
        0.17929469048976898,
        -0.048220910131931305,
        0.040850114077329636
      ],
      [
        -0.22553914785385132,
        0.2466612607240677,
        0.03118281438946724,
        0.1862787902355194,
        0.0470617450773716,
        -0.036469072103500366,
        -0.03092312254011631,
        -0.11338455229997635,
        0.14701798558235168,
        -0.0860951617360115,
        0.10608429461717606,
        -0.09006986767053604,
        -0.2230435311794281,
        -0.23087619245052338,
        -0.09454863518476486,
        -0.013603623025119305,
        0.08324673771858215,
        -0.010206654667854309,
        0.0793795958161354,
        -0.03366464376449585,
        -0.04289158806204796,
        -0.07908206433057785,
        -0.10783509165048599,
        -0.14777542650699615,
        0.12064297497272491,
        0.36272484064102173,
        0.1505725085735321,
        0.06067061796784401,
        0.10822345316410065,
        -0.19518645107746124,
        -0.1799207627773285,
        0.05981867015361786,
        -0.009016906842589378,
        -0.0662560686469078,
        0.3107464611530304,
        -0.14447830617427826,
        -0.21982084214687347,
        0.04919419065117836,
        0.11975208669900894,
        0.6093938946723938,
        -0.2538330852985382,
        -0.439719021320343,
        0.057486392557621,
        0.06986042112112045,
        0.05746892839670181,
        -0.008334388025105,
        -0.022987980395555496,
        -0.026346096768975258,
        -0.09029023349285126,
        -0.23392893373966217,
        -0.17006459832191467,
        0.1948825865983963,
        -0.08129924535751343,
        0.03873010724782944,
        -0.05784272402524948,
        -0.09612244367599487,
        -0.09329493343830109,
        0.13897766172885895,
        0.11206177622079849,
        0.005282226018607616
      ],
      [
        -0.14423377811908722,
        -0.03221818059682846,
        0.043418917804956436,
        0.14947234094142914,
        0.28526943922042847,
        -0.07718659937381744,
        0.0011788622941821814,
        -0.04052183777093887,
        0.055615950375795364,
        -0.18120650947093964,
        -0.10252910852432251,
        0.0796571746468544,
        -0.046641066670417786,
        -0.08721913397312164,
        -0.05178884044289589,
        -0.14233288168907166,
        -0.0050926958210766315,
        -0.13231855630874634,
        0.034342918545007706,
        0.1322500854730606,
        0.1736932396888733,
        -0.15189339220523834,
        0.08393146097660065,
        -0.07311344891786575,
        0.43485572934150696,
        0.17453442513942719,
        -0.045910682529211044,
        -0.01998765952885151,
        -0.03582502156496048,
        -0.07099716365337372,
        0.24828259646892548,
        -0.008547843433916569,
        0.11834319680929184,
        0.056300532072782516,
        0.07864168286323547,
        -0.15924566984176636,
        -0.08582738041877747,
        0.05468102544546127,
        0.16442616283893585,
        0.014459051191806793,
        0.01798195019364357,
        0.00902601983398199,
        0.18444861471652985,
        0.05640513822436333,
        0.10137245059013367,
        -0.1913950890302658,
        -0.12677235901355743,
        0.04245590418577194,
        -0.012009997852146626,
        -0.1628793627023697,
        0.21227861940860748,
        -0.04879585653543472,
        0.070957712829113,
        -0.27497756481170654,
        0.25496381521224976,
        -0.20461224019527435,
        -0.08094023168087006,
        0.029616763815283775,
        -0.12317001819610596,
        0.05396461486816406
      ],
      [
        0.02503686398267746,
        0.05028326064348221,
        0.016288449987769127,
        0.00879670213907957,
        -0.02922031283378601,
        -0.07782471925020218,
        -0.05129489675164223,
        -0.08193999528884888,
        -0.0036035252269357443,
        -0.09808982908725739,
        0.007730253040790558,
        -0.008569823578000069,
        0.07241814583539963,
        -0.0018869199557229877,
        -0.03744722157716751,
        -0.05932736396789551,
        0.07623911648988724,
        0.05360371619462967,
        -0.0301084965467453,
        -0.07425528019666672,
        -0.006571550387889147,
        0.004513956606388092,
        0.050330132246017456,
        -0.0003881176235154271,
        0.026693616062402725,
        -0.016369368880987167,
        -0.007886595092713833,
        0.024268999695777893,
        -0.02976364828646183,
        0.010772100649774075,
        0.007180084940046072,
        -0.09898893535137177,
        0.12053092569112778,
        -0.09820424020290375,
        -0.01033768616616726,
        0.08853672444820404,
        -0.015397957526147366,
        0.15583693981170654,
        0.06958985328674316,
        -0.0029850273858755827,
        -0.023656362667679787,
        0.009627392515540123,
        -0.0943361222743988,
        -0.016338791698217392,
        0.060396671295166016,
        0.11736148595809937,
        0.020900478586554527,
        0.03263789042830467,
        -0.08367890864610672,
        -0.10489725321531296,
        -0.06609079241752625,
        -0.031326353549957275,
        0.05096425116062164,
        0.033169522881507874,
        -0.0395868644118309,
        -0.08607634156942368,
        0.04311376437544823,
        -0.05105049908161163,
        0.0241786390542984,
        -0.01629789173603058
      ]
    ],
    "net.2.bias": [
      -0.13467973470687866,
      0.1934586763381958,
      -0.013627744279801846,
      -0.07456140965223312
    ]
  }
}