{
  "name": "PV3",
  "type": "F1+H1+F2",
  "t_step": 0.002,
  "normfacs": {
    "T": {
      "scale": 20.003402709960938,
      "offset": 25.000959396362305
    },
    "G": {
      "scale": 999.9949951171875,
      "offset": 384.7131042480469
    },
    "Fc": {
      "scale": 9.999828338623047,
      "offset": 60.00187683105469
    },
    "Md": {
      "scale": 0.40000206232070923,
      "offset": 1.0012720823287964
    },
    "Mq": {
      "scale": 1.0,
      "offset": 0.0010284801246598363
    },
    "Vrms": {
      "scale": 566.448974609375,
      "offset": 338.45794677734375
    },
    "GVrms": {
      "scale": 566.4461059570312,
      "offset": 178.87728881835938
    },
    "Ctl": {
      "scale": 1.0,
      "offset": 0.5992000102996826
    },
    "Vdc": {
      "scale": 439.7894592285156,
      "offset": 275.1376953125
    },
    "Idc": {
      "scale": 292.8359680175781,
      "offset": 100.0894546508789
    },
    "Id": {
      "scale": 195.2642364501953,
      "offset": 65.44300079345703
    },
    "Iq": {
      "scale": 153.54869079589844,
      "offset": -1.357047200202942
    }
  },
  "lr": 0.001,
  "num_iter": 500,
  "print_freq": 10,
  "batch_size": 1500,
  "n_skip": 1,
  "n_trunc": 0,
  "n_dec": 1,
  "n_loss_skip": 200,
  "n_pad": 500,
  "gtype": "stable2nd",
  "na": 2,
  "nb": 3,
  "nk": 0,
  "activation": "tanh",
  "nh1": 80,
  "nh2": 60,
  "COL_T": [
    "t"
  ],
  "COL_Y": [
    "Vdc",
    "Idc",
    "Id",
    "Iq"
  ],
  "COL_U": [
    "T",
    "G",
    "Fc",
    "Md",
    "Mq",
    "Vrms",
    "GVrms",
    "Ctl"
  ],
  "H1": {
    "n_in": 4,
    "n_out": 4,
    "n_b": 2,
    "n_a": 2,
    "n_k": 0,
    "b_0_0": [
      0.08630970865488052,
      0.09187314659357071,
      0.08074285835027695
    ],
    "rho_0_0": -0.045149631798267365,
    "psi_0_0": -0.14239974319934845,
    "b_0_1": [
      -0.05797387287020683,
      -0.060621991753578186,
      -0.043255917727947235
    ],
    "rho_0_1": 0.04217914491891861,
    "psi_0_1": 0.11241509765386581,
    "b_0_2": [
      -0.050836190581321716,
      -0.03939396142959595,
      -0.046097345650196075
    ],
    "rho_0_2": 0.13920991122722626,
    "psi_0_2": -0.15493197739124298,
    "b_0_3": [
      -0.032660290598869324,
      -0.04564058408141136,
      -0.020374825224280357
    ],
    "rho_0_3": -0.16667404770851135,
    "psi_0_3": -0.2826840579509735,
    "b_1_0": [
      0.07731693238019943,
      0.07903467118740082,
      0.08770520985126495
    ],
    "rho_1_0": -0.03778623789548874,
    "psi_1_0": -0.05466084182262421,
    "b_1_1": [
      0.02656242437660694,
      0.02787204273045063,
      0.020986132323741913
    ],
    "rho_1_1": -0.061095383018255234,
    "psi_1_1": 0.028495417907834053,
    "b_1_2": [
      0.055070631206035614,
      0.05478266626596451,
      0.054163407534360886
    ],
    "rho_1_2": 0.044219013303518295,
    "psi_1_2": 0.06203034147620201,
    "b_1_3": [
      0.08770076185464859,
      0.09684813022613525,
      0.09721021354198456
    ],
    "rho_1_3": -0.13789652287960052,
    "psi_1_3": -0.07746440172195435,
    "b_2_0": [
      0.08061571419239044,
      0.08877068758010864,
      0.07274235039949417
    ],
    "rho_2_0": -0.20086218416690826,
    "psi_2_0": -0.11775776743888855,
    "b_2_1": [
      0.04021472483873367,
      0.05728514492511749,
      0.04399900138378143
    ],
    "rho_2_1": -0.13989518582820892,
    "psi_2_1": -0.21190257370471954,
    "b_2_2": [
      0.06753837317228317,
      0.06480203568935394,
      0.0461864210665226
    ],
    "rho_2_2": 0.017177898436784744,
    "psi_2_2": -0.16255854070186615,
    "b_2_3": [
      0.1153508797287941,
      0.1146993488073349,
      0.10639787465333939
    ],
    "rho_2_3": -0.08899088203907013,
    "psi_2_3": -0.05248076096177101,
    "b_3_0": [
      -0.09863034635782242,
      -0.07592745125293732,
      -0.08802223205566406
    ],
    "rho_3_0": -0.11624908447265625,
    "psi_3_0": -0.19459329545497894,
    "b_3_1": [
      0.047558363527059555,
      0.04334990307688713,
      0.0579318106174469
    ],
    "rho_3_1": -0.22038991749286652,
    "psi_3_1": 0.009375277906656265,
    "b_3_2": [
      0.04552445560693741,
      0.0441647507250309,
      0.04637179896235466
    ],
    "rho_3_2": -0.08702516555786133,
    "psi_3_2": -0.04589710012078285,
    "b_3_3": [
      0.027217794209718704,
      0.024759948253631592,
      0.02148335427045822
    ],
    "rho_3_3": 0.0781189352273941,
    "psi_3_3": 0.006909919902682304
  },
  "H1s": {},
  "F1": {
    "n_in": 8,
    "n_hid": 80,
    "n_out": 4,
    "activation": "tanh",
    "net.0.weight": [
      [
        0.026068484410643578,
        0.1355198621749878,
        -0.2678285241127014,
        -0.40199190378189087,
        0.08755480498075485,
        0.2224912792444229,
        0.006476035341620445,
        0.2435784488916397
      ],
      [
        -0.03996114805340767,
        0.05064921826124191,
        -0.11496894806623459,
        0.05224496126174927,
        -0.4909643530845642,
        -0.3249417543411255,
        -0.17785625159740448,
        0.007564452476799488
      ],
      [
        0.0862841084599495,
        0.2734109163284302,
        -0.1340991109609604,
        -0.2899552583694458,
        0.07769587635993958,
        0.37464311718940735,
        -0.05967999994754791,
        0.27077361941337585
      ],
      [
        -0.0481296107172966,
        0.10693001747131348,
        0.3013424277305603,
        -0.2184908539056778,
        0.005943844094872475,
        -0.08880797773599625,
        -0.1182488426566124,
        0.3278433084487915
      ],
      [
        -0.2021201103925705,
        -0.10435781627893448,
        -0.2947617173194885,
        -0.180080845952034,
        -0.09772907942533493,
        0.32090017199516296,
        0.1785573959350586,
        0.17538315057754517
      ],
      [
        0.021428417414426804,
        -0.12830519676208496,
        0.031620562076568604,
        -0.3812124729156494,
        -0.4867044687271118,
        -0.10354484617710114,
        0.26367267966270447,
        0.2270500212907791
      ],
      [
        -0.13640880584716797,
        0.04420829191803932,
        0.2925392985343933,
        0.323205828666687,
        0.04011184722185135,
        0.12528680264949799,
        0.25711536407470703,
        -0.1976766437292099
      ],
      [
        0.043419357389211655,
        -0.33270779252052307,
        -0.2886492908000946,
        -0.18705056607723236,
        0.14255544543266296,
        0.07431261986494064,
        -0.22609104216098785,
        0.09310618042945862
      ],
      [
        0.13633957505226135,
        -0.10278522968292236,
        0.2525823414325714,
        -0.12357105314731598,
        -0.04091241955757141,
        0.4980602264404297,
        -0.4236600697040558,
        -0.17973966896533966
      ],
      [
        0.14340636134147644,
        0.39931806921958923,
        0.28811952471733093,
        0.4529133439064026,
        -0.01007710862904787,
        -0.2836576998233795,
        0.038326069712638855,
        -0.17760170996189117
      ],
      [
        -0.3464387059211731,
        0.28332796692848206,
        0.28761330246925354,
        -0.29548728466033936,
        -0.027454923838377,
        -0.1437869369983673,
        -0.11652030050754547,
        -0.16631534695625305
      ],
      [
        0.14010149240493774,
        -0.28200700879096985,
        0.27041298151016235,
        0.14390183985233307,
        0.019221778959035873,
        0.2396005541086197,
        -0.2723127603530884,
        -0.20440544188022614
      ],
      [
        0.10695129632949829,
        0.14318156242370605,
        -0.1442750245332718,
        -0.2850686013698578,
        0.6556121110916138,
        0.3330167829990387,
        -0.14055897295475006,
        -0.0771242082118988
      ],
      [
        -0.3084581196308136,
        0.03031983971595764,
        -0.31031671166419983,
        -0.469440758228302,
        -0.09215665608644485,
        0.13480767607688904,
        -0.12963910400867462,
        0.2129746675491333
      ],
      [
        -0.2327134609222412,
        0.40363192558288574,
        0.16765013337135315,
        -0.005178728606551886,
        -0.08247940242290497,
        -0.0988960936665535,
        -0.02701091393828392,
        0.05899703875184059
      ],
      [
        0.20593039691448212,
        0.01793745532631874,
        -0.14084039628505707,
        0.10582996904850006,
        -0.3395758271217346,
        -0.13640902936458588,
        -0.036534909158945084,
        -0.10250048339366913
      ],
      [
        -0.11069392412900925,
        -0.3546857237815857,
        -0.07842844724655151,
        0.0746980831027031,
        -0.2293909788131714,
        -0.08172351121902466,
        0.24362613260746002,
        -0.05526430904865265
      ],
      [
        -0.026828886941075325,
        0.04661471024155617,
        0.04825862497091293,
        0.06537025421857834,
        0.48700404167175293,
        0.3010753095149994,
        0.3621237576007843,
        -0.002546712290495634
      ],
      [
        -0.23562557995319366,
        -0.22416119277477264,
        0.10393907129764557,
        0.21806620061397552,
        -0.1081923395395279,
        -0.3492109477519989,
        -0.3308848738670349,
        -0.3009333312511444
      ],
      [
        -0.08787810057401657,
        0.32159173488616943,
        0.11190110445022583,
        -0.21114858984947205,
        0.05221959948539734,
        -0.29473087191581726,
        -0.07576245814561844,
        -0.06917689740657806
      ],
      [
        -0.06577999144792557,
        -0.00696338526904583,
        -0.37219440937042236,
        -0.22227291762828827,
        -0.03128854185342789,
        0.05459040030837059,
        -0.12689049541950226,
        0.15173651278018951
      ],
      [
        -0.28420332074165344,
        0.0003655783657450229,
        0.3439130187034607,
        -0.26098746061325073,
        0.47384512424468994,
        0.20916402339935303,
        -0.28554871678352356,
        0.21832722425460815
      ],
      [
        -0.03548271209001541,
        -0.11289685219526291,
        0.227826327085495,
        -0.3423192799091339,
        0.011793801560997963,
        0.01726771891117096,
        0.2895272970199585,
        0.11368636786937714
      ],
      [
        0.22265392541885376,
        0.1758466511964798,
        -0.09987913817167282,
        0.007013353984802961,
        -0.23577608168125153,
        0.21126976609230042,
        0.2815420627593994,
        0.24781812727451324
      ],
      [
        -0.1816437840461731,
        0.009302747435867786,
        -0.1789178103208542,
        -0.4114009439945221,
        -0.6106520891189575,
        0.28426307439804077,
        -0.20322316884994507,
        -0.03211684897542
      ],
      [
        0.022968756034970284,
        0.04112960398197174,
        -0.21270036697387695,
        -0.3710225820541382,
        -0.5676755309104919,
        0.30502021312713623,
        -0.188895121216774,
        0.24492423236370087
      ],
      [
        0.11316104233264923,
        -0.02000926248729229,
        -0.0034604028332978487,
        0.03849627450108528,
        0.1691623032093048,
        -0.15470944344997406,
        -0.023813659325242043,
        0.0335330069065094
      ],
      [
        -0.2424330711364746,
        -0.22044146060943604,
        0.14616651833057404,
        -0.3646950423717499,
        -0.29664573073387146,
        0.40097516775131226,
        0.06312602758407593,
        -0.12284580618143082
      ],
      [
        -0.28224337100982666,
        0.22650030255317688,
        -0.254000723361969,
        -0.06397384405136108,
        -0.07086289674043655,
        -0.020802179351449013,
        -7.77227251091972e-05,
        0.30010607838630676
      ],
      [
        0.04911772906780243,
        0.3907652795314789,
        0.15454615652561188,
        -0.27907225489616394,
        0.012238193303346634,
        -0.35326018929481506,
        -0.10303376615047455,
        0.18200424313545227
      ],
      [
        0.09733382612466812,
        0.39152079820632935,
        -0.20533552765846252,
        0.29583948850631714,
        0.3830755054950714,
        -0.33376210927963257,
        0.26721838116645813,
        -0.2566419839859009
      ],
      [
        -0.004387678112834692,
        -0.1070849820971489,
        -0.1572544276714325,
        -0.1841324269771576,
        0.008652670308947563,
        -0.03628172725439072,
        -0.1678806096315384,
        -0.09668982774019241
      ],
      [
        -0.3072122037410736,
        0.18761388957500458,
        -0.09429486840963364,
        -0.35809940099716187,
        -0.6466911435127258,
        0.31068938970565796,
        0.2062448412179947,
        0.2689068913459778
      ],
      [
        0.08718486875295639,
        -0.19335754215717316,
        -0.06806018948554993,
        -0.0027730511501431465,
        0.32191023230552673,
        0.06862764805555344,
        -0.17036311328411102,
        -0.18666556477546692
      ],
      [
        -0.28416699171066284,
        0.019463783130049706,
        -0.1673942506313324,
        -0.49993249773979187,
        0.09916237741708755,
        -0.16967275738716125,
        0.07817987352609634,
        0.18735365569591522
      ],
      [
        0.009227242320775986,
        -0.1988392472267151,
        -0.20716993510723114,
        0.03666399419307709,
        0.19183644652366638,
        0.39918625354766846,
        -0.07771629840135574,
        0.1035524234175682
      ],
      [
        -0.08101912587881088,
        -0.06357929110527039,
        -0.17755000293254852,
        0.22179964184761047,
        0.235165074467659,
        -0.09488804638385773,
        -0.10762391239404678,
        -0.2310258150100708
      ],
      [
        0.19799722731113434,
        -0.3424183130264282,
        0.130180224776268,
        -0.17389026284217834,
        -0.1237797811627388,
        0.01476700883358717,
        -0.1964927613735199,
        0.05589847266674042
      ],
      [
        0.026263801380991936,
        -0.28798890113830566,
        0.07182153314352036,
        0.23502658307552338,
        0.17463158071041107,
        -0.08940050005912781,
        -0.26630809903144836,
        -0.03834596648812294
      ],
      [
        0.11898810416460037,
        -0.049808431416749954,
        0.10124149918556213,
        0.375038206577301,
        -0.1735483556985855,
        0.01616491749882698,
        0.1718217134475708,
        0.049392905086278915
      ],
      [
        -0.028605051338672638,
        0.10378085821866989,
        -0.1492186039686203,
        -0.11180447787046432,
        0.5604605078697205,
        0.41679877042770386,
        0.2352313995361328,
        0.0589575320482254
      ],
      [
        0.1449476033449173,
        -0.2529660761356354,
        -0.2078152447938919,
        -0.2599965035915375,
        0.4032399356365204,
        0.169882133603096,
        -0.25088468194007874,
        0.10525508224964142
      ],
      [
        0.2464986890554428,
        0.40229305624961853,
        0.24771222472190857,
        0.5194835066795349,
        -0.07090932130813599,
        -0.25232765078544617,
        0.18760651350021362,
        0.16228215396404266
      ],
      [
        -0.1660633683204651,
        0.35463160276412964,
        0.14832985401153564,
        0.07429904490709305,
        -0.310689777135849,
        0.19435645639896393,
        -0.10011120140552521,
        0.281777560710907
      ],
      [
        -0.034797679632902145,
        0.19166313111782074,
        0.04715178906917572,
        0.039022885262966156,
        -0.39276736974716187,
        0.26363691687583923,
        -0.222957581281662,
        0.08942440152168274
      ],
      [
        -0.23275475203990936,
        -0.3960059881210327,
        -0.31540146470069885,
        0.3184084892272949,
        0.1456812620162964,
        0.261917382478714,
        0.2582940459251404,
        -0.3422045409679413
      ],
      [
        -0.23831716179847717,
        -0.02610737271606922,
        -0.24266275763511658,
        0.379568487405777,
        -0.4810863137245178,
        -0.23986072838306427,
        -0.29685062170028687,
        -0.14544346928596497
      ],
      [
        0.22274136543273926,
        0.19564588367938995,
        0.26291003823280334,
        0.1742100864648819,
        0.7247640490531921,
        -0.016990600153803825,
        0.11744637787342072,
        0.2867071330547333
      ],
      [
        0.08665497601032257,
        0.43401169776916504,
        0.12449874728918076,
        0.24763475358486176,
        -0.1704917997121811,
        0.2157365381717682,
        0.047459788620471954,
        -0.06277471035718918
      ],
      [
        -0.20477958023548126,
        -0.2431039959192276,
        -0.256389319896698,
        0.14522281289100647,
        0.197806254029274,
        -0.05019509419798851,
        -0.12795080244541168,
        0.3132309913635254
      ],
      [
        0.2271200716495514,
        0.08401375263929367,
        -0.1067146584391594,
        0.16427215933799744,
        0.1266278624534607,
        -0.18934187293052673,
        0.3668557107448578,
        0.2912537753582001
      ],
      [
        -0.10735440999269485,
        0.19076701998710632,
        -0.1778729110956192,
        0.13808219134807587,
        0.8071823120117188,
        -0.10663040727376938,
        -0.30235907435417175,
        -0.12102095782756805
      ],
      [
        -0.10057344287633896,
        -0.14229147136211395,
        0.07468067109584808,
        0.1387343853712082,
        -0.001544176135212183,
        -0.25786927342414856,
        0.008010405115783215,
        0.15963320434093475
      ],
      [
        0.15113219618797302,
        -0.4155034124851227,
        -0.04748353362083435,
        -0.4506535530090332,
        -0.0005608744686469436,
        0.1141405776143074,
        -0.24336257576942444,
        0.11520549654960632
      ],
      [
        0.3749167025089264,
        0.07029259949922562,
        -0.2623368501663208,
        -0.19740988314151764,
        0.237248033285141,
        -0.20704598724842072,
        0.2139042466878891,
        -0.26397985219955444
      ],
      [
        -0.3246312141418457,
        -0.43102705478668213,
        -0.03375619277358055,
        0.5154838562011719,
        -0.18882936239242554,
        0.2657317817211151,
        -0.11728310585021973,
        0.06377009302377701
      ],
      [
        0.02806568518280983,
        -0.31107842922210693,
        0.1724826544523239,
        -0.10467986017465591,
        0.7440964579582214,
        0.3030685782432556,
        -0.183537095785141,
        0.29648688435554504
      ],
      [
        0.02587985433638096,
        0.12148192524909973,
        -0.1894817352294922,
        0.043542973697185516,
        -0.6653468012809753,
        -0.2343093305826187,
        0.03771888092160225,
        -0.28776177763938904
      ],
      [
        0.1071605309844017,
        0.23495107889175415,
        0.05924849957227707,
        -0.3171530067920685,
        -0.5014970302581787,
        -0.017830654978752136,
        0.1859489381313324,
        0.36454781889915466
      ],
      [
        0.21763105690479279,
        -0.10286576300859451,
        0.1202181950211525,
        -0.40547001361846924,
        -0.382345587015152,
        0.10278111696243286,
        -0.2239592969417572,
        0.13338743150234222
      ],
      [
        -0.2058430016040802,
        -0.11264798790216446,
        -0.2687574028968811,
        0.1880827099084854,
        -0.09761350601911545,
        0.32280921936035156,
        0.23663249611854553,
        0.20946460962295532
      ],
      [
        -0.016937142238020897,
        -0.15755334496498108,
        -0.08097288757562637,
        0.18822650611400604,
        0.31387194991111755,
        -0.31851065158843994,
        0.30473190546035767,
        -0.033266253769397736
      ],
      [
        -0.2868233025074005,
        -0.23213516175746918,
        0.23995015025138855,
        0.34382447600364685,
        -0.041783884167671204,
        0.29157477617263794,
        0.23666197061538696,
        0.12922760844230652
      ],
      [
        0.3015819489955902,
        -0.1550169140100479,
        0.09236599504947662,
        -0.06274335831403732,
        -0.38535407185554504,
        0.21747370064258575,
        -0.067292220890522,
        0.21997010707855225
      ],
      [
        -0.08671651035547256,
        -0.0550723671913147,
        0.06824027001857758,
        0.26384347677230835,
        -0.17851099371910095,
        0.05070667713880539,
        0.2336438000202179,
        -0.017467033118009567
      ],
      [
        0.07417480647563934,
        -0.12842419743537903,
        0.08721810579299927,
        -0.06445121765136719,
        -0.2693876624107361,
        -0.27897265553474426,
        0.30521389842033386,
        -0.09725292772054672
      ],
      [
        -0.00990037340670824,
        -0.22278475761413574,
        0.24553616344928741,
        0.45061877369880676,
        -0.3792857527732849,
        -0.3660614490509033,
        -0.285796195268631,
        -0.008750127628445625
      ],
      [
        -0.11813722550868988,
        -0.27197015285491943,
        -0.1554940640926361,
        0.16988034546375275,
        -0.18468345701694489,
        0.0014403114328160882,
        -0.10166532546281815,
        -0.18352892994880676
      ],
      [
        -0.0016395027050748467,
        0.322995662689209,
        -0.39076608419418335,
        0.21910619735717773,
        -0.04752117022871971,
        0.31417927145957947,
        -0.4213400185108185,
        -0.3743893802165985
      ],
      [
        0.2735458314418793,
        -0.3344094157218933,
        0.0989733636379242,
        -0.25070229172706604,
        -0.23180903494358063,
        -0.05394326522946358,
        0.28715696930885315,
        0.009343254379928112
      ],
      [
        -0.2722095549106598,
        -0.29547473788261414,
        -0.035793278366327286,
        0.01792646013200283,
        -0.26590263843536377,
        0.34741827845573425,
        -0.09711700677871704,
        -0.11293550580739975
      ],
      [
        0.294401615858078,
        0.12582790851593018,
        0.2670103907585144,
        0.04368557408452034,
        -0.30193695425987244,
        -0.22829200327396393,
        -0.07119058072566986,
        0.2643899619579315
      ],
      [
        -0.04135451465845108,
        -0.4150656759738922,
        0.058274030685424805,
        0.6393678784370422,
        -0.07149170339107513,
        -0.36252230405807495,
        -0.34792765974998474,
        0.06042572855949402
      ],
      [
        -0.029486052691936493,
        -0.2520345151424408,
        0.03734798729419708,
        0.3149335980415344,
        0.3629765510559082,
        0.2018585056066513,
        -0.08070087432861328,
        -0.3379855751991272
      ],
      [
        -0.2542971074581146,
        0.413737952709198,
        0.1031099259853363,
        -0.2229301482439041,
        -0.6768110394477844,
        0.4057670831680298,
        0.35631757974624634,
        0.3344334363937378
      ],
      [
        -0.32751283049583435,
        0.006970250979065895,
        -0.27486804127693176,
        0.5749342441558838,
        -0.26547756791114807,
        -0.2208753526210785,
        0.2407260239124298,
        -0.06279028207063675
      ],
      [
        -0.15022678673267365,
        0.0373276025056839,
        -0.059918712824583054,
        -0.17806093394756317,
        0.2547830641269684,
        -0.1303732693195343,
        0.14618845283985138,
        0.3302017152309418
      ],
      [
        0.16279156506061554,
        0.13641268014907837,
        0.23157939314842224,
        0.2077234983444214,
        -0.2500864267349243,
        0.3741094768047333,
        0.0761682316660881,
        -0.3377086818218231
      ],
      [
        -0.11766473203897476,
        -0.32367852330207825,
        0.5266841650009155,
        -0.09260975569486618,
        -0.06428072601556778,
        -0.08647222816944122,
        0.25798845291137695,
        0.08537335693836212
      ],
      [
        0.035136595368385315,
        -0.013756539672613144,
        0.22008328139781952,
        -0.19982844591140747,
        -0.16339433193206787,
        -0.35794684290885925,
        -0.270937442779541,
        0.18432694673538208
      ]
    ],
    "net.0.bias": [
      -0.26907944679260254,
      -0.02169117145240307,
      0.19388443231582642,
      0.0009343756828457117,
      -0.16781169176101685,
      0.3590715229511261,
      -0.17633280158042908,
      0.24616871774196625,
      -0.10924067348241806,
      -0.0893063098192215,
      0.2074262648820877,
      -0.1542431116104126,
      0.3043065667152405,
      -0.20824329555034637,
      -0.18591006100177765,
      -0.19813433289527893,
      0.018788760527968407,
      0.3255438208580017,
      -0.2580326497554779,
      0.13144037127494812,
      -0.09629640728235245,
      -0.08286157250404358,
      0.27444079518318176,
      -0.1746157854795456,
      0.11311345547437668,
      0.34538930654525757,
      -0.08027320355176926,
      0.228236585855484,
      -0.06274856626987457,
      0.21635155379772186,
      -0.3313606083393097,
      -0.04763999208807945,
      0.11519981920719147,
      0.06536048650741577,
      0.07300208508968353,
      0.26675930619239807,
      -0.08504462987184525,
      -0.03574104607105255,
      0.09786315262317657,
      -0.10112902522087097,
      0.31759682297706604,
      -0.2342361956834793,
      0.00842407438904047,
      0.0812365859746933,
      0.17925024032592773,
      0.24687723815441132,
      -0.1132766529917717,
      -0.3654153645038605,
      0.1648745834827423,
      0.09565488249063492,
      0.15656337141990662,
      -0.24008984863758087,
      0.1683730185031891,
      0.2748206853866577,
      0.06711286306381226,
      -0.3080010414123535,
      0.26404082775115967,
      -0.27824732661247253,
      0.10490430146455765,
      0.042740773409605026,
      -0.012427058070898056,
      0.03729280084371567,
      -0.3218657076358795,
      0.09798838198184967,
      -0.2290196418762207,
      -0.07745736837387085,
      -0.08945667743682861,
      0.24251559376716614,
      -0.1348925083875656,
      0.16807283461093903,
      -0.03430269658565521,
      -0.22805112600326538,
      -0.31331634521484375,
      -0.32678335905075073,
      0.3920286297798157,
      -0.02550131268799305,
      0.0009133132989518344,
      0.08608075976371765,
      0.1699770987033844,
      0.21500010788440704
    ],
    "net.2.weight": [
      [
        0.07674730569124222,
        -0.16984602808952332,
        -0.028937682509422302,
        -0.09168697148561478,
        0.0025158256758004427,
        0.055687714368104935,
        0.07645091414451599,
        0.025272011756896973,
        0.11879736185073853,
        -0.215023934841156,
        -0.10256698727607727,
        0.1642621010541916,
        0.011392836458981037,
        0.005979532841593027,
        -0.18234194815158844,
        0.02849315106868744,
        0.12110353261232376,
        -0.0300019308924675,
        0.03912690281867981,
        -0.2018957883119583,
        -0.042443763464689255,
        0.055289678275585175,
        0.1393548995256424,
        -0.03129180893301964,
        0.1759243607521057,
        0.09306561946868896,
        -0.012600242160260677,
        0.11459232866764069,
        -0.061812907457351685,
        -0.20154635608196259,
        -0.22957080602645874,
        0.009371639229357243,
        0.08207358419895172,
        0.14545033872127533,
        0.009608427062630653,
        0.15979059040546417,
        -0.03888259828090668,
        0.17687459290027618,
        -0.011469660326838493,
        -0.048501964658498764,
        0.05349346995353699,
        0.18759413063526154,
        -0.19849705696105957,
        0.05300385132431984,
        0.02540728449821472,
        0.031636811792850494,
        -0.04530581086874008,
        0.03722691163420677,
        -0.14384619891643524,
        0.036060456186532974,
        -0.009195652790367603,
        -0.18619409203529358,
        0.05379524081945419,
        0.17896297574043274,
        0.03715822100639343,
        0.0900750458240509,
        0.2389139086008072,
        -0.12288889288902283,
        0.06911729276180267,
        -0.0042853327468037605,
        -0.04824149236083031,
        0.044296927750110626,
        0.08362682163715363,
        0.07315952330827713,
        0.0032727783545851707,
        -0.05766003578901291,
        -0.0460929311811924,
        -0.05209844931960106,
        -0.04018012806773186,
        0.17577727138996124,
        0.15202666819095612,
        -0.04527126997709274,
        0.1408817023038864,
        0.09751295298337936,
        -0.05497802048921585,
        -0.08496150374412537,
        -0.09420152008533478,
        -0.08418019860982895,
        0.12117280066013336,
        -0.07501083612442017
      ],
      [
        0.08605597913265228,
        -0.09446242451667786,
        0.13801538944244385,
        -0.05903489887714386,
        0.0317077711224556,
        0.07140098512172699,
        0.17174063622951508,
        -0.11515490710735321,
        0.16518428921699524,
        0.010711466893553734,
        -0.02727944403886795,
        -0.06563473492860794,
        0.14333993196487427,
        -0.04654480889439583,
        0.06783637404441833,
        0.007309630047529936,
        -0.1174302026629448,
        0.1416013240814209,
        -0.05014856904745102,
        0.023197639733552933,
        0.08016033470630646,
        0.002055798890069127,
        0.05333995819091797,
        0.0016336289700120687,
        0.05970614776015282,
        0.033515363931655884,
        -0.05044536292552948,
        0.02305091917514801,
        0.05739309638738632,
        -0.0018139808671548963,
        0.080112025141716,
        -0.05999632179737091,
        0.051124457269907,
        -0.07106819748878479,
        -0.21776801347732544,
        0.07811452448368073,
        -0.016174687072634697,
        -0.09828513860702515,
        -0.07957128435373306,
        0.04333408549427986,
        0.035275571048259735,
        0.03251848369836807,
        0.04263242334127426,
        0.08689913153648376,
        0.11522389948368073,
        -0.05658142641186714,
        0.010434908792376518,
        0.11525334417819977,
        0.07201667875051498,
        -0.06464006006717682,
        0.016471488401293755,
        0.07282160967588425,
        -0.13134603202342987,
        -0.11358267068862915,
        0.01243833638727665,
        -0.15336939692497253,
        -0.026927100494503975,
        -0.0736890360713005,
        0.1050305888056755,
        -0.0852251797914505,
        0.098612941801548,
        0.03281179443001747,
        0.04504193365573883,
        0.009054649621248245,
        0.1295979619026184,
        -0.11602386087179184,
        -0.05960528925061226,
        -0.08433092385530472,
        0.06334614753723145,
        -0.0687493234872818,
        0.005735497921705246,
        -0.007022873964160681,
        -0.17454662919044495,
        -0.012221851386129856,
        0.04747464880347252,
        -0.044562965631484985,
        0.0977359190583229,
        0.20973657071590424,
        -0.15225879848003387,
        -0.06298629939556122
      ],
      [
        -0.008991602808237076,
        -0.1551150381565094,
        -0.0316968634724617,
        0.12101846188306808,
        0.09991879761219025,
        0.03712804242968559,
        0.10682256519794464,
        -0.133099764585495,
        0.16433574259281158,
        0.08420352637767792,
        -0.03518390282988548,
        0.07725616544485092,
        0.16049252450466156,
        0.10949632525444031,
        -0.0027826859150081873,
        0.006352960132062435,
        -0.16906887292861938,
        0.04721904546022415,
        -0.005866040475666523,
        -0.0023726134095340967,
        0.06579391658306122,
        0.14865821599960327,
        0.101347416639328,
        0.10825033485889435,
        0.17202302813529968,
        0.03948770463466644,
        -0.15894715487957,
        0.050707269459962845,
        0.015241903252899647,
        -0.1174781545996666,
        0.04664092883467674,
        0.0025206822901964188,
        0.05821598693728447,
        0.0010769772343337536,
        -0.038286879658699036,
        0.09512864053249359,
        -0.12801894545555115,
        -0.13082818686962128,
        0.00897082407027483,
        0.01765868440270424,
        0.11333204060792923,
        -0.14833012223243713,
        -0.07250471413135529,
        0.1113879531621933,
        0.1426364630460739,
        -0.11825733631849289,
        0.0031353181693702936,
        -0.05824606120586395,
        0.15096978843212128,
        -0.05399017035961151,
        0.1182331070303917,
        -0.12283920496702194,
        -0.18909114599227905,
        0.02747841738164425,
        0.06127926707267761,
        0.02015957236289978,
        0.07890203595161438,
        -0.12438754737377167,
        0.10967118293046951,
        -0.07406739890575409,
        0.05785273760557175,
        -0.15530796349048615,
        -0.019559890031814575,
        0.04608487710356712,
        -0.040492765605449677,
        -0.0922132208943367,
        -0.15825165808200836,
        -0.1376868039369583,
        0.12077423930168152,
        -0.12719960510730743,
        -0.05848458781838417,
        -0.03895021229982376,
        -0.15485988557338715,
        -0.10385208576917648,
        0.11820865422487259,
        -0.009952452965080738,
        0.02364227920770645,
        0.05286409705877304,
        -0.031774263828992844,
        -0.05635644122958183
      ],
      [
        -0.057262253016233444,
        -0.03330502286553383,
        0.1476535052061081,
        -0.10965102910995483,
        -0.07909813523292542,
        -0.021859414875507355,
        0.11001764982938766,
        -0.06887225061655045,
        0.21225309371948242,
        0.03415621444582939,
        0.05620335042476654,
        0.032459989190101624,
        0.2812090814113617,
        0.08913937211036682,
        -0.04488358274102211,
        -0.03788981959223747,
        0.0009485302143730223,
        0.15685687959194183,
        -0.14607349038124084,
        0.010439080186188221,
        -0.040059104561805725,
        -0.06897182017564774,
        0.00955485925078392,
        -0.04138857126235962,
        0.16949349641799927,
        -0.015103582292795181,
        -0.18463437259197235,
        0.15134796500205994,
        -0.03070765733718872,
        -0.07973510026931763,
        -0.025321973487734795,
        0.06244044005870819,
        0.05380529910326004,
        -0.03900451585650444,
        -0.06256385147571564,
        0.08322718739509583,
        0.001817773561924696,
        -0.063551165163517,
        -0.02147621288895607,
        -0.05075806379318237,
        0.055171094834804535,
        -0.10068850219249725,
        -0.0005838566576130688,
        -0.06108061596751213,
        0.057511426508426666,
        0.09165789186954498,
        -0.10864369571208954,
        -0.07479721307754517,
        0.03835463896393776,
        -0.09585244208574295,
        -0.002819550922140479,
        0.0018567783990874887,
        -0.021066589280962944,
        -0.08244246244430542,
        -0.04529803618788719,
        0.06052862107753754,
        0.11654549092054367,
        -0.039855338633060455,
        -0.052979476749897,
        0.0867234393954277,
        0.09109605103731155,
        -0.1672677844762802,
        -0.0479438342154026,
        0.08246288448572159,
        -0.029131026938557625,
        -0.18825410306453705,
        -0.11285705119371414,
        0.04021357372403145,
        0.06113313138484955,
        0.034273646771907806,
        0.17524966597557068,
        -0.015929970890283585,
        -0.07145237922668457,
        -0.02410043217241764,
        0.04357859492301941,
        -0.05717260017991066,
        -0.10002544522285461,
        0.1131545901298523,
        -0.1591029018163681,
        0.009432438760995865
      ]
    ],
    "net.2.bias": [
      -0.07428210973739624,
      0.10348884016275406,
      -0.009164520539343357,
      -0.03966917097568512
    ]
  },
  "F2": {
    "n_in": 4,
    "n_hid": 60,
    "n_out": 4,
    "activation": "tanh",
    "net.0.weight": [
      [
        -0.48340904712677,
        -0.1636144071817398,
        -0.38958707451820374,
        -0.338842511177063
      ],
      [
        0.13312126696109772,
        -0.3781641721725464,
        -0.3567063510417938,
        0.3522505462169647
      ],
      [
        0.05659409239888191,
        0.5119600892066956,
        -0.07117439061403275,
        -0.20657823979854584
      ],
      [
        0.026023350656032562,
        0.03988401219248772,
        0.39631253480911255,
        -0.5783704519271851
      ],
      [
        -0.02676810882985592,
        0.16069158911705017,
        -0.3344770073890686,
        -0.2714024782180786
      ],
      [
        0.23960766196250916,
        -0.5097423195838928,
        0.0934373214840889,
        -0.3791784644126892
      ],
      [
        0.30431073904037476,
        -0.5084511637687683,
        0.223466694355011,
        -0.5252475142478943
      ],
      [
        -0.4784032106399536,
        0.03537474200129509,
        0.4374449551105499,
        -0.3701464533805847
      ],
      [
        -0.26404544711112976,
        0.455040842294693,
        -0.05894280970096588,
        0.24706298112869263
      ],
      [
        -0.4439280331134796,
        -0.21325106918811798,
        -0.3125958740711212,
        0.38833126425743103
      ],
      [
        0.2389533966779709,
        -0.3957260251045227,
        0.04191649705171585,
        -0.0427854098379612
      ],
      [
        -0.27104464173316956,
        -0.3292842209339142,
        -0.18518491089344025,
        0.4667086601257324
      ],
      [
        -0.3087104260921478,
        -0.38876157999038696,
        -0.19498637318611145,
        -0.04062137380242348
      ],
      [
        0.18098339438438416,
        -0.010931313037872314,
        -0.1572747677564621,
        -0.34631672501564026
      ],
      [
        -0.07208824902772903,
        -0.23858106136322021,
        0.3649805188179016,
        -0.5168210864067078
      ],
      [
        -0.3288875222206116,
        -0.32336148619651794,
        -0.028109854087233543,
        0.40731343626976013
      ],
      [
        0.3160586655139923,
        -0.4666534662246704,
        -0.026005595922470093,
        0.4248304069042206
      ],
      [
        0.25555962324142456,
        0.40097591280937195,
        -0.03447416052222252,
        -0.3804616928100586
      ],
      [
        0.3527592122554779,
        -0.19173996150493622,
        0.2343309074640274,
        -0.15474697947502136
      ],
      [
        0.2615519165992737,
        0.4324074983596802,
        0.4393445551395416,
        -0.5060270428657532
      ],
      [
        -0.36382848024368286,
        -0.2921276390552521,
        -0.3969649076461792,
        0.5282460451126099
      ],
      [
        0.032370928674936295,
        -0.33532586693763733,
        -0.2388882040977478,
        -0.35881516337394714
      ],
      [
        0.255340576171875,
        -0.4826246201992035,
        -0.5184919238090515,
        -0.5429772734642029
      ],
      [
        0.26537981629371643,
        0.23249822854995728,
        -0.3332536220550537,
        0.0702878013253212
      ],
      [
        0.4222751557826996,
        0.05959684029221535,
        -0.13063034415245056,
        -0.019349388778209686
      ],
      [
        -0.12211257964372635,
        0.1383918821811676,
        -0.43773502111434937,
        0.3312321603298187
      ],
      [
        0.26183053851127625,
        -0.2203184813261032,
        0.4810115694999695,
        0.5060187578201294
      ],
      [
        -0.15371325612068176,
        -0.009439921006560326,
        0.3626640737056732,
        -0.4358701705932617
      ],
      [
        0.18741977214813232,
        0.18085193634033203,
        0.38030198216438293,
        -0.42035582661628723
      ],
      [
        -0.3574562966823578,
        0.19995059072971344,
        0.14002257585525513,
        -0.5236894488334656
      ],
      [
        -0.23650668561458588,
        -0.44061020016670227,
        -0.35551804304122925,
        -0.2749364376068115
      ],
      [
        0.45232507586479187,
        -0.13273727893829346,
        0.2445812225341797,
        0.4339558184146881
      ],
      [
        0.2517475485801697,
        -0.5000780820846558,
        0.20179924368858337,
        0.1690646857023239
      ],
      [
        0.43800392746925354,
        -0.5156815052032471,
        0.27752387523651123,
        0.3559891879558563
      ],
      [
        -0.44121599197387695,
        0.018841221928596497,
        0.3974109888076782,
        -0.39185675978660583
      ],
      [
        0.1428251564502716,
        0.2571134567260742,
        0.1683514267206192,
        0.5279351472854614
      ],
      [
        0.3906644880771637,
        0.3996390998363495,
        -0.07969339191913605,
        0.43986135721206665
      ],
      [
        -0.5324380397796631,
        -0.2699648439884186,
        -0.09555774927139282,
        -0.07522118836641312
      ],
      [
        0.5069974064826965,
        0.2188807725906372,
        0.29260969161987305,
        0.29009774327278137
      ],
      [
        -0.358913779258728,
        -0.13725417852401733,
        -0.011001061648130417,
        0.11287539452314377
      ],
      [
        0.19558185338974,
        -0.22071732580661774,
        -0.1526239812374115,
        0.49350035190582275
      ],
      [
        -0.21203944087028503,
        -0.41008931398391724,
        0.3190476894378662,
        0.3920685052871704
      ],
      [
        -0.08143328130245209,
        -0.09771377593278885,
        -0.3911181390285492,
        -0.49408772587776184
      ],
      [
        0.16251499950885773,
        -0.1311223804950714,
        0.48444706201553345,
        -0.3758419454097748
      ],
      [
        -0.12128891050815582,
        0.06479319930076599,
        0.3182419538497925,
        0.4549381732940674
      ],
      [
        0.3809049427509308,
        0.18240571022033691,
        -0.27688726782798767,
        -0.405598908662796
      ],
      [
        -0.5020172595977783,
        0.0466916523873806,
        0.5228051543235779,
        -0.040180504322052
      ],
      [
        -0.060238055884838104,
        -0.3474287688732147,
        0.17829863727092743,
        0.36170393228530884
      ],
      [
        -0.5517764687538147,
        -0.27919790148735046,
        0.4491956830024719,
        0.17508582770824432
      ],
      [
        -0.05274353176355362,
        0.1409085988998413,
        -0.02717965841293335,
        -0.3314664959907532
      ],
      [
        -0.5062034726142883,
        0.2660394012928009,
        -0.10487562417984009,
        -0.13579727709293365
      ],
      [
        -0.08469561487436295,
        -0.31754955649375916,
        -0.19832944869995117,
        -0.4712998569011688
      ],
      [
        0.41375893354415894,
        0.1808212697505951,
        -0.28473934531211853,
        -0.20814929902553558
      ],
      [
        0.22411584854125977,
        -0.26640424132347107,
        0.05185527727007866,
        0.13383258879184723
      ],
      [
        -0.34618449211120605,
        0.14334703981876373,
        0.05723629891872406,
        0.46818944811820984
      ],
      [
        -0.16687868535518646,
        -0.04599692299962044,
        0.49472078680992126,
        -0.41633203625679016
      ],
      [
        -0.007046420127153397,
        0.5281953811645508,
        -0.17406584322452545,
        0.5204862952232361
      ],
      [
        0.41706666350364685,
        0.5022711753845215,
        -0.00952950119972229,
        0.47618669271469116
      ],
      [
        -0.271721750497818,
        -0.1598755270242691,
        0.21753659844398499,
        0.15942971408367157
      ],
      [
        0.248617485165596,
        0.4296438694000244,
        -0.3435766100883484,
        0.2964881956577301
      ]
    ],
    "net.0.bias": [
      0.1727946549654007,
      0.275095134973526,
      0.20462869107723236,
      -0.19663341343402863,
      -0.37354761362075806,
      0.36821797490119934,
      -0.2928527593612671,
      0.2847343385219574,
      -0.4577103853225708,
      -0.10171745717525482,
      0.026021363213658333,
      0.06584519892930984,
      0.023556996136903763,
      0.17779342830181122,
      -0.03312994912266731,
      0.11072327941656113,
      0.5017996430397034,
      -0.30291953682899475,
      -0.005570101086050272,
      -0.2065044790506363,
      0.4190433621406555,
      0.4101468324661255,
      -0.0404081717133522,
      -0.1900501400232315,
      -0.32590052485466003,
      0.33934110403060913,
      -0.014832990244030952,
      0.4787822663784027,
      0.261114239692688,
      0.45696982741355896,
      0.4159531593322754,
      -0.30211758613586426,
      0.1272997409105301,
      -0.22505001723766327,
      0.23096182942390442,
      -0.06414292752742767,
      0.023626476526260376,
      -0.325764536857605,
      -0.4257318675518036,
      0.20852075517177582,
      0.09690751880407333,
      0.042277853935956955,
      0.36053040623664856,
      -0.23082606494426727,
      0.19425716996192932,
      -0.2537917494773865,
      0.08170659840106964,
      -0.13650766015052795,
      0.36792290210723877,
      0.4540499448776245,
      0.4124067723751068,
      0.002262741094455123,
      0.2881341874599457,
      -0.47766393423080444,
      -0.3107698857784271,
      0.06124052032828331,
      0.022119762375950813,
      -0.375405490398407,
      -0.24290910363197327,
      -0.2518981397151947
    ],
    "net.2.weight": [
      [
        -0.18309618532657623,
        -0.04861252009868622,
        0.12615568935871124,
        0.1467708796262741,
        -0.04311006888747215,
        -0.14004461467266083,
        -0.1324317753314972,
        0.046788014471530914,
        0.11183222383260727,
        -0.0617200993001461,
        -0.11485327780246735,
        -0.11558950692415237,
        -0.09142317622900009,
        -0.14794383943080902,
        -0.0878729298710823,
        0.09322025626897812,
        -0.10843583196401596,
        0.0495305173099041,
        -0.053709276020526886,
        -0.003858729964122176,
        -0.10771404951810837,
        0.011636446230113506,
        -0.11068075895309448,
        -0.01767028123140335,
        -0.003853590926155448,
        -0.19384907186031342,
        0.12911240756511688,
        0.09338551759719849,
        0.10913706570863724,
        -0.026485320180654526,
        0.02545693889260292,
        -0.07999838888645172,
        -0.07863977551460266,
        -0.05473800376057625,
        0.0015696847112849355,
        0.09362505376338959,
        -0.005598936229944229,
        -0.017341718077659607,
        0.018719037994742393,
        -0.11837566643953323,
        -0.11131341755390167,
        -0.08687400817871094,
        0.04827258735895157,
        0.11630123108625412,
        0.15894678235054016,
        -0.061460379511117935,
        0.05688768997788429,
        0.02314293384552002,
        0.1498926430940628,
        0.09514158964157104,
        -0.05496574938297272,
        -0.15444624423980713,
        -0.1355796456336975,
        -0.03780943155288696,
        0.1262274533510208,
        0.12222617864608765,
        0.16099640727043152,
        0.13597972691059113,
        0.024001993238925934,
        -0.03838102146983147
      ],
      [
        0.1156274750828743,
        0.08647481352090836,
        -0.020640095695853233,
        -0.13598883152008057,
        0.08390183746814728,
        -0.025597138330340385,
        0.04859936609864235,
        0.07148920744657516,
        0.10116659849882126,
        -0.033765267580747604,
        -0.10493595153093338,
        0.16212302446365356,
        0.00424216827377677,
        -0.15692324936389923,
        0.05863293632864952,
        0.06955265998840332,
        0.08114653825759888,
        -0.1538769006729126,
        -0.010966991074383259,
        -0.1021498367190361,
        -0.006289336830377579,
        -0.05395016446709633,
        -0.08848672360181808,
        0.0412890687584877,
        -0.05531398952007294,
        0.11263729631900787,
        0.07682504504919052,
        -0.05078932270407677,
        -0.14976423978805542,
        -0.1358848661184311,
        -0.05221576243638992,
        -0.09796726703643799,
        -0.04716385155916214,
        0.004870165139436722,
        0.013018797151744366,
        -0.024954767897725105,
        0.08996273577213287,
        0.12699978053569794,
        -0.022469960153102875,
        -0.006449508480727673,
        0.08306261897087097,
        0.16692964732646942,
        -0.14833423495292664,
        -0.08390533924102783,
        0.02675451897084713,
        -0.08962560445070267,
        0.14949999749660492,
        0.04216698929667473,
        0.14984308183193207,
        -0.03697449713945389,
        0.003187627764418721,
        -0.1115841343998909,
        -0.08755827695131302,
        0.0524144247174263,
        0.10163963586091995,
        -0.01851067692041397,
        0.15988178551197052,
        -0.07239420711994171,
        0.09276563674211502,
        0.111629419028759
      ],
      [
        -0.021686961874365807,
        0.09807676821947098,
        -0.036468490958213806,
        -0.14555171132087708,
        -0.07783608138561249,
        0.021749669685959816,
        -0.08559558540582657,
        0.034281592816114426,
        0.14800520241260529,
        0.11346656084060669,
        -0.04419894516468048,
        0.11929918825626373,
        -0.035354241728782654,
        -0.14200438559055328,
        -0.1621977835893631,
        -0.03562546893954277,
        0.017442455515265465,
        -0.010975890792906284,
        -0.1163153350353241,
        -0.17890949547290802,
        0.10255038738250732,
        -0.09040385484695435,
        -0.06441972404718399,
        -0.12504403293132782,
        -0.09217704087495804,
        0.06625007838010788,
        -0.08463184535503387,
        -0.08777773380279541,
        0.051630742847919464,
        -0.07610116899013519,
        -0.06008901447057724,
        -0.027771292254328728,
        0.04443744570016861,
        -0.07722149789333344,
        0.021601039916276932,
        0.0840376690030098,
        -0.006105458829551935,
        0.051599424332380295,
        -0.09834058582782745,
        0.09781239181756973,
        0.06574616581201553,
        0.04072350636124611,
        -0.1268935650587082,
        0.005261675920337439,
        0.1160190999507904,
        -0.058786388486623764,
        0.0961737185716629,
        0.09311767667531967,
        -0.02367146871984005,
        -0.027709003537893295,
        0.13643556833267212,
        -0.029177190735936165,
        -0.13431806862354279,
        -0.005111448001116514,
        0.09793997555971146,
        -0.07291438430547714,
        -0.03200113773345947,
        0.11321726441383362,
        0.09749172627925873,
        -0.02321905829012394
      ],
      [
        -0.01617417111992836,
        -0.036453571170568466,
        0.012115285731852055,
        0.027287190780043602,
        -0.058775629848241806,
        0.003697961336001754,
        0.022663841024041176,
        -0.009570623748004436,
        -0.029064178466796875,
        0.04438125342130661,
        -0.15003398060798645,
        0.010873244144022465,
        0.03199462220072746,
        -0.03402765467762947,
        -0.07297293096780777,
        -0.023751767352223396,
        -0.020397890359163284,
        -0.09059525281190872,
        -0.06463619321584702,
        0.14445242285728455,
        0.07512659579515457,
        0.05077635869383812,
        0.0919371172785759,
        0.06804648786783218,
        0.09186951816082001,
        0.06458893418312073,
        -0.0029194236267358065,
        -0.03506463021039963,
        0.0748843178153038,
        -0.018552634865045547,
        -0.10530336946249008,
        -0.08015613257884979,
        0.050396133214235306,
        0.1253325641155243,
        0.08261989057064056,
        0.04669975861907005,
        0.07332063466310501,
        -0.09988279640674591,
        -0.07225435227155685,
        -0.144182026386261,
        0.07928933203220367,
        -0.021413933485746384,
        -0.08007340133190155,
        0.06535856425762177,
        -0.0662413239479065,
        -0.06336314976215363,
        0.035691067576408386,
        0.04105657711625099,
        -0.11145135760307312,
        -0.10416252911090851,
        0.04130937159061432,
        0.06115376576781273,
        -0.009235036559402943,
        -0.045453935861587524,
        0.08184266835451126,
        0.009769247844815254,
        -0.12487410753965378,
        -0.0630827471613884,
        0.04787668585777283,
        0.09895576536655426
      ]
    ],
    "net.2.bias": [
      -0.07630901038646698,
      0.0440845713019371,
      -0.08654680103063583,
      0.1039288267493248
    ]
  }
}