{
  "name": "PV3",
  "type": "F1+H1+F2",
  "t_step": 0.002,
  "normfacs": {
    "T": {
      "scale": 20.003402709960938,
      "offset": 25.000959396362305
    },
    "G": {
      "scale": 999.9949951171875,
      "offset": 384.7131042480469
    },
    "Fc": {
      "scale": 9.999828338623047,
      "offset": 60.00187683105469
    },
    "Md": {
      "scale": 0.40000206232070923,
      "offset": 1.0012720823287964
    },
    "Mq": {
      "scale": 1.0,
      "offset": 0.0010284801246598363
    },
    "Vrms": {
      "scale": 566.448974609375,
      "offset": 338.45794677734375
    },
    "GVrms": {
      "scale": 566.4461059570312,
      "offset": 178.87728881835938
    },
    "Ctl": {
      "scale": 1.0,
      "offset": 0.5992000102996826
    },
    "Vdc": {
      "scale": 439.7894592285156,
      "offset": 275.1376953125
    },
    "Idc": {
      "scale": 292.8359680175781,
      "offset": 100.0894546508789
    },
    "Id": {
      "scale": 195.2642364501953,
      "offset": 65.44300079345703
    },
    "Iq": {
      "scale": 153.54869079589844,
      "offset": -1.357047200202942
    }
  },
  "lr": 0.001,
  "num_iter": 500,
  "print_freq": 10,
  "batch_size": 1500,
  "n_skip": 1,
  "n_trunc": 0,
  "n_dec": 1,
  "n_loss_skip": 200,
  "n_pad": 500,
  "gtype": "stable2nd",
  "na": 2,
  "nb": 2,
  "nk": 0,
  "activation": "tanh",
  "nh1": 80,
  "nh2": 60,
  "COL_T": [
    "t"
  ],
  "COL_Y": [
    "Vdc",
    "Idc",
    "Id",
    "Iq"
  ],
  "COL_U": [
    "T",
    "G",
    "Fc",
    "Md",
    "Mq",
    "Vrms",
    "GVrms",
    "Ctl"
  ],
  "H1": {
    "n_in": 4,
    "n_out": 4,
    "n_b": 2,
    "n_a": 2,
    "n_k": 0,
    "b_0_0": [
      0.061550773680210114,
      0.06755589693784714
    ],
    "rho_0_0": 0.002355013508349657,
    "psi_0_0": -0.08966904133558273,
    "b_0_1": [
      -0.058721840381622314,
      -0.06604895740747452
    ],
    "rho_0_1": 0.03395134210586548,
    "psi_0_1": 0.1040826216340065,
    "b_0_2": [
      -0.08401652425527573,
      -0.06652209162712097
    ],
    "rho_0_2": 0.10863636434078217,
    "psi_0_2": -0.1861855685710907,
    "b_0_3": [
      0.04600890725851059,
      0.05698247253894806
    ],
    "rho_0_3": -0.19077163934707642,
    "psi_0_3": -0.3069917857646942,
    "b_1_0": [
      0.05352645739912987,
      0.047359395772218704
    ],
    "rho_1_0": 0.0036157299764454365,
    "psi_1_0": -0.013229132629930973,
    "b_1_1": [
      -0.03311779722571373,
      -0.008237392641603947
    ],
    "rho_1_1": -0.04626253619790077,
    "psi_1_1": 0.04304220899939537,
    "b_1_2": [
      0.1441405862569809,
      0.1458946019411087
    ],
    "rho_1_2": -0.09639562666416168,
    "psi_1_2": -0.08685888350009918,
    "b_1_3": [
      -0.08377257734537125,
      -0.10690545290708542
    ],
    "rho_1_3": -0.15009312331676483,
    "psi_1_3": -0.0915093719959259,
    "b_2_0": [
      0.05709332972764969,
      0.0499483123421669
    ],
    "rho_2_0": -0.17889299988746643,
    "psi_2_0": -0.09700912982225418,
    "b_2_1": [
      -0.055172450840473175,
      -0.054783690720796585
    ],
    "rho_2_1": -0.13642895221710205,
    "psi_2_1": -0.2079954743385315,
    "b_2_2": [
      -0.04982439801096916,
      -0.05615740641951561
    ],
    "rho_2_2": 0.030879564583301544,
    "psi_2_2": -0.14863824844360352,
    "b_2_3": [
      0.05751877650618553,
      0.057868316769599915
    ],
    "rho_2_3": -0.0009400008129887283,
    "psi_2_3": 0.040404628962278366,
    "b_3_0": [
      0.10612620413303375,
      0.11366541683673859
    ],
    "rho_3_0": -0.12876580655574799,
    "psi_3_0": -0.20613957941532135,
    "b_3_1": [
      -0.09405022114515305,
      -0.09543900191783905
    ],
    "rho_3_1": -0.2715832591056824,
    "psi_3_1": -0.04424528777599335,
    "b_3_2": [
      -0.006313463672995567,
      -0.019009243696928024
    ],
    "rho_3_2": -0.055910371243953705,
    "psi_3_2": -0.01528636459261179,
    "b_3_3": [
      0.02491658739745617,
      0.022184113040566444
    ],
    "rho_3_3": 0.058929573744535446,
    "psi_3_3": -0.012119737453758717
  },
  "F1": {
    "n_in": 8,
    "n_hid": 80,
    "n_out": 4,
    "activation": "tanh",
    "net.0.weight": [
      [
        0.05442130193114281,
        0.21270249783992767,
        -0.28934308886528015,
        -0.3408461809158325,
        -0.07679090648889542,
        0.1799735426902771,
        -0.008070494048297405,
        0.24330803751945496
      ],
      [
        -0.05913345515727997,
        0.05081670358777046,
        -0.11835800111293793,
        0.06699857115745544,
        -0.37693554162979126,
        -0.3776314854621887,
        -0.16963061690330505,
        0.019401248544454575
      ],
      [
        0.14588356018066406,
        0.3338865339756012,
        -0.3008306920528412,
        0.005647431127727032,
        0.06847599893808365,
        0.19166044890880585,
        -0.07352541387081146,
        0.21698279678821564
      ],
      [
        -0.013026868924498558,
        0.0947004109621048,
        0.2626640200614929,
        -0.414429634809494,
        -0.2543613910675049,
        0.02766910195350647,
        -0.10092426091432571,
        0.319633811712265
      ],
      [
        -0.19661679863929749,
        -0.10720714181661606,
        -0.24174070358276367,
        -0.38765862584114075,
        -0.22531752288341522,
        0.4039233922958374,
        0.18419288098812103,
        0.1692085862159729
      ],
      [
        0.03912625089287758,
        -0.12264346331357956,
        0.02614031359553337,
        -0.35310545563697815,
        -0.21605494618415833,
        -0.11360366642475128,
        0.2811207175254822,
        0.23741470277309418
      ],
      [
        -0.12255760282278061,
        0.048146702349185944,
        0.36460307240486145,
        0.36943936347961426,
        0.1259535849094391,
        0.08911284804344177,
        0.15785981714725494,
        -0.29873794317245483
      ],
      [
        0.03991452604532242,
        -0.34457817673683167,
        -0.31920817494392395,
        -0.19083280861377716,
        0.16448263823986053,
        0.04540153592824936,
        -0.2041207104921341,
        0.10657982528209686
      ],
      [
        0.14565519988536835,
        -0.16457368433475494,
        0.07159942388534546,
        0.21339040994644165,
        0.1737055778503418,
        0.3232247531414032,
        -0.32362687587738037,
        -0.18279901146888733
      ],
      [
        0.027985669672489166,
        0.5078166723251343,
        0.26510047912597656,
        0.5320864319801331,
        -0.023698605597019196,
        -0.3931466042995453,
        0.0361490435898304,
        -0.19546806812286377
      ],
      [
        -0.3594345450401306,
        0.2936377227306366,
        0.2940328121185303,
        -0.25805261731147766,
        0.047496240586042404,
        -0.19824093580245972,
        -0.10485170036554337,
        -0.15977615118026733
      ],
      [
        0.10321775078773499,
        -0.32996708154678345,
        0.15803322196006775,
        0.26612114906311035,
        0.2318839132785797,
        0.1440216600894928,
        -0.3801960349082947,
        -0.23117724061012268
      ],
      [
        0.006611710414290428,
        0.18990138173103333,
        -0.09616881608963013,
        -0.16055241227149963,
        0.5228425860404968,
        0.4076630771160126,
        -0.19586648046970367,
        -0.14587756991386414
      ],
      [
        -0.2448815405368805,
        -0.19011378288269043,
        -0.16111904382705688,
        -0.5383720993995667,
        0.015765823423862457,
        0.11298304051160812,
        -0.1812605857849121,
        0.19875888526439667
      ],
      [
        -0.16607949137687683,
        0.4208601713180542,
        0.2092728614807129,
        -0.05340973287820816,
        -0.10360841453075409,
        0.04092390090227127,
        0.07740508019924164,
        0.0850132629275322
      ],
      [
        0.11946413666009903,
        -0.056892089545726776,
        -0.11068881303071976,
        0.08917415142059326,
        -0.3646984398365021,
        -0.252474308013916,
        -0.10385747998952866,
        -0.15506426990032196
      ],
      [
        -0.11695303022861481,
        -0.3573502004146576,
        -0.0854378491640091,
        0.15020233392715454,
        -0.22078922390937805,
        -0.13103368878364563,
        0.23152293264865875,
        -0.043998222798109055
      ],
      [
        -0.015095152892172337,
        0.0760936290025711,
        0.01337764598429203,
        0.34423235058784485,
        0.31676527857780457,
        0.27269911766052246,
        0.35888296365737915,
        -0.020701557397842407
      ],
      [
        -0.3574998080730438,
        -0.25806155800819397,
        0.3001745939254761,
        -0.06389670819044113,
        -0.130959153175354,
        -0.1636735498905182,
        -0.28844770789146423,
        -0.23159174621105194
      ],
      [
        -0.05135812982916832,
        0.40433430671691895,
        0.11446866393089294,
        -0.1345686912536621,
        0.030748620629310608,
        -0.45863422751426697,
        -0.002180523471906781,
        -0.05390210077166557
      ],
      [
        -0.052276842296123505,
        -0.002624975750222802,
        -0.36621662974357605,
        -0.27170106768608093,
        -0.07426877319812775,
        0.08522607386112213,
        -0.11890096962451935,
        0.14245368540287018
      ],
      [
        -0.26185712218284607,
        0.0007930167485028505,
        0.320561945438385,
        -0.2915244400501251,
        0.33975687623023987,
        0.2785005569458008,
        -0.29186004400253296,
        0.2220800817012787
      ],
      [
        0.032248519361019135,
        -0.11428294330835342,
        0.23313477635383606,
        -0.37937578558921814,
        0.04890397936105728,
        0.05491500347852707,
        0.29438918828964233,
        0.1119525209069252
      ],
      [
        0.22874769568443298,
        0.17391309142112732,
        -0.0674864798784256,
        -0.1988154947757721,
        -0.32532423734664917,
        0.2953885495662689,
        0.29615217447280884,
        0.23777608573436737
      ],
      [
        -0.08592632412910461,
        -0.08276629447937012,
        -0.14130069315433502,
        -0.421668142080307,
        -0.27402177453041077,
        0.3758234977722168,
        -0.2248496264219284,
        -0.04002905637025833
      ],
      [
        0.10102266073226929,
        0.2185777872800827,
        -0.16852889955043793,
        -0.32942816615104675,
        -0.2541552484035492,
        0.4088524580001831,
        -0.13908259570598602,
        0.26178357005119324
      ],
      [
        0.07217268645763397,
        -0.027001703158020973,
        -0.004248239099979401,
        -0.12842585146427155,
        0.07590602338314056,
        -0.17892758548259735,
        -0.021216580644249916,
        0.054069340229034424
      ],
      [
        -0.19514405727386475,
        -0.14086028933525085,
        0.16912779211997986,
        -0.2331441193819046,
        -8.695638825884089e-05,
        0.46233707666397095,
        0.13761498034000397,
        -0.037615325301885605
      ],
      [
        -0.2718457579612732,
        0.25320965051651,
        -0.23886553943157196,
        -0.05787333473563194,
        -0.12615664303302765,
        0.017026450484991074,
        0.03580063208937645,
        0.29932519793510437
      ],
      [
        -0.017394740134477615,
        0.36185622215270996,
        0.24760104715824127,
        -0.07057060301303864,
        0.0649576410651207,
        -0.4703231751918793,
        -0.16975441575050354,
        0.15690846741199493
      ],
      [
        0.09531461447477341,
        0.4217411279678345,
        -0.1943504959344864,
        0.37465837597846985,
        0.16584759950637817,
        -0.31789177656173706,
        0.2974115312099457,
        -0.27322036027908325
      ],
      [
        -0.05626074969768524,
        -0.13973094522953033,
        -0.1322886198759079,
        0.08920042216777802,
        0.30957046151161194,
        -0.1904071420431137,
        -0.24045640230178833,
        -0.1331895887851715
      ],
      [
        -0.34963712096214294,
        0.1274873912334442,
        -0.15821851789951324,
        -0.3704538643360138,
        -0.16241466999053955,
        0.31772279739379883,
        0.14602288603782654,
        0.22125977277755737
      ],
      [
        0.10128732770681381,
        -0.22233770787715912,
        -0.05248669534921646,
        -0.08071224391460419,
        0.30720487236976624,
        0.09288477152585983,
        -0.19825083017349243,
        -0.1794072389602661
      ],
      [
        -0.2789701223373413,
        -0.04593262821435928,
        -0.17328576743602753,
        -0.5102201104164124,
        0.29260218143463135,
        -0.24673870205879211,
        -0.06982216238975525,
        0.15660028159618378
      ],
      [
        0.036412082612514496,
        -0.23746134340763092,
        -0.17316584289073944,
        0.07734252512454987,
        0.11567681282758713,
        0.4651021957397461,
        -0.07101881504058838,
        0.0767703428864479
      ],
      [
        -0.13494479656219482,
        -0.0601709745824337,
        -0.1768818348646164,
        0.2514985501766205,
        0.13588550686836243,
        -0.14738832414150238,
        -0.1097046509385109,
        -0.2254164069890976
      ],
      [
        0.18981532752513885,
        -0.3552865982055664,
        0.13474321365356445,
        -0.20892620086669922,
        -0.14439809322357178,
        0.002816288499161601,
        -0.20489612221717834,
        0.06917508691549301
      ],
      [
        0.05124081298708916,
        -0.3209197223186493,
        0.09776917845010757,
        -0.14183425903320312,
        0.08023962378501892,
        -0.01442096196115017,
        -0.24615971744060516,
        -0.0009021987789310515
      ],
      [
        0.18109069764614105,
        -0.040883198380470276,
        0.12207899987697601,
        0.35876044631004333,
        -0.20094488561153412,
        0.06216512620449066,
        0.18927060067653656,
        0.03988621383905411
      ],
      [
        0.05884486436843872,
        0.11517320573329926,
        -0.1581246256828308,
        -0.1277647465467453,
        0.36691296100616455,
        0.46967071294784546,
        0.23647993803024292,
        0.055887266993522644
      ],
      [
        0.1751599758863449,
        -0.28130286931991577,
        -0.2098396271467209,
        -0.3130255937576294,
        0.34951141476631165,
        0.16839392483234406,
        -0.24247491359710693,
        0.10081160813570023
      ],
      [
        0.18208879232406616,
        0.46931421756744385,
        0.20204254984855652,
        0.5088114142417908,
        -0.10218198597431183,
        -0.19633439183235168,
        0.29570668935775757,
        0.17668604850769043
      ],
      [
        -0.1530683934688568,
        0.35921576619148254,
        0.12919746339321136,
        0.06388053297996521,
        -0.26083290576934814,
        0.23767337203025818,
        -0.10462527722120285,
        0.2775450348854065
      ],
      [
        0.010827126912772655,
        0.20164567232131958,
        0.050519172102212906,
        0.07840462774038315,
        -0.16914834082126617,
        0.30307063460350037,
        -0.2187458574771881,
        0.08223211765289307
      ],
      [
        -0.32363730669021606,
        -0.3794507086277008,
        -0.3491284251213074,
        0.44283318519592285,
        0.16936932504177094,
        0.20015016198158264,
        0.25941476225852966,
        -0.3410901427268982
      ],
      [
        -0.2985728979110718,
        -0.005385782103985548,
        -0.30403363704681396,
        0.23524783551692963,
        -0.2927670478820801,
        -0.10675757378339767,
        -0.284978985786438,
        -0.1299905776977539
      ],
      [
        0.30298471450805664,
        0.3288010358810425,
        0.20770150423049927,
        0.32955074310302734,
        0.40118634700775146,
        -0.08309124410152435,
        0.14023563265800476,
        0.2786417603492737
      ],
      [
        0.07312741875648499,
        0.4341801404953003,
        0.12101887166500092,
        0.08266062289476395,
        -0.1518857628107071,
        0.2679142951965332,
        0.060466524213552475,
        -0.06980035454034805
      ],
      [
        -0.07418352365493774,
        -0.23904035985469818,
        -0.3263414204120636,
        -0.03476319462060928,
        0.17113211750984192,
        0.011797796003520489,
        -0.10442150384187698,
        0.365608274936676
      ],
      [
        0.28161314129829407,
        0.08608223497867584,
        -0.1280297189950943,
        0.18927763402462006,
        0.14940820634365082,
        -0.15192106366157532,
        0.37272751331329346,
        0.29261064529418945
      ],
      [
        -0.13847874104976654,
        0.2599758505821228,
        -0.18404348194599152,
        0.16028089821338654,
        0.4089541733264923,
        -0.18803881108760834,
        -0.26294106245040894,
        -0.12274584174156189
      ],
      [
        -0.10437361896038055,
        -0.1415952742099762,
        0.03781161457300186,
        0.29873913526535034,
        0.036390867084264755,
        -0.32018449902534485,
        -0.0038624729495495558,
        0.1757173389196396
      ],
      [
        0.05077831447124481,
        -0.50086909532547,
        0.021007608622312546,
        -0.5957418084144592,
        -0.21497808396816254,
        0.2942061126232147,
        -0.23737896978855133,
        0.19606833159923553
      ],
      [
        0.3867954909801483,
        -0.01498226635158062,
        -0.20822057127952576,
        -0.3486897945404053,
        0.01596139371395111,
        -0.16498403251171112,
        0.17929528653621674,
        -0.24580171704292297
      ],
      [
        -0.2217717170715332,
        -0.5001136064529419,
        -0.006353859324008226,
        0.5068865418434143,
        -0.26319676637649536,
        0.2942962050437927,
        -0.15698741376399994,
        0.08048093318939209
      ],
      [
        0.0061907037161290646,
        -0.4698556959629059,
        0.30666330456733704,
        -0.20800286531448364,
        0.3740730881690979,
        0.15454316139221191,
        -0.27065813541412354,
        0.281167209148407
      ],
      [
        -0.043389927595853806,
        0.12068581581115723,
        -0.19569671154022217,
        0.029270999133586884,
        -0.4784897565841675,
        -0.28015953302383423,
        0.029999997466802597,
        -0.2805614471435547
      ],
      [
        0.18723219633102417,
        0.24520348012447357,
        0.04502175375819206,
        -0.3446958661079407,
        -0.32143890857696533,
        0.022515328601002693,
        0.18752838671207428,
        0.36177384853363037
      ],
      [
        0.20759917795658112,
        -0.1424361616373062,
        0.12089512497186661,
        -0.30648669600486755,
        -0.28450798988342285,
        0.0558057576417923,
        -0.21088100969791412,
        0.14772076904773712
      ],
      [
        -0.24098703265190125,
        -0.0943295955657959,
        -0.29507458209991455,
        0.34763824939727783,
        -0.05944471061229706,
        0.3065659999847412,
        0.24863550066947937,
        0.19780349731445312
      ],
      [
        -0.043199021369218826,
        0.06485063582658768,
        -0.1410459280014038,
        0.22652967274188995,
        0.10836385190486908,
        -0.44699591398239136,
        0.39741426706314087,
        0.06942752748727798
      ],
      [
        -0.28408318758010864,
        -0.15132151544094086,
        0.3126702308654785,
        0.31179219484329224,
        -0.2722017467021942,
        0.3135080635547638,
        0.19893687963485718,
        0.1680641770362854
      ],
      [
        0.23388679325580597,
        -0.3198676109313965,
        0.09820077568292618,
        -0.0932564064860344,
        -0.12542250752449036,
        0.2640487253665924,
        -0.0704556480050087,
        0.23939134180545807
      ],
      [
        -0.09592919051647186,
        -0.0081412298604846,
        0.057089775800704956,
        0.3324181139469147,
        -0.20159444212913513,
        0.02910062111914158,
        0.25537073612213135,
        -0.02698892168700695
      ],
      [
        0.09293140470981598,
        0.04782690107822418,
        0.07641799002885818,
        -0.0758388489484787,
        -0.19188666343688965,
        -0.14636950194835663,
        0.36757731437683105,
        -0.05422663688659668
      ],
      [
        -0.06919495761394501,
        -0.21284817159175873,
        0.27672597765922546,
        0.5041717290878296,
        -0.3128187954425812,
        -0.4094860851764679,
        -0.26748281717300415,
        0.006510368548333645
      ],
      [
        -0.1500556319952011,
        -0.2598671019077301,
        -0.1732523888349533,
        0.21967604756355286,
        -0.17963629961013794,
        -0.06054043024778366,
        -0.09414786100387573,
        -0.1725972294807434
      ],
      [
        0.015298707410693169,
        0.3507228493690491,
        -0.36614203453063965,
        -0.088490791618824,
        -0.10166458040475845,
        0.5101885199546814,
        -0.386420875787735,
        -0.3864220082759857
      ],
      [
        0.2916109263896942,
        -0.27883845567703247,
        0.06409572809934616,
        0.060061756521463394,
        -0.054006606340408325,
        -0.20546267926692963,
        0.21819326281547546,
        0.02343219891190529
      ],
      [
        -0.3187176585197449,
        -0.29874417185783386,
        -0.0982498824596405,
        0.2814386785030365,
        -0.20785066485404968,
        0.25273048877716064,
        -0.11087492853403091,
        -0.10064947605133057
      ],
      [
        0.1599382609128952,
        0.11285454779863358,
        0.1432393491268158,
        0.10508591681718826,
        -0.04718657582998276,
        -0.38667625188827515,
        -0.03706290200352669,
        0.3562159836292267
      ],
      [
        -0.03542255237698555,
        -0.42031359672546387,
        0.10259035229682922,
        0.6896019577980042,
        -0.10307628661394119,
        -0.3813011050224304,
        -0.34849676489830017,
        0.07253073900938034
      ],
      [
        -0.060317981988191605,
        -0.2551054358482361,
        0.06015502288937569,
        0.338969349861145,
        0.28162261843681335,
        0.18180227279663086,
        -0.08871158957481384,
        -0.3411312997341156
      ],
      [
        -0.2066655308008194,
        0.40698492527008057,
        0.07154155522584915,
        -0.1632738709449768,
        -0.38527923822402954,
        0.45114362239837646,
        0.35602283477783203,
        0.3278733193874359
      ],
      [
        -0.28932175040245056,
        -0.06761732697486877,
        -0.2426985502243042,
        0.41015949845314026,
        -0.3410574495792389,
        -0.2764334976673126,
        0.24143970012664795,
        -0.06374029815196991
      ],
      [
        -0.1457771509885788,
        0.054646048694849014,
        -0.03964005038142204,
        -0.25162869691848755,
        0.2818618714809418,
        -0.08681757003068924,
        0.16968387365341187,
        0.324778288602829
      ],
      [
        0.10503291338682175,
        0.16038274765014648,
        0.2306586503982544,
        0.26328596472740173,
        -0.18956106901168823,
        0.3908180892467499,
        0.11003643274307251,
        -0.3479890823364258
      ],
      [
        -0.047884419560432434,
        -0.20572131872177124,
        0.2565056085586548,
        -0.16845427453517914,
        -0.40326425433158875,
        0.11514611542224884,
        0.27238619327545166,
        0.10150185227394104
      ],
      [
        0.029515260830521584,
        -0.014696304686367512,
        0.1686258167028427,
        -0.0613718144595623,
        -0.14419884979724884,
        -0.44088494777679443,
        -0.2691557705402374,
        0.18888740241527557
      ]
    ],
    "net.0.bias": [
      -0.09385538101196289,
      -0.0074432045221328735,
      0.13753752410411835,
      0.028784653171896935,
      -0.08760861307382584,
      0.3377692401409149,
      -0.1482640504837036,
      0.28762418031692505,
      -0.27161547541618347,
      -0.1171313226222992,
      0.1848999559879303,
      -0.14261430501937866,
      0.29042214155197144,
      -0.21272823214530945,
      -0.18252208828926086,
      -0.16921532154083252,
      0.02673124335706234,
      0.341205894947052,
      -0.1927209347486496,
      0.07115736603736877,
      -0.08686592429876328,
      -0.06177118420600891,
      0.266755610704422,
      -0.02846214361488819,
      0.03401348367333412,
      0.343850314617157,
      -0.0634976178407669,
      0.2521652579307556,
      -0.07232142984867096,
      0.17217028141021729,
      -0.32054391503334045,
      -0.08519302308559418,
      0.021244479343295097,
      0.09898402541875839,
      0.10624046623706818,
      0.22569212317466736,
      -0.07813601940870285,
      -0.01571519486606121,
      0.20324254035949707,
      -0.08358574658632278,
      0.3332139849662781,
      -0.208827406167984,
      -0.05688626691699028,
      0.06768383830785751,
      0.17352217435836792,
      0.3246256113052368,
      -0.07090818881988525,
      -0.22937287390232086,
      0.18581533432006836,
      0.0997176244854927,
      0.15464317798614502,
      -0.19816915690898895,
      0.17191512882709503,
      0.26634126901626587,
      0.04255790635943413,
      -0.26749736070632935,
      0.23670461773872375,
      -0.2698500156402588,
      0.12400808185338974,
      0.0431557260453701,
      -0.114921435713768,
      0.08811589330434799,
      -0.2194845825433731,
      0.037543587386608124,
      -0.21317017078399658,
      -0.035776831209659576,
      -0.06574080884456635,
      0.2036484330892563,
      -0.11065763235092163,
      0.17533178627490997,
      -0.05152624472975731,
      -0.11394767463207245,
      -0.3266648054122925,
      -0.3305476903915405,
      0.4086284637451172,
      -0.09348072111606598,
      0.02646777220070362,
      0.08608260005712509,
      0.23516115546226501,
      0.19864223897457123
    ],
    "net.2.weight": [
      [
        0.05625184252858162,
        -0.08612657338380814,
        -0.0675133615732193,
        -0.09584653377532959,
        -0.051811300218105316,
        0.0664864331483841,
        0.0610530823469162,
        -0.012879936024546623,
        0.16814595460891724,
        -0.16679467260837555,
        -0.09667900949716568,
        0.15658801794052124,
        -0.06545234471559525,
        0.06508709490299225,
        -0.13413338363170624,
        0.1133868619799614,
        0.0778382420539856,
        -0.11949474364519119,
        0.07494448125362396,
        -0.14514067769050598,
        -0.035971783101558685,
        0.020748542621731758,
        0.11136679351329803,
        -0.058105818927288055,
        0.11227183043956757,
        0.05089066922664642,
        0.07454442977905273,
        -0.003972350154072046,
        -0.058069489896297455,
        -0.16353222727775574,
        -0.20698633790016174,
        0.03899877890944481,
        0.053434647619724274,
        0.14579568803310394,
        0.008799131959676743,
        0.13945230841636658,
        -0.018697312101721764,
        0.18510597944259644,
        0.013172963634133339,
        -0.059645719826221466,
        -0.02089262567460537,
        0.2134747952222824,
        -0.1783175766468048,
        0.04838819429278374,
        -0.012880046851933002,
        -0.030333800241351128,
        0.003979196771979332,
        0.04659717530012131,
        -0.17589318752288818,
        0.053225111216306686,
        -0.010900103487074375,
        -0.1390564739704132,
        0.07526282966136932,
        0.18049272894859314,
        0.07473664730787277,
        0.09691944718360901,
        0.21794810891151428,
        -0.08600863069295883,
        0.06147132068872452,
        -0.031662654131650925,
        -0.09593450278043747,
        0.02376999519765377,
        0.029916951432824135,
        0.08353123068809509,
        -0.04869988560676575,
        -0.09790829569101334,
        0.007969086989760399,
        -0.06913688778877258,
        -0.06195686012506485,
        0.06869270652532578,
        0.1447920948266983,
        -0.015791546553373337,
        0.18568924069404602,
        0.09961118549108505,
        -0.09135802090167999,
        -0.02766796201467514,
        -0.10150067508220673,
        -0.1584654450416565,
        0.05315898358821869,
        -0.019935283809900284
      ],
      [
        0.0789531022310257,
        -0.06337852030992508,
        0.13743449747562408,
        -0.059852126985788345,
        -0.003609282895922661,
        0.050908323377370834,
        0.16517823934555054,
        -0.13428904116153717,
        -0.03581647202372551,
        0.09972884505987167,
        0.009300803765654564,
        -0.09307496249675751,
        0.11003480851650238,
        -0.12416773289442062,
        0.06528162211179733,
        0.021504107862710953,
        -0.12472687661647797,
        0.143027663230896,
        -0.0494542196393013,
        0.09538926184177399,
        0.06321422755718231,
        -0.05471039190888405,
        0.04069048911333084,
        -0.005095476284623146,
        -0.04601816087961197,
        0.02934226579964161,
        -0.030313264578580856,
        -0.05272477865219116,
        0.062399525195360184,
        0.0852159708738327,
        0.17495135962963104,
        -0.06235496327280998,
        0.0433788076043129,
        -0.08324003219604492,
        -0.11295114457607269,
        -0.034273914992809296,
        -0.013212381862103939,
        -0.14111195504665375,
        -0.09246468544006348,
        0.018979888409376144,
        0.029917217791080475,
        -0.04460926353931427,
        0.07054536789655685,
        0.08952593058347702,
        0.10864095389842987,
        -0.05581172928214073,
        0.01648339442908764,
        0.12079769372940063,
        0.09273998439311981,
        -0.0860590934753418,
        0.03768733888864517,
        0.10677968710660934,
        -0.08188154548406601,
        -0.16709937155246735,
        0.04300859570503235,
        -0.23469343781471252,
        -0.10196032375097275,
        -0.04183762148022652,
        0.11509226262569427,
        -0.17557458579540253,
        0.06977640092372894,
        0.11976014822721481,
        0.010781809687614441,
        -0.07133453339338303,
        0.1055682823061943,
        -0.0010255976812914014,
        -0.05700795724987984,
        -0.08028974384069443,
        0.07450978457927704,
        -0.02412993647158146,
        -0.09710196405649185,
        0.0012432474177330732,
        -0.191520094871521,
        -0.0421333834528923,
        0.04801158607006073,
        -0.014990409836173058,
        0.10482828319072723,
        0.206792414188385,
        -0.12326981127262115,
        -0.023905549198389053
      ],
      [
        -0.01598951779305935,
        -0.21020178496837616,
        -0.017760761082172394,
        0.11215595155954361,
        0.12555435299873352,
        -0.033012352883815765,
        0.14180457592010498,
        -0.09040558338165283,
        0.14157481491565704,
        0.018067870289087296,
        -0.07507824152708054,
        0.09631456434726715,
        0.2651894986629486,
        0.08938195556402206,
        -0.03083648905158043,
        -0.02332908660173416,
        -0.15478943288326263,
        0.09639878571033478,
        -0.014501417987048626,
        -0.08013153076171875,
        0.09349077939987183,
        0.17662839591503143,
        0.09538432210683823,
        0.10896103084087372,
        0.27023619413375854,
        0.06490279734134674,
        -0.25043827295303345,
        0.13368713855743408,
        -0.001483427593484521,
        -0.19953908026218414,
        0.015804287046194077,
        -0.011422363109886646,
        0.06769509613513947,
        0.031643807888031006,
        -0.03518438711762428,
        0.1744174361228943,
        -0.1316479742527008,
        -0.1144089549779892,
        0.025265377014875412,
        0.025587616488337517,
        0.16114595532417297,
        -0.07996071875095367,
        -0.10136096924543381,
        0.11199777573347092,
        0.18196457624435425,
        -0.049122922122478485,
        -0.007516935467720032,
        -0.0944368913769722,
        0.17457860708236694,
        -0.036174871027469635,
        0.08326777815818787,
        -0.1499931365251541,
        -0.22224487364292145,
        0.08594333380460739,
        0.04466921463608742,
        0.116095632314682,
        0.06315383315086365,
        -0.15326310694217682,
        0.0950266495347023,
        -0.06613340973854065,
        0.07841804623603821,
        -0.2517942488193512,
        -0.005735076032578945,
        0.06518851220607758,
        -0.031231412664055824,
        -0.10271525382995605,
        -0.18555563688278198,
        -0.10765446722507477,
        0.22377952933311462,
        -0.10699348896741867,
        0.03667023777961731,
        -0.15018011629581451,
        -0.18375100195407867,
        -0.04560078680515289,
        0.13553045690059662,
        -0.04666715860366821,
        0.0032346220687031746,
        0.12490296363830566,
        0.057590290904045105,
        -0.08414093405008316
      ],
      [
        -0.11715681105852127,
        0.12067368626594543,
        0.039347901940345764,
        -0.11852756887674332,
        -0.17003166675567627,
        0.09065528959035873,
        -0.008968014270067215,
        -0.02728167362511158,
        -0.08016268908977509,
        0.135993093252182,
        0.030177893117070198,
        0.03553883358836174,
        -0.1152278333902359,
        0.0741669088602066,
        -0.10310643911361694,
        0.07853558659553528,
        0.13133031129837036,
        0.0027360157109797,
        -0.05987503379583359,
        0.15443819761276245,
        -0.016089845448732376,
        -0.141353577375412,
        0.02882964350283146,
        -0.10196830332279205,
        -0.11471053212881088,
        -0.1477387398481369,
        0.05045804753899574,
        -0.16423001885414124,
        -0.05771971121430397,
        0.17530730366706848,
        0.02109988033771515,
        0.13597817718982697,
        -0.026991691440343857,
        -0.02428373135626316,
        0.19570453464984894,
        -0.1075863242149353,
        0.05379239097237587,
        0.014633462764322758,
        0.042572442442178726,
        -0.0319419763982296,
        -0.1083674356341362,
        -0.08588579297065735,
        -0.016306012868881226,
        -0.1377321034669876,
        -0.12679854035377502,
        0.037928882986307144,
        -0.02890913002192974,
        -0.09052734076976776,
        -0.1167798638343811,
        0.07828355580568314,
        0.035481128841638565,
        0.046213626861572266,
        0.16773472726345062,
        -0.03702022135257721,
        0.03985396772623062,
        0.05878745764493942,
        0.15352800488471985,
        0.04222143813967705,
        -0.08343024551868439,
        0.0223403163254261,
        0.013135256245732307,
        0.08324012160301208,
        -0.10724193602800369,
        0.03470422327518463,
        -0.02008090540766716,
        -0.05959540233016014,
        0.012406143359839916,
        0.07280317693948746,
        -0.20891177654266357,
        0.14438903331756592,
        0.029123898595571518,
        0.08409187942743301,
        0.08215420693159103,
        -0.06324287503957748,
        -0.07204493135213852,
        0.1169687882065773,
        -0.08091277629137039,
        -0.1960095763206482,
        -0.10280376672744751,
        0.1692451685667038
      ]
    ],
    "net.2.bias": [
      -0.08066550642251968,
      0.10767201334238052,
      -0.02552931196987629,
      -0.0669471025466919
    ]
  },
  "F2": {
    "n_in": 4,
    "n_hid": 60,
    "n_out": 4,
    "activation": "tanh",
    "net.0.weight": [
      [
        0.09081210196018219,
        0.043636713176965714,
        -0.2953774929046631,
        -0.5449437499046326
      ],
      [
        -0.1138681173324585,
        0.09028130024671555,
        -0.39107558131217957,
        -0.4132704436779022
      ],
      [
        0.001762045081704855,
        -0.3488340973854065,
        -0.5031340718269348,
        -0.2689630091190338
      ],
      [
        -0.059875160455703735,
        -0.5166938900947571,
        -0.33675116300582886,
        0.03073607198894024
      ],
      [
        -0.5422853231430054,
        0.002374782459810376,
        -0.377210408449173,
        -0.40779340267181396
      ],
      [
        0.15381762385368347,
        -0.349660724401474,
        -0.40827813744544983,
        0.24821197986602783
      ],
      [
        0.06889255344867706,
        0.5240891575813293,
        -0.19016897678375244,
        -0.24360211193561554
      ],
      [
        0.012669256888329983,
        -0.004625068511813879,
        0.4315309226512909,
        -0.4228055477142334
      ],
      [
        0.048621151596307755,
        0.23047764599323273,
        -0.1637302190065384,
        -0.11136419326066971
      ],
      [
        0.31543707847595215,
        -0.584592878818512,
        0.17714674770832062,
        -0.33953824639320374
      ],
      [
        0.1667477786540985,
        -0.4938213527202606,
        0.19941438734531403,
        -0.6343339681625366
      ],
      [
        -0.46978235244750977,
        0.04986007139086723,
        0.36450955271720886,
        -0.47709330916404724
      ],
      [
        -0.27410611510276794,
        0.45290452241897583,
        -0.11886841803789139,
        0.14515714347362518
      ],
      [
        -0.4460509419441223,
        -0.22416983544826508,
        -0.23905181884765625,
        0.4358867406845093
      ],
      [
        0.26507413387298584,
        -0.5156302452087402,
        0.12351571768522263,
        -0.025139106437563896
      ],
      [
        -0.17763842642307281,
        -0.34861865639686584,
        -0.13829194009304047,
        0.40265074372291565
      ],
      [
        -0.329876571893692,
        -0.5614543557167053,
        -0.14058361947536469,
        -0.09603575617074966
      ],
      [
        0.08459576964378357,
        0.023541094735264778,
        -0.16060729324817657,
        -0.3671393394470215
      ],
      [
        -0.14860910177230835,
        -0.14996130764484406,
        0.35341668128967285,
        -0.5389634370803833
      ],
      [
        -0.27409234642982483,
        -0.37518906593322754,
        -0.04666252061724663,
        0.4675217568874359
      ],
      [
        0.5378038287162781,
        -0.5919660925865173,
        0.10870311409235,
        0.3589593768119812
      ],
      [
        0.2959393262863159,
        0.2533882260322571,
        0.04220699891448021,
        -0.3133603632450104
      ],
      [
        0.42000776529312134,
        -0.30694779753685,
        0.3363671600818634,
        -0.07716679573059082
      ],
      [
        0.15523406863212585,
        0.4636969268321991,
        0.41532593965530396,
        -0.5240429043769836
      ],
      [
        -0.3813437223434448,
        -0.1808323711156845,
        -0.35650286078453064,
        0.4258403480052948
      ],
      [
        0.007541002705693245,
        -0.426082044839859,
        -0.1911737620830536,
        -0.25124290585517883
      ],
      [
        0.2728781998157501,
        -0.5256050229072571,
        -0.3939656615257263,
        -0.4414273500442505
      ],
      [
        0.16356496512889862,
        0.19377729296684265,
        -0.3782547414302826,
        0.007124368101358414
      ],
      [
        0.41800156235694885,
        0.05983525142073631,
        -0.07399929314851761,
        0.09817162156105042
      ],
      [
        0.0079015102237463,
        0.2157536894083023,
        -0.28763696551322937,
        0.3175598382949829
      ],
      [
        0.3264233469963074,
        -0.3862822651863098,
        0.4741803705692291,
        0.5189318656921387
      ],
      [
        -0.24050410091876984,
        0.007841781713068485,
        0.20653964579105377,
        -0.3650389015674591
      ],
      [
        0.1603972315788269,
        0.02958063967525959,
        0.2829289436340332,
        -0.54522305727005
      ],
      [
        -0.3684990704059601,
        0.18303877115249634,
        0.24842381477355957,
        -0.4037213921546936
      ],
      [
        -0.2644764482975006,
        -0.5253385305404663,
        -0.31704944372177124,
        -0.2398374378681183
      ],
      [
        0.47057050466537476,
        -0.16108661890029907,
        0.3262842297554016,
        0.5222954750061035
      ],
      [
        0.19752547144889832,
        -0.4126523435115814,
        0.20274832844734192,
        0.1691027134656906
      ],
      [
        0.47451895475387573,
        -0.49535489082336426,
        0.38063836097717285,
        0.533850371837616
      ],
      [
        -0.45355451107025146,
        0.012060713022947311,
        0.4194706976413727,
        -0.36896780133247375
      ],
      [
        0.18642033636569977,
        0.21981096267700195,
        0.13846717774868011,
        0.5276791453361511
      ],
      [
        0.4374103844165802,
        0.433539479970932,
        -0.05172773450613022,
        0.46129512786865234
      ],
      [
        -0.44007188081741333,
        -0.4360494315624237,
        -0.09640530496835709,
        -0.2691747546195984
      ],
      [
        0.46841877698898315,
        0.34135207533836365,
        0.34072449803352356,
        0.42075228691101074
      ],
      [
        -0.47496092319488525,
        0.1534474790096283,
        -0.019947748631238937,
        0.16613255441188812
      ],
      [
        0.22346170246601105,
        -0.1175592914223671,
        -0.1993492841720581,
        0.4049515426158905
      ],
      [
        -0.0845799669623375,
        -0.34451642632484436,
        0.38079026341438293,
        0.40452855825424194
      ],
      [
        -0.17428438365459442,
        -0.0001665829768171534,
        -0.3573912978172302,
        -0.3532361388206482
      ],
      [
        0.26548996567726135,
        -0.2876124382019043,
        0.4735582768917084,
        -0.33163875341415405
      ],
      [
        -0.05311782658100128,
        -0.021387871354818344,
        0.2499009370803833,
        0.41138961911201477
      ],
      [
        0.36354032158851624,
        0.20404236018657684,
        -0.2231501340866089,
        -0.3292490839958191
      ],
      [
        -0.4237530529499054,
        -0.03089582547545433,
        0.4843282997608185,
        -0.0877310037612915
      ],
      [
        -0.05175492912530899,
        -0.28343603014945984,
        0.11081729829311371,
        0.31929731369018555
      ],
      [
        -0.5378457307815552,
        -0.40065914392471313,
        0.29492607712745667,
        0.018589353188872337
      ],
      [
        -0.07546040415763855,
        0.08477935194969177,
        -0.10125483572483063,
        -0.4210393726825714
      ],
      [
        -0.40662023425102234,
        0.2994098961353302,
        0.005322812590748072,
        -0.1185394823551178
      ],
      [
        -0.07416770607233047,
        -0.3657534420490265,
        -0.07575244456529617,
        -0.39336225390434265
      ],
      [
        0.32593533396720886,
        0.21205547451972961,
        -0.32169172167778015,
        -0.25255870819091797
      ],
      [
        0.25134527683258057,
        -0.2861350476741791,
        0.16560298204421997,
        0.11546402424573898
      ],
      [
        -0.23121148347854614,
        0.14525434374809265,
        0.12002211064100266,
        0.5590090155601501
      ],
      [
        -0.23401810228824615,
        -0.09034307301044464,
        0.37454745173454285,
        -0.459420770406723
      ]
    ],
    "net.0.bias": [
      0.011700636707246304,
      0.5240509510040283,
      -0.24046050012111664,
      0.4671608805656433,
      0.44010958075523376,
      0.4568762481212616,
      -0.06056852638721466,
      0.4739820659160614,
      -0.20646975934505463,
      -0.16424325108528137,
      0.17803628742694855,
      0.11204694956541061,
      0.28206300735473633,
      0.4665985107421875,
      -0.32339343428611755,
      0.267784059047699,
      0.16975989937782288,
      0.23954975605010986,
      0.18797433376312256,
      -0.17565058171749115,
      -0.3829362392425537,
      0.40181130170822144,
      -0.28268107771873474,
      0.29674819111824036,
      -0.48236435651779175,
      -0.08914820104837418,
      0.02282140962779522,
      0.07470294833183289,
      0.031617991626262665,
      0.20460106432437897,
      -0.06587085872888565,
      0.12235434353351593,
      0.48782220482826233,
      -0.30939456820487976,
      -0.014919286593794823,
      -0.20840401947498322,
      0.4253062605857849,
      0.4456931948661804,
      -0.026592234149575233,
      -0.1843741238117218,
      -0.31699544191360474,
      0.34225189685821533,
      -0.011148194782435894,
      0.4700470268726349,
      0.26794397830963135,
      0.4513340890407562,
      0.4102516174316406,
      -0.296803742647171,
      0.13490968942642212,
      -0.2208738625049591,
      0.23965255916118622,
      -0.05473591014742851,
      0.0338834784924984,
      -0.3328433632850647,
      -0.4337272346019745,
      0.21123114228248596,
      0.0994979590177536,
      0.034057050943374634,
      0.34623879194259644,
      -0.2332095354795456
    ],
    "net.2.weight": [
      [
        0.07042478024959564,
        -0.045110300183296204,
        0.018114829435944557,
        -0.06254332512617111,
        0.1226104348897934,
        0.08669973909854889,
        0.15308402478694916,
        -0.020579900592565536,
        0.10348400473594666,
        -0.19904088973999023,
        -0.1564292162656784,
        0.03408495709300041,
        0.04426411911845207,
        -0.11247281730175018,
        -0.09636645764112473,
        -0.07686875015497208,
        -0.1786525398492813,
        0.002500604372471571,
        0.04123518243432045,
        0.03655385598540306,
        -0.12342995405197144,
        -0.12220048159360886,
        -0.144685760140419,
        0.0021641936618834734,
        0.1099461168050766,
        -0.08888357877731323,
        -0.09878688305616379,
        -0.0266276802867651,
        -0.02884439192712307,
        -0.08217588812112808,
        -0.16683167219161987,
        0.10849528014659882,
        -0.08636791259050369,
        -0.008259685710072517,
        -0.045133575797080994,
        -0.15669262409210205,
        -0.02953057549893856,
        0.05532742664217949,
        -0.03675675764679909,
        -0.003372856182977557,
        0.025954216718673706,
        -0.14587919414043427,
        0.06655421108007431,
        0.10148085653781891,
        0.07251923531293869,
        -0.042863134294748306,
        0.07391103357076645,
        -0.1549365371465683,
        -0.0396416112780571,
        -0.010307397693395615,
        -0.06347134709358215,
        0.009754030033946037,
        -0.1339387595653534,
        -0.008433382958173752,
        -0.021106582134962082,
        -0.1530372053384781,
        -0.008420208469033241,
        -0.14496572315692902,
        0.08084776997566223,
        0.061225827783346176
      ],
      [
        0.1786963790655136,
        -0.02217883989214897,
        0.06644657254219055,
        0.02219630405306816,
        0.1570156067609787,
        0.09732133895158768,
        -0.029218902811408043,
        -0.11260349303483963,
        -0.07617277652025223,
        -0.04500826448202133,
        0.11993159353733063,
        0.0919230729341507,
        0.11833960562944412,
        0.07692866772413254,
        -0.006060055922716856,
        -0.1108977422118187,
        0.18823033571243286,
        0.12884649634361267,
        0.10238256305456161,
        -0.08371235430240631,
        0.07316212356090546,
        0.002465266501531005,
        0.06603700667619705,
        0.04149896278977394,
        0.08806373924016953,
        -0.022594274953007698,
        0.038930103182792664,
        0.07281458377838135,
        -0.08384744077920914,
        -0.15536737442016602,
        0.06897841393947601,
        0.04786470904946327,
        0.09704837948083878,
        -0.05757422745227814,
        0.1283481866121292,
        -0.09062868356704712,
        -0.08861564099788666,
        -0.06389272212982178,
        0.022659389302134514,
        0.02129790186882019,
        -0.06747064739465714,
        0.1280456930398941,
        -0.03272557258605957,
        -0.03088914230465889,
        -0.1179986372590065,
        -0.15437161922454834,
        -0.005773433484137058,
        -0.1104300320148468,
        -0.0777255967259407,
        0.03989226371049881,
        -0.021718919277191162,
        -0.10398902744054794,
        0.08474744856357574,
        0.11533690243959427,
        0.0006887003546580672,
        0.007177399471402168,
        0.09856507182121277,
        0.06405917555093765,
        -0.1676992028951645,
        0.028635121881961823
      ],
      [
        0.028083886951208115,
        -0.052816204726696014,
        0.1514004021883011,
        -0.022209960967302322,
        0.10365694761276245,
        -0.011601024307310581,
        0.016444500535726547,
        -0.0795666053891182,
        -0.01673780009150505,
        0.07478500157594681,
        0.0728360041975975,
        0.01920747384428978,
        0.10205948352813721,
        -0.10087833553552628,
        0.06497332453727722,
        0.09816095978021622,
        0.003943791147321463,
        0.10502992570400238,
        0.016223005950450897,
        -0.09007767587900162,
        -0.056300677359104156,
        0.03819853439927101,
        -0.04511699452996254,
        0.01833885908126831,
        0.1381063163280487,
        0.11531311273574829,
        0.09863175451755524,
        0.012278251349925995,
        -0.12258731573820114,
        -0.13657556474208832,
        -0.11944626271724701,
        -0.08593375980854034,
        0.019754676148295403,
        0.05554800108075142,
        0.02830113098025322,
        -0.13574273884296417,
        0.04406113177537918,
        -0.11019805818796158,
        0.04498250037431717,
        -0.13312631845474243,
        -0.08774830400943756,
        0.06072363257408142,
        -0.16505537927150726,
        -0.08590644598007202,
        0.06758756935596466,
        -0.09370145201683044,
        -0.05205773934721947,
        -0.017166394740343094,
        0.012609330005943775,
        -0.06154676899313927,
        0.004753332119435072,
        0.03340364620089531,
        -0.0009832103969529271,
        0.05199853703379631,
        -0.07583329826593399,
        0.08748607337474823,
        0.04545334354043007,
        -0.05658552050590515,
        -0.1347256898880005,
        0.08571150153875351
      ],
      [
        0.10661190003156662,
        -0.030545521527528763,
        0.08148953318595886,
        0.03207017481327057,
        -0.05700816959142685,
        -0.02539525181055069,
        0.1700836718082428,
        -0.014404632151126862,
        -0.07898739725351334,
        -0.004086173605173826,
        0.04435032233595848,
        -0.03901324048638344,
        -0.07537635415792465,
        0.09158455580472946,
        0.07650913298130035,
        -0.040900588035583496,
        -0.005805111490190029,
        -0.022692516446113586,
        0.01763506606221199,
        0.011715245433151722,
        -0.07304053008556366,
        0.010773398913443089,
        0.009326030500233173,
        -0.0038882747758179903,
        -0.032841555774211884,
        0.05230627581477165,
        -0.07867250591516495,
        0.03459173068404198,
        0.025069210678339005,
        -0.025950776413083076,
        -0.1278323382139206,
        -0.0060994382947683334,
        -0.013880197890102863,
        -0.08941778540611267,
        -0.036831799894571304,
        0.11169319599866867,
        0.0746268630027771,
        0.046480000019073486,
        0.1418367475271225,
        0.05006231367588043,
        0.0808677226305008,
        0.07595651596784592,
        -0.058401141315698624,
        -0.02972983755171299,
        0.07089512050151825,
        -0.020521018654108047,
        -0.09239920228719711,
        -0.0903005376458168,
        0.042706768959760666,
        0.1253046989440918,
        0.0844520702958107,
        0.0059826187789440155,
        0.06000622361898422,
        -0.09773125499486923,
        -0.0728425681591034,
        -0.13254867494106293,
        0.09812816977500916,
        -0.049719084054231644,
        -0.0759727731347084,
        0.06190242990851402
      ]
    ],
    "net.2.bias": [
      -0.0659574568271637,
      -0.10229939222335815,
      0.03829381242394447,
      0.008597162552177906
    ]
  }
}