{
  "name": "PV3",
  "type": "F1+H1+F2",
  "t_step": 0.001,
  "normfacs": {
    "G": {
      "scale": 999.9949951171875,
      "offset": 781.4698486328125
    },
    "Ud": {
      "scale": 0.4200015068054199,
      "offset": 1.012689471244812
    },
    "Uq": {
      "scale": 1.0,
      "offset": -0.012256158515810966
    },
    "Id": {
      "scale": 5.881160259246826,
      "offset": 2.5773351192474365
    },
    "Iq": {
      "scale": 5.025164604187012,
      "offset": -0.10374172776937485
    },
    "GIrms": {
      "scale": 7125.08447265625,
      "offset": 2889.173095703125
    },
    "Ctrl": {
      "scale": 1.0,
      "offset": 0.5623593926429749
    },
    "Vdc": {
      "scale": 643.7698364257812,
      "offset": 458.31390380859375
    },
    "Idc": {
      "scale": 4.956446170806885,
      "offset": 1.9286991357803345
    },
    "Vd": {
      "scale": 349.07000732421875,
      "offset": 218.1281280517578
    },
    "Vq": {
      "scale": 297.98748779296875,
      "offset": -8.231996536254883
    }
  },
  "model_folder": "./ucf4ts2nd/",
  "model_root": "ucf4ts2nd",
  "data_path": "d:/data/ucf3/ucf9c.hdf5",
  "lr": 0.001,
  "eps": 1e-08,
  "h5grp_prefix": "ucf",
  "num_iter": 1000,
  "continue_iterations": false,
  "print_freq": 1,
  "batch_size": 105,
  "n_validation_pct": 15,
  "n_validation_seed": 99,
  "n_skip": 0,
  "n_trunc": 0,
  "n_dec": 1,
  "n_loss_skip": 250,
  "n_pad": 500,
  "gtype": "stable2ndx",
  "na": 2,
  "nb": 3,
  "nk": 0,
  "activation": "tanh",
  "nh1": 80,
  "nh2": 60,
  "COL_T": [
    "t"
  ],
  "COL_Y": [
    "Vdc",
    "Idc",
    "Vd",
    "Vq"
  ],
  "COL_U": [
    "G",
    "Ud",
    "Uq",
    "Id",
    "Iq",
    "GIrms",
    "Ctrl"
  ],
  "clamps": null,
  "sensitivity": {
    "limit": 45.0,
    "weight": 0.0005,
    "delta": 0.01,
    "inputs": [
      "Id",
      "Iq"
    ],
    "outputs": [
      "Vd",
      "Vq"
    ],
    "GIrms": {
      "G": "G",
      "Id": "Id",
      "Iq": "Iq",
      "k": 1.2247449
    },
    "big_sets": {
      "G": [
        100.0,
        600.0,
        999.0
      ],
      "Ud": [
        0.8,
        1.0,
        1.2
      ],
      "Uq": [
        -0.5,
        0.0,
        0.5
      ],
      "Id": [
        2.8,
        5.6
      ],
      "Iq": [
        -2.6,
        0.0,
        2.3
      ],
      "Ctrl": [
        0.0,
        1.0
      ]
    },
    "sets": {
      "G": [
        300.0,
        800.0
      ],
      "Ud": [
        0.9,
        1.1
      ],
      "Uq": [
        -0.4,
        0.4
      ],
      "Id": [
        2.8,
        5.6
      ],
      "Iq": [
        -2.6,
        2.3
      ],
      "Ctrl": [
        0.0,
        1.0
      ]
    }
  },
  "H1": {
    "n_in": 4,
    "n_out": 4,
    "n_b": 3,
    "n_a": 2,
    "n_k": 0,
    "b_0_0": [
      -0.07352448254823685,
      0.024533944204449654,
      0.012234595604240894
    ],
    "a_0_0": [
      0.2633551061153412,
      0.1252840757369995
    ],
    "alpha1_0_0": 0.13244661688804626,
    "alpha2_0_0": -0.014726423658430576,
    "b_0_1": [
      0.11970221251249313,
      0.09880063682794571,
      0.1317363828420639
    ],
    "a_0_1": [
      -0.17190492153167725,
      0.03147304058074951
    ],
    "alpha1_0_1": -0.08616507053375244,
    "alpha2_0_1": -0.11934634298086166,
    "b_0_2": [
      0.039602842181921005,
      0.020103679969906807,
      0.047203853726387024
    ],
    "a_0_2": [
      0.2038366198539734,
      0.03877711296081543
    ],
    "alpha1_0_2": 0.10227341204881668,
    "alpha2_0_2": -0.14084592461585999,
    "b_0_3": [
      -0.10834993422031403,
      0.010911524295806885,
      0.03152482584118843
    ],
    "a_0_3": [
      -0.1996573507785797,
      0.12832605838775635
    ],
    "alpha1_0_3": -0.10016229748725891,
    "alpha2_0_3": 0.06333664059638977,
    "b_1_0": [
      0.02776351012289524,
      -0.0547877736389637,
      -0.10538468509912491
    ],
    "a_1_0": [
      -0.039275143295526505,
      -0.0729551911354065
    ],
    "alpha1_1_0": -0.01964009739458561,
    "alpha2_1_0": -0.18945983052253723,
    "b_1_1": [
      0.1379806399345398,
      0.15629330277442932,
      0.15139855444431305
    ],
    "a_1_1": [
      0.0005775365279987454,
      -0.23158878087997437
    ],
    "alpha1_1_1": 0.0002887682639993727,
    "alpha2_1_1": -0.47248709201812744,
    "b_1_2": [
      -0.09088065475225449,
      -0.04718439280986786,
      -0.04824278876185417
    ],
    "a_1_2": [
      -0.042933639138936996,
      0.0418018102645874
    ],
    "alpha1_1_2": -0.021470118314027786,
    "alpha2_1_2": 0.04156835004687309,
    "b_1_3": [
      0.04663354530930519,
      -0.05315443500876427,
      -0.0990089550614357
    ],
    "a_1_3": [
      0.06375531852245331,
      -0.06994229555130005
    ],
    "alpha1_1_3": 0.031888462603092194,
    "alpha2_1_3": -0.21112604439258575,
    "b_2_0": [
      0.007524194195866585,
      0.10527816414833069,
      0.13969580829143524
    ],
    "a_2_0": [
      -0.22166787087917328,
      0.0878223180770874
    ],
    "alpha1_2_0": -0.11129114776849747,
    "alpha2_2_0": -0.05177154019474983,
    "b_2_1": [
      0.05175787955522537,
      0.04248761758208275,
      0.036827441304922104
    ],
    "a_2_1": [
      -0.18627630174160004,
      0.09235024452209473
    ],
    "alpha1_2_1": -0.09340887516736984,
    "alpha2_2_1": -0.0017375876195728779,
    "b_2_2": [
      -0.09094911068677902,
      -0.12657220661640167,
      -0.10866182297468185
    ],
    "a_2_2": [
      0.2789331376552582,
      0.0983743667602539
    ],
    "alpha1_2_2": 0.14038152992725372,
    "alpha2_2_2": -0.09557680785655975,
    "b_2_3": [
      -0.24304510653018951,
      -0.10730218887329102,
      -0.0737752765417099
    ],
    "a_2_3": [
      -0.6471842527389526,
      0.24410414695739746
    ],
    "alpha1_2_3": -0.3356541693210602,
    "alpha2_2_3": -0.2361205667257309,
    "b_3_0": [
      0.3935822546482086,
      0.24950414896011353,
      0.16898556053638458
    ],
    "a_3_0": [
      -1.1770216226577759,
      0.48291075229644775
    ],
    "alpha1_3_0": -0.6753847599029541,
    "alpha2_3_0": -0.5249929428100586,
    "b_3_1": [
      -0.1399073600769043,
      -0.07358630001544952,
      -0.04867330193519592
    ],
    "a_3_1": [
      -0.2619395852088928,
      0.1356813907623291
    ],
    "alpha1_3_1": -0.1317264437675476,
    "alpha2_3_1": 0.01084353867918253,
    "b_3_2": [
      0.1157013401389122,
      0.12051526457071304,
      0.16152577102184296
    ],
    "a_3_2": [
      -0.6229840517044067,
      0.24300646781921387
    ],
    "alpha1_3_2": -0.322196900844574,
    "alpha2_3_2": -0.19959920644760132,
    "b_3_3": [
      -0.05346979573369026,
      -0.16558986902236938,
      -0.22338344156742096
    ],
    "a_3_3": [
      -0.6540383100509644,
      0.2360743284225464
    ],
    "alpha1_3_3": -0.3394867777824402,
    "alpha2_3_3": -0.2719380855560303
  },
  "H1s": {
    "n_in": 4,
    "n_out": 4,
    "n_a": 3,
    "n_b": 3,
    "b_0_0": [
      -0.07352448254823685,
      -122.51502089202404,
      -36755.94273954631
    ],
    "a_0_0": [
      1.0,
      2263.355106115341,
      1388639.1818523407
    ],
    "b_0_1": [
      0.11970221251249313,
      338.2050618529319,
      350239.23218250304
    ],
    "a_0_1": [
      1.0,
      1828.0950784683225,
      859568.119049072
    ],
    "b_0_2": [
      0.039602842181921005,
      99.3093643337489,
      106910.37587821463
    ],
    "a_0_2": [
      1.0,
      2203.8366198539743,
      1242613.7328147897
    ],
    "b_0_3": [
      -0.10834993422031403,
      -205.78834414482174,
      -65913.58408331516
    ],
    "a_0_3": [
      1.0,
      1800.3426492214205,
      928668.7076091769
    ],
    "b_1_0": [
      0.02776351012289524,
      0.7392466068267609,
      -132408.94861519334
    ],
    "a_1_0": [
      1.0,
      1960.7248567044735,
      887769.6655690671
    ],
    "b_1_1": [
      0.1379806399345398,
      432.25458264350897,
      445672.4971532818
    ],
    "a_1_1": [
      1.0,
      2000.5775365279987,
      768988.7556480244
    ],
    "b_1_2": [
      -0.09088065475225449,
      -228.94570231437683,
      -186307.8363239764
    ],
    "a_1_2": [
      1.0,
      1957.0663608610628,
      998868.1711256502
    ],
    "b_1_3": [
      0.04663354530930519,
      40.1126556098462,
      -105529.84476089544
    ],
    "a_1_3": [
      1.0,
      2063.7553185224533,
      993813.0229711534
    ],
    "b_2_0": [
      0.007524194195866585,
      120.32655254006374,
      252498.1666356334
    ],
    "a_2_0": [
      1.0,
      1778.3321291208267,
      866154.4471979142
    ],
    "b_2_1": [
      0.05175787955522537,
      146.00337669253355,
      131072.93844223028
    ],
    "a_2_1": [
      1.0,
      1813.7236982584002,
      906073.9427804949
    ],
    "b_2_2": [
      -0.09094911068677902,
      -308.4704279899598,
      -326183.14027786255
    ],
    "a_2_2": [
      1.0,
      2278.933137655258,
      1377307.504415512
    ],
    "b_2_3": [
      -0.24304510653018951,
      -593.3924019336699,
      -424122.57194519043
    ],
    "a_2_3": [
      1.0,
      1352.8157472610474,
      596919.8942184448
    ],
    "b_3_0": [
      0.3935822546482086,
      1036.6686582565308,
      812071.964144707
    ],
    "a_3_0": [
      1.0,
      822.9783773422239,
      305889.1296386719
    ],
    "b_3_1": [
      -0.1399073600769043,
      -353.4010201692581,
      -262166.96202754974
    ],
    "a_3_1": [
      1.0,
      1738.0604147911072,
      873741.8055534363
    ],
    "b_3_2": [
      0.1157013401389122,
      351.91794484853756,
      397742.37573146785
    ],
    "a_3_2": [
      1.0,
      1377.0159482955933,
      620022.4161148071
    ],
    "b_3_3": [
      -0.05346979573369026,
      -272.52946048975,
      -442443.10632348026
    ],
    "a_3_3": [
      1.0,
      1345.9616899490354,
      582036.0183715818
    ]
  },
  "Q1s": {
    "n_in": 4,
    "n_out": 4,
    "n_a": 2,
    "n_b": 3,
    "A_0_0": [
      [
        -2263.355106115341,
        -1388639.1818523407
      ],
      [
        1.0,
        0.0
      ]
    ],
    "B_0_0": [
      1.0,
      0.0
    ],
    "C_0_0": [
      43.89699210801612,
      65343.034552354
    ],
    "D_0_0": -0.07352448254823685,
    "A_0_1": [
      [
        -1828.0950784683225,
        -859568.119049072
      ],
      [
        1.0,
        0.0
      ]
    ],
    "B_0_1": [
      1.0,
      0.0
    ],
    "C_0_1": [
      119.37803627707396,
      247347.02652712702
    ],
    "D_0_1": 0.11970221251249313,
    "A_0_2": [
      [
        -2203.8366198539743,
        -1242613.7328147897
      ],
      [
        1.0,
        0.0
      ]
    ],
    "B_0_2": [
      1.0,
      0.0
    ],
    "C_0_2": [
      12.031170482933717,
      57699.34032446276
    ],
    "D_0_2": 0.039602842181921005,
    "A_0_3": [
      [
        -1800.3426492214205,
        -928668.7076091769
      ],
      [
        1.0,
        0.0
      ]
    ],
    "B_0_3": [
      1.0,
      0.0
    ],
    "C_0_3": [
      -10.721336527654927,
      34707.60929860319
    ],
    "D_0_3": -0.10834993422031403,
    "A_1_0": [
      [
        -1960.7248567044735,
        -887769.6655690671
      ],
      [
        1.0,
        0.0
      ]
    ],
    "B_1_0": [
      1.0,
      0.0
    ],
    "C_1_0": [
      -53.69735780050021,
      -157056.55071201947
    ],
    "D_1_0": 0.02776351012289524,
    "A_1_1": [
      [
        -2000.5775365279987,
        -768988.7556480244
      ],
      [
        1.0,
        0.0
      ]
    ],
    "B_1_1": [
      1.0,
      0.0
    ],
    "C_1_1": [
      156.21361391471055,
      339566.93654650194
    ],
    "D_1_1": 0.1379806399345398,
    "A_1_2": [
      [
        -1957.0663608610628,
        -998868.1711256502
      ],
      [
        1.0,
        0.0
      ]
    ],
    "B_1_2": [
      1.0,
      0.0
    ],
    "C_1_2": [
      -51.08623004571149,
      -95530.04292089034
    ],
    "D_1_2": -0.09088065475225449,
    "A_1_3": [
      [
        -2063.7553185224533,
        -993813.0229711534
      ],
      [
        1.0,
        0.0
      ]
    ],
    "B_1_3": [
      1.0,
      0.0
    ],
    "C_1_3": [
      -56.1275715437902,
      -151874.86939659828
    ],
    "D_1_3": 0.04663354530930519,
    "A_2_0": [
      [
        -1778.3321291208267,
        -866154.4471979142
      ],
      [
        1.0,
        0.0
      ]
    ],
    "B_2_0": [
      1.0,
      0.0
    ],
    "C_2_0": [
      106.94603625580976,
      245981.05237130282
    ],
    "D_2_0": 0.007524194195866585,
    "A_2_1": [
      [
        -1813.7236982584002,
        -906073.9427804949
      ],
      [
        1.0,
        0.0
      ]
    ],
    "B_2_1": [
      1.0,
      0.0
    ],
    "C_2_1": [
      52.12888397161734,
      84176.47244366926
    ],
    "D_2_1": 0.05175787955522537,
    "A_2_2": [
      [
        -2278.933137655258,
        -1377307.504415512
      ],
      [
        1.0,
        0.0
      ]
    ],
    "B_2_2": [
      1.0,
      0.0
    ],
    "C_2_2": [
      -101.20348580558309,
      -200918.24760904477
    ],
    "D_2_2": -0.09094911068677902,
    "A_2_3": [
      [
        -1352.8157472610474,
        -596919.8942184448
      ],
      [
        1.0,
        0.0
      ]
    ],
    "B_2_3": [
      1.0,
      0.0
    ],
    "C_2_3": [
      -264.59715452489075,
      -279044.11266487907
    ],
    "D_2_3": -0.24304510653018951,
    "A_3_0": [
      [
        -822.9783773422239,
        -305889.1296386719
      ],
      [
        1.0,
        0.0
      ]
    ],
    "B_3_0": [
      1.0,
      0.0
    ],
    "C_3_0": [
      712.7589729754541,
      691679.4308291404
    ],
    "D_3_0": 0.3935822546482086,
    "A_3_1": [
      [
        -1738.0604147911072,
        -873741.8055534363
      ],
      [
        1.0,
        0.0
      ]
    ],
    "B_3_1": [
      1.0,
      0.0
    ],
    "C_3_1": [
      -110.23357588166505,
      -139924.05262374063
    ],
    "D_3_1": -0.1399073600769043,
    "A_3_2": [
      [
        -1377.0159482955933,
        -620022.4161148071
      ],
      [
        1.0,
        0.0
      ]
    ],
    "B_3_2": [
      1.0,
      0.0
    ],
    "C_3_2": [
      192.5953542380824,
      326004.95127081836
    ],
    "D_3_2": 0.1157013401389122,
    "A_3_3": [
      [
        -1345.9616899490354,
        -582036.0183715818
      ],
      [
        1.0,
        0.0
      ]
    ],
    "B_3_3": [
      1.0,
      0.0
    ],
    "C_3_3": [
      -200.56116386280257,
      -411321.7593115014
    ],
    "D_3_3": -0.05346979573369026
  },
  "F1": {
    "n_in": 7,
    "n_hid": 80,
    "n_out": 4,
    "activation": "tanh",
    "net.0.weight": [
      [
        0.1638878881931305,
        0.2792431712150574,
        0.07715834677219391,
        -0.7515803575515747,
        -0.07970711588859558,
        0.06093752011656761,
        -0.04682779684662819
      ],
      [
        -0.12319762259721756,
        0.22626376152038574,
        0.10087820887565613,
        -0.19464673101902008,
        -0.14282719790935516,
        -0.2726913094520569,
        -0.3029014766216278
      ],
      [
        -0.03328913450241089,
        -0.1744576394557953,
        1.0782325267791748,
        0.08534134924411774,
        -0.03517482057213783,
        -0.15469200909137726,
        0.1766834259033203
      ],
      [
        0.5448524355888367,
        -0.362861305475235,
        -0.3676052987575531,
        0.05655108764767647,
        0.014799234457314014,
        0.32527637481689453,
        -0.33283260464668274
      ],
      [
        -0.5299891233444214,
        -0.01003222819417715,
        -0.01837032102048397,
        0.43593788146972656,
        -0.21711929142475128,
        -0.11395829170942307,
        0.00028114463202655315
      ],
      [
        -0.4641561508178711,
        1.1339603662490845,
        1.0690168142318726,
        0.0453241765499115,
        0.031019756570458412,
        -0.13603642582893372,
        -0.014332791790366173
      ],
      [
        0.019607340916991234,
        0.4988704025745392,
        -0.7511207461357117,
        -0.244364932179451,
        0.0929635539650917,
        0.26754456758499146,
        -0.16929173469543457
      ],
      [
        0.12953345477581024,
        -0.09178812056779861,
        0.7253634929656982,
        0.19710414111614227,
        0.014554995112121105,
        0.13751094043254852,
        -0.2629707157611847
      ],
      [
        -0.14321036636829376,
        0.3425406515598297,
        -0.7939161658287048,
        -0.18499472737312317,
        0.035648297518491745,
        0.04833145812153816,
        -0.90572589635849
      ],
      [
        0.4564743638038635,
        0.13470806181430817,
        -0.9458491802215576,
        0.009608165360987186,
        0.041848074644804,
        0.14247927069664001,
        0.3325154781341553
      ],
      [
        -0.902844250202179,
        -0.25501519441604614,
        0.12062226235866547,
        0.544967532157898,
        0.09243016690015793,
        0.19585514068603516,
        0.04918743669986725
      ],
      [
        -0.20349574089050293,
        0.531453013420105,
        -0.4200302064418793,
        -0.28856873512268066,
        0.1079750508069992,
        0.2851456105709076,
        -0.4227575361728668
      ],
      [
        -0.0830107256770134,
        -0.003236290765926242,
        -0.14347276091575623,
        -0.0724591314792633,
        0.1801300346851349,
        -0.10713262110948563,
        0.11826962232589722
      ],
      [
        0.07779460400342941,
        0.3108046352863312,
        -0.5105807185173035,
        -0.2457115352153778,
        -0.09209798276424408,
        0.26227009296417236,
        -0.12898902595043182
      ],
      [
        -0.03609447181224823,
        -0.5908694267272949,
        0.4072507321834564,
        0.12439139932394028,
        -0.10628669708967209,
        -0.2122001051902771,
        -0.25663891434669495
      ],
      [
        0.23468193411827087,
        -0.25910302996635437,
        -0.951135516166687,
        -0.07824157178401947,
        0.01362656895071268,
        -0.02436302788555622,
        0.9010719656944275
      ],
      [
        -0.12252232432365417,
        0.16533075273036957,
        0.814361035823822,
        -0.28695201873779297,
        -0.08633746206760406,
        0.10800576955080032,
        0.03126921132206917
      ],
      [
        -0.22185026109218597,
        0.09001816809177399,
        -0.04450562596321106,
        -0.1072053387761116,
        0.15598346292972565,
        -0.22990483045578003,
        -0.6034159064292908
      ],
      [
        0.03586610034108162,
        -0.07995240390300751,
        0.0774063989520073,
        -0.2961677014827728,
        -0.1186758279800415,
        0.05225009471178055,
        -0.7448374629020691
      ],
      [
        0.09473380446434021,
        0.4110487997531891,
        -0.909612238407135,
        -0.010664393194019794,
        0.0017840825021266937,
        0.09837625175714493,
        0.1598793864250183
      ],
      [
        0.017200374975800514,
        0.5017067790031433,
        -0.1169273853302002,
        -0.01601501740515232,
        -0.1756090670824051,
        -0.10058043897151947,
        0.12946802377700806
      ],
      [
        0.45986679196357727,
        -0.22590942680835724,
        -0.33586734533309937,
        -0.2556562125682831,
        -0.12724317610263824,
        0.06684795767068863,
        0.044165708124637604
      ],
      [
        -0.1691441833972931,
        0.20099572837352753,
        0.0749172568321228,
        -0.13774007558822632,
        -0.03712788224220276,
        -0.052475664764642715,
        -0.6207385063171387
      ],
      [
        -0.03726976737380028,
        -0.5640153884887695,
        -0.7976510524749756,
        -0.09293770790100098,
        -0.029540708288550377,
        -0.10157720744609833,
        0.24311335384845734
      ],
      [
        -0.3774546682834625,
        -0.20710143446922302,
        1.2258702516555786,
        -0.04575762152671814,
        0.12516304850578308,
        0.11925536394119263,
        -0.46806883811950684
      ],
      [
        0.17639194428920746,
        -0.0609344020485878,
        -0.1368478536605835,
        0.3489820957183838,
        -0.1365777552127838,
        0.03367789462208748,
        -0.5341607928276062
      ],
      [
        0.12757818400859833,
        0.4660526514053345,
        1.0602821111679077,
        0.07597070932388306,
        -0.04031315818428993,
        -0.1039528027176857,
        -0.3085969090461731
      ],
      [
        -1.2145193815231323,
        -0.015234557911753654,
        0.04978206381201744,
        -0.265412837266922,
        0.023696091026067734,
        -0.2649480998516083,
        0.024939045310020447
      ],
      [
        -0.189005509018898,
        0.3131938576698303,
        -0.2234046906232834,
        -0.019709624350070953,
        -0.02440379187464714,
        0.06895256787538528,
        -1.9975457191467285
      ],
      [
        -0.30082544684410095,
        -0.28913241624832153,
        1.1306731700897217,
        -0.11692149937152863,
        0.05870110169053078,
        0.08934912085533142,
        0.16074249148368835
      ],
      [
        -1.3189483880996704,
        -0.27214816212654114,
        -1.1035165786743164,
        -0.043849509209394455,
        -0.011501707136631012,
        0.025784878060221672,
        -0.520455539226532
      ],
      [
        -0.4654307961463928,
        0.09875116497278214,
        -0.25656968355178833,
        0.1166074350476265,
        0.3715306520462036,
        0.16633634269237518,
        0.0870908722281456
      ],
      [
        -1.0023378133773804,
        0.1771109253168106,
        0.15101513266563416,
        -0.23938900232315063,
        -0.033418070524930954,
        -0.09516483545303345,
        0.047681402415037155
      ],
      [
        0.2910226285457611,
        -0.10859615355730057,
        0.6588956713676453,
        0.4738876521587372,
        -0.15600505471229553,
        0.261003315448761,
        -0.10166122019290924
      ],
      [
        0.011626643128693104,
        -0.09784040600061417,
        -0.18426403403282166,
        0.8113541007041931,
        -0.04895283654332161,
        0.45121002197265625,
        0.07684607803821564
      ],
      [
        -0.19230106472969055,
        1.8665122985839844,
        0.5807666778564453,
        0.07012536376714706,
        -0.01604122668504715,
        -0.05463889241218567,
        0.4352646470069885
      ],
      [
        -0.045490942895412445,
        0.01567874848842621,
        -0.3556198477745056,
        -0.12395702302455902,
        -0.20886112749576569,
        0.12919281423091888,
        -0.6277906894683838
      ],
      [
        -0.023840630427002907,
        -0.42593154311180115,
        0.8575604557991028,
        0.028812821954488754,
        0.11661335825920105,
        -0.004700147546827793,
        -0.036589790135622025
      ],
      [
        0.042076729238033295,
        0.21178480982780457,
        1.2151589393615723,
        0.16177308559417725,
        -0.06068270280957222,
        -0.2047671228647232,
        0.006653761491179466
      ],
      [
        -0.15037944912910461,
        -0.28647011518478394,
        -0.6109753847122192,
        0.40465736389160156,
        -0.1378294676542282,
        -0.09399602562189102,
        0.05341964215040207
      ],
      [
        -0.2740664482116699,
        0.43323495984077454,
        -1.343065857887268,
        0.6305583119392395,
        0.004859830718487501,
        0.26248499751091003,
        -0.7043924331665039
      ],
      [
        -0.05950454622507095,
        0.3331170678138733,
        0.21641257405281067,
        -0.5957745313644409,
        0.05953938886523247,
        0.011985204182565212,
        -0.04477939009666443
      ],
      [
        0.03035897947847843,
        0.0410543717443943,
        0.3931620717048645,
        -0.39375969767570496,
        0.06984861940145493,
        0.005577022675424814,
        0.012708596885204315
      ],
      [
        -0.27726641297340393,
        0.5302720665931702,
        -0.42012739181518555,
        -0.015929153189063072,
        -0.16883903741836548,
        -0.008339976891875267,
        0.04612987861037254
      ],
      [
        -0.009551319293677807,
        0.3820299506187439,
        -1.0374785661697388,
        0.05658746883273125,
        0.06418311595916748,
        -0.04015626013278961,
        0.1440945416688919
      ],
      [
        -0.007960301823914051,
        -0.5092063546180725,
        -0.19456444680690765,
        0.16745515167713165,
        0.05787714198231697,
        0.02052992768585682,
        -0.04958195984363556
      ],
      [
        -0.5324205160140991,
        -0.2067057341337204,
        -0.09389788657426834,
        0.49011918902397156,
        0.15506647527217865,
        -0.039127834141254425,
        -0.059225428849458694
      ],
      [
        -0.3392027020454407,
        0.04802761599421501,
        0.043091341853141785,
        0.277275949716568,
        0.14273148775100708,
        -0.3150467574596405,
        0.026495540514588356
      ],
      [
        0.004178945440798998,
        0.2182144671678543,
        -0.3296872675418854,
        0.29058536887168884,
        -0.0701470747590065,
        -0.2133960723876953,
        0.7695078253746033
      ],
      [
        0.19089941680431366,
        -0.2261156290769577,
        0.022965027019381523,
        0.2262226790189743,
        0.15206748247146606,
        -0.22425523400306702,
        0.05270196869969368
      ],
      [
        -0.06610434502363205,
        0.41294610500335693,
        0.23099812865257263,
        0.33646124601364136,
        0.09318044036626816,
        0.2385009527206421,
        -0.14666828513145447
      ],
      [
        0.5098713636398315,
        0.4513087272644043,
        0.18412381410598755,
        -1.222693681716919,
        0.02830134518444538,
        -0.31311601400375366,
        0.10060323029756546
      ],
      [
        -0.13577774167060852,
        0.2681036591529846,
        0.7276339530944824,
        -0.1665591448545456,
        -0.12300975620746613,
        0.09675287455320358,
        -0.09127708524465561
      ],
      [
        0.10311219841241837,
        -0.1349177062511444,
        -0.14161357283592224,
        -0.21328479051589966,
        -0.15087686479091644,
        0.41840025782585144,
        0.6206175684928894
      ],
      [
        0.11288624256849289,
        0.7976003289222717,
        -0.38640040159225464,
        -0.0856882706284523,
        0.09075672924518585,
        0.29561686515808105,
        0.02834240533411503
      ],
      [
        0.1887626051902771,
        -0.2284705638885498,
        -0.049207594245672226,
        -0.19986438751220703,
        0.10325192660093307,
        -0.0771796852350235,
        -0.45653945207595825
      ],
      [
        -0.23402996361255646,
        -0.04876096174120903,
        0.04612518474459648,
        0.52250736951828,
        0.12359508126974106,
        -0.09886179864406586,
        -0.22569683194160461
      ],
      [
        0.23678451776504517,
        0.20796361565589905,
        -0.04162456840276718,
        -0.46117159724235535,
        0.1984454244375229,
        0.06990464776754379,
        -0.37064483761787415
      ],
      [
        0.6327691078186035,
        0.6210543513298035,
        -0.6643929481506348,
        0.1356787383556366,
        -0.047333378344774246,
        -0.1263500154018402,
        0.0692581981420517
      ],
      [
        0.07596912980079651,
        -1.7906286716461182,
        0.21066264808177948,
        -0.14212074875831604,
        0.0334436260163784,
        0.027149813249707222,
        0.2944084703922272
      ],
      [
        0.3275119364261627,
        -0.48228928446769714,
        -0.5351544618606567,
        0.11275317519903183,
        0.13495489954948425,
        -0.288558691740036,
        -0.028642896562814713
      ],
      [
        -0.4741206765174866,
        0.04046264663338661,
        0.9551562666893005,
        -0.26526182889938354,
        0.03250467777252197,
        0.27804693579673767,
        0.12179625034332275
      ],
      [
        0.07790923863649368,
        0.327640563249588,
        0.2047538161277771,
        -0.39838844537734985,
        0.11492108553647995,
        -0.27055609226226807,
        -0.39671820402145386
      ],
      [
        -0.19394083321094513,
        0.2727004587650299,
        0.32353857159614563,
        -0.3731611371040344,
        0.2044191062450409,
        -0.08300113677978516,
        0.016678083688020706
      ],
      [
        -0.12998852133750916,
        -0.14747551083564758,
        0.26363977789878845,
        -0.04327663406729698,
        0.25927311182022095,
        0.13571879267692566,
        -0.34078481793403625
      ],
      [
        0.29130858182907104,
        0.519537091255188,
        0.17194099724292755,
        -0.8557427525520325,
        -0.12350671738386154,
        -0.5734492540359497,
        -0.07496389001607895
      ],
      [
        0.2787439823150635,
        -0.5718347430229187,
        1.4245084524154663,
        0.05304890125989914,
        0.014278088696300983,
        -0.1703137755393982,
        -0.5740853548049927
      ],
      [
        -0.12481566518545151,
        -0.3322116434574127,
        0.9976752400398254,
        0.1125650703907013,
        -0.002645452506840229,
        -0.04955684021115303,
        -0.5077263712882996
      ],
      [
        -1.0415884256362915,
        0.08688124269247055,
        0.10023248940706253,
        0.2210986316204071,
        -0.15083631873130798,
        -0.22703610360622406,
        0.027634572237730026
      ],
      [
        0.3675258755683899,
        0.11892342567443848,
        0.23765182495117188,
        0.27392226457595825,
        0.15174423158168793,
        0.017973357811570168,
        -0.27351465821266174
      ],
      [
        0.040976837277412415,
        0.5302190184593201,
        0.4923626184463501,
        -0.2427711933851242,
        0.22989366948604584,
        0.17468389868736267,
        -1.059796690940857
      ],
      [
        -0.18415753543376923,
        0.9748633503913879,
        0.751872718334198,
        -0.28602728247642517,
        0.11774741858243942,
        0.31520652770996094,
        0.3345944583415985
      ],
      [
        0.5958726406097412,
        -0.5759027600288391,
        0.24175375699996948,
        0.12900422513484955,
        -0.10739506036043167,
        -0.0227644219994545,
        -0.12114519625902176
      ],
      [
        0.0048168981447815895,
        0.39679986238479614,
        -1.265109896659851,
        0.04767400398850441,
        0.03139906004071236,
        -0.11894343048334122,
        0.11286367475986481
      ],
      [
        0.17395663261413574,
        -0.10401837527751923,
        -0.04776579886674881,
        -0.04338391497731209,
        0.12184739857912064,
        -0.22590766847133636,
        -0.13540683686733246
      ],
      [
        -0.057790208607912064,
        0.4052552580833435,
        -0.9518161416053772,
        -0.037532608956098557,
        -0.05008765310049057,
        0.23586857318878174,
        0.20138294994831085
      ],
      [
        -0.2927144169807434,
        0.054787952452898026,
        -0.5769714713096619,
        0.01629767380654812,
        -0.013488407246768475,
        -0.10336300730705261,
        0.008668978698551655
      ],
      [
        0.18910245597362518,
        -0.0410151407122612,
        0.3073866069316864,
        -0.11768347024917603,
        -0.05126354470849037,
        0.18744754791259766,
        0.9874829649925232
      ],
      [
        -0.02051633968949318,
        -0.6608113050460815,
        -0.051492996513843536,
        0.42231225967407227,
        -0.24574723839759827,
        -0.5637350678443909,
        1.0588823556900024
      ],
      [
        0.027290860190987587,
        -0.25069305300712585,
        0.9966422915458679,
        -0.043706923723220825,
        -0.016586342826485634,
        0.14953359961509705,
        0.0319393053650856
      ]
    ],
    "net.0.bias": [
      -0.36153727769851685,
      -0.24028857052326202,
      0.004528341349214315,
      0.09144339710474014,
      -0.4698127508163452,
      0.31901097297668457,
      -0.2725699543952942,
      -0.07708665728569031,
      0.40824320912361145,
      0.2678631842136383,
      0.4340662658214569,
      0.12752683460712433,
      -0.047332439571619034,
      -0.12017349153757095,
      -0.034681737422943115,
      0.4764900207519531,
      -0.15039169788360596,
      -0.3354339599609375,
      0.29343050718307495,
      0.31334200501441956,
      0.07116685062646866,
      -0.4842401146888733,
      -0.35712921619415283,
      0.15195629000663757,
      -0.26392894983291626,
      -0.19445472955703735,
      0.1853480339050293,
      0.4268648624420166,
      0.6311218738555908,
      0.1721343845129013,
      0.25173959136009216,
      -0.43300798535346985,
      -0.4038979709148407,
      0.20518743991851807,
      0.29988133907318115,
      0.1541946828365326,
      -0.2931545674800873,
      0.24305231869220734,
      0.3652888536453247,
      0.4059878885746002,
      -0.3935971260070801,
      -0.13623635470867157,
      -0.2548268437385559,
      0.4276268184185028,
      -0.12321127206087112,
      -0.15129287540912628,
      0.3092202842235565,
      -0.3718677759170532,
      -0.34710216522216797,
      -0.0033563761971890926,
      -0.1590946763753891,
      -0.08588669449090958,
      0.44884824752807617,
      -0.21419420838356018,
      0.11451220512390137,
      0.28872841596603394,
      -0.03907644376158714,
      0.04837112873792648,
      0.3368627429008484,
      0.029074832797050476,
      -0.1386479139328003,
      0.25284284353256226,
      0.09899155050516129,
      -0.44134023785591125,
      0.1403636336326599,
      -0.27039676904678345,
      0.5269148349761963,
      -0.2830709218978882,
      -0.4407562017440796,
      0.0254143625497818,
      0.5120458602905273,
      0.14437910914421082,
      0.020102661103010178,
      0.0851094201207161,
      0.17810989916324615,
      -0.161349818110466,
      -0.08510078489780426,
      -0.43653714656829834,
      -0.4860929548740387,
      0.09221268445253372
    ],
    "net.2.weight": [
      [
        -0.20045776665210724,
        -0.027889318764209747,
        0.054915651679039,
        0.18270951509475708,
        -0.08855171501636505,
        0.12394008785486221,
        -0.13431806862354279,
        0.2073345184326172,
        -0.1789010465145111,
        -0.028101427480578423,
        0.1992315948009491,
        -0.06444955617189407,
        0.07256678491830826,
        -0.0794689804315567,
        -0.010042405687272549,
        -0.40013042092323303,
        -0.14787238836288452,
        0.09624158591032028,
        -0.1517023742198944,
        -0.026310782879590988,
        -0.04257285222411156,
        -0.11048981547355652,
        0.11082187294960022,
        -0.2766132950782776,
        0.018825829029083252,
        0.22946712374687195,
        0.024116432294249535,
        0.1318090856075287,
        -0.4011712968349457,
        -0.021224990487098694,
        -0.04900282993912697,
        -0.04263560473918915,
        -0.1972806304693222,
        0.1888517439365387,
        0.15690301358699799,
        -0.07984592765569687,
        0.05620964989066124,
        -0.010361332446336746,
        0.116216279566288,
        0.10103535652160645,
        0.20743542909622192,
        -0.1587362289428711,
        -0.1412777155637741,
        -0.00018917980196420103,
        0.08609792590141296,
        0.16638189554214478,
        0.07161715626716614,
        -0.1000434085726738,
        0.16995343565940857,
        0.09711778163909912,
        0.0323888324201107,
        -0.1838984340429306,
        0.018954649567604065,
        0.12006641179323196,
        -0.0036744726821780205,
        -0.07672691345214844,
        0.10627476871013641,
        -0.1445695459842682,
        0.043779484927654266,
        -0.12293770164251328,
        -0.016078323125839233,
        -0.09872131049633026,
        -0.1543760895729065,
        -0.11468242108821869,
        -0.0556526854634285,
        -0.1089915931224823,
        -0.12507158517837524,
        0.25031083822250366,
        -0.10454899072647095,
        0.18986782431602478,
        -0.1315634846687317,
        -0.20040498673915863,
        0.08536392450332642,
        -0.07885395735502243,
        0.08481164276599884,
        0.026801105588674545,
        -0.031234893947839737,
        0.16582472622394562,
        0.17273958027362823,
        0.06295140087604523
      ],
      [
        0.038848876953125,
        -0.08726243674755096,
        0.13539990782737732,
        -0.0647566169500351,
        0.0656658485531807,
        0.2628417909145355,
        -0.005730269476771355,
        -0.019266167655587196,
        -0.0649089440703392,
        -0.13756969571113586,
        -0.025011122226715088,
        0.013596459291875362,
        -0.12038401514291763,
        -0.0748492181301117,
        -0.050749488174915314,
        -0.12938062846660614,
        0.0727706328034401,
        -0.006751475390046835,
        -0.06709707528352737,
        -0.14041659235954285,
        -0.005548947025090456,
        -0.0053736926056444645,
        0.0842510312795639,
        -0.21829308569431305,
        0.23957350850105286,
        0.12497453391551971,
        0.23956309258937836,
        -0.23595084249973297,
        0.13519152998924255,
        0.048430103808641434,
        -0.36032581329345703,
        0.05149383470416069,
        0.15725968778133392,
        0.058196790516376495,
        0.0694698691368103,
        0.48807209730148315,
        -0.15585282444953918,
        0.12939386069774628,
        0.18315885961055756,
        -0.11314413696527481,
        0.08014696836471558,
        -0.0709969699382782,
        -0.11177320033311844,
        0.019402241334319115,
        -0.14680445194244385,
        -0.12983199954032898,
        -0.006786711048334837,
        0.175786554813385,
        0.10239601135253906,
        -0.01308908686041832,
        0.17024502158164978,
        -0.22973650693893433,
        0.07101224362850189,
        -0.04537992179393768,
        0.07589446008205414,
        -0.17779746651649475,
        0.16854742169380188,
        -0.12915481626987457,
        0.039553023874759674,
        -0.23936428129673004,
        -0.0876440554857254,
        0.10423204302787781,
        -0.006892770994454622,
        0.03234684467315674,
        -0.05412622541189194,
        -0.09918101131916046,
        0.10325533151626587,
        0.13394562900066376,
        0.16747047007083893,
        0.03266846388578415,
        -0.04432922601699829,
        0.09563766419887543,
        0.028719857335090637,
        -0.22822964191436768,
        -0.08500584214925766,
        -0.06797478348016739,
        -0.04997120425105095,
        -0.12156863510608673,
        0.09032466262578964,
        0.07973655313253403
      ],
      [
        0.11226397752761841,
        0.038961026817560196,
        -0.0875178650021553,
        -0.02947380021214485,
        -0.14313893020153046,
        0.0901910588145256,
        0.19055794179439545,
        -0.09857311844825745,
        0.16427314281463623,
        0.08815693855285645,
        -0.07082972675561905,
        0.09694869071245193,
        0.12748830020427704,
        0.07129757851362228,
        -0.11042647063732147,
        0.11244802176952362,
        -0.0302553903311491,
        0.14974655210971832,
        0.06340251863002777,
        0.2335718721151352,
        0.14068806171417236,
        -0.08496526628732681,
        0.11729591339826584,
        -0.050569694489240646,
        -0.10654375702142715,
        -0.016733277589082718,
        -0.01863543875515461,
        0.09081973880529404,
        -0.017267515882849693,
        -0.04915721341967583,
        0.21679942309856415,
        -0.09317655116319656,
        0.06668456643819809,
        -0.027840150520205498,
        -0.21817325055599213,
        0.13769106566905975,
        0.07086116075515747,
        -0.14119353890419006,
        -0.07580142468214035,
        -0.00025513197761029005,
        -0.11513809859752655,
        0.16981972754001617,
        0.011564714834094048,
        0.14411579072475433,
        0.19194523990154266,
        -0.06415216624736786,
        -0.018711453303694725,
        -0.05422366037964821,
        -0.013041703030467033,
        -0.05309440940618515,
        -0.11948005855083466,
        0.11877153813838959,
        0.02971584163606167,
        0.02695685252547264,
        0.13484911620616913,
        0.021540582180023193,
        -0.10029680281877518,
        0.03208104521036148,
        0.1441676765680313,
        -0.16536276042461395,
        -0.033167365938425064,
        0.07836996018886566,
        0.11336136609315872,
        0.009117165580391884,
        0.057229023426771164,
        0.09142474830150604,
        -0.11215976625680923,
        -0.22255243360996246,
        -0.07283362746238708,
        0.024652987718582153,
        0.062179431319236755,
        0.05209716409444809,
        -0.15215183794498444,
        0.26109716296195984,
        0.0386669859290123,
        0.09002436697483063,
        0.06773581355810165,
        0.017860054969787598,
        -0.11972048133611679,
        -0.17091628909111023
      ],
      [
        -0.18914765119552612,
        -0.11864116787910461,
        -0.2139447182416916,
        0.17837145924568176,
        0.06505316495895386,
        -0.24062992632389069,
        0.10773086547851562,
        0.03534531593322754,
        0.05230236425995827,
        0.25057685375213623,
        0.07540995627641678,
        -0.04465358331799507,
        0.08537072688341141,
        0.056636322289705276,
        -0.026634223759174347,
        0.14643603563308716,
        -0.28853246569633484,
        -0.0995299369096756,
        -0.07370538264513016,
        0.15044017136096954,
        0.06741153448820114,
        0.06528250873088837,
        -0.03308572620153427,
        0.03313807398080826,
        -0.039638157933950424,
        0.15274012088775635,
        -0.2738497257232666,
        -0.10163239389657974,
        0.14663633704185486,
        -0.3406478762626648,
        0.4787972867488861,
        -0.03851297125220299,
        -0.09718796610832214,
        0.19359883666038513,
        0.17396944761276245,
        -0.16099336743354797,
        0.002554382663220167,
        -0.23862668871879578,
        -0.18811921775341034,
        0.13272005319595337,
        0.1433991938829422,
        -0.17852632701396942,
        -0.19472067058086395,
        0.05443213880062103,
        0.4052630662918091,
        0.07528429478406906,
        0.11998165398836136,
        -0.04073172062635422,
        0.22615613043308258,
        0.12593944370746613,
        0.18201395869255066,
        -0.23729932308197021,
        -0.1894536018371582,
        0.038559336215257645,
        0.057734180241823196,
        0.042800672352313995,
        0.17670594155788422,
        -0.13404282927513123,
        0.2759459912776947,
        -0.2729543149471283,
        0.14841070771217346,
        -0.3909493088722229,
        -0.1049935594201088,
        -0.07873152941465378,
        -0.028583697974681854,
        -0.12768463790416718,
        -0.33372625708580017,
        -0.14598992466926575,
        0.012547114863991737,
        0.07334695011377335,
        -0.1971578150987625,
        -0.23574873805046082,
        0.06482591480016708,
        0.28714504837989807,
        0.05529847368597984,
        0.14609627425670624,
        0.04304354637861252,
        -0.20193807780742645,
        0.17723821103572845,
        -0.23562179505825043
      ]
    ],
    "net.2.bias": [
      -0.05234455317258835,
      -0.007368427235633135,
      0.19216735661029816,
      -0.1911981850862503
    ]
  },
  "F2": {
    "n_in": 4,
    "n_hid": 60,
    "n_out": 4,
    "activation": "tanh",
    "net.0.weight": [
      [
        0.24324922263622284,
        -0.10567731410264969,
        0.37441378831863403,
        0.10031075775623322
      ],
      [
        -0.4216567277908325,
        0.3603333830833435,
        -0.022680897265672684,
        -0.48338860273361206
      ],
      [
        0.24212457239627838,
        0.44092145562171936,
        -0.5293672680854797,
        0.022068152204155922
      ],
      [
        0.3397367000579834,
        -0.12572388350963593,
        0.16698065400123596,
        0.03929799050092697
      ],
      [
        -0.28547367453575134,
        0.6399941444396973,
        0.2900954782962799,
        0.49137037992477417
      ],
      [
        -0.15611864626407623,
        -0.1529451161623001,
        0.17061790823936462,
        -0.3677435517311096
      ],
      [
        0.23549577593803406,
        0.35528892278671265,
        0.11753112077713013,
        -0.17843696475028992
      ],
      [
        0.5029404163360596,
        -0.6372432708740234,
        0.924083411693573,
        -1.2304273843765259
      ],
      [
        -0.45548662543296814,
        -0.08067301660776138,
        0.2575336694717407,
        0.1318020522594452
      ],
      [
        0.12167209386825562,
        -0.3377459943294525,
        0.08819208294153214,
        0.0284232497215271
      ],
      [
        0.21950489282608032,
        0.5172238349914551,
        0.24522867798805237,
        -0.19757138192653656
      ],
      [
        0.026268035173416138,
        -0.3472522497177124,
        -0.0170726515352726,
        0.08728989213705063
      ],
      [
        -0.22916072607040405,
        0.2171465903520584,
        -0.11194635927677155,
        -0.052088700234889984
      ],
      [
        0.11373189836740494,
        -0.4696488678455353,
        0.21661807596683502,
        -0.020634733140468597
      ],
      [
        -0.08263994008302689,
        -0.172984316945076,
        0.3040783107280731,
        0.8531251549720764
      ],
      [
        -0.4130057096481323,
        0.2744617760181427,
        -0.5769336223602295,
        -0.3832729160785675
      ],
      [
        0.1764059215784073,
        -0.030001893639564514,
        -0.28214994072914124,
        -0.3885064125061035
      ],
      [
        -0.25903621315956116,
        0.1522374451160431,
        -0.6488522291183472,
        -0.47746920585632324
      ],
      [
        0.3057604730129242,
        -0.5552942156791687,
        -0.4054982364177704,
        -0.1444384604692459
      ],
      [
        -0.05422668904066086,
        -0.4106140732765198,
        -0.24527785181999207,
        -0.04008479043841362
      ],
      [
        -0.5052019357681274,
        -0.04022999107837677,
        -0.3401064872741699,
        -0.25590553879737854
      ],
      [
        0.17024379968643188,
        -0.23216891288757324,
        -0.4445511996746063,
        0.7022944688796997
      ],
      [
        0.03947426378726959,
        0.49099379777908325,
        -0.2861029803752899,
        -0.08610770106315613
      ],
      [
        -0.10953082889318466,
        -0.21052920818328857,
        0.5211347937583923,
        -1.0894720554351807
      ],
      [
        0.0665443167090416,
        0.08047538995742798,
        -0.07585587352514267,
        -0.3413587212562561
      ],
      [
        0.3493770658969879,
        -0.4777171015739441,
        0.24365513026714325,
        -0.1729225218296051
      ],
      [
        0.06816424429416656,
        -0.8436464667320251,
        0.4311388432979584,
        -0.3030245006084442
      ],
      [
        -0.4066382944583893,
        0.07839061319828033,
        0.2980590760707855,
        -0.3166094124317169
      ],
      [
        -0.14647842943668365,
        0.5155373811721802,
        -0.01670307293534279,
        0.16890157759189606
      ],
      [
        -0.3431413769721985,
        -0.15494410693645477,
        -0.2768371105194092,
        0.6703169345855713
      ],
      [
        0.2663022577762604,
        -0.3746165931224823,
        0.2032565176486969,
        -0.0809684619307518
      ],
      [
        -0.16416800022125244,
        -0.24328240752220154,
        -0.8570556044578552,
        1.3757623434066772
      ],
      [
        -0.2701314091682434,
        -0.4550243616104126,
        -0.4606703817844391,
        0.25521165132522583
      ],
      [
        0.1733262687921524,
        0.1178731694817543,
        0.030101433396339417,
        -0.39605453610420227
      ],
      [
        -0.05833009257912636,
        -0.30834057927131653,
        0.569679319858551,
        -0.9213240146636963
      ],
      [
        -0.3016505837440491,
        -0.19018445909023285,
        -0.12971866130828857,
        0.44225138425827026
      ],
      [
        0.39578574895858765,
        -0.3390316367149353,
        0.05280303582549095,
        0.29904189705848694
      ],
      [
        0.27712270617485046,
        0.3552452325820923,
        -0.03581761568784714,
        -0.4159543514251709
      ],
      [
        0.5363574624061584,
        -0.3347732126712799,
        0.27953431010246277,
        -0.33344340324401855
      ],
      [
        0.23637934029102325,
        0.09088779985904694,
        0.35302066802978516,
        -0.5422736406326294
      ],
      [
        -0.11013951897621155,
        -0.09306514263153076,
        0.03921346738934517,
        0.6100366711616516
      ],
      [
        -0.10591419041156769,
        -0.2337988317012787,
        -0.05650653690099716,
        -0.19838351011276245
      ],
      [
        0.4044450521469116,
        -0.6298415660858154,
        -0.4177686870098114,
        -0.6309489011764526
      ],
      [
        0.16488999128341675,
        0.26225507259368896,
        -0.41589948534965515,
        0.13669565320014954
      ],
      [
        0.37523436546325684,
        -0.09607338160276413,
        -0.07566971331834793,
        -0.14875337481498718
      ],
      [
        0.024584155529737473,
        0.2732785642147064,
        -0.08182406425476074,
        0.033887799829244614
      ],
      [
        0.4632875621318817,
        -0.32383736968040466,
        0.5952767729759216,
        0.47442758083343506
      ],
      [
        -0.3907697796821594,
        -0.16134142875671387,
        0.04472224786877632,
        -0.0946405678987503
      ],
      [
        0.10367301106452942,
        0.1497463881969452,
        0.4813685119152069,
        -0.498744934797287
      ],
      [
        -0.473746120929718,
        0.05867324396967888,
        0.1409207433462143,
        -0.3717653155326843
      ],
      [
        -0.31211957335472107,
        -0.30809518694877625,
        -0.13876047730445862,
        -0.25842756032943726
      ],
      [
        0.4989888370037079,
        -0.17654037475585938,
        0.22088715434074402,
        0.47768691182136536
      ],
      [
        0.23088018596172333,
        -0.4942997694015503,
        0.357107549905777,
        0.02350727654993534
      ],
      [
        0.5179570317268372,
        -0.7470508217811584,
        0.21132031083106995,
        0.9364686608314514
      ],
      [
        -0.4539177417755127,
        -0.1810518205165863,
        0.30926382541656494,
        -0.24361427128314972
      ],
      [
        -0.05179578810930252,
        0.2798171639442444,
        0.04755224287509918,
        0.37957146763801575
      ],
      [
        0.49428442120552063,
        0.47309452295303345,
        0.09163063019514084,
        0.46190887689590454
      ],
      [
        -0.37055423855781555,
        -0.40010666847229004,
        -0.13502344489097595,
        -0.1712583601474762
      ],
      [
        0.6154043078422546,
        -0.0011051716282963753,
        0.4035605192184448,
        0.2423955798149109
      ],
      [
        -0.2835438549518585,
        0.03783920407295227,
        0.28504830598831177,
        0.12623213231563568
      ]
    ],
    "net.0.bias": [
      0.20095841586589813,
      -0.2188750058412552,
      -0.1105743795633316,
      0.3944404721260071,
      -0.016634874045848846,
      -0.2866777777671814,
      0.3976507782936096,
      0.5858509540557861,
      -0.20329377055168152,
      -0.10638371109962463,
      -0.24866391718387604,
      -0.4483256936073303,
      0.2606712579727173,
      -0.23708190023899078,
      0.33966121077537537,
      -0.38768503069877625,
      -0.09993617981672287,
      0.0678984522819519,
      0.1288737803697586,
      0.3135565221309662,
      0.31270861625671387,
      0.4238482415676117,
      -0.16336162388324738,
      -0.5372833609580994,
      -0.4058345854282379,
      0.02312302775681019,
      0.6534790396690369,
      -0.05277452617883682,
      -0.022312745451927185,
      -0.3542225956916809,
      0.10376019775867462,
      0.20718912780284882,
      -0.5286418795585632,
      -0.31811100244522095,
      0.33379703760147095,
      0.0895463302731514,
      -0.07882768660783768,
      0.01081487163901329,
      -0.1456543654203415,
      -0.38087478280067444,
      -0.32677003741264343,
      0.33756223320961,
      -0.1256742626428604,
      -0.08597627282142639,
      -0.0973070040345192,
      -0.2742633819580078,
      -0.07316473126411438,
      -0.38739821314811707,
      0.33524835109710693,
      0.306356817483902,
      -0.2485325038433075,
      -0.16697479784488678,
      0.14681024849414825,
      -0.2654934227466583,
      0.18928495049476624,
      0.1951342523097992,
      -0.24766764044761658,
      -0.03388328105211258,
      0.022575855255126953,
      0.34620511531829834
    ],
    "net.2.weight": [
      [
        -0.06439713388681412,
        0.020091086626052856,
        0.20233756303787231,
        -0.12996968626976013,
        0.12455600500106812,
        -0.02812718227505684,
        -0.1038345992565155,
        0.2897151708602905,
        0.230393648147583,
        -0.08703918009996414,
        0.09246685355901718,
        0.14780652523040771,
        -0.04697742685675621,
        -0.14186908304691315,
        0.14967648684978485,
        0.03379298374056816,
        -0.07292485982179642,
        0.07487210631370544,
        -0.1580113172531128,
        0.03884882852435112,
        0.057494405657052994,
        0.04542648047208786,
        0.1711888164281845,
        -0.15903078019618988,
        -0.10585560649633408,
        -0.10962970554828644,
        0.02756459452211857,
        0.08335055410861969,
        0.21662558615207672,
        -0.14064794778823853,
        -0.12438506633043289,
        0.20447857677936554,
        0.050286952406167984,
        -0.06113557890057564,
        0.032891858369112015,
        0.06334815919399261,
        0.06249810755252838,
        -0.03496066853404045,
        -0.19530577957630157,
        -0.1491318792104721,
        0.02999381348490715,
        0.05806661397218704,
        -0.14059391617774963,
        0.01830761879682541,
        -0.13041041791439056,
        0.16508889198303223,
        -0.08089509606361389,
        0.11872807890176773,
        0.10655651986598969,
        0.10251187533140182,
        -0.0024465539027005434,
        -0.10046884417533875,
        -0.08102651685476303,
        -0.3045320510864258,
        0.05606861785054207,
        0.18647992610931396,
        0.03637523576617241,
        -0.10922599583864212,
        -0.18933573365211487,
        0.02960554137825966
      ],
      [
        0.0633842870593071,
        0.009060398675501347,
        0.2417280375957489,
        -0.051706887781620026,
        -0.00919794850051403,
        -0.03817789629101753,
        0.10966607928276062,
        0.06978307664394379,
        -0.008293642662465572,
        -0.16444838047027588,
        0.1017719954252243,
        -0.02142149955034256,
        0.21194209158420563,
        -0.25091639161109924,
        -0.041858263313770294,
        -0.05692441388964653,
        -0.030056456103920937,
        0.021051032468676567,
        0.014318945817649364,
        -0.036951158195734024,
        -0.08297336101531982,
        -0.046989742666482925,
        0.13835853338241577,
        0.044312722980976105,
        -0.09658216685056686,
        -0.28559204936027527,
        -0.21121886372566223,
        -0.006985731888562441,
        0.14620675146579742,
        0.07611183077096939,
        -0.18751659989356995,
        -0.08212137222290039,
        -0.12575653195381165,
        -0.1893901824951172,
        -0.09670039266347885,
        0.1911371797323227,
        -0.11304960399866104,
        -0.05876784399151802,
        -0.20768098533153534,
        -0.0829320102930069,
        0.0533723384141922,
        0.04519267752766609,
        -0.07020282000303268,
        0.09634998440742493,
        -0.09735409915447235,
        -0.052940499037504196,
        0.030707933008670807,
        0.04793485626578331,
        0.15897856652736664,
        -0.014007912948727608,
        0.1299571841955185,
        -0.1960381716489792,
        -0.14091575145721436,
        0.0002487938618287444,
        -0.0804242193698883,
        -0.027004748582839966,
        -0.031236499547958374,
        0.09515835344791412,
        -0.07507194578647614,
        -0.05978258326649666
      ],
      [
        -0.107333704829216,
        -0.08218110352754593,
        0.1223997175693512,
        -0.002651508431881666,
        0.16474157571792603,
        -0.049003563821315765,
        -0.0004780914750881493,
        0.18249480426311493,
        0.06969673186540604,
        0.06076886132359505,
        -0.04855101928114891,
        -0.14314581453800201,
        -0.08761688321828842,
        -0.13106094300746918,
        0.20563560724258423,
        0.13642556965351105,
        0.1218087375164032,
        0.11717768758535385,
        -0.06299056112766266,
        -0.0969412550330162,
        0.08813925087451935,
        0.15720391273498535,
        0.03673620894551277,
        -0.20874212682247162,
        0.07235215604305267,
        -0.004466955550014973,
        0.08597660809755325,
        0.014691818505525589,
        0.17698794603347778,
        -0.10616977512836456,
        -0.08950495719909668,
        0.08646210283041,
        -0.04021155461668968,
        -0.11173894256353378,
        0.22573606669902802,
        0.010200436227023602,
        0.07979314774274826,
        -0.10665876418352127,
        0.050707217305898666,
        -0.05917511507868767,
        -0.08360782265663147,
        -0.09764290601015091,
        -0.12693731486797333,
        0.10997943580150604,
        -0.010339739732444286,
        0.12960265576839447,
        -0.04116596654057503,
        -0.01463699247688055,
        -0.0337822251021862,
        -0.10211323201656342,
        0.03687582165002823,
        -0.10559236258268356,
        -0.040191859006881714,
        -0.0749179869890213,
        0.0018608240643516183,
        0.0029014176689088345,
        0.16009002923965454,
        0.034012321382761,
        -0.09841915965080261,
        -0.033107489347457886
      ],
      [
        0.019167939200997353,
        0.14885585010051727,
        -0.12423975020647049,
        -0.0076194521971046925,
        -0.056266721338033676,
        -0.01952645368874073,
        0.13255734741687775,
        -0.001197952777147293,
        0.1179954782128334,
        0.030826231464743614,
        0.007921015843749046,
        -0.10040019452571869,
        -0.09327083826065063,
        0.06951765716075897,
        0.05130288377404213,
        0.07136858254671097,
        0.1296326369047165,
        -0.21184813976287842,
        0.12529736757278442,
        0.10900447517633438,
        -0.04207027703523636,
        0.08611199259757996,
        0.03024134784936905,
        -0.04820583760738373,
        -0.024704739451408386,
        0.05688299238681793,
        -0.06910383701324463,
        0.08155666291713715,
        0.10247251391410828,
        0.032645318657159805,
        -0.003041677176952362,
        -0.05815500766038895,
        0.01604243367910385,
        -0.07551256567239761,
        -0.05546434596180916,
        -0.13803908228874207,
        0.039353445172309875,
        0.02311781421303749,
        -8.82911917869933e-05,
        -0.0780760869383812,
        0.07071970403194427,
        -0.10615748912096024,
        0.017592092975974083,
        -0.14441567659378052,
        -0.03048701584339142,
        0.08516658842563629,
        -0.0688071921467781,
        -0.059994887560606,
        0.13874775171279907,
        -0.10149205476045609,
        -0.030270328745245934,
        -0.0003069150843657553,
        0.04201740026473999,
        -0.05440337583422661,
        0.012179188430309296,
        0.045851849019527435,
        0.036352548748254776,
        -0.03664379566907883,
        -0.10751459747552872,
        0.01662967912852764
      ]
    ],
    "net.2.bias": [
      -0.038521986454725266,
      0.06750214099884033,
      -0.12166878581047058,
      -0.002023065695539117
    ]
  }
}