{
  "name": "PV3",
  "type": "F1+H1+F2",
  "t_step": 0.001,
  "normfacs": {
    "G": {
      "scale": 999.9949951171875,
      "offset": 781.4698486328125
    },
    "Ud": {
      "scale": 0.4200015068054199,
      "offset": 1.012689471244812
    },
    "Uq": {
      "scale": 1.0,
      "offset": -0.012256158515810966
    },
    "Vd": {
      "scale": 349.07000732421875,
      "offset": 218.1281280517578
    },
    "Vq": {
      "scale": 297.98748779296875,
      "offset": -8.231996536254883
    },
    "GVrms": {
      "scale": 417096.65625,
      "offset": 244942.328125
    },
    "Ctrl": {
      "scale": 1.0,
      "offset": 0.7485628724098206
    },
    "Vdc": {
      "scale": 643.7698364257812,
      "offset": 458.31390380859375
    },
    "Idc": {
      "scale": 4.956446170806885,
      "offset": 1.9286991357803345
    },
    "Id": {
      "scale": 5.881160259246826,
      "offset": 2.5773351192474365
    },
    "Iq": {
      "scale": 5.025164604187012,
      "offset": -0.10374172776937485
    }
  },
  "model_folder": "./ucf10/",
  "model_root": "ucf10",
  "data_path": "d:/data/ucf3/ucf9.hdf5",
  "lr": 0.001,
  "eps": 1e-08,
  "h5grp_prefix": "ucf",
  "num_iter": 2000,
  "continue_iterations": false,
  "print_freq": 10,
  "batch_size": 105,
  "n_validation_pct": 15,
  "n_validation_seed": 99,
  "n_skip": 0,
  "n_trunc": 0,
  "n_dec": 1,
  "n_loss_skip": 30,
  "n_pad": 500,
  "gtype": "stable2nd",
  "na": 2,
  "nb": 3,
  "nk": 0,
  "activation": "tanh",
  "nh1": 80,
  "nh2": 60,
  "COL_T": [
    "t"
  ],
  "COL_Y": [
    "Vdc",
    "Idc",
    "Id",
    "Iq"
  ],
  "COL_U": [
    "G",
    "Ud",
    "Uq",
    "Vd",
    "Vq",
    "GVrms",
    "Ctrl"
  ],
  "H1": {
    "n_in": 4,
    "n_out": 4,
    "n_b": 3,
    "n_a": 2,
    "n_k": 0,
    "b_0_0": [
      -0.5222867131233215,
      -0.541082501411438,
      -0.5444468855857849
    ],
    "a_0_0": [
      -0.4592858552932739,
      0.17099733650684357
    ],
    "rho_0_0": -0.3494398891925812,
    "psi_0_0": -0.7880459427833557,
    "b_0_1": [
      0.20085225999355316,
      0.2341950386762619,
      0.23600459098815918
    ],
    "a_0_1": [
      -0.24702604115009308,
      0.15064629912376404
    ],
    "rho_0_1": -0.4551719129085541,
    "psi_0_1": -0.41834262013435364,
    "b_0_2": [
      -0.10596862435340881,
      -0.15341798961162567,
      -0.18387462198734283
    ],
    "a_0_2": [
      -0.21628232300281525,
      0.19108299911022186
    ],
    "rho_0_2": -0.25281640887260437,
    "psi_0_2": -0.321018785238266,
    "b_0_3": [
      -0.13571682572364807,
      -0.07821819931268692,
      -0.018145810812711716
    ],
    "a_0_3": [
      0.04043576121330261,
      0.24587605893611908
    ],
    "rho_0_3": -0.01656460016965866,
    "psi_0_3": 0.051940422505140305,
    "b_1_0": [
      0.3494895398616791,
      0.3456466495990753,
      0.3131897747516632
    ],
    "a_1_0": [
      -0.27562054991722107,
      0.1833515167236328
    ],
    "rho_1_0": -0.28921666741371155,
    "psi_1_0": -0.4234192669391632,
    "b_1_1": [
      -0.5463603138923645,
      -0.5167250037193298,
      -0.45911771059036255
    ],
    "a_1_1": [
      -0.3595927953720093,
      0.19922156631946564
    ],
    "rho_1_1": -0.21546000242233276,
    "psi_1_1": -0.5406797528266907,
    "b_1_2": [
      -0.7788205742835999,
      -0.7510172724723816,
      -0.7404407858848572
    ],
    "a_1_2": [
      -0.5743544697761536,
      0.2523801624774933
    ],
    "rho_1_2": 0.009498131461441517,
    "psi_1_2": -0.8174392580986023,
    "b_1_3": [
      -0.2406507134437561,
      -0.2767316699028015,
      -0.3121384084224701
    ],
    "a_1_3": [
      -0.2690841257572174,
      0.13806454837322235
    ],
    "rho_1_3": -0.5254856944084167,
    "psi_1_3": -0.4808003306388855,
    "b_2_0": [
      -0.3138004243373871,
      -0.3308729827404022,
      -0.33206769824028015
    ],
    "a_2_0": [
      -0.20641537010669708,
      0.14394544064998627
    ],
    "rho_2_0": -0.4920895993709564,
    "psi_2_0": -0.35444173216819763,
    "b_2_1": [
      0.5650475025177002,
      0.6367654204368591,
      0.6526856422424316
    ],
    "a_2_1": [
      -0.4790363907814026,
      0.15983006358146667
    ],
    "rho_2_1": -0.4063505232334137,
    "psi_2_1": -0.8687247633934021,
    "b_2_2": [
      0.11991147696971893,
      0.04848296195268631,
      0.032381024211645126
    ],
    "a_2_2": [
      -0.07304645329713821,
      0.27309566736221313
    ],
    "rho_2_2": 0.09040369093418121,
    "psi_2_2": -0.08911778032779694,
    "b_2_3": [
      -0.20468062162399292,
      -0.1383134424686432,
      -0.107662633061409
    ],
    "a_2_3": [
      -0.11828067153692245,
      0.22945858538150787
    ],
    "rho_2_3": -0.08397604525089264,
    "psi_2_3": -0.15792562067508698,
    "b_3_0": [
      0.6354703903198242,
      0.5628349781036377,
      0.4654717445373535
    ],
    "a_3_0": [
      -0.9792861342430115,
      0.44291356205940247
    ],
    "rho_3_0": 0.6879804730415344,
    "psi_3_0": -1.1700942516326904,
    "b_3_1": [
      -1.1758174896240234,
      -1.0445609092712402,
      -0.9118639826774597
    ],
    "a_3_1": [
      -1.3557119369506836,
      0.6328992247581482
    ],
    "rho_3_1": 1.358708143234253,
    "psi_3_1": -1.5481534004211426,
    "b_3_2": [
      0.46577513217926025,
      0.38832318782806396,
      0.3468538224697113
    ],
    "a_3_2": [
      -0.3600431978702545,
      0.2048812359571457
    ],
    "rho_3_2": -0.19001713395118713,
    "psi_3_2": -0.5330630540847778,
    "b_3_3": [
      -0.31891539692878723,
      -0.24873460829257965,
      -0.19152021408081055
    ],
    "a_3_3": [
      -0.3798522353172302,
      0.31291598081588745
    ],
    "rho_3_3": 0.23868252336978912,
    "psi_3_3": -0.4484308063983917
  },
  "H1s": null,
  "Q1s": null,
  "F1": {
    "n_in": 7,
    "n_hid": 80,
    "n_out": 4,
    "activation": "tanh",
    "net.0.weight": [
      [
        0.09564521908760071,
        0.7515764832496643,
        -0.12208443135023117,
        -0.293192982673645,
        0.6845312118530273,
        0.07244440168142319,
        0.015340489335358143
      ],
      [
        0.31183114647865295,
        0.2299128621816635,
        -0.01125514879822731,
        -0.5943620204925537,
        0.3048078417778015,
        -0.3403478264808655,
        -0.2479412704706192
      ],
      [
        -0.08544393628835678,
        -0.10660931468009949,
        0.8694515228271484,
        0.2603243291378021,
        -0.48439261317253113,
        -0.1402578055858612,
        0.17391547560691833
      ],
      [
        0.32163551449775696,
        -0.458325058221817,
        0.4185461103916168,
        -0.08036792278289795,
        -0.4951372742652893,
        0.3578941524028778,
        -0.41665589809417725
      ],
      [
        -0.039609652012586594,
        -0.5559083223342896,
        -0.02610998973250389,
        0.09846276044845581,
        -1.1257679462432861,
        -0.305155873298645,
        -0.21436499059200287
      ],
      [
        -0.41396602988243103,
        -0.1325659602880478,
        0.6157158017158508,
        0.240882009267807,
        -0.45389431715011597,
        -0.005215747747570276,
        -0.23223066329956055
      ],
      [
        0.17325890064239502,
        -0.11447765678167343,
        -0.6079861521720886,
        0.16147591173648834,
        0.7296922206878662,
        0.3904430568218231,
        -0.13086096942424774
      ],
      [
        -0.039689213037490845,
        0.18342646956443787,
        0.9432893991470337,
        0.11283028870820999,
        -0.4259490370750427,
        0.25196558237075806,
        -0.21233287453651428
      ],
      [
        0.10945132374763489,
        -1.7624136209487915,
        -1.075388789176941,
        -0.4981231987476349,
        0.2702678442001343,
        -0.09701350331306458,
        -0.32408013939857483
      ],
      [
        0.06377189606428146,
        -0.2328377664089203,
        0.2637041211128235,
        0.09553982317447662,
        -0.43587273359298706,
        0.2677924335002899,
        0.34265345335006714
      ],
      [
        -0.6163987517356873,
        -1.3384430408477783,
        -0.4055832326412201,
        0.5837810635566711,
        -0.8063891530036926,
        0.5098784565925598,
        0.10913056880235672
      ],
      [
        -0.4587399959564209,
        -0.2592318058013916,
        -0.8726168274879456,
        -0.4655361771583557,
        0.6799170970916748,
        0.11455713212490082,
        -0.4582217037677765
      ],
      [
        0.16535857319831848,
        0.22017520666122437,
        -0.35324764251708984,
        -0.018676327541470528,
        0.7866727113723755,
        -0.09801934659481049,
        0.23208898305892944
      ],
      [
        0.2696012556552887,
        0.23939266800880432,
        -0.3602701425552368,
        -0.5693816542625427,
        0.07701551169157028,
        0.24676170945167542,
        0.10999742895364761
      ],
      [
        -0.3362119793891907,
        -0.934040367603302,
        0.6546998023986816,
        0.10289038717746735,
        -0.33529040217399597,
        -0.17499913275241852,
        -0.3465605676174164
      ],
      [
        -0.013241647742688656,
        -0.6493636965751648,
        -1.2582217454910278,
        -0.28009727597236633,
        0.007269686087965965,
        -0.390300452709198,
        0.03717126324772835
      ],
      [
        -0.17690742015838623,
        0.20489640533924103,
        -0.03545854240655899,
        -0.752458393573761,
        0.27898091077804565,
        -0.010066662915050983,
        0.07727321982383728
      ],
      [
        0.03619810938835144,
        -0.11994238197803497,
        0.34413444995880127,
        -0.10303100198507309,
        -0.16251885890960693,
        -0.3022700250148773,
        -0.1874227225780487
      ],
      [
        -0.11852004379034042,
        -0.45811334252357483,
        -0.5811548829078674,
        -0.4424916207790375,
        0.41954848170280457,
        -0.045695457607507706,
        -0.2816125452518463
      ],
      [
        -0.09795356541872025,
        -0.49333304166793823,
        0.11163506656885147,
        0.010039065033197403,
        -0.5507093667984009,
        0.08210746198892593,
        0.20701709389686584
      ],
      [
        0.4499998390674591,
        0.05602174997329712,
        0.7825791835784912,
        0.0017722571501508355,
        -0.8349887728691101,
        -0.12992528080940247,
        0.2933434247970581
      ],
      [
        0.24097789824008942,
        -0.4991018772125244,
        -0.9913912415504456,
        -0.09483890235424042,
        -0.1220826804637909,
        0.15647976100444794,
        0.4465472102165222
      ],
      [
        0.25259387493133545,
        -1.813276767730713,
        -0.00717135239392519,
        -0.2214444875717163,
        -0.8257876634597778,
        -0.2883802652359009,
        -0.08125433325767517
      ],
      [
        -0.05135512351989746,
        -0.5547441840171814,
        -0.9273375272750854,
        -0.18339939415454865,
        0.3482134938240051,
        -0.26802438497543335,
        0.09734094142913818
      ],
      [
        -0.29320862889289856,
        0.1016506776213646,
        -0.4338182210922241,
        -0.14586259424686432,
        0.43975886702537537,
        0.1190386712551117,
        -0.27800384163856506
      ],
      [
        0.20977967977523804,
        0.23491300642490387,
        0.036858852952718735,
        0.49452635645866394,
        -0.738334059715271,
        -0.1238543838262558,
        -0.06745938956737518
      ],
      [
        0.25374549627304077,
        0.24419155716896057,
        0.027917923405766487,
        0.2105892151594162,
        0.2991669774055481,
        -0.08465476334095001,
        -0.29543739557266235
      ],
      [
        0.44209417700767517,
        1.3161202669143677,
        0.7387317419052124,
        -0.7913812398910522,
        0.23788903653621674,
        -0.37716934084892273,
        0.0058881803415715694
      ],
      [
        -0.28274083137512207,
        0.11930567026138306,
        -0.4705643057823181,
        -0.03977538272738457,
        0.6179549694061279,
        0.19215047359466553,
        -0.3136502802371979
      ],
      [
        -0.26783037185668945,
        -0.09897886961698532,
        0.8160514831542969,
        0.24557510018348694,
        1.6195071935653687,
        0.4294341802597046,
        0.24013671278953552
      ],
      [
        0.12537439167499542,
        -0.06012675166130066,
        -0.0071462648920714855,
        0.5438126921653748,
        0.12362151592969894,
        0.23251691460609436,
        -0.2366788387298584
      ],
      [
        -0.200505793094635,
        0.1079605221748352,
        -0.8650410771369934,
        0.3539658486843109,
        0.6374669075012207,
        0.3197766840457916,
        0.09425068646669388
      ],
      [
        -0.3302324116230011,
        0.9143633842468262,
        -0.3753744661808014,
        -0.08416596800088882,
        0.38087403774261475,
        -0.12325555086135864,
        0.047593507915735245
      ],
      [
        0.17700284719467163,
        -0.25528591871261597,
        0.5600979924201965,
        0.13824757933616638,
        -0.7786707282066345,
        0.05015192925930023,
        -0.4379052221775055
      ],
      [
        -0.25736409425735474,
        -0.2002360224723816,
        0.11990165710449219,
        0.30143705010414124,
        -0.767713189125061,
        -0.014916187152266502,
        0.18042084574699402
      ],
      [
        -0.195234015583992,
        0.7632644176483154,
        -0.42840975522994995,
        0.11741423606872559,
        0.6874380707740784,
        -0.08089691400527954,
        0.2212049812078476
      ],
      [
        0.17237752676010132,
        -0.018143244087696075,
        0.047259703278541565,
        -0.3633221387863159,
        -0.7543122172355652,
        0.006854013539850712,
        -0.27667152881622314
      ],
      [
        -0.38565346598625183,
        -0.17123419046401978,
        0.2435571551322937,
        0.2645242214202881,
        0.899120032787323,
        0.09178657829761505,
        -0.13505379855632782
      ],
      [
        -0.08700647950172424,
        0.6746959686279297,
        0.7611809968948364,
        -0.27801182866096497,
        -0.7176032662391663,
        -0.4431800842285156,
        -0.3945452868938446
      ],
      [
        -0.17193113267421722,
        -1.1294467449188232,
        -0.29674845933914185,
        0.6709531545639038,
        -0.9239592552185059,
        0.1412227600812912,
        0.1149209663271904
      ],
      [
        -0.10276057571172714,
        0.18761414289474487,
        -0.2298867404460907,
        0.7233098745346069,
        -0.11679548025131226,
        0.2310149371623993,
        -0.07136864215135574
      ],
      [
        0.1692769080400467,
        0.13800115883350372,
        -0.16963262856006622,
        -0.1521228849887848,
        0.7434816360473633,
        0.17283809185028076,
        0.012610162608325481
      ],
      [
        -0.16843624413013458,
        -0.3458223342895508,
        0.3352639973163605,
        -0.6961560249328613,
        0.13445134460926056,
        0.047008585184812546,
        -0.05686008185148239
      ],
      [
        -0.0361742302775383,
        -0.28156164288520813,
        0.12483207881450653,
        0.42602843046188354,
        -0.8592269420623779,
        0.11054360121488571,
        0.04047267884016037
      ],
      [
        0.1894984096288681,
        0.17961807548999786,
        -0.44354015588760376,
        0.2123846858739853,
        0.36890339851379395,
        -0.06033271178603172,
        0.21356217563152313
      ],
      [
        0.27551957964897156,
        -0.1610724776983261,
        0.545130729675293,
        0.1274782419204712,
        -0.426705926656723,
        0.055592313408851624,
        0.07205714285373688
      ],
      [
        -0.3307005763053894,
        -0.2367565780878067,
        0.4834311902523041,
        0.6376960873603821,
        -0.27808481454849243,
        0.10612057894468307,
        0.20687656104564667
      ],
      [
        -0.1284155249595642,
        -0.13851428031921387,
        -0.05203615128993988,
        0.8020498752593994,
        0.3207705020904541,
        -0.20894522964954376,
        0.23620465397834778
      ],
      [
        0.2474624067544937,
        1.055199384689331,
        0.9165307879447937,
        0.47331544756889343,
        -0.3620549738407135,
        -0.00016132823657244444,
        0.360257625579834
      ],
      [
        0.23774825036525726,
        -0.30956903100013733,
        0.8428514003753662,
        0.23582813143730164,
        -0.34004443883895874,
        -0.21580450236797333,
        0.10502906143665314
      ],
      [
        -0.1157110184431076,
        0.33978214859962463,
        0.15284372866153717,
        0.4946322739124298,
        -0.20343764126300812,
        0.12543658912181854,
        -0.0910627469420433
      ],
      [
        0.524043619632721,
        -0.4015589952468872,
        -0.13047292828559875,
        -0.23463185131549835,
        0.10750464349985123,
        0.017319101840257645,
        0.5164892673492432
      ],
      [
        0.2820604741573334,
        0.9699118137359619,
        0.3320983648300171,
        -0.6330441832542419,
        0.08496198058128357,
        -0.06698392331600189,
        -0.25365403294563293
      ],
      [
        0.24275828897953033,
        0.011352970264852047,
        -0.13219870626926422,
        -0.4230322539806366,
        -0.4786839783191681,
        0.30027568340301514,
        0.2625085115432739
      ],
      [
        0.2936902940273285,
        0.02570505067706108,
        0.2614169120788574,
        0.201728954911232,
        -0.2246277630329132,
        0.3133009970188141,
        0.11262659728527069
      ],
      [
        0.23485365509986877,
        0.1132740005850792,
        -0.6200705170631409,
        -0.241937056183815,
        0.059937622398138046,
        0.05098540335893631,
        -0.14121617376804352
      ],
      [
        -0.3808206617832184,
        0.025764044374227524,
        -0.4430954158306122,
        0.3289634883403778,
        0.469328373670578,
        -0.20974598824977875,
        -0.31864798069000244
      ],
      [
        0.2352103441953659,
        0.2886717915534973,
        -0.3091139793395996,
        -0.22398263216018677,
        0.9502387046813965,
        0.1460537165403366,
        -0.2935677170753479
      ],
      [
        0.624765157699585,
        -0.019327575340867043,
        0.06649310886859894,
        0.5209470391273499,
        -0.31117352843284607,
        0.011569038033485413,
        0.3131164312362671
      ],
      [
        -0.08853379637002945,
        -0.3421863913536072,
        0.18632954359054565,
        -0.551889181137085,
        -0.19261617958545685,
        -0.08882378041744232,
        0.3375815153121948
      ],
      [
        -0.05141404643654823,
        -0.7499049305915833,
        0.6247740387916565,
        0.17269624769687653,
        -0.11196006089448929,
        -0.41833728551864624,
        -0.08655684441328049
      ],
      [
        -0.3447462022304535,
        -0.07430016249418259,
        0.4496729075908661,
        0.06568282842636108,
        1.116914987564087,
        0.45982956886291504,
        0.11275359988212585
      ],
      [
        -0.1387149691581726,
        -0.6611524224281311,
        -0.1580512523651123,
        -0.5250800251960754,
        0.7681221961975098,
        -0.5122096538543701,
        -0.37706491351127625
      ],
      [
        -0.0557069331407547,
        1.4309430122375488,
        0.22156691551208496,
        -0.736688494682312,
        0.8959898948669434,
        -0.3583203852176666,
        0.21655501425266266
      ],
      [
        -0.10981341451406479,
        -0.6059093475341797,
        0.924473762512207,
        0.20939047634601593,
        -0.0471188984811306,
        0.0721081793308258,
        -0.31168442964553833
      ],
      [
        0.5122373104095459,
        0.5115654468536377,
        0.3008565604686737,
        -0.6632005572319031,
        0.9366783499717712,
        -0.48834240436553955,
        -0.15727654099464417
      ],
      [
        0.14555804431438446,
        -0.37194713950157166,
        2.801520347595215,
        -0.07278928905725479,
        1.8356894254684448,
        0.1318143755197525,
        -0.3980802595615387
      ],
      [
        -0.4424724876880646,
        0.15812654793262482,
        1.3001928329467773,
        0.034521233290433884,
        -0.057447466999292374,
        -0.12891042232513428,
        -0.5331814289093018
      ],
      [
        -0.46313217282295227,
        1.0025944709777832,
        -0.4335482716560364,
        0.3513333797454834,
        -0.08698413521051407,
        -0.2076692283153534,
        -0.302301287651062
      ],
      [
        0.2309081107378006,
        -0.33692851662635803,
        0.8490601181983948,
        0.5604791045188904,
        -0.18964603543281555,
        0.04958708584308624,
        -0.16710244119167328
      ],
      [
        -0.07442145049571991,
        0.21141496300697327,
        0.038525521755218506,
        -0.3993942141532898,
        0.8524630069732666,
        0.02461756207048893,
        -0.35163602232933044
      ],
      [
        -0.22841106355190277,
        0.5045815110206604,
        0.11971942335367203,
        -0.2580728828907013,
        1.12637460231781,
        0.2983241677284241,
        0.2589602768421173
      ],
      [
        0.275387704372406,
        0.04069611802697182,
        -0.16636450588703156,
        0.21970555186271667,
        0.23076973855495453,
        0.11752461642026901,
        -0.11717645823955536
      ],
      [
        0.2710990011692047,
        -0.03807448595762253,
        -0.3124540448188782,
        0.3759247958660126,
        0.7441321611404419,
        -0.07099725306034088,
        0.05305355787277222
      ],
      [
        0.26474395394325256,
        0.04033304750919342,
        0.30877208709716797,
        -0.33639267086982727,
        -0.41907134652137756,
        -0.3569440543651581,
        -0.24210910499095917
      ],
      [
        -0.21257153153419495,
        0.22676485776901245,
        0.34824636578559875,
        0.08448295295238495,
        -0.5560973286628723,
        0.4173658788204193,
        0.35085225105285645
      ],
      [
        -0.2514457404613495,
        -0.6806981563568115,
        0.22382597625255585,
        -0.016436411067843437,
        -0.21093448996543884,
        -0.2505890429019928,
        -0.1154928058385849
      ],
      [
        0.12627990543842316,
        -0.22244106233119965,
        0.5254451036453247,
        -0.03467411920428276,
        -0.6177019476890564,
        0.10086164623498917,
        0.327376127243042
      ],
      [
        -0.07225887477397919,
        0.14934927225112915,
        -0.058994993567466736,
        0.24203498661518097,
        -1.1750518083572388,
        -0.350462406873703,
        0.3790360689163208
      ],
      [
        -0.31870388984680176,
        -0.08242278546094894,
        0.2732382118701935,
        -0.3304254710674286,
        -0.5026362538337708,
        0.13007928431034088,
        -0.03710104525089264
      ]
    ],
    "net.0.bias": [
      -0.35665130615234375,
      -0.12585526704788208,
      -0.1333710104227066,
      0.22606691718101501,
      -0.17000693082809448,
      0.29524490237236023,
      -0.08260034024715424,
      -0.07857131212949753,
      0.42355671525001526,
      0.17666229605674744,
      0.42878949642181396,
      0.2586764097213745,
      -0.12908446788787842,
      -0.16876071691513062,
      -0.022980105131864548,
      0.3283878266811371,
      -0.13844646513462067,
      -0.3281925618648529,
      0.22274194657802582,
      0.33589330315589905,
      -0.11727456003427505,
      -0.1877264380455017,
      -0.3051464855670929,
      0.1770968735218048,
      0.012593195773661137,
      -0.15195640921592712,
      0.058831341564655304,
      0.4234664738178253,
      0.2702038288116455,
      0.329326868057251,
      -0.03815716877579689,
      -0.2779456675052643,
      -0.37445130944252014,
      0.30434682965278625,
      0.1618654876947403,
      0.1437385082244873,
      -0.2829451262950897,
      0.3690461814403534,
      0.3852194845676422,
      0.41113415360450745,
      -0.21508800983428955,
      -0.12580692768096924,
      -0.09929191321134567,
      0.28010308742523193,
      -0.13421763479709625,
      -0.1357804387807846,
      0.13341695070266724,
      -0.12356172502040863,
      -0.27421507239341736,
      -0.04959079250693321,
      -0.0888824537396431,
      -0.2488766461610794,
      0.34590721130371094,
      -0.18580792844295502,
      0.1165686771273613,
      0.28754761815071106,
      0.18403880298137665,
      0.04955532029271126,
      0.37273433804512024,
      0.088361456990242,
      -0.18859019875526428,
      0.35184305906295776,
      0.11964612454175949,
      -0.4996976852416992,
      -0.15046651661396027,
      -0.27197468280792236,
      0.30180999636650085,
      -0.04014061763882637,
      -0.39137595891952515,
      -0.0088056530803442,
      0.17961014807224274,
      0.09889008104801178,
      0.10774082690477371,
      0.03853404149413109,
      0.15742021799087524,
      -0.14616923034191132,
      -0.1578148901462555,
      -0.3391514718532562,
      -0.2602015733718872,
      0.11780400574207306
    ],
    "net.2.weight": [
      [
        -0.1123465970158577,
        -0.030151495710015297,
        0.1765146404504776,
        0.07004573196172714,
        -0.019091995432972908,
        0.1328074038028717,
        -0.3123042583465576,
        0.23731380701065063,
        -0.3649342656135559,
        -0.024022305384278297,
        0.19904474914073944,
        -0.20264746248722076,
        -0.09188967943191528,
        -0.06314216554164886,
        -0.07650720328092575,
        -0.25521519780158997,
        0.015761155635118484,
        0.09306652843952179,
        -0.14410553872585297,
        0.04621201381087303,
        0.7059845924377441,
        -0.1680401861667633,
        0.14863266050815582,
        -0.2643473744392395,
        0.011339846067130566,
        0.164785698056221,
        0.015545559115707874,
        0.3846595287322998,
        -0.09142693132162094,
        -0.2199508100748062,
        -0.12180851399898529,
        -0.16660261154174805,
        -0.07296010851860046,
        0.14015915989875793,
        0.08602549135684967,
        0.019657226279377937,
        0.08403157442808151,
        -0.06053132191300392,
        0.26429814100265503,
        0.08839324116706848,
        0.06984921544790268,
        -0.12958581745624542,
        -0.06206294894218445,
        0.05983327329158783,
        -0.0034022897016257048,
        0.1016898825764656,
        -0.023408986628055573,
        -0.0496080256998539,
        0.21374496817588806,
        0.14033108949661255,
        0.13702847063541412,
        -0.14771774411201477,
        0.19455935060977936,
        0.1268649846315384,
        0.025841113179922104,
        -0.16570140421390533,
        -0.027883946895599365,
        -0.19662229716777802,
        0.03371838480234146,
        0.03463403508067131,
        0.017999589443206787,
        -0.13449954986572266,
        -0.15969406068325043,
        -0.14179664850234985,
        0.07878772169351578,
        -0.09704506397247314,
        0.02826547808945179,
        0.38053855299949646,
        -0.11374671012163162,
        0.12175329774618149,
        -0.0010701450519263744,
        -0.1769544631242752,
        -0.09403946250677109,
        -0.3694272041320801,
        0.18545055389404297,
        0.029559211805462837,
        0.014665965922176838,
        0.07503855973482132,
        0.16117992997169495,
        0.12818194925785065
      ],
      [
        0.18353649973869324,
        -0.01564241200685501,
        -0.13813960552215576,
        -0.19477660953998566,
        -0.10401307791471481,
        -0.04405093193054199,
        0.38577407598495483,
        -0.20644216239452362,
        0.29989224672317505,
        -0.0785171240568161,
        -0.21022836863994598,
        0.1663159728050232,
        0.24323534965515137,
        0.03269395977258682,
        -0.12338674813508987,
        0.22228693962097168,
        0.020334679633378983,
        -0.05025326460599899,
        0.03361748531460762,
        -0.11828544735908508,
        -0.8508828282356262,
        0.10832925885915756,
        0.01377949956804514,
        0.06956087797880173,
        0.0637933611869812,
        0.04929053410887718,
        0.13240313529968262,
        -0.3042438328266144,
        0.0517442524433136,
        0.13070335984230042,
        -0.004004125017672777,
        0.20866623520851135,
        0.17933975160121918,
        -0.05316020920872688,
        -0.06256715953350067,
        0.18863734602928162,
        -0.11698096990585327,
        0.08014652878046036,
        -0.1984456479549408,
        -0.23797781765460968,
        0.04689038544893265,
        0.16676048934459686,
        -0.05924096331000328,
        -0.018061256036162376,
        0.19787074625492096,
        -0.12392900139093399,
        -0.04588673263788223,
        0.20056696236133575,
        -0.18372035026550293,
        -0.1631419062614441,
        0.07087630778551102,
        -0.038825612515211105,
        -0.025851206853985786,
        -0.04219961166381836,
        0.05012228712439537,
        -0.03822449967265129,
        0.2251969575881958,
        0.14765313267707825,
        0.10770300775766373,
        -0.23585569858551025,
        -0.19090789556503296,
        0.16799037158489227,
        0.06838540732860565,
        0.19518721103668213,
        -0.2666586637496948,
        0.07631128281354904,
        -0.038019273430109024,
        -0.3119211196899414,
        0.09362956881523132,
        -0.005755337420850992,
        0.018156295642256737,
        0.19854581356048584,
        0.0863126590847969,
        0.2427162230014801,
        -0.23647171258926392,
        -0.10200801491737366,
        -0.10740060359239578,
        -0.13465283811092377,
        -0.0528598427772522,
        -0.15575020015239716
      ],
      [
        0.02405550517141819,
        -0.17288780212402344,
        0.4144851565361023,
        0.034511297941207886,
        0.10935185849666595,
        0.33407604694366455,
        0.2760189175605774,
        0.3531821668148041,
        -0.2767798900604248,
        0.12606629729270935,
        -0.11626597493886948,
        -0.371978759765625,
        -0.17699088156223297,
        -0.5095885992050171,
        0.21300965547561646,
        -0.1254696547985077,
        -0.29569849371910095,
        0.010865354910492897,
        -0.2944023013114929,
        0.03202708438038826,
        0.3673807382583618,
        -0.05148332193493843,
        0.2074204981327057,
        -0.3058719038963318,
        -0.2056393027305603,
        0.1841312199831009,
        0.179666206240654,
        -0.6989290118217468,
        -0.045279085636138916,
        0.04140304774045944,
        0.7450389266014099,
        0.07137725502252579,
        0.06083138287067413,
        0.1019723042845726,
        0.05103757977485657,
        -0.25403109192848206,
        -0.15364059805870056,
        0.11949704587459564,
        -0.1723451018333435,
        -0.04049218073487282,
        0.23923149704933167,
        -0.054736535996198654,
        0.01873977854847908,
        0.11687853932380676,
        0.1393464058637619,
        0.2335462123155594,
        0.3954881429672241,
        0.6020850539207458,
        0.06383321434259415,
        0.5258944630622864,
        0.6747202277183533,
        -0.027623528614640236,
        -0.43893197178840637,
        -0.16502541303634644,
        0.1902209222316742,
        -0.11921525746583939,
        0.08483120799064636,
        -0.35296502709388733,
        0.19296479225158691,
        -0.6716690063476562,
        0.32198721170425415,
        0.10344185680150986,
        0.11683034896850586,
        0.08217035233974457,
        0.47287023067474365,
        -0.18574751913547516,
        -0.16003715991973877,
        0.05854465812444687,
        0.186482235789299,
        0.6326826214790344,
        -0.17569807171821594,
        -0.40775999426841736,
        0.12518437206745148,
        0.36702170968055725,
        -0.5249016880989075,
        0.18754714727401733,
        0.13439825177192688,
        0.17312395572662354,
        0.08897584676742554,
        -0.1429804414510727
      ],
      [
        -0.06360886245965958,
        -0.23424875736236572,
        0.13259494304656982,
        0.16763481497764587,
        0.24370399117469788,
        0.147737517952919,
        0.06919227540493011,
        -0.012391511350870132,
        -0.08001081645488739,
        0.17234739661216736,
        -0.11317992955446243,
        -0.19749365746974945,
        -0.08586342632770538,
        -0.19879373908042908,
        0.02344008907675743,
        0.002125221537426114,
        -0.31443652510643005,
        -0.09988386929035187,
        -0.18573899567127228,
        0.02365224063396454,
        0.35861092805862427,
        0.1791287213563919,
        0.2747282385826111,
        -0.010060404427349567,
        -0.08204541355371475,
        0.18418438732624054,
        0.13462024927139282,
        -0.29300448298454285,
        -0.0702102854847908,
        -0.3774673342704773,
        0.5155912041664124,
        0.008161441422998905,
        0.01494912151247263,
        0.16890573501586914,
        0.2073049694299698,
        -0.027392923831939697,
        -0.07938209176063538,
        -0.14568659663200378,
        0.17511892318725586,
        0.03513999655842781,
        0.19238759577274323,
        -0.24041636288166046,
        -0.20093241333961487,
        0.19592641294002533,
        0.2939063608646393,
        0.03653213381767273,
        0.22330881655216217,
        0.4331444203853607,
        0.07413209974765778,
        0.29402685165405273,
        0.5094518065452576,
        -0.2436465322971344,
        -0.25962674617767334,
        -0.039365723729133606,
        0.18104147911071777,
        0.000795001455117017,
        0.23968885838985443,
        -0.34623026847839355,
        0.2309442162513733,
        -0.49958881735801697,
        0.13644449412822723,
        -0.3742538094520569,
        -0.007650237996131182,
        -0.015024851076304913,
        0.08671435713768005,
        -0.11157555133104324,
        0.06178829446434975,
        -0.04624644294381142,
        0.15077024698257446,
        0.28660470247268677,
        -0.20126117765903473,
        -0.48990219831466675,
        0.12012043595314026,
        -0.0007910332060419023,
        -0.17030242085456848,
        0.12885546684265137,
        0.029839729890227318,
        -0.042737554758787155,
        0.287762850522995,
        -0.25441011786460876
      ]
    ],
    "net.2.bias": [
      -0.09858866035938263,
      0.02273951657116413,
      0.13620197772979736,
      -0.0778612270951271
    ]
  },
  "F2": {
    "n_in": 4,
    "n_hid": 60,
    "n_out": 4,
    "activation": "tanh",
    "net.0.weight": [
      [
        0.35651007294654846,
        -0.06169545650482178,
        0.434883713722229,
        0.021428901702165604
      ],
      [
        -0.653278112411499,
        0.2006591409444809,
        0.1334242820739746,
        0.09873616695404053
      ],
      [
        -0.18103531002998352,
        0.6765488386154175,
        -0.8413154482841492,
        0.35863563418388367
      ],
      [
        1.7237399816513062,
        0.919257402420044,
        0.7907817959785461,
        -0.41836580634117126
      ],
      [
        -0.6665202975273132,
        0.34156665205955505,
        0.012827755883336067,
        0.6124858260154724
      ],
      [
        -0.5411741733551025,
        -0.291958749294281,
        -0.09548469632863998,
        -0.37028968334198
      ],
      [
        0.035414665937423706,
        0.5281457901000977,
        0.6430338621139526,
        0.03162188082933426
      ],
      [
        0.7563123106956482,
        -0.08542893826961517,
        0.8022283315658569,
        -0.29398658871650696
      ],
      [
        -0.3140873908996582,
        -0.18362613022327423,
        0.6280463337898254,
        0.0994931235909462
      ],
      [
        0.4566039443016052,
        -0.214289128780365,
        0.23358437418937683,
        0.011071320623159409
      ],
      [
        -0.09730382263660431,
        0.0939929336309433,
        0.3218283951282501,
        0.1678088903427124
      ],
      [
        0.13391980528831482,
        -0.6820474863052368,
        -0.10554296523332596,
        0.18705469369888306
      ],
      [
        -0.20454269647598267,
        0.5951762199401855,
        -0.4392409324645996,
        0.05774714797735214
      ],
      [
        -0.11654531210660934,
        -0.8194758892059326,
        0.03843357041478157,
        0.06458940356969833
      ],
      [
        -0.08913729339838028,
        -0.009923133999109268,
        0.7203837037086487,
        0.21474893391132355
      ],
      [
        -2.668747663497925,
        0.08805529028177261,
        -1.0569391250610352,
        -0.9930924773216248
      ],
      [
        0.3896215260028839,
        -0.154218852519989,
        -0.5537958145141602,
        -0.3604835569858551
      ],
      [
        -0.08486911654472351,
        -0.0056575932539999485,
        -0.3603518307209015,
        -0.4135502576828003
      ],
      [
        0.016385167837142944,
        -0.19109469652175903,
        -0.4289088547229767,
        -0.29316967725753784
      ],
      [
        -0.8272126913070679,
        -0.46987539529800415,
        -0.6430391073226929,
        0.6143636703491211
      ],
      [
        -0.4394618272781372,
        -0.3020504415035248,
        -0.7034117579460144,
        -0.07142475992441177
      ],
      [
        0.29886335134506226,
        -0.622992992401123,
        -0.48536694049835205,
        0.26724836230278015
      ],
      [
        0.6294053792953491,
        0.34620147943496704,
        -0.32079166173934937,
        -0.7169890403747559
      ],
      [
        -0.4625350534915924,
        -0.15672948956489563,
        0.24769100546836853,
        -0.6769270300865173
      ],
      [
        0.21260452270507812,
        0.1378193199634552,
        -0.3810044527053833,
        -0.7321217656135559
      ],
      [
        0.2669549882411957,
        -0.7099613547325134,
        0.4104562997817993,
        -0.3039335012435913
      ],
      [
        1.4911984205245972,
        0.2707674205303192,
        1.0452510118484497,
        -1.6902663707733154
      ],
      [
        -0.12399835139513016,
        -0.4292507469654083,
        0.3793058395385742,
        -0.28811994194984436
      ],
      [
        -0.5009127855300903,
        0.9168220162391663,
        -0.5288400053977966,
        0.2646348774433136
      ],
      [
        -0.15063394606113434,
        -0.72049480676651,
        -0.06076384335756302,
        -0.34904786944389343
      ],
      [
        0.4348717927932739,
        -0.30297937989234924,
        0.5779801607131958,
        -0.20099443197250366
      ],
      [
        0.19283929467201233,
        0.07770152390003204,
        0.4207988381385803,
        0.7420061230659485
      ],
      [
        -1.287297248840332,
        -1.013482689857483,
        -0.6488568186759949,
        -0.12964750826358795
      ],
      [
        0.1405649036169052,
        0.02942265197634697,
        -0.038035858422517776,
        0.0271490216255188
      ],
      [
        0.3515982925891876,
        -0.19776225090026855,
        1.0248571634292603,
        -0.2388705611228943
      ],
      [
        -0.1749955117702484,
        -0.48700687289237976,
        -0.18667970597743988,
        0.5765436887741089
      ],
      [
        0.6396069526672363,
        -0.3612142503261566,
        0.03445736691355705,
        0.14240658283233643
      ],
      [
        0.33215150237083435,
        0.9102028608322144,
        0.4489149749279022,
        -0.6681004762649536
      ],
      [
        0.6028207540512085,
        -0.22445611655712128,
        0.5267494320869446,
        -0.20510445535182953
      ],
      [
        0.40982508659362793,
        0.8631862998008728,
        0.848254919052124,
        -0.10107892751693726
      ],
      [
        -0.2701616883277893,
        0.06661327183246613,
        -0.2359374463558197,
        0.14498195052146912
      ],
      [
        0.017257386818528175,
        -0.04865629971027374,
        -0.18359722197055817,
        0.009364435449242592
      ],
      [
        0.02660568244755268,
        -0.8684206604957581,
        -0.3786040246486664,
        -0.07097262889146805
      ],
      [
        -0.12047476321458817,
        0.1402520388364792,
        -0.7648311853408813,
        0.08926088362932205
      ],
      [
        0.30687415599823,
        -0.003986236173659563,
        0.019289279356598854,
        0.05550538748502731
      ],
      [
        -0.09083231538534164,
        0.470683753490448,
        -0.16878211498260498,
        0.2674083709716797
      ],
      [
        0.21536339819431305,
        -0.7926321625709534,
        1.0850369930267334,
        -0.1169196143746376
      ],
      [
        0.17999888956546783,
        -0.13344211876392365,
        -0.15577588975429535,
        -0.2622016370296478
      ],
      [
        1.226051688194275,
        0.2299605906009674,
        0.9594131112098694,
        -1.5684244632720947
      ],
      [
        0.20264215767383575,
        0.31009191274642944,
        -0.012917007319629192,
        -0.38072940707206726
      ],
      [
        -0.043187763541936874,
        -0.41361939907073975,
        -0.1937980055809021,
        -0.49178141355514526
      ],
      [
        0.28113120794296265,
        0.0881347730755806,
        0.13047638535499573,
        0.49420151114463806
      ],
      [
        -0.12413062900304794,
        -0.9522066712379456,
        0.41610053181648254,
        0.25151586532592773
      ],
      [
        0.8104709386825562,
        -1.1418993473052979,
        0.30452489852905273,
        0.06840785592794418
      ],
      [
        -0.437435507774353,
        0.21188288927078247,
        0.6752708554267883,
        0.07938198000192642
      ],
      [
        0.31775298714637756,
        0.590468168258667,
        0.020261352881789207,
        0.6471870541572571
      ],
      [
        -0.12095921486616135,
        0.9043883085250854,
        -0.35910069942474365,
        0.593246340751648
      ],
      [
        -0.28082555532455444,
        -0.4307442605495453,
        -0.06525762379169464,
        -0.5738356113433838
      ],
      [
        0.09029321372509003,
        0.4132484793663025,
        -0.009106351993978024,
        0.3328906297683716
      ],
      [
        -0.7076531648635864,
        -0.16158290207386017,
        0.09058807045221329,
        0.43629559874534607
      ]
    ],
    "net.0.bias": [
      0.3615725040435791,
      -0.4017561972141266,
      -0.251397043466568,
      0.3493288457393646,
      -0.06904387474060059,
      -0.3344992995262146,
      0.3795943856239319,
      0.1278851330280304,
      -0.31220123171806335,
      -0.09822157025337219,
      -0.4597422480583191,
      -0.4204068183898926,
      0.24408243596553802,
      -0.2762393653392792,
      0.6140058040618896,
      -0.5183526277542114,
      -0.0546993762254715,
      0.033660050481557846,
      0.3335215151309967,
      0.3341014087200165,
      0.4048750698566437,
      0.23371733725070953,
      -0.09718804061412811,
      -0.35570526123046875,
      -0.31355366110801697,
      0.02056683786213398,
      0.4470433294773102,
      -0.1471182405948639,
      -0.11758305877447128,
      -0.4388282299041748,
      0.2180340737104416,
      0.2514383792877197,
      -0.5858263373374939,
      -0.3869914412498474,
      0.4534865915775299,
      0.2047499418258667,
      -0.12429626286029816,
      0.006380303762853146,
      -0.014428426511585712,
      -0.3559618890285492,
      -0.5198850035667419,
      0.4879441559314728,
      0.19529971480369568,
      -0.3660750985145569,
      -0.2097729742527008,
      -0.5387900471687317,
      -0.38007310032844543,
      -0.44065338373184204,
      0.37585917115211487,
      0.2051350325345993,
      -0.2410532385110855,
      -0.19721198081970215,
      0.23963962495326996,
      -0.1079668253660202,
      0.25899460911750793,
      0.03325147554278374,
      -0.3984196186065674,
      0.09851633757352829,
      0.0118629839271307,
      0.35531532764434814
    ],
    "net.2.weight": [
      [
        -0.17363496124744415,
        -0.12041991204023361,
        0.056743863970041275,
        -0.0021879675332456827,
        0.009438666515052319,
        0.0689752995967865,
        -0.005759041756391525,
        0.0994933545589447,
        0.0639084205031395,
        0.14736086130142212,
        -0.2437978982925415,
        0.06195828691124916,
        0.01801355741918087,
        -0.06720002740621567,
        0.114445261657238,
        -0.013710967265069485,
        0.040254101157188416,
        -0.010408871807157993,
        -0.1345839500427246,
        -0.01314034964889288,
        0.03311755135655403,
        -0.03630256652832031,
        -0.032534632831811905,
        -0.01034634467214346,
        0.04507826268672943,
        0.0923963114619255,
        -0.03396816551685333,
        -0.0242216344922781,
        -0.060187507420778275,
        -0.06914310902357101,
        -0.019068272784352303,
        0.05809028819203377,
        0.005575863178819418,
        -0.08168402314186096,
        0.0097777945920825,
        -0.007392462808638811,
        0.11024405807256699,
        -0.030424214899539948,
        -0.20434002578258514,
        -0.007114000152796507,
        0.15277732908725739,
        0.24452878534793854,
        -0.013313786126673222,
        -0.12151505798101425,
        -0.11189402639865875,
        0.00155492196790874,
        -0.0015423373552039266,
        0.12447497993707657,
        0.044051315635442734,
        0.022380122914910316,
        0.02749253809452057,
        -0.1203187108039856,
        -0.01710844226181507,
        -0.04139458388090134,
        0.04821908101439476,
        -0.08852916210889816,
        -0.001235049800015986,
        -0.19944079220294952,
        -0.037292227149009705,
        0.020745722576975822
      ],
      [
        0.03697323054075241,
        0.029025482013821602,
        0.2324853539466858,
        -0.13908541202545166,
        0.1024622768163681,
        -0.05681009963154793,
        0.04955486208200455,
        0.009580083191394806,
        0.1890508085489273,
        0.15817350149154663,
        0.033513668924570084,
        0.03090091235935688,
        -0.021188324317336082,
        -0.08682475239038467,
        -0.1298741102218628,
        0.10360494256019592,
        0.012988335452973843,
        -0.03271014615893364,
        -0.062028657644987106,
        -0.0849868506193161,
        0.010530423372983932,
        0.11094589531421661,
        0.13265420496463776,
        -0.1241045594215393,
        -0.0375792495906353,
        -0.1696886420249939,
        -0.13407845795154572,
        -0.07993314415216446,
        0.2093590795993805,
        -0.043740130960941315,
        -0.08614376187324524,
        0.04484769329428673,
        -0.20099656283855438,
        -0.20513468980789185,
        -0.17260761559009552,
        0.13611583411693573,
        -0.054684098809957504,
        -0.0956205427646637,
        0.2349284589290619,
        -0.2762347459793091,
        0.003027163213118911,
        0.2213938683271408,
        -0.01314934715628624,
        -0.051554374396800995,
        -0.17186766862869263,
        -0.0983642190694809,
        0.3340896666049957,
        0.1544329822063446,
        0.04984219744801521,
        0.11873170733451843,
        0.07702106982469559,
        -0.20150963962078094,
        -0.09933362901210785,
        -0.15403947234153748,
        0.11800969392061234,
        -0.05615556240081787,
        -0.1396590620279312,
        0.0870453417301178,
        -0.05750564858317375,
        -0.11910057812929153
      ],
      [
        0.0020532517228275537,
        -0.01694200560450554,
        0.1835787147283554,
        -0.10740862786769867,
        0.12402340769767761,
        -0.10969912260770798,
        0.11387332528829575,
        0.031156234443187714,
        0.1464882791042328,
        0.15168312191963196,
        -0.12387202680110931,
        -0.1457686573266983,
        -0.2668830454349518,
        -0.06289161741733551,
        0.10758424550294876,
        0.11524678021669388,
        0.04782053455710411,
        0.12025828659534454,
        0.06079423800110817,
        -0.0783674567937851,
        0.21438564360141754,
        0.14103025197982788,
        0.1027449294924736,
        -0.12711426615715027,
        0.08855637907981873,
        -0.07055864483118057,
        -0.03176462650299072,
        0.05489042028784752,
        0.2644217014312744,
        -0.05403023585677147,
        -0.10912585258483887,
        0.12599395215511322,
        -0.2210451364517212,
        -0.14904683828353882,
        -0.055304154753685,
        -0.0131978839635849,
        0.09079041332006454,
        -0.19497893750667572,
        0.14426515996456146,
        -0.22648313641548157,
        0.029386254027485847,
        0.06656907498836517,
        0.02591584250330925,
        0.0618731752038002,
        -0.08618845790624619,
        0.16474175453186035,
        0.2754991054534912,
        -0.058298081159591675,
        -0.06824518740177155,
        0.03781620413064957,
        -0.03458660840988159,
        -0.16218702495098114,
        -0.11029212921857834,
        -0.18706652522087097,
        0.027447350323200226,
        -0.0858922228217125,
        -0.050444360822439194,
        0.136759415268898,
        -0.11899600178003311,
        -0.048553381115198135
      ],
      [
        0.2257310003042221,
        0.15319783985614777,
        -0.24389971792697906,
        -0.042054325342178345,
        -0.01600612699985504,
        0.04874219000339508,
        0.1430886834859848,
        0.057413313537836075,
        0.03166951611638069,
        0.031688395887613297,
        0.07912563532590866,
        -0.028333615511655807,
        -0.09143584221601486,
        0.16556501388549805,
        0.09060024470090866,
        -0.0031865935306996107,
        0.20211441814899445,
        -0.07398902624845505,
        -0.10235350579023361,
        0.08055444806814194,
        -0.0263705812394619,
        0.06845865398645401,
        0.07034973055124283,
        -0.004206489771604538,
        -0.12579120695590973,
        0.22338494658470154,
        -0.06221999228000641,
        0.067107655107975,
        0.028214525431394577,
        0.13730014860630035,
        0.008709393441677094,
        0.003547149244695902,
        -0.053557563573122025,
        -0.05376937612891197,
        -0.14565947651863098,
        -0.12898658215999603,
        -0.027717936784029007,
        0.0368012897670269,
        0.03657783567905426,
        -0.0861583724617958,
        0.18517954647541046,
        -0.04859449714422226,
        -0.1819908767938614,
        -0.23149339854717255,
        0.014838699251413345,
        0.16203570365905762,
        -0.362155556678772,
        -0.04460085183382034,
        0.06859362125396729,
        -0.11912810802459717,
        -0.06947112083435059,
        -0.040943894535303116,
        -0.020228169858455658,
        0.055565934628248215,
        0.09818368405103683,
        0.03958620876073837,
        0.131234809756279,
        -0.021871384233236313,
        -0.0384947769343853,
        -0.03050616756081581
      ]
    ],
    "net.2.bias": [
      0.03624529391527176,
      0.09252853691577911,
      -0.054910093545913696,
      0.04792636260390282
    ]
  }
}