{
  "name": "PV3",
  "type": "F1+H1+F2",
  "t_step": 0.01,
  "normfacs": {
    "G": {
      "scale": 1000.0,
      "offset": 809.2813110351562
    },
    "Ud": {
      "scale": 0.40000003576278687,
      "offset": 0.9999997615814209
    },
    "Uq": {
      "scale": 1.0,
      "offset": -3.3840739238621964e-11
    },
    "Id": {
      "scale": 4.686577320098877,
      "offset": 2.4104905128479004
    },
    "Iq": {
      "scale": 4.055089473724365,
      "offset": -0.05657494440674782
    },
    "GIrms": {
      "scale": 5902.79296875,
      "offset": 2748.572021484375
    },
    "Ramp": {
      "scale": 1.0,
      "offset": 0.8093812465667725
    },
    "Vdc": {
      "scale": 635.2540283203125,
      "offset": 495.7726135253906
    },
    "Idc": {
      "scale": 4.1067023277282715,
      "offset": 1.8830465078353882
    },
    "Vd": {
      "scale": 342.86944580078125,
      "offset": 230.29591369628906
    },
    "Vq": {
      "scale": 296.395751953125,
      "offset": -5.334640026092529
    }
  },
  "model_folder": "./ucf4t/",
  "model_root": "ucf4t",
  "data_path": "../../data/ucf4.hdf5",
  "lr": 0.001,
  "eps": 1e-08,
  "h5grp_prefix": "ucf",
  "num_iter": 1000,
  "continue_iterations": false,
  "print_freq": 20,
  "batch_size": 405,
  "n_validation_pct": 15,
  "n_validation_seed": 99,
  "n_skip": 0,
  "n_trunc": 0,
  "n_dec": 1,
  "n_loss_skip": 50,
  "n_pad": 100,
  "gtype": "stable2ndx",
  "na": 2,
  "nb": 3,
  "nk": 0,
  "activation": "tanh",
  "nh1": 80,
  "nh2": 60,
  "COL_T": [
    "t"
  ],
  "COL_Y": [
    "Vdc",
    "Idc",
    "Vd",
    "Vq"
  ],
  "COL_U": [
    "G",
    "Ud",
    "Uq",
    "Id",
    "Iq",
    "GIrms",
    "Ramp"
  ],
  "clamps": null,
  "sensitivity": {
    "limit": 70.0,
    "weight": 0.0035,
    "delta": 0.01,
    "inputs": [
      "Id",
      "Iq"
    ],
    "outputs": [
      "Vd",
      "Vq"
    ],
    "GIrms": {
      "G": "G",
      "Id": "Id",
      "Iq": "Iq",
      "k": 1.2247449
    },
    "sets": {
      "G": [
        300.0,
        800.0,
        1000.0
      ],
      "Ud": [
        0.9,
        1.1
      ],
      "Uq": [
        -0.4,
        0.4
      ],
      "Id": [
        2.3,
        4.6
      ],
      "Iq": [
        -2.0,
        2.0
      ],
      "Ramp": [
        0.0,
        1.0
      ]
    }
  },
  "H1": {
    "n_in": 4,
    "n_out": 4,
    "n_b": 3,
    "n_a": 2,
    "n_k": 0,
    "b_0_0": [
      -0.08230479806661606,
      0.052743785083293915,
      0.1506185084581375
    ],
    "a_0_0": [
      -0.07924646884202957,
      -0.09072571992874146
    ],
    "alpha1_0_0": -0.039643991738557816,
    "alpha2_0_0": -0.2731393277645111,
    "b_0_1": [
      0.31987589597702026,
      0.10774852335453033,
      -0.12639425694942474
    ],
    "a_0_1": [
      -0.0010406874353066087,
      -0.065673828125
    ],
    "alpha1_0_1": -0.0005203437758609653,
    "alpha2_0_1": -0.13265132904052734,
    "b_0_2": [
      -0.2449638545513153,
      0.0748729333281517,
      0.17169485986232758
    ],
    "a_0_2": [
      -0.04697326570749283,
      -0.16593819856643677
    ],
    "alpha1_0_2": -0.02349095232784748,
    "alpha2_0_2": -0.39294078946113586,
    "b_0_3": [
      0.043700627982616425,
      0.15753179788589478,
      0.23607605695724487
    ],
    "a_0_3": [
      -0.5227551460266113,
      0.16332030296325684
    ],
    "alpha1_0_3": -0.2675864100456238,
    "alpha2_0_3": -0.267090380191803,
    "b_1_0": [
      -0.11989175528287888,
      -0.07909257709980011,
      -0.09259910136461258
    ],
    "a_1_0": [
      -0.5072714686393738,
      0.18178558349609375
    ],
    "alpha1_1_0": -0.259294718503952,
    "alpha2_1_0": -0.19313190877437592,
    "b_1_1": [
      0.1565341353416443,
      0.18476296961307526,
      0.15205484628677368
    ],
    "a_1_1": [
      0.24038559198379517,
      0.07565164566040039
    ],
    "alpha1_1_1": 0.12077664583921432,
    "alpha2_1_1": -0.10133872926235199,
    "b_1_2": [
      -0.26794010400772095,
      -0.17784717679023743,
      -0.07542615383863449
    ],
    "a_1_2": [
      0.004308416973799467,
      -0.4079676866531372
    ],
    "alpha1_1_2": 0.0021542117465287447,
    "alpha2_1_2": -0.8736453056335449,
    "b_1_3": [
      -0.005605626851320267,
      0.0422569140791893,
      0.09098495543003082
    ],
    "a_1_3": [
      -1.034072756767273,
      0.4420393705368042
    ],
    "alpha1_1_3": -0.5722863078117371,
    "alpha2_1_3": -0.313103049993515,
    "b_2_0": [
      -0.39787542819976807,
      -0.10722853243350983,
      -0.015499094501137733
    ],
    "a_2_0": [
      -0.5495414733886719,
      0.28159379959106445
    ],
    "alpha1_2_0": -0.28201690316200256,
    "alpha2_2_0": 0.018816689029335976,
    "b_2_1": [
      0.23332683742046356,
      -0.06818822026252747,
      -0.16405852138996124
    ],
    "a_2_1": [
      -0.5090216994285583,
      0.05432319641113281
    ],
    "alpha1_2_1": -0.2602302134037018,
    "alpha2_2_1": -0.550561785697937,
    "b_2_2": [
      -0.4541422724723816,
      -0.15951591730117798,
      -0.001771012437529862
    ],
    "a_2_2": [
      0.375675767660141,
      0.21672606468200684
    ],
    "alpha1_2_2": 0.19009502232074738,
    "alpha2_2_2": 0.0711689293384552,
    "b_2_3": [
      -0.27120280265808105,
      -0.1766173541545868,
      -0.05786304175853729
    ],
    "a_2_3": [
      -0.3921835124492645,
      0.12560701370239258
    ],
    "alpha1_2_3": -0.19866475462913513,
    "alpha2_2_3": -0.1758064180612564,
    "b_3_0": [
      -0.00026661535957828164,
      -0.04746444895863533,
      -0.026050083339214325
    ],
    "a_3_0": [
      0.5809928178787231,
      0.37599217891693115
    ],
    "alpha1_3_0": 0.2991083264350891,
    "alpha2_3_0": 0.24217833578586578,
    "b_3_1": [
      -0.11238010227680206,
      -0.0663071796298027,
      -0.14532315731048584
    ],
    "a_3_1": [
      -0.21564200520515442,
      -0.0476229190826416
    ],
    "alpha1_3_1": -0.10824176669120789,
    "alpha2_3_1": -0.3520507216453552,
    "b_3_2": [
      -0.00602388009428978,
      -0.01009281538426876,
      0.07702930271625519
    ],
    "a_3_2": [
      -0.34255334734916687,
      0.10906350612640381
    ],
    "alpha1_3_2": -0.1729816198348999,
    "alpha2_3_2": -0.15042519569396973,
    "b_3_3": [
      -0.23144280910491943,
      -0.18371200561523438,
      -0.07329727709293365
    ],
    "a_3_3": [
      -0.9598687291145325,
      0.3561246395111084
    ],
    "alpha1_3_3": -0.5228989720344543,
    "alpha2_3_3": -0.48544490337371826
  },
  "H1s": {
    "n_in": 4,
    "n_out": 4,
    "n_a": 3,
    "n_b": 3,
    "b_0_0": [
      -0.08230479806661606,
      -11.18658110499382,
      1210.5749547481546
    ],
    "a_0_0": [
      1.0,
      192.07535311579704,
      8300.27811229229
    ],
    "b_0_1": [
      0.31987589597702026,
      74.75003153085709,
      3012.3016238212585
    ],
    "a_0_1": [
      1.0,
      199.89593125646934,
      9332.854844396934
    ],
    "b_0_2": [
      -0.2449638545513153,
      -41.50547757744789,
      16.039386391638573
    ],
    "a_0_2": [
      1.0,
      195.30267342925072,
      7870.885357260704
    ],
    "b_0_3": [
      0.043700627982616425,
      24.493305385112755,
      4373.0848282575635
    ],
    "a_0_3": [
      1.0,
      147.72448539733887,
      6405.651569366455
    ],
    "b_1_0": [
      -0.11989175528287888,
      -31.8876087665558,
      -2915.8343374729175
    ],
    "a_1_0": [
      1.0,
      149.27285313606262,
      6745.141148567201
    ],
    "b_1_1": [
      0.1565341353416443,
      49.78312402963638,
      4933.51951241493
    ],
    "a_1_1": [
      1.0,
      224.03855919837952,
      13160.372376441956
    ],
    "b_1_2": [
      -0.26794010400772095,
      -71.37273848056793,
      -5212.13434636593
    ],
    "a_1_2": [
      1.0,
      200.43084169737995,
      5963.407303206623
    ],
    "b_1_3": [
      -0.005605626851320267,
      3.1045660376548914,
      1276.362426578989
    ],
    "a_1_3": [
      1.0,
      96.59272432327272,
      4079.6661376953134
    ],
    "b_2_0": [
      -0.39787542819976807,
      -90.29793888330457,
      -5206.030551344156
    ],
    "a_2_0": [
      1.0,
      145.0458526611328,
      7320.523262023925
    ],
    "b_2_1": [
      0.23332683742046356,
      39.84654545784,
      10.800957679733756
    ],
    "a_2_1": [
      1.0,
      149.09783005714417,
      5453.014969825745
    ],
    "b_2_2": [
      -0.4541422724723816,
      -106.7800462245941,
      -6154.292022110901
    ],
    "a_2_2": [
      1.0,
      237.5675767660141,
      15924.018323421478
    ],
    "b_2_3": [
      -0.27120280265808105,
      -71.90229594707489,
      -5056.831985712051
    ],
    "a_2_3": [
      1.0,
      160.78164875507355,
      7334.23501253128
    ],
    "b_3_0": [
      -0.00026661535957828164,
      -4.7997679677791885,
      -737.811476574279
    ],
    "a_3_0": [
      1.0,
      258.09928178787237,
      19569.849967956554
    ],
    "b_3_1": [
      -0.11238010227680206,
      -29.106738418340683,
      -3240.1043921709033
    ],
    "a_3_1": [
      1.0,
      178.43579947948456,
      7367.350757122039
    ],
    "b_3_2": [
      -0.00602388009428978,
      -2.2140575572848262,
      609.1260723769617
    ],
    "a_3_2": [
      1.0,
      165.7446652650833,
      7665.101587772369
    ],
    "b_3_3": [
      -0.23144280910491943,
      -64.65976238250734,
      -4884.5209181308755
    ],
    "a_3_3": [
      1.0,
      104.01312708854674,
      3962.5591039657584
    ]
  },
  "Q1s": {
    "n_in": 4,
    "n_out": 4,
    "n_a": 2,
    "n_b": 3,
    "A_0_0": [
      [
        -192.07535311579704,
        -8300.27811229229
      ],
      [
        1.0,
        0.0
      ]
    ],
    "B_0_0": [
      1.0,
      0.0
    ],
    "C_0_0": [
      4.62214204677583,
      1893.7276686771247
    ],
    "D_0_0": -0.08230479806661606,
    "A_0_1": [
      [
        -199.89593125646934,
        -9332.854844396934
      ],
      [
        1.0,
        0.0
      ]
    ],
    "B_0_1": [
      1.0,
      0.0
    ],
    "C_0_1": [
      10.80814141803311,
      26.946318446315217
    ],
    "D_0_1": 0.31987589597702026,
    "A_0_2": [
      [
        -195.30267342925072,
        -7870.885357260704
      ],
      [
        1.0,
        0.0
      ]
    ],
    "B_0_2": [
      1.0,
      0.0
    ],
    "C_0_2": [
      6.336618109958117,
      1944.121802237727
    ],
    "D_0_2": -0.2449638545513153,
    "A_0_3": [
      [
        -147.72448539733887,
        -6405.651569366455
      ],
      [
        1.0,
        0.0
      ]
    ],
    "B_0_3": [
      1.0,
      0.0
    ],
    "C_0_3": [
      18.037652604840197,
      4093.153832038417
    ],
    "D_0_3": 0.043700627982616425,
    "A_1_0": [
      [
        -149.27285313606262,
        -6745.141148567201
      ],
      [
        1.0,
        0.0
      ]
    ],
    "B_1_0": [
      1.0,
      0.0
    ],
    "C_1_0": [
      -13.99102438798986,
      -2107.147525540422
    ],
    "D_1_0": -0.11989175528287888,
    "A_1_1": [
      [
        -224.03855919837952,
        -13160.372376441956
      ],
      [
        1.0,
        0.0
      ]
    ],
    "B_1_1": [
      1.0,
      0.0
    ],
    "C_1_1": [
      14.713441882330258,
      2873.4720016945284
    ],
    "D_1_1": 0.1565341353416443,
    "A_1_2": [
      [
        -200.43084169737995,
        -5963.407303206623
      ],
      [
        1.0,
        0.0
      ]
    ],
    "B_1_2": [
      1.0,
      0.0
    ],
    "C_1_2": [
      -17.6692779098169,
      -3614.2983733043448
    ],
    "D_1_2": -0.26794010400772095,
    "A_1_3": [
      [
        -96.59272432327272,
        -4079.6661376953134
      ],
      [
        1.0,
        0.0
      ]
    ],
    "B_1_3": [
      1.0,
      0.0
    ],
    "C_1_3": [
      3.646028806763605,
      1299.231512624876
    ],
    "D_1_3": -0.005605626851320267,
    "A_2_0": [
      [
        -145.0458526611328,
        -7320.523262023925
      ],
      [
        1.0,
        0.0
      ]
    ],
    "B_2_0": [
      1.0,
      0.0
    ],
    "C_2_0": [
      -32.58775814715588,
      -2293.3742238200243
    ],
    "D_2_0": -0.39787542819976807,
    "A_2_1": [
      [
        -149.09783005714417,
        -5453.014969825745
      ],
      [
        1.0,
        0.0
      ]
    ],
    "B_2_1": [
      1.0,
      0.0
    ],
    "C_2_1": [
      5.058020304352816,
      -1261.5337796361518
    ],
    "D_2_1": 0.23332683742046356,
    "A_2_2": [
      [
        -237.5675767660141,
        -15924.018323421478
      ],
      [
        1.0,
        0.0
      ]
    ],
    "B_2_2": [
      1.0,
      0.0
    ],
    "C_2_2": [
      1.1094329536804963,
      1077.4778461795731
    ],
    "D_2_2": -0.4541422724723816,
    "A_2_3": [
      [
        -160.78164875507355,
        -7334.23501253128
      ],
      [
        1.0,
        0.0
      ]
    ],
    "B_2_3": [
      1.0,
      0.0
    ],
    "C_2_3": [
      -28.297862188711775,
      -3067.7668949605422
    ],
    "D_2_3": -0.27120280265808105,
    "A_3_0": [
      [
        -258.09928178787237,
        -19569.849967956554
      ],
      [
        1.0,
        0.0
      ]
    ],
    "B_3_0": [
      1.0,
      0.0
    ],
    "C_3_0": [
      -4.730954734958418,
      -732.5938539881793
    ],
    "D_3_0": -0.00026661535957828164,
    "A_3_1": [
      [
        -178.43579947948456,
        -7367.350757122039
      ],
      [
        1.0,
        0.0
      ]
    ],
    "B_3_1": [
      1.0,
      0.0
    ],
    "C_3_1": [
      -9.054105022993262,
      -2412.1607605764534
    ],
    "D_3_1": -0.11238010227680206,
    "A_3_2": [
      [
        -165.7446652650833,
        -7665.101587772369
      ],
      [
        1.0,
        0.0
      ]
    ],
    "B_3_2": [
      1.0,
      0.0
    ],
    "C_3_2": [
      -1.2156315674597682,
      655.2997252522526
    ],
    "D_3_2": -0.00602388009428978,
    "A_3_3": [
      [
        -104.01312708854674,
        -3962.5591039657584
      ],
      [
        1.0,
        0.0
      ]
    ],
    "B_3_3": [
      1.0,
      0.0
    ],
    "C_3_3": [
      -40.58667206534709,
      -3967.415107864768
    ],
    "D_3_3": -0.23144280910491943
  },
  "F1": {
    "n_in": 7,
    "n_hid": 80,
    "n_out": 4,
    "activation": "tanh",
    "net.0.weight": [
      [
        -0.13253629207611084,
        0.009425804018974304,
        -0.43005529046058655,
        -0.20534859597682953,
        -0.07778650522232056,
        0.093722403049469,
        -0.24761079251766205
      ],
      [
        -0.0022667415905743837,
        0.047946322709321976,
        0.1428091675043106,
        -0.01362050510942936,
        -0.08513571321964264,
        -0.2724129855632782,
        -0.4108596444129944
      ],
      [
        0.3041273355484009,
        -0.9377784132957458,
        0.3743249177932739,
        0.14434392750263214,
        -0.11865156143903732,
        -0.18323320150375366,
        0.21034151315689087
      ],
      [
        0.4217720329761505,
        0.003001243807375431,
        0.2989107668399811,
        0.031733959913253784,
        -0.04274226352572441,
        0.5317424535751343,
        -0.5605607032775879
      ],
      [
        0.13260766863822937,
        0.041491881012916565,
        -0.25572729110717773,
        0.1974918693304062,
        -0.09721187502145767,
        -0.2417353242635727,
        -0.6620664000511169
      ],
      [
        -0.6488410830497742,
        -0.5415555238723755,
        -0.11202115565538406,
        0.199260875582695,
        -0.013979014940559864,
        0.20825470983982086,
        -0.7491227388381958
      ],
      [
        -0.5233457088470459,
        -0.7449167966842651,
        -0.8722794055938721,
        -0.09001467376947403,
        0.1683778315782547,
        0.16643889248371124,
        -0.4768514335155487
      ],
      [
        -0.046170804649591446,
        0.05941424146294594,
        0.754387617111206,
        0.029504235833883286,
        0.0182179044932127,
        0.20479637384414673,
        -0.10268798470497131
      ],
      [
        -0.12222316861152649,
        -0.23833270370960236,
        -0.8895242214202881,
        -0.12828481197357178,
        0.07359733432531357,
        0.07148905098438263,
        -0.8817574977874756
      ],
      [
        0.44978445768356323,
        0.26180407404899597,
        -0.3189941942691803,
        -0.054902657866477966,
        0.03908851370215416,
        0.12813159823417664,
        0.9781942367553711
      ],
      [
        -0.31189942359924316,
        -0.5482390522956848,
        -0.5253187417984009,
        0.5684638619422913,
        0.23996847867965698,
        0.9574412703514099,
        -0.6854252815246582
      ],
      [
        -0.7242960929870605,
        0.5605413913726807,
        -0.33343279361724854,
        -0.25716617703437805,
        0.1402091085910797,
        0.2670121192932129,
        -0.423030823469162
      ],
      [
        0.08210450410842896,
        0.018252132460474968,
        0.07584667205810547,
        -0.07582913339138031,
        0.10113787651062012,
        -0.11663031578063965,
        0.41639477014541626
      ],
      [
        0.07976283878087997,
        0.9119207859039307,
        -0.1452256739139557,
        -0.2631055414676666,
        -0.1368376761674881,
        0.20343583822250366,
        0.13661684095859528
      ],
      [
        -0.14210925996303558,
        -0.3219098150730133,
        0.5947022438049316,
        0.10276880860328674,
        -0.07651174813508987,
        -0.17006665468215942,
        -0.8453370332717896
      ],
      [
        0.1564825177192688,
        -0.3438829481601715,
        -1.1819099187850952,
        0.0441887266933918,
        0.039317935705184937,
        -0.14984087646007538,
        0.2387036830186844
      ],
      [
        -0.5873758792877197,
        -0.05157429724931717,
        0.803677499294281,
        -0.15502789616584778,
        -0.09035085886716843,
        0.15493589639663696,
        -0.40354400873184204
      ],
      [
        0.0932893455028534,
        0.4246566891670227,
        0.23619256913661957,
        -0.10667259246110916,
        0.09801902621984482,
        -0.34087684750556946,
        -0.06793611496686935
      ],
      [
        0.0880921483039856,
        0.26723116636276245,
        -0.15789535641670227,
        -0.19553185999393463,
        -0.06680088490247726,
        0.09684295207262039,
        -0.8017457127571106
      ],
      [
        1.3118208646774292,
        -0.2293940931558609,
        0.24155479669570923,
        -0.0016559410141780972,
        -0.006050551310181618,
        0.030763044953346252,
        3.6913158893585205
      ],
      [
        0.4540713429450989,
        0.31925129890441895,
        0.2666260004043579,
        -0.022276535630226135,
        -0.14526799321174622,
        -0.1451774388551712,
        0.525634765625
      ],
      [
        0.07170627266168594,
        -0.47890156507492065,
        -0.6734938025474548,
        -0.21503393352031708,
        -0.21585218608379364,
        0.034965869039297104,
        0.27126097679138184
      ],
      [
        0.16258740425109863,
        -0.46501877903938293,
        0.18370682001113892,
        -0.2104717344045639,
        -0.06256971508264542,
        -0.15882666409015656,
        -0.05764825642108917
      ],
      [
        -0.2783755958080292,
        -0.34342631697654724,
        -1.4134413003921509,
        0.034915465861558914,
        0.015525387600064278,
        -0.12096305191516876,
        -0.8768991827964783
      ],
      [
        -0.49707314372062683,
        -0.03380947560071945,
        0.42124143242836,
        -0.09412915259599686,
        0.18645118176937103,
        0.16103799641132355,
        -0.6298218369483948
      ],
      [
        0.2107493281364441,
        -0.6004371643066406,
        -0.4131659269332886,
        0.1381530612707138,
        -0.20814862847328186,
        -0.004287275485694408,
        -0.17011553049087524
      ],
      [
        0.18650594353675842,
        -0.10039912164211273,
        0.09167733788490295,
        0.0925435721874237,
        -0.04353872314095497,
        -0.13030129671096802,
        -0.9377911686897278
      ],
      [
        0.47863972187042236,
        0.4908278286457062,
        0.17111675441265106,
        -0.14112117886543274,
        0.045065559446811676,
        -0.10615851730108261,
        0.39660415053367615
      ],
      [
        -0.5676501989364624,
        -0.56423020362854,
        -0.6958344578742981,
        -0.057236988097429276,
        -0.018119484186172485,
        0.10295311361551285,
        -1.1207984685897827
      ],
      [
        -0.7291669249534607,
        -0.11077713221311569,
        0.4500752389431,
        -0.11292053014039993,
        0.18993811309337616,
        0.14830666780471802,
        -0.02987668476998806
      ],
      [
        -0.6362590193748474,
        -0.2674029469490051,
        0.06829894334077835,
        -0.06374514102935791,
        -0.012451576068997383,
        0.061653055250644684,
        -2.12251615524292
      ],
      [
        -0.20176321268081665,
        0.21717800199985504,
        -0.7411150932312012,
        -0.11091862618923187,
        0.3045505881309509,
        0.04764557257294655,
        -0.006546491757035255
      ],
      [
        -0.8421398401260376,
        -0.37735334038734436,
        -0.8636594414710999,
        -0.057894062250852585,
        -0.06264111399650574,
        -0.006007644813507795,
        -0.8570040464401245
      ],
      [
        -0.015209379605948925,
        -0.2915712594985962,
        0.025935089215636253,
        0.2517137825489044,
        -0.15695156157016754,
        0.31523245573043823,
        -0.8301645517349243
      ],
      [
        -0.19106894731521606,
        0.48502251505851746,
        -0.30870315432548523,
        0.17003265023231506,
        -0.05409074202179909,
        -0.019342686980962753,
        -0.23137174546718597
      ],
      [
        -0.3876216411590576,
        0.23814493417739868,
        -1.2664450407028198,
        0.037609778344631195,
        -0.02366037480533123,
        -0.13109032809734344,
        -1.0658942461013794
      ],
      [
        0.2197471261024475,
        -0.039287324994802475,
        0.46158885955810547,
        -0.15631318092346191,
        -0.3252294957637787,
        0.09511805325746536,
        -0.25619667768478394
      ],
      [
        -0.24375274777412415,
        -0.05621548369526863,
        0.36354586482048035,
        0.11411720514297485,
        0.16236251592636108,
        0.07368340343236923,
        -0.39924156665802
      ],
      [
        0.050348423421382904,
        0.4634825885295868,
        1.281615972518921,
        0.04235103353857994,
        -0.07308666408061981,
        -0.13241106271743774,
        -0.4160432517528534
      ],
      [
        0.1727220118045807,
        -0.18945534527301788,
        -0.041506849229335785,
        0.32893019914627075,
        -0.24057139456272125,
        -0.010525110177695751,
        0.3672686517238617
      ],
      [
        -0.16190293431282043,
        0.08369717746973038,
        -0.31756657361984253,
        0.10017433017492294,
        0.03461918234825134,
        0.20560184121131897,
        0.2419484257698059
      ],
      [
        0.1549438089132309,
        -2.121579885482788,
        0.05826989561319351,
        -0.10792618989944458,
        0.05509420856833458,
        0.1019451767206192,
        0.24921877682209015
      ],
      [
        -0.23598290979862213,
        -0.1195722445845604,
        0.6747452616691589,
        -0.16875381767749786,
        0.0413532555103302,
        -0.09926223009824753,
        0.10633035004138947
      ],
      [
        -0.3152258098125458,
        -0.24697211384773254,
        -0.054181601852178574,
        0.03978286311030388,
        -0.20463933050632477,
        -0.0012935057748109102,
        -0.1417195051908493
      ],
      [
        0.14175476133823395,
        0.06851749867200851,
        -0.979148268699646,
        0.040314916521310806,
        0.06395789235830307,
        -0.08244295418262482,
        0.763867199420929
      ],
      [
        0.0807851180434227,
        -0.6179136633872986,
        0.6496070623397827,
        0.08031801134347916,
        0.019098155200481415,
        0.007043654099106789,
        0.9350708723068237
      ],
      [
        -0.3263295590877533,
        -0.01759788952767849,
        0.28653642535209656,
        0.39148589968681335,
        0.2799457311630249,
        0.037024788558483124,
        0.2637907564640045
      ],
      [
        -0.12233834713697433,
        -0.406289666891098,
        -0.4958341121673584,
        0.2624855041503906,
        0.19344237446784973,
        -0.3769017457962036,
        -0.2643347382545471
      ],
      [
        0.41594210267066956,
        0.27179378271102905,
        0.34918269515037537,
        0.1647695153951645,
        -0.006927079986780882,
        -0.12873390316963196,
        0.9913185834884644
      ],
      [
        0.3604545593261719,
        -0.20101799070835114,
        0.5236247181892395,
        0.15364213287830353,
        0.16867780685424805,
        -0.19961462914943695,
        0.6464688777923584
      ],
      [
        -0.35519295930862427,
        0.38924121856689453,
        -0.4746215045452118,
        0.07968471944332123,
        -0.009550162591040134,
        0.10798980295658112,
        -0.8381099700927734
      ],
      [
        0.27190396189689636,
        0.181110218167305,
        -0.01531153079122305,
        -0.24536065757274628,
        -0.18479248881340027,
        -0.3803110718727112,
        0.6086299419403076
      ],
      [
        -0.02943497523665428,
        0.04152144119143486,
        0.6802787780761719,
        -0.16516023874282837,
        -0.1420425921678543,
        0.10867307335138321,
        -0.5234984755516052
      ],
      [
        -0.09239092469215393,
        -0.3644992411136627,
        -0.44266360998153687,
        -0.2633548974990845,
        -0.11948084831237793,
        0.35334864258766174,
        0.7141120433807373
      ],
      [
        0.439273476600647,
        0.41398751735687256,
        -0.11197733879089355,
        -0.13164900243282318,
        0.07747242599725723,
        0.259988933801651,
        0.33927255868911743
      ],
      [
        0.10487397760152817,
        1.6584954261779785,
        0.414595365524292,
        -0.12261044234037399,
        0.04823099821805954,
        0.05253986641764641,
        -0.09460277855396271
      ],
      [
        -0.48432666063308716,
        -0.13506902754306793,
        -0.5784446001052856,
        0.17048944532871246,
        0.1109728068113327,
        -0.12238841503858566,
        -0.5141350030899048
      ],
      [
        0.37815606594085693,
        0.41192033886909485,
        0.3839719593524933,
        -0.09904901683330536,
        0.16480441391468048,
        0.19128313660621643,
        -0.23889559507369995
      ],
      [
        0.664509117603302,
        0.3557308316230774,
        -0.7135769128799438,
        0.10357093065977097,
        -0.1080470010638237,
        -0.1399046778678894,
        1.1508663892745972
      ],
      [
        0.29033827781677246,
        0.3843120038509369,
        0.599481463432312,
        -0.08415059745311737,
        -0.03503040969371796,
        0.07549499720335007,
        1.401813268661499
      ],
      [
        0.8110054731369019,
        -0.8041331768035889,
        0.22448964416980743,
        0.11887053400278091,
        0.08037164062261581,
        -0.3668118417263031,
        0.787714958190918
      ],
      [
        -0.6878800988197327,
        -1.009218692779541,
        0.6258731484413147,
        -0.2118890881538391,
        0.04652467742562294,
        0.28036537766456604,
        -0.5582260489463806
      ],
      [
        -0.2851470112800598,
        0.28983160853385925,
        0.06548787653446198,
        -0.15476982295513153,
        0.13167159259319305,
        -0.3232913613319397,
        -0.4696581959724426
      ],
      [
        -0.17904332280158997,
        0.009649055078625679,
        0.0798913761973381,
        -0.29042157530784607,
        0.25687718391418457,
        -0.17986436188220978,
        0.19999216496944427
      ],
      [
        0.1786627173423767,
        -0.37393465638160706,
        0.1004173681139946,
        0.06354960799217224,
        0.19480864703655243,
        -0.03780357167124748,
        -0.28777244687080383
      ],
      [
        0.248653843998909,
        -0.08625747263431549,
        0.03736419975757599,
        -0.23096120357513428,
        -0.0024949542712420225,
        -0.30343008041381836,
        -0.008475849404931068
      ],
      [
        0.14777334034442902,
        -0.8754245042800903,
        0.9479957818984985,
        0.15873651206493378,
        0.04351234436035156,
        -0.2092144638299942,
        -0.6885619163513184
      ],
      [
        -0.15738233923912048,
        -0.05157489702105522,
        0.649806559085846,
        0.09768222272396088,
        -0.015417451038956642,
        0.09942767024040222,
        -0.6385828852653503
      ],
      [
        -0.23634573817253113,
        0.28369322419166565,
        -0.20088744163513184,
        0.16359975934028625,
        -0.11875859647989273,
        -0.171965092420578,
        -0.880322277545929
      ],
      [
        0.06540272384881973,
        -0.22283823788166046,
        0.5440052151679993,
        0.1294287145137787,
        0.1377587914466858,
        -0.04026797041296959,
        0.06813760846853256
      ],
      [
        -0.2054823935031891,
        0.540324330329895,
        0.7792084217071533,
        -0.10443106293678284,
        0.17112644016742706,
        0.06641950458288193,
        -0.5815017223358154
      ],
      [
        -0.5811755657196045,
        0.30260077118873596,
        0.8036162257194519,
        -0.20851372182369232,
        0.11628018319606781,
        0.22707992792129517,
        0.2242255061864853
      ],
      [
        0.0920710489153862,
        -0.5090335607528687,
        -0.04282514005899429,
        0.08595580607652664,
        -0.07705701887607574,
        0.035046741366386414,
        -0.6275669932365417
      ],
      [
        0.4579184651374817,
        -0.30032262206077576,
        -1.2986403703689575,
        0.110824353992939,
        0.07051005214452744,
        -0.18303364515304565,
        0.5215800404548645
      ],
      [
        0.7874305248260498,
        0.18027259409427643,
        -0.07954539358615875,
        -0.0561860129237175,
        0.14926323294639587,
        -0.20932792127132416,
        0.20975326001644135
      ],
      [
        -0.13184404373168945,
        0.27083736658096313,
        -0.10993365198373795,
        -0.10493418574333191,
        -0.08286390453577042,
        0.2818390429019928,
        0.7107928395271301
      ],
      [
        -0.3207070529460907,
        -2.1569387912750244,
        -0.6449057459831238,
        0.05750409513711929,
        -0.00739245256409049,
        -0.10196653008460999,
        -1.4573642015457153
      ],
      [
        0.05142179876565933,
        -0.9335381984710693,
        0.6085718274116516,
        -0.07718455791473389,
        -0.06554228812456131,
        0.09803760051727295,
        0.8012546896934509
      ],
      [
        -0.5865142941474915,
        -0.0866096168756485,
        -0.27418434619903564,
        0.3690012991428375,
        -0.16991378366947174,
        -0.15379345417022705,
        0.6939374804496765
      ],
      [
        -0.3635357916355133,
        0.15992020070552826,
        1.1321156024932861,
        -0.12567603588104248,
        -0.08115055412054062,
        0.21931803226470947,
        -0.3906899094581604
      ]
    ],
    "net.0.bias": [
      -0.3777220845222473,
      -0.23396249115467072,
      -0.2115928679704666,
      0.35921546816825867,
      0.07570706307888031,
      0.43573516607284546,
      -0.3621998727321625,
      -0.15253856778144836,
      0.18917617201805115,
      0.12080610543489456,
      0.26118791103363037,
      0.20410411059856415,
      -0.06322692334651947,
      0.03407352417707443,
      -0.13079890608787537,
      0.047999970614910126,
      -0.0856432169675827,
      -0.3031652271747589,
      0.21029268205165863,
      0.3496370017528534,
      -0.02469821460545063,
      -0.4448029696941376,
      -0.2672584056854248,
      0.17010557651519775,
      -0.14054346084594727,
      -0.21671739220619202,
      0.13842715322971344,
      0.4004231095314026,
      -0.2088315784931183,
      0.25566959381103516,
      -0.6499210596084595,
      -0.4954572021961212,
      -0.16002056002616882,
      0.4324575364589691,
      0.4464784264564514,
      0.3366592526435852,
      -0.4867105484008789,
      0.3073783218860626,
      0.7090911269187927,
      0.41956913471221924,
      -0.3704264163970947,
      -0.6138017773628235,
      -0.2865077257156372,
      0.3930230140686035,
      -0.17354553937911987,
      -0.3739983141422272,
      0.3961065411567688,
      -0.29545629024505615,
      -0.010376791469752789,
      -0.04335916414856911,
      -0.09411965310573578,
      -0.24745257198810577,
      0.31482458114624023,
      -0.154830202460289,
      -0.0322694331407547,
      0.6650089621543884,
      0.3223940134048462,
      0.10050860792398453,
      0.3038195073604584,
      0.3575575351715088,
      -0.2635941207408905,
      0.302169531583786,
      0.10145300626754761,
      -0.3811666965484619,
      -0.375845730304718,
      -0.4170237183570862,
      0.46803519129753113,
      -0.10911340266466141,
      -0.08682949095964432,
      -0.12875932455062866,
      0.42902427911758423,
      0.04710519313812256,
      0.10365720093250275,
      -0.2667354643344879,
      0.3677566349506378,
      -0.27725380659103394,
      0.22575733065605164,
      -0.3869906961917877,
      -0.26017430424690247,
      0.3944030702114105
    ],
    "net.2.weight": [
      [
        -0.0625094398856163,
        -0.0539361797273159,
        0.020661020651459694,
        0.08275408297777176,
        -0.1405733823776245,
        0.18683211505413055,
        -0.10811730474233627,
        0.13000325858592987,
        -0.1780894547700882,
        0.1211010217666626,
        0.2090672254562378,
        0.011437968350946903,
        0.0747443363070488,
        -0.002159874187782407,
        -0.22370663285255432,
        -0.1381261646747589,
        -0.010144762694835663,
        -0.03466120362281799,
        -0.17994233965873718,
        0.673442542552948,
        -0.04825048893690109,
        0.05255534499883652,
        0.044196512550115585,
        -0.3084494471549988,
        0.02311526983976364,
        0.12522956728935242,
        -0.21990276873111725,
        0.05264822021126747,
        -0.16671408712863922,
        0.10331393778324127,
        -0.7915555834770203,
        -0.08437006920576096,
        -0.06942293047904968,
        0.18724410235881805,
        0.03160746768116951,
        -0.10989478975534439,
        -0.04796159639954567,
        -0.03722644969820976,
        -0.07331479340791702,
        0.028715617954730988,
        0.10965036600828171,
        0.2080349326133728,
        -0.1122056320309639,
        0.06363270431756973,
        0.09579453617334366,
        0.2542557716369629,
        -0.015857847407460213,
        -0.1401379108428955,
        0.12120882421731949,
        0.039912935346364975,
        0.03353509306907654,
        -0.1273890733718872,
        0.008633434772491455,
        0.21546748280525208,
        0.0655304566025734,
        -0.14095079898834229,
        0.054748836904764175,
        -0.08693916350603104,
        0.07600101828575134,
        0.337238609790802,
        -0.1570751965045929,
        0.05067881569266319,
        -0.16945533454418182,
        -0.06430024653673172,
        -0.07860016077756882,
        -0.06952211260795593,
        -0.21083736419677734,
        0.08555293083190918,
        -0.09605934470891953,
        0.08282320201396942,
        -0.08013182878494263,
        0.03448740765452385,
        -0.027155254036188126,
        -0.07720796763896942,
        0.04142021760344505,
        0.14896707236766815,
        -0.024886343628168106,
        0.26172566413879395,
        0.14423833787441254,
        0.08074554055929184
      ],
      [
        0.11222486197948456,
        -0.05632689595222473,
        -0.03602689504623413,
        -0.043038930743932724,
        0.055938560515642166,
        0.04848966374993324,
        0.1928907334804535,
        -0.1160561740398407,
        0.2564166784286499,
        -0.25107187032699585,
        -0.0447065606713295,
        0.13857220113277435,
        -0.07097848504781723,
        -0.013765087351202965,
        0.05810749530792236,
        0.14957407116889954,
        0.03424963727593422,
        -0.018608851358294487,
        0.17062221467494965,
        -1.0343027114868164,
        -0.15887534618377686,
        -0.00809963047504425,
        0.07537097483873367,
        0.309015154838562,
        0.10820893943309784,
        0.08883938193321228,
        0.2817457318305969,
        -0.07531608641147614,
        0.391462117433548,
        -0.0171800646930933,
        0.688326895236969,
        0.020311972126364708,
        0.32383233308792114,
        0.08945032954216003,
        0.04098856821656227,
        0.4201177954673767,
        -0.01134280115365982,
        0.10638073831796646,
        0.049763962626457214,
        -0.0931529626250267,
        0.0031920154578983784,
        -0.010815368965268135,
        -0.06398201733827591,
        0.07844582200050354,
        -0.06437227874994278,
        -0.3519635796546936,
        -0.040730156004428864,
        0.1425558626651764,
        -0.3482181429862976,
        -0.17436052858829498,
        0.09398568421602249,
        -0.08466561138629913,
        0.08342493325471878,
        -0.024821313098073006,
        -0.07272576540708542,
        -0.1466875523328781,
        0.2125328928232193,
        -0.08286532759666443,
        -0.07291063666343689,
        -0.5064479112625122,
        -0.10051896423101425,
        0.11664029955863953,
        0.07687462866306305,
        0.018921123817563057,
        -0.011527342721819878,
        -0.017710117623209953,
        0.13011617958545685,
        -0.06421186774969101,
        0.16097202897071838,
        -0.03765352442860603,
        0.0646601989865303,
        -0.01895911432802677,
        0.12181095778942108,
        -0.007909761741757393,
        -0.07037164270877838,
        -0.16746734082698822,
        0.4983881711959839,
        -0.3758959472179413,
        -0.029305581003427505,
        -0.011510375887155533
      ],
      [
        0.07647676020860672,
        0.014237316325306892,
        0.11986983567476273,
        -0.2650279104709625,
        -0.04243769124150276,
        -0.12393884360790253,
        0.15145324170589447,
        -0.21021722257137299,
        0.06728044897317886,
        0.048067767173051834,
        -0.19557958841323853,
        -0.0782504454255104,
        0.18233531713485718,
        -0.04278936982154846,
        -0.05961824953556061,
        0.2592865824699402,
        -0.08325092494487762,
        0.17576593160629272,
        -0.042624976485967636,
        0.38299545645713806,
        0.181454136967659,
        -0.018859738484025,
        0.08025477826595306,
        0.09323000907897949,
        -0.10276234894990921,
        -0.018096402287483215,
        -0.0731884241104126,
        -0.0004211152554489672,
        -0.057330310344696045,
        -0.029273970052599907,
        -0.48149991035461426,
        -0.029191894456744194,
        0.02280183508992195,
        -0.17625190317630768,
        -0.13121819496154785,
        0.015902318060398102,
        0.01897089183330536,
        -0.12892170250415802,
        -0.3268261253833771,
        0.024229351431131363,
        -0.040018174797296524,
        0.28161191940307617,
        0.08369386196136475,
        0.018541013821959496,
        0.23456917703151703,
        0.025258000940084457,
        0.06814134865999222,
        0.13831768929958344,
        0.021306129172444344,
        0.12482040375471115,
        -0.1444045603275299,
        0.175685852766037,
        -0.08942627161741257,
        -0.02546563372015953,
        0.042616620659828186,
        -0.18161220848560333,
        -0.095072440803051,
        -0.05126603692770004,
        0.20263920724391937,
        0.10794031620025635,
        0.19160574674606323,
        0.052084263414144516,
        0.09276697784662247,
        0.014146237634122372,
        0.045838363468647,
        -0.018912479281425476,
        -0.09480371326208115,
        -0.2578543722629547,
        -0.08582962304353714,
        0.01775076799094677,
        -0.04088415578007698,
        -0.019452476873993874,
        -0.14910753071308136,
        0.23077325522899628,
        0.04837274178862572,
        -0.007709885481745005,
        0.20923788845539093,
        0.18294906616210938,
        -0.06422366201877594,
        -0.1941026747226715
      ],
      [
        0.0510682575404644,
        -0.10571730136871338,
        -0.07960079610347748,
        -0.04757237434387207,
        -0.0024504815228283405,
        -0.03689653426408768,
        0.11349158734083176,
        -0.1628994196653366,
        0.07611843943595886,
        0.3126048147678375,
        -0.0490863174200058,
        0.08873143047094345,
        0.09651660174131393,
        0.067904993891716,
        -0.2779311537742615,
        0.3127773702144623,
        -0.2083251178264618,
        0.004725945182144642,
        -0.02732168510556221,
        0.34341323375701904,
        0.11091528087854385,
        0.16638819873332977,
        0.09126006066799164,
        0.3045625388622284,
        -0.05856256186962128,
        0.017813675105571747,
        -0.2863435447216034,
        -0.025914091616868973,
        -0.004735415335744619,
        -0.13553990423679352,
        -0.4717021882534027,
        0.04266727715730667,
        0.02494104765355587,
        -0.03883212432265282,
        0.05410057678818703,
        0.28932398557662964,
        -0.0933806300163269,
        -0.15866512060165405,
        -0.34797850251197815,
        0.02947276458144188,
        0.033560678362846375,
        0.007797935977578163,
        -0.11893544346094131,
        0.046277761459350586,
        0.4812297821044922,
        -0.0996369868516922,
        0.036054614931344986,
        -0.004437040537595749,
        0.1109641045331955,
        0.01206464134156704,
        0.032095786184072495,
        -0.07752728462219238,
        -0.15955747663974762,
        0.18930676579475403,
        0.1471322923898697,
        -0.04701035097241402,
        0.07362815737724304,
        -0.09822152554988861,
        0.3251971900463104,
        -0.0019517499022185802,
        0.05815395340323448,
        -0.20959258079528809,
        -0.049510929733514786,
        0.012559457682073116,
        -0.07461382448673248,
        -0.0052400738932192326,
        -0.5166788697242737,
        -0.24956993758678436,
        -0.06049435958266258,
        -0.07838226854801178,
        -0.18587912619113922,
        -0.1009066104888916,
        -0.1521359235048294,
        0.2670424282550812,
        0.05170498415827751,
        0.1237102597951889,
        0.09146580845117569,
        -0.12352148443460464,
        0.01834559068083763,
        -0.233424574136734
      ]
    ],
    "net.2.bias": [
      -0.04711920768022537,
      0.12998232245445251,
      -0.5033472180366516,
      -0.23781795799732208
    ]
  },
  "F2": {
    "n_in": 4,
    "n_hid": 60,
    "n_out": 4,
    "activation": "tanh",
    "net.0.weight": [
      [
        0.4705548584461212,
        0.1724473237991333,
        0.153690904378891,
        0.30152007937431335
      ],
      [
        -0.46128708124160767,
        0.2351616621017456,
        -0.20920497179031372,
        -0.07729581743478775
      ],
      [
        0.28954944014549255,
        0.33554527163505554,
        -0.4065437614917755,
        -0.062227994203567505
      ],
      [
        0.25064146518707275,
        0.046515271067619324,
        0.3377789855003357,
        -0.15961532294750214
      ],
      [
        -0.052442766726017,
        0.22664648294448853,
        0.11079748719930649,
        0.5865586996078491
      ],
      [
        -0.49152058362960815,
        -0.27919867634773254,
        -0.02139604650437832,
        -0.4101894795894623
      ],
      [
        0.3251548111438751,
        0.33678436279296875,
        -0.025231704115867615,
        0.33818739652633667
      ],
      [
        0.17625604569911957,
        -0.6650038361549377,
        0.8227152228355408,
        -0.35791122913360596
      ],
      [
        -0.8068930506706238,
        -0.1388367861509323,
        0.3951773941516876,
        -0.03245944529771805
      ],
      [
        0.22731955349445343,
        -0.3209972679615021,
        0.28489649295806885,
        -0.2662583887577057
      ],
      [
        0.0996876060962677,
        0.18499155342578888,
        -0.04341013729572296,
        0.08686921000480652
      ],
      [
        -0.08699890226125717,
        -0.34641656279563904,
        0.14188212156295776,
        0.19352740049362183
      ],
      [
        -0.09817486256361008,
        0.1280469000339508,
        -0.3441391587257385,
        -0.04110829159617424
      ],
      [
        -0.11567147076129913,
        -0.3733718991279602,
        0.04076859727501869,
        0.020697887986898422
      ],
      [
        -0.06299703568220139,
        -0.06670602411031723,
        0.3595629930496216,
        0.1822398453950882
      ],
      [
        -0.3561289608478546,
        0.5229472517967224,
        -1.0251303911209106,
        -0.3968261778354645
      ],
      [
        0.24657316505908966,
        -0.1639515608549118,
        -0.04918151721358299,
        -0.74858558177948
      ],
      [
        -0.4296271502971649,
        -0.12426649779081345,
        -0.7179373502731323,
        -0.6018117070198059
      ],
      [
        0.6418280005455017,
        -0.47372353076934814,
        -0.3557102382183075,
        -0.351494163274765
      ],
      [
        0.0806494802236557,
        -0.20395293831825256,
        -0.09489074349403381,
        -0.09113381803035736
      ],
      [
        -0.6882721185684204,
        -0.12576499581336975,
        -0.35148823261260986,
        -0.4037952423095703
      ],
      [
        0.407805860042572,
        -0.7025294899940491,
        -0.4436477720737457,
        0.4133235514163971
      ],
      [
        -0.2534649670124054,
        0.6172801852226257,
        -0.16487184166908264,
        -0.8164387941360474
      ],
      [
        0.3411233127117157,
        -0.3583698570728302,
        0.9158865213394165,
        -0.3950021266937256
      ],
      [
        0.207519069314003,
        0.15480028092861176,
        -0.17138049006462097,
        -0.38559722900390625
      ],
      [
        0.05250490456819534,
        -0.605650782585144,
        0.40363839268684387,
        -0.4341171383857727
      ],
      [
        0.31554290652275085,
        -0.7024358510971069,
        0.8511624336242676,
        -0.47675594687461853
      ],
      [
        -0.5515615344047546,
        -0.14517942070960999,
        0.36574384570121765,
        -0.6371328234672546
      ],
      [
        -0.007392333820462227,
        0.39233478903770447,
        -0.15567389130592346,
        0.23510956764221191
      ],
      [
        -0.49466922879219055,
        -0.21554028987884521,
        -0.4155454635620117,
        0.09714137017726898
      ],
      [
        0.5960883498191833,
        -0.1822454035282135,
        0.3432868719100952,
        -0.03870179504156113
      ],
      [
        -0.33836615085601807,
        -0.10903683304786682,
        -0.2121041864156723,
        0.39200299978256226
      ],
      [
        -0.5281047224998474,
        -0.4302729368209839,
        -0.022972093895077705,
        -0.28455227613449097
      ],
      [
        0.0588914230465889,
        0.008707732893526554,
        -0.14655952155590057,
        -0.17507916688919067
      ],
      [
        -0.26983433961868286,
        -0.2392609864473343,
        0.503405749797821,
        -0.455748975276947
      ],
      [
        -0.2549588680267334,
        -0.2977527678012848,
        -0.2511911392211914,
        0.2975148856639862
      ],
      [
        0.3217431902885437,
        -0.42897742986679077,
        0.16925527155399323,
        0.18653623759746552
      ],
      [
        0.8594180345535278,
        0.6124878525733948,
        0.011139309965074062,
        -0.23954741656780243
      ],
      [
        0.06915891915559769,
        -0.11270002275705338,
        0.2524333894252777,
        -0.1205005943775177
      ],
      [
        0.5997124910354614,
        1.2798100709915161,
        0.5373572707176208,
        -0.05512557551264763
      ],
      [
        -0.8945838809013367,
        -0.5241121053695679,
        -0.38936352729797363,
        0.48100969195365906
      ],
      [
        -0.5057138204574585,
        -0.17745156586170197,
        -0.5192288756370544,
        -0.12642964720726013
      ],
      [
        0.015273789875209332,
        -0.14257653057575226,
        -0.3471190333366394,
        -0.29816439747810364
      ],
      [
        0.12189244478940964,
        0.3292350172996521,
        -0.21492233872413635,
        0.2119719237089157
      ],
      [
        0.5053919553756714,
        0.16120105981826782,
        -0.0981241837143898,
        0.13173387944698334
      ],
      [
        -0.2224767953157425,
        0.23939557373523712,
        -0.4119468629360199,
        0.29104506969451904
      ],
      [
        0.6537473201751709,
        -0.49148860573768616,
        0.46016186475753784,
        0.4822838306427002
      ],
      [
        -0.4469222128391266,
        -0.2475063055753708,
        0.27577969431877136,
        -0.8746626973152161
      ],
      [
        0.1505323350429535,
        0.09613390266895294,
        0.45853495597839355,
        -0.5567517876625061
      ],
      [
        -0.5101031064987183,
        0.17655418813228607,
        0.2677185535430908,
        -0.40357959270477295
      ],
      [
        -0.32654646039009094,
        -0.3841753304004669,
        -0.0718059092760086,
        -0.397572785615921
      ],
      [
        0.678257942199707,
        -0.037524230778217316,
        0.33409202098846436,
        0.2404501587152481
      ],
      [
        0.5539805889129639,
        -0.34778672456741333,
        0.4239025115966797,
        0.21076691150665283
      ],
      [
        0.7097762227058411,
        -0.4030615985393524,
        0.6580604314804077,
        0.039980169385671616
      ],
      [
        -0.610852062702179,
        -0.011005895212292671,
        0.5076095461845398,
        -0.3692767024040222
      ],
      [
        0.36339160799980164,
        0.191653773188591,
        -0.11797033250331879,
        0.43985292315483093
      ],
      [
        0.4624425172805786,
        0.09510651975870132,
        0.0842379778623581,
        0.24417538940906525
      ],
      [
        -0.5693718194961548,
        -0.13680711388587952,
        -0.0027640305925160646,
        -0.11797628551721573
      ],
      [
        0.5951619148254395,
        -0.005135435611009598,
        0.2783310115337372,
        0.3297637701034546
      ],
      [
        -0.12614664435386658,
        0.05052892491221428,
        0.03400128707289696,
        0.24453656375408173
      ]
    ],
    "net.0.bias": [
      0.2853085398674011,
      -0.2897780239582062,
      -0.10255198180675507,
      0.5839926600456238,
      -0.12945839762687683,
      -0.27628177404403687,
      0.3427574932575226,
      0.3963049650192261,
      -0.08290249854326248,
      0.037360940128564835,
      -0.39567574858665466,
      -0.4587914049625397,
      0.07484183460474014,
      -0.2237384021282196,
      0.6125263571739197,
      -0.26726850867271423,
      -0.42185184359550476,
      -0.04504726827144623,
      0.10822152346372604,
      0.3929288685321808,
      0.29098716378211975,
      0.6530097723007202,
      -0.11087644845247269,
      -0.47255587577819824,
      -0.3241737186908722,
      0.4444289803504944,
      0.8801393508911133,
      -0.16166506707668304,
      0.007019217126071453,
      -0.15913495421409607,
      0.03499247878789902,
      0.32402023673057556,
      -0.36647072434425354,
      -0.3960224688053131,
      0.4646505117416382,
      -0.11499425023794174,
      -0.06597970426082611,
      0.2969435453414917,
      -0.1170061007142067,
      -0.230163112282753,
      -0.43624910712242126,
      0.5144830346107483,
      -0.3170700967311859,
      -0.17978313565254211,
      -0.19884435832500458,
      -0.3144344389438629,
      -0.1364181935787201,
      -0.4315536916255951,
      0.7760286927223206,
      0.28141480684280396,
      -0.640681803226471,
      -0.3335322439670563,
      0.22061915695667267,
      -0.1442616879940033,
      0.07388383150100708,
      -0.005550157278776169,
      -0.4948706328868866,
      0.2812855541706085,
      -0.025750894099473953,
      0.2825459837913513
    ],
    "net.2.weight": [
      [
        0.11819016188383102,
        -0.06290832161903381,
        0.06932143867015839,
        0.10752099007368088,
        -0.07183173298835754,
        -0.024121856316924095,
        0.0638337954878807,
        0.09613607823848724,
        0.280172735452652,
        0.2164815217256546,
        -0.08853176981210709,
        0.15581990778446198,
        -0.07124845683574677,
        -0.04660472273826599,
        0.12714047729969025,
        0.08628010749816895,
        0.14810746908187866,
        0.214461088180542,
        -0.033708926290273666,
        0.06276305019855499,
        0.11690052598714828,
        -0.23459330201148987,
        0.16939039528369904,
        -0.07362905889749527,
        -0.04389911890029907,
        0.18107131123542786,
        -0.09165975451469421,
        0.10911496728658676,
        -0.1626579463481903,
        -0.10895417630672455,
        -0.19848193228244781,
        0.03733488917350769,
        -0.13172809779644012,
        0.10921954363584518,
        -0.02142154425382614,
        0.05471472814679146,
        0.12032577395439148,
        -0.09750819951295853,
        -0.05647299811244011,
        -0.07286418229341507,
        0.13318434357643127,
        0.1381378322839737,
        -0.09190520644187927,
        -0.13440245389938354,
        -0.1374509334564209,
        0.08123061060905457,
        0.002143980236724019,
        0.10207555443048477,
        0.11974004656076431,
        0.07105985283851624,
        -0.05240993946790695,
        -0.18190933763980865,
        -0.06006477028131485,
        -0.002754706423729658,
        0.31539762020111084,
        -0.0708375945687294,
        -0.07834096252918243,
        0.0009507657960057259,
        -0.07770336419343948,
        -0.026741156354546547
      ],
      [
        0.15388354659080505,
        -0.21019436419010162,
        0.06235646456480026,
        -0.039333026856184006,
        0.007611888460814953,
        -0.21739621460437775,
        0.14590775966644287,
        -0.2836649417877197,
        -0.030798988416790962,
        0.10252408683300018,
        -0.04514538124203682,
        0.014317206107079983,
        0.13376693427562714,
        -0.151714026927948,
        -0.17761753499507904,
        -0.011720836162567139,
        -0.05710109323263168,
        -0.0734093114733696,
        0.08040554821491241,
        0.03669086843729019,
        -0.1952928602695465,
        -0.017600473016500473,
        0.07817381620407104,
        0.09048590064048767,
        -0.054341744631528854,
        -0.3105819821357727,
        -0.41343140602111816,
        -0.23327840864658356,
        0.09384336322546005,
        -0.08942124247550964,
        0.05213656276464462,
        0.005084999371320009,
        -0.1578332930803299,
        -0.08809269219636917,
        -0.513890266418457,
        0.13753998279571533,
        -0.10464214533567429,
        0.0022621757816523314,
        -0.21978744864463806,
        0.032317765057086945,
        0.03811965510249138,
        -0.05033913254737854,
        -0.06033381447196007,
        0.11265824735164642,
        0.07594398409128189,
        0.005489392671734095,
        0.146271750330925,
        0.11568733304738998,
        0.014927747659385204,
        -0.2971678376197815,
        0.022039350122213364,
        -0.10319480299949646,
        -0.003801867365837097,
        -0.05792013555765152,
        -0.18450629711151123,
        0.10683538019657135,
        -0.036204081028699875,
        -0.03947685658931732,
        0.10027731209993362,
        -0.07234502583742142
      ],
      [
        0.02297985553741455,
        -0.08585088700056076,
        0.01172482967376709,
        0.05628814920783043,
        0.08086787909269333,
        -0.0756707489490509,
        0.07297932356595993,
        -0.2292977273464203,
        0.13953393697738647,
        0.2800929844379425,
        -0.07008053362369537,
        -0.1554567664861679,
        -0.05121050402522087,
        -0.1098639965057373,
        0.17588509619235992,
        0.12462393939495087,
        0.1877737045288086,
        0.03852364048361778,
        0.07153284549713135,
        -0.08034028857946396,
        0.14377255737781525,
        -0.07825074344873428,
        0.0681610181927681,
        -0.1664665937423706,
        0.041793808341026306,
        0.10692985355854034,
        -0.23034940659999847,
        0.16726768016815186,
        0.02317298948764801,
        -0.09698966145515442,
        -0.1198035180568695,
        0.05015652999281883,
        -0.11114133894443512,
        -0.12354989349842072,
        0.14135757088661194,
        -0.028998779132962227,
        0.02187950350344181,
        -0.08360934257507324,
        -0.005277158692479134,
        -0.05967005714774132,
        0.046696022152900696,
        -0.0661977231502533,
        -0.08826624602079391,
        -0.09232641756534576,
        -0.10091092437505722,
        0.1163771003484726,
        0.10056806355714798,
        0.11320505291223526,
        -0.15147219598293304,
        -0.05401316285133362,
        -0.07690685987472534,
        -0.1535690426826477,
        -0.08977769315242767,
        -0.14660806953907013,
        0.11202338337898254,
        -0.09732520580291748,
        0.05891398340463638,
        0.0940919741988182,
        -0.03642601892352104,
        -0.07308942079544067
      ],
      [
        0.09951845556497574,
        -0.043416690081357956,
        -0.0986269861459732,
        -0.14804893732070923,
        -0.13053637742996216,
        -0.09698079526424408,
        0.111319400370121,
        0.03379347547888756,
        0.134927436709404,
        0.025469863787293434,
        -0.03439372777938843,
        0.006702602840960026,
        -0.09362825751304626,
        0.13140106201171875,
        0.03073497861623764,
        0.030639544129371643,
        0.09505505114793777,
        -0.04038562625646591,
        0.024693554267287254,
        0.12430628389120102,
        -0.05064166337251663,
        0.04875831678509712,
        0.061135053634643555,
        -0.015711473301053047,
        0.011726019904017448,
        -0.004556905943900347,
        -0.04530436918139458,
        0.02666725032031536,
        0.11586596816778183,
        0.028943082317709923,
        0.03302009031176567,
        0.050158191472291946,
        0.048198308795690536,
        -0.033936697989702225,
        -0.14927944540977478,
        -0.11103248596191406,
        0.08987965434789658,
        -0.10926343500614166,
        -0.04983093962073326,
        0.01889685168862343,
        0.028838764876127243,
        -0.10206402838230133,
        -0.05428430810570717,
        -0.11435984820127487,
        -0.013151089660823345,
        0.14746271073818207,
        -0.11338731646537781,
        -0.055105216801166534,
        0.12122765183448792,
        -0.11850433051586151,
        -0.11299722641706467,
        0.05727303400635719,
        0.08505477011203766,
        -0.03825833275914192,
        -0.0033128440845757723,
        0.05831294506788254,
        0.03372175619006157,
        -0.07361837476491928,
        0.0008817634079605341,
        -0.006246247328817844
      ]
    ],
    "net.2.bias": [
      -0.06435395032167435,
      0.09910070896148682,
      -0.11182372272014618,
      -0.04721181094646454
    ]
  }
}