{
  "name": "PV3",
  "type": "F1+H1+F2",
  "t_step": 0.01,
  "normfacs": {
    "G": {
      "scale": 1000.0,
      "offset": 809.2813110351562,
      "max": 1000.0,
      "min": 0.0
    },
    "Ud": {
      "scale": 0.40000003576278687,
      "offset": 0.9999997615814209,
      "max": 1.2000000476837158,
      "min": 0.800000011920929
    },
    "Uq": {
      "scale": 1.0,
      "offset": -3.3840739238621964e-11,
      "max": 0.5,
      "min": -0.5
    },
    "Id": {
      "scale": 4.686577320098877,
      "offset": 2.4104905128479004,
      "max": 4.686577320098877,
      "min": 0.0
    },
    "Iq": {
      "scale": 4.055089473724365,
      "offset": -0.05657494440674782,
      "max": 1.933085560798645,
      "min": -2.1220040321350098
    },
    "GIrms": {
      "scale": 5902.79296875,
      "offset": 2748.572021484375,
      "max": 5902.79296875,
      "min": 0.0
    },
    "Ramp": {
      "scale": 1.0,
      "offset": 0.8093812465667725,
      "max": 1.0,
      "min": 0.0
    },
    "Vdc": {
      "scale": 635.2540283203125,
      "offset": 495.7726135253906,
      "max": 635.2540283203125,
      "min": 0.0
    },
    "Idc": {
      "scale": 4.1067023277282715,
      "offset": 1.8830465078353882,
      "max": 4.1067023277282715,
      "min": 0.0
    },
    "Vd": {
      "scale": 342.86944580078125,
      "offset": 230.29591369628906,
      "max": 342.86944580078125,
      "min": 0.0
    },
    "Vq": {
      "scale": 296.395751953125,
      "offset": -5.334640026092529,
      "max": 143.6682891845703,
      "min": -152.72744750976562
    }
  },
  "model_folder": "./ucf4t/",
  "model_root": "ucf4t",
  "data_path": "../../data/ucf4.hdf5",
  "lr": 0.001,
  "eps": 1e-08,
  "h5grp_prefix": "ucf",
  "num_iter": 1000,
  "continue_iterations": false,
  "print_freq": 20,
  "batch_size": 405,
  "n_validation_pct": 15,
  "n_validation_seed": 99,
  "n_skip": 0,
  "n_trunc": 0,
  "n_dec": 1,
  "n_loss_skip": 50,
  "n_pad": 100,
  "gtype": "stable2ndx",
  "na": 2,
  "nb": 3,
  "nk": 0,
  "activation": "tanh",
  "nh1": 80,
  "nh2": 60,
  "COL_T": [
    "t"
  ],
  "COL_Y": [
    "Vdc",
    "Idc",
    "Vd",
    "Vq"
  ],
  "COL_U": [
    "G",
    "Ud",
    "Uq",
    "Id",
    "Iq",
    "GIrms",
    "Ramp"
  ],
  "clamps": null,
  "sensitivity": {
    "limit": 70.0,
    "weight": 0.0035,
    "delta": 0.01,
    "inputs": [
      "Id",
      "Iq"
    ],
    "outputs": [
      "Vd",
      "Vq"
    ],
    "GIrms": {
      "G": "G",
      "Id": "Id",
      "Iq": "Iq",
      "k": 1.2247449
    },
    "sets": {
      "G": [
        300.0,
        800.0,
        1000.0
      ],
      "Ud": [
        0.9,
        1.1
      ],
      "Uq": [
        -0.4,
        0.4
      ],
      "Id": [
        0.1,
        3.0,
        3.9
      ],
      "Iq": [
        -2.5,
        0.0,
        2.2
      ],
      "Ramp": [
        0.0,
        1.0
      ]
    }
  },
  "H1": {
    "n_in": 4,
    "n_out": 4,
    "n_b": 3,
    "n_a": 2,
    "n_k": 0,
    "b_0_0": [
      -0.2182053178548813,
      -0.1367781162261963,
      -0.09385431557893753
    ],
    "a_0_0": [
      -0.003336583497002721,
      -0.11992043256759644
    ],
    "alpha1_0_0": -0.001668293378315866,
    "alpha2_0_0": -0.2447991967201233,
    "b_0_1": [
      0.23889710009098053,
      0.05726414546370506,
      -0.02624603547155857
    ],
    "a_0_1": [
      0.07049085944890976,
      -0.021854758262634277
    ],
    "alpha1_0_1": 0.03526003286242485,
    "alpha2_0_1": -0.11851098388433456,
    "b_0_2": [
      -0.1972711831331253,
      0.012210228480398655,
      0.015136503614485264
    ],
    "a_0_2": [
      0.080884650349617,
      -0.0314936637878418
    ],
    "alpha1_0_2": 0.04046439751982689,
    "alpha2_0_2": -0.15021733939647675,
    "b_0_3": [
      -0.0688537061214447,
      0.03672836720943451,
      0.06800007820129395
    ],
    "a_0_3": [
      -0.04944416508078575,
      -0.020786702632904053
    ],
    "alpha1_0_3": -0.024727120995521545,
    "alpha2_0_3": -0.09339256584644318,
    "b_1_0": [
      -0.040813252329826355,
      -0.006608853116631508,
      -0.013967640697956085
    ],
    "a_1_0": [
      0.24564477801322937,
      0.11344730854034424
    ],
    "alpha1_1_0": 0.12344564497470856,
    "alpha2_1_0": -0.02137649990618229,
    "b_1_1": [
      0.33434975147247314,
      0.08604920655488968,
      0.03843376412987709
    ],
    "a_1_1": [
      0.32610195875167847,
      0.16282999515533447
    ],
    "alpha1_1_1": 0.16451939940452576,
    "alpha2_1_1": -0.000528040574863553,
    "b_1_2": [
      -0.3132844865322113,
      -0.13699595630168915,
      -0.03961629047989845
    ],
    "a_1_2": [
      0.036803752183914185,
      -0.17133831977844238
    ],
    "alpha1_1_2": 0.018403952941298485,
    "alpha2_1_2": -0.3915204703807831,
    "b_1_3": [
      -0.11750815808773041,
      0.0021106989588588476,
      0.029492858797311783
    ],
    "a_1_3": [
      0.21312369406223297,
      0.10507798194885254
    ],
    "alpha1_1_3": 0.1069679707288742,
    "alpha2_1_3": -0.003322077915072441,
    "b_2_0": [
      -0.06752676516771317,
      0.01854083500802517,
      0.03854389116168022
    ],
    "a_2_0": [
      0.08463059365749359,
      0.12677013874053955
    ],
    "alpha1_2_0": 0.04234058037400246,
    "alpha2_2_0": 0.17683222889900208,
    "b_2_1": [
      0.22760242223739624,
      -0.05452147498726845,
      -0.12759386003017426
    ],
    "a_2_1": [
      -0.4103805720806122,
      0.18235015869140625
    ],
    "alpha1_2_1": -0.20814500749111176,
    "alpha2_2_1": -0.0574888251721859,
    "b_2_2": [
      -0.2806742787361145,
      -0.05388337001204491,
      -0.021760519593954086
    ],
    "a_2_2": [
      0.34915971755981445,
      0.1510310173034668
    ],
    "alpha1_2_2": 0.17638662457466125,
    "alpha2_2_2": -0.05707445740699768,
    "b_2_3": [
      -0.23690193891525269,
      -0.04678040370345116,
      -0.02183189056813717
    ],
    "a_2_3": [
      -0.3062319755554199,
      0.1162562370300293
    ],
    "alpha1_2_3": -0.15432968735694885,
    "alpha2_2_3": -0.08710280805826187,
    "b_3_0": [
      -0.012219945900142193,
      -0.0150027209892869,
      -0.03857233375310898
    ],
    "a_3_0": [
      -0.19570063054561615,
      0.06670165061950684
    ],
    "alpha1_3_0": -0.09816441684961319,
    "alpha2_3_0": -0.06908170133829117,
    "b_3_1": [
      -0.1565628945827484,
      -0.10107536613941193,
      -0.058596111834049225
    ],
    "a_3_1": [
      -0.5074776411056519,
      0.1237180233001709
    ],
    "alpha1_3_1": -0.25940489768981934,
    "alpha2_3_1": -0.3520509898662567,
    "b_3_2": [
      0.11008647829294205,
      0.01777423545718193,
      0.03563356027007103
    ],
    "a_3_2": [
      0.12800124287605286,
      0.013243913650512695
    ],
    "alpha1_3_2": 0.06408821791410446,
    "alpha2_3_2": -0.10856106877326965,
    "b_3_3": [
      -0.01301110815256834,
      -0.04120103642344475,
      -0.03686906024813652
    ],
    "a_3_3": [
      -0.2690547704696655,
      0.1285722255706787
    ],
    "alpha1_3_3": -0.1353478580713272,
    "alpha2_3_3": -0.013761931098997593
  },
  "H1s": {
    "n_in": 4,
    "n_out": 4,
    "n_a": 3,
    "n_b": 3,
    "b_0_0": [
      -0.2182053178548813,
      -57.31887519359588,
      -4488.377496600149
    ],
    "a_0_0": [
      1.0,
      199.66634165029973,
      8767.429839354008
    ],
    "b_0_1": [
      0.23889710009098053,
      53.50583456456661,
      2699.15210083127
    ],
    "a_0_1": [
      1.0,
      207.04908594489098,
      10486.361011862755
    ],
    "b_0_2": [
      -0.1972711831331253,
      -38.233213778585196,
      -1699.2445103824139
    ],
    "a_0_2": [
      1.0,
      208.0884650349617,
      10493.909865617752
    ],
    "b_0_3": [
      -0.0688537061214447,
      -10.097904503345491,
      358.747392892839
    ],
    "a_0_3": [
      1.0,
      195.05558349192142,
      9297.691322863102
    ],
    "b_1_0": [
      -0.040813252329826355,
      -8.823535777628422,
      -613.8974614441394
    ],
    "a_1_0": [
      1.0,
      224.56447780132294,
      13590.920865535736
    ],
    "b_1_1": [
      0.33434975147247314,
      75.47487094998361,
      4588.327221572401
    ],
    "a_1_1": [
      1.0,
      232.6101958751679,
      14889.319539070137
    ],
    "b_1_2": [
      -0.3132844865322113,
      -76.35649293661118,
      -4898.967333137988
    ],
    "a_1_2": [
      1.0,
      203.68037521839142,
      8654.654324054716
    ],
    "b_1_3": [
      -0.11750815808773041,
      -23.290561721660193,
      -859.0460033155978
    ],
    "a_1_3": [
      1.0,
      221.31236940622327,
      13182.016760110851
    ],
    "b_2_0": [
      -0.06752676516771317,
      -11.65126953274011,
      -104.42038998007854
    ],
    "a_2_0": [
      1.0,
      208.4630593657493,
      12114.007323980324
    ],
    "b_2_1": [
      0.22760242223739624,
      40.068336948752396,
      454.8708721995456
    ],
    "a_2_1": [
      1.0,
      158.9619427919388,
      7719.6958661079425
    ],
    "b_2_2": [
      -0.2806742787361145,
      -61.52319274842739,
      -3563.181683421134
    ],
    "a_2_2": [
      1.0,
      234.91597175598145,
      15001.90734863281
    ],
    "b_2_3": [
      -0.23690193891525269,
      -52.05842815339565,
      -3055.14233186841
    ],
    "a_2_3": [
      1.0,
      169.376802444458,
      8100.242614746094
    ],
    "b_3_0": [
      -0.012219945900142193,
      -3.9442612789571285,
      -657.9500064253797
    ],
    "a_3_0": [
      1.0,
      180.42993694543839,
      8710.010200738907
    ],
    "b_3_1": [
      -0.1565628945827484,
      -41.420115530490875,
      -3162.3437255620956
    ],
    "a_3_1": [
      1.0,
      149.25223588943481,
      6162.40382194519
    ],
    "b_3_2": [
      0.11008647829294205,
      23.794719204306595,
      1634.9427402019617
    ],
    "a_3_2": [
      1.0,
      212.80012428760529,
      11412.451565265656
    ],
    "b_3_3": [
      -0.01301110815256834,
      -6.722325272858145,
      -910.812048241496
    ],
    "a_3_3": [
      1.0,
      173.09452295303345,
      8595.174551010132
    ]
  },
  "Q1s": {
    "n_in": 4,
    "n_out": 4,
    "n_a": 2,
    "n_b": 3,
    "A_0_0": [
      [
        -199.66634165029973,
        -8767.429839354008
      ],
      [
        1.0,
        0.0
      ]
    ],
    "B_0_0": [
      1.0,
      0.0
    ],
    "C_0_0": [
      -13.750617648870907,
      -2575.277681733537
    ],
    "D_0_0": -0.2182053178548813,
    "A_0_1": [
      [
        -207.04908594489098,
        -10486.361011862755
      ],
      [
        1.0,
        0.0
      ]
    ],
    "B_0_1": [
      1.0,
      0.0
    ],
    "C_0_1": [
      4.0424083558439605,
      193.9908645901378
    ],
    "D_0_1": 0.23889710009098053,
    "A_0_2": [
      [
        -208.0884650349617,
        -10493.909865617752
      ],
      [
        1.0,
        0.0
      ]
    ],
    "B_0_2": [
      1.0,
      0.0
    ],
    "C_0_2": [
      2.816643915217675,
      370.9015045003762
    ],
    "D_0_2": -0.1972711831331253,
    "A_0_3": [
      [
        -195.05558349192142,
        -9297.691322863102
      ],
      [
        1.0,
        0.0
      ]
    ],
    "B_0_3": [
      1.0,
      0.0
    ],
    "C_0_3": [
      3.3323953197541876,
      998.9278988451615
    ],
    "D_0_3": -0.0688537061214447,
    "A_1_0": [
      [
        -224.56447780132294,
        -13590.920865535736
      ],
      [
        1.0,
        0.0
      ]
    ],
    "B_1_0": [
      1.0,
      0.0
    ],
    "C_1_0": [
      0.34167091919266035,
      -59.20777876432737
    ],
    "D_1_0": -0.040813252329826355,
    "A_1_1": [
      [
        -232.6101958751679,
        -14889.319539070137
      ],
      [
        1.0,
        0.0
      ]
    ],
    "B_1_1": [
      1.0,
      0.0
    ],
    "C_1_1": [
      -2.2982902308420705,
      -389.91306590993736
    ],
    "D_1_1": 0.33434975147247314,
    "A_1_2": [
      [
        -203.68037521839142,
        -8654.654324054716
      ],
      [
        1.0,
        0.0
      ]
    ],
    "B_1_2": [
      1.0,
      0.0
    ],
    "C_1_2": [
      -12.54659116962928,
      -2187.598397112724
    ],
    "D_1_2": -0.3132844865322113,
    "A_1_3": [
      [
        -221.31236940622327,
        -13182.016760110851
      ],
      [
        1.0,
        0.0
      ]
    ],
    "B_1_3": [
      1.0,
      0.0
    ],
    "C_1_3": [
      2.715447169296482,
      689.94850604662
    ],
    "D_1_3": -0.11750815808773041,
    "A_2_0": [
      [
        -208.4630593657493,
        -12114.007323980324
      ],
      [
        1.0,
        0.0
      ]
    ],
    "B_2_0": [
      1.0,
      0.0
    ],
    "C_2_0": [
      2.4255665231938917,
      713.5993378262982
    ],
    "D_2_0": -0.06752676516771317,
    "A_2_1": [
      [
        -158.9619427919388,
        -7719.6958661079425
      ],
      [
        1.0,
        0.0
      ]
    ],
    "B_2_1": [
      1.0,
      0.0
    ],
    "C_2_1": [
      3.8882137257447127,
      -1302.1506058626367
    ],
    "D_2_1": 0.22760242223739624,
    "A_2_2": [
      [
        -234.91597175598145,
        -15001.90734863281
      ],
      [
        1.0,
        0.0
      ]
    ],
    "B_2_2": [
      1.0,
      0.0
    ],
    "C_2_2": [
      4.411678187776147,
      647.4678413223955
    ],
    "D_2_2": -0.2806742787361145,
    "A_2_3": [
      [
        -169.376802444458,
        -8100.242614746094
      ],
      [
        1.0,
        0.0
      ]
    ],
    "B_2_3": [
      1.0,
      0.0
    ],
    "C_2_3": [
      -11.93273524703784,
      -1136.1791507511043
    ],
    "D_2_3": -0.23690193891525269,
    "A_3_0": [
      [
        -180.42993694543839,
        -8710.010200738907
      ],
      [
        1.0,
        0.0
      ]
    ],
    "B_3_0": [
      1.0,
      0.0
    ],
    "C_3_0": [
      -1.7394172107178045,
      -551.5141529826636
    ],
    "D_3_0": -0.012219945900142193,
    "A_3_1": [
      [
        -149.25223588943481,
        -6162.40382194519
      ],
      [
        1.0,
        0.0
      ]
    ],
    "B_3_1": [
      1.0,
      0.0
    ],
    "C_3_1": [
      -18.052753456693793,
      -2197.539945610565
    ],
    "D_3_1": -0.1565628945827484,
    "A_3_2": [
      [
        -212.80012428760529,
        -11412.451565265656
      ],
      [
        1.0,
        0.0
      ]
    ],
    "B_3_2": [
      1.0,
      0.0
    ],
    "C_3_2": [
      0.3683029411837673,
      378.5861386930917
    ],
    "D_3_2": 0.11008647829294205,
    "A_3_3": [
      [
        -173.09452295303345,
        -8595.174551010132
      ],
      [
        1.0,
        0.0
      ]
    ],
    "B_3_3": [
      1.0,
      0.0
    ],
    "C_3_3": [
      -4.470173714099003,
      -798.9793025681001
    ],
    "D_3_3": -0.01301110815256834
  },
  "F1": {
    "n_in": 7,
    "n_hid": 80,
    "n_out": 4,
    "activation": "tanh",
    "net.0.weight": [
      [
        -0.1513470709323883,
        0.3192121386528015,
        -0.6624650955200195,
        -0.23350924253463745,
        -0.0909174233675003,
        0.10995583236217499,
        -0.061555467545986176
      ],
      [
        -0.15341389179229736,
        -0.13735656440258026,
        0.38712915778160095,
        -0.018510298803448677,
        -0.0986262634396553,
        -0.21818523108959198,
        -0.37805554270744324
      ],
      [
        -0.0291174054145813,
        -0.5949130058288574,
        0.3795795142650604,
        0.24135681986808777,
        -0.1611262410879135,
        -0.07786036282777786,
        0.36713889241218567
      ],
      [
        0.7355261445045471,
        0.08211418986320496,
        0.681882917881012,
        -0.07356409728527069,
        0.018884241580963135,
        0.23803986608982086,
        -0.2811596989631653
      ],
      [
        -0.13863767683506012,
        -0.25947555899620056,
        0.1368408054113388,
        0.25211361050605774,
        -0.16272300481796265,
        -0.18229125440120697,
        -0.3407842218875885
      ],
      [
        -0.41396915912628174,
        -0.23087747395038605,
        -0.12855228781700134,
        0.09363990277051926,
        0.04310981556773186,
        0.006211633328348398,
        -0.2777334153652191
      ],
      [
        -0.267532616853714,
        -0.08424212783575058,
        -0.8713191151618958,
        -0.11616126447916031,
        0.10402484983205795,
        0.1786707043647766,
        -0.21741154789924622
      ],
      [
        0.01714964583516121,
        0.07583487778902054,
        0.5391750335693359,
        0.057380251586437225,
        0.04677852243185043,
        0.13911959528923035,
        -0.0665891245007515
      ],
      [
        -0.25329819321632385,
        -0.13868272304534912,
        -0.7160916924476624,
        -0.11504396051168442,
        0.04410026967525482,
        0.07769545912742615,
        -0.6207504272460938
      ],
      [
        0.7737630009651184,
        0.13123254477977753,
        0.08761724829673767,
        -0.04655781015753746,
        0.04436434805393219,
        0.10078560560941696,
        0.8027500510215759
      ],
      [
        -0.18143920600414276,
        -0.19641302525997162,
        -0.6186497211456299,
        0.29545238614082336,
        0.2620469629764557,
        0.36060816049575806,
        0.42840316891670227
      ],
      [
        -0.3529408872127533,
        1.1563019752502441,
        -0.13434094190597534,
        -0.2751825451850891,
        0.08792269974946976,
        0.19848689436912537,
        -0.46669861674308777
      ],
      [
        0.39048323035240173,
        0.15304595232009888,
        0.3000452518463135,
        -0.0594651959836483,
        0.10160811990499496,
        -0.10646560788154602,
        0.3424999713897705
      ],
      [
        0.17699919641017914,
        0.2907617390155792,
        0.29046496748924255,
        -0.24384401738643646,
        -0.10705824196338654,
        0.17769290506839752,
        0.11889971792697906
      ],
      [
        -0.4390333592891693,
        -0.7208372950553894,
        0.644182026386261,
        0.10604066401720047,
        -0.05264963209629059,
        -0.100710928440094,
        -0.8621856570243835
      ],
      [
        0.42218664288520813,
        -0.0020539499819278717,
        -0.832569420337677,
        0.0035239143762737513,
        0.022493794560432434,
        -0.09635353088378906,
        0.5284196734428406
      ],
      [
        -0.5474178791046143,
        -0.017085988074541092,
        0.5516636967658997,
        -0.19884143769741058,
        -0.10685613751411438,
        0.06237459182739258,
        -0.28310254216194153
      ],
      [
        0.0402163490653038,
        -0.16902665793895721,
        0.20273639261722565,
        -0.13822048902511597,
        0.17488090693950653,
        -0.2934068441390991,
        -0.6511240601539612
      ],
      [
        -0.3309910297393799,
        0.1837974190711975,
        -0.20981444418430328,
        -0.15529249608516693,
        -0.04078734666109085,
        0.07255438715219498,
        -0.5641373991966248
      ],
      [
        1.2316076755523682,
        -0.2810891270637512,
        0.12681463360786438,
        -0.0011782816145569086,
        0.006367819849401712,
        -0.009557316079735756,
        2.1379153728485107
      ],
      [
        0.6920554041862488,
        0.19184522330760956,
        0.4576748311519623,
        0.004048054106533527,
        -0.11963954567909241,
        -0.0984145924448967,
        0.545783281326294
      ],
      [
        -0.2274559885263443,
        0.20091408491134644,
        -0.4038740396499634,
        -0.24609175324440002,
        -0.19908417761325836,
        -0.03439116105437279,
        -0.17522776126861572
      ],
      [
        0.18443922698497772,
        -0.502334475517273,
        0.1686415672302246,
        -0.22426961362361908,
        -0.046768173575401306,
        -0.16831989586353302,
        -0.0007448162650689483
      ],
      [
        -0.0022732822690159082,
        1.714252233505249,
        -0.19305798411369324,
        0.03277132287621498,
        -0.013705547899007797,
        -0.04714830592274666,
        0.044834867119789124
      ],
      [
        -0.7204523682594299,
        0.3366934359073639,
        0.538770318031311,
        -0.0539301298558712,
        0.12209931015968323,
        0.09350256621837616,
        -0.6982115507125854
      ],
      [
        0.37729963660240173,
        -0.06849058717489243,
        0.03236713260412216,
        0.26879119873046875,
        -0.1695888638496399,
        0.009159395471215248,
        0.14437085390090942
      ],
      [
        -0.4307720363140106,
        -0.2399221956729889,
        -0.3817306160926819,
        0.0725356787443161,
        -0.05028094723820686,
        -0.06415033340454102,
        -0.799491822719574
      ],
      [
        -0.0009294366464018822,
        0.28066781163215637,
        0.5312240719795227,
        -0.06658249348402023,
        -0.015182572416961193,
        -0.07794962078332901,
        0.012025516480207443
      ],
      [
        -0.6845914125442505,
        -0.4709447920322418,
        -0.6231234073638916,
        -0.04581267014145851,
        -0.0065325177274644375,
        0.09949012845754623,
        -0.7953348159790039
      ],
      [
        -0.5688520669937134,
        -0.5050238966941833,
        0.7957755923271179,
        -0.10206706076860428,
        0.11502289772033691,
        0.11998146772384644,
        -0.04718922823667526
      ],
      [
        -0.8440486788749695,
        -0.6839078664779663,
        1.0504847764968872,
        -0.03154722601175308,
        0.008987891487777233,
        0.04672877490520477,
        -1.0739065408706665
      ],
      [
        -0.755408763885498,
        0.6566940546035767,
        -0.7467777132987976,
        -0.07541931420564651,
        0.17045103013515472,
        0.049543481320142746,
        -0.2835236191749573
      ],
      [
        -0.7533466219902039,
        0.5712443590164185,
        -0.983822226524353,
        -0.06482119858264923,
        -0.04526422545313835,
        0.008990475907921791,
        -0.40987637639045715
      ],
      [
        -0.28864872455596924,
        0.05609026178717613,
        0.11955362558364868,
        0.14557816088199615,
        -0.0959978699684143,
        0.06441651284694672,
        -0.6686806678771973
      ],
      [
        0.03888477757573128,
        0.8970995545387268,
        0.5217909216880798,
        0.12273953855037689,
        -0.04027695581316948,
        -0.09908802062273026,
        0.18326938152313232
      ],
      [
        -0.6310650110244751,
        0.22834062576293945,
        -1.3194283246994019,
        0.06080746650695801,
        -0.010032229125499725,
        -0.06801052391529083,
        -0.481003075838089
      ],
      [
        0.1002562940120697,
        -0.9999651908874512,
        -0.18837480247020721,
        -0.15871253609657288,
        -0.18004615604877472,
        0.12957945466041565,
        0.09055237472057343
      ],
      [
        -0.4614398181438446,
        -0.2261437028646469,
        0.3296888768672943,
        0.08791356533765793,
        0.13179948925971985,
        0.05039039999246597,
        -0.4356177747249603
      ],
      [
        -0.7171249985694885,
        -0.2439677119255066,
        1.1462669372558594,
        0.07073500007390976,
        -0.022590486332774162,
        -0.08786170929670334,
        -0.756260097026825
      ],
      [
        0.36542031168937683,
        -0.25912192463874817,
        0.06657310575246811,
        0.26115524768829346,
        -0.15438923239707947,
        -0.07737188786268234,
        0.1670709103345871
      ],
      [
        0.00479963468387723,
        0.1304808259010315,
        -0.1771421581506729,
        0.28479328751564026,
        0.09261315315961838,
        0.2732641100883484,
        0.2907862067222595
      ],
      [
        0.020450470969080925,
        -1.2845357656478882,
        -0.6679686307907104,
        -0.10421551018953323,
        0.041670218110084534,
        0.13071613013744354,
        -0.06551183015108109
      ],
      [
        -0.1933215856552124,
        -0.7270713448524475,
        0.4999730587005615,
        -0.1599283665418625,
        0.058275654911994934,
        -0.004038372077047825,
        -0.34960612654685974
      ],
      [
        0.289438396692276,
        0.2692256569862366,
        -0.27919915318489075,
        0.03237975016236305,
        -0.19678114354610443,
        0.035705070942640305,
        0.2028489112854004
      ],
      [
        0.762089729309082,
        0.582494854927063,
        -1.0075914859771729,
        0.024426551535725594,
        0.02812659926712513,
        -0.03532200679183006,
        0.8865389823913574
      ],
      [
        0.5295047163963318,
        -1.170501947402954,
        0.6422920227050781,
        0.0636812224984169,
        0.009614103473722935,
        -0.02327820286154747,
        0.5937761664390564
      ],
      [
        -0.3020584285259247,
        -0.3112833797931671,
        0.3031873404979706,
        0.3385219871997833,
        0.20530743896961212,
        0.03599965572357178,
        0.03793824836611748
      ],
      [
        -0.0003559758479241282,
        -0.29717475175857544,
        -0.625503420829773,
        0.28660109639167786,
        0.12370114773511887,
        -0.24104049801826477,
        -0.012198051437735558
      ],
      [
        0.7155288457870483,
        0.6297625303268433,
        0.851702094078064,
        0.14196030795574188,
        -0.0044188289903104305,
        -0.10993693023920059,
        0.6069310307502747
      ],
      [
        0.4577012360095978,
        0.07871362566947937,
        0.5885944962501526,
        0.13538116216659546,
        0.10643920302391052,
        -0.15102532505989075,
        0.35996392369270325
      ],
      [
        -0.34870970249176025,
        0.8309162259101868,
        -0.5929857492446899,
        0.07428158819675446,
        0.04785875603556633,
        0.07434757798910141,
        -0.3112887740135193
      ],
      [
        -0.0902518630027771,
        0.19181111454963684,
        0.17919568717479706,
        -0.24741192162036896,
        -0.19802330434322357,
        -0.23668108880519867,
        0.41738298535346985
      ],
      [
        0.06588054448366165,
        0.30236029624938965,
        0.40740910172462463,
        -0.1733311265707016,
        -0.1284497082233429,
        0.03597184270620346,
        -0.30822962522506714
      ],
      [
        0.5317069292068481,
        0.07546386867761612,
        -0.4635193943977356,
        -0.28017252683639526,
        -0.1255052238702774,
        0.2678423821926117,
        0.386497437953949
      ],
      [
        0.8117581009864807,
        0.2260984480381012,
        0.11865786463022232,
        -0.08742552250623703,
        0.08353613317012787,
        0.2913302481174469,
        -0.025594912469387054
      ],
      [
        -0.04809490963816643,
        0.9873249530792236,
        0.9665336608886719,
        -0.027488239109516144,
        0.08236382156610489,
        0.07795502990484238,
        0.05012845620512962
      ],
      [
        -0.3101796507835388,
        0.22683222591876984,
        -0.8088693022727966,
        0.15209341049194336,
        0.08156926929950714,
        -0.07025060057640076,
        -0.3175709545612335
      ],
      [
        0.303885281085968,
        0.21502649784088135,
        0.18504445254802704,
        -0.16799300909042358,
        0.19539356231689453,
        0.1305275857448578,
        -0.373877614736557
      ],
      [
        0.8418987393379211,
        0.4411381483078003,
        -0.5822620391845703,
        0.10921124368906021,
        -0.07103756070137024,
        -0.09053368866443634,
        0.889622688293457
      ],
      [
        0.6035163402557373,
        -0.55471271276474,
        0.9536563158035278,
        -0.0323072113096714,
        -0.009257911704480648,
        0.017902588471770287,
        1.2640072107315063
      ],
      [
        0.18374121189117432,
        -0.4855090379714966,
        0.22316637635231018,
        0.15558424592018127,
        0.04697577655315399,
        -0.1697234958410263,
        0.1344459503889084
      ],
      [
        -0.31055107712745667,
        -0.16399730741977692,
        -0.1296745091676712,
        -0.21326595544815063,
        0.047414619475603104,
        0.2948628067970276,
        -0.11463379859924316
      ],
      [
        -0.5525879263877869,
        0.04490475356578827,
        0.1406043916940689,
        -0.17716696858406067,
        0.11633186787366867,
        -0.28269845247268677,
        -0.29776379466056824
      ],
      [
        -0.25902247428894043,
        -0.4035753905773163,
        0.13465136289596558,
        -0.09435258060693741,
        0.3187544047832489,
        -0.11221577227115631,
        0.02018611691892147
      ],
      [
        0.021634764969348907,
        -1.3568205833435059,
        0.3042406439781189,
        0.1290423423051834,
        0.11863435059785843,
        0.12697932124137878,
        -0.06288906186819077
      ],
      [
        0.39616838097572327,
        -0.012232366017997265,
        -0.09570141136646271,
        -0.23405180871486664,
        -0.09921552985906601,
        -0.2556796371936798,
        -0.4170417785644531
      ],
      [
        -0.42674124240875244,
        -0.8786063194274902,
        0.06554281711578369,
        0.13553988933563232,
        0.032072871923446655,
        -0.1683318167924881,
        -0.7573413848876953
      ],
      [
        -0.13753831386566162,
        -0.23699210584163666,
        0.4466037452220917,
        0.12019198387861252,
        0.008325557224452496,
        0.044998422265052795,
        -0.43588921427726746
      ],
      [
        -0.7418113946914673,
        0.5524588823318481,
        0.19598963856697083,
        0.11829300224781036,
        -0.09177616238594055,
        -0.14589980244636536,
        -0.6772909164428711
      ],
      [
        0.41660425066947937,
        -0.4072761833667755,
        0.11392533779144287,
        0.09953591227531433,
        0.04048098996281624,
        -0.018985683098435402,
        -0.052961818873882294
      ],
      [
        -0.25266405940055847,
        0.023552903905510902,
        0.2909691333770752,
        -0.12489250302314758,
        0.12885107100009918,
        0.027278797701001167,
        -0.4714902937412262
      ],
      [
        -0.6483890414237976,
        0.5426899194717407,
        0.9495107531547546,
        -0.1568286418914795,
        0.06696376204490662,
        0.19240780174732208,
        0.3203405439853668
      ],
      [
        -0.403312623500824,
        -0.48249202966690063,
        -0.20332466065883636,
        0.046429768204689026,
        -0.06309016048908234,
        0.03337671607732773,
        -0.6175615787506104
      ],
      [
        0.6818668842315674,
        -1.0141404867172241,
        -1.1300183534622192,
        0.06291302293539047,
        0.040256861597299576,
        -0.08242378383874893,
        0.2915753722190857
      ],
      [
        0.26869702339172363,
        0.3291011154651642,
        -0.014505259692668915,
        -0.021382786333560944,
        0.11025341600179672,
        -0.19385695457458496,
        -0.22610126435756683
      ],
      [
        0.22255662083625793,
        0.4514087736606598,
        0.14192813634872437,
        -0.06479964405298233,
        -0.07122385501861572,
        0.20568722486495972,
        0.5626981258392334
      ],
      [
        -0.7217615246772766,
        -1.4987605810165405,
        -0.9892671704292297,
        0.03382785618305206,
        0.0028710574842989445,
        -0.09844524413347244,
        -0.7116006016731262
      ],
      [
        0.6942248940467834,
        -1.2550785541534424,
        -0.030110744759440422,
        -0.04969150573015213,
        -0.013414081186056137,
        0.03863136097788811,
        0.6766555905342102
      ],
      [
        -0.2438734471797943,
        -0.2878921926021576,
        -0.3945850431919098,
        0.290609747171402,
        -0.16701674461364746,
        -0.2775634825229645,
        0.4126289188861847
      ],
      [
        -0.5959345698356628,
        -0.6066611409187317,
        0.27505794167518616,
        -0.09770636260509491,
        -0.055225178599357605,
        0.12655720114707947,
        -0.10068221390247345
      ]
    ],
    "net.0.bias": [
      -0.5406794548034668,
      -0.32797735929489136,
      -0.23210953176021576,
      0.41067013144493103,
      -0.48784947395324707,
      0.4587942957878113,
      -0.3595846891403198,
      -0.20944921672344208,
      0.2509399354457855,
      0.1879020780324936,
      -0.07998745143413544,
      0.46212896704673767,
      -0.16317211091518402,
      -0.438838928937912,
      -0.06144711375236511,
      0.3048754930496216,
      -0.3371082544326782,
      -0.13745920360088348,
      0.15871387720108032,
      0.5941035151481628,
      0.021115344017744064,
      -0.13649973273277283,
      -0.30835750699043274,
      0.3777024745941162,
      -0.2629331350326538,
      -0.34122416377067566,
      0.05218981206417084,
      0.3580254018306732,
      0.11037008464336395,
      0.44899848103523254,
      0.17590045928955078,
      -0.40313324332237244,
      -0.29299962520599365,
      0.515030026435852,
      0.4343806505203247,
      0.23946723341941833,
      -0.44422248005867004,
      0.33080676198005676,
      0.3984946310520172,
      0.6045787930488586,
      -0.5164712071418762,
      -0.39595291018486023,
      -0.3849373757839203,
      0.47539690136909485,
      -0.18081782758235931,
      -0.3108867406845093,
      0.38309046626091003,
      -0.4135333001613617,
      -0.05654827505350113,
      0.04722846299409866,
      -0.2707599699497223,
      -0.022789670154452324,
      0.2258812040090561,
      0.07999133318662643,
      0.07585407793521881,
      0.4642641246318817,
      0.241545632481575,
      0.06881500035524368,
      0.328467458486557,
      0.1482021063566208,
      -0.023481447249650955,
      0.3403260409832001,
      0.11686916649341583,
      -0.5831900238990784,
      -0.34464743733406067,
      -0.23754292726516724,
      0.29843664169311523,
      -0.26423484086990356,
      -0.13938207924365997,
      0.05328071117401123,
      0.32967817783355713,
      0.2775387167930603,
      0.13714687526226044,
      -0.15402385592460632,
      0.20787972211837769,
      -0.19361981749534607,
      0.010560370050370693,
      -0.39678704738616943,
      -0.2122184783220291,
      0.20269441604614258
    ],
    "net.2.weight": [
      [
        -0.04277338460087776,
        0.0013767536729574203,
        0.05677875876426697,
        0.025533458217978477,
        -0.16038691997528076,
        0.032483648508787155,
        -0.13958053290843964,
        0.10656508058309555,
        -0.1739104688167572,
        0.1060926541686058,
        0.12198904901742935,
        -0.05836982652544975,
        0.11819180101156235,
        -0.10281966626644135,
        -0.21495673060417175,
        0.035046469420194626,
        -0.03952951729297638,
        0.09990939497947693,
        -0.12792553007602692,
        0.31385278701782227,
        0.050674229860305786,
        -0.003046884201467037,
        0.10390224307775497,
        -0.10395344346761703,
        -0.021527040749788284,
        0.14770454168319702,
        -0.18747439980506897,
        0.06224047765135765,
        -0.15521229803562164,
        0.015732767060399055,
        -0.42820295691490173,
        -0.050049569457769394,
        -0.05222213640809059,
        0.039134688675403595,
        0.04454200714826584,
        -0.07312160730361938,
        0.03355031833052635,
        -0.06641234457492828,
        -0.07384290546178818,
        0.02994014322757721,
        0.15973705053329468,
        -0.027034679427742958,
        0.028309252113103867,
        0.004541440401226282,
        0.22207210958003998,
        0.16098056733608246,
        -0.025702470913529396,
        -0.06153292581439018,
        0.16626188158988953,
        0.05748826637864113,
        0.046665895730257034,
        -0.0819583311676979,
        0.05282105505466461,
        0.1544790416955948,
        0.056741807609796524,
        -0.16965840756893158,
        0.019154557958245277,
        -0.08063735067844391,
        0.10609938204288483,
        0.2355295568704605,
        -0.0914120152592659,
        0.0395345538854599,
        -0.13267454504966736,
        0.026348892599344254,
        -0.08200628310441971,
        0.012204843573272228,
        -0.15808016061782837,
        0.010768897831439972,
        -0.1292964518070221,
        0.08401139825582504,
        -0.054039791226387024,
        -0.06852864474058151,
        -0.09394431859254837,
        0.042587243020534515,
        0.017856352031230927,
        0.057942382991313934,
        -0.07754383236169815,
        0.17393800616264343,
        0.08180435746908188,
        0.11979007720947266
      ],
      [
        0.18803353607654572,
        -0.07543716579675674,
        0.018147027119994164,
        -0.1048445925116539,
        0.01174255833029747,
        0.04608107730746269,
        0.184075266122818,
        -0.08322520554065704,
        0.17997460067272186,
        -0.1751638799905777,
        -0.022530343383550644,
        0.10066019743680954,
        -0.07471614331007004,
        -0.026450932025909424,
        -0.0884464681148529,
        0.11174360662698746,
        -0.03530098497867584,
        -0.01460479386150837,
        0.0902666300535202,
        -0.46477097272872925,
        -0.16632720828056335,
        0.01573912426829338,
        0.06933538615703583,
        0.0738336443901062,
        0.07392370700836182,
        0.0833825021982193,
        0.23329704999923706,
        -0.06119854375720024,
        0.18876345455646515,
        -0.11772260069847107,
        -0.11945851147174835,
        0.09631392359733582,
        0.281028151512146,
        0.0801517590880394,
        -0.02002950944006443,
        0.46912264823913574,
        -0.012327644042670727,
        0.07265657186508179,
        -0.1457759588956833,
        -0.09138435125350952,
        0.05706329271197319,
        0.023999644443392754,
        -0.07798577845096588,
        0.05234593152999878,
        0.08763998001813889,
        -0.2730921506881714,
        -0.03886637091636658,
        0.15799221396446228,
        -0.2513672113418579,
        -0.14636150002479553,
        0.12555038928985596,
        -0.08509556204080582,
        0.03457866609096527,
        0.027706142514944077,
        -0.009063995443284512,
        -0.12288504093885422,
        0.215767502784729,
        -0.07791464775800705,
        0.032594192773103714,
        -0.5702822208404541,
        -0.05703398212790489,
        0.029372353106737137,
        0.05657901242375374,
        0.03541659936308861,
        -0.0314926877617836,
        -0.04339677095413208,
        0.06565500795841217,
        -0.0692840963602066,
        0.10950198024511337,
        -0.007500845473259687,
        0.012883634306490421,
        -0.06896469742059708,
        0.10547546297311783,
        0.04399915784597397,
        -0.04133148118853569,
        -0.08989162743091583,
        0.14771658182144165,
        -0.3208059072494507,
        0.006717783398926258,
        -0.00273346365429461
      ],
      [
        0.08268068730831146,
        -0.07125256210565567,
        0.07648903876543045,
        -0.14853313565254211,
        -0.0428367517888546,
        -0.027537118643522263,
        0.17304912209510803,
        -0.07545205950737,
        0.06459175050258636,
        0.0895315632224083,
        -0.044781845062971115,
        -0.06893479079008102,
        0.09580647945404053,
        -0.05848180875182152,
        -0.17118437588214874,
        0.16039679944515228,
        -0.11282113194465637,
        0.03220172971487045,
        -0.044746242463588715,
        0.19396381080150604,
        0.10759725421667099,
        -0.03711056336760521,
        0.011974120512604713,
        -0.08906959742307663,
        -0.13220904767513275,
        -0.00594805832952261,
        -0.09635978192090988,
        -0.09795786440372467,
        -0.038243889808654785,
        -0.09762502461671829,
        -0.5466063022613525,
        0.003421016503125429,
        0.03100072219967842,
        -0.10884715616703033,
        -0.14651508629322052,
        0.11847368627786636,
        0.05719699338078499,
        -0.13162319362163544,
        -0.44839292764663696,
        0.04296424984931946,
        -0.019663546234369278,
        0.2045077532529831,
        -0.04388047382235527,
        0.06701458990573883,
        0.44048747420310974,
        0.1415466070175171,
        0.05784875899553299,
        0.12343969196081161,
        -0.021566880866885185,
        0.005983912386000156,
        -0.039270248264074326,
        0.08826404809951782,
        -0.05637571960687637,
        0.06940686702728271,
        0.0560525581240654,
        -0.18009471893310547,
        -0.004806853830814362,
        -0.03662984445691109,
        0.21445618569850922,
        0.03220664709806442,
        0.01570606417953968,
        0.08273721486330032,
        0.0021510508377104998,
        -0.04206587001681328,
        0.11853045225143433,
        -0.06878436356782913,
        -0.1264420449733734,
        -0.12960205972194672,
        -0.06334216892719269,
        0.007169654127210379,
        -0.025381918996572495,
        -0.059180255979299545,
        -0.12339652329683304,
        0.2485360950231552,
        -0.033882178366184235,
        0.04770105332136154,
        0.14240114390850067,
        0.32259073853492737,
        -0.056304000318050385,
        -0.054920099675655365
      ],
      [
        -0.06621365249156952,
        -0.09457848966121674,
        -0.08662384748458862,
        0.09907685965299606,
        -0.011222738772630692,
        -0.0159880593419075,
        -0.048115700483322144,
        -0.08559390902519226,
        -0.08696456253528595,
        0.22312435507774353,
        -0.06475451588630676,
        0.10163787752389908,
        0.08909030258655548,
        0.07689273357391357,
        -0.22958974540233612,
        0.09955503046512604,
        -0.12368118017911911,
        0.01410449855029583,
        -0.01728951372206211,
        0.5087904334068298,
        0.17967547476291656,
        0.08193694055080414,
        0.07724621891975403,
        0.1729114055633545,
        0.009902575984597206,
        -0.03801220282912254,
        -0.20572665333747864,
        0.01611657440662384,
        -0.23477664589881897,
        -0.07036373019218445,
        -0.5402388572692871,
        0.017034491524100304,
        -0.03377116844058037,
        -0.0073138573206961155,
        0.1648719161748886,
        -0.05424061045050621,
        -0.11992580443620682,
        -0.13564904034137726,
        -0.0742480680346489,
        0.04005451872944832,
        -0.023297160863876343,
        -0.18526983261108398,
        -0.16339996457099915,
        0.07140233367681503,
        0.36064597964286804,
        -0.08865147829055786,
        0.056509558111429214,
        -0.1048574224114418,
        0.27297666668891907,
        0.07843834161758423,
        0.062275029718875885,
        -0.09595885127782822,
        -0.057420022785663605,
        0.07817093282938004,
        0.16079361736774445,
        0.1829262226819992,
        0.015891073271632195,
        -0.05863573029637337,
        0.24648930132389069,
        0.1103939414024353,
        0.007471863646060228,
        -0.08273705840110779,
        -0.028727540746331215,
        -0.0031083954963833094,
        -0.08619170635938644,
        0.007885176688432693,
        -0.271671861410141,
        -0.14751240611076355,
        -0.038346562534570694,
        -0.030770590528845787,
        -0.06251735240221024,
        0.047625064849853516,
        -0.14323347806930542,
        -0.06108288839459419,
        0.06545404344797134,
        0.061228763312101364,
        -0.29559126496315,
        -0.05757501721382141,
        0.013071087189018726,
        -0.08390231430530548
      ]
    ],
    "net.2.bias": [
      -0.09141474962234497,
      -0.014119953848421574,
      -0.15226022899150848,
      -0.14355018734931946
    ]
  },
  "F2": {
    "n_in": 4,
    "n_hid": 60,
    "n_out": 4,
    "activation": "tanh",
    "net.0.weight": [
      [
        0.16713553667068481,
        0.2251802682876587,
        0.37730950117111206,
        0.2101970762014389
      ],
      [
        -0.5317558646202087,
        0.3357720971107483,
        -0.11649727821350098,
        -0.20931017398834229
      ],
      [
        0.20368432998657227,
        0.2291404753923416,
        -0.5678995847702026,
        -0.03123714029788971
      ],
      [
        0.4472694396972656,
        0.1160987839102745,
        0.33709660172462463,
        -0.26278814673423767
      ],
      [
        -0.3756754696369171,
        0.3249889314174652,
        0.04573407396674156,
        0.5108258128166199
      ],
      [
        -0.21059317886829376,
        -0.40312710404396057,
        -0.04081755876541138,
        -0.264207124710083
      ],
      [
        0.1363360583782196,
        0.587041437625885,
        0.09294331818819046,
        0.0551670677959919
      ],
      [
        0.3643594980239868,
        -0.4376387894153595,
        0.7258776426315308,
        -0.4425521194934845
      ],
      [
        -0.4881393313407898,
        -0.07252088189125061,
        0.339399516582489,
        -0.05628439411520958
      ],
      [
        0.07402802258729935,
        -0.40027862787246704,
        0.1537965089082718,
        -0.13277658820152283
      ],
      [
        0.14533835649490356,
        0.34019118547439575,
        0.14110834896564484,
        -0.01074374932795763
      ],
      [
        -0.04648032411932945,
        -0.45561936497688293,
        -0.21468491852283478,
        0.25148630142211914
      ],
      [
        -0.2310677319765091,
        0.2601524293422699,
        -0.1740143597126007,
        -0.17811226844787598
      ],
      [
        0.090169258415699,
        -0.5137187838554382,
        -0.14759552478790283,
        0.1768072247505188
      ],
      [
        -0.04790147393941879,
        -0.15053845942020416,
        0.3900487720966339,
        0.4158337116241455
      ],
      [
        -0.39604175090789795,
        0.25394198298454285,
        -0.544858992099762,
        -0.2563333809375763
      ],
      [
        0.15152253210544586,
        -0.16915634274482727,
        -0.35302630066871643,
        -0.6531709432601929
      ],
      [
        -0.15466685593128204,
        0.10990048944950104,
        -0.5359671711921692,
        -0.40728965401649475
      ],
      [
        0.35482048988342285,
        -0.24454160034656525,
        -0.4293333888053894,
        -0.3563605844974518
      ],
      [
        -0.0801684707403183,
        -0.42524927854537964,
        -0.2376398742198944,
        -0.02596634067595005
      ],
      [
        -0.33781689405441284,
        -0.1542474776506424,
        -0.446268767118454,
        -0.26442569494247437
      ],
      [
        0.09175974875688553,
        -0.3040715754032135,
        -0.5173924565315247,
        0.13463494181632996
      ],
      [
        0.10606327652931213,
        0.37670454382896423,
        -0.18538612127304077,
        -0.23741541802883148
      ],
      [
        0.020832139998674393,
        -0.1885785460472107,
        0.4423312246799469,
        -0.5890775322914124
      ],
      [
        0.01980176940560341,
        0.1223779171705246,
        -0.2832196354866028,
        -0.18620796501636505
      ],
      [
        0.1933642476797104,
        -0.6374527812004089,
        0.02096901275217533,
        -0.1595587134361267
      ],
      [
        0.4092085361480713,
        -0.5449627637863159,
        0.3925177752971649,
        -0.46554210782051086
      ],
      [
        -0.5267430543899536,
        0.08431006222963333,
        0.4247068166732788,
        -0.5206029415130615
      ],
      [
        -0.1918775886297226,
        0.49566587805747986,
        -0.05277981981635094,
        0.144258514046669
      ],
      [
        -0.4247797727584839,
        -0.3083835244178772,
        -0.2634963393211365,
        0.394896000623703
      ],
      [
        0.32898181676864624,
        -0.2866481840610504,
        0.19967156648635864,
        -0.0468163937330246
      ],
      [
        -0.2947739064693451,
        -0.21737658977508545,
        -0.07083403319120407,
        0.500188410282135
      ],
      [
        -0.3526129424571991,
        -0.6510618329048157,
        -0.12498326599597931,
        -0.06121189892292023
      ],
      [
        0.1878942847251892,
        0.1052744910120964,
        -0.20436912775039673,
        -0.1916770339012146
      ],
      [
        -0.019629091024398804,
        -0.24428966641426086,
        0.40003007650375366,
        -0.4393223226070404
      ],
      [
        -0.34246522188186646,
        -0.4178283214569092,
        -0.03249138593673706,
        0.2745349705219269
      ],
      [
        0.6715347766876221,
        -0.4275408983230591,
        -0.07961643487215042,
        0.38624489307403564
      ],
      [
        0.25663599371910095,
        0.37186792492866516,
        -0.06705240905284882,
        -0.3455732464790344
      ],
      [
        0.45230522751808167,
        -0.14637838304042816,
        0.20941261947155,
        -0.01689779944717884
      ],
      [
        0.5108661651611328,
        1.0655401945114136,
        0.7394635677337646,
        -0.17281262576580048
      ],
      [
        -0.333085834980011,
        -0.1922326534986496,
        -0.269713819026947,
        0.5297344923019409
      ],
      [
        -0.09229294210672379,
        -0.2830081582069397,
        -0.14369958639144897,
        -0.17088791728019714
      ],
      [
        0.1564100831747055,
        -0.47656428813934326,
        -0.44216760993003845,
        -0.19530199468135834
      ],
      [
        0.2406504899263382,
        0.21002055704593658,
        -0.3430063724517822,
        0.15631258487701416
      ],
      [
        0.5288406014442444,
        0.029180003330111504,
        -0.2060505449771881,
        0.13255831599235535
      ],
      [
        -0.06340674310922623,
        0.20255611836910248,
        -0.42393824458122253,
        0.30363890528678894
      ],
      [
        0.17591452598571777,
        -0.2981193959712982,
        0.409716933965683,
        0.44376787543296814
      ],
      [
        -0.4835148751735687,
        -0.4159200191497803,
        0.13433964550495148,
        -0.7913930416107178
      ],
      [
        0.12122417241334915,
        0.08095633238554001,
        0.3655287027359009,
        -0.45698145031929016
      ],
      [
        -0.48435866832733154,
        0.1867171972990036,
        0.13350054621696472,
        -0.4529511034488678
      ],
      [
        -0.2956377863883972,
        -0.42042437195777893,
        -0.1573983132839203,
        -0.3272480368614197
      ],
      [
        0.40958064794540405,
        -0.1660316288471222,
        0.323685884475708,
        0.3758813738822937
      ],
      [
        0.3158940076828003,
        -0.3729300796985626,
        0.37273094058036804,
        0.17731720209121704
      ],
      [
        0.5699074268341064,
        -0.41608726978302,
        0.379668653011322,
        0.3350542485713959
      ],
      [
        -0.6988493800163269,
        0.31319117546081543,
        0.6768091917037964,
        -0.42642223834991455
      ],
      [
        0.10085783898830414,
        0.2640438973903656,
        0.15674756467342377,
        0.4480558931827545
      ],
      [
        0.505079448223114,
        0.34631097316741943,
        -0.0023852321319282055,
        0.29916074872016907
      ],
      [
        -0.3765043318271637,
        -0.18767058849334717,
        -0.08781672269105911,
        -0.11610908061265945
      ],
      [
        0.5294205546379089,
        0.0762249156832695,
        0.3893357515335083,
        0.16994568705558777
      ],
      [
        -0.14007331430912018,
        0.192400723695755,
        0.13059429824352264,
        0.46353232860565186
      ]
    ],
    "net.0.bias": [
      0.27969616651535034,
      -0.2246643453836441,
      -0.04716971144080162,
      0.5973947644233704,
      -0.1491132378578186,
      -0.35852688550949097,
      0.3254354000091553,
      0.2857652008533478,
      -0.05970993638038635,
      -0.04582478106021881,
      -0.3484684228897095,
      -0.33521974086761475,
      0.20929241180419922,
      -0.24616192281246185,
      0.43821612000465393,
      -0.3567117154598236,
      -0.17448849976062775,
      0.10620669275522232,
      0.15160034596920013,
      0.39859163761138916,
      0.3212569057941437,
      0.22066663205623627,
      -0.23451080918312073,
      -0.2018003612756729,
      -0.40799298882484436,
      -0.011608774773776531,
      0.7818184494972229,
      0.013394157402217388,
      0.019635217264294624,
      -0.4892083406448364,
      0.13108274340629578,
      0.2390395700931549,
      -0.5949064493179321,
      -0.4135742783546448,
      0.540473222732544,
      0.1223626583814621,
      -0.05537291616201401,
      -0.044009942561388016,
      0.018015796318650246,
      -0.07721297442913055,
      -0.5120658874511719,
      0.39488497376441956,
      -0.28433945775032043,
      -0.1568775475025177,
      -0.11717121303081512,
      -0.26836979389190674,
      -0.07143808156251907,
      -0.49961209297180176,
      0.33005788922309875,
      0.21608421206474304,
      -0.26599860191345215,
      -0.18073917925357819,
      0.171457901597023,
      -0.08981727808713913,
      0.2863066792488098,
      0.1465080827474594,
      -0.23301218450069427,
      0.09083416312932968,
      -0.005896935239434242,
      0.4058476984500885
    ],
    "net.2.weight": [
      [
        0.06922812759876251,
        -0.0794093906879425,
        0.12885801494121552,
        0.2560254633426666,
        0.06593520194292068,
        -0.007286488078534603,
        0.05595482513308525,
        -0.11529045552015305,
        0.22788624465465546,
        0.1538931429386139,
        0.013067011721432209,
        0.04834851995110512,
        -0.1327046900987625,
        0.008542761206626892,
        -0.006578238680958748,
        -0.14992128312587738,
        0.05344736576080322,
        0.07771259546279907,
        -0.13032828271389008,
        0.029957562685012817,
        0.04837527871131897,
        -0.06620138138532639,
        0.13820238411426544,
        -0.1358613818883896,
        -0.0004922354128211737,
        0.16201478242874146,
        -0.0054410649463534355,
        0.06109323725104332,
        -0.1305328756570816,
        -0.07576050609350204,
        -0.09622783958911896,
        0.05563995614647865,
        -0.23780842125415802,
        0.11596798151731491,
        -0.09380578994750977,
        0.04619064927101135,
        0.3347235321998596,
        -0.07154197245836258,
        0.012236092239618301,
        -0.060924481600522995,
        0.13457956910133362,
        0.12750302255153656,
        0.15639448165893555,
        0.02699984237551689,
        -0.09154398739337921,
        0.15234319865703583,
        -0.020746378228068352,
        0.041805583983659744,
        0.11466425657272339,
        -0.03794793039560318,
        -0.04078040271997452,
        -0.08126077800989151,
        0.01771116815507412,
        -0.09060492366552353,
        0.10306598991155624,
        -0.014045048505067825,
        -0.061240535229444504,
        -0.1284252107143402,
        -0.07594528049230576,
        0.0013409468811005354
      ],
      [
        0.0645512044429779,
        0.6320655345916748,
        -0.4519951641559601,
        -0.12771402299404144,
        0.18862029910087585,
        0.07140157371759415,
        0.12575829029083252,
        -0.08624876290559769,
        0.7388120293617249,
        0.015886006876826286,
        0.06007752567529678,
        -0.18179428577423096,
        0.2928592562675476,
        -0.3750309646129608,
        -0.1252792775630951,
        0.1972932368516922,
        0.08976410329341888,
        -0.019904503598809242,
        -0.21737129986286163,
        -0.03920239210128784,
        -0.08361504226922989,
        -0.07349002361297607,
        0.05491931363940239,
        0.1860172152519226,
        -0.09741830080747604,
        -0.22474755346775055,
        -0.31222572922706604,
        0.6405763626098633,
        0.2676782011985779,
        -0.036653004586696625,
        -0.3865050673484802,
        -0.09113220870494843,
        0.016700919717550278,
        -0.23177625238895416,
        0.037122417241334915,
        0.15505962073802948,
        -2.3500189781188965,
        0.021470986306667328,
        -0.3289433419704437,
        0.033573489636182785,
        -0.05268576741218567,
        0.05831737443804741,
        -0.3081958591938019,
        -0.5180419087409973,
        -0.49272796511650085,
        -0.21306996047496796,
        -0.15517403185367584,
        0.48347988724708557,
        0.2365131825208664,
        0.7366132140159607,
        0.13314400613307953,
        -0.3053540885448456,
        -0.34475210309028625,
        -0.3538760840892792,
        0.8491593599319458,
        -0.06945998966693878,
        -0.21744444966316223,
        0.1601944863796234,
        -0.17043305933475494,
        -0.030297858640551567
      ],
      [
        -0.011014300398528576,
        -0.09263944625854492,
        0.06284348666667938,
        0.0712418407201767,
        0.08752092719078064,
        -0.02533540315926075,
        0.04682086408138275,
        -0.2120119035243988,
        0.10812067985534668,
        0.09837743639945984,
        -0.006935681216418743,
        -0.12439204007387161,
        -0.08583114296197891,
        -0.07503142952919006,
        0.07211333513259888,
        0.03983398899435997,
        0.13682053983211517,
        0.11273665726184845,
        0.021763846278190613,
        -0.08143074065446854,
        0.07342631369829178,
        0.06864675879478455,
        -0.0024910231586545706,
        -0.0577116496860981,
        -0.020581835880875587,
        0.017394741997122765,
        -0.0018115607090294361,
        0.0731518417596817,
        0.042180582880973816,
        -0.12773127853870392,
        -0.07614871859550476,
        0.004194901790469885,
        -0.10392618179321289,
        -0.1388232409954071,
        0.07651107013225555,
        0.007976317778229713,
        0.09319449961185455,
        -0.052371393889188766,
        0.016678450629115105,
        -0.08765456825494766,
        -0.020597703754901886,
        0.012886394746601582,
        0.003454436780884862,
        0.03509456291794777,
        -0.024142015725374222,
        0.1145300418138504,
        0.02641959860920906,
        0.008304777555167675,
        -0.08013389259576797,
        -0.10236834734678268,
        -0.024087877944111824,
        -0.1046498641371727,
        -0.029806148260831833,
        0.0014459255617111921,
        0.0209726020693779,
        -0.08183304965496063,
        0.06312119960784912,
        0.04484212398529053,
        -0.020300699397921562,
        -0.015479343943297863
      ],
      [
        0.053173571825027466,
        0.11626871675252914,
        -0.06516964733600616,
        -0.10675953328609467,
        -0.09230346977710724,
        -0.09051857143640518,
        0.13131996989250183,
        -0.11133745312690735,
        0.07771236449480057,
        -0.06389257311820984,
        0.03275793045759201,
        -0.03129957616329193,
        -0.07649438828229904,
        0.02933330647647381,
        0.039550092071294785,
        0.009977978654205799,
        0.18035361170768738,
        -0.11722879111766815,
        0.05074739083647728,
        0.03872824087738991,
        -0.039932601153850555,
        0.03291633352637291,
        0.009491763077676296,
        -0.05134044960141182,
        -0.05854128301143646,
        -0.02824988402426243,
        -0.18273138999938965,
        0.034948937594890594,
        0.1839945763349533,
        0.09384164959192276,
        -0.029302572831511497,
        0.009707975201308727,
        -0.10895641893148422,
        -0.07784906029701233,
        -0.16309754550457,
        -0.09139928221702576,
        0.021663401275873184,
        -0.0002457699738442898,
        -0.03672932833433151,
        0.0024114721454679966,
        0.1267635077238083,
        -0.13283126056194305,
        -0.06666097044944763,
        -0.046678777784109116,
        -0.005343008786439896,
        0.12874750792980194,
        -0.06516134738922119,
        -0.06684540212154388,
        0.013698162510991096,
        -0.09868615120649338,
        -0.09011289477348328,
        -0.007571270223706961,
        0.028644174337387085,
        -0.05323619395494461,
        -0.01731490157544613,
        0.07214013487100601,
        0.01061847060918808,
        -0.016939811408519745,
        -0.05827333778142929,
        0.04339141771197319
      ]
    ],
    "net.2.bias": [
      -0.053273871541023254,
      0.03954688459634781,
      -0.17514358460903168,
      0.06358794122934341
    ]
  }
}