{
  "name": "PV3",
  "type": "F1+H1+F2",
  "t_step": 0.01,
  "normfacs": {
    "G": {
      "scale": 1000.0,
      "offset": 809.2813110351562
    },
    "Ud": {
      "scale": 0.40000003576278687,
      "offset": 0.9999997615814209
    },
    "Uq": {
      "scale": 1.0,
      "offset": -3.3840739238621964e-11
    },
    "Id": {
      "scale": 4.686577320098877,
      "offset": 2.4104905128479004
    },
    "Iq": {
      "scale": 4.055089473724365,
      "offset": -0.05657494440674782
    },
    "GIrms": {
      "scale": 5902.79296875,
      "offset": 2748.572021484375
    },
    "Step": {
      "scale": 1.0,
      "offset": 0.6207584738731384
    },
    "Vdc": {
      "scale": 635.2540283203125,
      "offset": 495.7726135253906
    },
    "Idc": {
      "scale": 4.1067023277282715,
      "offset": 1.8830465078353882
    },
    "Vd": {
      "scale": 342.86944580078125,
      "offset": 230.29591369628906
    },
    "Vq": {
      "scale": 296.395751953125,
      "offset": -5.334640026092529
    }
  },
  "model_folder": "./ucfB_t_2nd_Step/",
  "model_root": "ucfB_t_2nd_Step",
  "data_path": "d:/data/ucf3/ucf4.hdf5",
  "lr": 0.001,
  "eps": 1e-08,
  "h5grp_prefix": "ucf",
  "num_iter": 1000,
  "continue_iterations": false,
  "print_freq": 20,
  "batch_size": 405,
  "n_validation_pct": 15,
  "n_validation_seed": 99,
  "n_skip": 0,
  "n_trunc": 0,
  "n_dec": 1,
  "n_loss_skip": 50,
  "n_pad": 100,
  "gtype": "stable2ndx",
  "na": 2,
  "nb": 3,
  "nk": 0,
  "activation": "tanh",
  "nh1": 80,
  "nh2": 60,
  "COL_T": [
    "t"
  ],
  "COL_Y": [
    "Vdc",
    "Idc",
    "Vd",
    "Vq"
  ],
  "COL_U": [
    "G",
    "Ud",
    "Uq",
    "Id",
    "Iq",
    "GIrms",
    "Step"
  ],
  "clamps": null,
  "sensitivity": {
    "limit": 70.0,
    "weight": 0.0035,
    "delta": 0.01,
    "inputs": [
      "Id",
      "Iq"
    ],
    "outputs": [
      "Vd",
      "Vq"
    ],
    "GIrms": {
      "G": "G",
      "Id": "Id",
      "Iq": "Iq",
      "k": 1.2247449
    },
    "sets": {
      "G": [
        300.0,
        800.0,
        1000.0
      ],
      "Ud": [
        0.9,
        1.1
      ],
      "Uq": [
        -0.4,
        0.4
      ],
      "Id": [
        2.3,
        4.6
      ],
      "Iq": [
        -2.0,
        2.0
      ],
      "Step": [
        0.0,
        1.0
      ]
    }
  },
  "H1": {
    "n_in": 4,
    "n_out": 4,
    "n_b": 3,
    "n_a": 2,
    "n_k": 0,
    "b_0_0": [
      -0.13058814406394958,
      -0.13019472360610962,
      -0.08334608376026154
    ],
    "a_0_0": [
      0.0011014671763405204,
      -0.16259348392486572
    ],
    "alpha1_0_0": 0.0005507336463779211,
    "alpha2_0_0": -0.3294152021408081,
    "b_0_1": [
      -0.06733115762472153,
      0.003394306404516101,
      0.02018524892628193
    ],
    "a_0_1": [
      -0.3000863194465637,
      0.18657517433166504
    ],
    "alpha1_0_1": -0.1511845886707306,
    "alpha2_0_1": 0.08601486682891846,
    "b_0_2": [
      -0.05825091898441315,
      -0.03421497344970703,
      -0.03136363998055458
    ],
    "a_0_2": [
      0.16259896755218506,
      0.05122518539428711
    ],
    "alpha1_0_2": 0.08147931843996048,
    "alpha2_0_2": -0.06549462676048279,
    "b_0_3": [
      -0.014938845299184322,
      -0.0005945561570115387,
      0.001015238231047988
    ],
    "a_0_3": [
      0.41730326414108276,
      0.34542274475097656
    ],
    "alpha1_0_3": 0.21176119148731232,
    "alpha2_0_3": 0.34917113184928894,
    "b_1_0": [
      0.016363734379410744,
      0.04840977489948273,
      0.038075897842645645
    ],
    "a_1_0": [
      0.14873568713665009,
      0.048195600509643555
    ],
    "alpha1_1_0": 0.07450539618730545,
    "alpha2_1_0": -0.056564949452877045,
    "b_1_1": [
      0.26037225127220154,
      0.1133902296423912,
      0.043912164866924286
    ],
    "a_1_1": [
      0.28301382064819336,
      0.12248706817626953
    ],
    "alpha1_1_1": 0.14246295392513275,
    "alpha2_1_1": -0.04431705176830292,
    "b_1_2": [
      -0.18880370259284973,
      -0.1846866011619568,
      -0.14348344504833221
    ],
    "a_1_2": [
      -0.0009995161090046167,
      -0.2724972367286682
    ],
    "alpha1_1_2": -0.0004997581127099693,
    "alpha2_1_2": -0.5604935884475708,
    "b_1_3": [
      0.04524661973118782,
      0.024082379415631294,
      0.04274721443653107
    ],
    "a_1_3": [
      0.1200743317604065,
      -0.00456547737121582
    ],
    "alpha1_1_3": 0.0601094551384449,
    "alpha2_1_3": -0.137674942612648,
    "b_2_0": [
      0.046590715646743774,
      0.09448835253715515,
      0.11364758014678955
    ],
    "a_2_0": [
      0.322295218706131,
      0.1675814390182495
    ],
    "alpha1_2_0": 0.16256466507911682,
    "alpha2_2_0": 0.015339833684265614,
    "b_2_1": [
      0.7341057062149048,
      0.04187241569161415,
      0.044455695897340775
    ],
    "a_2_1": [
      -0.32188743352890015,
      -0.14384996891021729
    ],
    "alpha1_2_1": -0.16235534846782684,
    "alpha2_2_1": -0.7612676024436951,
    "b_2_2": [
      -0.2015756070613861,
      -0.024645265191793442,
      -0.020993296056985855
    ],
    "a_2_2": [
      0.43308699131011963,
      0.19462060928344727
    ],
    "alpha1_2_2": 0.22002668678760529,
    "alpha2_2_2": -0.05597918853163719,
    "b_2_3": [
      0.04126841574907303,
      0.11741187423467636,
      0.09658345580101013
    ],
    "a_2_3": [
      0.35618138313293457,
      0.13114380836486816
    ],
    "alpha1_2_3": 0.1800101399421692,
    "alpha2_2_3": -0.11436302214860916,
    "b_3_0": [
      -0.05251079797744751,
      -0.027761220932006836,
      -0.04298364371061325
    ],
    "a_3_0": [
      -0.16823600232601166,
      0.07499170303344727
    ],
    "alpha1_3_0": -0.08431725203990936,
    "alpha2_3_0": -0.019929498434066772,
    "b_3_1": [
      -0.23217050731182098,
      -0.09361504763364792,
      -0.1315717101097107
    ],
    "a_3_1": [
      -0.21743889153003693,
      -0.06695818901062012
    ],
    "alpha1_3_1": -0.10915086418390274,
    "alpha2_3_1": -0.39944157004356384,
    "b_3_2": [
      0.04954749718308449,
      0.012853366322815418,
      0.05109284445643425
    ],
    "a_3_2": [
      -0.2323702871799469,
      0.04490792751312256
    ],
    "alpha1_3_2": -0.11671221256256104,
    "alpha2_3_2": -0.16164548695087433,
    "b_3_3": [
      -0.06280600279569626,
      -0.08930887281894684,
      -0.0626998022198677
    ],
    "a_3_3": [
      -0.4062618017196655,
      0.16311168670654297
    ],
    "alpha1_3_3": -0.2059960514307022,
    "alpha2_3_3": -0.10052570700645447
  },
  "H1s": {
    "n_in": 4,
    "n_out": 4,
    "n_a": 3,
    "n_b": 3,
    "b_0_0": [
      -0.13058814406394958,
      -39.13710117340087,
      -3441.2895143032065
    ],
    "a_0_0": [
      1.0,
      200.11014671763405,
      8385.079832514748
    ],
    "b_0_1": [
      -0.06733115762472153,
      -13.12680088449268,
      -437.5160229392378
    ],
    "a_0_1": [
      1.0,
      169.99136805534363,
      8864.888548851013
    ],
    "b_0_2": [
      -0.05825091898441315,
      -15.071681141853333,
      -1238.2953241467478
    ],
    "a_0_2": [
      1.0,
      216.2598967552185,
      12138.241529464722
    ],
    "b_0_3": [
      -0.014938845299184322,
      -3.0472246755380183,
      -145.18163225147876
    ],
    "a_0_3": [
      1.0,
      241.73032641410828,
      17627.260088920593
    ],
    "b_1_0": [
      0.016363734379410744,
      8.113724365830421,
      1028.4940712153912
    ],
    "a_1_0": [
      1.0,
      214.873568713665,
      11969.312876462936
    ],
    "b_1_1": [
      0.26037225127220154,
      63.41347321867943,
      4176.74645781517
    ],
    "a_1_1": [
      1.0,
      228.30138206481934,
      14055.008888244629
    ],
    "b_1_2": [
      -0.18880370259284973,
      -56.22940063476564,
      -5169.737488031389
    ],
    "a_1_2": [
      1.0,
      199.90004838909954,
      7265.032471623272
    ],
    "b_1_3": [
      0.04524661973118782,
      11.457561887800695,
      1120.7621358335
    ],
    "a_1_3": [
      1.0,
      212.00743317604065,
      11155.088543891907
    ],
    "b_2_0": [
      0.046590715646743774,
      18.76697838306427,
      2547.2664833068834
    ],
    "a_2_0": [
      1.0,
      232.2295218706131,
      14898.766577243805
    ],
    "b_2_1": [
      0.7341057062149048,
      151.00838281214237,
      8204.338178038595
    ],
    "a_2_1": [
      1.0,
      167.81125664710999,
      5342.625975608826
    ],
    "b_2_2": [
      -0.2015756070613861,
      -42.779647931456566,
      -2472.1416831016536
    ],
    "a_2_2": [
      1.0,
      243.30869913101196,
      16277.076005935669
    ],
    "b_2_3": [
      0.04126841574907303,
      19.994870573282242,
      2552.6374578475948
    ],
    "a_2_3": [
      1.0,
      235.61813831329346,
      14873.251914978027
    ],
    "b_3_0": [
      -0.05251079797744751,
      -13.278281688690182,
      -1232.556626200676
    ],
    "a_3_0": [
      1.0,
      183.17639976739883,
      9067.557007074356
    ],
    "b_3_1": [
      -0.23217050731182098,
      -55.79560622572899,
      -4573.572650551795
    ],
    "a_3_1": [
      1.0,
      178.2561108469963,
      7156.02919459343
    ],
    "b_3_2": [
      0.04954749718308449,
      11.194836068898438,
      1134.9370796233416
    ],
    "a_3_2": [
      1.0,
      176.7629712820053,
      8125.376403331757
    ],
    "b_3_3": [
      -0.06280600279569626,
      -21.492087841033936,
      -2148.1467783451076
    ],
    "a_3_3": [
      1.0,
      159.37381982803345,
      7568.498849868774
    ]
  },
  "Q1s": {
    "n_in": 4,
    "n_out": 4,
    "n_a": 2,
    "n_b": 3,
    "A_0_0": [
      [
        -200.11014671763405,
        -8385.079832514748
      ],
      [
        1.0,
        0.0
      ]
    ],
    "B_0_0": [
      1.0,
      0.0
    ],
    "C_0_0": [
      -13.005088505180389,
      -2346.2975011470526
    ],
    "D_0_0": -0.13058814406394958,
    "A_0_1": [
      [
        -169.99136805534363,
        -8864.888548851013
      ],
      [
        1.0,
        0.0
      ]
    ],
    "B_0_1": [
      1.0,
      0.0
    ],
    "C_0_1": [
      -1.6810852871162858,
      159.3671852690386
    ],
    "D_0_1": -0.06733115762472153,
    "A_0_2": [
      [
        -216.2598967552185,
        -12138.241529464722
      ],
      [
        1.0,
        0.0
      ]
    ],
    "B_0_2": [
      1.0,
      0.0
    ],
    "C_0_2": [
      -2.4743434163875477,
      -531.2316002006592
    ],
    "D_0_2": -0.05825091898441315,
    "A_0_3": [
      [
        -241.73032641410828,
        -17627.260088920593
      ],
      [
        1.0,
        0.0
      ]
    ],
    "B_0_3": [
      1.0,
      0.0
    ],
    "C_0_3": [
      0.5639472748836747,
      118.14927926539204
    ],
    "D_0_3": -0.014938845299184322,
    "A_1_0": [
      [
        -214.873568713665,
        -11969.312876462936
      ],
      [
        1.0,
        0.0
      ]
    ],
    "B_1_0": [
      1.0,
      0.0
    ],
    "C_1_0": [
      4.5975903622439445,
      832.6314146008909
    ],
    "D_1_0": 0.016363734379410744,
    "A_1_1": [
      [
        -228.30138206481934,
        -14055.008888244629
      ],
      [
        1.0,
        0.0
      ]
    ],
    "B_1_1": [
      1.0,
      0.0
    ],
    "C_1_1": [
      3.9701284019074023,
      517.2121519321136
    ],
    "D_1_1": 0.26037225127220154,
    "A_1_2": [
      [
        -199.90004838909954,
        -7265.032471623272
      ],
      [
        1.0,
        0.0
      ]
    ],
    "B_1_2": [
      1.0,
      0.0
    ],
    "C_1_2": [
      -18.487531350413818,
      -3798.072457931633
    ],
    "D_1_2": -0.18880370259284973,
    "A_1_3": [
      [
        -212.00743317604065,
        -11155.088543891907
      ],
      [
        1.0,
        0.0
      ]
    ],
    "B_1_3": [
      1.0,
      0.0
    ],
    "C_1_3": [
      1.864942178699172,
      616.0320864202932
    ],
    "D_1_3": 0.04524661973118782,
    "A_2_0": [
      [
        -232.2295218706131,
        -14898.766577243805
      ],
      [
        1.0,
        0.0
      ]
    ],
    "B_2_0": [
      1.0,
      0.0
    ],
    "C_2_0": [
      7.947238764811271,
      1853.1222862193072
    ],
    "D_2_0": 0.046590715646743774,
    "A_2_1": [
      [
        -167.81125664710999,
        -5342.625975608826
      ],
      [
        1.0,
        0.0
      ]
    ],
    "B_2_1": [
      1.0,
      0.0
    ],
    "C_2_1": [
      27.81718174040506,
      4282.285963172184
    ],
    "D_2_1": 0.7341057062149048,
    "A_2_2": [
      [
        -243.30869913101196,
        -16277.076005935669
      ],
      [
        1.0,
        0.0
      ]
    ],
    "B_2_2": [
      1.0,
      0.0
    ],
    "C_2_2": [
      6.265450799193317,
      808.9197939791507
    ],
    "D_2_2": -0.2015756070613861,
    "A_2_3": [
      [
        -235.61813831329346,
        -14873.251914978027
      ],
      [
        1.0,
        0.0
      ]
    ],
    "B_2_3": [
      1.0,
      0.0
    ],
    "C_2_3": [
      10.271283283346655,
      1938.841914279585
    ],
    "D_2_3": 0.04126841574907303,
    "A_3_0": [
      [
        -183.17639976739883,
        -9067.557007074356
      ],
      [
        1.0,
        0.0
      ]
    ],
    "B_3_0": [
      1.0,
      0.0
    ],
    "C_3_0": [
      -3.659542766268139,
      -756.4119720532059
    ],
    "D_3_0": -0.05251079797744751,
    "A_3_1": [
      [
        -178.2561108469963,
        -7156.02919459343
      ],
      [
        1.0,
        0.0
      ]
    ],
    "B_3_1": [
      1.0,
      0.0
    ],
    "C_3_1": [
      -14.409794538949662,
      -2912.1537221048366
    ],
    "D_3_1": -0.23217050731182098,
    "A_3_2": [
      [
        -176.7629712820053,
        -8125.376403331757
      ],
      [
        1.0,
        0.0
      ]
    ],
    "B_3_2": [
      1.0,
      0.0
    ],
    "C_3_2": [
      2.436673247229635,
      732.3450151677603
    ],
    "D_3_2": 0.04954749718308449,
    "A_3_3": [
      [
        -159.37381982803345,
        -7568.498849868774
      ],
      [
        1.0,
        0.0
      ]
    ],
    "B_3_3": [
      1.0,
      0.0
    ],
    "C_3_3": [
      -11.482455267353675,
      -1672.7996184210253
    ],
    "D_3_3": -0.06280600279569626
  },
  "F1": {
    "n_in": 7,
    "n_hid": 80,
    "n_out": 4,
    "activation": "tanh",
    "net.0.weight": [
      [
        -0.2703588306903839,
        0.09505177289247513,
        -0.3600362241268158,
        -0.2838033139705658,
        -0.14956966042518616,
        0.06452656537294388,
        -0.05447586625814438
      ],
      [
        0.4207049012184143,
        0.23186162114143372,
        0.09211323410272598,
        -0.11776507645845413,
        -0.061808034777641296,
        -0.39509421586990356,
        -0.24012814462184906
      ],
      [
        0.3028999865055084,
        -1.48244047164917,
        0.21670591831207275,
        0.16207033395767212,
        -0.07417409867048264,
        -0.15107828378677368,
        0.05773671716451645
      ],
      [
        1.011847734451294,
        0.5496265292167664,
        0.010378137230873108,
        -0.058498889207839966,
        -0.019216390326619148,
        0.29846805334091187,
        -0.4105416238307953
      ],
      [
        -0.46642032265663147,
        -0.18448980152606964,
        -0.1839296817779541,
        0.2800476849079132,
        -0.12188886851072311,
        -0.22037123143672943,
        -0.546327531337738
      ],
      [
        -0.7685347199440002,
        -0.3890465497970581,
        0.51689213514328,
        0.06984580308198929,
        0.050467368215322495,
        -0.03968323394656181,
        -0.2553929090499878
      ],
      [
        -0.389896035194397,
        -0.15569184720516205,
        -0.7464677691459656,
        -0.16128115355968475,
        0.13146695494651794,
        0.18219372630119324,
        -0.11598344892263412
      ],
      [
        0.2752276659011841,
        0.005026862490922213,
        1.0983363389968872,
        -0.0064866263419389725,
        0.016452031210064888,
        0.10781434923410416,
        0.061260707676410675
      ],
      [
        -0.6516802310943604,
        -0.05455407872796059,
        -1.3530329465866089,
        -0.14608323574066162,
        0.0574372373521328,
        0.1255992203950882,
        -0.29635244607925415
      ],
      [
        1.5732290744781494,
        0.2185194194316864,
        -0.4538196623325348,
        -0.031598903238773346,
        0.01354010496288538,
        0.17844124138355255,
        0.10573945194482803
      ],
      [
        -0.4187120795249939,
        -0.12488926202058792,
        0.004663689527660608,
        0.20223663747310638,
        0.24680326879024506,
        0.2588214874267578,
        -0.09091713279485703
      ],
      [
        -0.7850233316421509,
        0.22952677309513092,
        -0.29586824774742126,
        -0.2803841829299927,
        0.13786332309246063,
        0.24135321378707886,
        -0.17931805551052094
      ],
      [
        0.37770044803619385,
        0.26333490014076233,
        0.07504136860370636,
        -0.05618558079004288,
        0.04413370415568352,
        -0.01394311711192131,
        0.3471539616584778
      ],
      [
        0.3606005012989044,
        1.26539945602417,
        -0.5729686617851257,
        -0.2210388034582138,
        -0.14895649254322052,
        0.2345024198293686,
        0.020248891785740852
      ],
      [
        -0.6521607041358948,
        -0.8189841508865356,
        0.639385461807251,
        0.1368059664964676,
        -0.06118690222501755,
        -0.13927602767944336,
        -0.1957721710205078
      ],
      [
        -0.3791174590587616,
        -0.31094953417778015,
        -1.4425342082977295,
        0.07979592680931091,
        0.009838326834142208,
        -0.07145126909017563,
        -1.5661695003509521
      ],
      [
        -0.5326105356216431,
        0.32383817434310913,
        0.4309246838092804,
        -0.3379586338996887,
        -0.12309075891971588,
        0.008982133120298386,
        0.06868810206651688
      ],
      [
        0.42407894134521484,
        -0.12347966432571411,
        0.19230526685714722,
        -0.09754813462495804,
        0.11692751199007034,
        -0.24114014208316803,
        -0.42824381589889526
      ],
      [
        -0.6741689443588257,
        0.2191176563501358,
        -0.615612268447876,
        -0.18055486679077148,
        -0.059970688074827194,
        0.10532058030366898,
        -0.2524517774581909
      ],
      [
        2.043879508972168,
        -0.023695118725299835,
        -0.2747819423675537,
        0.02445453219115734,
        -0.03696223348379135,
        0.10443155467510223,
        0.04082144796848297
      ],
      [
        1.238739252090454,
        0.15894363820552826,
        0.045074768364429474,
        0.014119777828454971,
        -0.1733895242214203,
        -0.10299757868051529,
        -0.019258715212345123
      ],
      [
        0.04264475405216217,
        -0.2408355474472046,
        -0.20071186125278473,
        -0.2562806010246277,
        -0.2518606185913086,
        0.039290234446525574,
        0.019408486783504486
      ],
      [
        -0.0676649957895279,
        -0.36300018429756165,
        0.26758667826652527,
        -0.19230249524116516,
        -0.02485591731965542,
        0.015453942120075226,
        -0.016326915472745895
      ],
      [
        -0.38392966985702515,
        0.41350871324539185,
        -1.2293179035186768,
        0.030826428905129433,
        -0.0001167390146292746,
        -0.09151498228311539,
        0.2620309591293335
      ],
      [
        -0.752738893032074,
        -0.03484748303890228,
        0.4602455198764801,
        -0.1080188974738121,
        0.1890772134065628,
        0.11205374449491501,
        -0.1467427760362625
      ],
      [
        0.05598313361406326,
        0.3365730345249176,
        -0.18901152908802032,
        0.21948650479316711,
        -0.2960887849330902,
        -0.026397893205285072,
        -0.27730435132980347
      ],
      [
        -1.0918149948120117,
        -1.9002794027328491,
        0.8129218220710754,
        0.08504094183444977,
        -0.026645587757229805,
        -0.11505813896656036,
        -0.879945695400238
      ],
      [
        0.8190978765487671,
        0.1792803257703781,
        0.16724300384521484,
        -0.18309679627418518,
        0.025469446554780006,
        -0.14834055304527283,
        0.13551606237888336
      ],
      [
        -0.6566781401634216,
        -0.04531601443886757,
        -1.25614333152771,
        -0.10096815973520279,
        -0.005709910299628973,
        0.12295334786176682,
        -1.389229655265808
      ],
      [
        -0.5757412314414978,
        -0.05987139046192169,
        0.8752191662788391,
        -0.14237940311431885,
        0.15897169709205627,
        0.13367696106433868,
        -0.2597144842147827
      ],
      [
        1.1477614641189575,
        0.2426529824733734,
        -0.7454983592033386,
        -0.10482246428728104,
        -0.01694304868578911,
        0.07123475521802902,
        -0.06006134673953056
      ],
      [
        -0.7423745393753052,
        0.33651217818260193,
        -0.5804523229598999,
        -0.07851456850767136,
        0.31174737215042114,
        -0.031123008579015732,
        -0.05933590605854988
      ],
      [
        -1.7970577478408813,
        0.1490083485841751,
        -0.13978531956672668,
        -0.08699523657560349,
        -0.05879971385002136,
        -0.04359452426433563,
        -0.056475818157196045
      ],
      [
        0.0030072242952883244,
        -0.4262511432170868,
        0.47386273741722107,
        0.18444013595581055,
        -0.2111828327178955,
        0.28631356358528137,
        -0.22035522758960724
      ],
      [
        -0.5735920667648315,
        0.7112864851951599,
        0.030701307579874992,
        0.1578149050474167,
        -0.07590406388044357,
        -0.09886597841978073,
        0.017440948635339737
      ],
      [
        -1.2101281881332397,
        0.04198753088712692,
        -1.029670238494873,
        0.08476254343986511,
        -0.01726425625383854,
        -0.11096056550741196,
        -0.16215354204177856
      ],
      [
        0.5948959589004517,
        -0.46509963274002075,
        -0.3216682970523834,
        -0.14014655351638794,
        -0.17295682430267334,
        0.164197638630867,
        -0.47311896085739136
      ],
      [
        -0.4694647789001465,
        -0.34179288148880005,
        0.6284976601600647,
        0.052790917456150055,
        0.11909342557191849,
        -0.009884391911327839,
        -0.49832186102867126
      ],
      [
        -0.6959757804870605,
        0.32595017552375793,
        1.7944976091384888,
        0.0811052918434143,
        -0.023547006770968437,
        -0.10206940025091171,
        -0.45471706986427307
      ],
      [
        0.39378029108047485,
        -0.17095254361629486,
        -0.14079460501670837,
        0.325462281703949,
        -0.1698523908853531,
        0.008972098119556904,
        0.06854216009378433
      ],
      [
        -0.07822509855031967,
        0.8459361791610718,
        0.07531003654003143,
        0.2274438440799713,
        0.07018949091434479,
        0.37275099754333496,
        -1.193942904472351
      ],
      [
        0.7670004963874817,
        -3.073918581008911,
        -0.33827152848243713,
        -0.06263182312250137,
        0.0016320976428687572,
        0.0861649140715599,
        0.4653702974319458
      ],
      [
        0.1201944500207901,
        0.017580324783921242,
        0.2312518060207367,
        -0.21965833008289337,
        0.14987574517726898,
        -0.07971036434173584,
        0.01606510579586029
      ],
      [
        0.008942119777202606,
        -0.40360227227211,
        -0.18868377804756165,
        0.09961799532175064,
        -0.2028941810131073,
        0.10984604060649872,
        -0.012755529955029488
      ],
      [
        0.5301695466041565,
        0.5684812664985657,
        -1.394395112991333,
        0.051333777606487274,
        0.02864832617342472,
        -0.06958526372909546,
        1.148134708404541
      ],
      [
        1.0797598361968994,
        -0.5721701383590698,
        0.32737162709236145,
        0.08156398683786392,
        0.018997924402356148,
        0.012201642617583275,
        0.055933501571416855
      ],
      [
        -0.22585748136043549,
        -0.10422074049711227,
        -0.05190329998731613,
        0.3430844247341156,
        0.32866454124450684,
        0.05351551994681358,
        0.08025655895471573
      ],
      [
        -0.4158897399902344,
        -0.14144441485404968,
        -0.46998605132102966,
        0.30405011773109436,
        0.14871658384799957,
        -0.27189499139785767,
        -0.08911313116550446
      ],
      [
        1.0607150793075562,
        0.6744786500930786,
        0.8858138918876648,
        0.20136836171150208,
        -0.021468792110681534,
        -0.11354383826255798,
        0.03800313547253609
      ],
      [
        0.7871564626693726,
        -0.06510762125253677,
        0.6702510714530945,
        0.1689434051513672,
        0.11123894155025482,
        -0.16586004197597504,
        0.11096765100955963
      ],
      [
        -0.9992958903312683,
        0.17047211527824402,
        0.019788501784205437,
        0.11019451916217804,
        0.03172466158866882,
        0.08082816004753113,
        0.0011244271881878376
      ],
      [
        0.3335890769958496,
        -0.06829347461462021,
        -0.09072382003068924,
        -0.13259314000606537,
        -0.2786099314689636,
        -0.24359014630317688,
        0.1955041140317917
      ],
      [
        -0.22287258505821228,
        0.0009488235227763653,
        1.1296024322509766,
        -0.15671171247959137,
        -0.075030617415905,
        0.08815225213766098,
        -0.17671215534210205
      ],
      [
        -0.2338198572397232,
        -0.00900052860379219,
        -0.01955452188849449,
        -0.2322920262813568,
        -0.03728282451629639,
        0.2769593298435211,
        0.48969021439552307
      ],
      [
        0.8765379190444946,
        0.3399609625339508,
        0.1616404503583908,
        -0.10274726152420044,
        0.05150986835360527,
        0.2995830774307251,
        0.0253777913749218
      ],
      [
        1.1390888690948486,
        0.45048195123672485,
        0.14210480451583862,
        -0.11095470190048218,
        0.09872288256883621,
        -0.005779367871582508,
        0.05413765832781792
      ],
      [
        -0.8559960126876831,
        -0.14149032533168793,
        -0.44193968176841736,
        0.17205806076526642,
        0.10753734409809113,
        -0.1157066822052002,
        -0.15771029889583588
      ],
      [
        0.21294933557510376,
        0.12228145450353622,
        -0.052375081926584244,
        -0.21557217836380005,
        0.2385513186454773,
        0.09133060276508331,
        -0.2650233507156372
      ],
      [
        0.5077770352363586,
        0.2173474133014679,
        -0.1496446281671524,
        0.1867782026529312,
        -0.14104734361171722,
        -0.04057244211435318,
        0.13151118159294128
      ],
      [
        1.4240802526474,
        -0.12560905516147614,
        0.07072697579860687,
        -0.10017098486423492,
        -0.043156158179044724,
        0.054781898856163025,
        0.074619822204113
      ],
      [
        1.1864744424819946,
        0.28249430656433105,
        -0.13040132820606232,
        0.16539190709590912,
        0.10319751501083374,
        -0.27934587001800537,
        -0.04668739438056946
      ],
      [
        -0.7706612348556519,
        -1.2924551963806152,
        0.7401642799377441,
        -0.2572552561759949,
        0.06334657967090607,
        0.2637127637863159,
        -0.3506086766719818
      ],
      [
        -0.335509330034256,
        0.1984943151473999,
        0.5772145390510559,
        -0.24841347336769104,
        -0.0031240389216691256,
        -0.38505905866622925,
        -0.019228046759963036
      ],
      [
        -0.5635867714881897,
        -0.0956406220793724,
        0.04059212654829025,
        -0.2836388051509857,
        0.21863166987895966,
        -0.1057853177189827,
        0.1288251131772995
      ],
      [
        0.07265913486480713,
        -0.1821233183145523,
        -0.06542351841926575,
        0.11251471191644669,
        0.2548068165779114,
        0.07712578028440475,
        -0.23251989483833313
      ],
      [
        0.298666775226593,
        0.44574812054634094,
        0.06765726208686829,
        -0.3489946126937866,
        -0.005809794180095196,
        -0.6605239510536194,
        -0.07000095397233963
      ],
      [
        -0.5336834788322449,
        -0.9521428346633911,
        1.1388212442398071,
        0.15242628753185272,
        0.03265522047877312,
        -0.2188325971364975,
        -0.4896901249885559
      ],
      [
        -0.1535370945930481,
        -0.12511010468006134,
        1.1565626859664917,
        0.04616115242242813,
        -0.01673879474401474,
        -0.0034096783492714167,
        -0.25172626972198486
      ],
      [
        -1.1320714950561523,
        0.36199796199798584,
        -0.04175804555416107,
        0.19393254816532135,
        -0.10707756131887436,
        -0.2362571805715561,
        -0.23254603147506714
      ],
      [
        0.45911499857902527,
        -0.07928977161645889,
        0.5206820964813232,
        0.08947526663541794,
        0.06368832290172577,
        -0.03185557201504707,
        -0.05877947807312012
      ],
      [
        -0.12644286453723907,
        -0.12255613505840302,
        0.20471397042274475,
        -0.12698236107826233,
        0.15969137847423553,
        0.09934952110052109,
        -0.44017353653907776
      ],
      [
        -0.23831085860729218,
        0.6385293006896973,
        0.8080170750617981,
        -0.28188011050224304,
        0.17218685150146484,
        0.19087615609169006,
        0.45002466440200806
      ],
      [
        -0.21196310222148895,
        -1.2199299335479736,
        -0.008738821372389793,
        0.06652195751667023,
        -0.03898736834526062,
        -0.01040834840387106,
        -0.9161956906318665
      ],
      [
        1.2470322847366333,
        0.3058134913444519,
        -0.5146522521972656,
        0.09126457571983337,
        0.04715608060359955,
        -0.14937259256839752,
        0.016454359516501427
      ],
      [
        1.0283546447753906,
        0.33966633677482605,
        0.03793248534202576,
        -0.05020741745829582,
        0.09552135318517685,
        -0.1991644948720932,
        0.09888087213039398
      ],
      [
        0.8979592323303223,
        0.7206600308418274,
        -0.553866982460022,
        -0.08086703717708588,
        -0.09343226999044418,
        0.3125714063644409,
        0.38238367438316345
      ],
      [
        -0.9004178643226624,
        -1.248716950416565,
        -1.3889131546020508,
        0.06479579955339432,
        -0.017428511753678322,
        -0.09325720369815826,
        -0.26355236768722534
      ],
      [
        0.48764824867248535,
        -1.2652549743652344,
        0.8283078670501709,
        -0.07752427458763123,
        -0.023844553157687187,
        0.09562922269105911,
        0.4044283330440521
      ],
      [
        -0.5186383128166199,
        0.2949466407299042,
        0.07065920531749725,
        0.39638060331344604,
        -0.18026967346668243,
        -0.3053644597530365,
        0.10833731293678284
      ],
      [
        -1.0686365365982056,
        -0.470174640417099,
        0.9564486145973206,
        -0.13953010737895966,
        -0.027767688035964966,
        0.16313178837299347,
        -0.2336408644914627
      ]
    ],
    "net.0.bias": [
      -0.5390232801437378,
      -0.18696075677871704,
      -0.3710062801837921,
      -0.06008743494749069,
      -0.07679632306098938,
      0.1915457844734192,
      -0.24310708045959473,
      -0.07136795669794083,
      0.24931365251541138,
      0.36260926723480225,
      0.5056951642036438,
      -0.035459987819194794,
      -0.024922266602516174,
      0.32348066568374634,
      0.0025691292248666286,
      0.5101506114006042,
      -0.3833058476448059,
      -0.22642548382282257,
      -0.04314175620675087,
      0.5793651342391968,
      0.5335817933082581,
      -0.5444140434265137,
      -0.5129188299179077,
      0.19792702794075012,
      -0.26557955145835876,
      -0.20866218209266663,
      0.3079902231693268,
      0.46784669160842896,
      0.5106763243675232,
      0.381377637386322,
      0.0538044311106205,
      -0.6474757194519043,
      -0.6632261872291565,
      0.49218282103538513,
      0.1867196410894394,
      0.1824088841676712,
      -0.14447183907032013,
      0.1882517784833908,
      0.46940070390701294,
      0.5536808371543884,
      -0.29323098063468933,
      -0.9610238671302795,
      -0.3384135663509369,
      0.3407321274280548,
      -0.5458447337150574,
      0.19524115324020386,
      0.594243586063385,
      -0.29558366537094116,
      0.06823064386844635,
      0.18701061606407166,
      -0.4210364520549774,
      -0.15962286293506622,
      0.28078705072402954,
      -0.27857115864753723,
      0.2200663685798645,
      0.47098368406295776,
      0.011907014064490795,
      0.3116051256656647,
      0.4386957287788391,
      0.5945108532905579,
      0.3734467923641205,
      0.11954639852046967,
      -0.07431504130363464,
      -0.5274752378463745,
      0.042661070823669434,
      -0.4413173496723175,
      0.4849056005477905,
      0.0024936243426054716,
      -0.4793218672275543,
      0.016971033066511154,
      0.4229017496109009,
      0.3133954405784607,
      0.08687014877796173,
      0.2569577693939209,
      0.5008699893951416,
      -0.24429279565811157,
      0.2673681378364563,
      -0.4086817800998688,
      -0.5869347453117371,
      0.14056923985481262
    ],
    "net.2.weight": [
      [
        -0.0670754685997963,
        -0.03183750435709953,
        -0.002377056051045656,
        0.03948697820305824,
        -0.14667892456054688,
        0.10696443915367126,
        -0.05994627997279167,
        0.2287180870771408,
        -0.18942052125930786,
        -0.07698238641023636,
        0.07062503695487976,
        -0.033399634063243866,
        0.09207610040903091,
        -0.0511852502822876,
        -0.016385817900300026,
        -0.37989962100982666,
        -0.0651024803519249,
        0.06080803647637367,
        -0.07017864286899567,
        -0.05236450955271721,
        0.01588127389550209,
        -0.05033811181783676,
        0.1311258226633072,
        -0.3021496534347534,
        0.05779946967959404,
        0.14059409499168396,
        0.07879725098609924,
        0.11027985066175461,
        -0.27853456139564514,
        0.11171320825815201,
        -0.22555463016033173,
        -0.12168475240468979,
        -0.13043715059757233,
        0.12976710498332977,
        0.012692844495177269,
        -0.07593955099582672,
        0.04931441321969032,
        0.01327139139175415,
        0.258659690618515,
        0.019478732720017433,
        0.15249216556549072,
        0.03722657263278961,
        -0.04922107234597206,
        0.022054310888051987,
        -0.218361958861351,
        0.14510323107242584,
        -0.019100815057754517,
        -0.17619459331035614,
        0.09040167182683945,
        0.11879178136587143,
        0.040353529155254364,
        -0.10183487087488174,
        0.12077093124389648,
        0.12909989058971405,
        0.07536869496107101,
        0.010490627028048038,
        0.008633779361844063,
        -0.032093461602926254,
        0.04856085032224655,
        0.008020072244107723,
        -0.05774649977684021,
        0.114253930747509,
        -0.1369396597146988,
        -0.05302167683839798,
        -0.006056858226656914,
        -0.10898596793413162,
        0.09197511523962021,
        0.23640845715999603,
        -0.11291813105344772,
        0.13596941530704498,
        -0.0036848969757556915,
        -0.04148593172430992,
        -0.10734029114246368,
        -0.13237594068050385,
        0.142301544547081,
        -0.051505476236343384,
        -0.1426965296268463,
        0.12388912588357925,
        -0.03804117441177368,
        0.27464723587036133
      ],
      [
        0.15159477293491364,
        -0.10389023274183273,
        -0.02236715704202652,
        -0.1926349401473999,
        0.05376628786325455,
        0.05255088955163956,
        0.1227780133485794,
        -0.1728048175573349,
        0.15337637066841125,
        -0.259029358625412,
        -0.02919396385550499,
        0.09525587409734726,
        -0.030458105728030205,
        -5.323949153535068e-06,
        0.06995588541030884,
        0.5536313056945801,
        0.07826725393533707,
        -0.07393147051334381,
        0.09443072229623795,
        -0.4461764097213745,
        -0.22840838134288788,
        0.06712306290864944,
        0.05311287194490433,
        0.19827434420585632,
        0.1237579733133316,
        0.07303889840841293,
        0.20679159462451935,
        -0.11447808146476746,
        0.31932464241981506,
        -0.01698496751487255,
        -0.13817250728607178,
        0.10489611327648163,
        0.3839520812034607,
        0.002916688797995448,
        0.03628825768828392,
        0.36916494369506836,
        -0.04685157909989357,
        0.11414402723312378,
        0.15318645536899567,
        -0.09731297940015793,
        -0.0275204386562109,
        -0.20347166061401367,
        -0.0414639487862587,
        0.028426822274923325,
        -0.292784184217453,
        -0.2538486123085022,
        -0.03955801948904991,
        0.17752835154533386,
        -0.2726060450077057,
        -0.14862003922462463,
        0.1287180632352829,
        -0.08018721640110016,
        0.016422312706708908,
        0.02005414105951786,
        -0.09020985662937164,
        -0.23075957596302032,
        0.18812328577041626,
        -0.09927983582019806,
        -0.01783440075814724,
        -0.32181790471076965,
        -0.1459265500307083,
        0.10294044017791748,
        0.04799283295869827,
        0.06536312401294708,
        -0.022971684113144875,
        -0.045559387654066086,
        0.15328729152679443,
        -0.13430602848529816,
        0.16199849545955658,
        -0.04874366149306297,
        -0.01224470417946577,
        0.030655380338430405,
        0.02530645579099655,
        -0.18935264647006989,
        -0.11850402504205704,
        -0.11378805339336395,
        0.23335501551628113,
        -0.17668630182743073,
        0.05370704457163811,
        0.12477393448352814
      ],
      [
        -0.0013866635272279382,
        -0.016055164858698845,
        -0.00014397368067875504,
        0.06723105907440186,
        -0.0917196199297905,
        -0.03992491587996483,
        0.19351790845394135,
        -0.05710698664188385,
        0.1942724883556366,
        0.19381475448608398,
        0.036653127521276474,
        -0.02363816648721695,
        0.06641438603401184,
        -0.031736116856336594,
        -0.23590892553329468,
        0.007347786333411932,
        -0.15797658264636993,
        0.08090666681528091,
        0.011499728076159954,
        0.28912121057510376,
        0.1509474813938141,
        -0.05322779342532158,
        0.062135156244039536,
        -0.015561720356345177,
        -0.10712148994207382,
        0.07109951227903366,
        -0.10135219246149063,
        0.014964387752115726,
        0.06578876078128815,
        -0.16816729307174683,
        0.2435777485370636,
        -0.09758176654577255,
        -0.16633853316307068,
        0.05329928174614906,
        -0.07533937692642212,
        0.1086064949631691,
        0.09877645969390869,
        -0.18031199276447296,
        -0.5001837611198425,
        0.0931331068277359,
        0.11952913552522659,
        0.36384105682373047,
        -0.051101140677928925,
        0.07543865591287613,
        0.5880129933357239,
        0.0425323024392128,
        0.06519360840320587,
        0.024255864322185516,
        0.0013345214538276196,
        0.010225128382444382,
        -0.050183285027742386,
        0.03756168857216835,
        -0.11285671591758728,
        0.08178635686635971,
        0.15523160994052887,
        0.01926088146865368,
        0.034660957753658295,
        -0.01819716766476631,
        0.14460912346839905,
        0.11378515511751175,
        0.0860687866806984,
        -0.017624298110604286,
        -0.0002664646599441767,
        -0.06561346352100372,
        0.10071670264005661,
        -0.09244531393051147,
        -0.3147693872451782,
        -0.22763673961162567,
        -0.19092081487178802,
        0.06365826725959778,
        -0.030353005975484848,
        -0.11650675535202026,
        -0.10122010856866837,
        0.2264339029788971,
        0.0680687427520752,
        0.04786687716841698,
        0.06815015524625778,
        0.0379302017390728,
        -0.07183793932199478,
        -0.2742191255092621
      ],
      [
        -0.04264570772647858,
        -0.06808038800954819,
        -0.22851896286010742,
        0.13340212404727936,
        0.021471647545695305,
        -0.034433476626873016,
        0.07963885366916656,
        -0.08292173594236374,
        0.08239752799272537,
        0.10117816179990768,
        0.013755546882748604,
        0.1314685046672821,
        0.037886518985033035,
        0.16056130826473236,
        -0.2655533254146576,
        0.12705710530281067,
        -0.13143090903759003,
        0.057689860463142395,
        0.08148840069770813,
        0.046136606484651566,
        0.129311203956604,
        0.06495703756809235,
        0.06803102791309357,
        0.10113955289125443,
        0.015171199105679989,
        0.04796532914042473,
        -0.3769586980342865,
        0.012092114426195621,
        0.16432148218154907,
        -0.06769859790802002,
        0.12517963349819183,
        0.0168423131108284,
        0.019480885937809944,
        0.09371808916330338,
        0.06434403359889984,
        0.18115265667438507,
        -0.04325291886925697,
        -0.1382683664560318,
        -0.020982716232538223,
        0.03524976968765259,
        0.09791294485330582,
        -0.5550470352172852,
        -0.09940376877784729,
        0.04281042516231537,
        0.4432738423347473,
        -0.13616943359375,
        0.03703971952199936,
        -0.10260536521673203,
        0.0681246668100357,
        -0.025683103129267693,
        0.08799301832914352,
        -0.10370076447725296,
        -0.07238126546144485,
        0.09248559921979904,
        0.13518421351909637,
        0.16490332782268524,
        0.06933660060167313,
        -0.04726783558726311,
        0.08314099907875061,
        -0.05801459774374962,
        0.049168314784765244,
        -0.2388773262500763,
        -0.013307689689099789,
        -0.03383094072341919,
        -0.02578316628932953,
        -0.04475922882556915,
        -0.2593522071838379,
        -0.13352259993553162,
        -0.01624310575425625,
        0.01088119950145483,
        -0.03432789444923401,
        -0.07509466260671616,
        -0.18494561314582825,
        0.04982277378439903,
        0.13886959850788116,
        -0.021729376167058945,
        -0.1367468386888504,
        -0.3234694004058838,
        0.038790713995695114,
        -0.18053819239139557
      ]
    ],
    "net.2.bias": [
      -0.14326949417591095,
      -0.3021355867385864,
      0.24012835323810577,
      -0.054993659257888794
    ]
  },
  "F2": {
    "n_in": 4,
    "n_hid": 60,
    "n_out": 4,
    "activation": "tanh",
    "net.0.weight": [
      [
        0.19586941599845886,
        0.05263631418347359,
        0.12551908195018768,
        0.23864316940307617
      ],
      [
        -0.38019219040870667,
        0.30568721890449524,
        -0.15112580358982086,
        -0.1675110012292862
      ],
      [
        0.20574124157428741,
        0.2138839066028595,
        -0.4528518319129944,
        -0.12033822387456894
      ],
      [
        0.2807513475418091,
        0.5545149445533752,
        0.8604781031608582,
        -0.30273422598838806
      ],
      [
        -0.29837915301322937,
        0.36887499690055847,
        0.06249307096004486,
        0.45069530606269836
      ],
      [
        -0.19642281532287598,
        -0.1072966530919075,
        0.15849940478801727,
        -0.46420639753341675
      ],
      [
        0.12738661468029022,
        0.335614949464798,
        -0.0771135613322258,
        -0.032170090824365616
      ],
      [
        0.21746957302093506,
        -0.29622015357017517,
        0.7552291750907898,
        -0.39198148250579834
      ],
      [
        -0.5247970819473267,
        -0.043676357716321945,
        0.5177243947982788,
        -0.03563862293958664
      ],
      [
        0.1378209888935089,
        -0.49365657567977905,
        0.038002859801054,
        -0.06815880537033081
      ],
      [
        0.14319448173046112,
        0.3702455163002014,
        0.28020626306533813,
        -0.16830125451087952
      ],
      [
        0.0008015726925805211,
        -0.32169172167778015,
        0.03662263974547386,
        0.32098132371902466
      ],
      [
        -0.21115101873874664,
        0.23895852267742157,
        -0.4700109362602234,
        -0.10699327290058136
      ],
      [
        0.10372047871351242,
        -0.2779468595981598,
        0.06884295493364334,
        0.06012658774852753
      ],
      [
        -0.01360597275197506,
        -0.05746675655245781,
        0.39806026220321655,
        0.3743654489517212
      ],
      [
        -0.3626386523246765,
        0.24514402449131012,
        -0.33119067549705505,
        -0.46315404772758484
      ],
      [
        0.12104517221450806,
        -0.05522488057613373,
        -0.33280041813850403,
        -0.4937674403190613
      ],
      [
        -0.19481772184371948,
        0.10557202249765396,
        -0.37859585881233215,
        -0.45835238695144653
      ],
      [
        0.272257924079895,
        -0.24731983244419098,
        -0.5629240870475769,
        -0.09656864404678345
      ],
      [
        -0.09155891835689545,
        -0.4489089548587799,
        -0.36510083079338074,
        0.015160072594881058
      ],
      [
        -0.4136177599430084,
        -0.10702590644359589,
        -0.3363661766052246,
        -0.2716507017612457
      ],
      [
        0.09196263551712036,
        -0.7056146264076233,
        -1.0007048845291138,
        0.4493313431739807
      ],
      [
        -0.020823299884796143,
        0.3570360541343689,
        -0.37222564220428467,
        -0.32483333349227905
      ],
      [
        0.01982131041586399,
        0.048688821494579315,
        0.668291449546814,
        -0.5726051330566406
      ],
      [
        0.005892909597605467,
        0.25894033908843994,
        -0.2547202706336975,
        -0.2535300552845001
      ],
      [
        0.2682690918445587,
        -0.5646438598632812,
        0.04058324173092842,
        -0.32131361961364746
      ],
      [
        0.2965492606163025,
        -0.355750173330307,
        0.0888688862323761,
        -0.421542227268219
      ],
      [
        -0.5723179578781128,
        0.16709789633750916,
        0.550403356552124,
        -0.8254778981208801
      ],
      [
        -0.1814427524805069,
        0.39156368374824524,
        0.035608839243650436,
        0.16514801979064941
      ],
      [
        -0.35533201694488525,
        -0.07076575607061386,
        0.030343137681484222,
        0.4513237774372101
      ],
      [
        0.22641289234161377,
        -0.3125467598438263,
        0.26775792241096497,
        -0.03460606187582016
      ],
      [
        -0.18456242978572845,
        -0.3787834346294403,
        -0.2376498430967331,
        0.43808260560035706
      ],
      [
        -0.3543466329574585,
        -0.37617698311805725,
        -0.08596949279308319,
        0.009588366374373436
      ],
      [
        0.14987723529338837,
        0.10824378579854965,
        -0.11695140600204468,
        -0.2911595106124878
      ],
      [
        -0.019495384767651558,
        -0.2045348733663559,
        0.17259928584098816,
        -0.3318314850330353
      ],
      [
        -0.38064754009246826,
        -0.462662935256958,
        -0.2928256690502167,
        0.26569896936416626
      ],
      [
        0.3912442922592163,
        -0.4553373157978058,
        0.009390086866915226,
        0.18784920871257782
      ],
      [
        0.30641990900039673,
        0.5479139089584351,
        0.27575013041496277,
        -0.3670251667499542
      ],
      [
        0.41167116165161133,
        0.12289683520793915,
        0.5326521992683411,
        -0.0631679967045784
      ],
      [
        0.40512245893478394,
        0.5657972693443298,
        0.7481119632720947,
        -0.49778079986572266
      ],
      [
        -0.2529749870300293,
        -0.05160409212112427,
        -0.053583357483148575,
        0.5143368244171143
      ],
      [
        -0.21882884204387665,
        -0.49867984652519226,
        -0.56680828332901,
        -0.37803947925567627
      ],
      [
        0.26536405086517334,
        -0.335217148065567,
        -0.18653009831905365,
        -0.49776890873908997
      ],
      [
        0.21546177566051483,
        0.22369104623794556,
        -0.28588080406188965,
        0.1420154869556427
      ],
      [
        0.5583349466323853,
        0.21304267644882202,
        -0.08612611144781113,
        0.07129960507154465
      ],
      [
        -0.07539444416761398,
        0.2558858096599579,
        -0.33746233582496643,
        0.2366323471069336
      ],
      [
        0.18545515835285187,
        -0.39933082461357117,
        0.4334235191345215,
        0.4219849407672882
      ],
      [
        -0.26919683814048767,
        -0.2336331307888031,
        0.07971113920211792,
        -0.3953552544116974
      ],
      [
        0.14684395492076874,
        0.18034064769744873,
        0.5306320786476135,
        -0.5626016855239868
      ],
      [
        -0.40433061122894287,
        0.1407860964536667,
        0.19554392993450165,
        -0.3657190203666687
      ],
      [
        -0.39455369114875793,
        -0.24234984815120697,
        -0.08426301181316376,
        -0.39168670773506165
      ],
      [
        0.4871631860733032,
        0.019322747364640236,
        0.08043745160102844,
        0.5475390553474426
      ],
      [
        0.2852017879486084,
        -0.6218953728675842,
        0.3298759162425995,
        0.12221046537160873
      ],
      [
        0.4227706491947174,
        -0.32986071705818176,
        0.5066187977790833,
        0.36980801820755005
      ],
      [
        -2.151291847229004,
        -0.41635480523109436,
        0.47125357389450073,
        -1.2910443544387817
      ],
      [
        0.11378438770771027,
        0.18992643058300018,
        0.1318870484828949,
        0.4265802204608917
      ],
      [
        0.5056487321853638,
        0.4597751498222351,
        0.11841460317373276,
        0.3668212890625
      ],
      [
        -0.4661526381969452,
        -0.21297672390937805,
        0.08577794581651688,
        -0.15432126820087433
      ],
      [
        0.5296276211738586,
        0.40507006645202637,
        0.29205065965652466,
        0.29075703024864197
      ],
      [
        -0.2963882386684418,
        0.1427137702703476,
        0.09669536352157593,
        0.22470995783805847
      ]
    ],
    "net.0.bias": [
      0.31965336203575134,
      -0.08663555979728699,
      -0.1451302319765091,
      -0.053931355476379395,
      -0.1009257510304451,
      -0.5188106894493103,
      0.4283963441848755,
      0.2168361395597458,
      -0.18495899438858032,
      -0.1409897655248642,
      -0.2064206749200821,
      -0.8225870728492737,
      0.2174367904663086,
      -0.43194881081581116,
      0.4113670587539673,
      -0.6200271248817444,
      0.07384899258613586,
      0.06317953765392303,
      0.2848973572254181,
      0.23574531078338623,
      0.37676236033439636,
      1.096948504447937,
      -0.5138372182846069,
      -0.5159435272216797,
      -0.4964997470378876,
      0.021593960002064705,
      1.3663419485092163,
      -0.13124068081378937,
      -0.019942641258239746,
      -0.47608861327171326,
      0.3436968922615051,
      0.044604480266571045,
      -0.6635421514511108,
      -0.36281147599220276,
      0.5273573994636536,
      0.10963864624500275,
      -0.20174093544483185,
      0.1965140551328659,
      -0.09758282452821732,
      -0.7345331311225891,
      -0.5879648923873901,
      0.14647239446640015,
      -0.6137973070144653,
      -0.1356946974992752,
      -0.07430416345596313,
      -0.335766077041626,
      -0.21954262256622314,
      -0.4586065411567688,
      0.8452786207199097,
      0.00263644615188241,
      -0.429493248462677,
      -0.2992115318775177,
      0.23322945833206177,
      -0.2063785046339035,
      0.18113096058368683,
      0.14587025344371796,
      -0.31715354323387146,
      0.12404735386371613,
      -0.04669985920190811,
      0.45831912755966187
    ],
    "net.2.weight": [
      [
        0.1112869456410408,
        0.2489641159772873,
        -0.3091040551662445,
        -0.23110641539096832,
        0.04852164909243584,
        0.3484196662902832,
        0.08613332360982895,
        -0.011092010885477066,
        0.8531990647315979,
        0.22810594737529755,
        -0.2113799750804901,
        0.08045172691345215,
        0.033576272428035736,
        0.16684702038764954,
        0.035682614892721176,
        -0.15699292719364166,
        0.011269927024841309,
        0.17388518154621124,
        -0.25656160712242126,
        0.27892109751701355,
        0.41513165831565857,
        -0.1153736263513565,
        0.1142406240105629,
        0.12040361016988754,
        0.00024256616597995162,
        -0.014655126258730888,
        -0.06612326949834824,
        0.908034086227417,
        -0.13161718845367432,
        -0.03963751345872879,
        -0.07069846242666245,
        0.25444942712783813,
        -0.43110010027885437,
        0.07994508743286133,
        0.012260970659554005,
        0.6509010195732117,
        -0.21741695702075958,
        -0.5699542164802551,
        -0.5641767382621765,
        -0.47598379850387573,
        0.12695999443531036,
        0.5259135961532593,
        0.054383743554353714,
        -0.2910463809967041,
        0.23736180365085602,
        0.032598018646240234,
        0.13392430543899536,
        0.2749289572238922,
        -0.2515706717967987,
        0.5387274622917175,
        -0.20414413511753082,
        0.4269269108772278,
        -0.017740661278367043,
        -0.24127036333084106,
        1.4594813585281372,
        0.017674002796411514,
        -0.4741652309894562,
        -0.29025208950042725,
        -0.5684370994567871,
        -0.03721325099468231
      ],
      [
        -0.35090386867523193,
        0.18545909225940704,
        -0.10921849310398102,
        0.0641993060708046,
        -0.03722449764609337,
        0.02605205401778221,
        -0.2648617625236511,
        -0.06162561476230621,
        0.02968204952776432,
        0.32326021790504456,
        0.007305249106138945,
        -0.029903626069426537,
        0.11809159815311432,
        -0.053603969514369965,
        -0.049066007137298584,
        0.3411451280117035,
        0.03428305312991142,
        0.17512556910514832,
        0.08404829353094101,
        0.026275252923369408,
        -0.011017407290637493,
        0.054188843816518784,
        -0.03304162248969078,
        0.07478142529726028,
        -0.1255847066640854,
        0.13929185271263123,
        -0.08027258515357971,
        0.0038140236865729094,
        -0.09841039776802063,
        0.09377223998308182,
        -0.15724314749240875,
        -0.1021704450249672,
        0.4139443635940552,
        -0.3043000400066376,
        0.03342834487557411,
        0.09615609794855118,
        -0.5089462995529175,
        0.009874820709228516,
        0.0052278065122663975,
        0.10627645999193192,
        0.04378996416926384,
        -0.023902321234345436,
        -0.1517471969127655,
        -0.26010891795158386,
        -1.3578013181686401,
        -0.19229866564273834,
        -0.03580273315310478,
        0.24156837165355682,
        0.14692232012748718,
        0.10769642144441605,
        0.6578341126441956,
        -1.0020925998687744,
        -0.056938134133815765,
        -0.1319219022989273,
        -0.30387285351753235,
        -0.47419968247413635,
        -0.2718222141265869,
        1.0484737157821655,
        -0.2220364660024643,
        0.07080373913049698
      ],
      [
        -0.029705319553613663,
        -0.07977310568094254,
        0.055062394589185715,
        0.20947550237178802,
        0.046224355697631836,
        -0.05764470621943474,
        0.003361955750733614,
        0.04655636101961136,
        0.12867268919944763,
        0.13274763524532318,
        -0.019774138927459717,
        -0.28320178389549255,
        -0.08463021367788315,
        -0.020055873319506645,
        0.029674015939235687,
        0.06950647383928299,
        0.15285570919513702,
        0.08614026010036469,
        -0.07032264024019241,
        -0.10380759835243225,
        0.09168344736099243,
        0.3515913784503937,
        0.06648346036672592,
        -0.07191816717386246,
        0.14237798750400543,
        0.06761286407709122,
        -0.004526134580373764,
        0.07330359518527985,
        -0.006914958823472261,
        -0.06403177976608276,
        -0.057350341230630875,
        -0.010264718905091286,
        -0.019203929230570793,
        -0.00485885189846158,
        0.10317199677228928,
        -0.0035939672961831093,
        0.08722236752510071,
        -0.0925423875451088,
        0.053088270127773285,
        -0.08225242793560028,
        -0.007003897801041603,
        -0.06686799973249435,
        0.06191986799240112,
        0.05555494502186775,
        -0.016843022778630257,
        0.08218739926815033,
        0.05577363446354866,
        -0.030324511229991913,
        -0.15978319942951202,
        -0.0846283808350563,
        -0.021402867510914803,
        -0.09847242385149002,
        -0.03217906132340431,
        0.005951398052275181,
        -0.006071081385016441,
        -0.06336428225040436,
        0.082736536860466,
        0.05799445882439613,
        -0.02587859518826008,
        -0.07279399037361145
      ],
      [
        0.05514591559767723,
        0.10131202638149261,
        -0.03608890250325203,
        0.004625664092600346,
        -0.038530975580215454,
        -0.00010596862557576969,
        0.10656163096427917,
        -0.07256195694208145,
        0.05107685923576355,
        -0.0031121924985200167,
        0.021462714299559593,
        -0.14818494021892548,
        -0.033696986734867096,
        -0.1332273930311203,
        0.0036860210821032524,
        0.022157086059451103,
        0.032674118876457214,
        -0.10193559527397156,
        0.08742355555295944,
        0.048380594700574875,
        -0.04912297800183296,
        -0.07623353600502014,
        0.10492724925279617,
        -0.062396690249443054,
        0.03886529430747032,
        0.14283394813537598,
        -0.30235612392425537,
        0.03587530925869942,
        0.07610823214054108,
        0.05843072384595871,
        -0.07380200177431107,
        -0.03057139553129673,
        -0.049164339900016785,
        -0.042442988604307175,
        -0.10358518362045288,
        -0.10100117325782776,
        -0.0011368667474016547,
        -0.02848208323121071,
        -0.037775564938783646,
        -0.05062860995531082,
        0.03494706004858017,
        -0.11822477728128433,
        -0.06963176280260086,
        -0.06339215487241745,
        -0.04553106054663658,
        0.09010130912065506,
        -0.07967336475849152,
        -0.02688250131905079,
        0.03603050485253334,
        -0.03429991751909256,
        -0.03741207346320152,
        -0.023829864338040352,
        0.08222933858633041,
        -0.06196890398859978,
        -0.000851225748192519,
        0.040579043328762054,
        0.01582072116434574,
        -0.0028398861177265644,
        -0.0955718532204628,
        0.04044240340590477
      ]
    ],
    "net.2.bias": [
      -0.10856101661920547,
      0.05444732680916786,
      -0.16876548528671265,
      0.06765002012252808
    ]
  }
}